SVM-light Version V6.20
0 # kernel type
3 # kernel parameter -d 
1 # kernel parameter -g 
1 # kernel parameter -s 
1 # kernel parameter -r 
empty# kernel parameter -u 
1219 # highest feature index 
102 # number of training documents 
2 # number of support vectors plus 1 
0 # threshold b, each following line is a SV (starting with alpha*y)
1 1:-0.57695597 2:0.00056897657 3:5.6149529e-005 4:-0.031151317 5:-0.0079861954 6:0.045403641 7:-0.12254282 8:-0.16871075 9:0.032044489 10:0.030684318 11:-0.17392378 12:0.051755324 13:-0.1657947 14:-0.088400967 15:-0.094685778 16:-0.089296408 17:-0.13841972 18:0.023877542 19:-0.081659742 20:-0.18669073 21:-0.13411283 22:-0.14976501 23:-0.16351856 24:0.86785579 25:0.43798336 26:0.78718215 27:0.76143825 28:0.72675186 29:0.83361179 30:0.049584839 31:0.82154083 32:0.089824997 33:0.8728649 34:0.58245963 35:0.95229864 36:0.43168309 37:0.81943578 38:0.010278786 39:0.53433549 40:0.51395756 41:0.82898861 42:0.49415988 43:0.70173711 44:0.19361374 45:0.019123243 46:0.12321933 47:0.14212112 48:0.036686439 49:-0.12206588 50:0.015214494 51:0.19495392 52:0.0040587047 53:0.19313087 54:0.0084301354 55:-0.049028035 56:-0.37770212 57:0.21847089 58:0.014358847 59:-0.24001668 60:-0.033519842 61:0.24900845 62:0.17672536 63:0.015047787 64:0.058334686 65:-0.0004244271 66:-0.19375202 67:-0.0091765756 68:0.10093821 69:-0.14828533 70:-0.019069288 71:0.45259929 72:-0.22196275 73:0.3451564 74:0.14147438 75:-0.18243088 76:0.3102949 77:-0.027585572 78:-0.1634829 79:-0.053823259 80:-0.1156463 81:0.33110991 82:0.077738948 83:0.099823341 84:0.058074802 85:0.075329006 86:0.038649932 87:0.06203752 88:0.056645278 89:0.071002245 90:-0.014942121 91:0.14710146 92:-0.1166726 93:0.09833698 94:0.0570135 95:-0.026625523 96:0.33271265 97:0.05571536 98:-0.19540519 99:0.075321659 100:0.050343513 101:0.13622224 102:0.06910266 103:0.069030777 104:0.068708055 105:0.091098443 106:0.10999259 107:0.07901103 108:0.064373709 109:0.11026283 110:-0.018051079 111:0.096406266 112:-0.15397419 113:0.077212177 114:0.064125463 115:0.046508811 116:0.23198152 117:0.047032252 118:-0.26914868 119:0.11279152 120:0.080699794 121:0.10583016 122:0.067508399 123:0.088223904 124:-0.16281416 125:-0.2352706 126:-0.126385 127:-0.22594626 128:-0.31214812 129:-0.074002773 130:0.2148636 131:-0.30374306 132:0.50017226 133:-0.29330358 134:-0.27292156 135:-0.33195844 136:-0.0065543149 137:-0.34608874 138:0.30687329 139:-0.23075409 140:-0.3630693 141:-0.26241162 142:-0.31682849 143:-0.29414815 144:-0.018656399 145:0.079078726 146:0.041319471 147:0.048570666 148:0.057173289 149:-0.022982571 150:-0.077590324 151:0.02336912 152:-0.067322396 153:0.024101818 154:0.050675377 155:-0.020204583 156:0.042020407 157:-0.037535068 158:0.2211591 159:0.035735011 160:0.029919382 161:0.017388942 162:0.055909481 163:0.054081958 164:0.045311891 165:0.086431056 166:0.060054772 167:-0.17035173 168:0.033665553 169:-0.0059142401 170:0.026408866 171:0.097577937 172:0.17598563 173:0.08635892 174:0.087878019 175:0.044226408 176:0.029858943 177:-0.33474118 178:0.095128633 179:0.092759401 180:0.22351411 181:0.073329672 182:-0.0093936613 183:0.043741774 184:0.17522047 185:-0.00057414192 186:0.12501439 187:0.1831675 188:0.098921515 189:0.082633957 190:-0.0076761832 191:0.090991601 192:-0.40971839 193:0.13481824 194:0.049236618 195:0.11069886 196:0.035470538 197:0.063578218 198:-0.30314353 199:0.064480536 200:0.02240473 201:0.13135079 202:0.044251215 203:0.090703897 204:0.86877733 205:0.00093002548 206:0.0026011497 207:0.10902207 208:0.11234551 209:0.14982277 210:0.10008322 211:0.12662366 212:0.073157884 213:-0.019124992 214:0.11832272 215:-0.05102193 216:0.12734365 217:0.10256474 218:0.18037464 219:0.028664367 220:0.082482256 221:-0.024173157 222:0.10216927 223:0.11806667 224:0.11394538 225:0.0562291 226:0.12185422 227:0.40640917 228:0.25006908 229:0.19720532 230:0.28596735 231:0.46865049 232:0.28331754 233:-0.023565605 234:0.51306331 235:-0.049639333 236:0.56612647 237:0.35492903 238:0.34338057 239:0.22975788 240:0.36631656 241:-0.019176975 242:0.31446427 243:0.39274168 244:0.46500316 245:0.34951755 246:0.46506 247:0.028330248 248:-0.0057339435 249:0.10200781 250:0.14444049 251:0.22629625 252:-0.69443417 253:-0.030385604 254:0.63970333 255:-0.045559898 256:0.44262764 257:0.24090703 258:-0.2738128 259:-0.56483382 260:0.18796425 261:-0.031239066 262:-0.34182689 263:-0.096973136 264:0.56960148 265:0.27522612 266:0.24910441 267:-0.0022743619 268:0.0073356577 269:-0.15518665 270:-0.31988809 271:0.0058749779 272:0.32563439 273:0.021610338 274:-0.21800709 275:0.5776431 276:-0.18359493 277:-0.058300011 278:-0.14100508 279:0.8674016 280:-0.45809063 281:0.74994576 282:0.17623544 283:-0.0065563153 284:-0.206092 285:0.033515327 286:0.0052082366 287:-0.023030099 288:0.04737876 289:-0.0011855508 290:-0.023907525 291:-0.075452037 292:0.18167511 293:0.010333932 294:-0.15808156 295:0.10214999 296:-0.15591656 297:-0.021943448 298:-0.059382018 299:0.018295797 300:-0.099005587 301:-0.11327507 302:0.050960947 303:-0.033890937 304:-0.12409569 305:-0.078778759 306:-0.083019182 307:-0.041160576 308:0.028478807 309:0.058322664 310:-0.024457095 311:-0.096453451 312:0.085123055 313:0.008707203 314:-0.13984644 315:-0.11612348 316:-0.13883995 317:-0.025617823 318:-0.023479607 319:-0.10536774 320:-0.10693394 321:-0.15241396 322:0.050083794 323:-0.0045182938 324:-0.11392558 325:-0.10642834 326:-0.075556144 327:-0.10275519 328:0.036540862 329:0.054292571 330:0.0056568608 331:-0.042193111 332:0.0064291949 333:-0.0047178152 334:-0.14248058 335:0.040382974 336:-0.11717155 337:-0.038785394 338:-0.019748975 339:-0.099522576 340:-0.065797538 341:0.013853145 342:-0.017791595 343:-0.076329447 344:-0.14837556 345:-0.05794742 346:-0.028528642 347:-0.21444279 348:-0.19138151 349:-0.22279258 350:-0.20514715 351:-0.26462477 352:-0.17125937 353:0.075404368 354:-0.2691673 355:0.089752369 356:-0.2546528 357:-0.20346856 358:-0.29322925 359:-0.35285756 360:-0.34216776 361:0.41105485 362:-0.15736057 363:-0.19198036 364:-0.25978205 365:-0.29251114 366:-0.27704728 367:0.098604701 368:0.0025242122 369:-0.023339096 370:-0.010838891 371:0.11074121 372:0.072555542 373:-0.013327476 374:0.19864073 375:-0.060966603 376:0.16515835 377:0.13552666 378:-0.0092319166 379:0.022508547 380:-0.093455642 381:-0.016827479 382:0.021241326 383:0.067514114 384:0.17486781 385:0.071676329 386:0.10783728 387:-0.081199735 388:3.8692739e-005 389:-0.0048416383 390:-0.023181004 391:-0.013354598 392:-0.030997431 393:0.021854063 394:-0.018081281 395:0.51199406 396:-0.0050768461 397:-0.0072818398 398:-0.026746415 399:-0.0091338204 400:0.0051600197 401:0.7686823 402:-0.025499836 403:-0.0030224135 404:-0.02865603 405:-0.014107551 406:0.0048610447 407:-0.51921552 408:0.0015398588 409:0.00079205405 410:0.26005316 411:0.042207874 412:0.3578738 413:0.32318923 414:0.046631385 415:0.39871207 416:0.0086226575 417:0.082669929 418:-0.0014633323 419:0.14840978 420:0.053406704 421:0.1600675 422:0.071305402 423:0.10964501 424:-0.01403337 425:0.43275544 426:0.44849411 427:0.13238636 428:-0.037260491 429:0.081294768 430:0.3350032 431:0.065757319 432:0.40941101 433:0.47562096 434:0.19309214 435:0.38634723 436:0.0010908757 437:0.22588389 438:0.035639156 439:0.30770016 440:0.10902178 441:0.24792163 442:0.13550867 443:0.3859348 444:-0.021174761 445:0.77514958 446:0.8610785 447:0.25575608 448:0.039795451 449:0.21697117 450:0.032735508 451:-0.2301963 452:-0.018116357 453:-0.016893152 454:0.059109438 455:-0.20419973 456:-0.014658508 457:-0.018772673 458:-0.072218351 459:-0.0053813341 460:-0.15186496 461:-0.36761621 462:-0.55906123 463:-0.19423279 464:-0.030147223 465:0.32080513 466:0.45874536 467:0.052429795 468:-0.059462558 469:-0.10307512 470:-0.047808852 471:-0.061297402 472:-0.31612894 473:-0.14467268 474:0.0078792432 475:-0.16982108 476:-0.019568618 477:0.22052024 478:-0.21093616 479:0.1466434 480:0.02313889 481:-0.24648505 482:0.23750645 483:-0.15173444 484:-0.19326238 485:-0.15944463 486:-0.21872 487:0.14218836 488:0.0045990711 489:0.035333306 490:-0.046562377 491:-0.0057019237 492:-0.11016497 493:-0.10018184 494:-0.024571229 495:-0.020069484 496:-0.010102789 497:0.016244562 498:-0.056977313 499:-0.03011773 500:-0.024910538 501:-0.13838275 502:0.22291054 503:-0.10763046 504:-0.15799911 505:-0.043458052 506:-0.087124489 507:0.0026767587 508:-0.015889224 509:-0.023776282 510:-0.042311046 511:-0.0099228583 512:-0.018217646 513:-0.06140656 514:-0.028153887 515:0.0090677757 516:-0.015501061 517:-0.027929313 518:-0.094024785 519:-0.037865359 520:-0.0077253692 521:-0.076089278 522:0.088685416 523:-0.091642268 524:-0.20911565 525:-0.0086903898 526:-0.047472555 527:-0.022613239 528:-0.0055692792 529:-0.014288467 530:-0.16735785 531:-0.28329343 532:-0.15457964 533:-0.26676112 534:-0.35922295 535:-0.0064079035 536:0.063242704 537:-0.30221567 538:0.093733713 539:-0.27201122 540:-0.28352058 541:-0.42001173 542:-0.2186275 543:-0.30470756 544:-0.0015031629 545:-0.10126517 546:-0.091936544 547:-0.27607641 548:-0.30247027 549:-0.31590599 550:-0.071669795 551:0.044307191 552:-0.014640545 553:-0.023328861 554:0.0030667481 555:-0.066942915 556:-0.093433052 557:-0.03788887 558:-0.25204685 559:-0.03921425 560:0.0033535596 561:-0.079837449 562:-0.045248576 563:-0.11335593 564:0.085502125 565:-0.017218761 566:-0.030768363 567:-0.042443532 568:0.012939143 569:0.0093272785 570:-0.18026432 571:-0.07062228 572:-0.0079349391 573:0.52272528 574:-0.02759851 575:-0.13550292 576:0.0090903975 577:-0.23442273 578:-0.011106552 579:-0.20866083 580:-0.19949526 581:-0.13961175 582:-0.017572211 583:0.44502971 584:-0.042839747 585:0.00037301611 586:-0.037967816 587:-0.22360867 588:-0.34318301 589:-0.21889813 590:-0.017503619 591:-0.0014223113 592:-0.020537568 593:-0.02884539 594:-0.016632367 595:-0.0090898992 596:-0.0094550075 597:-0.032328214 598:-0.36559534 599:-0.058629364 600:-0.014768743 601:-0.036405597 602:0.0017063997 603:-0.056288198 604:-0.38340482 605:-0.0057412535 606:-0.013643722 607:-0.033911284 608:-0.0056586275 609:-0.013916354 610:-0.54120111 611:0.0017688582 612:0.0012270639 613:-0.051489137 614:0.015959404 615:-0.063910767 616:-0.17370321 617:-0.15988018 618:0.025061637 619:-0.003024166 620:-0.20270099 621:-0.015262648 622:-0.16357607 623:-0.12434271 624:0.64517796 625:-0.095319562 626:0.29762125 627:-0.0066405665 628:-0.14486684 629:-0.14628483 630:-0.16422607 631:-0.026642423 632:-0.17437595 633:0.15771611 634:0.047151044 635:0.048993528 636:-0.016436616 637:0.095139667 638:0.19200775 639:-0.0049643177 640:0.054241911 641:0.010132929 642:0.12789695 643:0.0064252354 644:0.89888406 645:-0.047414165 646:0.55456954 647:-0.013199523 648:-0.088549472 649:-0.10324378 650:0.061265513 651:0.18412818 652:0.039625499 653:-0.063790284 654:0.091285892 655:-0.24014583 656:-0.19267811 657:-0.11141349 658:-0.23204383 659:-0.0094198827 660:-0.1196072 661:-0.030296136 662:-0.11603484 663:-0.059676606 664:0.46573329 665:-0.40200147 666:0.30886638 667:-0.013509487 668:-0.36141691 669:-0.27519011 670:-0.06367074 671:0.17558758 672:-0.065254882 673:-0.098307885 674:-0.05956427 675:-0.21071833 676:-0.057447683 677:-0.045230314 678:-0.13130844 679:-0.020756023 680:0.12992932 681:-0.20121719 682:0.0687676 683:0.023844643 684:-0.25448364 685:0.22185515 686:-0.17545839 687:-0.17686076 688:-0.15117238 689:-0.22317858 690:0.064185172 691:-0.02479363 692:0.0072389068 693:-0.075745963 694:-0.033832658 695:-0.070671007 696:-0.050156444 697:-0.062120073 698:-0.037680428 699:-0.021562165 700:-0.01363067 701:-0.09492173 702:-0.047496438 703:-0.034394953 704:-0.15465909 705:0.14276022 706:-0.10968408 707:-0.11795279 708:-0.05563803 709:-0.08155074 710:-0.018823737 711:-0.025763821 712:-0.023234177 713:-0.065701202 714:0.011212705 715:-0.030970965 716:-0.062169716 717:-0.058338881 718:-0.021427149 719:-0.019175533 720:-0.045090385 721:-0.14010414 722:-0.062857553 723:-0.019855633 724:-0.07593856 725:0.061080083 726:-0.088290997 727:-0.16044268 728:-0.02286076 729:-0.047166828 730:-0.03324401 731:-0.024468888 732:-0.020666502 733:-0.14208426 734:-0.2101292 735:-0.14970191 736:-0.21705402 737:-0.26360703 738:-0.032632776 739:0.042223293 740:-0.20338896 741:0.10674153 742:-0.19899456 743:-0.22458835 744:0.11335357 745:-0.13002183 746:-0.132632 747:0.039327297 748:-0.16254064 749:-0.17315914 750:-0.20771672 751:-0.26120329 752:-0.27836558 753:-0.084505945 754:0.042880848 755:-0.033870045 756:-0.04264006 757:-0.021224545 758:-0.082943633 759:-0.088692166 760:-0.05368413 761:-0.27523202 762:-0.060032386 763:-0.034087703 764:-0.10365544 765:-0.059102952 766:-0.13388401 767:-0.0041809482 768:-0.03685635 769:-0.04421287 770:-0.049901854 771:-0.025238466 772:0.0068813236 773:-0.16947956 774:0.14061062 775:-0.21042506 776:-0.38247851 777:-0.15480794 778:-0.1411556 779:-0.013691819 780:-0.24405336 781:-0.018547069 782:-0.20518231 783:-0.17545956 784:0.09066695 785:-0.016687207 786:0.52892971 787:-0.011296889 788:-0.2211004 789:-0.31435543 790:-0.22718088 791:0.47483626 792:-0.04381863 793:-0.027901407 794:-0.0001033563 795:-0.07063441 796:-0.046407983 797:-0.0050773784 798:0.0043738675 799:-0.0082667219 800:-0.012440971 801:-0.45859414 802:-0.086446323 803:-0.019247551 804:-0.065716855 805:-0.014269601 806:-0.063987598 807:-0.37706995 808:-0.0007683094 809:-0.005224626 810:-0.032791842 811:-0.010016179 812:-0.01408537 813:0.30005151 814:-0.00033581015 815:0.00039409884 816:0.008250149 817:0.010861829 818:0.04165573 819:-0.023249013 820:0.053163771 821:-0.016051646 822:-0.009543662 823:0.045373365 824:-0.021498196 825:0.040602796 826:0.059915483 827:0.0012475947 828:-0.082524531 829:-0.091137879 830:-0.014941107 831:-0.025144575 832:-0.042516701 833:0.023666205 834:0.027473662 835:0.067606404 836:0.15048335 837:0.10759362 838:0.052770842 839:0.046859052 840:0.25397643 841:0.084050953 842:-0.0091071576 843:0.24994817 844:-0.022829162 845:0.27085781 846:0.19179113 847:0.061195675 848:0.068336256 849:-0.0072361934 850:-0.014279356 851:0.077125162 852:0.12357809 853:0.21268369 854:0.17675661 855:0.2423317 856:0.0087385746 857:0.013431097 858:-0.040509082 859:-0.021003943 860:0.19257036 861:-0.40621072 862:-0.011526908 863:0.40265006 864:-0.037377704 865:0.27990326 866:0.19097948 867:-0.179452 868:-0.22631083 869:-0.025080347 870:-0.023016525 871:-0.26373509 872:-0.13756616 873:0.34130681 874:0.18998171 875:0.1877607 876:-0.22348869 877:-0.13049662 878:-0.038748588 879:0.69505864 880:-0.22662267 881:-0.013528288 882:0.0092217289 883:-0.47202477 884:1.6098598 885:-0.41169256 886:-0.23170394 887:-0.48118106 888:0.58224326 889:0.3496435 890:0.20758788 891:0.12015325 892:0.034386255 893:-0.48921049 894:-0.20629698 895:-0.24762693 896:-0.13316281 897:-0.089232549 898:0.074864998 899:0.0094624134 900:-0.14570391 901:0.092562363 902:0.012957838 903:-0.31591681 904:0.18783879 905:-0.27022022 906:-0.077302784 907:-0.22475126 908:0.21281426 909:-0.26665106 910:-0.51327312 911:0.23661469 912:0.34938863 913:-0.28384051 914:-0.12470025 915:-0.13929191 916:-0.065430634 917:-0.043708757 918:0.10182255 919:0.073643818 920:-0.067992158 921:0.11028171 922:0.0033083449 923:-0.22007644 924:-0.51973587 925:-0.17899933 926:-0.029641168 927:-0.10811117 928:-0.11760981 929:-0.20816079 930:-0.33402702 931:0.15379524 932:0.24378581 933:-0.19426313 934:-0.082196981 935:-0.070096232 936:-0.093106665 937:0.0032883065 938:-0.032468051 939:-0.078233875 940:-0.018611509 941:-0.05404906 942:0.035889693 943:-0.070300691 944:0.12654485 945:-0.062575847 946:-0.017420223 947:-0.13707016 948:-0.086079508 949:-0.172327 950:0.054098491 951:-0.11396444 952:-0.15193959 953:-0.072185621 954:-0.011586404 955:-0.010314504 956:-0.18066524 957:-0.14588307 958:-0.070537277 959:-0.10134009 960:-0.16331376 961:-0.097019114 962:0.014734608 963:-0.27495393 964:-0.73301452 965:-0.23677857 966:-0.11514668 967:-0.25749299 968:-0.34491655 969:-0.3309893 970:0.28427291 971:-0.031062094 972:-0.019704811 973:-0.25654027 974:-0.19469243 975:-0.1764838 976:0.11649695 977:-0.080328703 978:0.10268154 979:0.035675757 980:0.040356729 981:0.1161746 982:-0.0056133671 983:0.10073236 984:-0.031160897 985:0.085442603 986:0.085207723 987:-0.0083793178 988:-0.0078760916 989:-0.28637025 990:0.0010779256 991:0.05802748 992:0.03451569 993:0.10953548 994:-0.092691824 995:0.062028356 996:0.042508412 997:0.00018073522 998:0.030022549 999:0.066712238 1000:-0.031187419 1001:-0.0094666816 1002:0.0066643213 1003:0.02267009 1004:0.52452749 1005:0.071973704 1006:0.001536184 1007:0.0062827086 1008:-0.0022205401 1009:0.019550154 1010:-0.31082669 1011:0.0079045417 1012:0.017009033 1013:0.027763138 1014:-0.0086727422 1015:-0.047398522 1016:0.15482344 1017:-0.00010171126 1018:0.0006195259 1019:0.033144206 1020:0.034259073 1021:0.05062709 1022:-0.0066492688 1023:0.081015021 1024:-0.0028142396 1025:-0.0082901753 1026:0.068966195 1027:-0.04066145 1028:0.056493409 1029:0.060237102 1030:-0.03197749 1031:-0.077311069 1032:-0.10906279 1033:-0.012792625 1034:-0.010678737 1035:-0.02109265 1036:0.060387578 1037:0.020447332 1038:0.068446785 1039:0.18330561 1040:0.12985639 1041:0.092811219 1042:0.064585872 1043:0.27494112 1044:0.1218738 1045:-0.014010656 1046:0.24836782 1047:-0.040902659 1048:0.26915804 1049:0.20144372 1050:0.058380511 1051:0.041387372 1052:0.010036804 1053:-0.014691696 1054:0.12178054 1055:0.15439519 1056:0.21409582 1057:0.15963651 1058:0.24776094 1059:0.022777874 1060:0.01573536 1061:-0.11556446 1062:-0.021839829 1063:0.19935891 1064:-0.42731613 1065:-0.018140528 1066:0.38873547 1067:-0.049534 1068:0.26078063 1069:0.18767942 1070:-0.24091092 1071:-0.28980011 1072:-0.018808931 1073:-0.021222236 1074:-0.24878046 1075:-0.11850341 1076:0.3431935 1077:0.17621042 1078:0.17392422 1079:-0.19627433 1080:0.11296051 1081:-0.14800723 1082:-0.21311267 1083:-0.20102976 1084:-0.048699383 1085:-0.012015457 1086:-0.53214508 1087:1.1002549 1088:-0.49690893 1089:-0.23475704 1090:0.46166724 1091:0.45712635 1092:0.94250631 1093:0.51002067 1094:-0.22056308 1095:-0.35989136 1096:-0.48444107 1097:0.012270775 1098:-0.25098658 1099:-0.15026022 1100:-0.078449726 1101:-0.13368669 1102:-0.1826798 1103:-0.16072206 1104:0.04914787 1105:-0.010882949 1106:-0.31189772 1107:0.0057521132 1108:-0.28284609 1109:-0.091452278 1110:0.31860268 1111:0.0039258646 1112:0.017945888 1113:0.25550193 1114:-0.06107346 1115:-0.064290732 1116:-0.30342525 1117:-0.12347203 1118:-0.16126998 1119:-0.12223912 1120:-0.040344749 1121:-0.061746161 1122:-0.09112218 1123:-0.11560921 1124:0.016168209 1125:-0.0068152952 1126:-0.23869166 1127:-0.49229473 1128:-0.2045732 1129:-0.091873124 1130:0.24233951 1131:-0.24832429 1132:0.014765045 1133:0.073860206 1134:-0.039874293 1135:-0.028111817 1136:-0.22859938 1137:-0.092359468 1138:-0.10248937 1139:-0.10106407 1140:-0.0057241782 1141:-0.056854405 1142:-0.10866424 1143:-0.02166597 1144:-0.073971011 1145:-0.020048402 1146:-0.062393691 1147:-0.079373933 1148:-0.063134067 1149:-0.034311641 1150:-0.16693375 1151:-0.096663833 1152:-0.19681415 1153:-0.023408728 1154:-0.11414085 1155:-0.15338002 1156:-0.08140374 1157:-0.032205027 1158:-0.017367497 1159:-0.16324504 1160:-0.10493556 1161:-0.10898829 1162:-0.11325599 1163:-0.1153425 1164:-0.10937288 1165:0.030991461 1166:-0.21203168 1167:-0.42803809 1168:-0.17353015 1169:-0.11580239 1170:0.063497089 1171:-0.31778514 1172:-0.11780592 1173:-0.20158295 1174:-0.084048167 1175:-0.083399735 1176:-0.20189878 1177:-0.15692821 1178:-0.13698708 1179:0.08933036 1180:-0.078614913 1181:0.078962781 1182:0.0052680732 1183:-0.0023570575 1184:0.093842626 1185:-0.0028666023 1186:0.081525072 1187:-0.054204509 1188:0.076883279 1189:0.066342421 1190:0.022329632 1191:-0.01023198 1192:-0.25939235 1193:-0.025242448 1194:0.048699178 1195:0.026779335 1196:0.093056574 1197:-0.10124408 1198:0.049109351 1199:-0.091124132 1200:0.0018803816 1201:-0.059023332 1202:-0.15144537 1203:-0.032669753 1204:-0.037453812 1205:-0.0031204727 1206:-0.050811227 1207:0.19738635 1208:-0.056639407 1209:-0.0094746705 1210:0.011887306 1211:-0.011552976 1212:0.031987406 1213:0.60576272 1214:-0.04037568 1215:-0.017523002 1216:-0.063754775 1217:-0.0057961163 1218:-0.0201647 #
