SVM-light Version V6.20
0 # kernel type
3 # kernel parameter -d 
1 # kernel parameter -g 
1 # kernel parameter -s 
1 # kernel parameter -r 
empty# kernel parameter -u 
1219 # highest feature index 
117 # number of training documents 
2 # number of support vectors plus 1 
0 # threshold b, each following line is a SV (starting with alpha*y)
1 1:1.2588177 2:-0.0001459573 3:-0.00016489072 4:0.065796308 5:0.08966247 6:-0.065545931 7:-0.0044883275 8:-0.098567858 9:-0.0040795067 10:0.01109925 11:-0.013706849 12:-0.10002512 13:-0.051143531 14:0.086774565 15:0.036517169 16:-0.16888589 17:-0.045314305 18:0.01638145 19:0.014230314 20:0.023982454 21:-0.088081591 22:-0.011026287 23:0.036329009 24:0.65992492 25:0.136135 26:0.26976302 27:0.32412544 28:0.55873752 29:0.39835095 30:0.57606387 31:0.52571511 32:0.18356578 33:0.62323719 34:0.45147115 35:0.45503378 36:0.18415241 37:0.36889625 38:0.18126506 39:0.32470933 40:0.28122997 41:0.52756298 42:0.30573711 43:0.51049954 44:-0.059491161 45:-0.15686616 46:1.247453 47:0.65064478 48:-0.18384984 49:-0.59657007 50:0.30397829 51:0.087824754 52:0.2943252 53:0.02437898 54:-0.16724996 55:-0.16123213 56:-1.0482886 57:0.013425184 58:0.5959363 59:-0.48468861 60:-0.36052272 61:0.16361515 62:-0.060770173 63:-0.13671584 64:-0.12619133 65:0.030856533 66:-0.30866814 67:-0.23899394 68:0.066048078 69:-0.13121259 70:0.097192608 71:0.23819242 72:-0.099194072 73:0.14997742 74:0.089755744 75:-0.21742412 76:0.73809612 77:-0.026103564 78:-0.55414039 79:-0.12377018 80:-0.18535002 81:0.12067053 82:0.24253801 83:0.20305723 84:-0.18628258 85:-0.056910887 86:-0.33231309 87:-0.2398366 88:-0.18173914 89:-0.078514703 90:-0.15027656 91:-0.14544746 92:-0.1426771 93:-0.16833949 94:-0.079630159 95:-0.14442694 96:0.11773221 97:-0.14033644 98:-0.63213605 99:-0.16130315 100:-0.14142308 101:-0.22107621 102:-0.064912744 103:-0.096720897 104:-0.23888838 105:-0.056224104 106:-0.2038171 107:-0.20578781 108:-0.13823971 109:-0.1306373 110:-0.22125553 111:-0.17337151 112:-0.17544791 113:-0.20537964 114:-0.10285716 115:-0.064159408 116:-0.052290354 117:-0.11009341 118:-0.38684884 119:-0.1853766 120:-0.090675734 121:-0.23249935 122:-0.097211294 123:-0.13234119 124:0.13260727 125:0.12941687 126:-0.08651422 127:0.044188116 128:-0.062095784 129:0.10930318 130:-0.015465102 131:-0.015347111 132:0.021210851 133:-0.0047761286 134:0.023265783 135:-0.052091211 136:-0.055727456 137:-0.052284267 138:0.5907138 139:0.011418707 140:0.00070963963 141:-0.0069317571 142:-0.15904579 143:-0.078618713 144:0.10887659 145:0.10577913 146:0.13593052 147:0.12639153 148:0.14856324 149:0.20249696 150:0.021552091 151:0.14251593 152:0.17589512 153:0.10165384 154:0.12071283 155:0.20493865 156:0.23224106 157:0.12293128 158:0.05886982 159:0.17347187 160:0.16647151 161:0.11803075 162:0.0962101 163:0.095234022 164:-0.018987169 165:0.011184511 166:0.15267892 167:-0.10317346 168:0.0029783072 169:0.033233888 170:-0.051920254 171:0.039005272 172:0.057560802 173:-0.019047933 174:-0.017269962 175:-0.0021296132 177:-0.26504508 178:-0.090527073 179:0.08511465 180:0.087577343 181:0.059832092 182:-0.00083318574 183:0.0051043332 187:-0.0048609176 189:0.034908831 192:-0.26747805 198:0.20276654 204:-0.038272012 205:0.00020959487 206:0.0010404163 207:-0.061355669 208:-0.058767412 209:0.045681085 210:0.017936788 211:0.047858756 212:-0.016873397 213:-0.064820215 214:0.074749105 215:0.077840999 216:0.014265103 217:-0.031572867 218:0.10438433 219:-0.011006894 220:0.01587454 221:0.59974462 222:-0.0075706341 223:0.018551311 224:0.063950934 225:0.040059254 226:-0.0036290982 227:0.20855385 228:0.0036694789 229:-0.0087867891 230:0.14199743 231:0.26940385 232:0.04459022 233:0.34243613 234:0.24156602 235:0.15492642 236:0.28138041 237:0.14541385 238:0.14398198 239:1.7715354e-005 240:0.13104229 241:0.87529743 242:0.10925861 243:0.1444017 244:0.28381008 245:0.19008346 246:0.18502283 247:-0.21550426 248:-0.21641618 249:1.3289679 250:0.89605469 251:-0.12763211 252:-0.73818636 253:0.22699991 254:0.20369262 255:0.2408278 256:0.047283869 257:-0.17348522 258:-0.36949512 259:-0.90060735 260:-0.079308093 261:1.6559281 262:-0.45036441 263:-0.27648047 264:0.2656391 265:-0.083552778 266:-0.1149871 267:0.11682238 268:0.023434561 269:-0.18199061 270:-0.22384742 271:0.035953384 272:0.37557274 273:0.12440535 274:-0.081693731 275:0.037209172 276:-0.0076169795 277:-0.1208493 278:-0.095726848 279:1.0087219 280:-0.13080643 281:0.073172159 282:0.16961579 283:0.030026646 284:-0.057104796 285:0.024697442 286:-0.00062070839 287:-0.19206887 288:-0.21353841 289:-0.57082409 290:-0.27745816 291:-0.23686349 292:-0.014126618 293:-0.17626098 294:-0.25466675 295:-0.23111197 296:-0.27150437 297:-0.25450942 298:-0.21963899 299:-0.30915615 300:-0.17487127 301:-0.97875267 302:-0.14322509 303:-0.19448671 304:-0.26105401 305:-0.22390051 306:-0.17606847 307:-0.072182313 308:-0.083817162 309:-0.30703679 310:-0.2209222 311:-0.22923551 312:0.028924873 313:-0.10271705 314:-0.1907732 315:-0.097908609 316:-0.19139688 317:-0.040814567 318:-0.10610794 319:-0.097538203 320:-0.090145476 321:-0.79221839 322:-0.12618467 323:-0.045197695 324:-0.093902089 325:-0.15422742 326:-0.22752565 327:0.088129021 328:0.20397611 329:0.12950994 330:0.19560401 331:0.22345795 332:0.15497848 333:-0.05114403 334:0.10244479 335:-0.0082381982 336:0.12107813 337:0.10879423 338:0.16318212 339:0.10904966 340:0.10154346 341:0.52887392 342:0.12610032 343:0.13987781 344:0.11456233 345:0.10073563 346:0.11887442 347:0.10687809 348:0.033618242 349:-0.23302445 350:-0.030726701 351:-0.075599015 352:0.1788272 353:-0.068944626 354:0.01096982 355:0.18031049 356:-0.094410658 357:-0.042589553 358:0.052021459 359:-0.003405791 360:-0.032373223 361:-0.2289672 362:0.062768832 363:-0.017847009 364:-0.095511727 365:-0.13077728 366:-0.017025545 367:0.17391574 368:0.084742181 369:0.050546937 370:-0.054551885 371:-0.0080500524 372:0.11532863 373:-0.01434321 374:0.11292929 375:0.049781132 376:0.082528159 377:0.12050682 378:0.11898043 380:-0.073884033 381:-0.037461687 382:0.017327741 383:0.025287034 384:0.1906904 385:0.048065376 386:0.1170357 390:0.02854641 392:0.063838094 395:0.20173566 401:0.82525456 407:0.041558322 408:0.00058586942 409:0.00023996097 410:0.2153111 411:-0.11029421 412:0.12795547 413:0.089779407 414:0.16831872 415:0.1262189 416:0.12364104 417:-0.030181233 418:-0.093903214 419:0.1945778 420:-0.057343274 421:0.28822014 422:-0.012239797 423:0.28109556 424:-0.34978402 425:0.34631202 426:0.32155004 427:0.011435722 428:0.049763039 429:0.13324806 430:0.19896087 431:0.074674278 432:-0.053234514 433:0.20387064 434:0.057542626 435:-0.0027807395 436:0.075937912 437:0.14362589 438:0.2891908 439:0.21643898 440:-0.011192187 441:-0.013146198 442:0.14456102 443:0.22143215 444:-0.45370531 445:0.65654802 446:0.57163358 447:0.15088187 448:0.0053919586 449:0.15616864 450:-0.061192296 451:-0.074000925 452:0.36819565 453:-0.10018262 454:0.010600002 455:-0.32234749 456:2.2423124e-005 457:-0.051061876 458:-0.070727222 459:-0.07799717 460:-0.14204979 461:-0.34112951 462:-0.30030707 463:-0.21993409 464:-0.67651713 465:0.49700275 466:0.54893672 467:-0.037232228 468:-0.068149313 469:-0.013554992 470:-0.05263849 471:-0.062232919 472:-0.42257631 473:-0.16178545 474:-0.0086359214 475:-0.16011181 476:-0.12221339 477:0.12354645 478:-0.11002813 479:0.082247496 480:-0.0012936188 481:-0.30585849 482:0.39136481 483:0.049673732 484:-0.36828884 485:-0.065493949 486:-0.083892368 487:0.040890653 488:0.060708035 489:0.044992398 490:-0.041939918 491:-0.057407297 492:-0.13005899 493:-0.16662449 494:-0.10068698 495:0.033711344 496:-0.14622256 497:-0.17167276 498:-0.00057333696 499:0.00049644138 500:0.034072168 501:-0.12240133 502:0.018304719 503:-0.033513416 504:-0.097657055 505:-0.10047398 506:-0.16827062 507:-0.060714204 508:-0.053623162 509:-0.053314846 510:-0.079179689 511:-0.036780946 512:-0.17786543 513:-0.18858355 514:0.066889659 515:-0.065525196 516:-0.14420119 517:-0.14401524 518:-0.035109945 519:-0.095907532 520:-0.028553607 521:-0.015468343 522:-0.089224167 523:-0.1588423 524:-0.14591829 525:-0.16038796 526:0.04681531 527:-0.07266438 528:-0.16625993 529:-0.13549761 530:-0.0044385674 531:0.088356525 532:0.0063000303 533:0.083802223 534:-0.039929353 535:0.22417198 536:0.047506213 537:-0.049186852 538:0.02623971 539:0.025049182 540:-0.005379634 541:-0.054888941 542:0.030016234 543:-0.013310092 544:-0.26039293 545:0.13218026 546:0.11611542 547:-0.011474552 548:-0.035340134 549:-0.098014191 550:0.023806872 551:0.2067295 552:-0.018259475 553:0.064324476 554:0.15490155 555:0.097158648 556:-0.00044030885 557:0.13924988 558:-0.025867596 559:0.18733022 560:0.081166834 561:0.10417893 562:0.13791361 563:0.049909599 564:0.19774614 565:0.03915669 566:0.11893711 567:0.031651549 568:0.088684708 569:0.022269951 570:-0.19254491 571:-0.00038808811 572:-0.16518314 573:0.53829414 574:0.052590266 575:-0.10379407 576:0.080776669 577:-0.22638997 578:-0.11378061 579:-0.16898222 580:-0.118942 581:-0.23624179 583:0.35438785 584:-0.43131471 585:0.061220363 586:0.086700283 587:-0.30453685 588:-0.14335032 589:-0.10014699 593:-0.017903611 595:-0.17678742 598:-0.093392648 604:-0.84354246 610:0.075291663 611:0.00081110443 612:0.00050470291 613:-0.10310274 614:-5.7577057e-007 615:-0.1572057 616:-0.23000653 617:-0.094516285 618:-0.072732545 619:-0.015468163 620:-0.19912909 621:-0.071518846 622:-0.035783507 623:-0.20160103 624:0.31660506 625:-0.26893666 626:0.13903026 627:0.0014297514 628:-0.088205487 629:-0.19857642 630:-0.087047487 631:-0.13786295 632:-0.10846696 633:0.37251404 634:0.049336392 635:-0.041647062 636:0.10422692 637:0.30883479 638:0.20660657 639:0.18868087 640:0.20623638 641:0.095878176 642:0.38400891 643:0.27911013 644:0.52038789 645:-0.030903665 646:0.36307418 647:0.62722015 648:0.13176998 649:0.16621804 650:0.32814753 651:0.11650718 652:0.18992153 653:-0.21521407 654:-0.055261187 655:0.65859103 656:0.13313133 657:-0.15677366 658:-0.16600025 659:0.30051565 660:-0.085638002 661:0.020059993 662:-0.042223837 663:-0.088833384 664:0.027452732 665:-0.63282979 666:0.050339755 667:0.60302812 668:-0.25640687 669:-0.25086531 670:-0.034767292 671:0.013546961 672:-0.12058936 673:-0.069460392 674:-0.031785864 675:-0.38951218 676:-0.093785152 677:0.12547207 678:-0.0021152953 679:-0.032571744 680:0.24318896 681:-0.072466783 682:0.16997103 683:0.0095337341 684:-0.18436259 685:0.57998347 686:-0.053438798 687:-0.67880332 688:-0.057388429 689:-0.15674771 690:0.20034158 691:0.093415596 692:0.1017943 693:-0.027578449 694:-0.068887644 695:-0.072730213 696:0.035150025 697:-0.0068244291 698:0.1059069 699:0.0055284551 700:-0.046217903 701:-0.04720718 702:-0.049855012 703:0.023373963 704:-0.09652777 705:0.32831952 706:-0.040521227 707:-0.37991387 708:-0.033181205 709:0.00058473501 710:-0.034537397 711:0.0080790315 712:0.037696883 713:-0.019616529 714:-0.034201823 715:-0.067793891 716:-0.11850577 717:0.043152366 718:0.016680157 719:-0.033994805 720:-0.044121642 721:-0.0030057111 722:-0.095132172 723:-0.018218886 724:-0.014421974 725:0.012111938 726:0.052128047 727:-0.48357096 728:-0.06743712 729:-0.010826013 730:-0.036949199 731:-0.23466803 732:0.025641659 733:0.027361179 734:0.036664918 735:-0.13935234 736:-0.0053564752 737:-0.042563681 738:0.11296454 739:0.070405491 740:-0.063438781 741:0.13374734 742:-0.096387655 743:-0.087625556 744:0.18469769 745:-0.14711025 746:0.010479759 747:0.40909275 748:0.012601715 749:0.019787086 750:-0.06900984 751:-0.060174819 752:-0.15023476 753:0.11218676 754:0.23125608 755:0.018329384 756:0.1132918 757:0.14924946 758:0.18027931 759:0.10277143 760:0.11651424 761:-0.20906286 762:0.043369483 763:0.069639601 764:0.17700078 765:0.13771151 766:0.099986486 767:-0.38727129 768:0.032951653 769:0.090376727 770:0.030298125 771:0.069651626 772:0.12927005 773:0.067252658 774:-0.060120251 775:-0.050534017 776:-0.19109592 777:-0.0077896747 778:-0.14502795 779:-0.088581279 780:-0.030409047 781:-0.055056166 782:-0.024327733 783:-0.063155174 784:0.12652321 786:0.45551285 787:-0.0063365879 788:-0.078909151 789:-0.16405329 790:-0.057702675 791:0.1583793 792:-0.083306596 796:0.039767355 798:-0.015989978 801:-0.0314225 807:-0.29109237 813:-0.23018073 814:-0.00039251597 815:-0.00031582036 816:-0.060592432 817:0.075942956 818:-0.17584206 819:-0.13361022 820:-0.021429887 821:-0.11917776 822:-0.016691068 823:0.011302675 824:0.014010454 825:-0.051108208 826:0.058061276 827:0.017555263 828:0.10326362 829:-0.044299487 830:-0.29549786 831:0.0033510688 832:-0.041962497 833:-0.0020650141 834:0.03616878 835:-0.10089966 836:-0.036337771 837:-0.012996752 838:-0.24555747 839:-0.21871069 840:-0.066622145 841:-0.15529154 842:0.2024235 843:-0.048376352 844:0.028911974 845:-0.12587443 846:0.10121761 847:-0.056144483 848:-0.044195458 849:-0.12107038 850:-0.11503412 851:-0.13089889 852:-0.04967789 853:-0.066674307 854:0.05554647 855:-0.018949045 856:-0.10891924 857:-0.21620262 858:0.60090852 859:0.12112615 860:-0.069611058 861:-0.13094026 862:0.12865329 863:-0.017839689 864:-0.070491038 865:-0.11345299 866:-0.12482776 867:-0.26553929 868:-0.12523554 869:-0.12977053 870:0.92429566 871:-0.12142579 872:-0.17709699 873:-0.012038249 874:-0.078870982 875:-0.1342053 876:-0.16967829 877:-0.084179141 878:0.2852143 879:0.21365173 880:-0.17449075 881:0.033428863 882:-0.15998885 883:-0.18493201 884:0.2551285 885:-0.21494393 886:-0.048355281 887:-0.14781816 888:0.20606583 889:0.054801702 890:0.41409132 891:-0.064284578 892:-0.067724243 893:-0.15192565 894:-0.026516747 895:-0.089028299 896:-0.16536021 897:-0.093849011 898:-0.21123829 899:-0.14451332 900:-0.35429201 901:0.003747927 902:-0.23826735 903:-0.38931334 904:0.013666808 905:-0.41734701 906:-0.046110727 907:-0.12326146 908:-0.29689822 909:-0.16808052 910:-0.53337526 911:-0.0053956979 912:-0.070579 913:-0.35215241 914:-0.10555544 915:-0.17867848 916:-0.10305279 917:-0.11166392 918:-0.10039879 919:-0.17532144 920:-0.19741341 921:0.07806173 922:-0.19851355 923:-0.1924573 924:-0.11437048 925:-0.20982645 926:-0.13068201 927:-0.12462078 928:-0.0088283867 929:-0.15686195 930:-0.42071992 931:-0.029843502 932:-0.0062058792 933:-0.27541229 934:-0.14806557 935:-0.19062501 936:0.13949615 937:0.10889107 938:0.065710813 939:0.1638957 940:0.13043341 941:0.12198137 942:0.071382962 943:0.19416809 944:0.049930815 945:0.10540465 946:0.11286844 947:0.14475314 948:0.23122962 949:-0.00099662028 950:-0.088101074 951:0.082001835 952:0.11095537 953:0.087161995 954:0.12678732 955:0.17483504 956:0.11313559 957:-0.033604421 958:0.11843591 959:0.051572662 960:-0.12396629 961:0.090060428 962:-0.012065477 963:-0.00091157184 964:-0.028938374 965:-0.030210592 966:0.0010588656 967:-0.0018089158 968:-0.058045235 969:-0.021075457 970:0.21690586 971:0.1210271 972:0.030104125 973:-0.033956319 974:-0.084720604 975:-0.076238513 976:-0.05211724 977:-0.034143489 978:-0.084829442 979:-0.16409877 980:-0.067767136 981:0.071466662 982:0.060175765 983:0.00060401222 984:0.049258295 985:0.057681128 986:-0.04816534 987:0.033877492 989:-0.21522397 990:0.46219823 991:-0.078873329 992:-0.06334088 993:0.014293385 994:-0.053692997 995:-0.008786045 999:-0.063951038 1001:0.023389254 1004:0.10315406 1010:-0.18407595 1016:-0.47143534 1017:-0.0005701374 1018:5.9309401e-005 1019:0.034099001 1020:0.1211893 1021:0.063035034 1022:0.036369298 1023:0.22801021 1024:0.018591575 1025:-0.15807012 1026:0.1384578 1027:-0.053250242 1028:0.11762862 1029:0.14560696 1030:0.18686381 1031:-0.11724793 1032:0.037676878 1033:-0.58189112 1034:0.11458384 1035:0.079954602 1036:0.14655961 1037:0.17920305 1038:0.12578686 1039:0.20158409 1040:0.12986539 1041:-0.11346374 1042:0.0077060545 1043:0.30031276 1044:0.056394596 1045:-0.0028369613 1046:0.11786957 1047:-0.0017839794 1048:0.28208694 1049:0.18901588 1050:0.095677637 1051:-0.026605956 1052:0.12423087 1053:-0.57215816 1054:0.14819054 1055:0.13465121 1056:0.18880805 1057:0.21604049 1058:0.30318019 1059:0.019068455 1060:-0.0083183553 1061:0.12286246 1062:0.0077584432 1063:0.14894439 1064:-0.54155809 1065:0.14033596 1066:0.33172894 1067:0.068304397 1068:0.24892013 1069:0.13485453 1070:-0.2297806 1071:-0.45128539 1072:0.080253966 1073:0.041220106 1074:-0.27732855 1075:-0.090056039 1076:0.36190534 1077:0.22648147 1078:0.1328246 1079:-0.095967866 1080:0.071440376 1081:-0.025289018 1082:-0.42303762 1083:-0.034092829 1084:0.15907857 1085:-0.11899866 1086:-0.21498273 1087:0.09097451 1088:-0.19024059 1089:-0.05149328 1090:0.29699218 1091:0.72979611 1092:0.088909902 1093:0.31647918 1094:0.029312402 1095:-0.12447446 1096:-0.16920014 1097:0.078232676 1098:0.053697418 1099:-0.19396099 1100:-0.06344074 1101:-0.33346149 1102:-0.20982456 1103:-0.24165583 1104:0.13737977 1105:-0.35997361 1106:-0.31604254 1107:-0.23189349 1108:-0.32247105 1109:-0.076643564 1110:-0.15918304 1111:-0.038504329 1112:-0.17047517 1113:0.49019143 1114:-0.14927301 1115:-0.23623621 1116:-0.33368269 1117:-0.16158311 1118:-0.18285118 1119:-0.28455812 1120:-0.25095165 1121:-0.34410039 1122:-0.18818031 1123:-0.29211777 1124:-0.084129155 1125:-0.2234717 1126:-0.31606221 1127:-0.11157933 1128:-0.35033461 1129:-0.23087473 1130:-0.058119278 1131:-0.25927147 1132:-0.2109303 1133:0.42689201 1134:-0.24319671 1135:-0.22349674 1136:-0.36531475 1137:-0.23427121 1138:-0.21909904 1139:0.12012277 1140:0.24892928 1141:0.056239221 1142:0.14754486 1143:0.21778923 1144:0.14132084 1145:-0.26730812 1146:0.071505331 1147:-0.29254788 1148:0.09632463 1149:0.078005522 1150:0.14914963 1151:0.082012914 1152:0.094197005 1153:-0.16766568 1154:0.15758736 1155:0.12861124 1156:0.064119361 1157:0.1325826 1158:0.10841567 1159:-0.02048184 1160:0.048775837 1161:-0.13097472 1162:0.025944859 1163:-0.10102924 1164:0.096121997 1165:-0.059351031 1166:-0.024477046 1167:0.046773344 1168:-0.0034451261 1169:0.020862801 1170:0.075189546 1171:0.031909943 1172:-0.12617603 1173:0.78455436 1174:0.036953967 1175:-0.02181056 1176:-0.037063215 1177:0.024234265 1178:-0.034259893 1179:0.02248092 1180:-0.0012748671 1181:0.097320743 1182:-0.025374077 1183:0.028038291 1184:0.028792838 1185:0.013892309 1186:0.10426045 1187:0.012236546 1188:0.072148584 1189:0.12702566 1190:-0.041009743 1192:-0.25574765 1193:0.10344182 1194:-0.0058802646 1195:0.027829515 1196:0.097423665 1197:-0.0085681686 1198:0.070099585 1202:0.018401805 1204:0.07064122 1207:0.087403499 1213:0.29068968 #
