SVM-light Version V6.20
0 # kernel type
3 # kernel parameter -d 
1 # kernel parameter -g 
1 # kernel parameter -s 
1 # kernel parameter -r 
empty# kernel parameter -u 
813 # highest feature index 
101 # number of training documents 
2 # number of support vectors plus 1 
0 # threshold b, each following line is a SV (starting with alpha*y)
1 1:-0.030510474 2:0.00092358544 3:0.00056818477 4:-0.06527143 5:-7.716925e-013 6:-0.093900688 7:0.18744884 8:0.088024318 9:0.095766947 10:-0.19861162 11:-0.1266841 12:-0.074540213 13:0.18781136 14:-0.099896155 15:-0.21436964 16:-0.11638334 17:-0.28104788 18:-0.05515578 19:0.2423553 20:0.05794799 21:-0.11192109 22:-0.084252909 23:0.48596838 24:0.24268034 25:-1.9292312e-013 26:0.22744508 27:0.36492455 28:0.54068959 29:0.36678493 30:0.47270364 31:0.46591777 32:0.0037300873 33:0.55618554 34:0.41516653 35:0.11094411 36:-0.02944519 37:0.30191782 38:-0.13647982 39:0.4559747 40:0.45180178 41:0.062351029 42:-0.07952553 43:0.46778864 44:-0.010401944 45:-0.0022592226 46:0.93732244 47:0.75015998 48:0.15924241 49:-0.50384063 50:0.24721424 51:-0.27064022 52:0.17620394 53:0.25054902 54:-0.51566517 55:-0.17782457 56:-0.81479383 57:0.013705906 58:-0.055382106 59:-0.50401932 60:-0.27303839 61:0.39708745 62:0.39877319 63:0.086292855 64:-0.050988365 66:-0.46954381 67:-0.2700164 68:0.05463532 69:-0.15243962 70:0.29909426 71:0.32672769 72:0.169451 73:0.02424573 74:0.13091913 75:-0.013467834 76:0.65846974 77:0.081568517 78:-0.14165139 79:0.068669274 80:-0.33794564 81:0.060347226 82:-0.31766099 83:0.1682722 84:0.21581672 85:-7.716925e-013 86:-0.57353413 87:-0.17435169 88:0.16890649 89:-0.070291147 90:0.34062198 91:-0.1989221 92:-0.35837212 93:-0.20153567 94:0.42886579 95:0.12432449 96:0.25784153 97:0.10898235 98:0.40563112 99:0.57558727 100:0.059106439 101:-0.48410437 102:-0.18572447 103:0.073272198 104:0.058891606 105:-0.0052817934 106:0.052571155 107:0.0020943116 108:0.14202258 109:0.035327122 110:-0.24061486 111:-0.071511663 112:-0.066186018 113:0.052767843 114:-0.14303499 115:0.089954033 116:0.072920792 117:0.097530589 118:0.26524895 119:0.074634425 120:-0.10024003 121:-0.013145072 122:0.0098409988 123:-0.16986552 124:-0.062613584 126:-0.50844461 127:-0.049613558 128:-0.43414897 129:0.20275113 130:-0.46391177 131:-0.040866107 132:-0.31938827 133:-0.12063432 134:-0.52613848 135:-0.20498116 136:-0.21455005 137:-0.72718519 138:0.023323931 139:-0.51159406 140:-0.028884126 141:-0.24203867 142:-0.14650463 143:-0.086478084 144:-0.04525578 145:0.062495228 146:-0.16408697 147:0.037688013 148:0.19096926 149:0.0016910651 150:0.30144405 151:0.035086289 152:-0.17347908 153:-0.052611019 154:-0.27836558 155:-0.050374426 156:0.088720866 157:0.16921914 158:0.56052315 159:-0.058101363 160:0.51396728 161:-0.048128866 162:0.072474368 163:0.082967862 164:-0.26628593 166:0.1560076 167:0.1771594 168:-0.00021197464 169:-0.11027492 170:-0.18278547 171:-0.045531884 172:0.3612622 173:-0.025409814 174:0.11800048 175:-0.2337992 177:0.051487833 178:-0.043405075 179:0.19212563 180:0.14034706 192:0.12702431 198:-0.14917225 203:0.3108339 204:-0.54161239 205:0.0018111134 206:0.0010811557 207:0.16573511 208:0.078268968 209:-0.062288187 210:-0.16328931 211:-0.36152488 212:0.23514046 213:-0.19640039 214:-0.15439978 215:0.23582026 216:-0.28580117 217:-0.11857676 218:0.28400347 219:0.048923135 220:-0.056563914 221:0.64193118 222:0.041740559 223:-0.41208333 224:0.16026655 225:0.19608562 226:0.089286961 227:0.20388733 228:0.15785073 229:-0.23311158 230:-0.17150696 231:-0.27313989 232:-0.14733247 233:0.20025553 234:-0.17956671 235:-0.097397216 236:0.13936041 237:-0.13533305 238:-0.031054871 239:0.022343718 240:0.35249367 241:0.4428924 242:-0.096836463 243:-0.15201813 244:0.13976935 245:0.04770159 246:0.1502669 247:-0.13740584 248:0.14997983 249:1.281551 250:0.43972215 251:-0.12677257 252:-0.6176874 253:0.21233571 254:0.27914947 255:-0.031887516 256:-0.50646049 257:-0.15119864 258:-0.42739952 259:-0.35833997 260:0.010709459 261:0.98025578 262:-0.0090481965 263:-0.31768295 264:0.11863773 265:-0.06007142 266:-0.54273957 267:0.32004341 268:0.029319093 269:-0.15603016 270:-0.6086306 271:-0.060409751 272:0.18820645 273:0.084176451 274:-0.31486461 275:0.21029927 276:-0.45043868 277:0.49792713 278:-0.083144896 279:1.0607932 280:-0.39934114 281:-0.013785485 282:0.21872604 283:-0.081427485 284:-0.099129327 285:0.27382016 286:-0.43046194 287:-0.036614619 288:0.10465164 289:-0.5547452 290:-0.64494723 291:-0.25589266 292:-0.011408523 293:-0.36618215 294:-0.17067128 295:-0.21281621 296:-0.45096183 297:0.090873033 298:-0.057637706 299:-0.4999041 300:-0.24013004 301:-1.1279643 302:0.0049335458 303:-0.1899519 304:-0.19908723 305:-0.37381372 306:-0.41409674 307:-0.086448468 308:0.11811127 309:-0.46657887 310:-0.33358181 311:-0.22459215 312:0.059435561 313:-0.19211204 314:-0.25884861 315:0.0021428261 316:-0.16798511 317:-0.01996127 318:0.25534877 319:0.077775732 320:-0.034593295 321:-0.87843972 322:0.29761776 323:0.11984507 324:-0.21804151 325:0.1837578 326:-0.17711782 327:-0.0085215457 328:0.080202073 329:-0.079275139 330:0.087749399 331:0.31920001 332:-0.2005332 333:0.13286769 334:-0.019981327 335:-0.043452676 336:0.017750138 337:0.22560839 338:-0.011543357 339:-0.033341944 340:0.063986942 341:1.0560751 342:0.20444821 343:0.050518069 344:0.021250397 345:0.59676939 346:0.041112226 347:-0.22717218 348:-0.20262577 349:-0.46448499 350:-0.24563405 351:0.015008058 352:-0.029477319 353:-0.27321616 354:0.038404409 355:0.10938209 356:-0.49875623 357:-0.35009697 358:0.37493601 359:-0.18779457 360:-0.063680775 361:-0.54402375 362:-0.010515885 363:0.09872549 364:-0.16371523 365:-0.012850616 366:-0.21568359 367:0.50829095 369:0.044054635 370:-0.066321425 371:0.040297113 372:0.053281609 373:0.0093902377 374:0.11822912 375:-0.080829948 376:0.011755735 377:-0.052826293 378:0.3414135 380:-0.21954204 381:0.11294267 382:-0.25311184 383:-0.38137695 395:0.093683355 401:0.471643 406:-0.37967926 407:0.22194362 408:0.0027587553 410:-0.028059132 411:-0.085831881 412:-0.13650014 413:-0.087060913 414:-0.37927771 415:0.27915686 416:-0.079530954 417:0.17597067 418:0.41070879 419:0.29145709 420:0.084633566 421:0.34643117 422:-0.16959614 423:0.0047212611 424:0.52112097 425:0.12539227 426:-0.37641677 427:0.095344156 428:0.17428225 429:0.20111825 430:0.04472293 431:-0.073672011 432:-0.027551159 433:0.095734708 434:-0.080101974 435:-0.13213199 436:0.063785896 437:0.0074495613 438:0.31124273 439:0.10638516 440:0.0045798668 441:0.083518676 442:0.016604867 443:0.33695412 444:0.15411128 445:-0.13867372 446:0.037065402 447:0.14495409 448:-0.25845125 449:0.085549362 450:-0.31054944 451:-0.076960497 452:1.1386925 453:0.61803812 454:-0.14819281 455:-0.1462374 456:0.1963066 457:-0.17009182 458:0.5343942 459:-0.038212799 460:0.22139731 461:0.021086412 462:-0.76827598 463:-0.1589324 464:0.6585387 465:-0.92725587 466:-0.56043261 467:0.033597793 468:-0.26078662 469:-0.28107193 470:-0.049479149 471:-0.070338629 472:0.1610693 473:-0.349675 474:-0.32832104 475:-0.11503083 476:-0.15599208 477:0.2549156 478:-0.11982504 479:0.18202776 480:0.42082229 481:-7.6926386e-005 482:0.52113187 483:-0.27285057 484:-0.84060776 485:-0.67431021 486:0.31933889 487:0.41883883 488:0.41659456 489:-0.14318034 490:-0.3500964 491:-0.077113353 492:-0.091049246 493:-0.2171881 494:-0.22767834 495:-0.21710077 496:-0.23513468 497:-0.10741646 498:-0.13495095 499:0.18592604 500:0.27238727 501:0.032665938 502:0.22526799 503:0.10930751 504:-0.89488631 505:0.070566259 506:0.39516073 507:0.17252158 508:0.020541258 509:-0.040589895 510:-0.36297855 511:-0.07270553 512:-0.038620789 513:-0.038339339 514:-0.045121349 515:-0.0073031415 516:0.25103772 517:-0.21452112 518:0.13433269 519:-0.050373539 520:0.50994855 521:0.43422791 522:-0.12537302 523:0.52826089 524:-0.99388039 525:0.15897867 526:-0.0027405554 527:-0.24593267 528:-0.031116948 529:0.0012054216 530:-0.13050608 531:-0.40497607 532:-0.28639129 533:-0.069340199 534:-0.14564645 535:-0.18200521 536:-0.54316938 537:-0.3684653 538:0.22978207 539:-0.16690721 540:-0.22466953 541:-0.16520005 542:-0.17602764 543:-0.19116512 544:0.98421454 545:-0.026046123 546:-0.20951205 547:0.013437208 548:-0.40254784 549:-0.066349946 550:-0.028664958 551:-0.43883616 552:0.044104747 553:0.023714595 554:0.22323433 555:-0.019355018 556:0.47617427 557:0.0024971925 558:-0.14406228 559:-0.14023733 560:-0.32773778 561:-0.042969998 562:0.091139331 563:0.48822111 564:-0.86345637 565:0.19199005 566:0.077487387 567:-0.037500888 568:-0.18871517 569:0.30282781 570:0.30141675 572:-0.0027424456 573:-0.43407127 574:-0.41654992 575:0.039060418 576:0.047428127 577:0.25667226 578:-0.12614915 579:0.056930516 580:-0.011703336 581:0.17422345 583:-0.23764591 584:-0.10888907 585:0.015992854 586:0.021078289 598:-0.22908154 604:0.060033504 609:-0.25590041 610:0.15286936 611:0.0021381637 613:0.23858996 614:0.49072397 615:0.11706644 616:0.46120748 617:0.43032736 618:0.10321693 619:-0.28922734 620:0.26836073 621:0.066827141 622:0.55096978 623:0.071248107 624:-0.183045 625:0.0008003189 626:-0.27831489 627:-0.23532146 628:0.087807566 629:-0.044729672 630:-0.10199255 631:0.23119761 632:0.7005685 633:0.1526065 634:0.44532272 635:-0.0099963127 636:0.43046898 637:0.2940585 638:0.27941537 639:0.074822038 640:0.43516541 641:0.21374944 642:0.33275381 643:0.52730197 644:-0.20712139 645:-0.010431317 646:-0.03206668 647:-0.20717475 648:0.48516536 649:-0.00081196858 650:0.24154717 651:-0.17198712 652:0.27361321 653:-0.18479308 654:-0.030303031 655:1.2387538 656:0.95991653 657:0.19563748 658:-0.67692906 659:-0.10663456 660:0.1563392 661:-0.11884366 662:0.18254972 663:0.033847596 664:-0.36360022 665:-0.73290354 666:-0.14129394 667:0.21994597 668:-0.58655244 669:-0.068508051 670:0.32601815 671:-0.15711865 672:-0.19491285 673:0.098139867 674:-0.015151516 675:-0.15097307 676:-0.53537351 677:0.36770198 678:0.45910248 679:0.097249351 680:0.25469354 681:-0.40453926 682:0.15154766 683:-0.36901376 684:0.11009818 685:0.92988741 686:-0.12660001 687:-0.39645767 688:0.069181077 689:0.1572838 690:-0.23004195 691:-0.6364755 692:0.12035631 693:0.22801167 694:-0.030303031 695:-0.10452199 696:-0.13981099 697:0.11290698 698:0.25766122 699:0.046063803 700:0.10026441 701:-0.4089101 702:0.048063017 703:-0.22119822 704:0.16210222 705:0.52373356 706:-0.10231896 707:0.30099818 708:-0.0010723289 709:0.37795028 710:-0.33901384 711:-0.16330303 712:-0.10735629 713:0.14726982 714:-0.029901292 715:0.11458397 716:-0.20007093 717:0.030372277 718:0.45454758 719:0.041903235 720:0.025995124 721:-0.089786969 722:-0.084880389 723:-0.010660002 724:-0.21348903 725:1.314057e-005 726:0.20845613 727:0.28980747 728:0.077728875 729:0.40627977 730:0.2090403 731:0.40751329 732:-0.08926589 733:0.16195995 734:-0.15111342 735:-0.22599351 736:0.086792894 737:-0.067772038 738:0.21358562 739:-0.31727874 740:-0.0095535619 741:0.042806286 742:0.19329226 743:-0.09172564 744:-0.0033949169 745:-0.28686905 746:-0.10720519 747:-0.58984339 748:0.053178947 749:-0.14539096 750:-0.10939775 751:0.29271919 752:0.074649192 753:-0.10253482 754:0.05044768 755:-0.41553849 756:-0.24722996 757:-0.17434433 758:-0.0026860505 759:0.1199602 760:-0.14993222 761:-0.052435219 762:-0.23784645 763:-0.35225448 764:0.021054244 765:-0.072337434 766:0.33725458 767:0.46989194 768:0.03934985 769:0.17933628 770:0.028182022 771:0.20883515 772:-0.44594583 773:-0.5434218 775:-0.19731981 776:0.32323331 777:0.37646478 778:0.017932896 779:0.1259671 780:-0.32936952 781:-0.15428309 782:-0.043276437 783:-0.053470854 784:-0.28183773 786:0.40570012 787:0.039351486 788:0.04499336 789:0.21995158 801:0.0083738863 807:-0.38250428 812:0.32474577 #
