SVM-light Version V6.20
0 # kernel type
3 # kernel parameter -d 
1 # kernel parameter -g 
1 # kernel parameter -s 
1 # kernel parameter -r 
empty# kernel parameter -u 
1219 # highest feature index 
124 # number of training documents 
2 # number of support vectors plus 1 
0 # threshold b, each following line is a SV (starting with alpha*y)
1 1:1.2573546 2:-9.2625094e-005 3:-0.00015634747 4:0.068573639 5:0.090906851 6:-0.064998135 7:-0.0036236893 8:-0.098617323 9:-0.0034506202 10:0.010303799 11:-0.015195252 12:-0.099522419 13:-0.049556289 14:0.088257506 15:0.035312477 16:-0.16997637 17:-0.045028586 18:0.013464385 19:0.017250732 20:0.0208811 21:-0.088679679 22:-0.012661051 23:0.038089305 24:0.65957195 25:0.13515161 26:0.26782531 27:0.32310817 28:0.55861163 29:0.40091971 30:0.57492101 31:0.52510345 32:0.18491207 33:0.62089586 34:0.44873789 35:0.45254287 36:0.18558486 37:0.36890537 38:0.18143319 39:0.32460734 40:0.28288496 41:0.52629524 42:0.30649337 43:0.50982851 44:-0.059611063 45:-0.15484808 46:1.244516 47:0.64941126 48:-0.186124 49:-0.59417534 50:0.30491245 51:0.086392321 52:0.29191276 53:0.024172956 54:-0.16757803 55:-0.16164581 56:-1.0468096 57:0.012359387 58:0.59452045 59:-0.48252249 60:-0.36057064 61:0.16428575 62:-0.057266138 63:-0.13829365 64:-0.12557948 65:0.031696562 66:-0.3058573 67:-0.24070439 68:0.065375365 69:-0.12991433 70:0.09717299 71:0.23722833 72:-0.098599009 73:0.15221712 74:0.088831976 75:-0.21817797 76:0.7323668 77:-0.026633661 78:-0.5511058 79:-0.12528206 80:-0.18591046 81:0.12244029 82:0.24122643 83:0.20224702 84:-0.18826915 85:-0.057571776 86:-0.33302957 87:-0.2398873 88:-0.18174921 89:-0.076136604 90:-0.15002593 91:-0.14608023 92:-0.14221703 93:-0.16900767 94:-0.081146866 95:-0.14388816 96:0.11857014 97:-0.14019734 98:-0.62962741 99:-0.16255473 100:-0.14259703 101:-0.22274522 102:-0.065505043 103:-0.097345091 104:-0.24047421 105:-0.055948455 106:-0.2048061 107:-0.20786704 108:-0.13666263 109:-0.13037066 110:-0.22100414 111:-0.17213574 112:-0.17530613 113:-0.20515364 114:-0.09985061 115:-0.064571947 116:-0.050100338 117:-0.11251492 118:-0.38491076 119:-0.18908559 120:-0.089417547 121:-0.23502634 122:-0.099278599 123:-0.13203001 124:0.13258086 125:0.12758151 126:-0.083543725 127:0.046749465 128:-0.062234696 129:0.11213857 130:-0.016107161 131:-0.014624285 132:0.020522287 133:-0.0033821263 134:0.021442899 135:-0.049496751 136:-0.054941379 137:-0.053530872 138:0.5881266 139:0.011852949 140:0.0038081654 141:-0.0025406939 142:-0.16030985 143:-0.076612175 144:0.11091751 145:0.10572417 146:0.14143009 147:0.1296688 148:0.14795083 149:0.20858766 150:0.022807505 151:0.14387305 152:0.17708918 153:0.10729548 154:0.11993792 155:0.2071649 156:0.23685895 157:0.12385865 158:0.056886673 159:0.17522658 160:0.17012422 161:0.12174008 162:0.098067068 163:0.09973982 164:-0.01825422 165:0.010322634 166:0.14933638 167:-0.098448373 168:0.0029940605 169:0.033216547 170:-0.049890261 171:0.03638351 172:0.056248602 173:-0.019809334 174:-0.019213738 175:-0.0036424245 177:-0.26221237 178:-0.093386017 179:0.085587099 180:0.090125531 181:0.060070958 182:-0.0016320503 183:0.0052419123 187:-0.0058931587 189:0.034465529 192:-0.26753017 198:0.20199624 204:-0.044313919 205:0.00035730147 206:0.0011754412 207:-0.062850639 208:-0.059172392 209:0.045135446 210:0.018225737 211:0.046808045 212:-0.017680341 213:-0.065622479 214:0.074913815 215:0.076627925 216:0.014164771 217:-0.032949481 218:0.10431167 219:-0.011717897 220:0.016575137 221:0.596901 222:-0.01048531 223:0.018315617 224:0.063523799 225:0.041285966 226:-0.0017419381 227:0.2090783 228:0.0028119117 229:-0.011592688 230:0.14067772 231:0.27058676 232:0.046826232 233:0.34228712 234:0.24095094 235:0.15285768 236:0.27672419 237:0.14436531 238:0.14300227 239:0.0035248906 240:0.13066858 241:0.87340891 242:0.10848872 243:0.14155091 244:0.28580377 245:0.18848877 246:0.18528038 247:-0.21526402 248:-0.21628316 249:1.3281326 250:0.89673603 251:-0.13089347 252:-0.74029678 253:0.22781782 254:0.20297976 255:0.24050531 256:0.046249323 257:-0.17526512 258:-0.36642304 259:-0.90028083 260:-0.081165917 261:1.6553963 262:-0.45240352 263:-0.2793121 264:0.26223072 265:-0.0813094 266:-0.11373211 267:0.11564226 268:0.023067759 269:-0.18307291 270:-0.22434931 271:0.034944896 272:0.37563875 273:0.12406506 274:-0.082143143 275:0.036728144 276:-0.010524473 277:-0.12024144 278:-0.096818201 279:1.010389 280:-0.13141042 281:0.068371587 282:0.17291541 283:0.027255373 284:-0.057449836 285:0.024587983 286:-0.00017793421 287:-0.19282532 288:-0.21336105 289:-0.57455677 290:-0.28023097 291:-0.23776141 292:-0.01386995 293:-0.17759505 294:-0.25678346 295:-0.23016259 296:-0.27347094 297:-0.25292814 298:-0.21584675 299:-0.31169173 300:-0.17321128 301:-0.9811911 302:-0.14128502 303:-0.19401358 304:-0.2595773 305:-0.22465809 306:-0.17697789 307:-0.074858718 308:-0.08380603 309:-0.30872917 310:-0.22405203 311:-0.23039575 312:0.029676519 313:-0.10246263 314:-0.18947768 315:-0.096725523 316:-0.18903202 317:-0.040938355 318:-0.10514779 319:-0.095724374 320:-0.090311885 321:-0.79242069 322:-0.12806283 323:-0.047101434 324:-0.092900395 325:-0.15458438 326:-0.22865309 327:0.086510114 328:0.19999366 329:0.12416373 330:0.18166474 331:0.21976312 332:0.15122788 333:-0.051269043 334:0.1009194 335:-0.0088594304 336:0.12430018 337:0.10730407 338:0.16112109 339:0.10829698 340:0.098570228 341:0.52623856 342:0.12610371 343:0.14118914 344:0.11075035 345:0.10169219 346:0.11833224 347:0.096074104 348:0.031670291 349:-0.24047622 350:-0.037699666 351:-0.07763195 352:0.17269412 353:-0.068161353 354:0.0064187213 355:0.18183847 356:-0.10357066 357:-0.043203749 358:0.04941659 359:-0.0076669608 360:-0.036097061 361:-0.23794077 362:0.059641324 363:-0.020363955 364:-0.10020593 365:-0.12939638 366:-0.01922269 367:0.17724967 368:0.083409369 369:0.049310636 370:-0.056217454 371:-0.0087938569 372:0.1130633 373:-0.013572923 374:0.11291733 375:0.048587508 376:0.08289846 377:0.12207329 378:0.11767881 380:-0.073527724 381:-0.043415401 382:0.017252378 383:0.024035236 384:0.19102988 385:0.047912318 386:0.1155277 390:0.02838408 392:0.062422156 395:0.20270818 401:0.81390405 407:0.019358167 408:0.0007028376 409:0.00017125186 410:0.22022876 411:-0.11195363 412:0.13205275 413:0.091605827 414:0.17307565 415:0.12832613 416:0.12471918 417:-0.026190858 418:-0.093735032 419:0.19757336 420:-0.058427308 421:0.29122135 422:-0.0092077553 423:0.28295007 424:-0.35131177 425:0.34865063 426:0.31976539 427:0.01231886 428:0.046850722 429:0.13589652 430:0.20039436 431:0.074910924 432:-0.052044697 433:0.20478521 434:0.059580274 435:0.0047267666 436:0.077541336 437:0.14548324 438:0.28752434 439:0.21485974 440:-0.0082942741 441:-0.0088974014 442:0.14351964 443:0.2237903 444:-0.45065412 445:0.65613228 446:0.57376641 447:0.15066771 448:0.0033440117 449:0.15645471 450:-0.060858492 451:-0.073981047 452:0.36757991 453:-0.098439887 454:0.010076975 455:-0.32510841 456:-0.00093146024 457:-0.051456798 458:-0.07110589 459:-0.079272449 460:-0.14113188 461:-0.33864787 462:-0.29915816 463:-0.22077653 464:-0.67632902 465:0.49573198 466:0.54817235 467:-0.036394134 468:-0.067822851 469:-0.015975168 470:-0.052761722 471:-0.0629768 472:-0.42132348 473:-0.15829816 474:-0.0083162943 475:-0.16346882 476:-0.12230561 477:0.11782501 478:-0.10776219 479:0.077508025 480:-0.0019812305 481:-0.30603337 482:0.38879654 483:0.049074117 484:-0.36186659 485:-0.06467098 486:-0.081441551 487:0.040253337 488:0.061907966 489:0.042012952 490:-0.041202221 491:-0.057395108 492:-0.13192637 493:-0.16848446 494:-0.10374886 495:0.033557881 496:-0.14163035 497:-0.17855769 498:-0.00017511654 499:-0.0019696525 500:0.031973261 501:-0.12660915 502:0.008368005 503:-0.035919819 504:-0.1017646 505:-0.10268988 506:-0.17092431 507:-0.062372375 508:-0.054591537 509:-0.055115778 510:-0.079781167 511:-0.040007677 512:-0.18324614 513:-0.18777758 514:0.06192581 515:-0.069353595 516:-0.14311759 517:-0.14982291 518:-0.035530005 519:-0.099728547 520:-0.028053535 521:-0.020021034 522:-0.095360331 523:-0.16065842 524:-0.14997219 525:-0.15919133 526:0.045354635 527:-0.082018763 528:-0.16789238 529:-0.13854228 530:-0.0048764469 531:0.084749326 532:0.007128248 533:0.083190709 534:-0.03951098 535:0.22218725 536:0.041488633 537:-0.050229248 538:0.022110701 539:0.023432638 540:-0.0036593385 541:-0.056752775 542:0.029876793 543:-0.01134955 544:-0.25896978 545:0.13103645 546:0.11671962 547:-0.012925669 548:-0.039128322 549:-0.10069047 550:0.025386529 551:0.20796762 552:-0.018692983 553:0.062004171 554:0.15218504 555:0.096437015 556:0.00043013666 557:0.13866381 558:-0.024131272 559:0.18709785 560:0.080581412 561:0.10680021 562:0.13632117 563:0.050976634 564:0.19037452 565:0.037418064 566:0.11760365 567:0.033003885 568:0.088363282 569:0.01984993 570:-0.19900323 571:-0.00060588925 572:-0.1600464 573:0.53444612 574:0.053146195 575:-0.10533956 576:0.081019334 577:-0.22835962 578:-0.1121012 579:-0.1716956 580:-0.11814471 581:-0.2367927 583:0.35453862 584:-0.43104926 585:0.059851382 586:0.088608995 587:-0.3063378 588:-0.14215608 589:-0.095807426 593:-0.017972343 595:-0.17874859 598:-0.095433921 604:-0.843674 610:0.074236669 611:0.00093673868 612:0.00047591707 613:-0.097968325 614:-0.0004179432 615:-0.15770867 616:-0.23437564 617:-0.090276383 618:-0.070153058 619:-0.016269501 620:-0.19786023 621:-0.075188741 622:-0.04004924 623:-0.20187041 624:0.31573349 625:-0.2693983 626:0.13485682 627:-0.0036897636 628:-0.089565322 629:-0.20026176 630:-0.089896552 631:-0.13589647 632:-0.1067917 633:0.37190485 634:0.049338862 635:-0.040870748 636:0.10249917 637:0.31024361 638:0.20557538 639:0.18871064 640:0.20517781 641:0.094339319 642:0.38354394 643:0.27782926 644:0.51897073 645:-0.031098818 646:0.36296001 647:0.62267673 648:0.13167119 649:0.16396102 650:0.32759139 651:0.11470664 652:0.19317181 653:-0.2124584 654:-0.056144904 655:0.65609896 656:0.13387781 657:-0.15970151 658:-0.17025265 659:0.29906172 660:-0.084063888 661:0.017933691 662:-0.04275503 663:-0.085453041 664:0.030264461 665:-0.63381469 666:0.04724735 667:0.60090506 668:-0.26112124 669:-0.24811655 670:-0.035123769 671:0.014767477 672:-0.11966681 673:-0.071138956 674:-0.030732712 675:-0.38877723 676:-0.093483426 677:0.124356 678:-0.001753 679:-0.033655979 680:0.24261534 681:-0.074187264 682:0.17084976 683:0.0070489598 684:-0.18415201 685:0.57825959 686:-0.053782873 687:-0.67838949 688:-0.055846464 689:-0.15821694 690:0.20152418 691:0.092508994 692:0.098437518 693:-0.029054102 694:-0.072499678 695:-0.074878611 696:0.033876508 697:-0.010523568 698:0.10458995 699:0.010829592 700:-0.044567268 701:-0.046183918 702:-0.050128911 703:0.026735324 704:-0.099439777 705:0.32597703 706:-0.042727195 707:-0.38311949 708:-0.035159461 709:-0.0044403705 710:-0.034876719 711:0.0046638227 712:0.031508878 713:-0.026700089 714:-0.034402497 715:-0.071439028 716:-0.11641784 717:0.040210858 718:0.017680714 719:-0.034254458 720:-0.047715254 721:-0.004672782 722:-0.090740904 723:-0.018597193 724:-0.013830454 725:0.008639547 726:0.047041744 727:-0.48967171 728:-0.070025265 729:-0.012002161 730:-0.040470164 731:-0.23781389 732:0.028202679 733:0.02530322 734:0.038642921 735:-0.14068969 736:-0.0050936593 737:-0.043414205 738:0.10780644 739:0.069473185 740:-0.063541561 741:0.13367246 742:-0.10249033 743:-0.088597544 744:0.18583369 745:-0.14697307 746:0.014379233 747:0.41134414 748:0.0096036382 749:0.017292267 750:-0.068531632 751:-0.060811076 752:-0.15044099 753:0.11418011 754:0.23118371 755:0.016840706 756:0.10996526 757:0.14852609 758:0.18120506 759:0.099318162 760:0.11697642 761:-0.21133184 762:0.042312935 763:0.067894861 764:0.17760308 765:0.13331385 766:0.096777089 767:-0.39032367 768:0.033127755 769:0.08867842 770:0.0308099 771:0.066845402 772:0.12725924 773:0.060061533 774:-0.0600891 775:-0.050037719 776:-0.19323599 777:-0.0073634926 778:-0.14645408 779:-0.09074045 780:-0.03272387 781:-0.051414669 782:-0.025905946 783:-0.065240376 784:0.12442026 786:0.45730221 787:-0.0020792077 788:-0.07866282 789:-0.1645087 790:-0.060353 791:0.15889689 792:-0.080387466 796:0.039425991 798:-0.018372089 801:-0.03759297 807:-0.29197693 813:-0.2527771 814:-0.00052215246 815:-0.00024198589 816:-0.065533645 817:0.076599523 818:-0.18107916 819:-0.13693275 820:-0.025630932 821:-0.12622949 822:-0.018950334 823:0.008256075 824:0.012022369 825:-0.054828282 826:0.061606131 827:0.01001748 828:0.099542364 829:-0.049850799 830:-0.29888195 831:-0.0022357893 832:-0.048937082 833:-0.0065228664 834:0.033854675 835:-0.099306628 836:-0.041117147 837:-0.01576815 838:-0.24566104 839:-0.21996866 840:-0.070305191 841:-0.16623923 842:0.19937798 843:-0.050054178 844:0.026159635 845:-0.13055024 846:0.099328764 847:-0.057894621 848:-0.047550123 849:-0.12641138 850:-0.11775678 851:-0.13407318 852:-0.049516134 853:-0.068271324 854:0.051561266 855:-0.022970464 856:-0.11140884 857:-0.21473531 858:0.60992521 859:0.12090293 860:-0.068027191 861:-0.13089053 862:0.12773636 863:-0.017032729 864:-0.071184374 865:-0.11490349 866:-0.12386659 867:-0.26443952 868:-0.12176606 869:-0.1285086 870:0.93158185 871:-0.12062437 872:-0.17588313 873:-0.014321893 874:-0.080386847 875:-0.13547185 876:-0.16402735 877:-0.084990531 878:0.28666237 879:0.2166305 880:-0.17426166 881:0.035827395 882:-0.1630872 883:-0.18124701 884:0.2529088 885:-0.21706961 886:-0.050914846 887:-0.14460391 888:0.20927937 889:0.05785479 890:0.40994385 891:-0.061290596 892:-0.065842949 893:-0.15038846 894:-0.023260297 895:-0.091427602 896:-0.1612535 897:-0.090524122 898:-0.20593637 899:-0.13565829 900:-0.34739131 901:0.0069438033 902:-0.24059504 903:-0.38388109 904:0.011459683 905:-0.410045 906:-0.047731694 907:-0.11479843 908:-0.2886008 909:-0.16478789 910:-0.52136344 911:0.0025034756 912:-0.063542053 913:-0.34633172 914:-0.10281437 915:-0.17572199 916:-0.099660322 917:-0.10922274 918:-0.094284303 919:-0.17057452 920:-0.19386277 921:0.085744075 922:-0.19743122 923:-0.18950042 924:-0.11155754 925:-0.20851858 926:-0.12838702 927:-0.11870996 928:-0.0062754946 929:-0.14985348 930:-0.4057509 931:-0.02416683 932:-0.0018417549 933:-0.26920044 934:-0.14662506 935:-0.18883672 936:0.14358845 937:0.11334433 938:0.066366248 939:0.17050201 940:0.13330881 941:0.1213401 942:0.080115028 943:0.19654009 944:0.053086247 945:0.11024386 946:0.11958922 947:0.14643347 948:0.232429 949:-0.00073288602 950:-0.085644022 951:0.082735993 952:0.11385138 953:0.089153938 954:0.13368216 955:0.18103489 956:0.11481485 957:-0.033763807 958:0.11827914 959:0.052311286 960:-0.12783937 961:0.094721131 962:-0.014908245 963:-0.0011350195 964:-0.024776177 965:-0.029607346 966:-0.00097188697 967:-0.0068055671 968:-0.058425326 969:-0.02191543 970:0.22704592 971:0.12056275 972:0.024705993 973:-0.033359773 974:-0.0878333 975:-0.074195564 976:-0.047802567 977:-0.033615202 978:-0.08298482 979:-0.16504614 980:-0.069302976 981:0.07709565 982:0.059543021 983:0.0032892532 984:0.047061324 985:0.059235435 986:-0.04500521 987:0.038145076 989:-0.21627311 990:0.46307522 991:-0.077625148 992:-0.065066628 993:0.013291777 994:-0.054618627 995:-0.006701299 999:-0.062742449 1001:0.026261298 1004:0.10517136 1010:-0.17199515 1016:-0.48546591 1017:-0.0005909694 1018:7.9098099e-005 1019:0.033458803 1020:0.11494483 1021:0.068567447 1022:0.042215735 1023:0.23025614 1024:0.018685466 1025:-0.15908173 1026:0.13850002 1027:-0.048641939 1028:0.11770945 1029:0.15186141 1030:0.18451831 1031:-0.11416065 1032:0.04172983 1033:-0.57515782 1034:0.11769077 1035:0.080665648 1036:0.14796239 1037:0.17337918 1038:0.12874241 1039:0.2020674 1040:0.12989005 1041:-0.11352521 1042:0.0097484989 1043:0.29975435 1044:0.056598857 1045:0.001454789 1046:0.12072303 1047:0.002296729 1048:0.28314307 1049:0.19315945 1050:0.095928952 1051:-0.027357152 1052:0.12817775 1053:-0.57259184 1054:0.14743923 1055:0.13853154 1056:0.19132972 1057:0.21999899 1058:0.29886752 1059:0.018667001 1060:-0.014343541 1061:0.12467361 1062:0.0055460911 1063:0.15518372 1064:-0.54525697 1065:0.14064372 1066:0.33426782 1067:0.070261531 1068:0.25604561 1069:0.1352683 1070:-0.23514533 1071:-0.45268521 1072:0.082973845 1073:0.044288788 1074:-0.27567866 1075:-0.090231232 1076:0.35996422 1077:0.22621384 1078:0.13653567 1079:-0.094422825 1080:0.074283473 1081:-0.024911903 1082:-0.42364746 1083:-0.032669604 1084:0.15727304 1085:-0.11751152 1086:-0.21140298 1087:0.089432277 1088:-0.18833935 1089:-0.055184409 1090:0.29771492 1091:0.73109156 1092:0.092452995 1093:0.31227934 1094:0.028339706 1095:-0.12298356 1096:-0.16539489 1097:0.079921149 1098:0.050872862 1099:-0.19523372 1100:-0.056562893 1101:-0.32987243 1102:-0.20134737 1103:-0.23575403 1104:0.14318512 1105:-0.36774623 1106:-0.30940259 1107:-0.2363839 1108:-0.31743702 1109:-0.080195159 1110:-0.15356013 1111:-0.028468486 1112:-0.16984381 1113:0.49545363 1114:-0.1405157 1115:-0.23162493 1116:-0.33180103 1117:-0.15813501 1118:-0.17770636 1119:-0.27311233 1120:-0.24682184 1121:-0.33576372 1122:-0.18824166 1123:-0.28543276 1124:-0.080366991 1125:-0.22520067 1126:-0.30991948 1127:-0.10829327 1128:-0.34326226 1129:-0.23590532 1130:-0.058360487 1131:-0.25618181 1132:-0.20415936 1133:0.4323068 1134:-0.2362335 1135:-0.21861875 1136:-0.35726181 1137:-0.23038521 1138:-0.2185808 1139:0.11869173 1140:0.24738728 1141:0.051734079 1142:0.14554304 1143:0.21620195 1144:0.1402268 1145:-0.26017284 1146:0.068211995 1147:-0.28821361 1148:0.097774521 1149:0.078078657 1150:0.14471756 1151:0.082005225 1152:0.093045019 1153:-0.16809976 1154:0.15477444 1155:0.1283838 1156:0.062838756 1157:0.13709626 1158:0.10726724 1159:-0.025332667 1160:0.056388702 1161:-0.13381754 1162:0.025709068 1163:-0.10018885 1164:0.094619639 1165:-0.056090459 1166:-0.027999466 1167:0.048245385 1168:-0.0027206314 1169:0.02349183 1170:0.072088622 1171:0.032380491 1172:-0.12584499 1173:0.78555679 1174:0.031264916 1175:-0.019749667 1176:-0.039898861 1177:0.026857886 1178:-0.033404373 1179:0.027748816 1180:0.00057818863 1181:0.094421923 1182:-0.021498162 1183:0.029320074 1184:0.028418155 1185:0.013641275 1186:0.1084934 1187:0.011618431 1188:0.075276986 1189:0.12553075 1190:-0.03980903 1192:-0.25982764 1193:0.10685468 1194:-0.0064028939 1195:0.026805568 1196:0.10229821 1197:-0.0084024491 1198:0.062126581 1202:0.01879788 1204:0.073971704 1207:0.092677519 1213:0.29174575 #
