SVM-light Version V6.20
0 # kernel type
3 # kernel parameter -d 
1 # kernel parameter -g 
1 # kernel parameter -s 
1 # kernel parameter -r 
empty# kernel parameter -u 
1219 # highest feature index 
116 # number of training documents 
2 # number of support vectors plus 1 
0 # threshold b, each following line is a SV (starting with alpha*y)
1 1:-0.21164745 2:0.00059608085 3:0.00033641345 4:-0.00756766 5:0.041062437 6:0.099915236 7:-0.004555278 8:-0.10535928 9:0.023300394 10:0.21228264 11:-0.12528972 12:-0.10818118 13:-0.087885447 14:-0.004728904 15:0.027512627 16:-0.21889746 17:-0.052304018 18:0.30406654 19:0.0031025163 20:-0.085625917 21:-0.08396896 22:-0.11196938 23:-0.099454254 24:0.64107031 25:0.28250104 26:0.49629265 27:0.5293383 28:0.5402438 29:0.58462453 30:1.0403121 31:0.59953684 32:0.6646595 33:0.66678339 34:0.48089805 35:0.62663472 36:0.19042011 37:0.54336655 38:0.21860363 39:0.34542504 40:0.35424146 41:0.61686665 42:0.4149828 43:0.55159819 44:0.095905922 45:-0.1454009 46:0.44735172 47:0.16485663 48:-0.017940003 49:-0.39373511 50:0.49082315 51:0.25477558 52:0.29962009 53:0.19108847 54:-0.054963846 55:-0.1888898 56:-0.86995333 57:0.068651736 58:0.13980587 59:-0.41092432 60:-0.26733047 61:0.30734253 62:0.027606061 63:0.0030319199 64:0.0080958689 65:-0.0051323986 66:-0.31542829 67:-0.11832018 68:0.13378334 69:-0.06049357 70:-0.40465099 71:0.40518188 72:-0.29983446 73:0.26660183 74:0.13783726 75:-0.17269793 76:0.69352949 77:-0.023509977 78:-0.59427404 79:-0.040555574 80:-0.078516416 81:0.27522925 82:0.16742283 83:0.16745389 84:0.03925949 85:0.065498076 86:-0.028078901 87:0.030189337 88:0.059476685 89:0.10281171 90:-0.25253698 91:0.093173042 92:0.091922775 93:0.048313569 94:0.050610751 95:-0.0063106073 96:0.38926798 97:0.033959806 98:-0.30750152 99:0.065193929 100:0.042148352 101:0.080232397 102:0.040252835 103:0.039323639 104:0.015991412 105:0.045725893 106:0.031284437 107:0.031132895 108:-0.001313885 109:0.086661644 110:-0.26793185 111:-0.021572383 112:0.0049763573 113:-0.019393492 114:0.0081880791 115:0.034854367 116:0.13540967 117:-0.013636053 118:-0.29168671 119:0.052419141 120:0.027163653 121:-0.0066162217 122:-0.012126644 123:0.0055041783 124:-0.093604729 125:-0.058149595 126:0.030033911 127:-0.054432381 128:-0.18091138 129:0.056499667 130:0.29587355 131:-0.23254466 132:-0.018558422 133:-0.18538964 134:-0.1543805 135:-0.1045298 136:-0.11960897 137:-0.18466103 138:1.5103489 139:-0.060620509 140:-0.16492361 141:-0.19127528 142:-0.25250253 143:-0.18643406 144:0.0067340187 145:0.096718423 146:0.062076859 147:0.067540914 148:0.018664451 149:0.048433557 150:-0.091503672 151:0.0045151142 152:-0.097827427 153:0.0082487278 154:0.03460867 155:0.032423984 156:0.047856107 157:-0.0057615945 158:0.2862944 159:0.040353525 160:0.023951113 161:0.024182774 162:0.011060136 163:0.048973959 164:0.044974696 165:0.037245121 166:0.0071871793 167:-0.22311454 168:0.041765112 169:-0.010693012 170:0.037544105 171:0.058388084 172:0.14950216 173:0.061030023 174:0.051619541 175:-0.013212559 176:0.01970691 177:-0.53569537 178:0.13462266 179:0.064093441 180:0.13870767 181:0.049051702 182:-0.03427605 183:0.063274965 184:0.042450074 185:0.001036596 186:0.058993921 187:0.053329598 188:0.018440116 189:0.017470999 190:0.021152215 191:0.0078599351 192:-0.17035958 193:0.02502045 194:0.0032022747 195:0.013558603 196:0.0064890389 197:0.0062912377 198:-0.074669339 199:0.020573987 200:0.015666161 201:0.036269438 202:0.00081359578 203:0.038132571 204:0.67385757 205:0.0004656825 206:0.0018471798 207:0.18605384 208:0.15375067 209:0.19919753 210:0.15672924 211:0.20058829 212:0.10534183 213:0.040987875 214:0.20628671 215:0.16441023 216:0.21052955 217:0.16753227 218:0.25326669 219:0.069412127 220:0.1624819 221:-0.24886958 222:0.15914583 223:0.15895182 224:0.19953637 225:0.12811005 226:0.19546217 227:0.41325393 228:0.24208358 229:0.13527668 230:0.26641899 231:0.45612743 232:0.25436431 233:0.60922527 234:0.5094403 235:0.58077896 236:0.55945945 237:0.36672854 238:0.32463554 239:0.18273163 240:0.36045092 241:-0.2919277 242:0.2952868 243:0.35757995 244:0.4828757 245:0.39832684 246:0.46451494 247:0.009061642 248:-0.1055482 249:0.28954798 250:0.15705238 251:0.11639135 252:-0.75120676 253:0.54814643 254:0.56372815 255:0.7370429 256:0.3534663 257:0.14399034 258:-0.33330125 259:-0.67358768 260:0.096868552 261:-0.27401811 262:-0.401544 263:-0.16111292 264:0.52051914 265:0.20592223 266:0.17098252 267:0.079375774 268:0.067640126 269:-0.18831794 270:-0.26948127 271:0.051404439 272:0.37528929 273:0.11104572 274:-0.18234062 275:0.19899845 276:-0.1303613 277:-0.036968935 278:-0.089352697 279:1.0014654 280:-0.40998405 281:0.40390602 282:0.21757615 283:0.054760199 284:-0.14632091 285:0.042752694 286:0.061314415 287:-0.046512347 288:0.0011058382 289:-0.13029739 290:-0.074960344 291:-0.1626175 292:0.16325653 293:-0.21897523 294:-0.21652719 295:-0.044961508 296:-0.21832314 297:-0.07108061 298:-0.10015831 299:-0.036780946 300:-0.13064596 301:-0.45122996 302:0.0025022235 303:-0.078762494 304:-0.18720824 305:-0.14945063 306:-0.13380557 307:-0.071336903 308:0.0044507328 309:-0.059409067 310:-0.082431547 311:-0.16838728 312:0.084471501 313:-0.20172426 314:-0.21829075 315:-0.25225791 316:-0.22193927 317:-0.079003006 318:-0.060487133 319:-0.14708062 320:-0.16253251 321:-0.35133213 322:-0.00030171577 323:-0.059478428 324:-0.17941864 325:-0.15112232 326:-0.1338999 327:-0.027382843 328:0.10370432 329:0.12582587 330:0.069975369 331:0.017857984 332:0.071292348 333:-0.15707193 334:-0.07062275 335:-0.11336554 336:-0.023511294 337:0.011498107 338:0.069214597 339:-0.0074515571 340:0.0092225028 341:0.26465103 342:0.051600251 343:0.00097092759 344:-0.059252426 345:0.025223805 346:0.039815634 347:-0.13635617 348:-0.073791601 349:-0.1458874 350:-0.13094373 351:-0.23341824 352:-0.041490402 353:-0.071842499 354:-0.25593328 355:-0.13907909 356:-0.22516811 357:-0.15680946 358:-0.18810557 359:-0.22908416 360:-0.26283556 361:0.40146711 362:-0.097136803 363:-0.15944511 364:-0.21831478 365:-0.27413523 366:-0.22699186 367:0.061677333 368:0.016877361 369:0.017370142 370:0.0036023136 371:0.070504069 372:0.081247836 373:0.23344672 374:0.15550052 375:0.1355527 376:0.10726862 377:0.12468902 378:0.0048102364 379:0.00045074525 380:-0.078718796 381:-0.16055717 382:0.07212165 383:0.08480449 384:0.13160178 385:0.073226914 386:0.07692454 387:0.01881473 388:0.00086527946 389:0.0094375778 390:0.0052561536 391:0.0024652861 392:0.0042639202 393:0.029641286 394:0.015959751 395:0.41250196 396:0.020214884 397:0.00077639346 398:0.0041750008 399:0.0057033072 400:0.022854593 401:0.67115951 402:-0.0067860736 403:0.0022365528 404:-0.017589038 405:0.0066922954 406:0.0037576645 407:-0.31241006 408:0.0010193882 409:0.00048428908 410:0.30043566 411:0.089849152 412:0.42939875 413:0.35024181 414:0.16267782 415:0.40264195 416:0.36428016 417:0.17208879 418:0.13979615 419:0.21349651 420:0.16209637 421:0.24236278 422:0.080604412 423:0.13281339 424:-0.1611588 425:0.46149313 426:0.45259997 427:0.17956355 428:0.029163696 429:0.15900749 430:0.28554875 431:0.021099241 432:0.33496913 433:0.35392466 434:0.2079583 435:0.29398489 436:0.25633499 437:0.21565281 438:0.834997 439:0.32942432 440:0.15389088 441:0.1802332 442:0.071464054 443:0.31303233 444:-0.21092528 445:0.83162612 446:0.86075675 447:0.24448261 448:0.085872337 449:0.19260122 450:0.019651162 451:-0.26873243 452:0.042756639 453:0.04514445 454:0.0092216777 455:-0.33788961 456:0.08326149 457:0.07678438 458:-0.2451912 459:0.058258235 460:-0.11652427 461:-0.42242581 462:-0.71745187 463:-0.14862816 464:-0.38876915 465:0.3435421 466:0.51825422 467:0.12866116 468:-0.059921231 469:-0.076897107 470:-0.049307998 471:-0.079155609 472:-0.34490797 473:-0.16820848 474:0.044057976 475:-0.12104285 476:-0.33709896 477:0.21191242 478:-0.37159646 479:0.11726338 480:0.037801635 481:-0.23422708 482:0.51938605 483:-0.13917597 484:-0.49460572 485:-0.14191404 486:-0.174624 487:0.14097121 488:0.072151713 489:0.055425383 490:-0.0053994311 491:-0.024008365 492:-0.12301198 493:-0.076165766 494:-0.014994399 495:0.026637822 496:-0.2752519 497:-0.016657732 498:-0.0094630113 499:-0.042192146 500:0.011118413 501:-0.088271707 502:0.29440954 503:-0.087819785 504:-0.28417572 505:-0.052059799 506:-0.084705196 507:-0.012301835 508:-0.0097364131 509:-0.01902578 510:-0.053171549 511:-0.017413687 512:-0.041970134 513:-0.092855409 514:-0.073421776 515:0.011343914 516:-0.29949674 517:-0.10348325 518:-0.071796924 519:-0.081582665 520:-0.054417565 521:-0.10497558 522:0.0659898 523:-0.12468372 524:-0.26804772 525:-0.044997923 526:-0.056672521 527:-0.077458143 528:-0.035335831 529:-0.040258218 530:-0.14133483 531:-0.19080059 532:-0.022146538 533:-0.11809264 534:-0.22872865 535:0.031957801 536:-0.025424317 537:-0.2652407 538:-0.43214428 539:-0.22037438 540:-0.20849605 541:-0.28368109 542:-0.18333764 543:-0.26692587 544:0.063690409 545:-0.0071800635 546:-0.010806825 547:-0.21826711 548:-0.30509475 549:-0.19217473 550:-0.0087039536 551:0.07519763 552:0.02260978 553:0.0066665835 554:-0.017305514 555:0.031738725 556:-0.085078597 557:-0.026852513 558:-0.19939886 559:-0.015203654 560:0.01853545 561:-0.024476172 562:0.0084030749 563:-0.071228042 564:0.23107676 565:0.011044706 566:-0.02176282 567:-0.018690187 568:-0.029869542 569:0.010910657 570:-0.13546231 571:-0.07835231 572:-0.03977903 573:0.54004002 574:-0.06332878 575:-0.12010182 576:-0.0079983203 577:-0.18125346 578:-0.18483545 579:-0.1554468 580:-0.13628487 581:-0.17220804 582:-0.009456546 583:0.33087736 584:-0.31808797 585:-0.046511039 586:-0.039741363 587:-0.19019325 588:-0.27592683 589:-0.17284451 590:-0.07679075 591:-0.0010712493 592:-0.018195679 593:-0.069644801 594:-0.010122563 595:-0.018131727 596:-0.030414352 597:-0.029295133 598:-0.59376258 599:-0.064705834 600:-0.02225578 601:-0.040648378 602:-0.0072679645 603:-0.010672038 604:-0.37426692 605:-0.0057918411 606:-0.028918693 607:-0.020586483 608:-0.012508418 609:-0.021844149 610:-0.3088083 611:0.0012517477 612:0.00072696852 613:-0.15294544 614:-0.05610206 615:-0.13255802 616:-0.21524668 617:-0.17079143 618:-0.11604936 619:-0.2509608 620:-0.24772298 621:-0.092516907 622:-0.23527102 623:-0.15158984 624:0.51492661 625:-0.23903851 626:0.11218826 627:0.0067849732 628:-0.20680876 629:-0.22356142 630:-0.2272501 631:-0.073021427 632:-0.2276291 633:0.23019548 634:0.018327096 635:0.050574794 636:0.029975852 637:0.20150714 638:0.21308498 639:0.22537692 640:0.1640984 641:0.5412311 642:0.24212138 643:0.13385199 644:0.76032871 645:-0.093906857 646:0.43874097 647:0.065005653 648:0.12400445 649:0.11223907 650:0.16641532 651:0.20809096 652:0.14149408 653:-0.067453325 654:-0.063338824 655:-0.086452559 656:-0.19263059 657:-0.09504202 658:-0.33993042 659:0.22878404 660:-0.0076927561 661:-0.11783242 662:-0.018109767 663:-0.14268695 664:0.31219262 665:-0.55580509 666:0.24735954 667:0.17211796 668:-0.28555906 669:-0.17197341 670:0.062642902 671:0.076284789 672:-0.12009561 673:-0.04509256 674:-0.025277922 675:-0.26725829 676:-0.10045418 677:0.029391712 678:-0.094973296 679:-0.34080279 680:0.2011524 681:-0.39676255 682:0.13744299 683:0.034864221 684:-0.25951606 685:0.57693219 686:-0.14991559 687:-0.39362052 688:-0.13689789 689:-0.16546294 690:0.10636687 691:0.074549586 692:0.050113685 693:-0.00074129488 694:0.022385212 695:-0.065828398 696:-0.033390671 697:-0.0050756708 698:0.036248948 699:-0.31595775 700:0.004506452 701:-0.0068530682 702:-0.016740507 703:0.015941359 704:-0.092210107 705:0.26171106 706:-0.097617589 707:-0.22293127 708:-0.013307347 709:-0.050034117 710:-0.010876315 711:-0.034787659 712:-0.0025692994 713:-0.050907113 714:0.026521312 715:-0.043582637 716:-0.048767529 717:-0.048611179 718:0.032753233 719:-0.29487059 720:-0.047431737 721:-0.11112373 722:-0.058704942 723:-0.011073068 724:-0.075696222 725:0.057910349 726:-0.10355658 727:-0.24925902 728:-0.048153017 729:-0.045929272 730:-0.055163667 731:-0.041996602 732:-0.030695794 733:-0.12716505 734:-0.092987731 735:-0.03565082 736:-0.081200823 737:-0.15466605 738:0.018952247 739:0.01628446 740:-0.20630661 741:-0.23173276 742:-0.14901881 743:-0.16773503 744:0.19190368 745:-0.13054764 746:-0.020673757 747:0.54535657 748:-0.070939809 749:-0.1001436 750:-0.17491373 751:-0.23525128 752:-0.16444312 753:-0.037016161 754:0.071125753 755:-0.0074489596 756:-0.024332508 757:-0.027413372 758:0.0077804653 759:-0.19669203 760:-0.039454062 761:-0.32580948 762:-0.024351677 763:0.0057333349 764:-0.037562717 765:0.00059074012 766:-0.088820055 767:0.046685047 768:-0.00066653179 769:-0.036944941 770:-0.038243372 771:0.00038554755 772:0.0070307679 773:-0.13508134 774:0.062603272 775:-0.17014368 776:-0.25518665 777:-0.099943019 778:-0.11486893 779:-0.39263657 780:-0.18275166 781:0.034871716 782:-0.16934647 783:-0.15078434 784:0.10798424 785:-0.006250958 786:0.70693606 787:0.1152379 788:-0.25776133 789:-0.28294277 790:-0.19460015 791:0.33897915 792:-0.11953535 793:-0.063803747 794:-3.6949124e-005 795:-0.016839581 796:-0.033302385 797:-0.00094930205 798:-0.00059020141 799:-0.0071069035 800:-0.011470011 801:-0.48141968 802:-0.088683233 803:0.012058504 804:-0.022206329 805:0.0031945861 806:-0.020395504 807:-0.36676213 808:-0.010983544 809:-0.0009670931 810:-0.045744848 811:-0.0067045246 812:-0.0025080384 813:-0.30246735 814:-0.00090759044 815:-7.3110416e-005 816:0.060127314 817:0.046292383 818:0.026701404 819:0.015147775 820:0.10040903 821:0.024777371 822:-0.12352303 823:0.13087152 824:-0.072380647 825:0.11198262 826:0.056989506 827:0.05658818 828:-0.0090768775 829:-0.014749679 830:-0.064096898 831:0.043263692 832:0.023670191 833:0.088956438 834:0.03912745 835:0.08669734 836:0.14804858 837:0.077038161 838:-0.045591269 839:0.027095495 840:0.23041059 841:0.040815748 842:0.13845412 843:0.25774437 844:0.20145065 845:0.27303153 846:0.14633811 847:0.033620559 848:0.033536654 849:0.064665422 850:-0.074121922 851:0.041749831 852:0.085225895 853:0.2153202 854:0.1905008 855:0.21610522 856:-0.027366364 857:-0.074044943 858:-0.027816849 859:-0.055516221 860:0.06674584 861:-0.40311077 862:0.19953305 863:0.38320026 864:0.6579358 865:0.2273742 866:0.080112703 867:-0.26680011 868:-0.29518783 869:-0.021336572 870:0.23399551 871:-0.31572813 872:-0.16483653 873:0.31655306 874:0.15064177 875:0.065331005 876:-0.15571718 877:-0.045948818 878:-0.013172598 879:0.68223047 880:-0.14514697 881:0.058602381 882:0.18340136 883:-0.3918848 884:0.93252569 885:-0.32266945 886:-0.1571407 887:-0.40501717 888:0.78288507 889:0.43207285 890:-0.26356924 891:0.13684656 892:0.10130196 893:-0.41080061 894:-0.12878086 895:-0.14033912 896:-0.29128626 897:-0.14550945 898:-0.15441354 899:-0.20632099 900:-0.25656259 901:-0.066530168 902:-0.2089871 903:-0.43669125 904:-0.22021325 905:-0.44494131 906:-0.20767672 907:-0.33802751 908:0.024280898 909:-0.34231868 910:-0.78946042 911:-0.014471656 912:0.057327345 913:-0.44460863 914:-0.16071594 915:-0.28433505 916:-0.25258341 917:-0.10876229 918:-0.074692696 919:-0.14477655 920:-0.24108285 921:-0.060106829 922:-0.14392078 923:-0.37369993 924:-0.65615678 925:-0.36844754 926:-0.14805599 927:-0.25734866 928:-0.32818675 929:-0.30347243 930:-0.47342142 931:-0.071702845 932:-0.04119391 933:-0.37982717 934:-0.16109608 935:-0.21162193 936:-0.040085081 937:0.081625417 938:0.030528519 939:0.0022270896 940:0.033985961 941:0.015603355 942:-0.075357929 943:-0.025139907 944:-0.090408318 945:0.013443922 946:0.03064242 947:-0.040648196 948:-0.0072959382 949:-0.103772 950:0.40503207 951:-0.034859739 952:-0.056594551 953:-0.030225554 954:0.037947912 955:0.049700011 956:-0.13036589 957:-0.13630725 958:0.068723209 959:-0.025211522 960:-0.1622366 961:0.028364489 962:0.19722232 963:-0.27126136 964:-0.43507934 965:-0.23008081 966:-0.12368219 967:-0.18285267 968:-0.22765826 969:-0.26211944 970:0.47358423 971:0.0050918809 972:-0.035899766 973:-0.23187825 974:-0.22575049 975:-0.15687628 976:0.083885156 977:-0.022529909 978:0.099757254 979:-0.036882397 980:0.023247246 981:0.081876606 982:0.052409224 983:0.080834426 984:-0.058462016 985:0.0820807 986:0.069719218 987:0.037003364 988:0.00056091166 989:-0.21143104 990:0.20757046 991:0.081873797 992:0.053766206 993:0.089342952 994:-0.059446216 995:0.074502885 996:0.056550108 997:-0.00029097163 998:-0.0028803491 999:0.043459404 1000:-0.0036057655 1001:-0.0027392465 1002:0.022972485 1003:0.023909688 1004:0.63338798 1005:0.072590441 1006:0.0040976265 1007:0.0024803504 1008:-0.00048093911 1009:-0.0016630645 1010:-0.1788044 1011:0.0061036805 1012:0.011183956 1013:0.04469505 1014:0.0036175991 1015:-0.0049048015 1016:-0.31973204 1017:-0.00066482264 1018:0.00033689159 1019:0.085440859 1020:0.082523577 1021:0.070588678 1022:0.037011441 1023:0.13517542 1024:0.029813532 1025:-0.11224929 1026:0.13831161 1027:-0.1928905 1028:0.13147083 1029:0.10987541 1030:0.053854678 1031:-0.013183766 1032:0.0017444275 1033:-0.056699112 1034:0.043878373 1035:0.050276693 1036:0.1227391 1037:0.066509679 1038:0.10682009 1039:0.2007211 1040:0.12778142 1041:0.022859899 1042:0.075238034 1043:0.27003607 1044:0.12141018 1045:0.12403177 1046:0.29114255 1047:0.087075911 1048:0.31902066 1049:0.21526636 1050:0.06682767 1051:0.059459593 1052:0.075069733 1053:-0.043097559 1054:0.093498603 1055:0.14903669 1056:0.24740221 1057:0.25187618 1058:0.25997224 1059:0.030344676 1060:-0.059186727 1061:-0.05768301 1062:-0.0011718186 1063:0.15633 1064:-0.3869344 1065:0.10711488 1066:0.40396833 1067:0.30919892 1068:0.26332217 1069:0.11124407 1070:-0.24791811 1071:-0.30151412 1072:0.01935219 1073:-0.075743549 1074:-0.24597962 1075:-0.11181448 1076:0.33830401 1077:0.16034472 1078:0.12673631 1079:-0.10189079 1080:0.19763352 1081:-0.085681275 1082:-0.14915603 1083:-0.15170723 1084:0.016997045 1085:-0.15389322 1086:-0.47980911 1087:0.55978453 1088:-0.43854982 1089:-0.20607029 1090:0.53110361 1091:0.60409498 1092:0.97847849 1093:0.39640951 1094:-0.15453288 1095:-0.23870179 1096:-0.42248717 1097:0.048038024 1098:-0.21174565 1099:-0.29247925 1100:-0.15087065 1101:-0.34487355 1102:-0.29951179 1103:-0.25899938 1104:-0.094237007 1105:-0.36140925 1106:-0.39431426 1107:-0.51852679 1108:-0.43213949 1109:-0.20532727 1110:0.10873628 1111:-0.18887137 1112:-0.15893613 1113:0.15967356 1114:-0.21714914 1115:-0.22457607 1116:-0.41408265 1117:-0.18847325 1118:-0.29234588 1119:-0.28388244 1120:-0.11047165 1121:-0.19804555 1122:-0.26076514 1123:-0.25379118 1124:-0.12444761 1125:-0.2729401 1126:-0.38732582 1127:-0.68366188 1128:-0.37553549 1129:-0.18343478 1130:0.10377286 1131:-0.34722331 1132:-0.15059894 1133:0.17443712 1134:-0.20657949 1135:-0.19932181 1136:-0.39010763 1137:-0.17501064 1138:-0.21735846 1139:-0.047656592 1140:0.04037464 1141:0.026619742 1142:-0.028001126 1143:0.029946461 1144:0.0031443208 1145:-0.063908502 1146:-0.033303559 1147:-0.19241999 1148:0.00011006827 1149:-0.013230389 1150:-0.076394133 1151:-0.020424157 1152:-0.11673571 1153:0.38263676 1154:-0.032157384 1155:-0.066043481 1156:-0.047246274 1157:0.027640237 1158:0.013379543 1159:-0.11000318 1160:-0.045073971 1161:-0.0029278151 1162:-0.041236535 1163:-0.096867412 1164:-0.010822492 1165:0.13128482 1166:-0.2106782 1167:-0.25838035 1168:-0.15636891 1169:-0.071117878 1170:0.15688823 1171:-0.19059639 1172:-0.071564056 1173:0.43891338 1174:-0.05591676 1175:-0.093657486 1176:-0.18835965 1177:-0.16463694 1178:-0.12030371 1179:0.080006465 1180:-0.015843535 1181:0.085608125 1182:-0.02845877 1183:0.02775537 1184:0.08253932 1185:0.077234849 1186:0.0692821 1187:-0.07662911 1188:0.074413933 1189:0.041041445 1190:0.035622761 1191:-0.0050110626 1192:-0.21196823 1193:0.021214124 1194:0.086183481 1195:0.045405768 1196:0.11479695 1197:-0.042556975 1198:0.077677466 1199:0.02277958 1200:-0.00050270546 1201:-0.030515889 1202:0.00090203341 1203:-0.0062277718 1204:-0.00027374417 1205:-0.036244731 1206:-0.0069642295 1207:0.19965188 1208:0.03556329 1209:0.0021209805 1210:0.042640757 1211:-0.0076380288 1212:0.0035847779 1213:0.32334331 1214:-0.0031162088 1215:0.00079911825 1216:0.0029558807 1217:0.008089453 1218:-0.012633247 #
