SVM-light Version V6.20
0 # kernel type
3 # kernel parameter -d 
1 # kernel parameter -g 
1 # kernel parameter -s 
1 # kernel parameter -r 
empty# kernel parameter -u 
1219 # highest feature index 
109 # number of training documents 
2 # number of support vectors plus 1 
0 # threshold b, each following line is a SV (starting with alpha*y)
1 1:-0.57732958 2:0.00056185538 3:3.7748043e-005 4:-0.031149941 5:-0.0076890565 6:0.046039902 7:-0.12160062 8:-0.16855434 9:0.032476805 10:0.030606192 11:-0.1748327 12:0.05183604 13:-0.16631041 14:-0.088652655 15:-0.094690427 16:-0.089129269 17:-0.13795634 18:0.023930173 19:-0.080911621 20:-0.1863911 21:-0.13408765 22:-0.14949544 23:-0.16328213 24:0.86726999 25:0.4380312 26:0.78799909 27:0.76227713 28:0.72603947 29:0.83363438 30:0.049575087 31:0.82137364 32:0.089774765 33:0.8725428 34:0.58283007 35:0.95177746 36:0.43206373 37:0.8198325 38:0.010317215 39:0.53517216 40:0.51458019 41:0.82877427 42:0.49428502 43:0.70246619 44:0.19255586 45:0.019432701 46:0.12305345 47:0.14157677 48:0.036644027 49:-0.12188262 50:0.015321348 51:0.194787 52:0.0039886753 53:0.19265492 54:0.008434576 55:-0.049794309 56:-0.37784153 57:0.21813489 58:0.014428935 59:-0.23942016 60:-0.033129316 61:0.24833941 62:0.17688206 63:0.015208027 64:0.058144726 65:-0.00060261571 66:-0.19351134 67:-0.0092717465 68:0.10040349 69:-0.1481138 70:-0.019133452 71:0.45219845 72:-0.2222221 73:0.34469241 74:0.14142075 75:-0.18276872 76:0.31047934 77:-0.028125584 78:-0.1637253 79:-0.053431019 80:-0.11548901 81:0.33088887 82:0.077716872 83:0.099824496 84:0.057777308 85:0.075121589 86:0.038575847 87:0.062053829 88:0.057000358 89:0.070253268 90:-0.014905831 91:0.14659223 92:-0.1164278 93:0.098231934 94:0.056834869 95:-0.027571736 96:0.33309901 97:0.055812523 98:-0.19513999 99:0.074819237 100:0.050495591 101:0.13635223 102:0.069114856 103:0.068780385 104:0.068349913 105:0.09058331 106:0.10965778 107:0.078634568 108:0.064535156 109:0.10997707 110:-0.018016996 111:0.096725568 112:-0.15337178 113:0.077181444 114:0.063860707 115:0.04692002 116:0.23207511 117:0.046282422 118:-0.26849824 119:0.11220597 120:0.079990707 121:0.10567927 122:0.067596093 123:0.087673038 124:-0.15759014 125:-0.23500015 126:-0.12668967 127:-0.22619793 128:-0.31052065 129:-0.067107715 130:0.21503802 131:-0.30506393 132:0.49999762 133:-0.29350066 134:-0.27268654 135:-0.33284605 136:-0.004266554 137:-0.34530306 138:0.30677262 139:-0.22786534 140:-0.36170778 141:-0.26188254 142:-0.31572551 143:-0.29253215 144:-0.023140917 145:0.079111047 146:0.044811167 147:0.05067648 148:0.057120502 149:-0.024645967 150:-0.077157639 151:0.02328454 152:-0.071513072 153:0.024186723 154:0.051087566 155:-0.021335756 156:0.039999101 157:-0.03818034 158:0.22110103 159:0.036990497 160:0.029881438 161:0.017868333 162:0.055685315 163:0.054447845 164:0.0463112 165:0.085942626 166:0.059215862 167:-0.17079906 168:0.033613883 169:-0.004212216 170:0.026372336 171:0.09579017 172:0.17606486 173:0.08526399 174:0.087164499 175:0.043753814 176:0.029922985 177:-0.33357507 178:0.095426589 179:0.093878239 180:0.22351541 181:0.071822301 182:-0.0094601596 183:0.043362428 184:0.17506631 185:-0.0005668815 186:0.12529467 187:0.18317361 188:0.098832004 189:0.082856916 190:-0.007639227 191:0.091056511 192:-0.41314551 193:0.1350619 194:0.049298249 195:0.11057461 196:0.035394162 197:0.063637979 198:-0.30261987 199:0.064612113 200:0.022234639 201:0.13136134 202:0.044157647 203:0.090733521 204:0.86565268 205:0.0011542543 206:0.0026931986 207:0.10877331 208:0.11309705 209:0.14966382 210:0.098482445 211:0.12675937 212:0.072164603 213:-0.019147273 214:0.11864539 215:-0.050985865 216:0.12767604 217:0.10313064 218:0.18055007 219:0.028332068 220:0.082342923 221:-0.024196468 222:0.10149632 223:0.11829353 224:0.11381491 225:0.056469042 226:0.12155913 227:0.40662321 228:0.25016081 229:0.19650783 230:0.28581998 231:0.46824467 232:0.28255832 233:-0.023561483 234:0.51410353 235:-0.049595185 236:0.56631577 237:0.35507613 238:0.3429198 239:0.22946656 240:0.36573547 241:-0.019118331 242:0.31386596 243:0.39275199 244:0.46512315 245:0.34963256 246:0.46531552 247:0.027333124 248:-0.0058813258 249:0.10155895 250:0.14390895 251:0.22614807 252:-0.69668537 253:-0.030299535 254:0.64211541 255:-0.045619294 256:0.44350293 257:0.24096301 258:-0.27518338 259:-0.56601858 260:0.18780008 261:-0.031205228 262:-0.34346646 263:-0.098267131 264:0.5710777 265:0.27512544 266:0.24908561 267:-0.0031107308 268:0.0073483647 269:-0.15635033 270:-0.32075012 271:0.0056055062 272:0.32633924 273:0.021724915 274:-0.21891268 275:0.57854038 276:-0.18461129 277:-0.057796456 278:-0.14171652 279:0.86964178 280:-0.45857522 281:0.74938035 282:0.17563978 283:-0.0073982254 284:-0.20736469 285:0.033577289 286:0.0047816373 287:-0.023332434 288:0.047678571 289:-0.001363577 290:-0.024613323 291:-0.075397752 292:0.18184067 293:0.010416686 294:-0.15833309 295:0.10158096 296:-0.15592988 297:-0.022084713 298:-0.059076287 299:0.018974954 300:-0.0992136 301:-0.11583845 302:0.050776865 303:-0.034023136 304:-0.12463839 305:-0.078812189 306:-0.083993927 307:-0.041339867 308:0.028423814 309:0.058582168 310:-0.024427466 311:-0.096161783 312:0.085488461 313:0.0086207902 314:-0.14047268 315:-0.11660933 316:-0.13883232 317:-0.026064958 318:-0.023050491 319:-0.10532477 320:-0.1072126 321:-0.1542666 322:0.050301649 323:-0.0044064033 324:-0.11436652 325:-0.10611709 326:-0.075654879 327:-0.098530434 328:0.036825966 329:0.049981005 330:-0.0035818783 331:-0.046037864 332:0.0030318266 333:-0.0045098444 334:-0.13896707 335:0.040652037 336:-0.11499108 337:-0.038996089 338:-0.016151566 339:-0.099540874 340:-0.065228932 341:0.013916725 342:-0.021904448 343:-0.078613311 344:-0.14149296 345:-0.057515163 346:-0.030871239 347:-0.21696639 348:-0.1917538 349:-0.22368053 350:-0.20632121 351:-0.2655167 352:-0.17582397 353:0.075364262 354:-0.26966143 355:0.093465164 356:-0.25774962 357:-0.20373905 358:-0.29351604 359:-0.3545267 360:-0.3439526 361:0.40741736 362:-0.15918396 363:-0.1915677 364:-0.26051146 365:-0.29276863 366:-0.27850106 367:0.099390209 368:0.0023265318 369:-0.024808213 370:-0.012726788 371:0.10951854 372:0.072108798 373:-0.013363751 374:0.19895323 375:-0.061082624 376:0.16505924 377:0.135206 378:-0.0091143139 379:0.022404008 380:-0.093945064 381:-0.016629079 382:0.02083474 383:0.066965878 384:0.17575778 385:0.071938202 386:0.10719971 387:-0.08162117 388:2.3622579e-005 389:-0.0047022458 390:-0.023421893 391:-0.013159109 392:-0.030878397 393:0.02186634 394:-0.017978406 395:0.51549071 396:-0.0050750631 397:-0.0072626616 398:-0.026852379 399:-0.0091332989 400:0.0054167979 401:0.75988519 402:-0.025668155 403:-0.0031195127 404:-0.028706115 405:-0.014196889 406:0.0050856229 407:-0.52611333 408:0.0014993997 409:0.00072995364 410:0.26755303 411:0.047576077 412:0.36540437 413:0.33029839 414:0.05346683 415:0.40712714 416:0.0080764592 417:0.088432334 418:-0.0010446232 419:0.15395771 420:0.058426145 421:0.16764764 422:0.078931093 423:0.11812259 424:-0.014799205 425:0.43918508 426:0.45399177 427:0.13977396 428:-0.035643544 429:0.087653533 430:0.33880511 431:0.069798827 432:0.41520423 433:0.47994176 434:0.19872563 435:0.39254123 436:0.0013838867 437:0.22992876 438:0.035829462 439:0.3120333 440:0.11338106 441:0.25292325 442:0.14063771 443:0.39083865 444:-0.020906202 445:0.77997065 446:0.86485392 447:0.25960112 448:0.041858923 449:0.22067165 450:0.031119192 451:-0.23044467 452:-0.017360805 453:-0.016464742 454:0.057875264 455:-0.20417258 456:-0.01453656 457:-0.019279307 458:-0.072839342 459:-0.0063891872 460:-0.15192674 461:-0.36670697 462:-0.55907995 463:-0.1934129 464:-0.030279476 465:0.31968293 466:0.45872211 467:0.051398467 468:-0.060660943 469:-0.10248987 470:-0.049183812 471:-0.058853447 472:-0.31625557 473:-0.14409672 474:0.009208573 475:-0.16937265 476:-0.019718589 477:0.21962063 478:-0.21609472 479:0.14623377 480:0.023090856 481:-0.24546985 482:0.23651257 483:-0.15166208 484:-0.19736765 485:-0.16004102 486:-0.22022286 487:0.14101438 488:0.0075680404 489:0.037844069 490:-0.047128808 491:-0.004165289 492:-0.10866283 493:-0.09902934 494:-0.023513114 495:-0.020924125 496:-0.010246441 497:0.015869377 498:-0.061038282 499:-0.028853083 500:-0.02330222 501:-0.13707405 502:0.2229294 503:-0.10640379 504:-0.16116418 505:-0.043239374 506:-0.086713895 507:0.0031865591 508:-0.01515214 509:-0.022681575 510:-0.043114919 511:-0.0078016273 512:-0.016491028 513:-0.058539215 514:-0.02664182 515:0.0088617364 516:-0.015506222 517:-0.025999486 518:-0.10004549 519:-0.035968732 520:-0.0082885493 521:-0.074287854 522:0.089574091 523:-0.090385638 524:-0.21549915 525:-0.007541351 526:-0.044696562 527:-0.021605236 528:-0.0031439392 529:-0.010757461 530:-0.17730825 531:-0.2858271 532:-0.15731806 533:-0.26979893 534:-0.36332405 535:-0.014537269 536:0.062806517 537:-0.30620545 538:0.092497312 539:-0.27836666 540:-0.28579855 541:-0.42292145 542:-0.21983592 543:-0.30772251 544:-0.0021340093 545:-0.10818682 546:-0.095252328 547:-0.28016156 548:-0.3048602 549:-0.31694168 550:-0.057150442 551:0.049851671 552:-0.0045496486 553:-0.0095896758 554:0.012312314 555:-0.050984122 556:-0.09205424 557:-0.027080964 558:-0.2447544 559:-0.025564274 560:0.0094157774 561:-0.072729975 562:-0.036434226 563:-0.1059477 564:0.1073717 565:-0.0038768032 566:-0.02087399 567:-0.0316111 568:0.019924555 569:0.018818436 570:-0.18238491 571:-0.069602184 572:-0.0077472962 573:0.52111369 574:-0.026287647 575:-0.13762647 576:0.0093414281 577:-0.23307197 578:-0.012258501 579:-0.20818964 580:-0.19907458 581:-0.138281 582:-0.017329575 583:0.44218391 584:-0.043114476 585:-0.0010653473 586:-0.038967595 587:-0.22313872 588:-0.34386855 589:-0.21787666 590:-0.017287279 591:-0.0014297207 592:-0.020315204 593:-0.029328862 594:-0.016405601 595:-0.0095296605 596:-0.0092890402 597:-0.033145398 598:-0.37248433 599:-0.059063531 600:-0.016698824 601:-0.036602486 602:0.0014567185 603:-0.057243738 604:-0.37581846 605:-0.0055639269 606:-0.014200222 607:-0.03449655 608:-0.005807023 609:-0.013992955 610:-0.54607064 611:0.0018011015 612:0.0011357011 613:-0.047419358 614:0.018484224 615:-0.060347699 616:-0.17128401 617:-0.15692763 618:0.030171242 619:-0.0028579866 620:-0.20092468 621:-0.014953295 622:-0.16175945 623:-0.1217025 624:0.65162027 625:-0.092605576 626:0.30318868 627:-0.0070850682 628:-0.14204343 629:-0.14417055 630:-0.16156811 631:-0.025734801 632:-0.17113215 633:0.15969124 634:0.049815644 635:0.051524553 636:-0.014200848 637:0.097598225 638:0.19620854 639:-0.0047638412 640:0.056151845 641:0.010444673 642:0.13037877 643:0.0091338204 644:0.90438926 645:-0.04542521 646:0.55933583 647:-0.013002043 648:-0.086133972 649:-0.10175747 650:0.06284035 651:0.18509009 652:0.041101914 653:-0.065289363 654:0.091560721 655:-0.23965372 656:-0.19108006 657:-0.11166855 658:-0.23267564 659:-0.0092803556 660:-0.12161599 661:-0.030937467 662:-0.11663368 663:-0.059557229 664:0.46889883 665:-0.40338933 666:0.31018513 667:-0.01359068 668:-0.36389759 669:-0.27436787 670:-0.06529329 671:0.17477103 672:-0.063593894 673:-0.09975858 674:-0.058295421 675:-0.21095379 676:-0.057320289 677:-0.043445118 678:-0.13158084 679:-0.020980343 680:0.12973902 681:-0.2056509 682:0.069421403 683:0.023749325 684:-0.25522852 685:0.22285688 686:-0.17593639 687:-0.18036315 688:-0.15146746 689:-0.22344066 690:0.064071693 691:-0.022027208 692:0.0095013436 693:-0.07623145 694:-0.03261587 695:-0.068395019 696:-0.048391953 697:-0.060969576 698:-0.03796104 699:-0.02155357 700:-0.013257832 701:-0.098510705 702:-0.046319809 703:-0.032978363 704:-0.15524209 705:0.14314041 706:-0.10888828 707:-0.12153262 708:-0.055116802 709:-0.080820896 710:-0.017930657 711:-0.024955716 712:-0.021998774 713:-0.06578441 714:0.012658514 715:-0.030179245 716:-0.059617545 717:-0.057697117 718:-0.021766027 719:-0.019126143 720:-0.043260671 721:-0.14337568 722:-0.061144367 723:-0.019341512 724:-0.074794658 725:0.062719122 726:-0.088164993 727:-0.16557382 728:-0.022235172 729:-0.04418217 730:-0.031846676 731:-0.022064768 732:-0.017124048 733:-0.14792031 734:-0.2121291 735:-0.15436584 736:-0.22230275 737:-0.26861337 738:-0.03891759 739:0.041977476 740:-0.20879623 741:0.10633183 742:-0.20401126 743:-0.225852 744:0.11141504 745:-0.13256723 746:-0.13365775 747:0.038689494 748:-0.16659872 749:-0.17588526 750:-0.21294349 751:-0.26239124 752:-0.28113157 753:-0.071168959 754:0.048326567 755:-0.026327318 756:-0.032699533 757:-0.013578485 758:-0.07609424 759:-0.087815389 760:-0.044055346 761:-0.26056802 762:-0.048261426 763:-0.028196143 764:-0.096678205 765:-0.052164309 766:-0.12662227 767:0.0019097793 768:-0.02713323 769:-0.034866299 770:-0.040845428 771:-0.02040899 772:0.014221965 773:-0.17150281 774:0.14020249 775:-0.20937291 776:-0.3816562 777:-0.15356064 778:-0.14370579 779:-0.01362972 780:-0.24328575 781:-0.018915905 782:-0.20501918 783:-0.17687669 784:0.090991929 785:-0.016711859 786:0.52983224 787:-0.011682115 788:-0.22153692 789:-0.31525102 790:-0.22707704 791:0.4754878 792:-0.043838926 793:-0.027233627 794:-9.0543392e-005 795:-0.069851711 796:-0.047138993 797:-0.0051907906 798:0.0040525743 799:-0.0080863861 800:-0.01261719 801:-0.4543654 802:-0.08616323 803:-0.019718777 804:-0.065880641 805:-0.014322374 806:-0.064524733 807:-0.3831988 808:-0.00049499719 809:-0.0056157592 810:-0.032521788 811:-0.010168813 812:-0.01397701 813:0.29500595 814:-0.00026917769 815:0.00053913676 816:0.0017142381 817:0.0054769288 818:0.033247214 819:-0.03160033 820:0.045981903 821:-0.023607804 822:-0.0097909011 823:0.038265269 824:-0.021517344 825:0.03366125 826:0.054462444 827:-0.0067974268 828:-0.08924488 829:-0.098779202 830:-0.014401123 831:-0.032061882 832:-0.048564315 833:0.016634466 834:0.022691142 835:0.060656857 836:0.14783084 837:0.10373509 838:0.046915412 839:0.04214064 840:0.24822399 841:0.080093428 842:-0.0093012135 843:0.24525587 844:-0.022769827 845:0.26601341 846:0.18720971 847:0.056893039 848:0.06551978 849:-0.012028974 850:-0.014502785 851:0.072648242 852:0.11939631 853:0.20844211 854:0.17340508 855:0.23734842 856:0.010573798 857:0.012730544 858:-0.039954118 859:-0.021395955 860:0.19258533 861:-0.4049888 862:-0.011443511 863:0.40351516 864:-0.036793429 865:0.27993226 866:0.19165957 867:-0.17966565 868:-0.22609361 869:-0.024551472 870:-0.022839561 871:-0.26194766 872:-0.13774598 873:0.34213912 874:0.18992515 875:0.18607281 876:-0.22188821 877:-0.13156897 878:-0.038867123 879:0.69541824 880:-0.22820774 881:-0.013660266 882:0.0098419292 883:-0.47165513 884:1.6191897 885:-0.41213948 886:-0.23244007 887:-0.48282915 888:0.5804438 889:0.34896752 890:0.21493405 891:0.11931232 892:0.033892844 893:-0.48808241 894:-0.20888953 895:-0.25005847 896:-0.13250872 897:-0.091697805 898:0.073614545 899:0.008474296 900:-0.14564265 901:0.091960251 902:0.012801185 903:-0.31582513 904:0.19061086 905:-0.27080661 906:-0.079178706 907:-0.22591965 908:0.2103342 909:-0.26885638 910:-0.51275319 911:0.23574533 912:0.34799767 913:-0.28485236 914:-0.12484919 915:-0.1406197 916:-0.066791125 917:-0.044413455 918:0.10000601 919:0.071162134 920:-0.067624897 921:0.10990064 922:0.0032865258 923:-0.22018604 924:-0.52313411 925:-0.17975159 926:-0.029088175 927:-0.11078346 928:-0.11859582 929:-0.20931672 930:-0.33460742 931:0.15371065 932:0.24075679 933:-0.19350472 934:-0.083619416 935:-0.071240082 936:-0.095142879 937:0.0016246014 938:-0.031041328 939:-0.076254539 940:-0.019685984 941:-0.054935362 942:0.035973724 943:-0.071750842 944:0.126893 945:-0.066043079 946:-0.019132188 947:-0.13678063 948:-0.086248413 949:-0.17451106 950:0.054343365 951:-0.11412028 952:-0.15163469 953:-0.077869117 954:-0.013124729 955:-0.011813459 956:-0.18529491 957:-0.14885433 958:-0.07468386 959:-0.10637622 960:-0.16666675 961:-0.099313177 962:0.013150001 963:-0.27903509 964:-0.74048293 965:-0.24050048 966:-0.11738054 967:-0.26111186 968:-0.34805074 969:-0.33427846 970:0.27910128 971:-0.033418074 972:-0.022117807 973:-0.26044816 974:-0.19647112 975:-0.17941462 976:0.1170486 977:-0.080982871 978:0.1029198 979:0.037803415 980:0.039671194 981:0.11737151 982:-0.0057920436 983:0.1010864 984:-0.030569287 985:0.085528247 986:0.086296774 987:-0.0094685918 988:-0.0077858791 989:-0.28529152 990:0.0011255862 991:0.058415182 992:0.03553332 993:0.10926043 994:-0.09261293 995:0.062156659 996:0.042182721 997:0.00017031122 998:0.029518399 999:0.067849882 1000:-0.031225866 1001:-0.0092196781 1002:0.0064705396 1003:0.02310518 1004:0.52539688 1005:0.071848765 1006:0.0031809909 1007:0.0063679526 1008:-0.0019182564 1009:0.020132679 1010:-0.30909017 1011:0.0076900031 1012:0.017667396 1013:0.027651556 1014:-0.0084077055 1015:-0.047657602 1016:0.15237711 1017:3.7865932e-005 1018:0.0008475582 1019:0.027237045 1020:0.030826533 1021:0.044161376 1022:-0.012812067 1023:0.075107627 1024:-0.0090118563 1025:-0.0084711788 1026:0.06357041 1027:-0.04090606 1028:0.050716635 1029:0.056229088 1030:-0.038977522 1031:-0.083141521 1032:-0.11500751 1033:-0.012358958 1034:-0.016214002 1035:-0.025998758 1036:0.05437969 1037:0.017724745 1038:0.062781751 1039:0.18094367 1040:0.12574241 1041:0.08788079 1042:0.061053976 1043:0.27071697 1044:0.11837257 1045:-0.014134314 1046:0.24578711 1047:-0.040974125 1048:0.26568833 1049:0.19802846 1050:0.054792564 1051:0.038793672 1052:0.0063249185 1053:-0.014866475 1054:0.11791727 1055:0.15093336 1056:0.21130469 1057:0.15732016 1058:0.24396451 1059:0.023846183 1060:0.01532879 1061:-0.11541339 1062:-0.021969942 1063:0.19982301 1064:-0.42647657 1065:-0.018068094 1066:0.39028153 1067:-0.049146987 1068:0.26228452 1069:0.18838772 1070:-0.24102896 1071:-0.28874743 1072:-0.018970288 1073:-0.02118497 1074:-0.246786 1075:-0.11835623 1076:0.34440538 1077:0.17685165 1078:0.17221345 1079:-0.19594032 1080:0.11249999 1081:-0.14929074 1082:-0.21399789 1083:-0.20199704 1084:-0.04956397 1085:-0.011848176 1086:-0.53175986 1087:1.1093479 1088:-0.49644575 1089:-0.2350107 1090:0.4606649 1091:0.45699078 1092:0.9420175 1093:0.51698166 1094:-0.22065358 1095:-0.35890228 1096:-0.48373151 1097:0.010123463 1098:-0.25221118 1099:-0.1487685 1100:-0.080084473 1101:-0.1351175 1102:-0.18259108 1103:-0.16067071 1104:0.04919745 1105:-0.011082636 1106:-0.31122723 1107:0.0052717011 1108:-0.28335693 1109:-0.09271419 1110:0.31830263 1111:0.0022130418 1112:0.016761189 1113:0.25583094 1114:-0.061014134 1115:-0.065170392 1116:-0.30311805 1117:-0.1243561 1118:-0.16272257 1119:-0.12267171 1120:-0.040538765 1121:-0.061798468 1122:-0.092116214 1123:-0.11475564 1124:0.016835704 1125:-0.0068764687 1126:-0.23838693 1127:-0.49432039 1128:-0.20571326 1129:-0.090867795 1130:0.24052668 1131:-0.24910375 1132:0.014348813 1133:0.073157914 1134:-0.039382558 1135:-0.03002942 1136:-0.22819133 1137:-0.094112001 1138:-0.10444929 1139:-0.10209046 1140:-0.0062219957 1141:-0.055961348 1142:-0.10820487 1143:-0.019870937 1144:-0.073663771 1145:-0.019648895 1146:-0.067527443 1147:-0.078625061 1148:-0.066760577 1149:-0.035158355 1150:-0.17019038 1151:-0.10075086 1152:-0.19866419 1153:-0.023078308 1154:-0.11455224 1155:-0.15497601 1156:-0.087425128 1157:-0.031963937 1158:-0.017749732 1159:-0.16242544 1160:-0.10741227 1161:-0.10980566 1162:-0.11342055 1163:-0.11643603 1164:-0.11056737 1165:0.029872132 1166:-0.21216987 1167:-0.43142462 1168:-0.17059129 1169:-0.11887731 1170:0.062678128 1171:-0.31760123 1172:-0.11851482 1173:-0.20370597 1174:-0.085595742 1175:-0.084798485 1176:-0.20173764 1177:-0.15847501 1178:-0.13902716 1179:0.091137707 1180:-0.077886596 1181:0.079792753 1182:0.0062649027 1183:-0.0029553352 1184:0.096064165 1185:-0.0029282488 1186:0.080527917 1187:-0.053238548 1188:0.077357344 1189:0.067283995 1190:0.022118166 1191:-0.010499679 1192:-0.25920451 1193:-0.025126506 1194:0.049474087 1195:0.028204018 1196:0.093375251 1197:-0.10148435 1198:0.048996795 1199:-0.091106959 1200:0.0018932117 1201:-0.059943903 1202:-0.15113376 1203:-0.032850638 1204:-0.037281759 1205:-0.0033222269 1206:-0.050420702 1207:0.19910754 1208:-0.056608841 1209:-0.0087989783 1210:0.012392944 1211:-0.011476952 1212:0.032581013 1213:0.61084211 1214:-0.040575039 1215:-0.016966542 1216:-0.063288428 1217:-0.0055772155 1218:-0.020191576 #
