SVM-light Version V6.20
0 # kernel type
3 # kernel parameter -d 
1 # kernel parameter -g 
1 # kernel parameter -s 
1 # kernel parameter -r 
empty# kernel parameter -u 
813 # highest feature index 
119 # number of training documents 
2 # number of support vectors plus 1 
0 # threshold b, each following line is a SV (starting with alpha*y)
1 1:-0.061163392 2:0.00081652385 3:0.00054341403 4:-0.12435444 5:-0.0026573234 6:-0.024457565 7:0.1926825 8:0.078970462 9:0.13322578 10:-0.14390033 11:-0.12671332 12:-0.054383487 13:0.30919656 14:-0.013829936 15:-0.23920548 16:-0.098133303 17:-0.21099968 18:-0.042932775 19:0.18977097 20:-0.013071297 21:-0.048835684 22:-0.097365312 23:0.48007351 24:0.1046023 26:0.21826848 27:0.31449023 28:0.4705539 29:0.34411511 30:0.44163504 31:0.36941975 32:0.056499928 33:0.59510463 34:0.5278455 35:0.065482214 36:-0.048514668 37:0.26899216 38:-0.14382717 39:0.4524315 40:0.35809222 41:0.081661895 42:-0.065917104 43:0.41397446 44:-0.07701207 45:-0.012473829 46:0.87303114 47:0.7290349 48:0.14055181 49:-0.45041084 50:0.21946158 51:-0.3028478 52:0.26991543 53:0.28975073 54:-0.43373224 55:-0.21605375 56:-0.78810751 57:0.050877225 58:-0.06180571 59:-0.47101364 60:-0.3612366 61:0.45824316 62:0.27649161 63:0.078336239 64:-0.078490093 66:-0.46804827 67:-0.24968465 68:-0.038134251 69:-0.1429753 70:0.25897446 71:0.31803736 72:0.15892254 73:0.066214643 74:0.15846965 75:0.004470598 76:0.65361321 77:0.087248132 78:-0.16067396 79:0.039186087 80:-0.38792497 81:0.10781872 82:-0.32601148 83:0.20998745 84:0.19438723 86:-0.49463731 87:-0.15193978 88:0.070296682 89:-0.050222222 90:0.34061739 91:-0.18155876 92:-0.30388865 93:-0.15617518 94:0.42028996 95:0.097430713 96:0.22246006 97:0.13216941 98:0.30362642 99:0.51737833 100:0.042321734 101:-0.47325486 102:-0.1968675 103:0.11388244 104:0.0079175001 105:-0.011378697 106:0.12687103 107:-0.01784442 108:0.076984867 109:0.082676038 110:-0.2192191 111:-0.10040157 112:-0.051635753 113:0.097129956 114:-0.054769468 115:0.03373814 116:0.081610888 117:0.11085311 118:0.23604925 119:0.036221787 120:-0.16833733 121:0.022161931 122:-0.012877273 123:-0.18410952 124:-0.1716781 126:-0.47582179 127:-0.044486124 128:-0.47031966 129:0.21848953 130:-0.47858825 131:-0.087333679 132:-0.21385598 133:-0.0645063 134:-0.40588471 135:-0.17778027 136:-0.17296062 137:-0.67430282 138:0.00053175195 139:-0.5090124 140:-0.078646876 141:-0.20996016 142:-0.17019568 143:-0.08439488 144:-0.09666916 145:-0.21554837 146:-0.10007872 147:0.087452985 148:0.071853511 149:0.011602692 150:0.23817344 151:-0.040600177 152:0.091745384 153:-0.02941951 154:-0.18111174 155:-0.038954228 156:0.053519867 157:0.17185313 158:0.50203174 159:-0.085439749 160:0.41451827 161:-0.013154882 162:0.084049605 163:0.13603613 164:-0.19451757 166:-0.0068260892 167:0.0029331387 168:-0.12977809 169:0.0066783428 170:-0.16410612 171:0.061391704 172:0.39342618 173:-0.036533121 174:0.12792379 175:-0.075402357 177:0.037724197 178:-0.084752768 179:0.15542632 180:0.1174123 192:0.091352575 198:-0.031033266 203:0.15068054 204:-0.53193915 205:0.0016449174 206:0.00089237036 207:0.08365085 208:0.062519155 209:-0.021167833 210:-0.15620741 211:-0.38298115 212:0.25227842 213:-0.1631069 214:-0.18210104 215:0.17951578 216:-0.22653134 217:-0.091946393 218:0.21155132 219:0.059066795 220:-0.036766291 221:0.66485155 222:0.061917681 223:-0.39315593 224:0.16523658 225:0.18453503 226:0.076678403 227:0.12026374 228:0.1501009 229:-0.12819394 230:-0.11848042 231:-0.33881679 232:-0.16291064 233:0.13079379 234:-0.16431586 235:-0.089898944 236:0.20977394 237:-0.11633614 238:-0.018280221 239:0.046116013 240:0.27621534 241:0.42015073 242:-0.08036153 243:-0.18816498 244:0.19122066 245:0.018865224 246:0.15987353 247:-0.16951877 248:0.11934397 249:1.233366 250:0.42075852 251:-0.18373835 252:-0.54682302 253:0.19292915 254:0.22013181 255:0.042123761 256:-0.4751927 257:-0.11621927 258:-0.41419521 259:-0.32815146 260:0.0062508872 261:0.91950041 262:-0.020109652 263:-0.33039013 264:0.097308837 265:-0.0076653715 266:-0.47636488 267:0.27300975 268:-0.02435662 269:-0.07126759 270:-0.54081148 271:-0.12820365 272:0.14884739 273:0.10331526 274:-0.33956197 275:0.22302176 276:-0.3321262 277:0.52771449 278:-0.060017783 279:1.0304706 280:-0.34962904 281:-0.036664281 282:0.15899968 283:-0.13657433 284:-0.088269882 285:0.26041913 286:-0.4349708 287:-0.05801053 288:0.10118376 289:-0.45371482 290:-0.4923968 291:-0.26418978 292:-0.061376981 293:-0.29279825 294:-0.20026758 295:-0.12795252 296:-0.35246935 297:0.15461126 298:-0.080925137 299:-0.43208182 300:-0.16735043 301:-1.0896435 302:-0.029981079 303:-0.25996339 304:-0.18464211 305:-0.28495517 306:-0.34523568 307:-0.14979585 308:0.070289791 309:-0.41574511 310:-0.22207123 311:-0.22053877 312:-0.022526132 313:-0.18785483 314:-0.26861036 315:0.084585495 316:-0.15188834 317:-0.0028620693 318:0.14728537 319:0.077842221 320:-0.054163005 321:-0.85174346 322:0.23038042 323:0.080676652 324:-0.13734943 325:0.14555794 326:-0.094719812 327:-0.13330774 328:-0.094858259 329:-0.0064591821 330:0.089991674 331:0.24543157 332:-0.18717457 333:0.028916398 334:-0.081995785 335:0.12669854 336:0.068304479 337:0.32827953 338:-0.021086741 339:-0.042687278 340:0.042751186 341:1.0663804 342:0.16712993 343:-0.0038293796 344:0.055838093 345:0.45793453 346:0.025071433 347:-0.25192913 348:-0.2513065 349:-0.44290414 350:-0.16255876 351:-0.043425407 352:-0.037459504 353:-0.24493432 354:-0.012764596 355:0.12779742 356:-0.44950041 357:-0.34721151 358:0.39285895 359:-0.16393441 360:-0.048320547 361:-0.54279864 362:-0.080701664 363:-0.016416313 364:-0.088452607 365:0.017810456 366:-0.23107867 367:0.57502288 369:-0.13271324 370:-0.18087296 371:-0.069580637 372:0.16606131 373:-0.043418419 374:0.22594023 375:-0.081458949 376:0.054020919 377:-0.072919846 378:0.40904084 380:-0.22741382 381:0.013082554 382:-0.19626082 383:-0.2551856 395:0.086281262 401:0.47119668 406:-0.3741335 407:-0.39180312 408:-0.00035292501 409:5.9593618e-005 410:-0.017387725 411:-7.7632245e-010 412:-0.062547214 413:0.089298993 414:-0.35992229 415:0.16299993 416:-0.015151516 417:0.0096399989 418:-0.075757578 419:-0.064333692 420:-0.092721187 421:0.22458163 422:0.080797121 423:0.20252742 424:0.081311792 425:0.068402767 426:0.39606142 427:0.032014232 428:-0.3127133 429:-0.35233963 430:0.48658365 431:-0.015151516 432:-0.11570136 433:0.071379617 434:-0.38688463 435:-0.26548526 436:-0.015151516 437:0.21218829 438:-0.068719357 439:0.0047594733 440:-0.12473614 441:0.22727501 442:-0.12775651 443:0.25167105 444:0.35429958 445:-0.09555538 446:0.022643095 447:-0.16399939 448:-0.25517294 449:-0.021998785 450:0.19382605 451:-0.0081735943 452:-0.02156393 453:0.00011211779 454:0.014263632 455:-0.19377607 457:0.11758016 458:-0.093463711 459:0.036300648 460:0.2904762 461:-0.027892256 462:-0.49768582 463:-0.25593373 464:0.17164105 465:-0.34272653 466:0.15043338 467:-0.22858185 468:0.076249301 469:0.16921914 470:0.1485211 472:0.53108799 473:-0.55288041 474:0.13410212 475:-0.13445958 476:-2.5493412e-013 477:-0.059853062 478:-0.15666385 479:-0.37059861 480:-0.096278675 481:0.25760397 482:-0.020620326 483:0.29571643 484:-0.54909384 485:0.24648933 486:-0.1764909 487:0.1665621 488:-0.27640498 489:0.16356546 490:-0.042493742 491:-0.015151516 492:-0.22304092 493:0.2271211 494:0.19852223 495:-0.22638501 497:0.61831462 498:-0.1823353 499:-0.17737062 500:-0.10637066 501:-0.014398145 502:0.13818523 503:-0.11138237 504:-0.44247743 505:0.18951221 506:-0.10872786 507:0.19691758 508:0.16233627 509:0.32281658 510:-0.45150948 512:0.16760923 513:-0.015338751 514:0.1013329 515:0.33856156 517:-0.41049799 518:-0.11321292 519:-0.26286361 520:-0.079400755 521:0.47225153 522:0.28914833 523:0.19377491 524:-0.43197873 525:-0.018503521 526:0.47741887 527:0.039467115 528:0.49186945 529:-0.28017455 530:0.10471695 531:-0.068722218 532:-0.10307904 533:0.099812098 534:-0.00099128834 535:-0.12566683 536:0.42204747 537:0.073501796 538:0.4263365 539:0.28014463 540:-0.43212935 541:-0.0056158104 542:0.077037632 543:-0.029091138 544:0.11922102 545:-0.15868999 546:0.29456741 547:0.13062312 548:-0.25278464 549:-0.12580326 550:0.10761075 551:-0.0094287051 552:0.11341572 553:-0.20212829 554:0.33707315 555:-0.086952239 557:-0.2291044 558:-0.22420347 559:-0.10893136 560:0.23885298 561:0.044649497 562:-0.21112898 563:0.11593154 564:-0.65201074 565:-0.201529 566:0.60626721 567:-0.13752826 568:-0.011077316 569:0.059414763 570:0.050281636 572:0.49052951 573:-0.041262515 574:0.039970905 575:-0.35607758 576:0.053323593 577:-0.017727384 578:-0.23409 580:-0.028765429 581:-0.20618933 583:-0.20402895 584:0.063205302 585:-0.030268708 586:-0.028596817 598:-0.22744685 604:-0.22224894 610:0.3428553 611:0.0007188571 612:0.00084347313 613:0.01870911 614:0.33245131 615:0.020668423 616:0.29677609 617:0.38097841 618:-0.028704943 619:-0.30503058 620:0.13794693 621:0.099654488 622:0.47975713 623:0.037433963 624:-0.33788842 625:-0.098331988 626:-0.35395581 627:-0.30650976 628:0.00032454752 629:-0.29645211 630:-0.2015591 631:0.16853242 632:0.49672705 633:-0.021936279 634:0.30541265 635:-0.11351255 636:0.2659266 637:0.24457915 638:0.18289922 639:0.12949705 640:0.38612118 641:0.31036535 642:0.29968637 643:0.47871563 644:-0.31003496 645:-0.099451728 646:-0.040453587 647:-0.22308382 648:0.43797696 649:-0.17534678 650:0.19284323 651:-0.18442711 652:0.18132576 653:-0.2103882 654:-0.045280457 655:1.1519778 656:0.90451556 657:0.21925981 658:-0.54593879 659:-0.11616164 660:0.11511343 661:0.070987828 662:0.25897381 663:0.06466043 664:-0.33649999 665:-0.73568755 666:-0.14786418 667:0.23156689 668:-0.54594135 669:-0.25319684 670:0.31891835 671:-0.11311322 672:-0.23055023 673:0.031438705 674:-0.015151516 675:-0.18634996 676:-0.51991373 677:0.37769213 678:0.43103284 679:0.051170025 680:0.26502478 681:-0.28521803 682:0.16529717 683:-0.29738879 684:0.07836166 685:0.90948933 686:-0.17061783 687:-0.28210765 688:-0.025242543 689:0.081053831 690:-0.18661436 691:-0.52844185 692:0.16183728 693:0.19412224 694:-0.045454547 695:-0.087629572 696:-0.085913114 697:0.078209393 698:0.2417853 699:0.011593652 700:0.094014607 701:-0.31680822 702:0.081111647 703:-0.15194696 704:0.17561455 705:0.46568507 706:-0.094021171 707:0.4158904 708:-0.074821621 709:0.24329174 710:-0.35737365 711:-0.23512626 712:-0.074942484 713:0.040842637 714:-0.04556958 715:0.022762837 716:-0.20029846 717:-0.05160464 718:0.44106483 719:-0.030793294 720:0.0084378598 721:-0.11944492 722:-0.09364491 723:-0.019702733 724:-0.26940653 725:-0.039074093 726:0.14459437 727:0.34874535 728:-0.083814755 729:0.27652183 730:0.1814103 731:0.34747916 732:-0.1130113 733:0.015211895 734:-0.11028006 735:-0.17457373 736:0.044468608 737:-0.21106221 738:0.18560953 739:-0.41225234 740:-0.029722892 741:0.027085569 742:0.19290611 743:-0.019961089 744:-0.02484007 745:-0.27275136 746:-0.087426104 747:-0.60513008 748:0.0082063721 749:-0.25332689 750:-0.098892041 751:0.28597921 752:0.057494771 753:-0.070933223 754:-0.15035823 755:-0.26856411 756:-0.10086783 757:-0.15984285 758:0.09405975 759:0.055818185 760:-0.12722173 761:0.18218693 762:-0.11885979 763:-0.042809889 764:0.15991984 765:-0.007983 766:0.48085147 767:0.58668315 768:0.01911583 769:0.15738519 770:0.18022233 771:0.35300714 772:-0.25661984 773:-0.43078697 775:-0.35099018 776:0.21920234 777:0.15938783 778:0.18333794 779:0.15420094 780:-0.26960453 781:-0.077877231 782:-0.0174878 783:-0.026238509 784:-0.12744915 786:0.39371857 787:0.0084649045 788:0.071103208 789:0.16637012 801:0.049813017 807:-0.21791445 812:0.22345294 #
