SVM-light Version V6.20
0 # kernel type
3 # kernel parameter -d 
1 # kernel parameter -g 
1 # kernel parameter -s 
1 # kernel parameter -r 
empty# kernel parameter -u 
813 # highest feature index 
110 # number of training documents 
2 # number of support vectors plus 1 
0 # threshold b, each following line is a SV (starting with alpha*y)
1 1:-0.25314415 2:0.0020197716 3:0.0021542597 4:-0.11852457 5:-0.1066377 6:-0.071513399 7:-0.19551724 8:-0.28246766 9:-0.040193912 10:-0.017540965 11:-0.30799213 12:-0.21154375 13:-0.2947838 14:-0.18404929 15:-0.14417452 16:-0.29039341 17:-0.22775386 18:0.03600027 19:-0.13418114 20:-0.20530914 21:-0.25410438 22:-0.24347252 23:-0.29692742 24:0.62987339 25:0.18504053 26:0.51308846 27:0.4595437 28:0.41358623 29:0.5983212 30:0.29367471 31:0.47946483 32:0.08784394 33:0.53635311 34:0.34779286 35:0.60531515 36:0.18840972 37:0.45093635 38:0.036762025 39:0.37618983 40:0.3628051 41:0.50550467 42:0.21543428 43:0.36601368 44:0.23372695 45:-0.042846911 46:0.16965763 47:0.20847838 48:0.03356446 49:-0.029883379 50:-0.12309165 51:0.20420766 52:-0.068605959 53:0.19941576 54:0.020031355 55:0.066587746 56:-0.60239196 57:0.24079935 58:-0.17888263 59:-0.16524467 60:0.017488306 61:0.27339548 62:0.071545482 63:0.0079960721 64:0.02460907 65:0.025081072 66:-0.26268798 67:-0.044370402 68:0.20863664 69:-0.21920449 70:-0.64467019 71:0.5237959 72:-0.43021333 73:0.42059594 74:0.2292379 75:-0.081551485 76:0.43118283 77:0.04993768 78:-0.40407935 79:-0.068127833 80:-0.040804494 81:0.38525057 82:0.20592652 83:0.22740288 84:0.11001144 85:0.086449973 86:0.025731768 87:0.10212092 88:0.12156551 89:0.089302234 90:-0.60762495 91:0.16645712 92:-0.34936789 93:0.15101309 94:0.069872595 95:0.072078347 96:0.23255238 97:0.16711873 98:-0.3620933 99:0.11479745 100:0.1217185 101:0.15706646 102:0.088100381 103:0.10407054 104:0.1214411 105:0.12391965 106:0.11759654 107:0.12949294 108:0.1005628 109:0.14352658 110:-0.53272718 111:0.11198829 112:-0.33464932 113:0.10830756 114:0.061069991 115:0.1306648 116:0.13712907 117:0.16043679 118:-0.30114147 119:0.15740392 120:0.15057537 121:0.11864184 122:0.070396952 123:0.12061392 124:-0.25002092 125:-0.28732207 126:-0.21757065 127:-0.28432897 128:-0.40552634 129:-0.12355126 130:0.49370912 131:-0.42309892 132:0.28112075 133:-0.39263713 134:-0.33252609 135:-0.30232373 136:-0.25827724 137:-0.35293874 138:0.67744201 139:-0.26059324 140:-0.34889683 141:-0.37304574 142:-0.45728123 143:-0.43282238 144:0.019889869 145:0.074921496 146:0.072508059 147:0.061063141 148:0.059108835 149:-0.002297241 150:-0.26022288 151:0.012983673 152:-0.21996765 153:0.010832814 154:0.046677407 155:0.07200931 156:0.022386665 157:0.067987517 158:-0.072272867 159:0.045767087 160:0.058392204 161:0.0047165062 162:0.08624617 163:0.064315148 164:0.0018565023 165:0.081363924 166:-0.009192558 167:-0.089343056 168:0.013454273 169:-0.055683795 170:0.042840548 171:0.012206879 172:0.23470455 173:0.023137394 174:-0.01084918 175:0.015680553 176:0.048963197 177:-0.045379337 178:0.064325973 179:0.047826737 180:0.11365735 181:0.02441144 182:-0.011081521 183:0.033047613 184:0.049300913 186:0.0046676872 187:0.082372092 188:0.014884004 189:0.020485168 190:0.015259543 191:0.039025214 192:0.066321351 193:0.048274927 194:0.02489911 195:0.031262081 196:0.012057223 197:0.031382676 198:0.0042821965 199:0.019109132 200:0.0065880651 201:0.033785205 202:0.016041489 203:0.015949421 204:0.028379386 205:0.0024823195 206:0.002345881 207:0.286589 208:0.20468757 209:0.2722851 210:0.26892075 211:0.2721853 212:0.23153009 213:-0.10024984 214:0.33209249 215:-0.069658197 216:0.31534067 217:0.25641093 218:0.36320835 219:0.14413102 220:0.30039051 221:-0.17350407 222:0.27312228 223:0.28975299 224:0.31469479 225:0.18048152 226:0.26694769 227:0.22314735 228:0.079944588 229:-0.040714893 230:0.076154612 231:0.26453847 232:0.085721768 233:0.077343449 234:0.30581701 235:-0.006477131 236:0.35527712 237:0.19552349 238:0.14012574 239:0.10782327 240:0.19110112 241:-0.35696283 242:0.13693967 243:0.23390386 244:0.27532738 245:0.23597637 246:0.26141697 247:0.12943377 248:-0.0094915908 249:0.10850436 250:0.1891821 251:0.18434076 252:-0.64889497 253:0.34292358 254:0.57128036 255:0.41922697 256:0.42757845 257:0.22255374 258:-0.26259482 259:-0.4076263 260:0.23508577 261:-0.24595626 262:-0.2831977 263:-0.015462787 264:0.55104083 265:0.23129098 266:0.21674579 267:0.096795402 268:0.030534878 269:-0.090499565 270:-0.22535427 271:0.053704645 272:0.42483914 273:0.18947905 274:-0.14490542 275:0.5246672 276:-0.11628113 277:-0.0092963073 278:-0.041982327 279:0.90438759 280:-0.29915351 281:0.35493892 282:0.24499358 283:0.094116405 284:-0.1280027 285:0.043520764 286:0.049460731 287:-0.019943377 288:-0.02892215 289:-0.055770945 290:-0.062937945 291:-0.13078663 292:0.18130711 293:0.0048633479 294:-0.20216489 295:0.06681449 296:-0.2123304 297:-0.061744131 298:-0.067587681 299:-0.14546567 300:-0.086625792 301:-0.56098187 302:0.057383429 303:-0.033519246 304:-0.16652411 305:-0.11154255 306:-0.12522379 307:-0.051010396 308:-0.057370227 309:-0.0136222 310:-0.070110269 311:-0.14216664 312:0.059709653 313:0.10589245 314:-0.19775829 315:-0.16410412 316:-0.19486339 317:-0.082882091 318:-0.040299106 319:-0.1895508 320:-0.11559526 321:-0.45282063 322:0.017380759 323:-0.033506069 324:-0.17104003 325:-0.1524078 326:-0.13705817 327:-0.028940611 328:0.05507537 329:0.0411277 330:0.052443489 331:0.031709451 332:0.019132249 333:-0.050282303 334:-0.030372843 335:0.11392414 336:-0.028204737 337:0.020937858 338:0.045179039 339:-0.078936979 340:0.019833116 341:0.082157969 342:0.0041573308 343:0.0064592115 344:-0.025674552 345:0.037392579 346:0.02670511 347:-0.29759011 348:-0.30988118 349:-0.26005203 350:-0.26830798 351:-0.36793402 352:-0.22053328 353:0.35507575 354:-0.39302856 355:0.16095395 356:-0.38071468 357:-0.30562875 358:-0.30746901 359:-0.431512 360:-0.37309051 361:-0.065962791 362:-0.23619063 363:-0.27582809 364:-0.38387224 365:-0.40559772 366:-0.38940021 367:0.1454854 368:0.0082296282 369:0.092700459 370:0.1245502 371:0.11285833 372:0.12954432 373:0.078630202 374:0.13914846 375:0.011623674 376:0.11228443 377:0.14876841 378:0.11904117 379:0.001823907 380:0.123363 381:0.093626879 382:0.091426112 383:0.084326446 384:0.1531539 385:0.069895841 386:0.11548235 387:0.0083286446 389:0.087433197 390:0.050702505 391:0.028247137 392:-0.0034783185 393:0.017867291 394:0.039045438 395:0.59761226 396:0.082428239 397:0.0041860458 398:0.03581658 399:-0.00061637332 400:0.061434731 401:0.8722896 402:0.0066676447 403:0.012600608 404:0.015793582 405:-0.00033646749 406:0.039940771 407:-0.17946909 408:0.00039930132 409:0.00043608691 410:-0.02849571 411:0.0011601925 412:0.0099720219 413:0.0062413695 414:-0.0034877462 415:0.010057461 416:-0.032027043 417:-0.0002368361 418:-0.017443597 419:0.0063438932 420:0.0069169863 421:0.02597864 422:-0.0080608008 423:-0.014207638 424:0.015407818 425:0.0249655 426:0.026599014 427:-0.028722622 428:-0.013372951 429:0.030368837 430:-0.064870581 431:-0.0023001782 432:-0.060672492 433:0.0086172232 434:-0.024313472 435:-0.046114691 436:-0.036615293 437:-0.040413439 438:-0.038025308 439:0.0048231268 440:-0.019735485 441:0.026354233 442:-0.029326109 443:0.0032169344 444:0.088656656 445:-0.019676976 446:-0.010303332 447:-0.05049726 448:0.080113217 449:-6.047167e-005 450:-0.12988169 451:-0.046375189 452:-0.060089622 453:-0.040738817 454:-0.063632004 455:-0.070527136 456:-0.023039328 457:-0.085938521 458:-0.04370185 459:-0.050728884 460:-0.023353459 461:-0.03114114 462:-0.054203641 463:-0.070479356 464:0.048829857 465:-0.047493994 466:-0.027802838 467:-0.10453743 468:0.095778622 469:-0.03755353 470:-0.06278488 471:0.029740764 472:-0.0033005204 473:-0.022579167 474:-0.043895867 475:-0.058124114 476:-0.042650267 477:-0.1318083 478:-0.042565014 479:-0.10866532 480:-0.04322388 481:-0.033997629 482:-0.031178443 483:0.080062181 484:-0.12484555 485:0.014483767 486:-0.06523174 487:-0.099442378 488:-0.012279429 489:-0.064324185 490:-0.039136428 491:0.0048996266 492:-0.029612154 493:-0.00076790788 494:-0.059646554 495:-0.052132342 496:-0.024115009 497:-0.069658823 498:-0.06311021 499:-0.096987307 500:-0.014851441 501:-0.0016297307 502:-0.048432063 503:-0.048700619 504:-0.031267822 505:-0.035722889 506:-0.043451406 507:-0.077252813 508:-0.021544149 509:-0.040914118 510:-0.048849728 511:-0.018534826 512:-0.00062645692 513:-0.024324778 514:-0.040079027 515:-0.039860014 516:-0.030575847 517:-0.057068631 518:-0.13792974 519:-0.080504648 520:-0.02545172 521:-0.0027073959 522:-0.073345348 523:-0.038797501 524:-0.056281567 525:-0.03323742 526:0.016592734 527:-0.051078863 528:-0.0095365578 529:-0.026391638 530:-0.035361659 531:-0.021834403 532:0.0055276924 533:0.039428402 534:0.020380467 535:-0.012733164 536:0.020819258 537:0.026857724 538:-0.008184812 539:0.022763511 540:-0.00094372721 541:0.043928608 542:-0.044697557 543:0.042010449 544:0.1146462 545:0.004346122 546:0.025151813 547:-0.0044609108 548:0.017506225 549:0.018457206 550:-0.096832454 551:0.0059832428 552:0.0058741914 553:-0.014851428 554:-0.053049937 555:-0.043324463 556:-0.045084681 557:-0.10498029 558:-0.22875209 559:-0.10019688 560:-0.014361301 561:-0.032521825 562:-0.044724293 563:-0.059165195 564:-0.11386731 565:-0.024724275 566:-0.020111848 567:-0.095452636 568:-0.055072919 569:-0.039362773 570:-0.084777504 571:0.0017287931 572:-0.023561005 573:-0.021658238 574:-0.060695354 575:0.0017197221 576:-0.027991079 577:-0.061638094 578:-0.073363468 579:-0.063407272 580:-0.050422192 581:-0.04505061 582:-0.012442827 583:-0.02579068 584:-0.015853964 585:-0.062638134 586:-0.085782818 587:-0.10050264 588:0.019838735 589:-0.074321337 590:-0.029034926 592:-0.01914072 593:-0.039713033 594:-0.013835758 595:-0.0026067181 596:-0.0082242461 597:-0.028175799 598:-0.26236269 599:-0.032494482 600:-0.012689716 601:-0.023145616 602:-0.0042666146 603:-0.026354624 604:-0.30149543 605:-0.00713174 606:-0.0046300744 607:-0.023485078 608:-0.0055971011 609:-0.022225596 610:-0.30619437 611:0.00056215859 612:0.00064105663 613:0.090037741 614:0.037368488 615:0.13522483 616:0.11005057 617:0.087575532 618:0.10777129 619:-0.33214989 620:0.097518109 621:-0.33556131 622:0.091042854 623:0.053145804 624:0.13963163 625:-0.030706516 626:0.066979446 627:-0.19216698 628:0.12544951 629:0.10908534 630:0.10840417 631:0.035871491 632:0.068491839 633:0.19763938 634:0.053830158 635:0.09558741 636:0.1461006 637:0.22561806 638:0.21040748 639:-0.38793549 640:0.22155052 641:-0.35640156 642:0.24858704 643:0.15353456 644:0.16759589 645:0.13480176 646:0.14843228 647:-0.22000486 648:0.22945423 649:0.22720692 650:0.19327235 651:0.14825955 652:0.22105029 653:-0.021181572 654:-0.097416922 655:0.029922014 656:-0.0016675425 657:0.042873014 658:-0.37789723 659:-0.46190128 660:0.24889596 661:-0.43596628 662:0.15896772 663:0.061498009 664:-0.16916987 665:-0.30355391 666:0.011042027 667:-0.4131662 668:-0.20386915 669:-0.064216569 670:0.2162912 671:0.079888202 672:0.075327739 673:-0.2844142 674:0.062389564 675:-0.34810188 676:-0.50102359 677:-0.042944666 678:-0.11648706 679:0.51784122 680:-0.288697 681:0.046575341 682:-0.26568949 683:-0.1749979 684:-0.23395437 685:1.0540525 686:-0.3973656 687:0.06846004 688:-0.13661572 689:-0.16545904 690:-0.29776376 691:-0.023392655 692:-0.097712316 693:-0.16170771 694:0.0098416433 695:-0.08830753 696:-0.056227643 697:-0.12143217 698:0.061347101 699:0.21472478 700:-0.27125281 701:0.18589701 702:-0.2549127 703:-0.13750204 704:-0.11013059 705:0.20912036 706:-0.050676357 707:0.39532253 708:-0.09425687 709:-0.17962007 710:-0.27578717 711:-0.10202425 712:-0.1638982 713:-0.20117584 714:-0.013610737 715:-0.033929005 716:-0.08763618 717:-0.19127786 718:-0.074422598 719:0.33143029 720:-0.28700438 721:0.63034487 722:-0.27457276 723:-0.16135369 724:-0.055380456 725:-0.28304404 726:-0.080460198 727:0.93361253 728:-0.10349789 729:-0.15504622 730:-0.25995815 731:-0.13858177 732:-0.14015397 733:-0.1276518 734:-0.077731974 735:-0.029051213 736:-0.035218589 737:-0.11106684 738:-0.041087836 739:-0.20413138 740:-0.16374251 741:-0.15162715 742:-0.14337805 743:-0.08142779 744:-0.029219797 745:-0.12107022 746:-0.05349673 747:-0.08043889 748:-0.02650822 749:-0.065370008 750:-0.14964722 751:-0.13599308 752:-0.095306762 753:-0.094820268 754:0.04940724 755:0.063514769 756:0.07812456 757:-0.036242697 758:-0.0057042115 759:1.0088584 760:-0.10278712 761:1.1964877 762:-0.061791286 763:-0.071874402 764:0.049177986 765:-0.089479983 766:0.033136658 767:1.5544604 768:0.04630417 769:0.010092009 770:-0.10674135 771:-0.041629732 772:-0.038274515 773:-0.062564403 774:-0.091322348 775:-0.059946895 776:-0.013548903 777:-0.065617248 778:-0.075580247 779:-0.093479671 780:-0.089717232 781:-0.17296477 782:-0.072014555 783:-0.087497041 784:-0.08967112 785:-0.038344275 786:-0.052192982 787:-0.14209889 788:-0.076614715 789:-0.11220098 790:-0.077062696 791:-0.07865306 792:-0.074208632 793:-0.028594634 795:-0.072960168 796:-0.093361564 797:-0.029295383 798:-0.014400131 799:-0.024902588 800:-0.049894851 801:-0.40157092 802:-0.098208681 803:-0.016395438 804:-0.043933045 805:-0.0071742353 806:-0.066462785 807:-0.57507634 808:-0.018645037 809:-0.014558599 810:-0.026093712 811:-0.010107921 812:-0.033664595 #
