SVM-light Version V6.20
0 # kernel type
3 # kernel parameter -d 
1 # kernel parameter -g 
1 # kernel parameter -s 
1 # kernel parameter -r 
empty# kernel parameter -u 
813 # highest feature index 
121 # number of training documents 
2 # number of support vectors plus 1 
0 # threshold b, each following line is a SV (starting with alpha*y)
1 1:-0.18820557 2:0.0018173903 3:0.00189629 4:-0.12093505 5:-0.12938875 6:-0.025331384 7:-0.12574565 8:-0.21839666 9:-0.025922136 10:-0.1605233 11:-0.24823669 12:-0.40949687 13:-0.20384759 14:-0.16146891 15:-0.081980504 16:-0.35919285 17:-0.22296786 18:0.12535064 19:-0.027902251 20:-0.16175584 21:-0.22025236 22:-0.22043052 23:-0.22503844 24:0.56711352 25:0.15739493 26:0.39118883 27:0.3756645 28:0.39515641 29:0.51201767 30:0.4763529 31:0.42997277 32:0.12460326 33:0.51638436 34:0.34143904 35:0.51157516 36:0.054476105 37:0.37385619 38:0.076754063 39:0.34558046 40:0.31917301 41:0.4430728 42:0.20420124 43:0.36330852 44:0.16432796 45:-0.13975672 46:0.32855129 47:0.13695878 48:0.031182354 49:-0.18945321 50:0.16410932 51:0.25377846 52:0.26324472 53:0.19146623 54:-0.080240034 55:-0.028040042 56:-0.82368761 57:0.15295303 58:-0.15227237 59:-0.31199884 60:-0.14517044 61:0.30449775 62:-0.02297866 63:-0.015955575 64:-0.10487821 65:-0.019196443 66:-0.44420868 67:-0.19750121 68:0.13551913 69:-0.20218883 70:-0.13963212 71:0.41231921 72:-0.10346888 73:0.26912913 74:0.083024144 75:-0.1713351 76:0.63344413 77:0.0013571568 78:-0.413699 79:-0.14532866 80:-0.1000234 81:0.2575734 82:0.16769031 83:0.16292033 84:0.0012220137 85:0.024337931 86:-0.087859586 87:0.0058383481 88:0.060965423 89:0.039561145 90:-0.25703567 91:0.052556649 92:0.016400484 93:0.024904151 94:0.011371596 95:-0.00329064 96:0.31184363 97:0.073255338 98:-0.24521725 99:0.051272821 100:0.045508754 101:0.031606603 102:0.081070423 103:0.040299814 104:0.020534843 105:0.031892005 106:0.026431307 107:0.047215559 108:0.02187733 109:0.084961325 110:-0.24945219 111:0.0032304607 112:0.03153339 113:0.013474675 114:-0.0089368811 115:0.080540977 116:0.14224905 117:0.083356053 118:-0.11305607 119:0.088370077 120:0.087908871 121:0.015863456 122:0.0068272315 123:0.00071014697 124:-0.24029173 125:-0.23568821 126:-0.17140625 127:-0.23192669 128:-0.346302 129:-0.083558552 130:0.06266588 131:-0.41051173 132:-0.15250905 133:-0.34112686 134:-0.35934985 135:-0.23522978 136:-0.37103546 137:-0.35626215 138:0.90258265 139:-0.19375703 140:-0.31344914 141:-0.36881039 142:-0.36140019 143:-0.41132569 144:-0.014013502 145:0.092041306 146:0.063410059 147:0.095266208 148:0.047176659 149:0.047755253 150:0.031977925 151:0.020655796 152:0.15129076 153:0.018333841 154:0.062981822 155:0.09732791 156:0.059871953 157:0.081659429 158:0.34509304 159:0.061694518 160:0.070125096 161:0.010098958 162:0.054577734 163:0.078012764 164:0.053345077 165:-0.024365144 166:0.039848853 167:-0.12587902 168:-0.046565142 169:0.0055788346 170:0.15386094 171:-0.07496386 172:0.24051237 173:-0.037537888 174:-0.024518719 175:-0.02781727 176:0.033765923 177:-0.2139087 178:0.11317799 179:0.033816449 180:0.086735673 181:-0.036761459 182:-0.054670405 183:-0.01213812 184:0.025511142 185:0.0075846012 186:0.020378929 187:-0.024652578 188:-0.0022681151 189:0.015996715 190:0.044458732 191:0.0063436939 192:-0.071141228 193:0.0044898451 194:0.02434917 195:0.049450651 196:0.0030769189 197:-0.0026948329 198:-0.11605073 199:0.022430765 201:0.050845202 203:0.023407521 204:0.23234609 205:0.0023942988 206:0.002259569 207:0.19813304 208:0.12654895 209:0.17131853 210:0.1751613 211:0.22751981 212:0.092819773 213:0.17216378 214:0.22202404 215:0.25751001 216:0.24530916 217:0.18927634 218:0.26991236 219:0.065581717 220:0.24645305 221:-0.078658879 222:0.21454924 223:0.20678465 224:0.25019902 225:0.14523222 226:0.22886607 227:0.16435653 228:0.03318239 229:-0.14263062 230:0.019619359 231:0.225219 232:-0.0046943342 233:0.42301586 234:0.26975283 235:0.19398654 236:0.31588718 237:0.19761261 238:0.092055745 239:0.00046856373 240:0.13215247 241:-0.31329331 242:0.065606862 243:0.15547541 244:0.24597493 245:0.24104223 246:0.22709037 247:0.08681073 248:-0.11616912 249:0.29829958 250:0.19107462 251:0.14648227 252:-0.78453177 253:0.60970908 254:0.56180131 255:0.62697953 256:0.41888696 257:0.2154828 258:-0.32817796 259:-0.54306424 260:0.1538576 261:-0.2288578 262:-0.37276056 263:-0.084722012 264:0.58000189 265:0.24645922 266:0.18950045 267:0.13663094 268:0.023005784 269:-0.17512332 270:-0.26258403 271:0.041394845 272:0.42251259 273:0.30839416 274:-0.16782862 275:0.35213783 276:-0.13165762 277:-0.01221873 278:-0.046371594 279:1.046926 280:-0.34007734 281:0.33251971 282:0.24519822 283:0.10887413 284:-0.12275396 285:0.079843767 286:0.028239861 287:-0.057464518 288:-0.058732077 289:-0.20813887 290:-0.13786294 291:-0.20510514 292:0.12736529 293:-0.10133087 294:-0.27441165 295:-0.069166899 296:-0.27871844 297:-0.091041647 298:-0.16610211 299:-0.19694868 300:-0.15675953 301:-0.78531533 302:0.0015736441 303:-0.096041821 304:-0.22966562 305:-0.134922 306:-0.20246013 307:-0.094039261 308:-0.060514733 309:-0.12640555 310:-0.12012927 311:-0.21373951 312:0.035525862 313:-0.028986339 314:-0.26362425 315:-0.27198306 316:-0.24639419 317:-0.095274277 318:-0.10345981 319:-0.18515241 320:-0.17051888 321:-0.65281552 322:0.0023523811 323:-0.064941652 324:-0.23594487 325:-0.1555447 326:-0.16789035 327:-0.030994562 328:0.059542984 329:0.035765376 330:0.050648261 331:0.031652916 332:0.0018371978 333:0.1612477 334:-0.044225484 335:0.2773644 336:-0.0026181459 337:0.03542551 338:0.07498534 339:-0.0586363 340:0.022866217 341:0.52548414 342:0.026687656 343:0.0087199342 344:-0.059890561 345:0.074615858 346:0.041183874 347:-0.26502872 348:-0.22927111 349:-0.27994284 350:-0.25210792 351:-0.38502759 352:-0.17854297 353:0.0093368636 354:-0.38491887 355:-0.10499056 356:-0.3789947 357:-0.26818761 358:-0.26729012 359:-0.36894983 360:-0.31674021 361:-0.11967676 362:-0.20806749 363:-0.27295139 364:-0.38243505 365:-0.37670004 366:-0.35869062 367:0.083112098 368:0.11918724 369:0.10626822 370:0.084387563 371:0.10032072 372:0.067919217 373:0.13617504 374:0.11594269 375:0.059973001 376:0.10050042 377:0.077334657 378:0.070982687 379:-0.013227471 380:0.16176291 381:0.20482893 382:0.057782665 383:0.07942047 384:0.10087367 385:0.055648033 386:0.097869933 387:-0.0014082293 388:-0.0012089752 389:0.084201448 390:0.095189057 391:0.0079341382 392:-0.0044323844 393:0.02580541 394:0.04051365 395:0.60628486 396:0.063145608 397:0.0029363132 398:0.021572571 399:0.0075310683 400:0.018115023 401:0.83305717 402:-0.014046973 404:0.022185663 406:0.059687302 407:-0.11594981 408:0.00032260499 409:0.00042365739 410:-0.011223806 411:0.077127561 412:-0.027957503 413:0.076429464 414:-0.064490646 415:-0.016776515 416:-0.0049605998 417:-0.08602941 418:-0.12183597 419:-0.011197755 420:-0.012446888 421:0.061562773 422:-0.0083550047 423:0.035999149 424:0.074182935 425:0.026360778 426:0.0049678255 427:-0.053043742 428:-0.034674838 429:-0.013801828 430:-0.10112925 431:-0.0035534652 432:-0.0058680424 433:0.077126153 434:0.041889593 435:-0.077820353 436:-0.0012128962 437:-0.049325339 438:-0.076999925 439:-0.052861478 440:-0.037606701 441:-0.0077296761 442:0.0062772362 443:-0.036525752 444:0.16904005 445:-0.054991379 446:0.031966124 447:-0.055451136 448:0.078281201 449:0.031196594 450:-0.029224632 451:-0.0082251895 452:-0.042873595 453:-0.020315332 454:-0.080855034 455:-0.035669524 456:-0.058412768 457:-0.028505988 458:-0.090017222 459:-0.079448842 460:-0.012085742 461:-0.043115769 462:-0.073960498 463:0.015890757 464:0.091369003 465:-0.052312419 466:-0.068962857 467:-0.069678299 468:0.06136274 469:-0.10226613 470:-0.087404147 471:0.15428589 472:0.035057366 473:-0.037419565 474:-0.028898375 475:-0.062597342 476:-0.16361162 477:-0.12857437 478:-0.13486116 479:-0.12486876 480:-0.039744224 481:0.029096736 482:-0.063923433 483:0.31575507 484:-0.15033315 485:-0.0061517912 486:-0.015070455 487:-0.11807068 488:-0.065299906 489:-0.034673441 490:-0.045514401 491:0.055007283 492:-0.0018019482 493:0.00049411989 494:-0.017297858 495:-0.026334625 496:-0.11026147 497:0.0032609259 498:-0.075602762 499:-0.024189932 500:-0.021837892 501:0.055469565 502:-0.021785308 503:-0.05312359 504:0.054976154 505:-0.063644029 506:-0.0070457947 507:-0.041515168 508:-0.01691197 509:-0.025776809 510:-0.036852349 511:0.040297668 512:-0.044036284 513:-0.0077070259 514:0.018340012 515:0.020072253 516:-0.090391099 517:-0.06912151 518:-0.1708246 519:-0.013119184 520:-0.040935025 521:-0.019805675 522:-0.050996602 523:-0.0034490584 524:0.027578531 525:0.02625677 526:0.030758983 527:-0.076030001 528:0.018041799 529:-0.061645307 530:-0.011078182 531:0.0071873288 532:0.045869686 533:0.042154893 534:0.053546857 535:0.019864069 536:-0.01197073 537:0.0032554138 538:-0.068714641 539:0.0098320823 540:-0.035710782 541:0.05150488 542:-0.027279006 543:0.049128767 544:0.24317463 545:0.043693565 546:0.053591974 547:-0.016445851 548:0.041206036 549:0.018262466 550:-0.069892362 551:0.0062452406 552:0.0050334372 553:0.020087928 554:-0.0085594952 555:-0.022786206 556:-0.18510032 557:-0.071163677 558:-0.28386995 559:-0.094272211 560:0.044603892 561:0.018600833 562:-0.061512318 563:0.023999024 564:-0.02618894 565:-0.031443793 566:-0.028373398 567:-0.10902319 568:0.014294864 569:-0.010122247 570:-0.087423556 571:-0.020714656 572:-0.08471141 573:0.013466769 574:-0.041094165 575:-0.018847398 576:-0.15694538 577:0.0062385835 578:-0.20061013 579:-0.0078122714 580:-0.020739829 581:0.0084504047 582:-0.0067195208 583:0.030279381 584:-0.039899927 585:-0.019632386 586:-0.064729728 587:-0.012129649 588:0.046726357 589:-0.05045883 590:1.7916998e-005 591:-0.0020567919 592:-0.051832821 593:-0.031529985 594:-0.011738258 595:0.0010350529 596:0.018281192 597:-0.0073095476 598:-0.24342564 599:-0.053715762 600:-0.024015397 601:-0.027355475 602:0.002887889 603:-0.0053032059 604:-0.26315156 605:-0.0018251648 607:-0.011719531 609:-0.01455024 610:0.41702029 611:0.00097534503 612:0.0009021677 613:0.1289207 614:0.044890922 615:0.20303968 616:0.16461627 617:0.13057914 618:0.14106664 619:-0.49526477 620:0.16858467 621:-0.27511635 622:0.16693932 623:0.12312302 624:0.18181975 625:0.058694549 626:0.12715715 627:-0.39753249 628:0.20103216 629:0.18581648 630:0.16836172 631:0.062340755 632:0.1768571 633:0.3360281 634:0.08998622 635:0.21488367 636:0.27150679 637:0.32949319 638:0.31726611 639:-0.20823251 640:0.39527902 641:-0.03409313 642:0.40088025 643:0.27791899 644:0.28632265 645:0.30104813 646:0.27254075 647:-0.46474794 648:0.33540702 649:0.35506758 650:0.36760649 651:0.25959978 652:0.33448708 653:-0.041257557 654:-0.16364372 655:0.30866265 656:0.080311708 657:0.011609256 658:-0.52442056 659:-0.26949155 660:0.3525883 661:-0.0094604958 662:0.21354033 663:0.069382377 664:-0.21873739 665:-0.40254372 666:0.021288913 667:-0.69052464 668:-0.31310046 669:-0.12232769 670:0.34075588 671:0.080613919 672:0.055482771 673:-0.15304101 674:-0.021046121 675:-0.30114377 676:-0.43872443 677:-0.055751681 678:0.15338396 679:0.4134984 680:-0.27319378 681:-0.093013808 682:-0.2605511 683:-0.12870462 684:-0.13319901 685:1.127218 686:-0.4963153 687:-0.11830668 688:0.0086439922 689:-0.078680061 690:-0.24951632 691:-0.076676078 692:-0.046152309 693:-0.06784673 694:0.026946755 695:-0.058573201 696:0.0014028219 697:-0.096531592 698:0.16377035 699:-0.087452374 700:-0.20593524 701:-0.029937686 702:-0.18342909 703:-0.085679963 704:-0.043480132 705:0.15404886 706:-0.027978392 707:0.25635436 708:-0.0078091617 709:-0.071225055 710:-0.19068189 711:-0.10906594 712:-0.098395243 713:-0.078345552 714:0.054625396 715:0.0048959693 716:-0.019291827 717:-0.11328542 718:0.066791728 719:-0.040682066 720:-0.17899711 721:0.21624668 722:-0.17177746 723:-0.073254623 724:0.056691166 725:-0.18915924 726:-0.0031680451 727:0.62730879 728:-0.0054229232 729:-0.04157507 730:-0.15526912 731:-0.14440024 732:-0.10723276 733:-0.099447787 734:-0.017468145 735:0.013875531 736:-0.047436278 737:-0.071334198 738:-0.019150911 739:-0.49693418 740:-0.14723204 741:-0.44263071 742:-0.12692094 743:-0.077674709 744:-0.037008662 745:-0.098957598 746:-0.069071509 747:-0.099863678 748:0.0028770608 749:-0.035277084 750:-0.14763233 751:-0.042847153 752:-0.052112672 753:-0.044175051 754:0.098107278 755:-0.0029814832 756:0.067174971 757:-0.044028975 758:0.0078767212 759:0.32846749 760:-0.11722406 761:0.50729603 762:-0.07897336 763:-0.0092430413 764:0.066888154 765:-0.057007849 766:0.069431506 767:1.1985911 768:0.047533579 769:0.042854406 770:-0.11350246 771:-0.15544906 772:-0.042878661 773:-0.049033616 774:-0.074107438 775:-0.061405655 776:0.028024683 777:-0.012661414 778:-0.054650653 779:-0.13309059 780:-0.047217414 781:-0.099875249 782:-0.055150259 783:-0.032076113 784:-0.051615823 785:-0.01381893 786:0.021866418 787:-0.27810702 788:-0.07196673 789:-0.10142642 790:-0.051982567 791:-0.047703981 792:-0.035272982 793:-0.024120828 794:-0.0043188343 795:-0.052747559 796:-0.03900649 797:0.0060722348 798:-0.012599384 799:-0.088545337 800:-0.039547797 801:-0.29171798 802:-0.013919692 803:-0.0032700864 804:-0.043667745 805:-0.013495876 806:-0.010116984 807:-0.45385483 808:-0.0065586278 810:-0.061311334 812:-0.068544582 #
