SVM-light Version V6.20
0 # kernel type
3 # kernel parameter -d 
1 # kernel parameter -g 
1 # kernel parameter -s 
1 # kernel parameter -r 
empty# kernel parameter -u 
1219 # highest feature index 
156 # number of training documents 
2 # number of support vectors plus 1 
0 # threshold b, each following line is a SV (starting with alpha*y)
1 1:-0.20447792 2:0.00056281575 3:0.00023343945 4:-0.0067034159 5:0.041001439 6:0.10132514 7:-0.0032083218 8:-0.10442947 9:0.024439789 10:0.21160668 11:-0.12405147 12:-0.10809168 13:-0.08687479 14:-0.0042503783 15:0.028545005 16:-0.21794546 17:-0.051024552 18:0.30405894 19:0.0048972815 20:-0.083984911 21:-0.082143024 22:-0.11177559 23:-0.098484658 24:0.64234167 25:0.28245011 26:0.49825463 27:0.53007704 28:0.54056752 29:0.58596587 30:1.0399544 31:0.60074306 32:0.66588664 33:0.66768861 34:0.48154342 35:0.62759346 36:0.19273412 37:0.54572707 38:0.21820527 39:0.34820598 40:0.35635012 41:0.61885393 42:0.41523501 43:0.55206996 44:0.097237445 45:-0.14501622 46:0.44521835 47:0.1649487 48:-0.018904263 49:-0.39047363 50:0.49073762 51:0.25517106 52:0.30021262 53:0.19186436 54:-0.054444972 55:-0.18740802 56:-0.86650133 57:0.068354718 58:0.13907003 59:-0.40869924 60:-0.26581931 61:0.30759516 62:0.028273605 63:0.0026117761 64:0.0093109393 65:-0.0051949266 66:-0.31332493 67:-0.1175122 68:0.13308628 69:-0.05889957 70:-0.40306702 71:0.40461206 72:-0.29836044 73:0.26681635 74:0.13821384 75:-0.17114556 76:0.69366574 77:-0.022791712 78:-0.59461051 79:-0.039563566 80:-0.077751197 81:0.27489164 82:0.16769454 83:0.16795865 84:0.04044567 85:0.06578581 86:-0.02697476 87:0.030045765 88:0.059785917 89:0.10352464 90:-0.25133988 91:0.094031289 92:0.09371686 93:0.049688868 94:0.051877379 95:-0.0053498475 96:0.3894062 97:0.034608614 98:-0.30672711 99:0.065057047 100:0.042437755 101:0.080858313 102:0.039747965 103:0.039175779 104:0.015996749 105:0.046598826 106:0.031597212 107:0.030953744 108:-0.0010856545 109:0.086444907 110:-0.26611593 111:-0.020209651 112:0.0068226214 113:-0.01841473 114:0.0093144383 115:0.036140349 116:0.1356665 117:-0.013384036 118:-0.29163283 119:0.053048648 120:0.027331727 121:-0.0059515615 122:-0.012337222 123:0.0061690141 124:-0.090436056 125:-0.056914251 126:0.038627777 127:-0.040906549 128:-0.17770426 129:0.066631809 130:0.29767007 131:-0.22468077 132:-0.013622588 133:-0.17919582 134:-0.15371867 135:-0.10598698 136:-0.11533714 137:-0.18279614 138:1.5114096 139:-0.051628273 140:-0.15984039 141:-0.18218096 142:-0.25221863 143:-0.18310024 144:0.016438188 145:0.097738437 146:0.058166496 147:0.061472081 148:0.020686042 149:0.051702201 150:-0.086065523 151:0.0054174196 152:-0.096160144 153:0.010146541 154:0.035339706 155:0.033277106 156:0.049749088 157:-0.001888671 158:0.29023701 159:0.042449795 160:0.025819337 161:0.025403921 162:0.012114415 163:0.050753135 164:0.045401454 165:0.037290599 166:0.007915982 167:-0.22181448 168:0.042269826 169:-0.0079408232 170:0.03580685 171:0.059768479 172:0.15058926 173:0.061847165 174:0.053139184 175:-0.013458694 176:0.019164328 177:-0.53476447 178:0.13286023 179:0.065755382 180:0.13965449 181:0.050286856 182:-0.033832006 183:0.064088814 184:0.042879574 185:0.0010605435 186:0.06005659 187:0.054305539 188:0.018708926 189:0.017452849 190:0.021398481 191:0.0078718513 192:-0.16516563 193:0.025145631 194:0.0031668677 195:0.014151074 196:0.0066183573 197:0.0058980691 198:-0.07110966 199:0.020502048 200:0.015711714 201:0.036508031 202:0.00084733107 203:0.038020268 204:0.67407 205:0.0006816283 206:0.001943873 207:0.18613392 208:0.15365906 209:0.20037179 210:0.15623355 211:0.20090863 212:0.10692872 213:0.042396802 214:0.20657849 215:0.16509041 216:0.21139079 217:0.16840416 218:0.25376084 219:0.07122229 220:0.16267793 221:-0.2493733 222:0.15975475 223:0.15959126 224:0.20042278 225:0.12824871 226:0.19618051 227:0.41299483 228:0.24207787 229:0.1383196 230:0.26758361 231:0.45720363 232:0.25626209 233:0.60974115 234:0.50951004 235:0.5811826 236:0.55817032 237:0.36738664 238:0.32480988 239:0.18485002 240:0.3608368 241:-0.29258355 242:0.29637989 243:0.35795146 244:0.48276681 245:0.39815405 246:0.46537632 247:0.010160155 248:-0.1063553 249:0.28981242 250:0.15694106 251:0.11551021 252:-0.7453596 253:0.5461989 254:0.56037545 255:0.7348724 256:0.35107443 257:0.14380598 258:-0.33080015 259:-0.66842186 260:0.096766979 261:-0.27455023 262:-0.39879528 263:-0.160575 264:0.51799423 265:0.20619106 266:0.17079212 267:0.079229794 268:0.067385539 269:-0.18664379 270:-0.26641271 271:0.05069552 272:0.3739703 273:0.11169985 274:-0.17972821 275:0.19287799 276:-0.12804833 277:-0.037441656 278:-0.088805303 279:1.0001014 280:-0.40772137 281:0.40458059 282:0.21603195 283:0.054692753 284:-0.14473635 285:0.042845704 286:0.061064173 287:-0.047228124 288:0.0011399128 289:-0.13040929 290:-0.076408647 291:-0.1624025 292:0.16181377 293:-0.21767415 294:-0.21488485 295:-0.045974117 296:-0.21635923 297:-0.071050547 298:-0.10003661 299:-0.035572175 300:-0.1298786 301:-0.44656169 302:0.0012214602 303:-0.079328895 304:-0.18524067 305:-0.14938326 306:-0.13347054 307:-0.07162638 308:0.0039690244 309:-0.060669586 310:-0.084202573 311:-0.16888455 312:0.083656341 313:-0.2015177 314:-0.21818148 315:-0.24774235 316:-0.22132595 317:-0.079497635 318:-0.06129251 319:-0.14683637 320:-0.1623956 321:-0.34590024 322:-0.00078390347 323:-0.059749529 324:-0.17886223 325:-0.1508407 326:-0.13423738 327:-0.026968407 328:0.10214153 329:0.1223682 330:0.057923745 331:0.015481966 332:0.066506214 333:-0.15582018 334:-0.07477764 335:-0.11238699 336:-0.025318742 337:0.0090961903 338:0.067773543 339:-0.011020228 340:0.0083121965 341:0.2663551 342:0.047517322 343:-0.00045320851 344:-0.063844651 345:0.025101164 346:0.037306994 347:-0.13832073 348:-0.072669432 349:-0.14374843 350:-0.12796642 351:-0.23335007 352:-0.042186055 353:-0.070362225 354:-0.25164524 355:-0.1531309 356:-0.22297177 357:-0.15657537 358:-0.18635643 359:-0.22643916 360:-0.2612327 361:0.40760362 362:-0.096615359 363:-0.15861405 364:-0.21717836 365:-0.27337068 366:-0.22610049 367:0.063833714 368:0.016700773 369:0.018678952 370:0.0033466476 371:0.071161203 372:0.083004802 373:0.23291335 374:0.15395488 375:0.13279857 376:0.10748281 377:0.12436433 378:0.0051388489 379:0.00011979765 380:-0.078688696 381:-0.16018656 382:0.073352821 383:0.086079694 384:0.13095982 385:0.073758274 386:0.076863863 387:0.019327203 388:0.00087043369 389:0.010275503 390:0.0062771081 391:0.0025520099 392:0.0042574015 393:0.029472711 394:0.016275566 395:0.39630032 396:0.019949086 397:0.00068769394 398:0.0039349017 399:0.0058554634 400:0.022844872 401:0.68807262 402:-0.0069703045 403:0.0024519456 404:-0.017299058 405:0.0066674305 406:0.0038349836 407:-0.30514848 408:0.00096918212 409:0.00046993952 410:0.30443013 411:0.092191696 412:0.43556371 413:0.35571092 414:0.16661367 415:0.40750921 416:0.36745769 417:0.17776383 418:0.14496167 419:0.2193425 420:0.16372541 421:0.24880902 422:0.086756676 423:0.13903128 424:-0.16017377 425:0.46792409 426:0.4578197 427:0.18468364 428:0.030875992 429:0.16142194 430:0.2886892 431:0.022687033 432:0.33924407 433:0.35960826 434:0.21077222 435:0.29726744 436:0.25835365 437:0.2195002 438:0.83737838 439:0.33172038 440:0.1558886 441:0.18417332 442:0.076647237 443:0.31565213 444:-0.21073177 445:0.83337462 446:0.86257571 447:0.24745846 448:0.088001631 449:0.19743665 450:0.018129757 451:-0.26745686 452:0.04258744 453:0.047120746 454:0.0081283106 455:-0.33854622 456:0.083501421 457:0.077246577 458:-0.2475269 459:0.05789417 460:-0.11673179 461:-0.42131791 462:-0.7182911 463:-0.14903206 464:-0.38986075 465:0.34359097 466:0.51786089 467:0.12880631 468:-0.059125952 469:-0.0760618 470:-0.049664073 471:-0.077968433 472:-0.34540436 473:-0.16698691 474:0.045761991 475:-0.12406842 476:-0.33628318 477:0.21028458 478:-0.37406686 479:0.11689778 480:0.038724311 481:-0.23476529 482:0.5199101 483:-0.13782576 484:-0.49718598 485:-0.14351316 486:-0.17488728 487:0.14049852 488:0.074447483 489:0.057010278 490:-0.0062346603 491:-0.023761323 492:-0.12376614 493:-0.074990869 494:-0.014903688 495:0.026574716 496:-0.2743994 497:-0.015362921 498:-0.010911587 499:-0.041314472 500:0.013697981 501:-0.087794185 502:0.2961219 503:-0.084820449 504:-0.28604594 505:-0.052922908 506:-0.085735045 507:-0.012390521 508:-0.0086385217 509:-0.016180636 510:-0.054100852 511:-0.015037195 512:-0.040664945 513:-0.091609232 514:-0.070548169 515:0.011215156 516:-0.29889601 517:-0.10221084 518:-0.072624899 519:-0.079669885 520:-0.053235337 521:-0.10400114 522:0.067285337 523:-0.123573 524:-0.26911417 525:-0.045740288 526:-0.056771338 527:-0.078165673 528:-0.032221604 529:-0.038611099 530:-0.13781203 531:-0.19238301 532:-0.021058364 533:-0.11353714 534:-0.22635591 535:0.033117354 536:-0.029148875 537:-0.2640925 538:-0.43429431 539:-0.21981059 540:-0.20774852 541:-0.28066891 542:-0.18127936 543:-0.26191318 544:0.060852293 545:-0.0054160473 546:-0.0095278714 547:-0.21520415 548:-0.30528587 549:-0.18899535 550:-0.021787783 551:0.079641178 552:0.023028741 553:0.012436318 554:-0.016129799 555:0.021100337 556:-0.087621696 557:-0.028242301 558:-0.16926681 559:-0.021991206 560:0.020659577 561:-0.028377993 562:0.0097604105 563:-0.072275542 564:0.2162458 565:0.0056248121 566:-0.022925356 567:-0.022303812 568:-0.025864353 569:0.011823949 570:-0.13665608 571:-0.077121153 572:-0.040182836 573:0.53827101 574:-0.062200446 575:-0.121773 576:-0.0074599045 577:-0.18117328 578:-0.18550757 579:-0.15677837 580:-0.13638709 581:-0.17252359 582:-0.010300835 583:0.33078164 584:-0.3172285 585:-0.04727811 586:-0.03833041 587:-0.1911328 588:-0.27520871 589:-0.1708947 590:-0.078315064 591:-0.0010927843 592:-0.017876189 593:-0.070494317 594:-0.010194365 595:-0.018025482 596:-0.030466171 597:-0.02925764 598:-0.57105619 599:-0.065801688 600:-0.022261066 601:-0.042524517 602:-0.0074997093 603:-0.011090394 604:-0.39431989 605:-0.0055525936 606:-0.028655173 607:-0.020425169 608:-0.012447392 609:-0.021728909 610:-0.31491536 611:0.0011917184 612:0.00080907723 613:-0.14934324 614:-0.054620102 615:-0.12937406 616:-0.21188436 617:-0.16905861 618:-0.11197869 619:-0.24994107 620:-0.24502525 621:-0.088139102 622:-0.23277473 623:-0.14927794 624:0.5199126 625:-0.23613273 626:0.11514728 627:0.0077122757 628:-0.20255265 629:-0.22063388 630:-0.22394952 631:-0.071649298 632:-0.22751273 633:0.23356655 634:0.018585972 635:0.054026514 636:0.033366866 637:0.20456037 638:0.21636842 639:0.22750755 640:0.16598062 641:0.54453379 642:0.24425624 643:0.13566242 644:0.76303542 645:-0.091373101 646:0.43964928 647:0.065502271 648:0.12579255 649:0.11364364 650:0.16803144 651:0.20977023 652:0.14439955 653:-0.067161016 654:-0.063084714 655:-0.08550664 656:-0.19139597 657:-0.095144793 658:-0.33927757 659:0.22965775 660:-0.0068672774 661:-0.11888319 662:-0.017616404 663:-0.14274272 664:0.31341046 665:-0.5573737 666:0.24812171 667:0.17113468 668:-0.2842657 669:-0.17155316 670:0.062866054 671:0.075246036 672:-0.11966404 673:-0.045880988 674:-0.024813803 675:-0.26663077 676:-0.098791055 677:0.030164631 678:-0.096011825 679:-0.33968756 680:0.20031416 681:-0.3974407 682:0.13908692 683:0.035131413 684:-0.26065785 685:0.57464254 686:-0.14939579 687:-0.39502674 688:-0.13643423 689:-0.16452657 690:0.1073807 691:0.076184049 692:0.052293148 693:-0.0018342423 694:0.022937262 695:-0.066809721 696:-0.031776905 697:-0.0054481546 698:0.037038486 699:-0.31518146 700:0.0048016123 701:-0.0081250798 702:-0.01656723 703:0.01713465 704:-0.092311934 705:0.26242009 706:-0.095348187 707:-0.22426242 708:-0.01350988 709:-0.050169863 710:-0.010074019 711:-0.034312192 712:-0.0014952474 713:-0.051913884 714:0.027928321 715:-0.043219671 716:-0.048534401 717:-0.048643973 718:0.031832036 719:-0.29480064 720:-0.046930656 721:-0.11277218 722:-0.058193486 723:-0.009476319 724:-0.076640025 725:0.058697123 726:-0.10336145 727:-0.25113633 728:-0.048642214 729:-0.044457261 730:-0.053889435 731:-0.039280057 732:-0.029161695 733:-0.12711239 734:-0.094487108 735:-0.038126823 736:-0.084913567 737:-0.15276682 738:0.017583253 739:0.017258639 740:-0.20756559 741:-0.23603937 742:-0.1471388 743:-0.16842905 744:0.19603939 745:-0.12964961 746:-0.022071065 747:0.54235458 748:-0.072745003 749:-0.10257156 750:-0.17676306 751:-0.23627076 752:-0.16551547 753:-0.030694254 754:0.075390771 755:-0.0052510095 756:-0.025514213 757:-0.024176491 758:0.014841869 759:-0.19158731 760:-0.036980093 761:-0.33181801 762:-0.018322626 763:0.0081690261 764:-0.037094411 765:0.0026158197 766:-0.084983774 767:0.059531778 768:0.0041289404 769:-0.031380199 770:-0.034279939 771:0.004773322 772:0.010702351 773:-0.13521074 774:0.064550176 775:-0.1700771 776:-0.25484487 777:-0.098802976 778:-0.11543567 779:-0.39114398 780:-0.1835092 781:0.033885263 782:-0.16811509 783:-0.15163137 784:0.1070604 785:-0.0068798605 786:0.70593327 787:0.11703821 788:-0.25894105 789:-0.28229746 790:-0.19566418 791:0.340992 792:-0.11700607 793:-0.063130066 794:-3.7080921e-005 795:-0.01707406 796:-0.033942845 797:-0.00092078914 798:-0.00045485527 799:-0.0068986625 800:-0.011137711 801:-0.490854 802:-0.088295646 803:0.012776958 804:-0.022822285 805:0.0030853387 806:-0.020301707 807:-0.35461 808:-0.010991541 809:-0.0006110351 810:-0.045420375 811:-0.0064775366 812:-0.0019823455 813:-0.3078422 814:-0.00088772207 815:4.8498066e-005 816:0.055260457 817:0.04223026 818:0.021050267 819:0.0090862485 820:0.095409907 821:0.022622608 822:-0.12832728 823:0.12531437 824:-0.076875985 825:0.10497534 826:0.05618592 827:0.050119761 828:-0.013715575 829:-0.021488205 830:-0.06570822 831:0.037358519 832:0.020177461 833:0.083398633 834:0.035185169 835:0.081387244 836:0.14650203 837:0.075796694 838:-0.049352251 839:0.022149736 840:0.22780275 841:0.03746381 842:0.13422763 843:0.25433853 844:0.19896702 845:0.26965383 846:0.14427821 847:0.030339733 848:0.028344955 849:0.060683403 850:-0.074673057 851:0.039958436 852:0.083505601 853:0.21183744 854:0.18636073 855:0.21107814 856:-0.026095282 857:-0.075253859 858:-0.029083658 859:-0.05784275 860:0.066268168 861:-0.40299031 862:0.197449 863:0.382148 864:0.65711772 865:0.22692099 866:0.079206444 867:-0.26919657 868:-0.29596505 869:-0.022016222 870:0.23447564 871:-0.31564227 872:-0.16496749 873:0.31536794 874:0.15315276 875:0.064157106 876:-0.15405077 877:-0.047285337 878:-0.013975631 879:0.67853826 880:-0.14679401 881:0.060009632 882:0.18284725 883:-0.39034814 884:0.92585325 885:-0.32277116 886:-0.15899007 887:-0.40542361 888:0.78042895 889:0.43078762 890:-0.25645238 891:0.13664636 892:0.10032846 893:-0.4098458 894:-0.13037752 895:-0.14191507 896:-0.29387727 897:-0.14596725 898:-0.15689138 899:-0.21039054 900:-0.25612524 901:-0.069890298 902:-0.20847003 903:-0.43876368 904:-0.22168502 905:-0.44591618 906:-0.21039616 907:-0.34076506 908:0.018415134 909:-0.34676763 910:-0.79014152 911:-0.016338896 912:0.055684693 913:-0.44672325 914:-0.16029638 915:-0.28731862 916:-0.25493193 917:-0.11121672 918:-0.077174276 919:-0.14629322 920:-0.24243622 921:-0.063145325 922:-0.1421397 923:-0.37703088 924:-0.65762562 925:-0.3716937 926:-0.15012495 927:-0.2603291 928:-0.32954869 929:-0.30659226 930:-0.47373989 931:-0.075012028 932:-0.045127109 933:-0.38162637 934:-0.16411436 935:-0.21339343 936:-0.039203722 937:0.080733791 938:0.032687884 939:0.0049596364 940:0.031594731 941:0.016537003 942:-0.078733101 943:-0.021945316 944:-0.092532516 945:0.016248034 946:0.029421516 947:-0.041457273 948:-0.0044681965 949:-0.10333628 950:0.4038316 951:-0.03217154 952:-0.054273885 953:-0.025100796 954:0.037148189 955:0.047046315 956:-0.13250856 957:-0.13747923 958:0.065104455 959:-0.028937532 960:-0.16516675 961:0.02484438 962:0.19800685 963:-0.2744931 964:-0.43799582 965:-0.23263004 966:-0.12343204 967:-0.18376929 968:-0.2305032 969:-0.26409942 970:0.47060204 971:0.0023555516 972:-0.038619854 973:-0.23471783 974:-0.22813289 975:-0.15778622 976:0.08323621 977:-0.023463454 978:0.098766856 979:-0.03724331 980:0.020910701 981:0.080867298 982:0.051360436 983:0.081312016 984:-0.058665227 985:0.082756698 986:0.068617761 987:0.036535632 988:0.0016949379 989:-0.21103251 990:0.20706676 991:0.082181431 992:0.051267926 993:0.090747699 994:-0.061378554 995:0.071671017 996:0.056446407 997:-0.00029576814 998:-0.004071455 999:0.043308705 1000:-0.0037771431 1001:-0.0028349005 1002:0.022803787 1003:0.023382459 1004:0.62557381 1005:0.07256382 1006:0.0040695514 1007:0.0032311424 1008:-0.0004229453 1009:-0.00070242281 1010:-0.18122512 1011:0.006489058 1012:0.010759859 1013:0.04391161 1014:0.0033387146 1015:-0.0053388965 1016:-0.31962338 1017:-0.00060180371 1018:0.0003647283 1019:0.080994248 1020:0.079311557 1021:0.066157594 1022:0.03222093 1023:0.13244718 1024:0.027880665 1025:-0.11787432 1026:0.13296314 1027:-0.19698441 1028:0.12630759 1029:0.1086688 1030:0.04766028 1031:-0.018463993 1032:-0.0047530779 1033:-0.058290292 1034:0.038575448 1035:0.045538455 1036:0.11723599 1037:0.062626168 1038:0.10431878 1039:0.19799973 1040:0.12735409 1041:0.021103296 1042:0.073164135 1043:0.26681143 1044:0.11885953 1045:0.11962526 1046:0.28809014 1047:0.085697986 1048:0.31416857 1049:0.21386045 1050:0.064980708 1051:0.055269379 1052:0.072790094 1053:-0.044367678 1054:0.092077039 1055:0.14725475 1056:0.24376218 1057:0.24713705 1058:0.25619856 1059:0.033034991 1060:-0.060672928 1061:-0.057171606 1062:-0.0013511908 1063:0.15761782 1064:-0.38617766 1065:0.10367883 1066:0.40076262 1067:0.30979481 1068:0.26088265 1069:0.10946152 1070:-0.24957173 1071:-0.30211821 1072:0.020099683 1073:-0.075110249 1074:-0.24583213 1075:-0.11159734 1076:0.33645099 1077:0.16414516 1078:0.1259823 1079:-0.098904014 1080:0.19694801 1081:-0.08548934 1082:-0.14680266 1083:-0.15433374 1084:0.01959211 1085:-0.15474449 1086:-0.4788754 1087:0.55796713 1088:-0.43748638 1089:-0.20772365 1090:0.53067082 1091:0.59756029 1092:0.97323722 1093:0.40311509 1094:-0.15420909 1095:-0.23866574 1096:-0.42110455 1097:0.04559686 1098:-0.21404013 1099:-0.29530415 1100:-0.15024933 1101:-0.3466337 1102:-0.30332249 1103:-0.26062423 1104:-0.098310463 1105:-0.36375278 1106:-0.3968021 1107:-0.51402158 1108:-0.43353179 1109:-0.20810325 1110:0.10673814 1111:-0.19597989 1112:-0.16225433 1113:0.1595397 1114:-0.21930258 1115:-0.22714134 1116:-0.41725558 1117:-0.1893736 1118:-0.29573753 1119:-0.28511637 1120:-0.11363748 1121:-0.2011888 1122:-0.26165402 1123:-0.25770617 1124:-0.12654865 1125:-0.27360168 1126:-0.39089859 1127:-0.68614882 1128:-0.37834284 1129:-0.18725234 1130:0.10171874 1131:-0.34839889 1132:-0.15449499 1133:0.17275524 1134:-0.2084139 1135:-0.20332958 1136:-0.39329413 1137:-0.17934027 1138:-0.22140397 1139:-0.051212002 1140:0.040623061 1141:0.023314256 1142:-0.030857172 1143:0.030710286 1144:-0.0040783463 1145:-0.063725829 1146:-0.033855677 1147:-0.19020361 1148:-0.001070222 1149:-0.014504073 1150:-0.076103613 1151:-0.019730883 1152:-0.11756115 1153:0.38271904 1154:-0.03554491 1155:-0.069236286 1156:-0.049378704 1157:0.027365655 1158:0.013217402 1159:-0.11286981 1160:-0.044782415 1161:-0.0033858635 1162:-0.040537633 1163:-0.095465675 1164:-0.012162048 1165:0.13130204 1166:-0.21149763 1167:-0.25148234 1168:-0.1598441 1169:-0.069710582 1170:0.15791874 1171:-0.19120538 1172:-0.071406864 1173:0.43206838 1174:-0.057676435 1175:-0.094349302 1176:-0.19036011 1177:-0.16741304 1178:-0.11774581 1179:0.079395436 1180:-0.017956939 1181:0.084898144 1182:-0.027714973 1183:0.026661685 1184:0.081277393 1185:0.078523241 1186:0.069647104 1187:-0.073100284 1188:0.072806768 1189:0.041897181 1190:0.037247404 1191:-0.0037983675 1192:-0.21222927 1193:0.020449841 1194:0.084929526 1195:0.043625768 1196:0.11480261 1197:-0.044331014 1198:0.075277083 1199:0.022791943 1200:-0.00050534378 1201:-0.031310387 1202:0.00054580852 1203:-0.0063686385 1204:-0.00039501159 1205:-0.036310144 1206:-0.0071345246 1207:0.20520172 1208:0.036438793 1209:0.0015599964 1210:0.044029683 1211:-0.0076365052 1212:0.0033515845 1213:0.31319204 1214:-0.0034766668 1215:0.00034268951 1216:0.0027249595 1217:0.0080714524 1218:-0.012805101 #
