SVM-light Version V6.20
0 # kernel type
3 # kernel parameter -d 
1 # kernel parameter -g 
1 # kernel parameter -s 
1 # kernel parameter -r 
empty# kernel parameter -u 
813 # highest feature index 
83 # number of training documents 
2 # number of support vectors plus 1 
0 # threshold b, each following line is a SV (starting with alpha*y)
1 1:-0.13695279 2:0.0018134253 3:0.0017785191 4:-0.07509087 5:-0.068098277 6:0.023891829 7:-0.057297561 8:-0.14255831 9:0.013524525 10:-0.12238572 11:-0.17890906 12:-0.30393285 13:-0.14296795 14:-0.098358095 15:-0.036579359 16:-0.2648533 17:-0.1516109 18:0.080863334 19:0.023047771 20:-0.089625083 21:-0.15858094 22:-0.1313912 23:-0.14706424 24:0.39235684 25:0.069793455 26:0.2542792 27:0.24318556 28:0.26143757 29:0.35269228 30:0.30762926 31:0.27332082 32:0.043844793 33:0.3505232 34:0.20473312 35:0.34370109 36:-0.041197628 37:0.23415142 38:-0.067526832 39:0.21536812 40:0.19213744 41:0.28462544 42:0.11514477 43:0.22035657 44:0.13669078 45:-0.098723054 46:0.31541413 47:0.13230947 48:0.032987457 49:-0.17413093 50:0.14681023 51:0.22453225 52:0.28122538 53:0.16794114 54:-0.051025681 55:-0.026957097 56:-0.77026904 57:0.14310698 58:-0.16344027 59:-0.27079368 60:-0.11215106 61:0.26650625 62:-0.008358011 63:-0.0063249269 64:-0.10773786 65:-0.0024981096 66:-0.39630726 67:-0.17965651 68:0.12504454 69:-0.18120356 70:-0.10223759 71:0.35076714 72:-0.028205948 73:0.22646594 74:0.060556799 75:-0.14121045 76:0.58611315 77:0.021847159 78:-0.3617678 79:-0.12459725 80:-0.075936213 81:0.21124689 82:0.14037178 83:0.14429553 84:-0.013614674 85:0.032852884 86:-0.078829043 87:0.010163646 88:0.057922617 89:0.032903131 90:-0.22269715 91:0.028585998 92:0.058212604 93:0.0057708109 94:0.0096785091 95:0.0017149133 96:0.27801546 97:0.066917062 98:-0.20141503 99:0.049152762 100:0.046374202 101:0.0058260299 102:0.064544894 103:0.030246103 104:0.0016012347 105:0.035743874 106:0.021626795 107:0.04420023 108:0.020043861 109:0.074398972 110:-0.22700496 111:-0.01333203 112:0.064377084 113:-0.0061455187 114:-0.0014752654 115:0.075126342 116:0.11947379 117:0.076999851 118:-0.086438932 119:0.073250405 120:0.081549525 121:-0.01119159 122:0.011870285 123:-0.0069699772 124:-0.27606583 125:-0.22089033 126:-0.20857587 127:-0.26296222 128:-0.35249159 129:-0.14573476 130:-0.021662572 131:-0.42117122 132:-0.18250655 133:-0.37798637 134:-0.34614345 135:-0.26276797 136:-0.3808246 137:-0.37766251 138:0.69690073 139:-0.21987905 140:-0.32197678 141:-0.40169477 142:-0.31667095 143:-0.41345623 144:-0.050511397 145:0.077269286 146:0.011390305 147:0.052943408 148:0.0087881573 149:-0.0011040152 150:0.0033425519 151:-0.036249902 152:0.15676834 153:-0.031636473 154:0.021749141 155:0.048570495 156:0.023419052 157:0.045874603 158:0.37024376 159:0.031380396 160:0.029459938 161:-0.054596789 162:0.039746728 163:0.031783998 164:0.045009173 165:-0.023301244 166:0.02448912 167:-0.073101789 168:-0.054735813 169:0.012669876 170:0.10561377 171:-0.050920915 172:0.2129145 173:-0.024074106 174:-0.019719362 175:0.0062395879 176:0.019320851 177:-0.13688754 178:0.090893 179:0.041890901 180:0.078695975 181:-0.016705398 182:-0.045232687 183:-0.027707553 184:0.018849934 185:0.004291269 186:0.011953023 187:-0.011371908 188:0.0019483108 189:0.012581402 190:0.023644077 191:0.00095428049 192:-0.0075072064 193:0.0020983224 194:0.0032164855 195:0.046052631 196:-1.7637802e-005 197:0.0057814033 198:-0.013211729 199:0.016552038 201:0.033900794 203:0.015634837 204:0.17724578 205:0.0021797952 206:0.0021076687 207:0.13722894 208:0.091702327 209:0.12277248 210:0.13110684 211:0.17022611 212:0.049557816 213:0.12740162 214:0.15042935 215:0.22515674 216:0.17654285 217:0.12827659 218:0.20543407 219:0.032889292 220:0.19368064 221:-0.07767047 222:0.15923694 223:0.1547453 224:0.16908424 225:0.10096527 226:0.16321942 227:0.11921679 228:0.027983446 229:-0.14317311 230:0.0029459163 231:0.18973114 232:-0.019108262 233:0.36590862 234:0.2115586 235:0.1813115 236:0.26122248 237:0.14737068 238:0.066286616 239:-0.015109567 240:0.10612413 241:-0.24202172 242:0.039136231 243:0.12583116 244:0.18690218 245:0.1846084 246:0.17805329 247:0.06263037 248:-0.07821244 249:0.2452825 250:0.16316967 251:0.13111217 252:-0.70985955 253:0.54464734 254:0.47646078 255:0.58347034 256:0.36494967 257:0.16966589 258:-0.29243401 259:-0.50238794 260:0.13163628 261:-0.14416546 262:-0.33626476 263:-0.071468569 264:0.49023807 265:0.18951991 266:0.15642263 267:0.088592611 268:0.015552471 269:-0.17172064 270:-0.25103682 271:0.029067125 272:0.36130396 273:0.25595677 274:-0.17928672 275:0.4015969 276:-0.15309243 277:-0.021254269 278:-0.057504237 279:0.90874815 280:-0.30166209 281:0.43670535 282:0.20371424 283:0.080612987 284:-0.14864454 285:0.065543793 286:0.011220261 287:-0.021857701 288:-0.013464325 289:-0.14117385 290:-0.077667728 291:-0.13589765 292:0.15557033 293:-0.040578976 294:-0.21656668 295:0.039562792 296:-0.22403 297:-0.043344755 298:-0.10550348 299:-0.14508303 300:-0.093500033 301:-0.52526414 302:0.047569577 303:-0.03770167 304:-0.1834249 305:-0.062813461 306:-0.1375702 307:-0.05631065 308:-0.012343012 309:-0.073983081 310:-0.063769355 311:-0.14564711 312:0.070053324 313:0.022807654 314:-0.21233799 315:-0.1880811 316:-0.19964084 317:-0.05164624 318:-0.059372932 319:-0.14344114 320:-0.11379816 321:-0.46036199 322:0.034742061 323:-0.018338773 324:-0.19637007 325:-0.078361429 326:-0.11686011 327:-0.079131804 328:0.046885435 329:0.0080012986 330:0.0064731287 331:0.009340561 332:-0.0084812231 333:0.12932718 334:-0.080452308 335:0.25677204 336:-0.055942532 337:0.013274021 338:0.041384213 339:-0.078698799 340:-0.0018850204 341:0.4347358 342:-0.0032618125 343:-0.0039405352 344:-0.095772929 345:0.064670444 346:0.010988143 347:-0.29597166 348:-0.20800863 349:-0.30169168 350:-0.2839621 351:-0.39139798 352:-0.20504954 353:-0.01323006 354:-0.41369107 355:-0.10778079 356:-0.40253001 357:-0.27844781 358:-0.2860918 359:-0.3863166 360:-0.32972193 361:-0.035891291 362:-0.23012426 363:-0.29480019 364:-0.41660962 365:-0.33836165 366:-0.36847615 367:0.064434491 368:0.080582909 369:0.080088578 370:0.10102662 371:0.060738068 372:0.062270515 373:0.065828763 374:0.1236742 375:0.018482922 376:0.096087627 377:0.066567652 378:0.085965455 379:-0.0094813295 380:0.16400009 381:0.14257987 382:0.067460045 383:0.066830404 384:0.1108511 385:0.052511923 386:0.073913001 387:-0.00055237493 388:-0.0011427865 389:0.048019137 390:0.059783917 391:0.0042320699 392:-0.0017824814 393:0.021988787 394:0.020012008 395:0.56536973 396:0.037067126 397:-0.013328445 398:0.011618413 399:0.0025417835 400:0.018399129 401:0.7792955 402:-0.010689094 404:0.0080496259 406:0.02553081 407:-0.16784661 408:0.0017145983 410:0.031238452 411:0.078985803 412:0.06175841 413:-0.0027388346 414:-0.023923125 415:0.07124836 416:0.2975401 417:-0.063785173 418:0.088299029 419:-0.044842359 420:-0.033826575 421:0.082437284 422:-0.10696801 423:0.086449526 424:0.31907713 425:0.076180533 426:0.036423445 427:-0.034016114 428:-0.049667921 429:-0.029309435 430:-0.0083330292 431:-0.0205217 432:-0.02808826 433:-0.0017179257 434:-0.043769721 435:0.012794894 436:0.26271078 437:-0.039697468 438:0.08693029 439:-0.0032512201 440:0.0071014692 441:0.15815882 442:-0.17923552 443:0.092841171 444:0.054500952 445:-0.12896471 446:-0.1199117 447:-0.031385601 448:-0.0054669026 449:-0.034817323 450:0.021046923 451:-0.068521254 452:0.25093701 453:0.055556707 454:-0.10487314 455:-0.14069231 456:0.24822788 457:-0.078265049 458:-0.33381382 459:-0.041026797 460:-0.084076643 461:0.028852502 462:-0.34543478 463:0.054248858 464:0.02796711 465:-0.18436848 466:-0.096896052 467:-0.03194768 468:-0.043883074 469:-0.12896132 470:0.061614439 471:-0.012537433 472:-0.31315538 473:-0.11559888 474:0.1210672 475:-0.18799098 476:-0.45758912 477:0.31861863 478:-0.64700615 479:0.23735271 480:0.13724002 481:-0.1336498 482:0.27604493 483:-0.013487796 484:-0.52953398 485:-0.075209767 486:-0.075996883 487:0.24320661 488:0.069590598 489:0.10109767 490:0.077405296 491:0.023201456 492:-0.018866573 493:0.072336614 494:0.085021287 495:0.068152763 496:-0.41584712 497:0.1525358 498:-0.39815345 499:0.1070542 500:0.079651065 501:0.015404542 502:0.20092517 503:0.048519015 504:-0.39307925 505:0.099218607 506:0.091313913 507:0.1486657 508:0.054853167 509:0.094597332 510:0.12227439 511:0.018083725 512:0.061325315 513:0.16452235 514:0.07437171 515:0.17897549 516:-0.33698976 517:0.088492744 518:-0.33941272 519:0.095228791 520:0.065712303 521:0.12067948 522:0.17315887 523:0.10728323 524:-0.42141995 525:0.15972847 526:0.14737473 527:0.10997693 528:0.054241404 529:0.11896873 530:-0.15182562 531:-0.07684239 532:-0.078844398 533:-0.10221417 534:-0.17386149 535:-0.034032673 536:0.34464297 537:-0.25160849 538:0.33634716 539:-0.20118126 540:-0.17759554 541:-0.064036645 542:-0.16580692 543:-0.094237819 544:1.1309578 545:-0.042771138 546:-0.088344626 547:-0.22177039 548:-0.21127675 549:-0.17970422 550:-0.039401356 551:0.044008199 552:-0.043702703 553:-0.0062412834 554:-0.02360156 555:-0.016776463 556:-0.35700074 557:-0.058677994 558:-0.22129841 559:-0.068912178 560:-0.032278322 561:0.016942922 562:-0.027420858 563:0.015434472 564:0.058040783 565:0.021753268 566:0.018769892 567:-0.065754905 568:0.04603428 569:-0.025624838 570:-0.072159022 571:-0.014116148 572:-0.060506415 573:-0.11971794 574:-0.0044810544 575:-0.034819033 576:-0.033269025 577:-0.058492567 578:-0.15385912 579:-0.044577792 580:-0.051382814 581:-0.084133394 582:0.003156468 583:-0.085101858 584:0.047314286 585:-0.080805488 586:-0.054760482 587:-0.079707645 588:0.00092915638 589:-0.015433508 590:-0.0046064258 591:0.00079692341 592:-0.023471816 593:-0.032177642 594:-0.012988969 595:-0.0070310542 596:-0.0031926048 597:0.0019025413 598:-0.34503418 599:-0.038315933 600:0.01691962 601:-0.048914745 602:0.0076194769 603:-0.021421228 604:-0.46109706 605:-0.005079234 607:-0.010469456 609:-0.0093616173 610:0.11712801 611:0.00075018138 613:0.16396067 614:0.11446475 615:0.29142687 616:0.26368189 617:0.2104165 618:0.20122859 619:-0.38631433 620:0.2226328 621:-0.18196811 622:0.2317857 623:0.15688165 624:0.23557836 625:0.15362559 626:0.20491838 627:-0.33617023 628:0.25850791 629:0.2602739 630:0.22186486 631:0.10745481 632:0.2400828 633:0.25539985 634:0.086753331 635:0.20689745 636:0.25275999 637:0.28579032 638:0.26537973 639:-0.22121608 640:0.32597867 641:-0.058287486 642:0.33725142 643:0.22517544 644:0.23858623 645:0.26720899 646:0.2370763 647:-0.4307594 648:0.29070774 649:0.31281093 650:0.29357758 651:0.21408261 652:0.30006576 653:-0.04946816 654:-0.08843872 655:0.33345479 656:0.12476049 657:0.036821067 658:-0.48895726 659:-0.24419254 660:0.30626208 661:0.00073565345 662:0.19022542 663:0.069272272 664:-0.17522119 665:-0.34926307 666:0.045415327 667:-0.59178758 668:-0.26352698 669:-0.07812804 670:0.2902984 671:0.10029037 672:0.087607801 673:-0.13728358 674:0.018416321 675:-0.23588397 676:-0.37811503 677:-0.041199211 678:0.1672933 679:0.41972184 680:-0.2474363 681:-0.065978914 682:-0.23824491 683:-0.082095914 684:-0.10761495 685:1.0475428 686:-0.42087817 687:-0.14089173 688:0.033801123 689:-0.035573747 690:-0.23214896 691:-0.038580433 692:-0.028689474 693:-0.05312084 694:0.054202899 695:-0.00078403356 696:0.03575138 697:-0.065382436 698:0.19623719 699:-0.051603761 700:-0.17918134 701:-0.024718726 702:-0.16030754 703:-0.040591042 704:-0.0043218913 705:0.18560766 706:-0.0041705826 707:0.15525132 708:0.031938184 709:-0.026431855 710:-0.17412305 711:-0.064566307 712:-0.061580516 713:-0.041091431 714:0.083841845 715:0.067504153 716:0.045805022 717:-0.05432659 718:0.12341966 719:0.01593289 720:-0.14158979 721:0.18816844 722:-0.12885578 723:-0.027885208 724:0.10315923 725:-0.11286309 726:0.027562488 727:0.45738116 728:0.042969394 729:0.011680457 730:-0.12646922 731:-0.072559029 732:-0.058195006 733:-0.11015054 734:0.012395928 735:0.013330726 736:-0.024517655 737:-0.047466729 738:-0.056602534 739:-0.53777671 740:-0.12765953 741:-0.43308529 742:-0.1133548 743:-0.061262235 744:-0.033898242 745:-0.10063159 746:-0.043669194 747:-0.14753804 748:-0.0035183474 749:-0.015076377 750:-0.13354754 751:0.011749697 752:-0.021041559 753:-0.10429052 754:0.036962237 755:-0.054513421 756:0.0058237859 757:-0.10279273 758:-0.02501026 759:0.26571956 760:-0.1902775 761:0.52145123 762:-0.15836543 763:-0.065031916 764:0.0051469537 765:-0.13696744 766:0.006197311 767:1.134519 768:-0.0081235114 769:-0.027059603 770:-0.20396946 771:-0.21332608 772:-0.12436051 773:-0.037284646 774:-0.043165516 775:-0.044071276 776:0.091793105 777:-0.0015212012 778:-0.040121362 779:-0.13817349 780:-0.014260718 781:-0.077538282 782:-0.027435729 783:0.0045345244 784:-0.0080716489 785:-0.012995989 786:0.057989303 787:-0.28078714 788:-0.028545458 789:-0.090765901 790:-0.014438064 791:-0.0082083922 792:-0.030771941 793:-0.013691134 794:-0.0039454061 795:-0.036500346 796:-0.016234366 797:0.0068085883 798:-0.0037678664 799:-0.042440262 800:-0.022868829 801:-0.21282838 802:-0.00084951473 803:-0.0068076611 804:-0.0087562986 805:-0.010143623 806:-0.0027593044 807:-0.30498675 808:-0.00078371109 810:-0.031480964 812:-0.031804029 #
