svm_type c_svc
kernel_type rbf
gamma 0.1
nr_class 2
total_sv 12507
rho -2.31043
label -1 1
probA -1.45608
probB -0.0775274
nr_sv 6248 6259
SV
1 1:-0.31839 2:0.0883809 3:-0.354839 4:-1 5:0.3125 6:-0.466667 7:-0.704036 8:-0.408072 9:-0.613159 10:-0.0576919 
1 1:-0.31839 2:0.0883809 3:-0.354839 4:-0.894737 5:-0.8125 6:-0.466667 7:-0.704036 8:-0.408072 9:-0.613159 10:-0.0576919 
1 1:-0.31839 2:0.0883809 3:-0.072581 4:-1 5:0.3125 6:-0.466667 7:-0.704034 8:-0.408067 9:-0.620525 10:-0.0576919 
1 1:-0.31839 2:0.0883809 3:-0.072581 4:-0.894737 5:-0.8125 6:-0.466667 7:-0.704034 8:-0.408067 9:-0.620525 10:-0.0576919 
1 1:-0.31839 2:0.0883809 3:-0.129033 4:-0.789474 5:0.3125 6:-0.2 7:-0.632046 8:-0.39789 9:-0.614033 10:-0.0307688 
1 1:-0.31839 2:0.0883809 3:-0.129033 4:-0.684211 5:-0.5625 6:-0.2 7:-0.632046 8:-0.39789 9:-0.614033 10:-0.0307688 
1 1:-0.0764621 2:0.198031 3:-0.129033 4:-0.473684 5:0.125 6:-0.2 7:-0.632046 8:-0.39789 9:-0.614033 10:-0.0307688 
1 1:-0.0764621 2:0.198031 3:-0.129033 4:-0.368421 5:-0.5625 6:-0.2 7:-0.632046 8:-0.39789 9:-0.614033 10:-0.0307688 
1 1:-0.0104659 2:0.32104 3:-0.129033 4:-0.263158 5:-0.75 6:-0.2 7:-0.632046 8:-0.39789 9:-0.614033 10:-0.0307688 
1 1:-0.142429 2:0.0883809 3:-0.129033 4:-0.157895 6:-0.2 7:-0.632046 8:-0.39789 9:-0.614033 10:-0.0307688 
1 1:-0.0764017 2:0.209196 3:-0.129033 4:-0.473684 5:0.125 6:-0.2 7:-0.631977 8:-0.39778 9:-0.596015 10:-0.0307688 
1 1:-0.0764017 2:0.209196 3:-0.129033 4:-0.368421 5:-0.5625 6:-0.2 7:-0.631977 8:-0.39778 9:-0.596015 10:-0.0307688 
1 1:-0.142395 2:0.0883809 3:-0.129033 4:-0.157895 6:-0.2 7:-0.631977 8:-0.39778 9:-0.596015 10:-0.0307688 
1 1:-0.31839 2:0.0883809 3:-0.129033 4:-0.473684 5:-0.0625 6:-0.2 7:-0.757649 8:-0.603425 9:-0.679595 10:-0.0307688 
1 1:-0.31839 2:0.0883809 3:-0.129033 4:-0.368421 5:-0.0625 6:-0.2 7:-0.757649 8:-0.603425 9:-0.679595 10:-0.0307688 
1 1:-0.31839 2:0.0883809 3:-0.129033 4:-0.157895 5:-0.75 6:-0.2 7:-0.757649 8:-0.603425 9:-0.679595 10:-0.0307688 
1 1:-0.417369 2:0.0905163 3:0.0967739 4:-0.684211 5:-0.5625 6:-0.2 7:-0.569169 8:-0.295003 9:-0.530276 10:0.0769236 
1 1:-0.153405 2:0.208384 3:0.0967739 4:-0.578947 6:-0.2 7:-0.569169 8:-0.295003 9:-0.530276 10:0.0769236 
1 1:-0.054414 2:0.207291 3:-0.129033 4:-0.368421 5:-0.5625 6:-0.2 7:-0.569169 8:-0.295003 9:-0.530276 10:0.0769236 
1 1:-0.230374 2:0.21769 3:-0.354839 4:-0.263158 5:-0.75 6:-0.2 7:-0.569169 8:-0.295003 9:-0.530276 10:0.0769236 
1 1:-0.230374 2:0.21769 3:-0.354839 4:-0.157895 6:-0.2 7:-0.569169 8:-0.295003 9:-0.530276 10:0.0769236 
1 1:-0.241807 2:0.0883809 3:-0.293255 4:-1 5:-1 6:-0.0666667 7:-0.753363 8:-0.630044 9:-0.729866 10:-0.216784 
1 1:-0.241807 2:0.0883809 3:-0.293255 4:-0.894737 5:-1 6:-0.0666667 7:-0.753363 8:-0.630044 9:-0.729866 10:-0.216784 
1 1:-0.241807 2:0.0883809 3:-0.293255 4:-0.789474 5:-0.8125 6:-0.0666667 7:-0.753363 8:-0.630044 9:-0.729866 10:-0.216784 
1 1:-0.31839 2:0.0883809 3:-0.149561 4:-0.0526316 5:-0.1875 6:-0.0666667 7:-0.753363 8:-0.630044 9:-0.729866 10:-0.216784 
1 1:-0.384445 2:-0.0769463 3:-0.354839 4:-0.789474 5:-0.3125 6:-0.6 7:-0.757673 8:-0.45476 9:-0.655165 10:-0.230769 
1 1:-0.31839 2:0.0883809 3:-0.129033 4:-0.789474 5:0.3125 6:-0.2 7:-0.75771 8:-0.603525 9:-0.696807 10:-0.138461 
1 1:-0.31839 2:0.0883809 3:-0.129033 4:-0.684211 5:-0.5625 6:-0.2 7:-0.75771 8:-0.603525 9:-0.696807 10:-0.138461 
1 1:-0.318374 2:0.0953305 3:-0.129033 4:-0.578947 6:-0.2 7:-0.75771 8:-0.603525 9:-0.696807 10:-0.138461 
1 1:-0.31839 2:0.0883809 3:-0.354839 4:-0.473684 5:0.125 6:-0.2 7:-0.75771 8:-0.603525 9:-0.696807 10:-0.138461 
1 1:-0.31839 2:0.0883809 3:-0.354839 4:-0.368421 5:-0.5625 6:-0.2 7:-0.75771 8:-0.603525 9:-0.696807 10:-0.138461 
1 1:-0.252416 2:0.202155 3:-0.129033 4:-0.263158 5:-0.75 6:-0.2 7:-0.75771 8:-0.603525 9:-0.696807 10:-0.138461 
1 1:-0.31839 2:0.0883809 3:-0.129033 4:-0.157895 6:-0.2 7:-0.75771 8:-0.603525 9:-0.696807 10:-0.138461 
1 1:-0.31839 2:0.0883809 3:-0.354839 4:-1 5:-0.625 6:-0.6 7:-0.758057 8:-0.455628 9:-0.692031 10:-0.0769236 
1 1:-0.31839 2:0.0883809 3:-0.354839 4:-0.894737 5:0.1875 6:-0.6 7:-0.758057 8:-0.455628 9:-0.692031 10:-0.0769236 
1 1:-0.31839 2:0.0883809 3:-0.354839 4:-0.894737 5:0.375 6:-0.733333 7:-0.757425 8:-0.376234 9:-0.641633 10:-0.102563 
1 1:-0.31839 2:0.0883809 3:-0.354839 4:-1 5:0.375 6:-0.733333 7:-0.757458 8:-0.37632 9:-0.659007 10:-0.102563 
1 1:-0.31839 2:0.0883809 3:-0.354839 4:-1 5:0.375 6:-0.733333 7:-0.757485 8:-0.376386 9:-0.66652 10:-0.102563 
1 1:-0.31839 2:0.0883809 3:-0.354839 4:-0.894737 5:-0.75 6:-0.733333 7:-0.757485 8:-0.376386 9:-0.66652 10:-0.102563 
1 1:-0.31839 2:0.0883809 3:-0.354839 4:-1 5:0.125 6:-0.733333 7:-0.757974 8:-0.377645 9:-0.686574 10:0.0769236 
1 1:-0.31839 2:0.0883809 3:-0.354839 4:-0.894737 5:-0.5625 6:-0.733333 7:-0.757974 8:-0.377645 9:-0.686574 10:0.0769236 
1 1:-0.31839 2:0.0883809 3:-0.354839 4:-1 5:0.375 6:-0.733333 7:-0.757479 8:-0.376372 9:-0.668808 10:-0.102563 
1 1:-0.25252 2:0.204771 3:-0.0322583 4:-1 5:-0.3125 6:-0.6 7:-0.704222 8:-0.334495 9:-0.576124 10:0.0769236 
1 1:-0.31839 2:0.0883809 3:-0.354839 4:-0.894737 5:-0.75 6:-0.6 7:-0.704222 8:-0.334495 9:-0.576124 10:0.0769236 
1 1:-0.31839 2:0.0883809 3:-0.354839 4:-0.789474 5:-1 6:-0.6 7:-0.704222 8:-0.334495 9:-0.576124 10:0.0769236 
1 1:-0.318341 2:0.105904 3:-0.0322583 4:-0.473684 5:0.3125 6:-0.6 7:-0.704222 8:-0.334495 9:-0.576124 10:0.0769236 
1 1:-0.339419 2:0.108489 3:-0.072581 4:-0.368421 5:-0.8125 6:-0.6 7:-0.704222 8:-0.334495 9:-0.576124 10:0.0769236 
1 1:-0.318349 2:0.103936 3:-0.354839 4:-0.789474 6:-0.733333 7:-0.677364 8:-0.170365 9:-0.549679 10:0.0769236 
1 1:-0.384431 2:0.00531079 3:-0.354839 4:-1 5:0.375 6:-1 7:-0.865155 8:-0.514559 9:-0.808197 10:-0.192307 
1 1:-0.384431 2:0.00531079 3:-0.354839 4:-0.789474 5:-0.25 6:-1 7:-0.865155 8:-0.514559 9:-0.808197 10:-0.192307 
1 1:-0.384431 2:0.00531079 3:-0.354839 4:-0.684211 6:-1 7:-0.865155 8:-0.514559 9:-0.808197 10:-0.192307 
1 1:-0.31839 2:0.0883809 3:-0.354839 4:-1 5:-0.0625 6:-0.866667 7:-0.784641 8:-0.35392 9:-0.707847 10:0.0769236 
1 1:-0.31839 2:0.0883809 3:-0.354839 4:-0.368421 6:-0.466667 7:-0.695102 8:-0.390202 9:-0.637012 10:-0.0576919 
1 1:-0.31839 2:0.0883809 3:-0.354839 4:-0.263158 5:-1 6:-0.466667 7:-0.695102 8:-0.390202 9:-0.637012 10:-0.0576919 
1 1:-0.186491 2:0.207629 3:-0.0322583 4:-1 5:-0.8125 6:-0.6 7:-0.70401 8:-0.334023 9:-0.682823 10:0.230771 
1 1:-0.186408 2:0.134112 3:-0.0322583 4:-0.684211 5:0.125 6:-0.6 7:-0.70401 8:-0.334023 9:-0.682823 10:0.230771 
1 1:-0.186408 2:0.134112 3:-0.0322583 4:-0.578947 5:-0.0625 6:-0.6 7:-0.70401 8:-0.334023 9:-0.682823 10:0.230771 
1 1:-0.31839 2:0.0883809 3:-0.354839 4:-0.684211 5:-1 6:-0.733333 7:-0.731026 8:-0.308352 9:-0.616131 10:0.0769236 
1 1:-0.153539 2:0.205124 3:-0.072581 4:-0.894737 5:-0.75 6:-0.466667 7:-0.636746 8:-0.27349 9:-0.557667 10:0.0769236 
1 1:-0.153503 2:0.221242 3:-0.072581 4:-0.789474 5:-0.8125 6:-0.466667 7:-0.636746 8:-0.27349 9:-0.557667 10:0.0769236 
1 1:-0.241443 2:0.212479 3:-0.354839 4:-0.684211 5:-1 6:-0.466667 7:-0.636746 8:-0.27349 9:-0.557667 10:0.0769236 
1 1:-0.252437 2:0.213058 3:-0.072581 4:-0.368421 5:-0.5625 6:-0.466667 7:-0.636746 8:-0.27349 9:-0.557667 10:0.0769236 
1 1:-0.252437 2:0.213058 3:-0.072581 4:-0.263158 5:-0.25 6:-0.466667 7:-0.636746 8:-0.27349 9:-0.557667 10:0.0769236 
1 1:-0.186488 2:0.220258 3:-0.072581 4:-0.157895 5:-0.375 6:-0.466667 7:-0.636746 8:-0.27349 9:-0.557667 10:0.0769236 
1 1:-0.31839 2:0.0883809 3:-0.354839 4:-0.473684 5:-0.375 6:-0.466667 7:-0.784752 8:-0.569504 9:-0.719782 10:-0.326923 
1 1:-0.31839 2:0.0883809 3:-0.354839 4:-0.368421 5:-1 6:-0.466667 7:-0.784752 8:-0.569504 9:-0.719782 10:-0.326923 
1 1:-0.31839 2:0.0883809 3:-0.354839 4:-0.263158 5:-0.75 6:-0.466667 7:-0.784752 8:-0.569504 9:-0.719782 10:-0.326923 
1 1:-0.252399 2:0.236328 3:0.0215049 4:-0.789474 5:0.125 6:-0.733333 7:-0.784641 8:-0.446219 9:-0.67109 10:0.25641 
1 1:-0.252432 2:0.218671 3:0.0215049 4:-0.684211 5:-1 6:-0.733333 7:-0.784641 8:-0.446219 9:-0.67109 10:0.25641 
1 1:-0.317853 2:-0.0473393 3:0.0215049 4:-0.368421 5:-0.375 6:-0.733333 7:-0.784641 8:-0.446219 9:-0.67109 10:0.25641 
1 1:-0.31839 2:0.0883809 3:-0.354839 4:-1 5:0.5 6:-0.733333 7:-0.784579 8:-0.446061 9:-0.716255 10:-0.282052 
1 1:-0.31839 2:0.0883809 3:-0.354839 4:-0.578947 5:-0.625 6:-0.733333 7:-0.784579 8:-0.446061 9:-0.716255 10:-0.282052 
1 1:-0.31839 2:0.0883809 3:-0.354839 4:-0.473684 5:-0.3125 6:-0.733333 7:-0.784579 8:-0.446061 9:-0.716255 10:-0.282052 
1 1:-0.31839 2:0.0883809 3:-0.354839 4:-0.473684 6:-0.6 7:-0.784742 8:-0.51567 9:-0.710549 10:-0.0769236 
1 1:-0.31839 2:0.0883809 3:-0.354839 4:-0.368421 5:-1 6:-0.6 7:-0.784742 8:-0.51567 9:-0.710549 10:-0.0769236 
1 1:-0.252495 2:0.202946 3:-0.103943 4:-1 5:-0.3125 6:-0.333333 7:-0.704116 8:-0.467407 9:-0.585387 10:0.0769236 
1 1:-0.252911 2:0.262885 3:-0.072581 4:-0.789474 5:-0.625 6:-0.333333 7:-0.704116 8:-0.467407 9:-0.585387 10:0.0769236 
1 1:-0.252911 2:0.262885 3:-0.072581 4:-0.684211 5:0.125 6:-0.333333 7:-0.704116 8:-0.467407 9:-0.585387 10:0.0769236 
1 1:-0.31839 2:0.0883809 3:-0.354839 4:-0.578947 6:-0.333333 7:-0.704116 8:-0.467407 9:-0.585387 10:0.0769236 
1 1:-0.252481 2:0.207959 3:-0.103943 4:-0.368421 5:0.3125 6:-0.333333 7:-0.704116 8:-0.467407 9:-0.585387 10:0.0769236 
1 1:-0.317716 2:0.0883809 3:-0.129033 4:-0.263158 6:-0.333333 7:-0.704116 8:-0.467407 9:-0.585387 10:0.0769236 
1 1:-0.186534 2:0.228216 3:-0.103943 4:-0.157895 5:-0.8125 6:-0.333333 7:-0.704116 8:-0.467407 9:-0.585387 10:0.0769236 
1 1:-0.186534 2:0.228216 3:-0.103943 4:-0.0526316 5:-0.375 6:-0.333333 7:-0.704116 8:-0.467407 9:-0.585387 10:0.0769236 
1 1:-0.31839 2:0.0883809 3:-0.0322583 4:-0.894737 5:-0.375 6:-0.6 7:-0.730814 8:-0.394327 9:-0.619265 10:0.0769236 
1 1:-0.31839 2:0.0883809 3:-0.0322583 4:-0.578947 5:-0.8125 6:-0.6 7:-0.730814 8:-0.394327 9:-0.619265 10:0.0769236 
1 1:-0.318369 2:0.104206 3:0.0967739 4:-0.684211 5:-0.25 6:-0.866667 7:-0.784581 8:-0.353743 9:-0.702634 10:0.507693 
1 1:-0.253271 2:0.204632 3:-0.32975 4:-1 5:-1 6:-0.2 7:-0.664117 8:-0.450373 9:-0.594626 10:-0.0307688 
1 1:-0.253271 2:0.204632 3:-0.32975 4:-0.894737 5:-1 6:-0.2 7:-0.664117 8:-0.450373 9:-0.594626 10:-0.0307688 
1 1:-0.153714 2:0.222509 3:0.0967739 4:-0.473684 5:-0.75 6:-0.2 7:-0.664117 8:-0.450373 9:-0.594626 10:-0.0307688 
1 1:-0.0878682 2:0.341848 3:-0.129033 4:-0.368421 5:-0.75 6:-0.2 7:-0.664117 8:-0.450373 9:-0.594626 10:-0.0307688 
1 1:-0.154376 2:0.209432 3:-0.32975 4:-0.263158 5:-1 6:-0.2 7:-0.664117 8:-0.450373 9:-0.594626 10:-0.0307688 
1 1:-0.317537 2:0.0883809 3:-0.170088 4:-0.0526316 6:-0.2 7:-0.664117 8:-0.450373 9:-0.594626 10:-0.0307688 
1 1:-0.317537 2:-0.0281028 3:-0.375367 4:0.0526316 5:-0.375 6:-0.2 7:-0.664117 8:-0.450373 9:-0.594626 10:-0.0307688 
1 1:-0.31839 2:0.0883809 3:-0.354839 4:-0.789474 5:-0.0625 6:-0.6 7:-0.649863 8:-0.21219 9:-0.480411 10:0.0769236 
1 1:-0.31839 2:0.0883809 3:-0.354839 4:-0.684211 5:0.3125 6:-0.6 7:-0.649863 8:-0.21219 9:-0.480411 10:0.0769236 
1 1:-0.31839 2:0.0883809 3:-0.354839 4:-1 5:-0.0625 6:-0.733333 7:-0.73074 8:-0.307617 9:-0.582502 10:-0.102563 
1 1:-0.31839 2:0.0883809 3:-0.354839 4:-0.894737 5:-0.3125 6:-0.733333 7:-0.73074 8:-0.307617 9:-0.582502 10:-0.102563 
1 1:-0.31839 2:0.0883809 3:-0.354839 4:-1 5:-1 6:-0.733333 7:-0.703981 8:-0.23881 9:-0.551136 10:0.25641 
1 1:-0.252487 2:0.209764 3:-0.129033 4:-1 5:-0.375 6:-0.2 7:-0.51583 8:-0.207721 9:-0.268336 10:0.0769236 
1 1:-0.252487 2:0.209764 3:-0.129033 4:-0.894737 6:-0.2 7:-0.51583 8:-0.207721 9:-0.268336 10:0.0769236 
1 1:-0.186538 2:0.34938 3:-0.129033 4:-0.789474 5:-0.75 6:-0.2 7:-0.51583 8:-0.207721 9:-0.268336 10:0.0769236 
1 1:-0.384232 2:0.00681224 3:-0.354839 4:-0.578947 5:-0.8125 6:-0.2 7:-0.51583 8:-0.207721 9:-0.268336 10:0.0769236 
1 1:-0.384232 2:0.00681224 3:-0.354839 4:-0.473684 5:-1 6:-0.2 7:-0.51583 8:-0.207721 9:-0.268336 10:0.0769236 
1 1:-0.253249 2:0.25542 3:-0.605735 4:-0.263158 5:0.1875 6:-0.2 7:-0.51583 8:-0.207721 9:-0.268336 10:0.0769236 
1 1:-0.186574 2:0.334485 3:-0.129033 4:-0.157895 5:-0.6875 6:-0.2 7:-0.51583 8:-0.207721 9:-0.268336 10:0.0769236 
1 1:-0.318378 2:0.0954566 3:-0.354839 4:-0.894737 5:-0.3125 6:-0.333333 7:-0.515187 8:-0.127335 9:-0.295117 10:0.0769236 
1 1:-0.318378 2:0.0954566 3:-0.354839 4:-0.789474 5:-0.625 6:-0.333333 7:-0.515187 8:-0.127335 9:-0.295117 10:0.0769236 
1 1:-0.31839 2:0.0883809 3:-0.354839 4:-0.368421 5:-1 6:-0.333333 7:-0.623443 8:-0.322196 9:-0.461531 10:0.0769236 
1 1:-0.31839 2:0.0883809 3:-0.181142 4:-1 6:0.2 7:-0.170296 8:0.0667636 9:-0.16309 10:0.159765 
1 1:-0.31839 2:0.0883809 3:-0.181142 4:-0.894737 6:0.2 7:-0.170296 8:0.0667636 9:-0.16309 10:0.159765 
1 1:-0.31839 2:0.0883809 3:-0.181142 4:-0.789474 5:-1 6:0.2 7:-0.170296 8:0.0667636 9:-0.16309 10:0.159765 
1 1:-0.252456 2:0.202882 3:-0.181142 4:-0.684211 5:0.125 6:0.2 7:-0.170296 8:0.0667636 9:-0.16309 10:0.159765 
1 1:0.297195 2:0.340491 3:-0.181142 4:-0.0526316 5:-0.625 6:0.2 7:-0.170296 8:0.0667636 9:-0.16309 10:0.159765 
1 1:0.187293 2:0.34784 3:-0.181142 4:0.0526316 5:-0.5625 6:0.2 7:-0.170296 8:0.0667636 9:-0.16309 10:0.159765 
1 1:-0.50392 2:-0.153547 3:-0.342432 4:0.263158 5:-0.1875 6:0.2 7:-0.170296 8:0.0667636 9:-0.16309 10:0.159765 
1 1:-0.31839 2:0.0883809 3:-0.354839 4:0.157895 5:0.125 6:0.0666667 7:-0.430757 8:-0.211818 9:-0.437585 10:-0.0128208 
1 1:-0.38436 2:-0.0165261 3:-0.354839 4:-0.578947 5:-0.0625 6:-0.733333 7:-0.595912 8:0.0390844 9:-0.384691 10:0.25641 
1 1:-0.38436 2:-0.0165261 3:-0.354839 4:-0.473684 5:-0.6875 6:-0.733333 7:-0.595912 8:0.0390844 9:-0.384691 10:0.25641 
1 1:-0.31839 2:0.0883809 3:-0.354839 4:-0.578947 5:-0.0625 6:-0.733333 7:-0.569002 8:0.108283 9:-0.351822 10:0.25641 
1 1:-0.230395 2:0.214526 3:-0.354839 4:-0.473684 5:-0.75 6:-0.0666667 7:-0.255019 8:0.117472 9:-0.0675222 10:0.272728 
1 1:0.0886091 2:0.488315 3:0.0557182 4:-0.368421 5:-0.75 6:-0.0666667 7:-0.255019 8:0.117472 9:-0.0675222 10:0.272728 
1 1:-0.186382 2:0.355609 3:-0.354839 4:-0.157895 5:-0.375 6:-0.0666667 7:-0.255019 8:0.117472 9:-0.0675222 10:0.272728 
1 1:-0.218386 2:0.0883809 3:-0.132454 4:-0.0526316 6:-0.0666667 7:-0.255019 8:0.117472 9:-0.0675222 10:0.272728 
1 1:-0.384295 2:0.00172958 3:-0.354839 4:-0.894737 5:-0.625 6:0.2 7:-0.115895 8:0.136706 9:0.0130756 10:0.159765 
1 1:-0.384294 2:0.00188182 3:-0.354839 4:-0.789474 6:0.2 7:-0.115895 8:0.136706 9:0.0130756 10:0.159765 
1 1:-0.384294 2:0.00188182 3:-0.354839 4:-0.684211 5:-0.75 6:0.2 7:-0.115895 8:0.136706 9:0.0130756 10:0.159765 
1 1:-0.252794 2:0.201469 3:-0.29694 4:-0.894737 5:-0.0625 6:0.2 7:-0.676967 8:-0.58467 9:-0.564168 10:-0.254437 
1 1:-0.252794 2:0.201469 3:-0.29694 4:-0.789474 5:0.125 6:0.2 7:-0.676967 8:-0.58467 9:-0.564168 10:-0.254437 
1 1:-0.252774 2:0.211658 3:-0.29694 4:-0.684211 5:-0.5625 6:0.2 7:-0.676967 8:-0.58467 9:-0.564168 10:-0.254437 
1 1:-0.252401 2:0.215821 3:-0.181142 4:-0.578947 5:-0.75 6:0.2 7:-0.676967 8:-0.58467 9:-0.564168 10:-0.254437 
1 1:-0.25244 2:0.32121 3:-0.181142 4:-0.0526316 5:-0.75 6:0.2 7:-0.676967 8:-0.58467 9:-0.564168 10:-0.254437 
1 1:-0.252413 2:0.209742 3:-0.181142 4:0.0526316 5:-0.5625 6:0.2 7:-0.676967 8:-0.58467 9:-0.564168 10:-0.254437 
1 1:-0.31839 2:0.0883809 3:-0.354839 4:-1 5:-0.375 6:-0.333333 7:-0.601164 8:-0.282094 9:-0.434808 10:-0.162393 
1 1:-0.26332 2:0.00532536 3:-0.354839 4:-0.789474 5:-1 6:-0.333333 7:-0.601164 8:-0.282094 9:-0.434808 10:-0.162393 
1 1:-0.241397 2:0.257175 3:-0.354839 4:-0.684211 5:-0.8125 6:-0.333333 7:-0.601164 8:-0.282094 9:-0.434808 10:-0.162393 
1 1:-0.241397 2:0.257175 3:-0.354839 4:-0.578947 5:-1 6:-0.333333 7:-0.601164 8:-0.282094 9:-0.434808 10:-0.162393 
1 1:-0.0658279 2:0.336619 3:-0.103943 4:-0.473684 5:0.3125 6:-0.333333 7:-0.601164 8:-0.282094 9:-0.434808 10:-0.162393 
1 1:-0.13162 2:0.24285 3:-0.354839 4:-0.368421 5:-1 6:-0.333333 7:-0.601164 8:-0.282094 9:-0.434808 10:-0.162393 
1 1:-0.31839 2:0.0883809 3:-0.354839 4:-0.263158 5:-0.0625 6:-0.333333 7:-0.601164 8:-0.282094 9:-0.434808 10:-0.162393 
1 1:-0.31839 2:0.0883809 3:-0.354839 4:-0.157895 5:0.125 6:-0.333333 7:-0.601164 8:-0.282094 9:-0.434808 10:-0.162393 
1 1:-0.31839 2:0.0883809 3:-0.354839 4:-0.789474 5:-0.3125 6:-0.6 7:-0.75763 8:-0.454665 9:-0.639085 10:0.230771 
1 1:-0.31839 2:0.0883809 3:-0.354839 4:-0.684211 6:-0.6 7:-0.75763 8:-0.454665 9:-0.639085 10:0.230771 
1 1:-0.31839 2:0.0883809 3:-0.354839 4:-0.578947 6:-0.6 7:-0.75763 8:-0.454665 9:-0.639085 10:0.230771 
1 1:-0.31839 2:0.0883809 3:-0.354839 4:-0.473684 5:-1 6:-0.6 7:-0.75763 8:-0.454665 9:-0.639085 10:0.230771 
1 1:-0.241529 2:0.0883809 3:-0.149561 4:-1 5:-0.3125 6:-0.0666667 7:-0.565452 8:-0.348178 9:-0.447973 10:0.174827 
1 1:-0.186496 2:0.352658 3:0.0215049 4:-0.894737 5:0.3125 6:-0.733333 7:-0.730915 8:-0.308066 9:-0.59756 10:0.0769236 
1 1:-0.252397 2:0.245297 3:0.0215049 4:-0.789474 5:-0.75 6:-0.733333 7:-0.730915 8:-0.308066 9:-0.59756 10:0.0769236 
1 1:-0.252403 2:0.241893 3:0.0215049 4:-0.684211 5:-0.3125 6:-0.733333 7:-0.730915 8:-0.308066 9:-0.59756 10:0.0769236 
1 1:-0.31839 2:0.0883809 3:-0.354839 4:-0.578947 5:-0.0625 6:-0.733333 7:-0.730915 8:-0.308066 9:-0.59756 10:0.0769236 
1 1:-0.31839 2:0.0883809 3:-0.354839 4:-0.473684 5:-1 6:-0.733333 7:-0.730915 8:-0.308066 9:-0.59756 10:0.0769236 
1 1:-0.0547445 2:0.443902 3:0.397851 4:-0.368421 5:0.0625 6:-0.733333 7:-0.730915 8:-0.308066 9:-0.59756 10:0.0769236 
1 1:-0.31839 2:0.0883809 3:-0.354839 4:-0.684211 5:-0.0625 6:-0.6 7:-0.596352 8:-0.0917866 9:-0.390852 10:0.0769236 
1 1:-0.31839 2:0.0883809 3:-0.354839 4:-0.578947 5:-1 6:-0.6 7:-0.596352 8:-0.0917866 9:-0.390852 10:0.0769236 
1 1:-0.252459 2:0.217122 3:0.0215049 4:-1 5:-1 6:-0.733333 7:-0.838561 8:-0.584869 9:-0.772442 10:-0.102563 
1 1:-0.252459 2:0.217122 3:0.0215049 4:-0.894737 5:0.3125 6:-0.733333 7:-0.838561 8:-0.584869 9:-0.772442 10:-0.102563 
1 1:-0.252421 2:0.235953 3:0.0215049 4:-0.789474 5:-0.75 6:-0.733333 7:-0.838561 8:-0.584869 9:-0.772442 10:-0.102563 
1 1:-0.31839 2:0.0883809 3:-0.354839 4:-0.578947 5:-0.0625 6:-0.733333 7:-0.838561 8:-0.584869 9:-0.772442 10:-0.102563 
1 1:-0.31839 2:0.0883809 3:-0.354839 4:-0.473684 5:-1 6:-0.733333 7:-0.838561 8:-0.584869 9:-0.772442 10:-0.102563 
1 1:-0.31839 2:0.0883809 3:-0.354839 4:-0.473684 5:-0.0625 6:0.2 7:-0.381263 8:-0.204478 9:-0.0902439 10:0.0769236 
1 1:-0.153395 2:0.211716 3:-0.354839 4:-0.789474 5:-0.3125 6:-0.6 7:-0.636425 8:-0.181954 9:-0.509183 10:0.0769236 
1 1:-0.153379 2:0.22027 3:-0.0322583 4:-0.684211 5:0.125 6:-0.6 7:-0.636425 8:-0.181954 9:-0.509183 10:0.0769236 
1 1:-0.153379 2:0.22027 3:-0.0322583 4:-0.578947 6:-0.6 7:-0.636425 8:-0.181954 9:-0.509183 10:0.0769236 
1 1:-0.0874098 2:0.335129 3:-0.0322583 4:-0.368421 5:0.3125 6:-0.6 7:-0.636425 8:-0.181954 9:-0.509183 10:0.0769236 
1 1:-0.31839 2:0.0883809 3:-0.354839 4:-0.578947 5:-0.3125 6:-0.2 7:-0.676996 8:-0.471447 9:-0.518484 10:-0.138461 
1 1:-0.31839 2:0.0883809 3:-0.605735 4:-0.157895 5:-0.3125 6:-0.333333 7:-0.547059 8:-0.184706 9:-0.394274 10:-0.0427356 
1 1:-0.318369 2:0.0999901 3:-0.354839 4:-1 6:-0.466667 7:-0.623014 8:-0.246026 9:-0.457373 10:0.0769236 
1 1:-0.252458 2:0.183348 3:-0.072581 4:-0.789474 5:-0.0625 6:-0.466667 7:-0.623014 8:-0.246026 9:-0.457373 10:0.0769236 
1 1:-0.31839 2:0.0883809 3:-0.354839 4:-0.578947 5:0.125 6:-0.466667 7:-0.623014 8:-0.246026 9:-0.457373 10:0.0769236 
1 1:-0.219513 2:0.0883809 3:-0.149561 4:-0.894737 6:-0.0666667 7:-0.457612 8:-0.186418 9:-0.349197 10:-0.0209795 
1 1:-0.383769 2:-0.0233886 3:-0.379929 4:-0.263158 5:-0.75 6:-0.333333 7:-0.595883 8:-0.272589 9:-0.566762 10:-0.0427356 
1 1:-0.241445 2:0.234271 3:-0.354839 4:-1 5:-0.0625 6:-0.466667 7:-0.439627 8:0.120749 9:-0.214439 10:0.346154 
1 1:-0.252365 2:0.248137 3:-0.072581 4:-0.578947 5:-1 6:-0.466667 7:-0.439627 8:0.120749 9:-0.214439 10:0.346154 
1 1:-0.318527 2:-0.0878528 3:-0.354839 4:-0.368421 5:-1 6:-0.466667 7:-0.439627 8:0.120749 9:-0.214439 10:0.346154 
1 1:-0.318527 2:-0.0878528 3:-0.354839 4:-0.263158 5:0.3125 6:-0.466667 7:-0.439627 8:0.120749 9:-0.214439 10:0.346154 
1 1:-0.186302 2:0.351616 3:-0.0322583 4:-1 6:-0.6 7:-0.64968 8:-0.211779 9:-0.476539 10:-0.0769236 
1 1:-0.186289 2:0.36098 3:-0.0322583 4:-0.789474 6:-0.6 7:-0.64968 8:-0.211779 9:-0.476539 10:-0.0769236 
1 1:-0.31839 2:0.0883809 3:-0.354839 4:-0.473684 5:-0.0625 6:-0.6 7:-0.64968 8:-0.211779 9:-0.476539 10:-0.0769236 
1 1:-0.31839 2:0.0883809 3:-0.354839 4:-0.368421 5:-1 6:-0.6 7:-0.64968 8:-0.211779 9:-0.476539 10:-0.0769236 
1 1:-0.31839 2:0.0883809 3:-0.354839 4:-0.894737 5:-0.75 6:-0.6 7:-0.650181 8:-0.21291 9:-0.475482 10:0.230771 
1 1:-0.186623 2:0.334835 3:-0.103943 4:-0.368421 6:-0.333333 7:-0.524931 8:-0.144875 9:-0.414322 10:0.196583 
1 1:-0.252458 2:0.209715 3:0.209677 4:-0.578947 5:0.1875 6:-0.466667 7:-0.703996 8:-0.40799 9:-0.581091 10:0.211539 
1 1:-0.252476 2:0.200013 3:-0.072581 4:-0.368421 5:-0.625 6:-0.466667 7:-0.703996 8:-0.40799 9:-0.581091 10:0.211539 
1 1:-0.186312 2:0.352223 3:-0.0322583 4:-1 6:-0.6 7:-0.649696 8:-0.211818 9:-0.470138 10:-0.0769236 
1 1:-0.186293 2:0.365579 3:-0.0322583 4:-0.789474 6:-0.6 7:-0.649696 8:-0.211818 9:-0.470138 10:-0.0769236 
1 1:-0.31839 2:0.0883809 3:-0.354839 4:-0.473684 5:-0.0625 6:-0.6 7:-0.649696 8:-0.211818 9:-0.470138 10:-0.0769236 
1 1:-0.31839 2:0.0883809 3:-0.354839 4:-0.368421 5:-1 6:-0.6 7:-0.649696 8:-0.211818 9:-0.470138 10:-0.0769236 
1 1:-0.384313 2:0.00360825 3:-0.560118 4:-0.473684 5:-0.8125 6:-0.0666667 7:-0.569217 8:-0.353824 9:-0.370275 10:-0.0209795 
1 1:-0.384345 2:-0.0467611 3:-0.354839 4:-0.789474 5:-0.0625 6:-0.466667 7:-0.5964 8:-0.192799 9:-0.396823 10:0.0769236 
1 1:-0.384345 2:-0.0467611 3:-0.354839 4:-0.684211 5:-0.0625 6:-0.466667 7:-0.5964 8:-0.192799 9:-0.396823 10:0.0769236 
1 1:-0.384396 2:-0.0528637 3:-0.129033 4:-0.684211 5:-0.3125 6:-0.2 7:-0.519879 8:-0.21435 9:-0.368157 10:-0.138461 
1 1:-0.252521 2:0.191022 3:-0.072581 4:-1 5:0.125 6:-0.466667 7:-0.650271 8:-0.30054 9:-0.488781 10:0.0769236 
1 1:-0.252521 2:0.191022 3:-0.072581 4:-0.894737 5:-1 6:-0.466667 7:-0.650271 8:-0.30054 9:-0.488781 10:0.0769236 
1 1:-0.252521 2:0.191022 3:-0.072581 4:-0.789474 5:-0.0625 6:-0.466667 7:-0.650271 8:-0.30054 9:-0.488781 10:0.0769236 
1 1:-0.252521 2:0.191022 3:-0.072581 4:-0.684211 5:-0.0625 6:-0.466667 7:-0.650271 8:-0.30054 9:-0.488781 10:0.0769236 
1 1:-0.219368 2:0.238409 3:-0.354839 4:-0.684211 6:-0.2 7:-0.291097 8:0.160026 9:-0.157482 10:0.292308 
1 1:-0.252465 2:0.195461 3:-0.0322583 4:-1 5:-0.75 6:-0.6 7:-0.730843 8:-0.394394 9:-0.627773 10:0.0769236 
1 1:-0.252465 2:0.195461 3:-0.0322583 4:-0.894737 5:-0.3125 6:-0.6 7:-0.730843 8:-0.394394 9:-0.627773 10:0.0769236 
1 1:-0.31839 2:0.0883809 3:-0.354839 4:-0.789474 5:-0.0625 6:-0.6 7:-0.730843 8:-0.394394 9:-0.627773 10:0.0769236 
1 1:-0.31839 2:0.0883809 3:-0.354839 4:-0.684211 5:0.1875 6:-0.6 7:-0.730843 8:-0.394394 9:-0.627773 10:0.0769236 
1 1:-0.384347 2:-0.0197592 3:-0.354839 4:-1 5:-0.3125 6:-0.2 7:-0.649953 8:-0.427195 9:-0.50617 10:-0.0307688 
1 1:-0.252443 2:0.216812 3:-0.149561 4:-1 5:-1 6:-0.0666667 7:-0.730976 8:-0.596465 9:-0.637074 10:-0.216784 
1 1:-0.252473 2:0.204552 3:-0.149561 4:-0.368421 5:0.3125 6:-0.0666667 7:-0.730976 8:-0.596465 9:-0.637074 10:-0.216784 
1 1:-0.31839 2:0.0883809 3:-0.354839 4:0.0526316 5:-0.0625 6:-0.0666667 7:-0.730976 8:-0.596465 9:-0.637074 10:-0.216784 
1 1:-0.31839 2:0.0883809 3:-0.354839 4:-0.894737 5:0.3125 6:-0.6 7:-0.596646 8:-0.0924542 9:-0.407283 10:0.0769236 
1 1:-0.31839 2:0.0883809 3:-0.354839 4:-1 5:0.375 6:-0.2 7:-0.578461 8:-0.310207 9:-0.418934 10:-0.0307688 
1 1:-0.0766471 2:0.319659 3:-0.129033 4:-0.789474 5:-0.0625 6:-0.2 7:-0.578461 8:-0.310207 9:-0.418934 10:-0.0307688 
1 1:-0.31839 2:0.0883809 3:-0.580646 4:-0.157895 5:0.0625 6:-0.2 7:-0.578461 8:-0.310207 9:-0.418934 10:-0.0307688 
1 1:-0.318388 2:0.0891999 3:-0.580646 4:-0.0526316 5:-0.3125 6:-0.2 7:-0.578461 8:-0.310207 9:-0.418934 10:-0.0307688 
1 1:-0.318388 2:0.0891999 3:-0.580646 4:0.0526316 5:-0.625 6:-0.2 7:-0.578461 8:-0.310207 9:-0.418934 10:-0.0307688 
1 1:-0.153421 2:0.245008 3:0.0215049 4:-0.894737 5:-0.75 6:-0.733333 7:-0.663531 8:-0.134798 9:-0.546646 10:0.25641 
1 1:-0.318405 2:0.080239 3:-0.354839 4:-1 5:-0.375 6:-0.2 7:-0.555479 8:-0.272603 9:-0.439325 10:-0.0307688 
1 1:-0.318405 2:0.080239 3:-0.354839 4:-0.894737 5:-0.5625 6:-0.2 7:-0.555479 8:-0.272603 9:-0.439325 10:-0.0307688 
1 1:-0.219461 2:0.215103 3:-0.354839 4:-0.578947 6:-0.0666667 7:-0.152282 8:0.271578 9:0.0566077 10:0.174827 
1 1:-0.31839 2:0.0883809 3:-0.354839 4:-0.789474 5:-0.0625 6:-0.733333 7:-0.676848 8:-0.169035 9:-0.500093 10:0.25641 
1 1:-0.31839 2:0.0883809 3:-0.354839 4:-0.684211 5:0.3125 6:-0.733333 7:-0.676848 8:-0.169035 9:-0.500093 10:0.25641 
1 1:-0.31839 2:0.0883809 3:-0.354839 4:-0.578947 5:-0.3125 6:-0.6 7:-0.649855 8:-0.21217 9:-0.463973 10:-0.0769236 
1 1:-0.153586 2:0.209151 3:-0.166667 4:-1 5:0.1875 6:0.0666667 7:-0.556168 8:-0.385462 9:-0.414234 10:-0.0128208 
1 1:-0.318375 2:0.215225 3:-0.354839 4:-0.473684 5:-1 6:0.0666667 7:-0.556168 8:-0.385462 9:-0.414234 10:-0.0128208 
1 1:-0.31839 2:0.0883809 3:-0.354839 4:-0.368421 5:-0.0625 6:0.0666667 7:-0.556168 8:-0.385462 9:-0.414234 10:-0.0128208 
1 1:-0.31839 2:0.0883809 3:-0.354839 4:-0.263158 6:0.0666667 7:-0.556168 8:-0.385462 9:-0.414234 10:-0.0128208 
1 1:-0.252491 2:0.205082 3:-0.166667 4:-0.157895 5:-0.3125 6:0.0666667 7:-0.556168 8:-0.385462 9:-0.414234 10:-0.0128208 
1 1:-0.252532 2:0.192397 3:-0.166667 4:0.157895 5:-0.625 6:0.0666667 7:-0.556168 8:-0.385462 9:-0.414234 10:-0.0128208 
1 1:-0.31839 2:0.0883809 3:-0.166667 4:-0.894737 5:-0.3125 6:0.0666667 7:-0.605323 8:-0.453525 9:-0.503236 10:-0.0128208 
1 1:-0.31839 2:0.0883809 3:-0.166667 4:-0.789474 5:0.3125 6:0.0666667 7:-0.605323 8:-0.453525 9:-0.503236 10:-0.0128208 
1 1:-0.31839 2:0.0883809 3:-0.166667 4:-0.684211 5:-0.3125 6:0.0666667 7:-0.605323 8:-0.453525 9:-0.503236 10:-0.0128208 
1 1:-0.31839 2:0.0883809 3:-0.166667 4:-0.578947 5:-0.75 6:0.0666667 7:-0.605323 8:-0.453525 9:-0.503236 10:-0.0128208 
1 1:-0.395335 2:0.0883809 3:-0.354839 4:-0.263158 5:-0.625 6:0.0666667 7:-0.605323 8:-0.453525 9:-0.503236 10:-0.0128208 
1 1:-0.395335 2:0.0883809 3:-0.166667 4:-0.157895 5:-0.75 6:0.0666667 7:-0.605323 8:-0.453525 9:-0.503236 10:-0.0128208 
1 1:-0.208467 2:0.0883809 3:0.0215049 4:-0.0526316 5:0.3125 6:0.0666667 7:-0.605323 8:-0.453525 9:-0.503236 10:-0.0128208 
1 1:-0.25246 2:0.0883809 3:-0.354839 4:0.263158 5:0.0625 6:0.0666667 7:-0.605323 8:-0.453525 9:-0.503236 10:-0.0128208 
1 1:-0.285355 2:0.245312 3:-0.149561 4:-1 5:-0.3125 6:-0.0666667 7:-0.596127 8:-0.394189 9:-0.423062 10:0.0769236 
1 1:-0.285355 2:0.245312 3:-0.149561 4:-0.894737 5:-0.6875 6:-0.0666667 7:-0.596127 8:-0.394189 9:-0.423062 10:0.0769236 
1 1:-0.252397 2:0.0883809 3:-0.149561 4:-0.578947 5:0.125 6:-0.0666667 7:-0.596127 8:-0.394189 9:-0.423062 10:0.0769236 
1 1:-0.252397 2:0.0883809 3:-0.149561 4:-0.473684 5:-0.0625 6:-0.0666667 7:-0.596127 8:-0.394189 9:-0.423062 10:0.0769236 
1 1:-0.31839 2:0.0883809 3:-0.129033 4:-0.263158 5:0.0625 6:-0.2 7:-0.604626 8:-0.353023 9:-0.516951 10:-0.138461 
1 1:-0.31839 2:0.0883809 3:-0.129033 4:-0.157895 5:-0.6875 6:-0.2 7:-0.604626 8:-0.353023 9:-0.516951 10:-0.138461 
1 1:-0.31839 2:0.0883809 3:-0.354839 4:-0.0526316 5:-0.25 6:-0.2 7:-0.604626 8:-0.353023 9:-0.516951 10:-0.138461 
1 1:-0.31839 2:0.0883809 3:-0.354839 4:-0.368421 5:-0.3125 6:-0.466667 7:-0.631847 8:-0.263695 9:-0.533965 10:-0.0576919 
1 1:-0.31839 2:0.0883809 3:-0.354839 4:-0.263158 6:-0.466667 7:-0.631847 8:-0.263695 9:-0.533965 10:-0.0576919 
1 1:-0.31839 2:0.0883809 3:-0.354839 4:-0.263158 5:-0.0625 6:-0.333333 7:-0.551582 8:-0.192846 9:-0.417782 10:0.0769236 
1 1:-0.153639 2:0.200202 3:-0.354839 4:-0.894737 5:-0.0625 6:0.333333 7:-0.403833 8:-0.284597 9:-0.273826 10:-0.153846 
1 1:-0.153639 2:0.200202 3:-0.354839 4:-0.789474 5:-0.1875 6:0.333333 7:-0.403833 8:-0.284597 9:-0.273826 10:-0.153846 
1 1:-0.153639 2:0.200202 3:-0.354839 4:-0.684211 5:0.1875 6:0.333333 7:-0.403833 8:-0.284597 9:-0.273826 10:-0.153846 
1 1:-0.318421 2:0.0783299 3:-0.193549 4:0.0526316 5:-0.25 6:0.333333 7:-0.403833 8:-0.284597 9:-0.273826 10:-0.153846 
1 1:-0.31839 2:0.0883809 3:-0.354839 4:0.157895 5:0.3125 6:0.0666667 7:-0.497401 8:-0.304093 9:-0.3442 10:-0.102563 
1 1:-0.31839 2:0.0883809 3:-0.354839 4:-0.684211 5:-0.0625 6:-0.2 7:-0.677144 8:-0.47169 9:-0.554665 10:-0.138461 
1 1:-0.31839 2:0.0883809 3:-0.354839 4:-0.578947 5:-0.1875 6:-0.2 7:-0.677144 8:-0.47169 9:-0.554665 10:-0.138461 
1 1:-0.31839 2:0.0883809 3:-0.354839 4:-0.157895 5:0.3125 6:-0.2 7:-0.677144 8:-0.47169 9:-0.554665 10:-0.138461 
1 1:-0.285439 2:0.312859 3:-0.129033 4:-0.684211 6:-0.2 7:-0.54251 8:-0.251381 9:-0.345062 10:0.0769236 
1 1:-0.384328 2:-0.0211803 3:-0.354839 4:-1 6:-0.6 7:-0.78467 8:-0.515508 9:-0.717823 10:-0.0769236 
1 1:-0.384328 2:-0.0211803 3:-0.354839 4:-0.789474 5:-0.6875 6:-0.6 7:-0.78467 8:-0.515508 9:-0.717823 10:-0.0769236 
1 1:-0.31839 2:0.0883809 3:-0.354839 4:-0.684211 5:-0.75 6:-0.6 7:-0.78467 8:-0.515508 9:-0.717823 10:-0.0769236 
1 1:-0.384328 2:-0.0211803 3:-0.354839 4:-0.368421 5:0.125 6:-0.6 7:-0.78467 8:-0.515508 9:-0.717823 10:-0.0769236 
1 1:-0.318412 2:0.0802964 3:-0.129033 4:-0.157895 6:-0.2 7:-0.703906 8:-0.515479 9:-0.582159 10:-0.138461 
1 1:-0.318412 2:0.0802964 3:-0.129033 4:-0.0526316 5:-0.5625 6:-0.2 7:-0.703906 8:-0.515479 9:-0.582159 10:-0.138461 
1 1:-0.351498 2:0.142145 3:-0.354839 4:-0.473684 5:-0.0625 6:0.2 7:-0.4887 8:-0.342612 9:-0.269084 10:0.0769236 
1 1:-0.31839 2:0.0883809 3:-0.204302 4:-0.0526316 5:-0.8125 6:0.466667 7:-0.47562 8:-0.41007 9:-0.411869 10:-0.138461 
1 1:-0.31839 2:0.0883809 3:-0.204302 4:0.0526316 5:-0.8125 6:0.466667 7:-0.47562 8:-0.41007 9:-0.411869 10:-0.138461 
1 1:-0.385054 2:-0.0270605 3:-0.322581 4:0.368421 5:0.125 6:0.466667 7:-0.47562 8:-0.41007 9:-0.411869 10:-0.138461 
1 1:-0.318357 2:0.100772 3:-0.354839 4:-0.0526316 5:0.125 6:-0.2 7:-0.380799 8:0.0132411 9:-0.276248 10:0.0769236 
1 1:-0.351308 2:0.235529 3:-0.354839 4:-1 5:-0.875 6:-0.333333 7:-0.515714 8:-0.128284 9:-0.287979 10:0.196583 
1 1:-0.384368 2:-0.0173002 3:-0.166667 4:-0.157895 5:-0.5625 6:0.0666667 7:-0.48374 8:-0.285179 9:-0.473926 10:-0.102563 
1 1:-0.384368 2:-0.0173002 3:-0.166667 4:-0.0526316 5:0.3125 6:0.0666667 7:-0.48374 8:-0.285179 9:-0.473926 10:-0.102563 
1 1:-0.384368 2:-0.0173002 3:-0.166667 4:0.0526316 5:-0.8125 6:0.0666667 7:-0.48374 8:-0.285179 9:-0.473926 10:-0.102563 
1 1:-0.384368 2:-0.0173002 3:-0.166667 4:0.157895 5:0.5 6:0.0666667 7:-0.48374 8:-0.285179 9:-0.473926 10:-0.102563 
1 1:-0.383816 2:-0.186952 3:-0.383789 4:0.263158 5:-0.375 6:0.0666667 7:-0.48374 8:-0.285179 9:-0.473926 10:-0.102563 
1 1:-0.31839 2:0.0883809 3:-0.354839 4:-0.0526316 6:0.2 7:-0.453102 8:-0.296844 9:-0.448728 10:0.0769236 
1 1:-0.31839 2:0.0883809 3:-0.354839 4:0.0526316 5:-0.3125 6:0.2 7:-0.453102 8:-0.296844 9:-0.448728 10:0.0769236 
1 1:-0.31839 2:0.0883809 3:-0.181142 4:0.157895 5:-0.0625 6:0.2 7:-0.453102 8:-0.296844 9:-0.448728 10:0.0769236 
1 1:-0.25248 2:0.20495 3:-0.00744439 4:0.263158 5:0.1875 6:0.2 7:-0.453102 8:-0.296844 9:-0.448728 10:0.0769236 
1 1:-0.384313 2:-0.0314098 3:-0.354839 4:-0.894737 5:-0.625 6:0.333333 7:-0.156818 8:0.01182 9:-0.06864 10:0.0769236 
1 1:-0.0543802 2:0.0829021 3:-0.354839 4:-0.368421 5:-0.875 6:0.0666667 7:0.000898161 8:0.385862 9:0.242375 10:0.346154 
1 1:-0.25242 2:0.199695 3:-0.166667 4:-0.0526316 5:-0.3125 6:0.0666667 7:0.000898161 8:0.385862 9:0.242375 10:0.346154 
1 1:-0.384433 2:-0.09052 3:-0.354839 4:-0.894737 5:-1 6:-0.2 7:-0.489023 8:-0.163856 9:-0.243268 10:0.184616 
1 1:-0.25355 2:0.193252 3:-0.395162 4:-0.578947 5:-0.625 6:-0.466667 7:-0.56977 8:-0.139539 9:-0.342868 10:0.211539 
1 1:-0.25355 2:0.193252 3:-0.395162 4:-0.473684 5:-1 6:-0.466667 7:-0.56977 8:-0.139539 9:-0.342868 10:0.211539 
1 1:-0.252454 2:0.212959 3:-0.354839 4:-0.894737 5:-0.3125 6:-0.466667 7:-0.51564 8:-0.0312775 9:-0.257021 10:0.211539 
1 1:-0.186466 2:0.366272 3:-0.072581 4:-0.684211 5:0.1875 6:-0.466667 7:-0.51564 8:-0.0312775 9:-0.257021 10:0.211539 
1 1:-0.186466 2:0.366272 3:-0.072581 4:-0.578947 5:-0.8125 6:-0.466667 7:-0.51564 8:-0.0312775 9:-0.257021 10:0.211539 
1 1:-0.252463 2:0.0947476 3:-0.072581 4:-0.473684 5:-0.3125 6:-0.466667 7:-0.51564 8:-0.0312775 9:-0.257021 10:0.211539 
1 1:-0.384367 2:-0.171125 3:-0.354839 4:-0.263158 5:-0.625 6:-0.466667 7:-0.51564 8:-0.0312775 9:-0.257021 10:0.211539 
1 1:-0.384367 2:-0.171125 3:-0.354839 4:-0.157895 5:-0.375 6:-0.466667 7:-0.51564 8:-0.0312775 9:-0.257021 10:0.211539 
1 1:-0.31839 2:0.0883809 3:-0.354839 4:-0.263158 5:-0.75 6:-0.333333 7:-0.596302 8:-0.273342 9:-0.5353 10:-0.0427356 
1 1:-0.450243 2:-0.141652 3:0.0685481 4:-1 5:-1 6:0.6 7:-0.260032 8:-0.216506 9:-0.191122 10:0.682693 
1 1:-0.450243 2:-0.141652 3:0.0685481 4:-0.789474 5:-0.8125 6:0.6 7:-0.260032 8:-0.216506 9:-0.191122 10:0.682693 
1 1:-0.450243 2:-0.141652 3:0.0685481 4:-0.684211 5:-0.3125 6:0.6 7:-0.260032 8:-0.216506 9:-0.191122 10:0.682693 
1 1:-0.38434 2:-0.0363501 3:0.350806 4:-0.578947 5:-0.75 6:0.6 7:-0.260032 8:-0.216506 9:-0.191122 10:0.682693 
1 1:-0.384316 2:-0.0265212 3:0.491935 4:-0.473684 5:-0.625 6:0.6 7:-0.260032 8:-0.216506 9:-0.191122 10:0.682693 
1 1:-0.252955 2:0.212412 3:-0.27957 4:-1 5:-1 6:-0.2 7:-0.758019 8:-0.604031 9:-0.616654 10:-0.246153 
1 1:-0.252955 2:0.212412 3:-0.27957 4:-0.894737 5:-1 6:-0.2 7:-0.758019 8:-0.604031 9:-0.616654 10:-0.246153 
1 1:-0.31839 2:0.0883809 3:-0.354839 4:-0.684211 5:-0.0625 6:-0.2 7:-0.758019 8:-0.604031 9:-0.616654 10:-0.246153 
1 1:-0.252494 2:0.218905 3:-0.129033 4:-0.578947 5:0.3125 6:-0.2 7:-0.758019 8:-0.604031 9:-0.616654 10:-0.246153 
1 1:-0.186583 2:0.355278 3:-0.129033 4:-0.368421 5:-0.75 6:-0.2 7:-0.758019 8:-0.604031 9:-0.616654 10:-0.246153 
1 1:-0.31839 2:0.0883809 3:-0.354839 4:-0.0526316 5:-0.3125 6:-0.2 7:-0.758019 8:-0.604031 9:-0.616654 10:-0.246153 
1 1:-0.252567 2:0.18877 3:-0.129033 4:0.0526316 5:-1 6:-0.2 7:-0.758019 8:-0.604031 9:-0.616654 10:-0.246153 
1 1:-0.38435 2:-0.0325568 3:-0.00744439 4:-0.157895 5:-0.75 6:0.2 7:-0.502133 8:-0.359881 9:-0.483788 10:0.0769236 
1 1:-0.38435 2:-0.0325568 3:-0.00744439 4:0.0526316 6:0.2 7:-0.502133 8:-0.359881 9:-0.483788 10:0.0769236 
1 1:-0.31839 2:0.0883809 3:-0.354839 4:-0.578947 5:-0.1875 6:-0.333333 7:-0.569331 8:-0.224794 9:-0.345012 10:-0.162393 
1 1:-0.31839 2:0.0883809 3:-0.354839 4:-1 5:0.3125 6:-0.466667 7:-0.703904 8:-0.407804 9:-0.597884 10:-0.192307 
1 1:-0.31839 2:0.0883809 3:-0.354839 4:-0.894737 5:-0.1875 6:-0.466667 7:-0.703904 8:-0.407804 9:-0.597884 10:-0.192307 
1 1:-0.31839 2:0.0883809 3:-0.103943 4:-0.473684 5:-0.0625 6:0.866667 7:0.983224 8:0.878848 9:0.998653 10:0.675215 
1 1:-0.31839 2:0.0883809 3:-0.103943 4:-0.368421 5:-1 6:0.866667 7:0.983224 8:0.878848 9:0.998653 10:0.675215 
1 1:-0.120385 2:0.351247 3:-0.103943 4:-0.263158 5:-0.75 6:0.866667 7:0.983224 8:0.878848 9:0.998653 10:0.675215 
1 1:0.517482 2:0.3461 3:-0.103943 4:-0.0526316 5:-0.375 6:0.866667 7:0.983224 8:0.878848 9:0.998653 10:0.675215 
1 1:0.704554 2:0.77607 3:-0.103943 4:0.0526316 5:-0.75 6:0.866667 7:0.983224 8:0.878848 9:0.998653 10:0.675215 
1 1:0.143451 2:0.0877662 3:0.0215049 4:0.368421 6:0.866667 7:0.983224 8:0.878848 9:0.998653 10:0.675215 
1 1:0.143451 2:0.0877662 3:0.0215049 4:0.473684 5:-0.1875 6:0.866667 7:0.983224 8:0.878848 9:0.998653 10:0.675215 
1 1:-0.252443 2:0.199982 3:-0.103943 4:-0.894737 5:-0.0625 6:-0.333333 7:-0.64108 8:-0.353943 9:-0.553376 10:-0.0427356 
1 1:-0.31839 2:0.0883809 3:-0.354839 4:-0.789474 5:-0.0625 6:-0.333333 7:-0.64108 8:-0.353943 9:-0.553376 10:-0.0427356 
1 1:-0.31839 2:0.0883809 3:-0.354839 4:-0.684211 5:0.3125 6:-0.333333 7:-0.64108 8:-0.353943 9:-0.553376 10:-0.0427356 
1 1:-0.0984913 2:0.325373 3:-0.103943 4:-0.578947 5:-0.25 6:-0.333333 7:-0.64108 8:-0.353943 9:-0.553376 10:-0.0427356 
1 1:-0.0984744 2:0.333296 3:-0.103943 4:-0.473684 5:-0.75 6:-0.333333 7:-0.64108 8:-0.353943 9:-0.553376 10:-0.0427356 
1 1:-0.229806 2:0.0883809 3:-0.154122 4:-0.157895 6:-0.333333 7:-0.64108 8:-0.353943 9:-0.553376 10:-0.0427356 
1 1:-0.31839 2:0.0883809 3:-0.354839 4:-0.263158 5:-1 6:-0.2 7:-0.497382 8:-0.177533 9:-0.299286 10:-0.0307688 
1 1:-0.471779 2:-0.148532 3:-0.154122 4:-0.263158 5:-0.75 6:-0.333333 7:-0.694753 8:-0.450554 9:-0.666399 10:-0.0427356 
1 1:-0.471779 2:-0.148532 3:-0.154122 4:-0.0526316 5:-0.375 6:-0.333333 7:-0.694753 8:-0.450554 9:-0.666399 10:-0.0427356 
1 1:0.0110289 2:0.328418 3:0.166255 4:-0.368421 6:0.2 7:-0.341351 8:-0.153164 9:-0.309961 10:0.0769236 
1 1:-0.31839 2:0.0883809 3:-0.354839 4:-1 5:-0.0625 6:-0.0666667 7:-0.390337 8:-0.085501 9:-0.173798 10:0.0769236 
1 1:-0.31839 2:0.0883809 3:-0.354839 4:-0.894737 5:0.3125 6:-0.0666667 7:-0.390337 8:-0.085501 9:-0.173798 10:0.0769236 
1 1:-0.31839 2:0.0883809 3:-0.354839 4:-0.894737 5:-0.75 6:-0.0666667 7:-0.488525 8:-0.232787 9:-0.222793 10:-0.0209795 
1 1:-0.318413 2:0.0784437 3:-0.00744439 4:-0.473684 5:0.3125 6:0.2 7:-0.677136 8:-0.584888 9:-0.556485 10:-0.0059177 
1 1:-0.18691 2:0.324577 3:-0.152192 4:-0.368421 5:-1 6:0.2 7:-0.677136 8:-0.584888 9:-0.556485 10:-0.0059177 
1 1:-0.318401 2:0.0845964 3:-0.00744439 4:-0.263158 5:-1 6:0.2 7:-0.677136 8:-0.584888 9:-0.556485 10:-0.0059177 
1 1:-0.384304 2:-0.0233241 3:-0.181142 4:-0.157895 5:-0.0625 6:0.2 7:-0.677136 8:-0.584888 9:-0.556485 10:-0.0059177 
1 1:-0.384379 2:-0.173488 3:-0.354839 4:0.368421 5:0.0625 6:0.2 7:-0.677136 8:-0.584888 9:-0.556485 10:-0.0059177 
1 1:-0.450241 2:-0.140478 3:-0.605735 4:-0.263158 5:-0.6875 6:-0.333333 7:-0.569392 8:-0.224904 9:-0.489853 10:0.0769236 
1 1:-0.450241 2:-0.140478 3:-0.605735 4:-0.157895 5:-0.0625 6:-0.333333 7:-0.569392 8:-0.224904 9:-0.489853 10:0.0769236 
1 1:-0.38428 2:-0.0213047 3:-0.21371 4:-0.789474 5:-1 6:0.6 7:-0.0450564 8:0.0111189 9:0.0449303 10:0.615385 
1 1:-0.38428 2:-0.0213047 3:-0.21371 4:-0.684211 5:-1 6:0.6 7:-0.0450564 8:0.0111189 9:0.0449303 10:0.615385 
1 1:-0.31839 2:0.0883809 3:-0.354839 4:-0.473684 5:-0.0625 6:0.6 7:-0.0450564 8:0.0111189 9:0.0449303 10:0.615385 
1 1:-0.31839 2:0.0883809 3:-0.354839 4:-0.368421 5:-1 6:0.6 7:-0.0450564 8:0.0111189 9:0.0449303 10:0.615385 
1 1:-0.384353 2:-0.0221163 3:-0.181142 4:-0.578947 5:-0.0625 6:0.2 7:-0.582663 8:-0.463421 9:-0.477699 10:-0.0887568 
1 1:-0.252422 2:0.200791 3:-0.00744439 4:-0.473684 5:-0.375 6:0.2 7:-0.582663 8:-0.463421 9:-0.477699 10:-0.0887568 
1 1:-0.31839 2:0.0883809 3:-0.354839 4:-0.263158 5:0.125 6:0.2 7:-0.582663 8:-0.463421 9:-0.477699 10:-0.0887568 
1 1:-0.450348 2:-0.297696 3:-0.580646 4:-0.157895 5:-0.75 6:-0.2 7:-0.452755 8:-0.104506 9:-0.420082 10:0.184616 
1 1:-0.450348 2:-0.297696 3:-0.580646 4:-0.0526316 5:-0.625 6:-0.2 7:-0.452755 8:-0.104506 9:-0.420082 10:0.184616 
1 1:-0.252474 2:0.197837 3:-0.204302 4:0.157895 6:0.466667 7:-0.67711 8:-0.636748 9:-0.561177 10:-0.282052 
1 1:0.0443838 2:0.346565 3:0.0557182 4:-1 5:-0.8125 6:-0.0666667 7:-0.372096 8:-0.0581413 9:-0.317388 10:0.0769236 
1 1:-0.0215942 2:0.212312 3:-0.149561 4:-0.894737 5:-0.8125 6:-0.0666667 7:-0.372096 8:-0.0581413 9:-0.317388 10:0.0769236 
1 1:0.165259 2:0.329613 3:-0.149561 4:-0.684211 5:0.1875 6:-0.0666667 7:-0.372096 8:-0.0581413 9:-0.317388 10:0.0769236 
1 1:0.165206 2:0.308744 3:-0.149561 4:-0.578947 5:0.3125 6:-0.0666667 7:-0.372096 8:-0.0581413 9:-0.317388 10:0.0769236 
1 1:0.0553679 2:0.345782 3:-0.149561 4:-0.368421 5:-0.5625 6:-0.0666667 7:-0.372096 8:-0.0581413 9:-0.317388 10:0.0769236 
1 1:0.000325965 2:0.432188 3:0.0557182 4:-0.263158 5:-0.6875 6:-0.0666667 7:-0.372096 8:-0.0581413 9:-0.317388 10:0.0769236 
1 1:-0.252413 2:0.222224 3:-0.149561 4:-0.157895 5:-0.1875 6:-0.0666667 7:-0.372096 8:-0.0581413 9:-0.317388 10:0.0769236 
1 1:-0.383249 2:-0.160165 3:-0.354839 4:-0.0526316 5:-0.0625 6:-0.0666667 7:-0.372096 8:-0.0581413 9:-0.317388 10:0.0769236 
1 1:-0.383249 2:-0.160165 3:-0.354839 4:0.157895 5:-0.375 6:-0.0666667 7:-0.372096 8:-0.0581413 9:-0.317388 10:0.0769236 
1 1:-0.31839 2:0.0883809 3:-0.354839 4:-1 5:-0.1875 6:-0.2 7:-0.434964 8:-0.0753955 9:-0.332793 10:-0.0307688 
1 1:-0.31839 2:0.0883809 3:-0.354839 4:-0.894737 5:-0.1875 6:-0.2 7:-0.434964 8:-0.0753955 9:-0.332793 10:-0.0307688 
1 1:-0.187155 2:0.0883809 3:-0.329934 4:-1 5:-1 6:0.733333 7:-0.493565 8:-0.493565 9:-0.419582 10:-0.113121 
1 1:-0.187155 2:0.0883809 3:-0.329934 4:-0.894737 5:-1 6:0.733333 7:-0.493565 8:-0.493565 9:-0.419582 10:-0.113121 
1 1:-0.31839 2:0.0883809 3:-0.21371 4:-1 5:-0.1875 6:0.6 7:-0.489294 8:-0.459252 9:-0.286365 10:-0.0576919 
1 1:-0.31839 2:0.0883809 3:-0.354839 4:0.368421 5:-0.3125 6:0.6 7:-0.489294 8:-0.459252 9:-0.286365 10:-0.0576919 
1 1:-0.31839 2:0.0883809 3:-0.354839 4:0.473684 5:0.1875 6:0.6 7:-0.489294 8:-0.459252 9:-0.286365 10:-0.0576919 
1 1:-0.31839 2:0.0883809 3:-0.354839 4:0.578947 5:-0.625 6:0.6 7:-0.489294 8:-0.459252 9:-0.286365 10:-0.0576919 
1 1:-0.31839 2:0.0883809 3:-0.354839 4:-0.894737 5:0.1875 6:-0.333333 7:-0.605342 8:-0.289614 9:-0.494961 10:-0.162393 
1 1:-0.219453 2:0.0883809 3:-0.129033 4:-1 5:-0.3125 6:-0.2 7:-0.475241 8:-0.141303 9:-0.437795 10:0.292308 
1 1:-0.219453 2:0.0883809 3:-0.129033 4:-0.894737 6:-0.2 7:-0.475241 8:-0.141303 9:-0.437795 10:0.292308 
1 1:-0.31839 2:0.0883809 3:-0.354839 4:-0.0526316 5:-1 6:-0.0666667 7:-0.73096 8:-0.59644 9:-0.628922 10:-0.412588 
1 1:-0.241407 2:0.216509 3:-0.354839 4:-1 5:-0.0625 6:-0.466667 7:-0.497414 8:0.00517198 9:-0.314836 10:0.211539 
1 1:-0.241407 2:0.216509 3:-0.354839 4:-0.894737 5:-0.3125 6:-0.466667 7:-0.497414 8:0.00517198 9:-0.314836 10:0.211539 
1 1:-0.0764958 2:0.320888 3:-0.072581 4:-0.789474 5:0.3125 6:-0.466667 7:-0.497414 8:0.00517198 9:-0.314836 10:0.211539 
1 1:-0.0764276 2:0.35361 3:-0.072581 4:-0.684211 5:0.1875 6:-0.466667 7:-0.497414 8:0.00517198 9:-0.314836 10:0.211539 
1 1:-0.142409 2:0.22795 3:-0.072581 4:-0.473684 5:0.5 6:-0.466667 7:-0.497414 8:0.00517198 9:-0.314836 10:0.211539 
1 1:-0.317439 2:-0.0527506 3:-0.072581 4:-0.157895 5:-0.375 6:-0.466667 7:-0.497414 8:0.00517198 9:-0.314836 10:0.211539 
1 1:-0.285388 2:0.35139 3:-0.181142 4:-0.894737 5:-0.625 6:0.2 7:-0.578503 8:-0.458075 9:-0.464549 10:-0.171598 
1 1:-0.31839 2:0.0883809 3:-0.354839 4:-0.0526316 5:0.1875 6:0.2 7:-0.578503 8:-0.458075 9:-0.464549 10:-0.171598 
1 1:-0.31839 2:0.0883809 3:-0.354839 4:0.0526316 5:-0.6875 6:0.2 7:-0.578503 8:-0.458075 9:-0.464549 10:-0.171598 
1 1:-0.383722 2:-0.184636 3:-0.39206 4:0.368421 5:0.0625 6:0.2 7:-0.578503 8:-0.458075 9:-0.464549 10:-0.171598 
1 1:-0.318454 2:0.0580019 3:-0.103943 4:-0.578947 5:0.5 6:-0.333333 7:-0.757655 8:-0.563779 9:-0.66637 10:-0.162393 
1 1:-0.318454 2:0.0580019 3:-0.103943 4:-0.473684 5:-0.875 6:-0.333333 7:-0.757655 8:-0.563779 9:-0.66637 10:-0.162393 
1 1:-0.31839 2:0.0883809 3:-0.354839 4:-0.157895 5:-0.375 6:-0.333333 7:-0.757655 8:-0.563779 9:-0.66637 10:-0.162393 
1 1:-0.31839 2:0.0883809 3:-0.354839 4:-1 5:-0.0625 6:-0.0666667 7:-0.582811 8:-0.374216 9:-0.484039 10:-0.118881 
1 1:-0.31839 2:0.0883809 3:-0.354839 4:-0.894737 5:-0.25 6:-0.0666667 7:-0.582811 8:-0.374216 9:-0.484039 10:-0.118881 
1 1:-0.252466 2:0.192298 3:-0.149561 4:-0.789474 5:0.0625 6:-0.0666667 7:-0.582811 8:-0.374216 9:-0.484039 10:-0.118881 
1 1:-0.153449 2:0.21852 3:-0.149561 4:-0.578947 5:-0.1875 6:-0.0666667 7:-0.582811 8:-0.374216 9:-0.484039 10:-0.118881 
1 1:-0.153492 2:0.199076 3:-0.149561 4:-0.368421 5:-0.6875 6:-0.0666667 7:-0.582811 8:-0.374216 9:-0.484039 10:-0.118881 
1 1:-0.219403 2:0.101441 3:-0.354839 4:-0.263158 6:-0.0666667 7:-0.582811 8:-0.374216 9:-0.484039 10:-0.118881 
1 1:-0.263398 2:0.218759 3:-0.149561 4:-0.157895 5:-1 6:-0.0666667 7:-0.582811 8:-0.374216 9:-0.484039 10:-0.118881 
1 1:-0.439373 2:0.0797375 3:-0.560118 4:-0.0526316 5:-0.0625 6:-0.0666667 7:-0.582811 8:-0.374216 9:-0.484039 10:-0.118881 
1 1:-0.439373 2:0.0797375 3:-0.560118 4:0.0526316 5:-0.875 6:-0.0666667 7:-0.582811 8:-0.374216 9:-0.484039 10:-0.118881 
1 1:-0.31839 2:0.0883809 3:-0.354839 4:-0.894737 5:-0.625 6:0.2 7:-0.573988 8:-0.452271 9:-0.464904 10:-0.254437 
1 1:-0.0656695 2:0.316521 3:-0.181142 4:-0.368421 5:0.125 6:0.2 7:-0.573988 8:-0.452271 9:-0.464904 10:-0.254437 
1 1:-0.0656695 2:0.316521 3:-0.181142 4:-0.263158 5:-1 6:0.2 7:-0.573988 8:-0.452271 9:-0.464904 10:-0.254437 
1 1:-0.0655935 2:0.347869 3:-0.181142 4:-0.157895 5:-1 6:0.2 7:-0.573988 8:-0.452271 9:-0.464904 10:-0.254437 
1 1:-0.318363 2:0.0979318 3:-0.354839 4:0.0526316 6:0.2 7:-0.573988 8:-0.452271 9:-0.464904 10:-0.254437 
1 1:-0.318417 2:0.077043 3:-0.354839 4:-0.684211 5:-0.5625 6:-0.2 7:-0.704034 8:-0.515694 9:-0.588324 10:-0.246153 
1 1:-0.318417 2:0.077043 3:-0.354839 4:-0.578947 5:0.375 6:-0.2 7:-0.704034 8:-0.515694 9:-0.588324 10:-0.246153 
1 1:-0.318417 2:0.077043 3:-0.354839 4:-0.473684 6:-0.2 7:-0.704034 8:-0.515694 9:-0.588324 10:-0.246153 
1 1:-0.31839 2:0.0883809 3:-0.354839 4:-0.0526316 5:-1 6:0.333333 7:-0.538584 8:-0.4463 9:-0.366303 10:-0.0769236 
1 1:-0.31839 2:0.0883809 3:-0.354839 4:0.0526316 5:-0.3125 6:0.333333 7:-0.538584 8:-0.4463 9:-0.366303 10:-0.0769236 
1 1:-0.186396 2:0.334913 3:-0.103943 4:-1 6:-0.333333 7:-0.622969 8:-0.321342 9:-0.457259 10:0.0769236 
1 1:-0.31839 2:0.0883809 3:-0.354839 4:-0.789474 5:0.1875 6:-0.333333 7:-0.622969 8:-0.321342 9:-0.457259 10:0.0769236 
1 1:-0.384239 2:0.00655881 3:-0.129033 4:-0.368421 5:-0.3125 6:-0.2 7:-0.65016 8:-0.427534 9:-0.487702 10:-0.0307688 
1 1:-0.384239 2:0.00655881 3:-0.129033 4:-0.157895 5:0.1875 6:-0.2 7:-0.65016 8:-0.427534 9:-0.487702 10:-0.0307688 
1 1:-0.384239 2:0.00655881 3:-0.129033 4:-0.0526316 6:-0.2 7:-0.65016 8:-0.427534 9:-0.487702 10:-0.0307688 
1 1:-0.230392 2:0.0883809 3:-0.149561 4:-0.894737 5:-0.6875 6:-0.0666667 7:-0.640956 8:-0.461432 9:-0.536422 10:-0.0209795 
1 1:-0.31839 2:0.0883809 3:-0.354839 4:-0.368421 5:-0.3125 6:-0.0666667 7:-0.640956 8:-0.461432 9:-0.536422 10:-0.0209795 
1 1:-0.31839 2:0.0883809 3:-0.354839 4:-0.263158 5:-0.1875 6:-0.0666667 7:-0.640956 8:-0.461432 9:-0.536422 10:-0.0209795 
1 1:-0.318403 2:0.0825941 3:-0.149561 4:-1 5:0.3125 6:-0.0666667 7:-0.668033 8:-0.502049 9:-0.652382 10:-0.118881 
1 1:-0.318403 2:0.0825941 3:-0.149561 4:-0.789474 6:-0.0666667 7:-0.668033 8:-0.502049 9:-0.652382 10:-0.118881 
1 1:-0.175461 2:0.206888 3:-0.149561 4:-0.473684 5:-0.3125 6:-0.0666667 7:-0.668033 8:-0.502049 9:-0.652382 10:-0.118881 
1 1:-0.0985224 2:0.197047 3:-0.149561 4:-0.368421 5:-0.25 6:-0.0666667 7:-0.668033 8:-0.502049 9:-0.652382 10:-0.118881 
1 1:-0.0984965 2:0.207754 3:-0.149561 4:-0.263158 6:-0.0666667 7:-0.668033 8:-0.502049 9:-0.652382 10:-0.118881 
1 1:-0.164469 2:0.0883809 3:-0.149561 4:-0.157895 5:-0.75 6:-0.0666667 7:-0.668033 8:-0.502049 9:-0.652382 10:-0.118881 
1 1:-0.164469 2:0.0883809 3:-0.149561 4:-0.0526316 5:-0.8125 6:-0.0666667 7:-0.668033 8:-0.502049 9:-0.652382 10:-0.118881 
1 1:-0.31839 2:0.0883809 3:-0.354839 4:-0.578947 5:-0.3125 6:-0.333333 7:-0.677062 8:-0.418711 9:-0.537788 10:-0.0427356 
1 1:-0.31839 2:0.0883809 3:-0.354839 4:-0.473684 5:-1 6:-0.333333 7:-0.677062 8:-0.418711 9:-0.537788 10:-0.0427356 
1 1:-0.31839 2:0.0883809 3:-0.354839 4:-0.894737 5:0.3125 6:-0.2 7:-0.596416 8:-0.339589 9:-0.408645 10:-0.138461 
1 1:-0.186488 2:0.352336 3:-0.129033 4:-0.789474 5:-0.8125 6:-0.2 7:-0.596416 8:-0.339589 9:-0.408645 10:-0.138461 
1 1:-0.186502 2:0.346259 3:-0.129033 4:-0.684211 5:-0.75 6:-0.2 7:-0.596416 8:-0.339589 9:-0.408645 10:-0.138461 
1 1:-0.186538 2:0.333737 3:-0.129033 4:-0.578947 5:0.3125 6:-0.2 7:-0.596416 8:-0.339589 9:-0.408645 10:-0.138461 
1 1:-0.252435 2:0.222419 3:-0.129033 4:-0.473684 5:-1 6:-0.2 7:-0.596416 8:-0.339589 9:-0.408645 10:-0.138461 
1 1:-0.252435 2:0.222419 3:-0.129033 4:-0.368421 5:-0.3125 6:-0.2 7:-0.596416 8:-0.339589 9:-0.408645 10:-0.138461 
1 1:-0.31839 2:0.0883809 3:-0.354839 4:-0.263158 5:-0.3125 6:-0.2 7:-0.596416 8:-0.339589 9:-0.408645 10:-0.138461 
1 1:-0.31839 2:0.0883809 3:-0.354839 4:-0.157895 5:-0.625 6:-0.2 7:-0.596416 8:-0.339589 9:-0.408645 10:-0.138461 
1 1:-0.0767166 2:0.221566 3:-0.0674489 4:-0.473684 5:-0.75 6:-0.0666667 7:-0.658921 8:-0.488382 9:-0.642823 10:-0.216784 
1 1:-0.241342 2:0.115798 3:0.0557182 4:-0.368421 6:-0.0666667 7:-0.658921 8:-0.488382 9:-0.642823 10:-0.216784 
1 1:-0.31839 2:0.0883809 3:-0.354839 4:-0.263158 5:-1 6:-0.0666667 7:-0.658921 8:-0.488382 9:-0.642823 10:-0.216784 
1 1:-0.318416 2:-0.0422125 3:-0.354839 4:0.157895 5:-0.375 6:-0.0666667 7:-0.658921 8:-0.488382 9:-0.642823 10:-0.216784 
1 1:-0.31839 2:0.0883809 3:-0.354839 4:-1 5:-0.3125 6:0.0666667 7:-0.475768 8:-0.274139 9:-0.43203 10:-0.0128208 
1 1:-0.351365 2:0.0883809 3:-0.166667 4:-0.0526316 5:0.125 6:0.0666667 7:-0.475768 8:-0.274139 9:-0.43203 10:-0.0128208 
1 1:-0.383178 2:-0.0276273 3:-0.543011 4:0.157895 5:-0.3125 6:0.0666667 7:-0.475768 8:-0.274139 9:-0.43203 10:-0.0128208 
1 1:-0.31839 2:0.0883809 3:-0.354839 4:-0.894737 5:-1 6:0.333333 7:-0.677407 8:-0.612888 9:-0.572496 10:-0.153846 
1 1:-0.252512 2:0.204186 3:-0.193549 4:-0.368421 5:-0.8125 6:0.333333 7:-0.677407 8:-0.612888 9:-0.572496 10:-0.153846 
1 1:-0.252512 2:0.204186 3:-0.193549 4:-0.263158 5:-0.1875 6:0.333333 7:-0.677407 8:-0.612888 9:-0.572496 10:-0.153846 
1 1:-0.31839 2:0.0883809 3:-0.354839 4:-0.789474 5:-0.0625 6:-0.466667 7:-0.569471 8:-0.138942 9:-0.368691 10:-0.0576919 
1 1:-0.31839 2:0.0883809 3:-0.354839 4:-0.684211 5:-0.625 6:-0.466667 7:-0.569471 8:-0.138942 9:-0.368691 10:-0.0576919 
1 1:-0.252373 2:0.225564 3:-0.166667 4:-1 5:-0.3125 6:0.0666667 7:-0.515306 8:-0.328887 9:-0.302453 10:-0.0128208 
1 1:-0.252373 2:0.225564 3:-0.166667 4:-0.894737 5:-0.8125 6:0.0666667 7:-0.515306 8:-0.328887 9:-0.302453 10:-0.0128208 
1 1:-0.31839 2:0.0883809 3:-0.354839 4:-1 5:-0.0625 6:-0.466667 7:-0.515523 8:-0.0310438 9:-0.367787 10:-0.0576919 
1 1:-0.31839 2:0.0883809 3:-0.354839 4:-0.368421 5:-0.875 6:-0.0666667 7:-0.582655 8:-0.373983 9:-0.455557 10:-0.118881 
1 1:-0.31839 2:0.0883809 3:-0.354839 4:-0.263158 5:-1 6:-0.0666667 7:-0.582655 8:-0.373983 9:-0.455557 10:-0.118881 
1 1:-0.252391 2:0.211719 3:-0.354839 4:-0.789474 5:0.3125 6:-0.2 7:-0.676818 8:-0.471156 9:-0.540012 10:-0.0307688 
1 1:-0.318341 2:0.113415 3:-0.129033 4:-0.684211 5:-0.75 6:-0.2 7:-0.676818 8:-0.471156 9:-0.540012 10:-0.0307688 
1 1:-0.318341 2:0.113415 3:-0.129033 4:-0.578947 5:-0.25 6:-0.2 7:-0.676818 8:-0.471156 9:-0.540012 10:-0.0307688 
1 1:-0.31839 2:0.0883809 3:-0.354839 4:-1 5:-0.0625 6:-0.2 7:-0.623133 8:-0.383306 9:-0.442171 10:-0.138461 
1 1:-0.31839 2:0.0883809 3:-0.354839 4:-0.894737 5:-0.3125 6:-0.2 7:-0.623133 8:-0.383306 9:-0.442171 10:-0.138461 
1 1:-0.31839 2:0.0883809 3:-0.354839 4:-0.368421 5:0.3125 6:-0.2 7:-0.623133 8:-0.383306 9:-0.442171 10:-0.138461 
1 1:-0.31839 2:0.0883809 3:-0.354839 4:-0.789474 5:-0.0625 6:-0.333333 7:-0.650255 8:-0.370458 9:-0.487507 10:0.0769236 
1 1:-0.197409 2:0.139915 3:-0.235994 4:-1 5:-0.1875 6:1 7:0.16027 8:0.0442444 9:0.240697 10:0.643726 
1 1:-0.197409 2:0.139915 3:-0.235994 4:-0.789474 5:-0.625 6:1 7:0.16027 8:0.0442444 9:0.240697 10:0.643726 
1 1:-0.187793 2:0.14738 3:-0.420865 4:-0.684211 5:0.125 6:1 7:0.16027 8:0.0442444 9:0.240697 10:0.643726 
1 1:-0.121887 2:0.0189744 3:-0.04452 4:-0.578947 5:0.1875 6:1 7:0.16027 8:0.0442444 9:0.240697 10:0.643726 
1 1:-0.1206 2:-0.130541 3:0.120542 4:-0.473684 5:-1 6:1 7:0.16027 8:0.0442444 9:0.240697 10:0.643726 
1 1:-0.1206 2:-0.130541 3:0.120542 4:-0.368421 5:-1 6:1 7:0.16027 8:0.0442444 9:0.240697 10:0.643726 
1 1:-0.1206 2:-0.130541 3:0.120542 4:-0.263158 5:-0.0625 6:1 7:0.16027 8:0.0442444 9:0.240697 10:0.643726 
1 1:-0.462075 2:-0.0195031 3:-0.340364 4:-0.0526316 5:-0.0625 6:0.2 7:-0.434797 8:-0.273309 9:-0.424393 10:-0.0059177 
1 1:-0.462075 2:-0.0195031 3:-0.340364 4:0.0526316 5:0.125 6:0.2 7:-0.434797 8:-0.273309 9:-0.424393 10:-0.0059177 
1 1:-0.462075 2:-0.0195031 3:-0.340364 4:0.157895 5:0.125 6:0.2 7:-0.434797 8:-0.273309 9:-0.424393 10:-0.0059177 
1 1:-0.318379 2:0.0923266 3:-0.354839 4:-1 5:-0.375 6:0.466667 7:-0.578704 8:-0.526042 9:-0.54158 10:-0.066667 
1 1:-0.31839 2:0.0883809 3:-0.354839 4:-0.789474 5:-0.625 6:0.466667 7:-0.578704 8:-0.526042 9:-0.54158 10:-0.066667 
1 1:-0.318976 2:0.0883809 3:-0.172043 4:0.368421 5:0.3125 6:0.466667 7:-0.578704 8:-0.526042 9:-0.54158 10:-0.066667 
1 1:-0.31839 2:0.0883809 3:-0.354839 4:-0.473684 5:0.125 6:0.466667 7:-0.394216 8:-0.318491 9:-0.188154 10:-0.138461 
1 1:-0.252445 2:0.190364 3:-0.354839 4:-1 5:-0.0625 6:-0.6 7:-0.569124 8:-0.0305288 9:-0.367314 10:0.230771 
1 1:-0.252445 2:0.190364 3:-0.354839 4:-0.894737 5:-0.3125 6:-0.6 7:-0.569124 8:-0.0305288 9:-0.367314 10:0.230771 
1 1:-0.252379 2:0.206844 3:-0.072581 4:-0.684211 5:0.5 6:-0.466667 7:-0.811439 8:-0.622877 9:-0.75176 10:-0.192307 
1 1:-0.31839 2:0.0883809 3:-0.354839 4:-0.578947 5:0.0625 6:-0.466667 7:-0.811439 8:-0.622877 9:-0.75176 10:-0.192307 
1 1:-0.31839 2:0.0883809 3:-0.354839 4:-0.894737 5:-0.75 6:-0.2 7:-0.703973 8:-0.515589 9:-0.599639 10:-0.246153 
1 1:-0.31839 2:0.0883809 3:-0.354839 4:-0.789474 6:-0.2 7:-0.703973 8:-0.515589 9:-0.599639 10:-0.246153 
1 1:-0.31839 2:0.0883809 3:-0.354839 4:-0.684211 5:-0.3125 6:-0.2 7:-0.703973 8:-0.515589 9:-0.599639 10:-0.246153 
1 1:-0.252467 2:0.197158 3:-0.129033 4:-0.368421 5:-0.3125 6:-0.2 7:-0.703973 8:-0.515589 9:-0.599639 10:-0.246153 
1 1:-0.252467 2:0.197158 3:-0.129033 4:-0.263158 5:-0.75 6:-0.2 7:-0.703973 8:-0.515589 9:-0.599639 10:-0.246153 
1 1:-0.31839 2:0.0883809 3:-0.354839 4:-0.0526316 5:0.3125 6:-0.2 7:-0.703973 8:-0.515589 9:-0.599639 10:-0.246153 
1 1:-0.31839 2:0.0883809 3:-0.354839 4:-0.473684 5:0.125 6:-0.0666667 7:-0.461917 8:-0.19287 9:-0.226303 10:0.174827 
1 1:-0.31839 2:0.0883809 3:-0.354839 4:-0.368421 5:-0.3125 6:-0.0666667 7:-0.461917 8:-0.19287 9:-0.226303 10:0.174827 
1 1:-0.19749 2:0.0883809 3:-0.21371 4:-1 5:-0.1875 6:0.6 7:-0.210739 8:-0.164309 9:-0.236218 10:0.144231 
1 1:-0.164513 2:0.0883809 3:-0.21371 4:-0.789474 5:-0.3125 6:0.6 7:-0.210739 8:-0.164309 9:-0.236218 10:0.144231 
1 1:-0.318391 2:0.0882036 3:-0.354839 4:-0.684211 5:-0.8125 6:0.6 7:-0.210739 8:-0.164309 9:-0.236218 10:0.144231 
1 1:-0.31839 2:0.0883809 3:-0.354839 4:0.157895 5:-0.3125 6:0.6 7:-0.210739 8:-0.164309 9:-0.236218 10:0.144231 
1 1:-0.31839 2:0.0883809 3:-0.354839 4:0.263158 5:0.5 6:0.6 7:-0.210739 8:-0.164309 9:-0.236218 10:0.144231 
1 1:-0.186432 2:0.335058 3:-0.0322583 4:-1 5:0.1875 6:-0.6 7:-0.703859 8:-0.333685 9:-0.58832 10:-0.0769236 
1 1:-0.252371 2:0.234235 3:-0.0322583 4:-0.789474 5:-0.8125 6:-0.6 7:-0.703859 8:-0.333685 9:-0.58832 10:-0.0769236 
1 1:-0.25245 2:0.194723 3:-0.0322583 4:-0.684211 5:-0.0625 6:-0.6 7:-0.703859 8:-0.333685 9:-0.58832 10:-0.0769236 
1 1:-0.25245 2:0.194723 3:-0.0322583 4:-0.578947 5:-0.3125 6:-0.6 7:-0.703859 8:-0.333685 9:-0.58832 10:-0.0769236 
1 1:-0.120498 2:0.438714 3:0.290322 4:-0.368421 5:-0.3125 6:-0.6 7:-0.703859 8:-0.333685 9:-0.58832 10:-0.0769236 
1 1:-0.318374 2:0.0967287 3:-0.103943 4:-0.789474 5:-0.1875 6:-0.333333 7:-0.811498 8:-0.660696 9:-0.750362 10:-0.282052 
1 1:-0.142496 2:0.213143 3:-0.129033 4:-1 5:0.5 6:-0.2 7:-0.45723 8:-0.111831 9:-0.414314 10:-0.0307688 
1 1:-0.142496 2:0.213143 3:-0.129033 4:-0.894737 5:-1 6:-0.2 7:-0.45723 8:-0.111831 9:-0.414314 10:-0.0307688 
1 1:-0.0325478 2:0.216055 3:-0.129033 4:-0.789474 5:-0.8125 6:-0.2 7:-0.45723 8:-0.111831 9:-0.414314 10:-0.0307688 
1 1:0.044437 2:0.351179 3:-0.129033 4:-0.684211 5:0.3125 6:-0.2 7:-0.45723 8:-0.111831 9:-0.414314 10:-0.0307688 
1 1:0.154312 2:0.327942 3:-0.129033 4:-0.578947 5:-0.625 6:-0.2 7:-0.45723 8:-0.111831 9:-0.414314 10:-0.0307688 
1 1:-0.0656046 2:0.194858 3:-0.129033 4:-0.263158 5:-0.8125 6:-0.2 7:-0.45723 8:-0.111831 9:-0.414314 10:-0.0307688 
1 1:-0.318439 2:-0.0513343 3:-0.354839 4:-0.157895 5:-0.625 6:-0.2 7:-0.45723 8:-0.111831 9:-0.414314 10:-0.0307688 
1 1:-0.318439 2:-0.0513343 3:-0.354839 4:0.0526316 5:0.0625 6:-0.2 7:-0.45723 8:-0.111831 9:-0.414314 10:-0.0307688 
1 1:-0.31839 2:0.0883809 3:-0.354839 4:-0.894737 5:0.3125 6:-0.333333 7:-0.59632 8:-0.273376 9:-0.392592 10:-0.0427356 
1 1:-0.31839 2:0.0883809 3:-0.354839 4:-0.789474 5:-0.3125 6:-0.333333 7:-0.59632 8:-0.273376 9:-0.392592 10:-0.0427356 
1 1:-0.31839 2:0.0883809 3:-0.103943 4:-0.894737 5:-1 6:-0.333333 7:-0.784967 8:-0.61294 9:-0.715985 10:-0.282052 
1 1:-0.31839 2:0.0883809 3:-0.103943 4:-0.789474 5:-0.3125 6:-0.333333 7:-0.784967 8:-0.61294 9:-0.715985 10:-0.282052 
1 1:-0.31839 2:0.0883809 3:-0.354839 4:-0.263158 5:-1 6:-0.333333 7:-0.784967 8:-0.61294 9:-0.715985 10:-0.282052 
1 1:-0.252388 2:0.255334 3:-0.181142 4:-0.263158 5:-1 6:0.2 7:-0.623411 8:-0.515813 9:-0.458689 10:-0.0059177 
1 1:-0.31839 2:0.0883809 3:-0.354839 4:-0.263158 5:-0.625 6:-0.333333 7:-0.596604 8:-0.273886 9:-0.406551 10:-0.0427356 
1 1:-0.31839 2:0.0883809 3:-0.354839 4:-0.157895 5:-0.3125 6:-0.333333 7:-0.596604 8:-0.273886 9:-0.406551 10:-0.0427356 
1 1:-0.252489 2:0.206193 3:-0.181142 4:-0.789474 5:0.125 6:0.2 7:-0.623493 8:-0.515918 9:-0.480598 10:-0.0887568 
1 1:-0.252474 2:0.211789 3:-0.181142 4:-0.473684 5:-0.3125 6:0.2 7:-0.623493 8:-0.515918 9:-0.480598 10:-0.0887568 
1 1:-0.31839 2:0.0883809 3:-0.354839 4:0.157895 5:-0.3125 6:0.2 7:-0.623493 8:-0.515918 9:-0.480598 10:-0.0887568 
1 1:-0.31839 2:0.0883809 3:-0.354839 4:0.263158 5:-1 6:0.2 7:-0.623493 8:-0.515918 9:-0.480598 10:-0.0887568 
1 1:-0.31839 2:0.0883809 3:-0.354839 4:-0.894737 5:-0.3125 6:-0.333333 7:-0.811495 8:-0.660691 9:-0.743688 10:-0.282052 
1 1:-0.31839 2:0.0883809 3:-0.354839 4:-0.789474 5:0.0625 6:-0.333333 7:-0.811495 8:-0.660691 9:-0.743688 10:-0.282052 
1 1:-0.318364 2:0.102123 3:-0.354839 4:-0.578947 5:-1 6:-0.333333 7:-0.811495 8:-0.660691 9:-0.743688 10:-0.282052 
1 1:-0.252647 2:0.211749 3:-0.260753 4:-0.473684 5:-0.8125 6:-0.333333 7:-0.811495 8:-0.660691 9:-0.743688 10:-0.282052 
1 1:-0.252394 2:0.215116 3:-0.103943 4:-0.368421 5:-0.8125 6:-0.333333 7:-0.811495 8:-0.660691 9:-0.743688 10:-0.282052 
1 1:-0.31839 2:0.0883809 3:-0.354839 4:-0.263158 5:-0.6875 6:-0.333333 7:-0.811495 8:-0.660691 9:-0.743688 10:-0.282052 
1 1:-0.318491 2:0.0660431 3:-0.354839 4:-0.684211 5:0.3125 6:0.333333 7:-0.345657 8:-0.214789 9:-0.250391 10:0.0769236 
1 1:-0.383634 2:-0.144949 3:-0.386201 4:-0.263158 5:-0.75 6:-0.466667 7:-0.663433 8:-0.326865 9:-0.580168 10:-0.0576919 
1 1:-0.252464 2:0.197971 3:-0.181142 4:-0.578947 5:-0.1875 6:0.2 7:-0.703975 8:-0.619397 9:-0.59994 10:-0.0887568 
1 1:-0.31839 2:0.0883809 3:-0.354839 4:-0.263158 6:-0.0666667 7:-0.641411 8:-0.462114 9:-0.609112 10:-0.118881 
1 1:-0.31839 2:0.0883809 3:-0.0537636 4:-0.894737 5:0.1875 6:0.466667 7:-0.385997 8:-0.309248 9:-0.446733 10:0.0769236 
1 1:-0.31839 2:0.0883809 3:-0.204302 4:-0.789474 5:-0.8125 6:0.466667 7:-0.385997 8:-0.309248 9:-0.446733 10:0.0769236 
1 1:-0.31839 2:0.0883809 3:-0.204302 4:-0.578947 5:0.125 6:0.466667 7:-0.385997 8:-0.309248 9:-0.446733 10:0.0769236 
1 1:-0.176384 2:0.20539 3:-0.0322583 4:-0.473684 5:-0.1875 6:0.466667 7:-0.385997 8:-0.309248 9:-0.446733 10:0.0769236 
1 1:-0.0877052 2:0.216389 3:-0.0537636 4:-0.368421 5:-1 6:0.466667 7:-0.385997 8:-0.309248 9:-0.446733 10:0.0769236 
1 1:0.252262 2:0.330368 3:-0.0322583 4:0.0526316 5:-0.625 6:0.466667 7:-0.385997 8:-0.309248 9:-0.446733 10:0.0769236 
1 1:0.0331016 2:0.0838122 3:-0.0537636 4:0.157895 5:0.5 6:0.466667 7:-0.385997 8:-0.309248 9:-0.446733 10:0.0769236 
1 1:-0.0547718 2:0.0838122 3:-0.204302 4:0.263158 5:-0.3125 6:0.466667 7:-0.385997 8:-0.309248 9:-0.446733 10:0.0769236 
1 1:-0.1418 2:-0.019651 3:-0.072581 4:0.368421 5:0.1875 6:0.466667 7:-0.385997 8:-0.309248 9:-0.446733 10:0.0769236 
1 1:-0.295504 2:-0.145835 3:-0.21371 4:0.473684 5:-0.1875 6:0.466667 7:-0.385997 8:-0.309248 9:-0.446733 10:0.0769236 
1 1:-0.31839 2:0.0883809 3:-0.354839 4:-0.368421 5:-0.0625 6:-0.2 7:-0.583094 8:-0.31779 9:-0.464579 10:-0.0307688 
1 1:-0.31839 2:0.0883809 3:-0.354839 4:-0.263158 5:0.3125 6:-0.2 7:-0.583094 8:-0.31779 9:-0.464579 10:-0.0307688 
1 1:-0.31839 2:0.0883809 3:-0.354839 4:-0.894737 5:-0.625 6:0.0666667 7:-0.515754 8:-0.329502 9:-0.514414 10:0.0769236 
1 1:-0.164523 2:0.220091 3:-0.166667 4:-0.789474 5:-0.8125 6:0.0666667 7:-0.515754 8:-0.329502 9:-0.514414 10:0.0769236 
1 1:-0.318358 2:0.0968028 3:-0.354839 4:-0.684211 6:0.0666667 7:-0.515754 8:-0.329502 9:-0.514414 10:0.0769236 
1 1:-0.318358 2:0.0968028 3:-0.354839 4:-0.578947 5:-0.6875 6:0.0666667 7:-0.515754 8:-0.329502 9:-0.514414 10:0.0769236 
1 1:-0.0112737 2:0.20403 3:0.0557182 4:-0.368421 5:-0.625 6:0.0666667 7:-0.515754 8:-0.329502 9:-0.514414 10:0.0769236 
1 1:-0.0986283 2:0.20403 3:-0.166667 4:-0.157895 5:-0.8125 6:0.0666667 7:-0.515754 8:-0.329502 9:-0.514414 10:0.0769236 
1 1:-0.318426 2:-0.042969 3:-0.354839 4:0.157895 5:-0.625 6:0.0666667 7:-0.515754 8:-0.329502 9:-0.514414 10:0.0769236 
1 1:-0.31839 2:0.0883809 3:-0.354839 4:-1 5:0.3125 6:0.333333 7:-0.241791 8:-0.0901461 9:-0.226219 10:-0.0769236 
1 1:-0.31839 2:0.0883809 3:-0.354839 4:-0.894737 5:-0.3125 6:0.333333 7:-0.241791 8:-0.0901461 9:-0.226219 10:-0.0769236 
1 1:0.0334984 2:0.350107 3:-0.193549 4:-0.578947 5:-0.8125 6:0.333333 7:-0.241791 8:-0.0901461 9:-0.226219 10:-0.0769236 
1 1:0.13244 2:0.339437 3:-0.193549 4:-0.368421 5:-0.75 6:0.333333 7:-0.241791 8:-0.0901461 9:-0.226219 10:-0.0769236 
1 1:-0.31839 2:0.0883809 3:-0.193549 4:0.157895 5:0.0625 6:0.333333 7:-0.241791 8:-0.0901461 9:-0.226219 10:-0.0769236 
1 1:-0.31839 2:0.0883809 3:-0.193549 4:0.263158 5:0.125 6:0.333333 7:-0.241791 8:-0.0901461 9:-0.226219 10:-0.0769236 
1 1:-0.099125 2:0.332412 3:-0.386201 4:-0.789474 5:-1 6:-0.333333 7:-0.578336 8:-0.241004 9:-0.501538 10:0.196583 
1 1:-0.0765582 2:0.199844 3:-0.103943 4:-0.684211 5:-0.8125 6:-0.333333 7:-0.578336 8:-0.241004 9:-0.501538 10:0.196583 
1 1:-0.0765582 2:0.199844 3:-0.103943 4:-0.473684 5:-1 6:-0.333333 7:-0.578336 8:-0.241004 9:-0.501538 10:0.196583 
1 1:-0.318443 2:0.0541232 3:-0.103943 4:-0.263158 5:-0.6875 6:-0.333333 7:-0.578336 8:-0.241004 9:-0.501538 10:0.196583 
1 1:-0.318443 2:0.0541232 3:-0.103943 4:-0.157895 6:-0.333333 7:-0.578336 8:-0.241004 9:-0.501538 10:0.196583 
1 1:-0.251645 2:0.100636 3:-0.103943 4:-0.0526316 5:-0.375 6:-0.333333 7:-0.578336 8:-0.241004 9:-0.501538 10:0.196583 
1 1:-0.31839 2:0.0883809 3:-0.354839 4:-0.368421 5:-0.3125 6:0.0666667 7:-0.488549 8:-0.291837 9:-0.270751 10:0.0769236 
1 1:-0.164538 2:0.0810418 3:-0.00744439 4:-0.473684 5:0.375 6:0.2 7:-0.668136 8:-0.573319 9:-0.634193 10:-0.171598 
1 1:-0.384355 2:-0.0419152 3:-0.181142 4:0.157895 5:-0.8125 6:0.2 7:-0.668136 8:-0.573319 9:-0.634193 10:-0.171598 
1 1:-0.448841 2:-0.271197 3:-0.342432 4:0.157895 5:-0.1875 6:0.2 7:-0.134533 8:0.112746 9:-0.131258 10:0.159765 
1 1:-0.448841 2:-0.271197 3:-0.342432 4:0.263158 5:-0.3125 6:0.2 7:-0.134533 8:0.112746 9:-0.131258 10:0.159765 
1 1:-0.31839 2:0.0883809 3:-0.181142 4:0.263158 5:0.375 6:0.2 7:-0.757612 8:-0.688358 9:-0.688217 10:-0.337278 
1 1:-0.098366 2:0.330778 3:0.146953 4:-0.368421 6:-0.333333 7:-0.604979 8:-0.288961 9:-0.556244 10:0.0769236 
1 1:-0.318456 2:-0.049201 3:-0.354839 4:0.263158 5:-1 6:0.466667 7:-0.13992 8:-0.0324077 9:-0.20286 10:0.00512939 
1 1:-0.318456 2:-0.049201 3:-0.354839 4:0.368421 5:-0.75 6:0.466667 7:-0.13992 8:-0.0324077 9:-0.20286 10:0.00512939 
1 1:-0.31839 2:0.0883809 3:-0.354839 4:-0.263158 5:-0.3125 6:0.0666667 7:-0.704248 8:-0.590498 9:-0.638267 10:-0.102563 
1 1:-0.31839 2:0.0883809 3:-0.166667 4:0.0526316 5:0.125 6:0.0666667 7:-0.704248 8:-0.590498 9:-0.638267 10:-0.102563 
1 1:-0.31839 2:0.0883809 3:-0.166667 4:0.157895 5:-0.3125 6:0.0666667 7:-0.704248 8:-0.590498 9:-0.638267 10:-0.102563 
1 1:-0.31839 2:0.0883809 3:-0.354839 4:-0.578947 5:-0.6875 6:-0.0666667 7:-0.7042 8:-0.556302 9:-0.590434 10:-0.216784 
1 1:-0.31839 2:0.0883809 3:-0.354839 4:-0.0526316 5:-0.3125 6:-0.0666667 7:-0.7042 8:-0.556302 9:-0.590434 10:-0.216784 
1 1:-0.31839 2:0.0883809 3:-0.354839 4:0.368421 5:0.1875 6:0.333333 7:-0.58776 8:-0.505311 9:-0.523524 10:-0.153846 
1 1:-0.31839 2:0.0883809 3:-0.166667 4:-0.263158 5:-0.0625 6:0.0666667 7:-0.730973 8:-0.627499 9:-0.629473 10:-0.102563 
1 1:-0.31839 2:0.0883809 3:-0.166667 4:-0.157895 5:0.3125 6:0.0666667 7:-0.730973 8:-0.627499 9:-0.629473 10:-0.102563 
1 1:-0.264007 2:0.101112 3:-0.494624 4:0.263158 5:-0.625 6:0.466667 7:-0.560741 8:-0.505836 9:-0.551304 10:-0.066667 
1 1:-0.284826 2:-0.154551 3:-0.232527 4:0.473684 5:-0.1875 6:0.466667 7:-0.560741 8:-0.505836 9:-0.551304 10:-0.066667 
1 1:-0.284826 2:-0.154551 3:-0.232527 4:0.578947 5:-0.375 6:0.466667 7:-0.560741 8:-0.505836 9:-0.551304 10:-0.066667 
1 1:-0.31839 2:0.0883809 3:-0.181142 4:0.0526316 5:-0.3125 6:0.2 7:-0.623284 8:-0.515651 9:-0.498029 10:-0.0887568 
1 1:-0.31839 2:0.0883809 3:-0.181142 4:0.157895 5:0.125 6:0.2 7:-0.623284 8:-0.515651 9:-0.498029 10:-0.0887568 
1 1:-0.318941 2:0.0883809 3:-0.108505 4:-0.157895 5:0.3125 6:-0.0666667 7:-0.636666 8:-0.454999 9:-0.551132 10:-0.0209795 
1 1:-0.318352 2:0.103009 3:0.260998 4:0.0526316 5:0.125 6:-0.0666667 7:-0.636666 8:-0.454999 9:-0.551132 10:-0.0209795 
1 1:-0.318992 2:0.0883809 3:-0.108505 4:-0.263158 5:-0.25 6:-0.0666667 7:-0.60978 8:-0.414672 9:-0.523665 10:-0.0209795 
1 1:-0.318992 2:0.0883809 3:-0.108505 4:-0.0526316 5:-0.75 6:-0.0666667 7:-0.60978 8:-0.414672 9:-0.523665 10:-0.0209795 
1 1:-0.318401 2:0.0835573 3:0.0557182 4:0.0526316 5:0.125 6:-0.0666667 7:-0.60978 8:-0.414672 9:-0.523665 10:-0.0209795 
1 1:-0.31839 2:0.0883809 3:-0.354839 4:0.473684 5:-0.5625 6:0.466667 7:0.166629 8:0.312458 9:0.199606 10:0.579487 
1 1:-0.31839 2:0.0883809 3:-0.354839 4:-1 5:-0.75 6:0.0666667 7:-0.757682 8:-0.664483 9:-0.683182 10:-0.192307 
1 1:-0.0877111 2:0.195806 3:-0.204302 4:-0.263158 5:-0.1875 6:0.466667 7:-0.408292 8:-0.334328 9:-0.365216 10:0.00512939 
1 1:-0.318322 2:0.103198 3:-0.354839 4:0.0526316 5:-0.75 6:0.466667 7:-0.408292 8:-0.334328 9:-0.365216 10:0.00512939 
1 1:-0.307398 2:-0.0307896 3:-0.354839 4:0.473684 5:-0.3125 6:0.466667 7:-0.408292 8:-0.334328 9:-0.365216 10:0.00512939 
1 1:-0.307398 2:-0.0307896 3:-0.354839 4:0.578947 5:-0.375 6:0.466667 7:-0.408292 8:-0.334328 9:-0.365216 10:0.00512939 
1 1:-0.31839 2:0.0883809 3:-0.222012 4:-1 5:-0.1875 6:0.733333 7:-0.304866 8:-0.304866 9:-0.131388 10:0.0769236 
1 1:-0.31839 2:0.0883809 3:-0.222012 4:-0.894737 5:-0.375 6:0.733333 7:-0.304866 8:-0.304866 9:-0.131388 10:0.0769236 
1 1:-0.31839 2:0.0883809 3:-0.222012 4:-0.789474 5:-0.6875 6:0.733333 7:-0.304866 8:-0.304866 9:-0.131388 10:0.0769236 
1 1:-0.31839 2:0.0883809 3:-0.222012 4:-0.473684 5:-0.625 6:0.733333 7:-0.304866 8:-0.304866 9:-0.131388 10:0.0769236 
1 1:-0.31839 2:0.0883809 3:-0.222012 4:-0.368421 5:0.125 6:0.733333 7:-0.304866 8:-0.304866 9:-0.131388 10:0.0769236 
1 1:-0.175529 2:0.199262 3:-0.222012 4:-0.0526316 5:0.125 6:0.733333 7:-0.304866 8:-0.304866 9:-0.131388 10:0.0769236 
1 1:-0.252499 2:0.201752 3:-0.204302 4:0.263158 5:-0.8125 6:0.466667 7:-0.596625 8:-0.546202 9:-0.530799 10:-0.138461 
1 1:-0.31839 2:0.0883809 3:-0.354839 4:-0.578947 5:-0.75 6:-0.333333 7:-0.757691 8:-0.563844 9:-0.678675 10:-0.162393 
1 1:-0.31839 2:0.0883809 3:-0.354839 4:-0.473684 5:-0.3125 6:-0.333333 7:-0.757691 8:-0.563844 9:-0.678675 10:-0.162393 
1 1:-0.384324 2:0.0883809 3:-0.229391 4:0.684211 5:-0.0625 6:0.866667 7:-0.322858 8:-0.358493 9:-0.127478 10:0.0769236 
1 1:-0.384324 2:0.0883809 3:-0.229391 4:0.789474 5:-0.3125 6:0.866667 7:-0.322858 8:-0.358493 9:-0.127478 10:0.0769236 
1 1:-0.307378 2:-0.0276009 3:-0.193549 4:-1 5:-0.1875 6:0.333333 7:-0.565121 8:-0.478142 9:-0.421448 10:1.07692e-006 
1 1:-0.307378 2:-0.0276009 3:-0.193549 4:-0.894737 5:0.1875 6:0.333333 7:-0.565121 8:-0.478142 9:-0.421448 10:1.07692e-006 
1 1:-0.241415 2:0.112651 3:-0.193549 4:-0.578947 5:-0.75 6:0.333333 7:-0.565121 8:-0.478142 9:-0.421448 10:1.07692e-006 
1 1:-0.252458 2:0.215555 3:-0.193549 4:-0.263158 5:0.1875 6:0.333333 7:-0.565121 8:-0.478142 9:-0.421448 10:1.07692e-006 
1 1:-0.186521 2:0.345568 3:-0.193549 4:-0.157895 5:-0.1875 6:0.333333 7:-0.565121 8:-0.478142 9:-0.421448 10:1.07692e-006 
1 1:-0.31839 2:0.0883809 3:-0.354839 4:-0.0526316 5:-0.0625 6:0.333333 7:-0.565121 8:-0.478142 9:-0.421448 10:1.07692e-006 
1 1:-0.31839 2:0.0883809 3:-0.354839 4:0.0526316 5:-0.625 6:0.333333 7:-0.565121 8:-0.478142 9:-0.421448 10:1.07692e-006 
1 1:-0.31839 2:0.0883809 3:-0.354839 4:-0.894737 5:0.3125 6:0.333333 7:-0.134332 8:0.038803 9:-0.069754 10:0.230771 
1 1:-0.31839 2:0.0883809 3:-0.354839 4:-0.263158 5:0.3125 6:-0.333333 7:-0.631993 8:-0.337586 9:-0.579882 10:-0.0427356 
1 1:-0.31839 2:0.0883809 3:-0.354839 4:-0.157895 5:-0.25 6:-0.333333 7:-0.631993 8:-0.337586 9:-0.579882 10:-0.0427356 
1 1:-0.340286 2:0.11149 3:-0.354839 4:0.157895 5:-0.625 6:0.466667 7:-0.515743 8:-0.455213 9:-0.400508 10:-0.066667 
1 1:-0.253028 2:0.0883809 3:-0.333334 4:0.263158 5:-0.625 6:0.466667 7:-0.515743 8:-0.455213 9:-0.400508 10:-0.066667 
1 1:-0.384337 2:-0.0323214 3:-0.204302 4:-1 5:0.0625 6:0.466667 7:-0.358615 8:-0.278441 9:-0.144332 10:-0.138461 
1 1:-0.186865 2:0.225995 3:0.125 4:-0.368421 5:-0.3125 6:0.6 7:-0.704219 8:-0.686819 9:-0.640656 10:-0.125 
1 1:-0.25292 2:0.177797 3:-0.0255378 4:0.578947 5:-0.8125 6:0.6 7:-0.704219 8:-0.686819 9:-0.640656 10:-0.125 
1 1:-0.252502 2:0.0883809 3:-0.21371 4:0.684211 5:-0.375 6:0.6 7:-0.704219 8:-0.686819 9:-0.640656 10:-0.125 
1 1:-0.31839 2:0.0883809 3:-0.0322583 4:-1 5:-0.3125 6:0.333333 7:-0.596464 8:-0.515756 9:-0.467422 10:1.07692e-006 
1 1:-0.31839 2:0.0883809 3:-0.193549 4:-0.684211 5:-0.1875 6:0.333333 7:-0.596464 8:-0.515756 9:-0.467422 10:1.07692e-006 
1 1:-0.318408 2:0.0812696 3:-0.354839 4:-0.263158 5:-0.875 6:0.333333 7:-0.596464 8:-0.515756 9:-0.467422 10:1.07692e-006 
1 1:-0.318408 2:0.0812696 3:-0.354839 4:-0.0526316 5:-0.3125 6:0.333333 7:-0.596464 8:-0.515756 9:-0.467422 10:1.07692e-006 
1 1:-0.31839 2:0.0883809 3:-0.193549 4:0.157895 5:-0.75 6:0.333333 7:-0.596464 8:-0.515756 9:-0.467422 10:1.07692e-006 
1 1:-0.31839 2:0.0883809 3:-0.193549 4:0.263158 5:-0.1875 6:0.333333 7:-0.596464 8:-0.515756 9:-0.467422 10:1.07692e-006 
1 1:-0.307332 2:0.112137 3:-0.354839 4:-1 5:-0.3125 6:0.2 7:-0.219713 8:0.00322623 9:-0.094776 10:-0.0059177 
1 1:-0.307332 2:0.112137 3:-0.354839 4:-0.894737 5:0.3125 6:0.2 7:-0.219713 8:0.00322623 9:-0.094776 10:-0.0059177 
1 1:-0.31839 2:0.0883809 3:-0.354839 4:-0.157895 5:-0.0625 6:0.2 7:-0.219713 8:0.00322623 9:-0.094776 10:-0.0059177 
1 1:-0.31839 2:0.0883809 3:-0.354839 4:0.0526316 5:-0.3125 6:0.2 7:-0.596744 8:-0.481528 9:-0.439489 10:-0.0887568 
1 1:-0.252486 2:0.208507 3:-0.204302 4:0.0526316 5:-0.3125 6:0.466667 7:-0.641459 8:-0.596642 9:-0.561143 10:-0.138461 
1 1:-0.230964 2:0.0883809 3:-4.51613e-007 4:0.157895 5:-0.75 6:0.466667 7:-0.641459 8:-0.596642 9:-0.561143 10:-0.138461 
1 1:-0.230964 2:0.0883809 3:-4.51613e-007 4:0.263158 5:-0.625 6:0.466667 7:-0.641459 8:-0.596642 9:-0.561143 10:-0.138461 
1 1:-0.230964 2:0.0883809 3:-4.51613e-007 4:0.368421 5:-0.625 6:0.466667 7:-0.641459 8:-0.596642 9:-0.561143 10:-0.138461 
1 1:-0.165064 2:0.194141 3:-4.51613e-007 4:0.473684 5:0.1875 6:0.466667 7:-0.641459 8:-0.596642 9:-0.561143 10:-0.138461 
1 1:-0.4504 2:-0.211672 3:-0.354839 4:0.0526316 5:-0.6875 6:0.2 7:-0.27351 8:-0.0659434 9:-0.181176 10:-0.0887568 
1 1:-0.4504 2:-0.211672 3:-0.354839 4:0.157895 5:-0.625 6:0.2 7:-0.27351 8:-0.0659434 9:-0.181176 10:-0.0887568 
1 1:-0.31839 2:0.0883809 3:-0.181142 4:-1 5:0.125 6:0.2 7:-0.695139 8:-0.608035 9:-0.691947 10:-0.337278 
1 1:-0.0989783 2:0.1961 3:-0.0942932 4:-0.157895 5:0.3125 6:0.2 7:-0.695139 8:-0.608035 9:-0.691947 10:-0.337278 
1 1:-0.0989783 2:0.1961 3:-0.0942932 4:-0.0526316 5:-0.8125 6:0.2 7:-0.695139 8:-0.608035 9:-0.691947 10:-0.337278 
1 1:-0.0989536 2:0.20836 3:-0.0942932 4:0.0526316 5:0.125 6:0.2 7:-0.695139 8:-0.608035 9:-0.691947 10:-0.337278 
1 1:-0.241479 2:0.0883809 3:-0.181142 4:0.157895 5:-0.75 6:0.2 7:-0.695139 8:-0.608035 9:-0.691947 10:-0.337278 
1 1:-0.31839 2:0.0883809 3:-0.354839 4:0.263158 5:-0.3125 6:0.333333 7:-0.386066 8:-0.26328 9:-0.364079 10:-0.153846 
1 1:-0.31839 2:0.0883809 3:-0.354839 4:0.368421 5:-1 6:0.333333 7:-0.386066 8:-0.26328 9:-0.364079 10:-0.153846 
1 1:-0.186319 2:0.341814 3:-0.129033 4:-0.578947 5:0.5 6:-0.2 7:-0.622802 8:-0.382767 9:-0.46688 10:-0.138461 
1 1:-0.31839 2:0.0883809 3:-0.354839 4:-0.157895 5:0.125 6:0.2 7:-0.484986 8:-0.337838 9:-0.356617 10:-0.0059177 
1 1:-0.31839 2:0.0883809 3:-0.354839 4:-0.263158 5:0.3125 6:-0.333333 7:-0.632305 8:-0.338148 9:-0.542163 10:-0.0427356 
1 1:-0.31839 2:0.0883809 3:-0.354839 4:-0.157895 5:-1 6:-0.333333 7:-0.632305 8:-0.338148 9:-0.542163 10:-0.0427356 
1 1:-0.154262 2:0.209562 3:-0.330025 4:-0.789474 5:-0.25 6:0.333333 7:-0.515973 8:-0.419169 9:-0.394637 10:-0.0769236 
1 1:-0.417249 2:0.0849321 3:-0.354839 4:-0.157895 5:-0.375 6:0.333333 7:-0.515973 8:-0.419169 9:-0.394637 10:-0.0769236 
1 1:-0.417249 2:0.0849321 3:-0.354839 4:-0.0526316 5:-0.375 6:0.333333 7:-0.515973 8:-0.419169 9:-0.394637 10:-0.0769236 
1 1:-0.417249 2:0.0849321 3:-0.354839 4:0.0526316 5:0.125 6:0.333333 7:-0.515973 8:-0.419169 9:-0.394637 10:-0.0769236 
1 1:-0.351343 2:0.208489 3:-0.193549 4:0.157895 6:0.333333 7:-0.515973 8:-0.419169 9:-0.394637 10:-0.0769236 
1 1:-0.31839 2:0.0883809 3:-0.193549 4:0.263158 5:-0.25 6:0.333333 7:-0.515973 8:-0.419169 9:-0.394637 10:-0.0769236 
1 1:-0.252478 2:0.214187 3:-0.0322583 4:0.473684 5:-0.625 6:0.333333 7:-0.515973 8:-0.419169 9:-0.394637 10:-0.0769236 
1 1:-0.319265 2:0.0883809 3:-0.0393743 4:0.473684 5:0.125 6:0.733333 7:-0.435944 8:-0.435942 9:-0.3658 10:-0.17647 
1 1:-0.032675 2:0.212471 3:-0.204302 4:-0.684211 5:-0.8125 6:0.466667 7:-0.426081 8:-0.354339 9:-0.324068 10:-0.282052 
1 1:-0.0326977 2:0.201647 3:-0.204302 4:-0.578947 5:-0.3125 6:0.466667 7:-0.426081 8:-0.354339 9:-0.324068 10:-0.282052 
1 1:-0.31839 2:0.0883809 3:-0.354839 4:0.368421 6:0.466667 7:-0.426081 8:-0.354339 9:-0.324068 10:-0.282052 
1 1:-0.31839 2:0.0883809 3:-0.354839 4:0.473684 5:-0.375 6:0.466667 7:-0.426081 8:-0.354339 9:-0.324068 10:-0.282052 
1 1:-0.31839 2:0.0883809 3:-0.354839 4:-1 5:0.3125 6:0.0666667 7:-0.385345 8:-0.148938 9:-0.36279 10:-0.102563 
1 1:-0.31839 2:0.0883809 3:-0.354839 4:-0.894737 5:-0.3125 6:0.0666667 7:-0.385345 8:-0.148938 9:-0.36279 10:-0.102563 
1 1:-0.31839 2:0.0883809 3:-0.181142 4:0.0526316 5:-0.6875 6:0.2 7:-0.703875 8:-0.619265 9:-0.603538 10:-0.254437 
1 1:-0.31839 2:0.0883809 3:-0.181142 4:0.263158 5:-1 6:0.2 7:-0.703875 8:-0.619265 9:-0.603538 10:-0.254437 
1 1:-0.38431 2:-0.0303863 3:-0.354839 4:-0.894737 5:-0.375 6:-0.333333 7:-0.757802 8:-0.564043 9:-0.640329 10:0.0769236 
1 1:-0.31839 2:0.0883809 3:-0.103943 4:-0.368421 5:-0.3125 6:-0.333333 7:-0.757802 8:-0.564043 9:-0.640329 10:0.0769236 
1 1:-0.31839 2:0.0883809 3:0.146953 4:-0.263158 6:-0.333333 7:-0.757802 8:-0.564043 9:-0.640329 10:0.0769236 
1 1:-0.31839 2:0.0883809 3:-0.193549 4:-1 5:-0.0625 6:0.333333 7:-0.59671 8:-0.516051 9:-0.451487 10:1.07692e-006 
1 1:-0.31839 2:0.0883809 3:-0.193549 4:-0.894737 5:0.125 6:0.333333 7:-0.59671 8:-0.516051 9:-0.451487 10:1.07692e-006 
1 1:-0.31839 2:0.0883809 3:-0.193549 4:-0.789474 5:0.0625 6:0.333333 7:-0.59671 8:-0.516051 9:-0.451487 10:1.07692e-006 
1 1:-0.31839 2:0.0883809 3:-0.354839 4:-0.578947 5:-0.3125 6:0.333333 7:-0.59671 8:-0.516051 9:-0.451487 10:1.07692e-006 
1 1:-0.319059 2:0.0691307 3:-0.342432 4:-0.473684 5:-0.625 6:0.333333 7:-0.59671 8:-0.516051 9:-0.451487 10:1.07692e-006 
1 1:-0.31839 2:0.0883809 3:-0.354839 4:-1 5:-0.375 6:-0.333333 7:-0.704052 8:-0.467293 9:-0.592356 10:-0.0427356 
1 1:-0.31839 2:0.0883809 3:-0.103943 4:-0.684211 5:-0.0625 6:-0.333333 7:-0.704052 8:-0.467293 9:-0.592356 10:-0.0427356 
1 1:-0.31839 2:0.0883809 3:-0.103943 4:-0.578947 5:-0.75 6:-0.333333 7:-0.704052 8:-0.467293 9:-0.592356 10:-0.0427356 
1 1:-0.31839 2:0.0883809 3:-0.354839 4:-1 5:-1 6:-0.2 7:-0.672598 8:-0.46425 9:-0.593982 10:-0.0307688 
1 1:-0.241442 2:0.0883809 3:-0.129033 4:-0.684211 5:0.0625 6:-0.2 7:-0.672598 8:-0.46425 9:-0.593982 10:-0.0307688 
1 1:-0.384312 2:-0.0232698 3:-0.129033 4:-0.263158 5:-0.5625 6:-0.2 7:-0.672598 8:-0.46425 9:-0.593982 10:-0.0307688 
1 1:-0.450231 2:-0.133635 3:-0.354839 4:-0.157895 5:-0.0625 6:-0.2 7:-0.672598 8:-0.46425 9:-0.593982 10:-0.0307688 
1 1:-0.450231 2:-0.133635 3:-0.354839 4:-0.0526316 5:-0.3125 6:-0.2 7:-0.672598 8:-0.46425 9:-0.593982 10:-0.0307688 
1 1:-0.384308 2:-0.0319402 3:-0.354839 4:-0.0526316 5:-0.375 6:0.2 7:-0.538205 8:-0.406264 9:-0.465518 10:-0.0887568 
1 1:-0.384337 2:-0.160021 3:-0.181142 4:0.0526316 5:-1 6:0.2 7:-0.538205 8:-0.406264 9:-0.465518 10:-0.0887568 
1 1:-0.384337 2:-0.160021 3:-0.181142 4:0.157895 5:-0.8125 6:0.2 7:-0.538205 8:-0.406264 9:-0.465518 10:-0.0887568 
1 1:-0.31839 2:0.0883809 3:-0.354839 4:-0.684211 5:0.3125 6:-0.0666667 7:-0.704248 8:-0.556373 9:-0.599857 10:-0.216784 
1 1:-0.31839 2:0.0883809 3:-0.354839 4:-0.368421 5:-0.3125 6:-0.0666667 7:-0.704248 8:-0.556373 9:-0.599857 10:-0.216784 
1 1:-0.16453 2:0.195147 3:-0.181142 4:-1 5:-0.625 6:0.2 7:-0.327129 8:-0.134879 9:-0.253748 10:0.242604 
1 1:-0.16453 2:0.195147 3:-0.181142 4:-0.894737 5:0.1875 6:0.2 7:-0.327129 8:-0.134879 9:-0.253748 10:0.242604 
1 1:-0.318404 2:0.0883809 3:-0.354839 4:-1 5:-0.1875 6:0.2 7:-0.27812 8:-0.0718665 9:-0.179467 10:0.159765 
1 1:0.220442 2:0.209555 3:-0.193549 4:-0.578947 5:-0.3125 6:0.333333 7:-0.241754 8:-0.0901031 9:-0.1962 10:-0.0769236 
1 1:-0.31839 2:0.0883809 3:-0.354839 4:-0.0526316 5:0.0625 6:0.333333 7:-0.241754 8:-0.0901031 9:-0.1962 10:-0.0769236 
1 1:-0.31839 2:0.0883809 3:-0.354839 4:0.0526316 5:-0.625 6:0.333333 7:-0.241754 8:-0.0901031 9:-0.1962 10:-0.0769236 
1 1:-0.31839 2:0.0883809 3:-0.354839 4:0.157895 5:0.375 6:0.333333 7:-0.241754 8:-0.0901031 9:-0.1962 10:-0.0769236 
1 1:-0.31839 2:0.0883809 3:-0.354839 4:0.263158 5:-0.8125 6:0.333333 7:-0.241754 8:-0.0901031 9:-0.1962 10:-0.0769236 
1 1:-0.31839 2:0.0883809 3:-0.354839 4:-0.894737 5:-0.75 6:0.2 7:-0.542566 8:-0.411868 9:-0.381467 10:-0.0887568 
1 1:-0.153414 2:0.205085 3:-0.181142 4:-0.578947 5:-0.1875 6:0.2 7:-0.636491 8:-0.532631 9:-0.56957 10:-0.337278 
1 1:-0.0874397 2:0.315991 3:-0.181142 4:-0.368421 5:0.5 6:0.2 7:-0.636491 8:-0.532631 9:-0.56957 10:-0.337278 
1 1:-0.318808 2:0.0866213 3:-0.282465 4:-0.0526316 5:-0.625 6:0.2 7:-0.636491 8:-0.532631 9:-0.56957 10:-0.337278 
1 1:-0.318808 2:0.0866213 3:-0.282465 4:0.0526316 5:-0.0625 6:0.2 7:-0.636491 8:-0.532631 9:-0.56957 10:-0.337278 
1 1:-0.31839 2:0.0883809 3:-0.354839 4:-0.263158 5:-0.3125 6:-0.0666667 7:-0.578405 8:-0.367607 9:-0.517515 10:0.0769236 
1 1:-0.384361 2:-0.0227682 3:-0.149561 4:-1 5:-0.375 6:-0.0666667 7:-0.757665 8:-0.636497 9:-0.682715 10:-0.216784 
1 1:-0.384361 2:-0.0227682 3:-0.149561 4:-0.894737 5:-0.1875 6:-0.0666667 7:-0.757665 8:-0.636497 9:-0.682715 10:-0.216784 
1 1:-0.0218422 2:0.197903 3:-0.193549 4:-0.684211 5:-0.0625 6:0.333333 7:-0.300812 8:-0.160975 9:-0.325854 10:1.07692e-006 
1 1:0.0551198 2:0.101027 3:-0.193549 4:-0.473684 5:-0.3125 6:0.333333 7:-0.300812 8:-0.160975 9:-0.325854 10:1.07692e-006 
1 1:0.06605 2:-0.0403415 3:-0.193549 4:-0.368421 5:-0.8125 6:0.333333 7:-0.300812 8:-0.160975 9:-0.325854 10:1.07692e-006 
1 1:0.109964 2:0.195816 3:-0.193549 4:-0.263158 5:-0.3125 6:0.333333 7:-0.300812 8:-0.160975 9:-0.325854 10:1.07692e-006 
1 1:-0.31839 2:0.0883809 3:-0.354839 4:0.263158 5:0.3125 6:0.333333 7:-0.300812 8:-0.160975 9:-0.325854 10:1.07692e-006 
1 1:-0.31839 2:0.0883809 3:-0.354839 4:0.368421 5:0.125 6:0.333333 7:-0.300812 8:-0.160975 9:-0.325854 10:1.07692e-006 
1 1:-0.31839 2:0.0883809 3:-0.354839 4:-0.894737 5:-0.8125 6:-0.333333 7:-0.663508 8:-0.394313 9:-0.571901 10:-0.162393 
0.3542147375459121 1:-0.318399 2:0.0839664 3:-0.354839 4:-0.789474 5:-0.8125 6:-0.333333 7:-0.811486 8:-0.660674 9:-0.756379 10:-0.401709 
1 1:-0.31839 2:0.0883809 3:-0.354839 4:-1 5:-0.0625 6:0.466667 7:-0.502257 8:-0.440038 9:-0.447321 10:-0.138461 
1 1:-0.31839 2:0.0883809 3:-0.354839 4:-0.894737 5:0.1875 6:0.466667 7:-0.502257 8:-0.440038 9:-0.447321 10:-0.138461 
1 1:-0.0763614 2:0.208182 3:-0.103943 4:-0.789474 5:-0.0625 6:-0.333333 7:-0.631908 8:-0.337433 9:-0.582834 10:-0.0427356 
1 1:-0.31839 2:0.0883809 3:-0.354839 4:-0.263158 5:0.125 6:-0.333333 7:-0.631908 8:-0.337433 9:-0.582834 10:-0.0427356 
1 1:-0.31839 2:0.0883809 3:-0.354839 4:-0.157895 5:0.0625 6:-0.333333 7:-0.631908 8:-0.337433 9:-0.582834 10:-0.0427356 
1 1:-0.450217 2:-0.134564 3:-0.222012 4:-0.894737 5:-0.1875 6:0.733333 7:0.107604 8:0.107605 9:0.160374 10:0.583711 
1 1:-0.450217 2:-0.134564 3:-0.222012 4:-0.789474 5:-1 6:0.733333 7:0.107604 8:0.107605 9:0.160374 10:0.583711 
1 1:-0.450217 2:-0.134564 3:-0.222012 4:-0.684211 5:0.125 6:0.733333 7:0.107604 8:0.107605 9:0.160374 10:0.583711 
1 1:-0.385611 2:-0.0476564 3:-0.421253 4:-0.578947 5:0.0625 6:0.733333 7:0.107604 8:0.107605 9:0.160374 10:0.583711 
1 1:-0.252436 2:0.193391 3:-0.166667 4:-0.789474 5:-0.875 6:0.0666667 7:-0.434551 8:-0.217068 9:-0.196619 10:0.0769236 
1 1:-0.164408 2:0.22758 3:-0.181142 4:-1 5:-0.3125 6:0.2 7:-0.501976 8:-0.359685 9:-0.433961 10:-0.0059177 
1 1:-0.0215305 2:0.200144 3:-0.181142 4:-0.684211 5:-0.8125 6:0.2 7:-0.501976 8:-0.359685 9:-0.433961 10:-0.0059177 
1 1:-0.0215253 2:0.202287 3:-0.181142 4:-0.578947 5:0.3125 6:0.2 7:-0.501976 8:-0.359685 9:-0.433961 10:-0.0059177 
1 1:-0.0215266 2:0.201767 3:-0.181142 4:-0.473684 5:-0.3125 6:0.2 7:-0.501976 8:-0.359685 9:-0.433961 10:-0.0059177 
1 1:-0.186437 2:0.215998 3:-0.181142 4:-0.263158 5:-0.25 6:0.2 7:-0.501976 8:-0.359685 9:-0.433961 10:-0.0059177 
1 1:-0.31839 2:0.0883809 3:-0.354839 4:-0.157895 5:-1 6:0.2 7:-0.501976 8:-0.359685 9:-0.433961 10:-0.0059177 
1 1:-0.31839 2:0.0883809 3:-0.354839 4:-0.0526316 6:0.2 7:-0.501976 8:-0.359685 9:-0.433961 10:-0.0059177 
1 1:-0.252397 2:0.218842 3:-0.181142 4:0.157895 5:0.5 6:0.2 7:-0.501976 8:-0.359685 9:-0.433961 10:-0.0059177 
1 1:-0.252426 2:0.0883809 3:-0.181142 4:0.263158 5:-0.8125 6:0.2 7:-0.501976 8:-0.359685 9:-0.433961 10:-0.0059177 
1 1:-0.252426 2:0.0883809 3:-0.181142 4:0.368421 5:-0.375 6:0.2 7:-0.501976 8:-0.359685 9:-0.433961 10:-0.0059177 
1 1:-0.31839 2:0.0883809 3:-0.181142 4:0.157895 5:0.3125 6:0.2 7:-0.784714 8:-0.723203 9:-0.711972 10:-0.254437 
1 1:-0.31839 2:0.0883809 3:-0.181142 4:0.263158 5:0.3125 6:0.2 7:-0.784714 8:-0.723203 9:-0.711972 10:-0.254437 
1 1:-0.252393 2:0.206155 3:-0.193549 4:-1 5:0.375 6:0.333333 7:-0.676837 8:-0.612205 9:-0.566285 10:-0.230769 
1 1:-0.31839 2:0.0883809 3:-0.193549 4:0.263158 5:-0.6875 6:0.333333 7:-0.676837 8:-0.612205 9:-0.566285 10:-0.230769 
1 1:-0.252471 2:0.178142 3:-0.166667 4:-1 6:0.0666667 7:-0.515343 8:-0.328935 9:-0.321516 10:-0.0128208 
1 1:-0.252471 2:0.178142 3:-0.166667 4:-0.894737 5:0.1875 6:0.0666667 7:-0.515343 8:-0.328935 9:-0.321516 10:-0.0128208 
1 1:-0.483272 2:0.118042 3:-0.543011 4:-0.684211 5:-1 6:0.0666667 7:-0.515343 8:-0.328935 9:-0.321516 10:-0.0128208 
1 1:-0.252417 2:0.0883809 3:-0.181142 4:-1 5:-0.3125 6:0.2 7:-0.54242 8:-0.411682 9:-0.487412 10:0.0769236 
1 1:-0.0545309 2:0.202721 3:-0.181142 4:-0.578947 5:0.3125 6:0.2 7:-0.54242 8:-0.411682 9:-0.487412 10:0.0769236 
1 1:-0.186454 2:0.209956 3:-0.181142 4:-0.263158 5:-0.8125 6:0.2 7:-0.54242 8:-0.411682 9:-0.487412 10:0.0769236 
1 1:-0.25245 2:0.196493 3:-0.181142 4:-0.157895 6:0.2 7:-0.54242 8:-0.411682 9:-0.487412 10:0.0769236 
1 1:-0.25245 2:0.196493 3:-0.181142 4:-0.0526316 5:-1 6:0.2 7:-0.54242 8:-0.411682 9:-0.487412 10:0.0769236 
1 1:-0.252413 2:0.212241 3:-0.181142 4:0.0526316 5:0.1875 6:0.2 7:-0.54242 8:-0.411682 9:-0.487412 10:0.0769236 
1 1:-0.252438 2:0.201117 3:-0.181142 4:0.157895 5:0.5 6:0.2 7:-0.54242 8:-0.411682 9:-0.487412 10:0.0769236 
1 1:-0.31839 2:0.0883809 3:-0.354839 4:-1 5:-0.0625 6:-0.0666667 7:-0.444036 8:-0.166054 9:-0.393519 10:-0.0209795 
1 1:-0.31839 2:0.0883809 3:-0.354839 4:-0.894737 5:0.5 6:-0.0666667 7:-0.444036 8:-0.166054 9:-0.393519 10:-0.0209795 
1 1:-0.31839 2:0.0883809 3:-0.354839 4:-0.0526316 5:-1 6:-0.0666667 7:-0.444036 8:-0.166054 9:-0.393519 10:-0.0209795 
1 1:-0.31839 2:0.0883809 3:-0.354839 4:-0.157895 5:0.5 6:-0.333333 7:-0.533184 8:-0.159731 9:-0.464099 10:0.0769236 
1 1:-0.31839 2:0.0883809 3:-0.149561 4:-0.789474 5:0.375 6:-0.0666667 7:-0.676731 8:-0.515093 9:-0.5354 10:-0.0209795 
1 1:-0.31839 2:0.0883809 3:-0.149561 4:-0.684211 5:0.375 6:-0.0666667 7:-0.676731 8:-0.515093 9:-0.5354 10:-0.0209795 
1 1:-0.318431 2:0.0650583 3:-0.149561 4:-0.473684 5:-0.75 6:-0.0666667 7:-0.676731 8:-0.515093 9:-0.5354 10:-0.0209795 
1 1:-0.31839 2:0.0883809 3:-0.354839 4:-0.0526316 5:-1 6:-0.0666667 7:-0.470883 8:-0.206324 9:-0.424164 10:-0.118881 
1 1:-0.31839 2:0.0883809 3:-0.354839 4:0.0526316 5:-0.3125 6:-0.0666667 7:-0.470883 8:-0.206324 9:-0.424164 10:-0.118881 
1 1:-0.31839 2:0.0883809 3:-0.354839 4:-1 5:-0.1875 6:-0.2 7:-0.677057 8:-0.471547 9:-0.654855 10:-0.138461 
1 1:-0.31839 2:0.0883809 3:-0.354839 4:-0.894737 5:0.125 6:-0.2 7:-0.677057 8:-0.471547 9:-0.654855 10:-0.138461 
1 1:-0.186479 2:0.202694 3:-0.354839 4:-0.789474 5:0.0625 6:-0.2 7:-0.677057 8:-0.471547 9:-0.654855 10:-0.138461 
1 1:-0.186479 2:0.202694 3:-0.354839 4:-0.684211 5:-0.0625 6:-0.2 7:-0.677057 8:-0.471547 9:-0.654855 10:-0.138461 
1 1:-0.31839 2:0.0883809 3:-0.354839 4:-0.157895 5:-1 6:-0.2 7:-0.677057 8:-0.471547 9:-0.654855 10:-0.138461 
1 1:-0.31839 2:0.0883809 3:-0.354839 4:-0.0526316 5:-0.25 6:-0.2 7:-0.677057 8:-0.471547 9:-0.654855 10:-0.138461 
1 1:-0.31839 2:0.0883809 3:-0.354839 4:-0.789474 5:-0.6875 6:0.0666667 7:-0.70379 8:-0.589861 9:-0.599124 10:-0.282052 
1 1:-0.31839 2:0.0883809 3:-0.354839 4:-0.578947 5:-0.6875 6:0.0666667 7:-0.70379 8:-0.589861 9:-0.599124 10:-0.282052 
1 1:-0.252389 2:0.212465 3:-0.166667 4:-0.157895 5:-0.25 6:0.0666667 7:-0.70379 8:-0.589861 9:-0.599124 10:-0.282052 
1 1:-0.252722 2:0.207362 3:-0.286413 4:-0.0526316 5:-0.6875 6:0.0666667 7:-0.70379 8:-0.589861 9:-0.599124 10:-0.282052 
1 1:-0.318408 2:0.0811356 3:-0.354839 4:-0.157895 5:-0.8125 6:0.0666667 7:-0.362873 8:-0.117825 9:-0.205493 10:-0.0128208 
1 1:-0.449347 2:-0.271714 3:-0.369314 4:0.157895 6:0.0666667 7:-0.362873 8:-0.117825 9:-0.205493 10:-0.0128208 
1 1:-0.142459 2:0.201296 3:-0.103943 4:-0.789474 5:-0.3125 6:-0.333333 7:-0.443596 8:0.00152846 9:-0.230213 10:0.196583 
1 1:-0.340302 2:0.235736 3:-0.166667 4:-0.684211 5:-0.0625 6:0.0666667 7:-0.516024 8:-0.329879 9:-0.283809 10:0.0769236 
1 1:-0.31839 2:0.0883809 3:0.129033 4:-0.473684 5:0.1875 6:0.333333 7:-0.596509 8:-0.515808 9:-0.597713 10:0.0769236 
1 1:-0.252439 2:0.222442 3:-0.354839 4:-0.263158 5:-0.1875 6:0.333333 7:-0.596509 8:-0.515808 9:-0.597713 10:0.0769236 
1 1:-0.318451 2:0.0698389 3:-0.354839 4:0.157895 5:-0.3125 6:0.333333 7:-0.596509 8:-0.515808 9:-0.597713 10:0.0769236 
1 1:-0.318451 2:0.0698389 3:-0.354839 4:0.368421 5:-0.1875 6:0.333333 7:-0.596509 8:-0.515808 9:-0.597713 10:0.0769236 
1 1:-0.351346 2:0.231951 3:-0.637097 4:-1 5:-0.0625 6:-0.466667 7:-0.623043 8:-0.246088 9:-0.45093 10:0.0769236 
1 1:-0.351346 2:0.231951 3:-0.637097 4:-0.894737 5:-1 6:-0.466667 7:-0.623043 8:-0.246088 9:-0.45093 10:0.0769236 
1 1:-0.31839 2:0.0883809 3:-0.354839 4:0.368421 5:-0.625 6:0.466667 7:-0.623459 8:-0.576391 9:-0.47602 10:-0.210255 
1 1:-0.31839 2:0.0883809 3:-0.354839 4:0.473684 5:-0.3125 6:0.466667 7:-0.623459 8:-0.576391 9:-0.47602 10:-0.210255 
1 1:-0.417353 2:0.103443 3:-0.149561 4:-0.157895 5:-0.8125 6:-0.0666667 7:-0.474907 8:-0.212361 9:-0.379026 10:0.0769236 
1 1:-0.252438 2:0.199488 3:-0.21371 4:-0.368421 5:-0.1875 6:0.6 7:-0.0175075 8:0.0402861 9:0.251936 10:0.211539 
1 1:-0.31839 2:0.0883809 3:-0.354839 4:-0.263158 5:-1 6:0.6 7:-0.0175075 8:0.0402861 9:0.251936 10:0.211539 
1 1:-0.31839 2:0.0883809 3:-0.354839 4:-0.157895 5:0.0625 6:0.6 7:-0.0175075 8:0.0402861 9:0.251936 10:0.211539 
1 1:-0.384403 2:-0.0361577 3:-0.149561 4:-0.789474 6:-0.0666667 7:-0.676744 8:-0.515112 9:-0.523928 10:-0.0209795 
1 1:-0.318326 2:0.143373 3:0.0557182 4:-0.473684 5:-0.5625 6:-0.0666667 7:-0.676744 8:-0.515112 9:-0.523928 10:-0.0209795 
1 1:-0.31839 2:0.0883809 3:-0.354839 4:-0.368421 5:-0.3125 6:-0.0666667 7:-0.676744 8:-0.515112 9:-0.523928 10:-0.0209795 
1 1:-0.31839 2:0.0883809 3:-0.354839 4:-0.263158 5:0.5 6:-0.0666667 7:-0.676744 8:-0.515112 9:-0.523928 10:-0.0209795 
1 1:-0.307431 2:0.0617624 3:-0.354839 4:-0.263158 5:-0.375 6:-0.0666667 7:-0.304347 8:0.0434814 9:-0.13737 10:0.0769236 
1 1:-0.296378 2:0.348171 3:-0.149561 4:-0.157895 5:-0.8125 6:-0.0666667 7:-0.304347 8:0.0434814 9:-0.13737 10:0.0769236 
1 1:-0.252414 2:0.212721 3:-0.149561 4:-0.578947 6:-0.0666667 7:-0.757748 8:-0.636622 9:-0.681096 10:-0.314685 
1 1:-0.417348 2:0.104621 3:-0.149561 4:-0.263158 5:-0.375 6:-0.0666667 7:-0.542216 8:-0.313321 9:-0.460455 10:0.0769236 
1 1:-0.417348 2:0.104621 3:-0.149561 4:-0.157895 5:-0.8125 6:-0.0666667 7:-0.542216 8:-0.313321 9:-0.460455 10:0.0769236 
1 1:-0.318714 2:0.0883809 3:-0.123242 4:-0.368421 5:-1 6:0.2 7:-0.784818 8:-0.723337 9:-0.721896 10:-0.171598 
1 1:-0.318714 2:0.0883809 3:-0.123242 4:-0.263158 5:-0.625 6:0.2 7:-0.784818 8:-0.723337 9:-0.721896 10:-0.171598 
1 1:-0.31839 2:0.0883809 3:-0.354839 4:-0.368421 5:0.125 6:0.0666667 7:-0.64578 8:-0.509542 9:-0.550564 10:-0.102563 
1 1:-0.31839 2:0.0883809 3:-0.354839 4:-0.0526316 5:0.1875 6:0.0666667 7:-0.64578 8:-0.509542 9:-0.550564 10:-0.102563 
1 1:-0.317434 2:-0.0169087 3:-0.230314 4:0.578947 5:-0.3125 6:0.6 7:-0.237623 8:-0.192775 9:-0.195376 10:0.00961585 
1 1:-0.252502 2:0.192683 3:-0.21371 4:-0.0526316 5:-0.1875 6:0.6 7:-0.462018 8:-0.430371 9:-0.265841 10:0.211539 
1 1:-0.318411 2:0.0804261 3:-0.21371 4:0.0526316 5:-0.1875 6:0.6 7:-0.462018 8:-0.430371 9:-0.265841 10:0.211539 
1 1:-0.318411 2:0.0804261 3:-0.21371 4:0.157895 5:-0.375 6:0.6 7:-0.462018 8:-0.430371 9:-0.265841 10:0.211539 
1 1:-0.318413 2:0.0792549 3:-0.21371 4:0.684211 5:0.0625 6:0.6 7:-0.462018 8:-0.430371 9:-0.265841 10:0.211539 
1 1:-0.31839 2:0.0883809 3:-0.354839 4:-0.578947 5:-0.625 6:0.333333 7:-0.488854 8:-0.386621 9:-0.295452 10:-0.153846 
1 1:-0.31839 2:0.0883809 3:-0.354839 4:-0.473684 5:-0.3125 6:0.333333 7:-0.488854 8:-0.386621 9:-0.295452 10:-0.153846 
1 1:-0.31839 2:0.0883809 3:-0.354839 4:0.0526316 5:-0.3125 6:0.333333 7:-0.488854 8:-0.386621 9:-0.295452 10:-0.153846 
1 1:-0.31839 2:0.0883809 3:-0.354839 4:-0.578947 5:0.3125 6:-0.333333 7:-0.676914 8:-0.418444 9:-0.558888 10:0.0769236 
1 1:-0.31839 2:0.0883809 3:-0.354839 4:-0.578947 5:0.125 6:-0.333333 7:-0.730676 8:-0.515217 9:-0.641513 10:-0.162393 
1 1:-0.31839 2:0.0883809 3:-0.354839 4:-0.263158 5:-0.6875 6:-0.333333 7:-0.730676 8:-0.515217 9:-0.641513 10:-0.162393 
1 1:-0.384367 2:-0.0369131 3:0.339949 4:-0.0526316 5:-0.3125 6:0.2 7:-0.63664 8:-0.532821 9:-0.566552 10:0.0769236 
1 1:-0.31839 2:0.0883809 3:-0.354839 4:-1 5:0.5 6:-0.2 7:-0.703758 8:-0.515241 9:-0.583517 10:-0.138461 
1 1:-0.31839 2:0.0883809 3:-0.354839 4:-0.894737 5:0.1875 6:-0.2 7:-0.703758 8:-0.515241 9:-0.583517 10:-0.138461 
1 1:-0.252404 2:0.205504 3:-0.129033 4:-0.473684 5:-0.0625 6:-0.2 7:-0.703758 8:-0.515241 9:-0.583517 10:-0.138461 
1 1:-0.252404 2:0.205275 3:-0.129033 4:-0.368421 5:0.1875 6:-0.2 7:-0.703758 8:-0.515241 9:-0.583517 10:-0.138461 
1 1:-0.252343 2:0.224347 3:-0.129033 4:-0.368421 5:0.375 6:-0.2 7:-0.730565 8:-0.559107 9:-0.620469 10:-0.138461 
1 1:-0.252343 2:0.224347 3:-0.129033 4:-0.263158 5:0.375 6:-0.2 7:-0.730565 8:-0.559107 9:-0.620469 10:-0.138461 
1 1:-0.417338 2:0.105175 3:-0.354839 4:-0.263158 5:-0.8125 6:-0.0666667 7:-0.569177 8:-0.353762 9:-0.508604 10:-0.118881 
1 1:-0.417338 2:0.105175 3:-0.354839 4:-0.157895 5:-0.375 6:-0.0666667 7:-0.569177 8:-0.353762 9:-0.508604 10:-0.118881 
1 1:-0.31839 2:0.0883809 3:-0.354839 4:-0.157895 5:-0.875 6:-0.2 7:-0.784486 8:-0.647341 9:-0.705947 10:-0.353846 
1 1:-0.186377 2:0.0883809 3:-0.166667 4:-0.263158 5:-0.8125 6:0.0666667 7:-0.730671 8:-0.627084 9:-0.719882 10:-0.0128208 
1 1:-0.31839 2:0.0883809 3:-0.00744439 4:-0.894737 5:-0.8125 6:0.2 7:-0.784639 8:-0.723107 9:-0.728691 10:-0.337278 
1 1:-0.31839 2:0.0883809 3:-0.00744439 4:-0.789474 5:-1 6:0.2 7:-0.784639 8:-0.723107 9:-0.728691 10:-0.337278 
1 1:-0.31839 2:0.0883809 3:-0.354839 4:0.0526316 5:0.375 6:-0.0666667 7:-0.757641 8:-0.63646 9:-0.654521 10:-0.314685 
1 1:-0.31839 2:0.0883809 3:-0.354839 4:-0.0526316 5:0.125 6:0.0666667 7:-0.58293 8:-0.422517 9:-0.553509 10:-0.102563 
1 1:-0.31839 2:0.0883809 3:-0.354839 4:-0.578947 5:-0.375 6:-0.6 7:-0.784513 8:-0.515155 9:-0.698377 10:-0.0769236 
1 1:-0.31839 2:0.0883809 3:-0.354839 4:-0.473684 6:-0.6 7:-0.784513 8:-0.515155 9:-0.698377 10:-0.0769236 
1 1:-0.31839 2:0.0883809 3:-0.0322583 4:-0.368421 5:0.1875 6:-0.6 7:-0.784513 8:-0.515155 9:-0.698377 10:-0.0769236 
1 1:-0.318784 2:0.120241 3:-0.543011 4:-0.684211 5:-0.1875 6:0.0666667 7:-0.650009 8:-0.515398 9:-0.50942 10:-0.0128208 
1 1:-0.318784 2:0.120241 3:-0.543011 4:-0.473684 5:-0.1875 6:0.0666667 7:-0.650009 8:-0.515398 9:-0.50942 10:-0.0128208 
1 1:-0.307326 2:0.116334 3:-0.354839 4:-0.894737 5:0.125 6:-0.0666667 7:-0.0715402 8:0.392692 9:0.109849 10:0.272728 
1 1:-0.31839 2:0.0883809 3:-0.354839 4:-0.894737 5:-0.6875 6:0.0666667 7:-0.730923 8:-0.62743 9:-0.639 10:-0.192307 
1 1:-0.31839 2:0.0883809 3:-0.354839 4:-0.157895 5:-0.625 6:0.0666667 7:-0.730923 8:-0.62743 9:-0.639 10:-0.192307 
1 1:-0.31839 2:0.0883809 3:-0.354839 4:-0.0526316 5:0.125 6:0.0666667 7:-0.730923 8:-0.62743 9:-0.639 10:-0.192307 
1 1:-0.31839 2:0.0883809 3:-0.354839 4:-1 5:-0.625 6:-0.333333 7:-0.811352 8:-0.660432 9:-0.748138 10:-0.282052 
1 1:-0.31839 2:0.0883809 3:-0.354839 4:-0.894737 5:0.375 6:-0.333333 7:-0.811352 8:-0.660432 9:-0.748138 10:-0.282052 
1 1:-0.31839 2:0.0883809 3:-0.354839 4:-0.789474 5:-0.375 6:-0.333333 7:-0.811352 8:-0.660432 9:-0.748138 10:-0.282052 
1 1:-0.31839 2:0.0883809 3:-0.354839 4:-0.368421 5:-0.5625 6:-0.333333 7:-0.811352 8:-0.660432 9:-0.748138 10:-0.282052 
1 1:-0.252345 2:0.212171 3:-0.103943 4:-0.263158 5:0.375 6:-0.333333 7:-0.811352 8:-0.660432 9:-0.748138 10:-0.282052 
1 1:-0.252345 2:0.212171 3:-0.103943 4:-0.157895 5:-0.375 6:-0.333333 7:-0.811352 8:-0.660432 9:-0.748138 10:-0.282052 
1 1:-0.31839 2:0.0883809 3:0.0557182 4:-0.894737 5:-0.3125 6:-0.0666667 7:-0.784616 8:-0.676924 9:-0.704268 10:-0.216784 
1 1:-0.31839 2:0.0883809 3:0.0557182 4:-0.684211 5:-0.0625 6:-0.0666667 7:-0.784616 8:-0.676924 9:-0.704268 10:-0.216784 
1 1:-0.31839 2:0.0883809 3:-0.354839 4:-0.263158 5:-0.6875 6:-0.0666667 7:-0.784616 8:-0.676924 9:-0.704268 10:-0.216784 
1 1:-0.31839 2:0.0883809 3:-0.149561 4:-0.157895 6:-0.0666667 7:-0.784616 8:-0.676924 9:-0.704268 10:-0.216784 
1 1:-0.31839 2:0.0883809 3:-0.149561 4:-0.0526316 5:-0.25 6:-0.0666667 7:-0.784616 8:-0.676924 9:-0.704268 10:-0.216784 
1 1:-0.31839 2:0.0883809 3:0.0557182 4:0.0526316 5:0.3125 6:-0.0666667 7:-0.784616 8:-0.676924 9:-0.704268 10:-0.216784 
1 1:-0.30733 2:0.115078 3:-0.354839 4:-1 5:-0.3125 6:-0.0666667 7:-0.0715376 8:0.392696 9:0.117387 10:0.370631 
1 1:-0.30733 2:0.115078 3:-0.354839 4:-0.894737 5:0.125 6:-0.0666667 7:-0.0715376 8:0.392696 9:0.117387 10:0.370631 
1 1:-0.31839 2:0.0883809 3:-0.354839 4:-0.157895 5:-0.25 6:-0.0666667 7:-0.703822 8:-0.55573 9:-0.594642 10:-0.118881 
1 1:-0.252859 2:0.203329 3:-0.293255 4:-0.157895 5:-0.8125 6:-0.0666667 7:-0.67698 8:-0.515469 9:-0.557335 10:-0.216784 
1 1:-0.318404 2:0.0827208 3:-0.354839 4:-0.0526316 5:-0.3125 6:-0.0666667 7:-0.67698 8:-0.515469 9:-0.557335 10:-0.216784 
1 1:-0.318404 2:0.0827208 3:-0.354839 4:0.0526316 5:-0.1875 6:-0.0666667 7:-0.67698 8:-0.515469 9:-0.557335 10:-0.216784 
1 1:-0.31839 2:0.0883809 3:-0.149561 4:-1 5:-0.3125 6:-0.0666667 7:-0.703724 8:-0.555586 9:-0.600562 10:-0.0209795 
1 1:-0.31839 2:0.0883809 3:-0.149561 4:-0.894737 5:0.5 6:-0.0666667 7:-0.703724 8:-0.555586 9:-0.600562 10:-0.0209795 
1 1:-0.252363 2:0.218545 3:-0.149561 4:-0.789474 5:0.5 6:-0.0666667 7:-0.703724 8:-0.555586 9:-0.600562 10:-0.0209795 
1 1:-0.252363 2:0.218545 3:-0.149561 4:-0.684211 5:0.5 6:-0.0666667 7:-0.703724 8:-0.555586 9:-0.600562 10:-0.0209795 
1 1:-0.31839 2:0.0883809 3:-0.354839 4:-0.473684 5:-0.375 6:-0.0666667 7:-0.703724 8:-0.555586 9:-0.600562 10:-0.0209795 
1 1:-0.31839 2:0.0883809 3:-0.354839 4:-0.368421 5:-0.75 6:-0.0666667 7:-0.703724 8:-0.555586 9:-0.600562 10:-0.0209795 
1 1:-0.252416 2:0.215587 3:-0.181142 4:-0.368421 5:-0.8125 6:0.2 7:-0.81161 8:-0.757784 9:-0.76203 10:-0.420118 
1 1:-0.252617 2:0.207491 3:-0.11828 4:0.473684 5:-0.0625 6:0.466667 7:-0.811604 8:-0.788054 9:-0.76025 10:-0.42564 
1 1:-0.31839 2:0.0883809 3:-0.181142 4:-1 5:-0.3125 6:0.2 7:-0.784599 8:-0.723055 9:-0.722647 10:-0.337278 
1 1:-0.252415 2:0.202089 3:-0.181142 4:0.0526316 5:0.0625 6:0.2 7:-0.784599 8:-0.723055 9:-0.722647 10:-0.337278 
1 1:-0.0655598 2:0.334411 3:-0.166667 4:-0.894737 5:-0.1875 6:0.0666667 7:-0.201604 8:0.105474 9:-0.0845711 10:0.166668 
1 1:-0.109524 2:0.357613 3:-0.354839 4:-0.578947 5:-0.0625 6:0.333333 7:-0.197466 8:-0.0369574 9:-0.11527 10:0.0769236 
1 1:0.264 2:0.326923 3:-0.193549 4:-0.473684 5:-0.3125 6:0.333333 7:-0.197466 8:-0.0369574 9:-0.11527 10:0.0769236 
1 1:0.176219 2:0.215704 3:-0.193549 4:-0.473684 5:-0.3125 6:0.333333 7:-0.260061 8:-0.112074 9:-0.153419 10:1.07692e-006 
1 1:-0.38439 2:-0.0360412 3:-0.166667 4:-0.789474 5:0.375 6:0.0666667 7:-0.510804 8:-0.322649 9:-0.515249 10:0.0769236 
1 1:-0.318414 2:0.0765846 3:0.0215049 4:-0.684211 5:-0.1875 6:0.0666667 7:-0.510804 8:-0.322649 9:-0.515249 10:0.0769236 
1 1:-0.175397 2:0.212468 3:-0.166667 4:-0.578947 5:-0.3125 6:0.0666667 7:-0.510804 8:-0.322649 9:-0.515249 10:0.0769236 
1 1:0.00061167 2:0.221542 3:-0.166667 4:-0.368421 5:0.1875 6:0.0666667 7:-0.510804 8:-0.322649 9:-0.515249 10:0.0769236 
1 1:-0.252392 2:0.0929045 3:-0.166667 4:0.0526316 5:-0.625 6:0.0666667 7:-0.510804 8:-0.322649 9:-0.515249 10:0.0769236 
1 1:-0.252555 2:0.199522 3:-0.222012 4:-0.0526316 5:-1 6:0.733333 7:-0.596826 8:-0.596827 9:-0.426381 10:-0.0497743 
1 1:-0.31839 2:0.0883809 3:-0.354839 4:-0.473684 5:-0.75 6:0.2 7:-0.650033 8:-0.550041 9:-0.521696 10:-0.171598 
1 1:-0.252337 2:0.259293 3:-0.00744439 4:-0.263158 5:0.1875 6:0.2 7:-0.650033 8:-0.550041 9:-0.521696 10:-0.171598 
1 1:-0.318413 2:0.078386 3:-0.181142 4:-0.157895 5:0.3125 6:0.2 7:-0.650033 8:-0.550041 9:-0.521696 10:-0.171598 
1 1:-0.318413 2:0.078386 3:-0.181142 4:-0.0526316 6:0.2 7:-0.650033 8:-0.550041 9:-0.521696 10:-0.171598 
1 1:-0.318413 2:0.078386 3:-0.181142 4:0.157895 5:-0.5625 6:0.2 7:-0.650033 8:-0.550041 9:-0.521696 10:-0.171598 
1 1:-0.31839 2:0.0883809 3:-0.181142 4:0.263158 6:0.2 7:-0.650033 8:-0.550041 9:-0.521696 10:-0.171598 
1 1:-0.307376 2:0.0972352 3:-0.354839 4:-1 5:-0.3125 6:0.6 7:-0.50209 8:-0.472801 9:-0.352577 10:-0.125 
1 1:-0.340394 2:0.204687 3:-0.354839 4:-0.263158 5:-0.625 6:0.6 7:-0.50209 8:-0.472801 9:-0.352577 10:-0.125 
1 1:-0.31839 2:0.0883809 3:-0.129033 4:-1 5:-0.375 6:-0.2 7:-0.784619 8:-0.647559 9:-0.711889 10:-0.138461 
1 1:-0.31839 2:0.0883809 3:-0.129033 4:-0.263158 5:-0.3125 6:-0.2 7:-0.784619 8:-0.647559 9:-0.711889 10:-0.138461 
1 1:-0.31839 2:0.0883809 3:-0.129033 4:-0.0526316 5:-0.375 6:-0.2 7:-0.784619 8:-0.647559 9:-0.711889 10:-0.138461 
1 1:-0.186425 2:0.220226 3:-0.129033 4:0.0526316 5:-0.375 6:-0.2 7:-0.784619 8:-0.647559 9:-0.711889 10:-0.138461 
1 1:-0.252382 2:0.209778 3:-0.0537636 4:-1 5:-0.3125 6:0.466667 7:-0.676824 8:-0.636428 9:-0.570134 10:-0.210255 
1 1:-0.31839 2:0.0883809 3:-0.204302 4:-0.789474 5:-0.875 6:0.466667 7:-0.676824 8:-0.636428 9:-0.570134 10:-0.210255 
1 1:-0.230408 2:0.0883809 3:-0.129033 4:-1 5:-0.3125 6:-0.2 7:-0.578193 8:-0.309768 9:-0.512838 10:-0.0307688 
1 1:-0.318402 2:0.0832513 3:-0.354839 4:-0.789474 5:-0.3125 6:-0.2 7:-0.676927 8:-0.471337 9:-0.557664 10:-0.138461 
1 1:-0.0765815 2:0.35585 3:-0.193549 4:-1 5:0.0625 6:0.333333 7:-0.421595 8:-0.305915 9:-0.355 10:0.0769236 
1 1:-0.450282 2:-0.166947 3:-0.354839 4:0.157895 5:-0.1875 6:0.333333 7:-0.421595 8:-0.305915 9:-0.355 10:0.0769236 
