svm_type c_svc
kernel_type rbf
gamma 0.1
nr_class 2
total_sv 8702
rho 3.45219
label 1 -1
probA -1.83582
probB 0.0724773
nr_sv 4351 4351
SV
1 1:0.0208284 2:0.20491 3:-0.499999 4:-1 5:0.583333 6:-0.615385 7:-0.495744 8:-0.159449 9:-0.443575 10:-0.478261 
1 1:0.0208284 2:0.20491 3:-0.499999 4:-0.928571 5:-0.666667 6:-0.615385 7:-0.495744 8:-0.159449 9:-0.443575 10:-0.478261 
1 1:0.200612 2:0.249198 3:-0.333333 4:-0.714286 5:0.583333 6:-0.615385 7:-0.495744 8:-0.159449 9:-0.443575 10:-0.478261 
1 1:-0.0446291 2:-0.123762 3:-0.333333 4:-0.642857 5:0.333333 6:-0.615385 7:-0.495744 8:-0.159449 9:-0.443575 10:-0.478261 
1 1:-0.110031 2:-0.121055 3:-0.333333 4:-0.571429 5:-1 6:-0.615385 7:-0.495744 8:-0.159449 9:-0.443575 10:-0.478261 
1 1:-0.175386 2:-0.106725 3:-0.499999 4:-0.5 5:-0.583333 6:-0.615385 7:-0.495744 8:-0.159449 9:-0.443575 10:-0.478261 
1 1:-0.175386 2:-0.106725 3:-0.499999 4:-0.428571 5:0.416667 6:-0.615385 7:-0.495744 8:-0.159449 9:-0.443575 10:-0.478261 
1 1:-0.110031 2:-0.121055 3:-0.333333 4:-0.357143 5:0.416667 6:-0.615385 7:-0.495744 8:-0.159449 9:-0.443575 10:-0.478261 
1 1:-0.175311 2:-0.085415 3:-0.499999 4:-1 5:0.0833333 6:-0.692308 7:-0.528374 8:-0.0942064 9:-0.398895 10:0.227273 
1 1:-0.175311 2:-0.085415 3:-0.499999 4:-0.928571 5:-1 6:-0.692308 7:-0.528374 8:-0.0942064 9:-0.398895 10:0.227273 
1 1:-0.175176 2:-0.140606 3:-0.312499 4:-0.857143 5:-0.0833333 6:-0.692308 7:-0.528374 8:-0.0942064 9:-0.398895 10:0.227273 
1 1:-0.126319 2:0.00465043 3:-0.499999 4:-0.571429 5:-0.0833333 6:-0.692308 7:-0.528374 8:-0.0942064 9:-0.398895 10:0.227273 
1 1:-0.126319 2:0.00465043 3:-0.499999 4:-0.5 5:0.25 6:-0.692308 7:-0.528374 8:-0.0942064 9:-0.398895 10:0.227273 
1 1:-0.12634 2:-0.108009 3:-0.249999 4:-1 5:0.583333 6:-0.846154 7:-0.791452 8:-0.319232 9:-0.742335 10:0.126482 
1 1:-0.12634 2:-0.108009 3:-0.249999 4:-0.928571 5:-0.0833333 6:-0.846154 7:-0.791452 8:-0.319232 9:-0.742335 10:0.126482 
1 1:-0.12633 2:-0.103918 3:-0.249999 4:-0.857143 5:-0.833333 6:-0.846154 7:-0.791452 8:-0.319232 9:-0.742335 10:0.126482 
1 1:-0.12633 2:-0.103918 3:-0.249999 4:-0.785714 5:-0.0833333 6:-0.846154 7:-0.791452 8:-0.319232 9:-0.742335 10:0.126482 
1 1:-0.118034 2:-0.0547945 3:-0.227272 4:-1 5:1 6:-0.461538 7:-0.254118 8:-0.0433364 9:-0.107465 10:0.0348562 
1 1:-0.175239 2:-0.0529862 3:-0.363636 4:-0.928571 5:-0.5 6:-0.461538 7:-0.254118 8:-0.0433364 9:-0.107465 10:0.0348562 
1 1:-0.175239 2:-0.0529862 3:-0.363636 4:-0.857143 5:1 6:-0.461538 7:-0.254118 8:-0.0433364 9:-0.107465 10:0.0348562 
1 1:-0.118034 2:-0.0547945 3:-0.227272 4:-0.785714 5:-0.666667 6:-0.461538 7:-0.254118 8:-0.0433364 9:-0.107465 10:0.0348562 
1 1:-0.0135865 2:-0.255989 3:-0.285714 4:-0.357143 5:-1 6:-0.230769 7:-0.270711 8:-0.295113 9:-0.244994 10:0.0976866 
1 1:-0.0692489 2:-0.254765 3:-0.285714 4:-0.285714 5:-1 6:-0.230769 7:-0.270711 8:-0.295113 9:-0.244994 10:0.0976866 
1 1:-0.0774306 2:-0.179539 3:-0.285714 4:-0.214286 5:0.0833333 6:-0.230769 7:-0.270711 8:-0.295113 9:-0.244994 10:0.0976866 
1 1:-0.0774306 2:-0.179539 3:-0.285714 4:-0.142857 5:-0.583333 6:-0.230769 7:-0.270711 8:-0.295113 9:-0.244994 10:0.0976866 
1 1:-0.0774306 2:-0.179539 3:-0.285714 4:-0.0714286 5:0.583333 6:-0.230769 7:-0.270711 8:-0.295113 9:-0.244994 10:0.0976866 
1 1:-0.0774306 2:-0.179539 3:-0.285714 5:0.416667 6:-0.230769 7:-0.270711 8:-0.295113 9:-0.244994 10:0.0976866 
1 1:-0.17535 2:-0.0976135 3:-0.499999 4:-1 5:-1 6:-0.461538 7:-0.358742 8:-0.170272 9:-0.289608 10:0.144808 
1 1:-0.17535 2:-0.0976135 3:-0.499999 4:-0.928571 6:-0.461538 7:-0.358742 8:-0.170272 9:-0.289608 10:0.144808 
1 1:-0.12642 2:-0.106676 3:-0.363636 4:-0.857143 5:-0.0833333 6:-0.461538 7:-0.358742 8:-0.170272 9:-0.289608 10:0.144808 
1 1:-0.172839 2:-0.21143 3:-0.227272 4:-0.357143 5:-0.0833333 6:-0.461538 7:-0.358742 8:-0.170272 9:-0.289608 10:0.144808 
1 1:-0.173323 2:-0.160361 3:-0.227272 4:-0.285714 5:-0.666667 6:-0.461538 7:-0.358742 8:-0.170272 9:-0.289608 10:0.144808 
1 1:-0.173323 2:-0.160361 3:-0.227272 4:-0.214286 5:-0.166667 6:-0.461538 7:-0.358742 8:-0.170272 9:-0.289608 10:0.144808 
1 1:-0.126328 2:-0.026347 3:-0.499999 4:-1 5:0.583333 6:-0.615385 7:-0.395196 8:-0.0130604 9:-0.312063 10:0.193676 
1 1:-0.0201093 2:0.0502297 3:-0.285714 4:-0.714286 5:-0.833333 6:-0.769231 7:-0.712973 8:-0.289217 9:-0.671462 10:-0.0750982 
1 1:-0.126481 2:-0.0395952 3:-0.499999 4:-1 5:-0.0833333 6:-0.230769 7:0.0205292 8:-0.0124359 9:0.0845253 10:-0.0750982 
1 1:-0.126481 2:-0.0395952 3:-0.499999 4:-0.928571 5:0.75 6:-0.230769 7:0.0205292 8:-0.0124359 9:0.0845253 10:-0.0750982 
1 1:-0.0774822 2:0.0418545 3:-0.499999 4:-0.285714 5:-0.666667 6:-0.230769 7:0.0205292 8:-0.0124359 9:0.0845253 10:-0.0750982 
1 1:-0.0774822 2:0.0418545 3:-0.499999 4:-0.214286 5:-0.5 6:-0.230769 7:0.0205292 8:-0.0124359 9:0.0845253 10:-0.0750982 
1 1:-0.172946 2:-0.344422 3:-0.199999 4:-0.142857 5:-0.583333 6:-0.230769 7:0.0205292 8:-0.0124359 9:0.0845253 10:-0.0750982 
1 1:-0.172946 2:-0.344422 3:-0.199999 4:-0.0714286 5:0.583333 6:-0.230769 7:0.0205292 8:-0.0124359 9:0.0845253 10:-0.0750982 
1 1:-0.172946 2:-0.344422 3:-0.199999 5:0.416667 6:-0.230769 7:0.0205292 8:-0.0124359 9:0.0845253 10:-0.0750982 
1 1:-0.126341 2:0.048994 3:-0.714285 4:-1 5:-0.666667 6:-0.769231 7:-0.545859 8:0.0149093 9:-0.398149 10:-0.0750982 
1 1:-0.126341 2:0.048994 3:-0.714285 4:-0.928571 5:-0.583333 6:-0.769231 7:-0.545859 8:0.0149093 9:-0.398149 10:-0.0750982 
1 1:-0.0284526 2:-0.0157731 3:-0.416666 4:0.285714 5:0.416667 6:0.0769231 7:-0.151682 8:-0.398975 9:-0.0789545 10:-0.276679 
1 1:-0.0280844 2:-0.226289 3:-0.153844 4:-0.428571 5:-1 6:-0.307692 7:-0.319622 8:-0.279793 9:-0.315967 10:0.0179403 
1 1:-0.0280844 2:-0.226289 3:-0.153844 4:-0.357143 5:-1 6:-0.307692 7:-0.319622 8:-0.279793 9:-0.315967 10:0.0179403 
1 1:-0.0280844 2:-0.226289 3:-0.153844 4:-0.285714 5:-0.583333 6:-0.307692 7:-0.319622 8:-0.279793 9:-0.315967 10:0.0179403 
1 1:-0.076109 2:-0.181396 3:-0.277472 4:-0.214286 5:-0.583333 6:-0.307692 7:-0.319622 8:-0.279793 9:-0.315967 10:0.0179403 
1 1:-0.076109 2:-0.181396 3:-0.277472 4:-0.142857 5:0.583333 6:-0.307692 7:-0.319622 8:-0.279793 9:-0.315967 10:0.0179403 
1 1:-0.076109 2:-0.181396 3:-0.277472 4:-0.0714286 5:0.416667 6:-0.307692 7:-0.319622 8:-0.279793 9:-0.315967 10:0.0179403 
1 1:-0.126396 2:-0.0384309 3:-0.499999 4:-1 5:0.0833333 6:-0.461538 7:-0.364304 8:-0.17702 9:-0.322859 10:0.0348562 
1 1:-0.126396 2:-0.0384309 3:-0.499999 4:-0.928571 5:0.5 6:-0.461538 7:-0.364304 8:-0.17702 9:-0.322859 10:0.0348562 
1 1:-0.175386 2:-0.106725 3:-0.499999 4:-1 5:0.5 6:0.153846 7:0.28183 8:-0.124536 9:0.273662 10:-0.266069 
1 1:-0.175386 2:-0.106725 3:-0.499999 4:-0.928571 5:1 6:0.153846 7:0.28183 8:-0.124536 9:0.273662 10:-0.266069 
1 1:-0.0284217 2:0.115705 3:-0.499999 4:-0.142857 5:-0.0833333 6:0.153846 7:0.28183 8:-0.124536 9:0.273662 10:-0.266069 
1 1:-0.0284217 2:0.115705 3:-0.499999 4:-0.0714286 5:0.5 6:0.153846 7:0.28183 8:-0.124536 9:0.273662 10:-0.266069 
1 1:0.077641 2:-0.0261025 3:-0.421052 4:0.0714286 5:-0.666667 6:0.153846 7:0.28183 8:-0.124536 9:0.273662 10:-0.266069 
1 1:0.0694227 2:0.0351737 3:-0.421052 4:0.142857 5:-0.5 6:0.153846 7:0.28183 8:-0.124536 9:0.273662 10:-0.266069 
1 1:0.0694227 2:0.0351737 3:-0.421052 4:0.214286 5:0.5 6:0.153846 7:0.28183 8:-0.124536 9:0.273662 10:-0.266069 
1 1:0.0204679 2:0.0450192 3:-0.421052 4:0.285714 5:0.5 6:0.153846 7:0.28183 8:-0.124536 9:0.273662 10:-0.266069 
1 1:0.0204679 2:0.0450192 3:-0.421052 4:0.357143 5:-0.166667 6:0.153846 7:0.28183 8:-0.124536 9:0.273662 10:-0.266069 
1 1:-0.175301 2:-0.0799052 3:-0.499999 4:-1 5:-0.0833333 6:-0.615385 7:-0.395933 8:-0.0141337 9:-0.330354 10:-0.343873 
1 1:-0.175301 2:-0.0799052 3:-0.499999 4:-0.928571 5:-0.583333 6:-0.615385 7:-0.395933 8:-0.0141337 9:-0.330354 10:-0.343873 
1 1:-0.0610026 2:-0.00972144 3:-0.499999 4:-0.857143 5:-1 6:-0.615385 7:-0.395933 8:-0.0141337 9:-0.330354 10:-0.343873 
1 1:-0.126255 2:0.0168369 3:-0.499999 4:-0.5 5:0.75 6:-0.615385 7:-0.395933 8:-0.0141337 9:-0.330354 10:-0.343873 
1 1:-0.126255 2:0.0168369 3:-0.499999 4:-0.428571 5:-1 6:-0.615385 7:-0.395933 8:-0.0141337 9:-0.330354 10:-0.343873 
1 1:-0.126468 2:-0.0400801 3:-0.499999 4:-1 5:-1 6:-0.461538 7:-0.472002 8:-0.307684 9:-0.477577 10:-0.0750982 
1 1:-0.126468 2:-0.0400801 3:-0.499999 4:-0.928571 5:-0.583333 6:-0.461538 7:-0.472002 8:-0.307684 9:-0.477577 10:-0.0750982 
1 1:-0.12631 2:-0.0139696 3:-0.363636 4:-0.571429 5:-1 6:-0.461538 7:-0.472002 8:-0.307684 9:-0.477577 10:-0.0750982 
1 1:-0.12631 2:-0.0139696 3:-0.363636 4:-0.5 5:-0.75 6:-0.461538 7:-0.472002 8:-0.307684 9:-0.477577 10:-0.0750982 
1 1:-0.126375 2:-0.0273784 3:-0.499999 4:-0.571429 5:-1 6:-0.615385 7:-0.452985 8:-0.0971958 9:-0.386786 10:-0.0750982 
1 1:-0.126375 2:-0.0273784 3:-0.499999 4:-0.5 5:-0.75 6:-0.615385 7:-0.452985 8:-0.0971958 9:-0.386786 10:-0.0750982 
1 1:-0.126274 2:-0.000767908 3:-0.499999 4:-0.428571 5:-0.0833333 6:-0.615385 7:-0.452985 8:-0.0971958 9:-0.386786 10:-0.0750982 
1 1:-0.0752953 2:-0.162917 3:-0.0499995 4:-0.357143 5:-0.166667 6:-0.615385 7:-0.452985 8:-0.0971958 9:-0.386786 10:-0.0750982 
1 1:-0.158953 2:-0.162126 3:-0.363636 4:-1 6:-0.461538 7:-0.411832 8:-0.234683 9:-0.433019 10:0.254763 
1 1:-0.158953 2:-0.162126 3:-0.363636 4:-0.928571 5:0.5 6:-0.461538 7:-0.411832 8:-0.234683 9:-0.433019 10:0.254763 
1 1:-0.0772226 2:0.109542 3:-0.499999 4:-0.642857 5:-0.0833333 6:-0.769231 7:-0.434067 8:0.218357 9:-0.301868 10:-0.247883 
1 1:-0.077448 2:0.0540615 3:-0.499999 4:-0.571429 5:0.416667 6:-0.769231 7:-0.434067 8:0.218357 9:-0.301868 10:-0.247883 
1 1:-0.077448 2:0.0540615 3:-0.499999 4:-0.5 5:-0.166667 6:-0.769231 7:-0.434067 8:0.218357 9:-0.301868 10:-0.247883 
1 1:-0.12807 2:-0.293011 3:-0.404545 4:-0.428571 5:0.5 6:-0.461538 7:-0.503304 8:-0.345661 9:-0.533984 10:0.364715 
1 1:-0.12807 2:-0.293011 3:-0.404545 4:-0.357143 5:-1 6:-0.461538 7:-0.503304 8:-0.345661 9:-0.533984 10:0.364715 
1 1:-0.175386 2:-0.106725 3:-0.499999 4:-1 5:0.583333 6:-0.615385 7:-0.547124 8:-0.234252 9:-0.483567 10:0.0592902 
1 1:-0.175386 2:-0.106725 3:-0.499999 4:-0.928571 5:-1 6:-0.615385 7:-0.547124 8:-0.234252 9:-0.483567 10:0.0592902 
1 1:-0.175386 2:-0.106725 3:-0.499999 4:-1 5:-0.75 6:-0.692308 7:-0.577884 8:-0.174296 9:-0.460138 10:0.0760876 
1 1:-0.175386 2:-0.106725 3:-0.499999 4:-0.928571 5:-0.583333 6:-0.692308 7:-0.577884 8:-0.174296 9:-0.460138 10:0.0760876 
1 1:-0.126326 2:-0.0192224 3:-0.312499 4:-0.785714 5:0.0833333 6:-0.692308 7:-0.577884 8:-0.174296 9:-0.460138 10:0.0760876 
1 1:-0.126326 2:-0.0192224 3:-0.312499 4:-0.714286 5:-0.583333 6:-0.692308 7:-0.577884 8:-0.174296 9:-0.460138 10:0.0760876 
1 1:-0.109791 2:-0.124384 3:-0.312499 4:-0.642857 5:-0.0833333 6:-0.692308 7:-0.577884 8:-0.174296 9:-0.460138 10:0.0760876 
1 1:0.00436957 2:-0.0420016 3:-0.499999 4:-0.785714 5:-0.666667 6:-0.769231 7:-0.609229 8:-0.100415 9:-0.568589 10:-0.420666 
1 1:0.00436957 2:-0.0420016 3:-0.499999 4:-0.714286 5:0.75 6:-0.769231 7:-0.609229 8:-0.100415 9:-0.568589 10:-0.420666 
1 1:0.0370981 2:0.0630629 3:-0.285714 4:-0.5 5:0.416667 6:-0.769231 7:-0.609229 8:-0.100415 9:-0.568589 10:-0.420666 
1 1:-0.00371797 2:0.0293975 3:-0.285714 4:-0.642857 5:0.25 6:-0.769231 7:-0.63086 8:-0.139781 9:-0.559824 10:-0.247883 
1 1:-0.00371797 2:0.0293975 3:-0.285714 4:-0.571429 5:-1 6:-0.769231 7:-0.63086 8:-0.139781 9:-0.559824 10:-0.247883 
1 1:-0.126472 2:-0.046586 3:-0.499999 4:-0.5 5:-1 6:-0.615385 7:-0.433968 8:-0.0695093 9:-0.374939 10:0.0592902 
1 1:-0.126472 2:-0.046586 3:-0.499999 4:-0.428571 5:-0.666667 6:-0.615385 7:-0.433968 8:-0.0695093 9:-0.374939 10:0.0592902 
1 1:-0.124244 2:-0.0781038 3:-0.333333 4:-0.357143 5:-0.166667 6:-0.615385 7:-0.433968 8:-0.0695093 9:-0.374939 10:0.0592902 
1 1:-0.175386 2:-0.106725 3:-0.499999 4:-1 5:-0.583333 6:-0.230769 7:-0.303044 8:-0.326495 9:-0.249322 10:-0.161489 
1 1:-0.0775768 2:0.0380636 3:-0.392856 4:-0.785714 5:1 6:-0.230769 7:-0.303044 8:-0.326495 9:-0.249322 10:-0.161489 
1 1:0.0203332 2:0.126744 3:-0.499999 4:-0.714286 5:0.0833333 6:-0.230769 7:-0.303044 8:-0.326495 9:-0.249322 10:-0.161489 
1 1:0.0204182 2:-0.0920543 3:-0.285714 4:-0.642857 5:0.25 6:-0.230769 7:-0.303044 8:-0.326495 9:-0.249322 10:-0.161489 
1 1:0.0204182 2:-0.0920543 3:-0.285714 4:-0.571429 5:-0.0833333 6:-0.230769 7:-0.303044 8:-0.326495 9:-0.249322 10:-0.161489 
1 1:0.0186082 2:0.11327 3:-0.491758 4:-0.5 5:-1 6:-0.230769 7:-0.303044 8:-0.326495 9:-0.249322 10:-0.161489 
1 1:-0.0793545 2:-0.0421249 3:-0.491758 4:-0.428571 5:-0.5 6:-0.230769 7:-0.303044 8:-0.326495 9:-0.249322 10:-0.161489 
1 1:-0.0793545 2:-0.0421249 3:-0.491758 4:-0.357143 5:-0.5 6:-0.230769 7:-0.303044 8:-0.326495 9:-0.249322 10:-0.161489 
1 1:0.116608 2:-0.111612 3:-0.376373 4:-0.285714 5:-0.0833333 6:-0.230769 7:-0.303044 8:-0.326495 9:-0.249322 10:-0.161489 
1 1:0.167061 2:0.186129 3:-0.392856 4:-0.214286 5:-0.0833333 6:-0.230769 7:-0.303044 8:-0.326495 9:-0.249322 10:-0.161489 
1 1:-0.0774412 2:0.0612868 3:-0.499999 4:-0.142857 5:0.583333 6:-0.230769 7:-0.303044 8:-0.326495 9:-0.249322 10:-0.161489 
1 1:-0.0774412 2:0.0612868 3:-0.499999 4:-0.0714286 5:-0.5 6:-0.230769 7:-0.303044 8:-0.326495 9:-0.249322 10:-0.161489 
1 1:0.069234 2:0.125697 3:-0.392856 5:-0.166667 6:-0.230769 7:-0.303044 8:-0.326495 9:-0.249322 10:-0.161489 
1 1:-0.142542 2:0.0191089 3:-0.499999 4:-0.714286 5:0.25 6:-0.692308 7:-0.46471 8:0.00878178 9:-0.359437 10:0.0760876 
1 1:-0.142542 2:0.0191089 3:-0.499999 4:-0.642857 5:-0.666667 6:-0.692308 7:-0.46471 8:0.00878178 9:-0.359437 10:0.0760876 
1 1:-0.142542 2:0.0191089 3:-0.499999 4:-0.571429 5:0.75 6:-0.692308 7:-0.46471 8:0.00878178 9:-0.359437 10:0.0760876 
1 1:-0.116316 2:-0.168264 3:-0.145831 4:-0.5 5:-0.666667 6:-0.692308 7:-0.46471 8:0.00878178 9:-0.359437 10:0.0760876 
1 1:-0.175306 2:-0.077422 3:-0.199999 4:-0.928571 5:1 6:-0.923077 7:-0.847784 8:-0.30551 9:-0.7812 10:0.408696 
1 1:-0.126375 2:-0.0367117 3:-0.499999 4:-1 5:-1 6:-0.538462 7:-0.511705 8:-0.277141 9:-0.492057 10:-0.0750982 
1 1:-0.126375 2:-0.0367117 3:-0.499999 4:-0.928571 5:0.75 6:-0.538462 7:-0.511705 8:-0.277141 9:-0.492057 10:-0.0750982 
1 1:-0.0363123 2:-0.20986 3:-0.0499995 4:-0.571429 5:0.5 6:-0.538462 7:-0.511705 8:-0.277141 9:-0.492057 10:-0.0750982 
1 1:-0.0363123 2:-0.20986 3:-0.0499995 4:-0.5 5:-0.666667 6:-0.538462 7:-0.511705 8:-0.277141 9:-0.492057 10:-0.0750982 
1 1:-0.165724 2:-0.223484 3:-0.227272 4:-0.428571 5:-0.75 6:-0.538462 7:-0.511705 8:-0.277141 9:-0.492057 10:-0.0750982 
1 1:-0.165724 2:-0.223484 3:-0.227272 4:-0.357143 5:-0.166667 6:-0.538462 7:-0.511705 8:-0.277141 9:-0.492057 10:-0.0750982 
1 1:-0.0188997 2:-0.110062 3:-0.0909075 4:-0.285714 5:-0.166667 6:-0.538462 7:-0.511705 8:-0.277141 9:-0.492057 10:-0.0750982 
1 1:-0.0774204 2:0.0329531 3:-0.499999 4:-1 5:-0.5 6:-0.461538 7:-0.179001 8:0.0477985 9:-0.1502 10:-0.185053 
1 1:-0.0774204 2:0.0329531 3:-0.499999 4:-0.928571 5:0.5 6:-0.461538 7:-0.179001 8:0.0477985 9:-0.1502 10:-0.185053 
1 1:-0.126352 2:-0.0350983 3:-0.499999 4:-1 5:0.833333 6:-0.692308 7:-0.508633 8:-0.0622721 9:-0.441022 10:0.0760876 
1 1:-0.126352 2:-0.0350983 3:-0.499999 4:-0.928571 5:-0.75 6:-0.692308 7:-0.508633 8:-0.0622721 9:-0.441022 10:0.0760876 
1 1:-0.126391 2:-0.0353675 3:-0.499999 4:-1 5:-1 6:0.230769 7:-0.0658754 8:-0.417841 9:-0.0300644 10:-0.0750982 
1 1:-0.126391 2:-0.0353675 3:-0.499999 4:-0.928571 5:0.0833333 6:0.230769 7:-0.0658754 8:-0.417841 9:-0.0300644 10:-0.0750982 
1 1:-0.126325 2:-0.0127874 3:-0.424999 4:-0.857143 5:-0.0833333 6:0.230769 7:-0.0658754 8:-0.417841 9:-0.0300644 10:-0.0750982 
1 1:-0.126325 2:-0.0127874 3:-0.424999 4:-0.785714 5:0.75 6:0.230769 7:-0.0658754 8:-0.417841 9:-0.0300644 10:-0.0750982 
1 1:-0.175386 2:-0.106725 3:-0.499999 4:-0.714286 5:-1 6:0.230769 7:-0.0658754 8:-0.417841 9:-0.0300644 10:-0.0750982 
1 1:-0.175386 2:-0.106725 3:-0.499999 4:-0.642857 5:1 6:0.230769 7:-0.0658754 8:-0.417841 9:-0.0300644 10:-0.0750982 
1 1:-0.126469 2:-0.0554439 3:-0.499999 4:-0.571429 5:-0.416667 6:0.230769 7:-0.0658754 8:-0.417841 9:-0.0300644 10:-0.0750982 
1 1:-0.0610393 2:-0.105745 3:-0.349999 4:-0.5 5:-0.75 6:0.230769 7:-0.0658754 8:-0.417841 9:-0.0300644 10:-0.0750982 
1 1:-0.0120406 2:-0.033497 3:-0.424999 4:-0.428571 5:0.5 6:0.230769 7:-0.0658754 8:-0.417841 9:-0.0300644 10:-0.0750982 
1 1:0.0859699 2:0.118909 3:-0.424999 4:-0.357143 5:-0.0833333 6:0.230769 7:-0.0658754 8:-0.417841 9:-0.0300644 10:-0.0750982 
1 1:0.0860225 2:0.135866 3:-0.424999 4:-0.285714 6:0.230769 7:-0.0658754 8:-0.417841 9:-0.0300644 10:-0.0750982 
1 1:0.11874 2:0.0490461 3:-0.424999 4:-0.142857 5:0.25 6:0.230769 7:-0.0658754 8:-0.417841 9:-0.0300644 10:-0.0750982 
1 1:0.11874 2:0.0490461 3:-0.424999 4:-0.0714286 5:-0.75 6:0.230769 7:-0.0658754 8:-0.417841 9:-0.0300644 10:-0.0750982 
1 1:0.151404 2:0.0461309 3:-0.424999 4:0.142857 5:0.75 6:0.230769 7:-0.0658754 8:-0.417841 9:-0.0300644 10:-0.0750982 
1 1:0.0370885 2:-0.0114862 3:-0.349999 4:0.214286 5:-0.666667 6:0.230769 7:-0.0658754 8:-0.417841 9:-0.0300644 10:-0.0750982 
1 1:-0.116885 2:-0.170553 3:-0.357142 4:0.285714 5:-0.583333 6:0.230769 7:-0.0658754 8:-0.417841 9:-0.0300644 10:-0.0750982 
1 1:-0.116885 2:-0.170553 3:-0.357142 4:0.357143 5:-0.583333 6:0.230769 7:-0.0658754 8:-0.417841 9:-0.0300644 10:-0.0750982 
1 1:-0.116885 2:-0.170553 3:-0.357142 4:0.428571 5:0.416667 6:0.230769 7:-0.0658754 8:-0.417841 9:-0.0300644 10:-0.0750982 
1 1:-0.175386 2:-0.106725 3:-0.499999 4:-1 5:-0.0833333 6:-0.615385 7:-0.621837 8:-0.343027 9:-0.602142 10:0.193676 
1 1:-0.175386 2:-0.106725 3:-0.499999 4:-0.928571 5:-1 6:-0.615385 7:-0.621837 8:-0.343027 9:-0.602142 10:0.193676 
1 1:-0.126372 2:-0.107131 3:-0.333333 4:-0.857143 5:0.75 6:-0.615385 7:-0.621837 8:-0.343027 9:-0.602142 10:0.193676 
1 1:-0.175382 2:-0.105554 3:-0.499999 4:-1 5:0.75 6:-0.384615 7:-0.339278 8:-0.229352 9:-0.206765 10:0.0256931 
1 1:-0.175386 2:-0.106725 3:-0.499999 4:-0.928571 5:-0.583333 6:-0.384615 7:-0.339278 8:-0.229352 9:-0.206765 10:0.0256931 
1 1:-0.175386 2:-0.106725 3:-0.499999 4:-0.857143 5:0.0833333 6:-0.384615 7:-0.339278 8:-0.229352 9:-0.206765 10:0.0256931 
1 1:-0.126134 2:0.0446958 3:-0.374999 4:-0.785714 5:0.75 6:-0.384615 7:-0.339278 8:-0.229352 9:-0.206765 10:0.0256931 
1 1:-0.126134 2:0.0446958 3:-0.374999 4:-0.714286 5:-0.583333 6:-0.384615 7:-0.339278 8:-0.229352 9:-0.206765 10:0.0256931 
1 1:-0.0772978 2:0.0734142 3:-0.374999 4:-0.642857 5:-0.833333 6:-0.384615 7:-0.339278 8:-0.229352 9:-0.206765 10:0.0256931 
1 1:-0.0772978 2:0.0734142 3:-0.374999 4:-0.571429 5:-0.0833333 6:-0.384615 7:-0.339278 8:-0.229352 9:-0.206765 10:0.0256931 
1 1:-0.0281654 2:-0.148803 3:-0.374999 4:-0.428571 5:-0.5 6:-0.384615 7:-0.339278 8:-0.229352 9:-0.206765 10:0.0256931 
1 1:-0.0281654 2:-0.148803 3:-0.374999 4:-0.357143 5:0.0833333 6:-0.384615 7:-0.339278 8:-0.229352 9:-0.206765 10:0.0256931 
1 1:-0.0267314 2:-0.0685521 3:-0.144229 4:-0.285714 5:0.75 6:-0.384615 7:-0.339278 8:-0.229352 9:-0.206765 10:0.0256931 
1 1:-0.124709 2:-0.0707147 3:-0.259615 4:-0.214286 5:-0.666667 6:-0.384615 7:-0.339278 8:-0.229352 9:-0.206765 10:0.0256931 
1 1:-0.124709 2:-0.0707147 3:-0.259615 4:-0.142857 5:-0.166667 6:-0.384615 7:-0.339278 8:-0.229352 9:-0.206765 10:0.0256931 
1 1:-0.0773818 2:-0.0406467 3:-0.349999 4:-1 5:0.25 6:-0.538462 7:-0.546749 8:-0.323523 9:-0.492783 10:0.166799 
1 1:-0.0773818 2:-0.0406467 3:-0.349999 4:-0.928571 5:1 6:-0.538462 7:-0.546749 8:-0.323523 9:-0.492783 10:0.166799 
1 1:-0.126624 2:-0.00858226 3:-0.499999 4:-0.5 5:-1 6:-0.538462 7:-0.546749 8:-0.323523 9:-0.492783 10:0.166799 
1 1:-0.126624 2:-0.00858226 3:-0.499999 4:-0.428571 5:0.0833333 6:-0.538462 7:-0.546749 8:-0.323523 9:-0.492783 10:0.166799 
1 1:-0.126624 2:-0.00858226 3:-0.499999 4:-0.357143 5:0.75 6:-0.538462 7:-0.546749 8:-0.323523 9:-0.492783 10:0.166799 
1 1:-0.126624 2:-0.00858226 3:-0.499999 4:-0.285714 5:0.416667 6:-0.538462 7:-0.546749 8:-0.323523 9:-0.492783 10:0.166799 
1 1:-0.012056 2:-0.0381629 3:-0.363636 4:-0.714286 5:0.416667 6:-0.461538 7:-0.370463 8:-0.184493 9:-0.252566 10:0.0348562 
1 1:-0.0612121 2:-0.00463281 3:-0.227272 4:-0.428571 5:0.75 6:-0.461538 7:-0.370463 8:-0.184493 9:-0.252566 10:0.0348562 
1 1:-0.0283923 2:0.0996907 3:-0.363636 4:-0.357143 5:0.25 6:-0.461538 7:-0.370463 8:-0.184493 9:-0.252566 10:0.0348562 
1 1:-0.173806 2:-0.106725 3:-0.363636 4:-0.285714 5:0.0833333 6:-0.461538 7:-0.370463 8:-0.184493 9:-0.252566 10:0.0348562 
1 1:-0.150834 2:-0.102324 3:-0.499999 4:-0.571429 5:-0.75 6:-0.615385 7:-0.480272 8:-0.136924 9:-0.436481 10:0.193676 
1 1:-0.150834 2:-0.102324 3:-0.499999 4:-0.5 5:-0.0833333 6:-0.615385 7:-0.480272 8:-0.136924 9:-0.436481 10:0.193676 
1 1:-0.126378 2:-0.0180367 3:-0.499999 4:-1 5:0.583333 6:-0.230769 7:-0.152494 8:-0.180372 9:-0.0503065 10:-0.0750982 
1 1:-0.126378 2:-0.0180367 3:-0.499999 4:-0.928571 5:0.25 6:-0.230769 7:-0.152494 8:-0.180372 9:-0.0503065 10:-0.0750982 
1 1:-0.126378 2:-0.0180367 3:-0.499999 4:-0.857143 5:-1 6:-0.230769 7:-0.152494 8:-0.180372 9:-0.0503065 10:-0.0750982 
1 1:-0.126378 2:-0.0180367 3:-0.499999 4:-0.785714 5:-0.0833333 6:-0.230769 7:-0.152494 8:-0.180372 9:-0.0503065 10:-0.0750982 
1 1:-0.0286288 2:0.126336 3:-0.392856 4:-0.714286 5:0.75 6:-0.230769 7:-0.152494 8:-0.180372 9:-0.0503065 10:-0.0750982 
1 1:0.0693797 2:0.0750317 3:-0.392856 4:-0.5 5:1 6:-0.230769 7:-0.152494 8:-0.180372 9:-0.0503065 10:-0.0750982 
1 1:0.0692953 2:-0.100885 3:-0.392856 4:-0.428571 5:-0.0833333 6:-0.230769 7:-0.152494 8:-0.180372 9:-0.0503065 10:-0.0750982 
1 1:0.0692953 2:-0.100885 3:-0.392856 4:-0.357143 5:0.0833333 6:-0.230769 7:-0.152494 8:-0.180372 9:-0.0503065 10:-0.0750982 
1 1:0.0203043 2:-0.121047 3:-0.285714 4:-0.285714 5:0.0833333 6:-0.230769 7:-0.152494 8:-0.180372 9:-0.0503065 10:-0.0750982 
1 1:-0.0775744 2:-0.195838 3:-0.392856 4:-0.214286 5:0.583333 6:-0.230769 7:-0.152494 8:-0.180372 9:-0.0503065 10:-0.0750982 
1 1:-0.0775744 2:-0.195838 3:-0.392856 4:-0.142857 5:-0.75 6:-0.230769 7:-0.152494 8:-0.180372 9:-0.0503065 10:-0.0750982 
1 1:-0.0265099 2:-0.113235 3:-0.199999 4:-0.0714286 5:-0.583333 6:-0.230769 7:-0.152494 8:-0.180372 9:-0.0503065 10:-0.0750982 
1 1:-0.0265099 2:-0.113235 3:-0.199999 5:-0.166667 6:-0.230769 7:-0.152494 8:-0.180372 9:-0.0503065 10:-0.0750982 
1 1:-0.126339 2:-0.0322261 3:-0.499999 4:-0.928571 5:-0.0833333 6:-0.692308 7:-0.564831 8:-0.153182 9:-0.50399 10:0.0760876 
1 1:-0.0202888 2:0.0319591 3:-0.285714 4:-0.714286 5:-0.416667 6:-0.769231 7:-0.7133 8:-0.289812 9:-0.655293 10:-0.0750982 
1 1:-0.0284816 2:0.103203 3:-0.499999 4:-0.642857 5:-0.0833333 6:-0.769231 7:-0.7133 8:-0.289812 9:-0.655293 10:-0.0750982 
1 1:-0.0284816 2:0.103203 3:-0.499999 4:-0.571429 6:-0.769231 7:-0.7133 8:-0.289812 9:-0.655293 10:-0.0750982 
1 1:-0.0201735 2:0.00396706 3:-0.285714 4:-0.5 5:-0.166667 6:-0.769231 7:-0.7133 8:-0.289812 9:-0.655293 10:-0.0750982 
1 1:-0.156676 2:-0.213667 3:-0.249999 4:-0.357143 5:1 6:-0.461538 7:-0.173074 8:0.0549898 9:-0.190691 10:-0.0750982 
1 1:-0.156698 2:-0.218271 3:-0.249999 4:-0.285714 5:-0.75 6:-0.461538 7:-0.173074 8:0.0549898 9:-0.190691 10:-0.0750982 
1 1:-0.156698 2:-0.218271 3:-0.249999 4:-0.214286 5:-0.166667 6:-0.461538 7:-0.173074 8:0.0549898 9:-0.190691 10:-0.0750982 
1 1:-0.126379 2:-0.0373944 3:-0.499999 4:-1 5:0.75 6:-0.846154 7:-0.697122 8:-0.123039 9:-0.61401 10:0.126482 
1 1:-0.126379 2:-0.0373944 3:-0.499999 4:-0.928571 5:-0.0833333 6:-0.846154 7:-0.697122 8:-0.123039 9:-0.61401 10:0.126482 
1 1:-0.0284811 2:-0.0407427 3:-0.333333 4:-0.357143 5:0.416667 6:-0.615385 7:-0.67891 8:-0.426119 9:-0.68653 10:0.0592902 
1 1:-0.175386 2:-0.106725 3:-0.499999 4:-1 5:-1 6:-0.615385 7:-0.656498 8:-0.393491 9:-0.677287 10:0.328065 
1 1:-0.175386 2:-0.106725 3:-0.499999 4:-0.928571 5:-0.0833333 6:-0.615385 7:-0.656498 8:-0.393491 9:-0.677287 10:0.328065 
1 1:-0.126327 2:-0.0175795 3:-0.499999 4:-0.928571 5:-0.666667 6:-0.538462 7:-0.376745 8:-0.0985161 9:-0.303909 10:0.166799 
1 1:-0.126506 2:-0.0416423 3:-0.499999 4:-1 5:-1 6:-0.230769 7:0.164107 8:0.12692 9:0.248298 10:0.184078 
1 1:-0.175342 2:-0.100265 3:-0.499999 4:-0.928571 5:-0.5 6:-0.230769 7:0.164107 8:0.12692 9:0.248298 10:0.184078 
1 1:-0.175342 2:-0.100265 3:-0.499999 4:-0.857143 5:-0.5 6:-0.230769 7:0.164107 8:0.12692 9:0.248298 10:0.184078 
1 1:-0.175342 2:-0.100265 3:-0.499999 4:-0.785714 5:-1 6:-0.230769 7:0.164107 8:0.12692 9:0.248298 10:0.184078 
1 1:-0.175386 2:-0.106725 3:-0.499999 4:-1 5:0.25 6:-0.153846 7:0.162049 8:0.0407598 9:-0.0195542 10:-0.15573 
1 1:-0.175386 2:-0.106725 3:-0.499999 4:-0.928571 5:0.5 6:-0.153846 7:0.162049 8:0.0407598 9:-0.0195542 10:-0.15573 
1 1:-0.0773056 2:-0.162727 3:-0.249999 4:-0.357143 5:-0.75 6:-0.384615 7:-0.339718 8:-0.229845 9:-0.289132 10:0.126482 
1 1:0.0204148 2:0.0311186 3:-0.357142 4:-0.5 5:0.75 6:0.307692 7:-0.0951127 8:-0.473728 9:-0.128706 10:-0.0750982 
1 1:0.0204148 2:0.0311186 3:-0.357142 4:-0.428571 5:-1 6:0.307692 7:-0.0951127 8:-0.473728 9:-0.128706 10:-0.0750982 
1 1:0.0204206 2:0.0335921 3:-0.428571 4:-0.357143 5:1 6:0.307692 7:-0.0951127 8:-0.473728 9:-0.128706 10:-0.0750982 
1 1:0.0694627 2:-0.0246104 3:-0.285714 4:-0.214286 5:-1 6:0.307692 7:-0.0951127 8:-0.473728 9:-0.128706 10:-0.0750982 
1 1:-0.0773789 2:0.0517148 3:-0.499999 4:-0.142857 5:0.75 6:0.307692 7:-0.0951127 8:-0.473728 9:-0.128706 10:-0.0750982 
1 1:-0.0773789 2:0.0517148 3:-0.499999 4:-0.0714286 5:0.333333 6:0.307692 7:-0.0951127 8:-0.473728 9:-0.128706 10:-0.0750982 
1 1:-0.175252 2:-0.0849071 3:-0.499999 4:0.214286 5:-0.0833333 6:0.307692 7:-0.0951127 8:-0.473728 9:-0.128706 10:-0.0750982 
1 1:-0.175252 2:-0.0849071 3:-0.499999 4:0.285714 6:0.307692 7:-0.0951127 8:-0.473728 9:-0.128706 10:-0.0750982 
1 1:-0.0284768 2:-0.0356056 3:-0.428571 4:0.357143 5:-0.5 6:0.307692 7:-0.0951127 8:-0.473728 9:-0.128706 10:-0.0750982 
1 1:-0.0284768 2:-0.0356056 3:-0.428571 4:0.428571 5:-0.75 6:0.307692 7:-0.0951127 8:-0.473728 9:-0.128706 10:-0.0750982 
1 1:0.0204264 2:0.0338803 3:-0.428571 4:0.5 5:-0.166667 6:0.307692 7:-0.0951127 8:-0.473728 9:-0.128706 10:-0.0750982 
1 1:-0.175345 2:-0.179786 3:-0.349999 4:-1 5:0.0833333 6:-0.538462 7:-0.26491 8:0.0495027 9:-0.163117 10:0.529645 
1 1:-0.175345 2:-0.179786 3:-0.349999 4:-0.928571 5:-0.0833333 6:-0.538462 7:-0.26491 8:0.0495027 9:-0.163117 10:0.529645 
1 1:-0.126374 2:-0.00884856 3:0.1 4:-1 5:1 6:-0.923077 7:-0.924163 8:-0.490844 9:-0.899928 10:0.166799 
0.2262046193942677 1:-0.126374 2:-0.00884856 3:0.1 4:-0.928571 5:0.5 6:-0.923077 7:-0.924163 8:-0.490844 9:-0.899928 10:0.166799 
1 1:-0.175372 2:-0.102782 3:-0.199999 4:-0.857143 5:-0.666667 6:-0.923077 7:-0.924163 8:-0.490844 9:-0.899928 10:0.166799 
1 1:-0.175372 2:-0.102782 3:-0.199999 4:-0.785714 5:0.5 6:-0.923077 7:-0.924163 8:-0.490844 9:-0.899928 10:0.166799 
1 1:-0.12638 2:-0.0107923 3:-0.499999 4:-0.714286 5:0.75 6:-0.923077 7:-0.924163 8:-0.490844 9:-0.899928 10:0.166799 
1 1:-0.126273 2:0.000553035 3:-0.499999 4:-1 5:-0.666667 6:-0.692308 7:-0.486317 8:-0.0261714 9:-0.376197 10:0.0760876 
1 1:-0.126273 2:0.000553035 3:-0.499999 4:-0.928571 5:0.333333 6:-0.692308 7:-0.486317 8:-0.0261714 9:-0.376197 10:0.0760876 
1 1:-0.165388 2:-0.261593 3:-0.145831 4:-0.571429 5:-0.666667 6:-0.692308 7:-0.486317 8:-0.0261714 9:-0.376197 10:0.0760876 
1 1:-0.165388 2:-0.261593 3:-0.145831 4:-0.5 5:-0.0833333 6:-0.692308 7:-0.486317 8:-0.0261714 9:-0.376197 10:0.0760876 
1 1:-0.165388 2:-0.261593 3:-0.145831 4:-0.428571 5:-0.166667 6:-0.692308 7:-0.486317 8:-0.0261714 9:-0.376197 10:0.0760876 
1 1:-0.167309 2:-0.206203 3:-0.312499 4:-1 5:0.583333 6:-0.692308 7:-0.444412 8:0.0416172 9:-0.35994 10:0.378459 
1 1:-0.167309 2:-0.206203 3:-0.312499 4:-0.928571 5:-0.75 6:-0.692308 7:-0.444412 8:0.0416172 9:-0.35994 10:0.378459 
1 1:-0.0774195 2:0.0492582 3:-0.499999 4:-1 5:-0.0833333 6:-0.615385 7:-0.415319 8:-0.0423581 9:-0.392452 10:-0.209487 
1 1:-0.0774195 2:0.0492582 3:-0.499999 4:-0.928571 5:-1 6:-0.615385 7:-0.415319 8:-0.0423581 9:-0.392452 10:-0.209487 
1 1:-0.0773538 2:0.0628769 3:-0.499999 4:-0.857143 5:-1 6:-0.615385 7:-0.415319 8:-0.0423581 9:-0.392452 10:-0.209487 
1 1:-0.0773538 2:0.0628769 3:-0.499999 4:-0.785714 5:1 6:-0.615385 7:-0.415319 8:-0.0423581 9:-0.392452 10:-0.209487 
1 1:-0.0773693 2:0.0578658 3:-0.499999 4:-0.571429 5:-0.666667 6:-0.615385 7:-0.415319 8:-0.0423581 9:-0.392452 10:-0.209487 
1 1:-0.0773693 2:0.0578658 3:-0.499999 4:-0.5 5:0.75 6:-0.615385 7:-0.415319 8:-0.0423581 9:-0.392452 10:-0.209487 
1 1:-0.0773693 2:0.0578658 3:-0.499999 4:-0.428571 5:-0.5 6:-0.615385 7:-0.415319 8:-0.0423581 9:-0.392452 10:-0.209487 
1 1:-0.0936308 2:-0.106725 3:-0.421052 4:-0.857143 5:0.0833333 6:0.153846 7:0.651436 8:0.144518 9:0.685887 10:-0.138756 
1 1:-0.00370832 2:-0.106725 3:-0.342105 4:-0.785714 5:-0.666667 6:0.153846 7:0.651436 8:0.144518 9:0.685887 10:-0.138756 
1 1:-0.126352 2:-0.0264957 3:-0.421052 4:0.142857 5:-0.0833333 6:0.153846 7:0.651436 8:0.144518 9:0.685887 10:-0.138756 
1 1:-0.126352 2:-0.0264957 3:-0.421052 4:0.214286 5:0.583333 6:0.153846 7:0.651436 8:0.144518 9:0.685887 10:-0.138756 
1 1:-0.0775488 2:0.0354767 3:-0.499999 4:-1 5:0.583333 6:-0.230769 7:-0.469073 8:-0.487644 9:-0.496822 10:-0.0750982 
1 1:-0.0775488 2:0.0354767 3:-0.499999 4:-0.928571 5:1 6:-0.230769 7:-0.469073 8:-0.487644 9:-0.496822 10:-0.0750982 
1 1:-0.0775488 2:0.0354767 3:-0.499999 4:-0.857143 5:-0.75 6:-0.230769 7:-0.469073 8:-0.487644 9:-0.496822 10:-0.0750982 
1 1:0.028527 2:0.0476871 3:-0.392856 4:-0.785714 5:0.25 6:-0.230769 7:-0.469073 8:-0.487644 9:-0.496822 10:-0.0750982 
1 1:0.028527 2:0.0476871 3:-0.392856 4:-0.714286 5:0.5 6:-0.230769 7:-0.469073 8:-0.487644 9:-0.496822 10:-0.0750982 
1 1:0.0774798 2:0.0492687 3:-0.285714 4:-0.642857 5:-0.5 6:-0.230769 7:-0.469073 8:-0.487644 9:-0.496822 10:-0.0750982 
1 1:0.126493 2:-0.0990264 3:-0.392856 4:-0.5 5:0.5 6:-0.230769 7:-0.469073 8:-0.487644 9:-0.496822 10:-0.0750982 
1 1:0.118413 2:-0.0883114 3:-0.392856 4:-0.428571 5:0.583333 6:-0.230769 7:-0.469073 8:-0.487644 9:-0.496822 10:-0.0750982 
1 1:0.118413 2:-0.0883114 3:-0.392856 4:-0.357143 5:-0.0833333 6:-0.230769 7:-0.469073 8:-0.487644 9:-0.496822 10:-0.0750982 
1 1:-0.0282996 2:-0.138739 3:-0.392856 4:-0.285714 5:0.25 6:-0.230769 7:-0.469073 8:-0.487644 9:-0.496822 10:-0.0750982 
1 1:-0.0282996 2:-0.138739 3:-0.392856 4:-0.214286 5:0.583333 6:-0.230769 7:-0.469073 8:-0.487644 9:-0.496822 10:-0.0750982 
1 1:-0.0282996 2:-0.138739 3:-0.392856 4:-0.142857 5:-0.833333 6:-0.230769 7:-0.469073 8:-0.487644 9:-0.496822 10:-0.0750982 
1 1:-0.0282996 2:-0.138739 3:-0.392856 4:-0.0714286 5:0.5 6:-0.230769 7:-0.469073 8:-0.487644 9:-0.496822 10:-0.0750982 
1 1:0.0203878 2:0.047647 3:-0.392856 5:-0.166667 6:-0.230769 7:-0.469073 8:-0.487644 9:-0.496822 10:-0.0750982 
1 1:-0.118136 2:-0.172248 3:-0.384615 4:-0.857143 5:1 6:-0.307692 7:-0.357535 8:-0.31922 9:-0.34904 10:0.110976 
1 1:-0.118136 2:-0.172248 3:-0.384615 4:-0.785714 5:-0.666667 6:-0.307692 7:-0.357535 8:-0.31922 9:-0.34904 10:0.110976 
1 1:-0.126282 2:-0.0114764 3:-0.384615 4:-0.714286 5:0.333333 6:-0.307692 7:-0.357535 8:-0.31922 9:-0.34904 10:0.110976 
1 1:-0.126282 2:-0.0114764 3:-0.384615 4:-0.642857 6:-0.307692 7:-0.357535 8:-0.31922 9:-0.34904 10:0.110976 
1 1:-0.0701896 2:-0.0190251 3:-0.51923 4:-0.285714 5:-1 6:-0.307692 7:-0.357535 8:-0.31922 9:-0.34904 10:0.110976 
1 1:-0.0701896 2:-0.0190251 3:-0.51923 4:-0.214286 5:-0.5 6:-0.307692 7:-0.357535 8:-0.31922 9:-0.34904 10:0.110976 
1 1:-0.175283 2:-0.0744957 3:-0.312499 4:-0.571429 5:-0.5 6:-0.692308 7:-0.527684 8:-0.0930889 9:-0.414101 10:-0.226284 
1 1:-0.175283 2:-0.0744957 3:-0.312499 4:-0.5 5:-0.0833333 6:-0.692308 7:-0.527684 8:-0.0930889 9:-0.414101 10:-0.226284 
1 1:-0.175373 2:-0.104611 3:-0.384615 4:-0.428571 5:-0.0833333 6:-0.307692 7:-0.35789 8:-0.319589 9:-0.245556 10:-0.168137 
1 1:-0.175373 2:-0.104611 3:-0.384615 4:-0.357143 5:0.75 6:-0.307692 7:-0.35789 8:-0.319589 9:-0.245556 10:-0.168137 
1 1:-0.0772037 2:0.0225843 3:-0.384615 4:-0.285714 5:0.25 6:-0.307692 7:-0.35789 8:-0.319589 9:-0.245556 10:-0.168137 
1 1:-0.0760019 2:-0.0239461 3:-0.401098 4:-0.214286 5:0.333333 6:-0.307692 7:-0.35789 8:-0.319589 9:-0.245556 10:-0.168137 
1 1:0.0207281 2:0.132628 3:-0.384615 4:-0.142857 5:-0.0833333 6:-0.307692 7:-0.35789 8:-0.319589 9:-0.245556 10:-0.168137 
1 1:0.167739 2:0.271713 3:-0.384615 4:-0.0714286 5:-0.166667 6:-0.307692 7:-0.35789 8:-0.319589 9:-0.245556 10:-0.168137 
1 1:-0.126563 2:-0.0627829 3:-0.285714 4:-0.857143 5:0.5 6:-0.769231 7:-0.717005 8:-0.296554 9:-0.655687 10:-0.0750982 
1 1:-0.126563 2:-0.0627829 3:-0.285714 4:-0.785714 5:-0.583333 6:-0.769231 7:-0.717005 8:-0.296554 9:-0.655687 10:-0.0750982 
1 1:-0.175287 2:-0.0841347 3:-0.285714 4:-0.714286 5:-0.666667 6:-0.769231 7:-0.717005 8:-0.296554 9:-0.655687 10:-0.0750982 
1 1:-0.175287 2:-0.0841347 3:-0.285714 4:-0.642857 5:0.5 6:-0.769231 7:-0.717005 8:-0.296554 9:-0.655687 10:-0.0750982 
1 1:-0.175287 2:-0.0841347 3:-0.285714 4:-0.571429 5:-0.416667 6:-0.769231 7:-0.717005 8:-0.296554 9:-0.655687 10:-0.0750982 
1 1:0.0204621 2:0.155828 3:-0.499999 4:-0.5 5:-0.166667 6:-0.769231 7:-0.717005 8:-0.296554 9:-0.655687 10:-0.0750982 
1 1:-0.126275 2:-0.0776463 3:-0.499999 4:-0.857143 5:-1 6:0.0769231 7:0.225406 8:-0.110027 9:0.126573 10:-0.209487 
1 1:-0.126395 2:-0.0294299 3:-0.499999 4:0.214286 5:0.416667 6:0.0769231 7:0.225406 8:-0.110027 9:0.126573 10:-0.209487 
1 1:-0.126395 2:-0.0294299 3:-0.499999 4:0.285714 5:-0.166667 6:0.0769231 7:0.225406 8:-0.110027 9:0.126573 10:-0.209487 
1 1:-0.0612019 2:-0.0292108 3:-0.374999 4:-0.571429 5:1 6:-0.384615 7:-0.403097 8:-0.300824 9:-0.30444 10:0.0256931 
1 1:-0.0612019 2:-0.0292108 3:-0.374999 4:-0.5 5:-1 6:-0.384615 7:-0.403097 8:-0.300824 9:-0.30444 10:0.0256931 
1 1:0.0042045 2:-0.00622147 3:-0.374999 4:-0.428571 5:-0.0833333 6:-0.384615 7:-0.403097 8:-0.300824 9:-0.30444 10:0.0256931 
1 1:0.00414465 2:-0.022554 3:-0.374999 4:-0.357143 5:-0.666667 6:-0.384615 7:-0.403097 8:-0.300824 9:-0.30444 10:0.0256931 
1 1:0.00414465 2:-0.022554 3:-0.374999 4:-0.285714 5:-1 6:-0.384615 7:-0.403097 8:-0.300824 9:-0.30444 10:0.0256931 
1 1:0.036767 2:0.0675914 3:-0.374999 4:-0.214286 5:-0.0833333 6:-0.384615 7:-0.403097 8:-0.300824 9:-0.30444 10:0.0256931 
1 1:0.036767 2:0.0675914 3:-0.374999 4:-0.142857 5:-0.166667 6:-0.384615 7:-0.403097 8:-0.300824 9:-0.30444 10:0.0256931 
1 1:-0.0774064 2:-0.0378852 3:-0.285714 4:-0.785714 5:-1 6:-0.230769 7:-0.44313 8:-0.462463 9:-0.461009 10:-0.161489 
1 1:-0.0773384 2:-0.0141507 3:-0.392856 4:-0.714286 5:-0.0833333 6:-0.230769 7:-0.44313 8:-0.462463 9:-0.461009 10:-0.161489 
1 1:0.0370349 2:0.0701206 3:-0.392856 4:-0.642857 5:0.75 6:-0.230769 7:-0.44313 8:-0.462463 9:-0.461009 10:-0.161489 
1 1:0.0534653 2:0.0952425 3:-0.392856 4:-0.571429 5:-0.666667 6:-0.230769 7:-0.44313 8:-0.462463 9:-0.461009 10:-0.161489 
1 1:0.175716 2:0.0302218 3:-0.392856 4:-0.285714 5:-0.833333 6:-0.230769 7:-0.44313 8:-0.462463 9:-0.461009 10:-0.161489 
1 1:0.110334 2:0.0234233 3:-0.285714 4:-0.214286 5:-0.0833333 6:-0.230769 7:-0.44313 8:-0.462463 9:-0.461009 10:-0.161489 
1 1:-0.00396075 2:-0.0424656 3:-0.392856 4:-0.142857 5:-0.0833333 6:-0.230769 7:-0.44313 8:-0.462463 9:-0.461009 10:-0.161489 
1 1:-0.0202854 2:0.0365116 3:-0.392856 4:-0.0714286 5:0.416667 6:-0.230769 7:-0.44313 8:-0.462463 9:-0.461009 10:-0.161489 
1 1:-0.0202854 2:0.0365116 3:-0.392856 5:-0.166667 6:-0.230769 7:-0.44313 8:-0.462463 9:-0.461009 10:-0.161489 
1 1:-0.175278 2:-0.162216 3:0.0625005 4:-1 6:-0.692308 7:-0.528579 8:-0.0945368 9:-0.442041 10:0.227273 
1 1:-0.175278 2:-0.162216 3:0.0625005 4:-0.928571 5:-0.0833333 6:-0.692308 7:-0.528579 8:-0.0945368 9:-0.442041 10:0.227273 
1 1:-0.175278 2:-0.162216 3:0.0625005 4:-0.857143 5:-0.0833333 6:-0.692308 7:-0.528579 8:-0.0945368 9:-0.442041 10:0.227273 
1 1:-0.0449144 2:-0.0424321 3:-0.442307 4:-0.0714286 5:-0.583333 6:0.692308 7:0.114731 8:-0.499088 9:-0.0654154 10:-0.121618 
1 1:-0.0449144 2:-0.0424321 3:-0.442307 5:-0.5 6:0.692308 7:0.114731 8:-0.499088 9:-0.0654154 10:-0.121618 
1 1:-0.0449144 2:-0.0424321 3:-0.442307 4:0.0714286 5:0.333333 6:0.692308 7:0.114731 8:-0.499088 9:-0.0654154 10:-0.121618 
1 1:-0.0448526 2:-0.113105 3:-0.326922 4:0.142857 5:-0.75 6:0.692308 7:0.114731 8:-0.499088 9:-0.0654154 10:-0.121618 
1 1:-0.0285043 2:-0.0249091 3:-0.442307 4:0.714286 5:0.75 6:0.692308 7:0.114731 8:-0.499088 9:-0.0654154 10:-0.121618 
1 1:-0.126406 2:-0.0327333 3:-0.499999 4:-1 5:0.5 6:-0.461538 7:-0.339744 8:-0.147223 9:-0.293318 10:0.144808 
1 1:-0.126406 2:-0.0327333 3:-0.499999 4:-0.928571 5:0.5 6:-0.461538 7:-0.339744 8:-0.147223 9:-0.293318 10:0.144808 
1 1:-0.126406 2:-0.0327333 3:-0.499999 4:-0.857143 5:0.0833333 6:-0.461538 7:-0.339744 8:-0.147223 9:-0.293318 10:0.144808 
1 1:-0.126385 2:-0.0379133 3:-0.363636 4:-0.642857 5:0.75 6:-0.461538 7:-0.339744 8:-0.147223 9:-0.293318 10:0.144808 
1 1:-0.126385 2:-0.0379133 3:-0.363636 4:-0.571429 5:-0.583333 6:-0.461538 7:-0.339744 8:-0.147223 9:-0.293318 10:0.144808 
1 1:-0.175207 2:-0.0626469 3:-0.249999 4:-0.785714 5:0.25 6:-0.846154 7:-0.942922 8:-0.634266 9:-0.887826 10:-0.276679 
1 1:-0.175207 2:-0.0626469 3:-0.249999 4:-0.714286 6:-0.846154 7:-0.942922 8:-0.634266 9:-0.887826 10:-0.276679 
1 1:-0.126199 2:0.035824 3:1.5e-006 4:-0.642857 5:-0.666667 6:-0.846154 7:-0.942922 8:-0.634266 9:-0.887826 10:-0.276679 
1 1:-0.0774547 2:0.0722708 3:-0.249999 4:-0.571429 5:-0.416667 6:-0.846154 7:-0.942922 8:-0.634266 9:-0.887826 10:-0.276679 
1 1:-0.175245 2:-0.0657487 3:-0.499999 4:-0.642857 5:-0.0833333 6:-0.769231 7:-0.521587 8:0.0590811 9:-0.343106 10:0.443254 
1 1:-0.175245 2:-0.0657487 3:-0.499999 4:-0.571429 5:-0.583333 6:-0.769231 7:-0.521587 8:0.0590811 9:-0.343106 10:0.443254 
1 1:0.0205017 2:0.18348 3:-0.687499 4:-0.928571 5:-0.0833333 6:-0.692308 7:-0.754234 8:-0.459572 9:-0.699438 10:-0.0750982 
1 1:-0.0774074 2:0.0493519 3:-0.499999 4:-0.857143 5:-0.666667 6:-0.692308 7:-0.754234 8:-0.459572 9:-0.699438 10:-0.0750982 
1 1:-0.173593 2:-0.105424 3:-0.249999 4:-0.642857 5:-0.75 6:-0.846154 7:-0.731815 8:-0.195195 9:-0.643783 10:0.126482 
1 1:-0.173593 2:-0.105424 3:-0.249999 4:-0.571429 5:-0.166667 6:-0.846154 7:-0.731815 8:-0.195195 9:-0.643783 10:0.126482 
1 1:-0.0120464 2:0.0442358 3:-0.499999 4:-1 6:-0.230769 7:0.0343633 8:0.000991504 9:0.0877753 10:-0.247883 
1 1:-0.0120464 2:0.0442358 3:-0.499999 4:-0.928571 5:-0.0833333 6:-0.230769 7:0.0343633 8:0.000991504 9:0.0877753 10:-0.247883 
1 1:-0.16721 2:-0.103006 3:-0.499999 4:-1 5:0.583333 6:-0.230769 7:0.169258 8:0.13192 9:0.286787 10:0.0976866 
1 1:-0.175278 2:-0.0879066 3:-0.499999 4:-0.214286 5:-0.666667 6:-0.230769 7:0.169258 8:0.13192 9:0.286787 10:0.0976866 
1 1:-0.175278 2:-0.0879066 3:-0.499999 4:-0.142857 5:0.583333 6:-0.230769 7:0.169258 8:0.13192 9:0.286787 10:0.0976866 
1 1:-0.175278 2:-0.0879066 3:-0.499999 4:-0.0714286 5:-1 6:-0.230769 7:0.169258 8:0.13192 9:0.286787 10:0.0976866 
1 1:-0.118158 2:-0.0940832 3:-0.312499 4:-0.928571 5:1 6:-0.692308 7:-0.499466 8:-0.0474419 9:-0.401577 10:0.227273 
1 1:-0.175386 2:-0.106725 3:-0.499999 4:-1 5:-0.5 6:-0.461538 7:-0.399145 8:-0.219291 9:-0.470615 10:-0.185053 
1 1:-0.175386 2:-0.106725 3:-0.499999 4:-0.928571 5:-0.833333 6:-0.461538 7:-0.399145 8:-0.219291 9:-0.470615 10:-0.185053 
1 1:-0.0120681 2:-0.11456 3:-0.499999 4:-0.857143 5:-0.5 6:-0.461538 7:-0.399145 8:-0.219291 9:-0.470615 10:-0.185053 
1 1:-0.0120681 2:-0.11456 3:-0.499999 4:-0.785714 5:0.583333 6:-0.461538 7:-0.399145 8:-0.219291 9:-0.470615 10:-0.185053 
1 1:-0.0365537 2:-0.111426 3:-0.363636 4:-0.214286 5:-0.166667 6:-0.461538 7:-0.399145 8:-0.219291 9:-0.470615 10:-0.185053 
1 1:-0.150808 2:-0.173827 3:-0.363636 4:-1 5:-0.75 6:-0.461538 7:-0.0954395 8:0.14918 9:0.0691413 10:0.144808 
1 1:-0.150808 2:-0.173827 3:-0.363636 4:-0.928571 5:0.75 6:-0.461538 7:-0.0954395 8:0.14918 9:0.0691413 10:0.144808 
1 1:-0.150808 2:-0.173827 3:-0.363636 4:-0.857143 5:-0.0833333 6:-0.461538 7:-0.0954395 8:0.14918 9:0.0691413 10:0.144808 
1 1:-0.150808 2:-0.173827 3:-0.363636 4:-0.785714 5:0.5 6:-0.461538 7:-0.0954395 8:0.14918 9:0.0691413 10:0.144808 
1 1:-0.175296 2:-0.0874873 3:-0.499999 4:-1 5:0.5 6:-0.230769 7:0.0607595 8:0.0266116 9:0.138946 10:0.0976866 
1 1:-0.175296 2:-0.0874873 3:-0.499999 4:-0.928571 5:-0.75 6:-0.230769 7:0.0607595 8:0.0266116 9:0.138946 10:0.0976866 
1 1:-0.126478 2:-0.0393948 3:-0.499999 4:-0.142857 5:-1 6:-0.230769 7:0.0607595 8:0.0266116 9:0.138946 10:0.0976866 
1 1:-0.167199 2:-0.175733 3:-0.384615 4:-1 5:-0.0833333 6:-0.307692 7:-0.267766 8:-0.225866 9:-0.209149 10:0.110976 
1 1:-0.167199 2:-0.175733 3:-0.384615 4:-0.928571 5:0.25 6:-0.307692 7:-0.267766 8:-0.225866 9:-0.209149 10:0.110976 
1 1:-0.167199 2:-0.175733 3:-0.384615 4:-0.857143 5:0.75 6:-0.307692 7:-0.267766 8:-0.225866 9:-0.209149 10:0.110976 
1 1:-0.167199 2:-0.175733 3:-0.384615 4:-0.785714 5:-0.75 6:-0.307692 7:-0.267766 8:-0.225866 9:-0.209149 10:0.110976 
1 1:-0.126351 2:-0.0153666 3:-0.499999 4:-1 5:-0.0833333 6:-0.615385 7:-0.716442 8:-0.480762 9:-0.630759 10:-0.0750982 
1 1:-0.126351 2:-0.0153666 3:-0.499999 4:-0.928571 5:-1 6:-0.615385 7:-0.716442 8:-0.480762 9:-0.630759 10:-0.0750982 
1 1:-0.126351 2:-0.0153666 3:-0.499999 4:-0.857143 5:0.75 6:-0.615385 7:-0.716442 8:-0.480762 9:-0.630759 10:-0.0750982 
1 1:-0.0774103 2:0.0443985 3:-0.499999 4:-0.785714 5:0.0833333 6:-0.615385 7:-0.716442 8:-0.480762 9:-0.630759 10:-0.0750982 
1 1:-0.0773152 2:0.0759391 3:-0.499999 4:-0.714286 6:-0.615385 7:-0.716442 8:-0.480762 9:-0.630759 10:-0.0750982 
1 1:-0.0283392 2:0.155394 3:-0.333333 4:-0.642857 5:0.75 6:-0.615385 7:-0.716442 8:-0.480762 9:-0.630759 10:-0.0750982 
1 1:-0.077405 2:0.046648 3:-0.333333 4:-0.571429 5:0.25 6:-0.615385 7:-0.716442 8:-0.480762 9:-0.630759 10:-0.0750982 
1 1:-0.077405 2:0.046648 3:-0.333333 4:-0.5 5:-0.583333 6:-0.615385 7:-0.716442 8:-0.480762 9:-0.630759 10:-0.0750982 
1 1:-0.0774084 2:-0.0253227 3:-0.333333 4:-0.428571 5:0.25 6:-0.615385 7:-0.716442 8:-0.480762 9:-0.630759 10:-0.0750982 
1 1:-0.0774084 2:-0.0253227 3:-0.333333 4:-0.357143 5:0.416667 6:-0.615385 7:-0.716442 8:-0.480762 9:-0.630759 10:-0.0750982 
1 1:-0.126275 2:-0.000651665 3:-0.714285 4:-0.785714 5:-0.0833333 6:-0.769231 7:-0.713593 8:-0.290346 9:-0.67719 10:0.270469 
1 1:-0.126275 2:-0.000651665 3:-0.714285 4:-0.714286 5:-0.5 6:-0.769231 7:-0.713593 8:-0.290346 9:-0.67719 10:0.270469 
1 1:-0.0788626 2:-0.010023 3:-0.821428 4:-0.571429 5:0.75 6:-0.769231 7:-0.713593 8:-0.290346 9:-0.67719 10:0.270469 
1 1:-0.028316 2:-0.084362 3:-0.499999 4:-0.857143 5:-0.583333 6:-0.692308 7:-0.678802 8:-0.337548 9:-0.647397 10:0.0760876 
1 1:-0.028316 2:-0.084362 3:-0.499999 4:-0.785714 5:-0.5 6:-0.692308 7:-0.678802 8:-0.337548 9:-0.647397 10:0.0760876 
1 1:-0.0760226 2:-0.0418053 3:-0.145831 4:-0.5 5:-0.666667 6:-0.692308 7:-0.678802 8:-0.337548 9:-0.647397 10:0.0760876 
1 1:-0.0760226 2:-0.0418053 3:-0.145831 4:-0.428571 5:-0.166667 6:-0.692308 7:-0.678802 8:-0.337548 9:-0.647397 10:0.0760876 
1 1:-0.12634 2:-0.0192012 3:-0.499999 4:-1 5:-1 6:-0.230769 7:-0.194536 8:-0.221178 9:-0.188 10:0.184078 
1 1:-0.12634 2:-0.0192012 3:-0.499999 4:-0.928571 5:-1 6:-0.230769 7:-0.194536 8:-0.221178 9:-0.188 10:0.184078 
1 1:-0.12634 2:-0.0192012 3:-0.499999 4:-0.857143 5:0.75 6:-0.230769 7:-0.194536 8:-0.221178 9:-0.188 10:0.184078 
1 1:-0.175271 2:-0.0909882 3:-0.499999 4:-0.5 5:0.5 6:-0.461538 7:-0.189367 8:0.0352227 9:-0.0995417 10:0.144808 
1 1:-0.175271 2:-0.0909882 3:-0.499999 4:-0.428571 5:-0.666667 6:-0.461538 7:-0.189367 8:0.0352227 9:-0.0995417 10:0.144808 
1 1:-0.126195 2:-0.206732 3:-0.227272 4:-0.285714 5:-0.0833333 6:-0.461538 7:-0.378428 8:-0.194155 9:-0.33408 10:0.0348562 
1 1:-0.11498 2:-0.234403 3:-0.333333 4:-0.571429 5:0.333333 6:-0.692308 7:-0.362644 8:0.17389 9:-0.220873 10:-0.0750982 
1 1:-0.11498 2:-0.234403 3:-0.333333 4:-0.5 5:-1 6:-0.692308 7:-0.362644 8:0.17389 9:-0.220873 10:-0.0750982 
1 1:-0.0283942 2:0.0483402 3:-0.392856 5:-0.166667 6:-0.230769 7:-0.37715 8:-0.398423 9:-0.228796 10:-0.334274 
1 1:-0.126365 2:-0.0246069 3:-0.499999 4:-1 5:-0.75 6:-0.538462 7:-0.339389 8:-0.0490741 9:-0.24565 10:0.166799 
1 1:-0.126365 2:-0.0246069 3:-0.499999 4:-0.928571 5:1 6:-0.538462 7:-0.339389 8:-0.0490741 9:-0.24565 10:0.166799 
1 1:-0.126338 2:-0.0186707 3:-0.499999 4:-1 5:-0.666667 6:-0.615385 7:-0.376487 8:0.0141774 9:-0.19416 10:0.193676 
1 1:-0.126338 2:-0.0186707 3:-0.499999 4:-0.928571 5:-1 6:-0.615385 7:-0.376487 8:0.0141774 9:-0.19416 10:0.193676 
1 1:-0.126386 2:-0.0447075 3:-0.499999 4:-1 6:-0.615385 7:-0.458138 8:-0.104698 9:-0.360035 10:0.193676 
1 1:-0.126386 2:-0.0447075 3:-0.499999 4:-0.928571 5:0.416667 6:-0.615385 7:-0.458138 8:-0.104698 9:-0.360035 10:0.193676 
1 1:-0.0798154 2:0.114348 3:-0.51923 4:-1 5:-1 6:-0.307692 7:-0.12414 8:-0.076506 9:0.00617301 10:0.110976 
1 1:-0.126505 2:0.0399728 3:-0.499999 4:-0.928571 5:0.333333 6:-0.307692 7:-0.12414 8:-0.076506 9:0.00617301 10:0.110976 
1 1:-0.0775372 2:-0.0393643 3:-0.384615 4:-0.714286 5:-0.666667 6:-0.307692 7:-0.12414 8:-0.076506 9:0.00617301 10:0.110976 
1 1:-0.0772829 2:0.092056 3:-0.384615 4:-0.571429 5:-0.666667 6:-0.307692 7:-0.12414 8:-0.076506 9:0.00617301 10:0.110976 
1 1:-0.15058 2:-0.193247 3:-0.384615 4:-0.285714 5:-0.75 6:-0.307692 7:-0.12414 8:-0.076506 9:0.00617301 10:0.110976 
1 1:-0.15058 2:-0.193247 3:-0.384615 4:-0.214286 5:-1 6:-0.307692 7:-0.12414 8:-0.076506 9:0.00617301 10:0.110976 
1 1:-0.15058 2:-0.193247 3:-0.384615 4:-0.142857 5:-0.583333 6:-0.307692 7:-0.12414 8:-0.076506 9:0.00617301 10:0.110976 
1 1:-0.15888 2:-0.211101 3:0.1 4:-0.571429 5:0.75 6:-0.538462 7:-0.46629 8:-0.217032 9:-0.385708 10:0.166799 
1 1:-0.15888 2:-0.211101 3:0.1 4:-0.5 5:0.5 6:-0.538462 7:-0.46629 8:-0.217032 9:-0.385708 10:0.166799 
1 1:-0.15888 2:-0.211101 3:0.1 4:-0.428571 5:0.75 6:-0.538462 7:-0.46629 8:-0.217032 9:-0.385708 10:0.166799 
1 1:-0.061004 2:-0.0814161 3:-0.227272 4:-1 5:0.75 6:-0.461538 7:-0.198592 8:0.0240302 9:-0.0551646 10:0.0348562 
1 1:-0.061004 2:-0.0814161 3:-0.227272 4:-0.928571 5:0.0833333 6:-0.461538 7:-0.198592 8:0.0240302 9:-0.0551646 10:0.0348562 
1 1:-0.061004 2:-0.0814161 3:-0.227272 4:-0.857143 5:-0.583333 6:-0.461538 7:-0.198592 8:0.0240302 9:-0.0551646 10:0.0348562 
1 1:-0.061004 2:-0.0814161 3:-0.227272 4:-0.785714 5:-0.0833333 6:-0.461538 7:-0.198592 8:0.0240302 9:-0.0551646 10:0.0348562 
1 1:-0.175283 2:-0.0826922 3:-0.499999 4:-0.357143 5:-0.0833333 6:-0.461538 7:-0.198592 8:0.0240302 9:-0.0551646 10:0.0348562 
1 1:-0.175283 2:-0.0826922 3:-0.499999 4:-0.285714 5:0.5 6:-0.461538 7:-0.198592 8:0.0240302 9:-0.0551646 10:0.0348562 
1 1:-0.126468 2:-0.135764 3:-0.374999 4:-1 5:-0.0833333 6:-0.384615 7:-0.207171 8:-0.0814024 9:-0.0772562 10:0.0256931 
1 1:-0.126468 2:-0.135764 3:-0.374999 4:-0.928571 5:-0.583333 6:-0.384615 7:-0.207171 8:-0.0814024 9:-0.0772562 10:0.0256931 
1 1:-0.126468 2:-0.135764 3:-0.374999 4:-0.857143 5:0.333333 6:-0.384615 7:-0.207171 8:-0.0814024 9:-0.0772562 10:0.0256931 
1 1:-0.126468 2:-0.135764 3:-0.374999 4:-0.785714 5:-0.666667 6:-0.384615 7:-0.207171 8:-0.0814024 9:-0.0772562 10:0.0256931 
1 1:0.0207884 2:-0.168991 3:-0.374999 4:-0.571429 5:-0.666667 6:-0.384615 7:-0.207171 8:-0.0814024 9:-0.0772562 10:0.0256931 
1 1:0.0207884 2:-0.168991 3:-0.374999 4:-0.5 5:-0.0833333 6:-0.384615 7:-0.207171 8:-0.0814024 9:-0.0772562 10:0.0256931 
1 1:-0.0771497 2:-0.221473 3:-0.374999 4:-0.428571 5:0.25 6:-0.384615 7:-0.207171 8:-0.0814024 9:-0.0772562 10:0.0256931 
1 1:-0.175273 2:-0.0796822 3:-0.374999 4:-0.357143 5:-0.0833333 6:-0.384615 7:-0.207171 8:-0.0814024 9:-0.0772562 10:0.0256931 
1 1:-0.175273 2:-0.0796822 3:-0.374999 4:-0.285714 5:1 6:-0.384615 7:-0.207171 8:-0.0814024 9:-0.0772562 10:0.0256931 
1 1:0.0698141 2:0.110122 3:-0.312499 4:-0.428571 5:0.416667 6:-0.692308 7:-0.697039 8:-0.367049 9:-0.679324 10:-0.226284 
1 1:-0.158597 2:-0.0584018 3:-0.399999 4:-0.928571 5:-0.0833333 6:-0.153846 7:0.0829127 8:-0.0312495 9:0.17318 10:0.0861675 
1 1:-0.158597 2:-0.0584018 3:-0.399999 4:-0.857143 5:0.0833333 6:-0.153846 7:0.0829127 8:-0.0312495 9:0.17318 10:0.0861675 
1 1:-0.0930873 2:-0.00327312 3:-0.299999 4:-0.785714 5:-0.666667 6:-0.153846 7:0.0829127 8:-0.0312495 9:0.17318 10:0.0861675 
1 1:-0.126344 2:-0.0088394 3:-0.499999 4:-0.285714 5:-1 6:-0.384615 7:-0.283813 8:-0.167236 9:-0.208434 10:0.227273 
1 1:-0.1264 2:-0.0907411 3:-0.499999 4:-0.214286 5:-0.666667 6:-0.384615 7:-0.283813 8:-0.167236 9:-0.208434 10:0.227273 
1 1:-0.0120169 2:0.0386688 3:-0.499999 4:-1 5:-0.0833333 6:-0.769231 7:-0.703674 8:-0.272293 9:-0.673327 10:-0.247883 
1 1:-0.0120169 2:0.0386688 3:-0.499999 4:-0.928571 5:0.583333 6:-0.769231 7:-0.703674 8:-0.272293 9:-0.673327 10:-0.247883 
1 1:0.0534918 2:0.0796159 3:-0.285714 4:-0.714286 5:-0.416667 6:-0.769231 7:-0.703674 8:-0.272293 9:-0.673327 10:-0.247883 
1 1:-0.0120367 2:-0.037248 3:-0.0714285 4:-0.642857 5:0.5 6:-0.769231 7:-0.703674 8:-0.272293 9:-0.673327 10:-0.247883 
1 1:-0.0120367 2:-0.037248 3:-0.0714285 4:-0.571429 5:-0.0833333 6:-0.769231 7:-0.703674 8:-0.272293 9:-0.673327 10:-0.247883 
1 1:-0.0120367 2:-0.037248 3:-0.0714285 4:-0.5 5:0.416667 6:-0.769231 7:-0.703674 8:-0.272293 9:-0.673327 10:-0.247883 
1 1:-0.126372 2:-0.00968269 3:-0.199999 4:-0.857143 5:-0.0833333 6:-0.923077 7:-0.904989 8:-0.444317 9:-0.835352 10:0.166799 
1 1:-0.126372 2:-0.00968269 3:-0.199999 4:-0.785714 5:-0.5 6:-0.923077 7:-0.904989 8:-0.444317 9:-0.835352 10:0.166799 
1 1:-0.126362 2:-0.0112171 3:-0.499999 4:-0.714286 5:-0.0833333 6:-0.923077 7:-0.904989 8:-0.444317 9:-0.835352 10:0.166799 
1 1:-0.0775247 2:0.0364538 3:-0.499999 4:-0.928571 5:0.75 6:-0.538462 7:-0.236519 8:0.0870788 9:-0.0882693 10:0.0458504 
1 1:-0.126089 2:-0.0181438 3:-0.363636 4:-0.857143 5:0.583333 6:-0.461538 7:-0.320859 8:-0.124311 9:-0.214485 10:0.254763 
1 1:-0.0775556 2:0.0296053 3:-0.499999 4:-1 5:-0.75 6:-0.307692 7:-0.0703728 8:-0.0205919 9:0.0665656 10:0.0179403 
1 1:-0.0775556 2:0.0296053 3:-0.499999 4:-0.928571 6:-0.307692 7:-0.0703728 8:-0.0205919 9:0.0665656 10:0.0179403 
1 1:-0.0774943 2:0.0490229 3:-0.499999 4:-0.857143 5:-1 6:-0.307692 7:-0.0703728 8:-0.0205919 9:0.0665656 10:0.0179403 
1 1:-0.077462 2:0.0471742 3:-0.499999 4:-0.214286 5:0.25 6:-0.307692 7:-0.0703728 8:-0.0205919 9:0.0665656 10:0.0179403 
1 1:-0.077462 2:0.0471742 3:-0.499999 4:-0.142857 5:-1 6:-0.307692 7:-0.0703728 8:-0.0205919 9:0.0665656 10:0.0179403 
1 1:-0.126345 2:-0.0265386 3:-0.499999 4:-0.642857 5:-1 6:-0.846154 7:-0.810386 8:-0.35861 9:-0.786036 10:0.328065 
1 1:-0.175079 2:-0.0141831 3:-0.499999 4:-0.714286 5:-1 6:-0.769231 7:-0.546648 8:0.0134731 9:-0.441612 10:0.270469 
1 1:-0.0790161 2:-0.0311045 3:-0.533333 4:-0.571429 5:-1 6:-0.538462 7:-0.537882 8:-0.311787 9:-0.546305 10:0.166799 
1 1:-0.116414 2:-0.158058 3:-0.336363 4:-0.357143 5:-0.75 6:-0.538462 7:-0.537882 8:-0.311787 9:-0.546305 10:0.166799 
1 1:-0.116414 2:-0.158058 3:-0.336363 4:-0.285714 5:-0.166667 6:-0.538462 7:-0.537882 8:-0.311787 9:-0.546305 10:0.166799 
1 1:-0.12641 2:-0.0218903 3:-0.499999 4:-1 5:0.583333 6:-0.153846 7:-0.0611031 8:-0.162295 9:-0.0242161 10:0.0055334 
1 1:-0.12641 2:-0.0218903 3:-0.499999 4:-0.928571 5:1 6:-0.153846 7:-0.0611031 8:-0.162295 9:-0.0242161 10:0.0055334 
1 1:-0.128474 2:-0.113172 3:-0.507142 4:-0.642857 5:-0.5 6:-0.153846 7:-0.0611031 8:-0.162295 9:-0.0242161 10:0.0055334 
1 1:-0.128474 2:-0.113172 3:-0.507142 4:-0.571429 5:-0.5 6:-0.153846 7:-0.0611031 8:-0.162295 9:-0.0242161 10:0.0055334 
1 1:-0.0755549 2:0.0321415 3:-0.26923 4:-0.142857 5:-0.166667 6:-0.384615 7:-0.0369742 8:0.109204 9:0.106608 10:-0.0750982 
1 1:-0.0772756 2:-0.00609888 3:-0.333333 4:-1 5:-1 6:-0.615385 7:-0.602956 8:-0.315538 9:-0.546587 10:0.0592902 
1 1:-0.0772756 2:-0.00609888 3:-0.333333 4:-0.928571 5:-1 6:-0.615385 7:-0.602956 8:-0.315538 9:-0.546587 10:0.0592902 
1 1:-0.0772756 2:-0.00609888 3:-0.333333 4:-0.857143 5:-0.666667 6:-0.615385 7:-0.602956 8:-0.315538 9:-0.546587 10:0.0592902 
1 1:-0.126353 2:-0.0266302 3:-0.499999 4:-0.571429 5:-0.666667 6:-0.692308 7:-0.753961 8:-0.45913 9:-0.770149 10:0.0760876 
1 1:-0.126353 2:-0.0266302 3:-0.499999 4:-0.5 5:-1 6:-0.692308 7:-0.753961 8:-0.45913 9:-0.770149 10:0.0760876 
1 1:-0.126353 2:-0.0266302 3:-0.499999 4:-0.428571 5:0.416667 6:-0.692308 7:-0.753961 8:-0.45913 9:-0.770149 10:0.0760876 
1 1:-0.175277 2:-0.0573976 3:-0.799999 4:-0.785714 5:-0.0833333 6:-0.923077 7:-0.847734 8:-0.305388 9:-0.767907 10:0.408696 
1 1:-0.175277 2:-0.0573976 3:-0.799999 4:-0.714286 5:1 6:-0.923077 7:-0.847734 8:-0.305388 9:-0.767907 10:0.408696 
1 1:-0.175144 2:-0.0308192 3:-0.499999 4:-1 5:-0.666667 6:-0.692308 7:-0.547586 8:-0.125285 9:-0.425773 10:-0.0750982 
1 1:-0.175144 2:-0.0308192 3:-0.499999 4:-0.928571 5:-0.75 6:-0.692308 7:-0.547586 8:-0.125285 9:-0.425773 10:-0.0750982 
1 1:-0.0773075 2:0.0982099 3:-0.687499 4:-0.714286 5:-1 6:-0.692308 7:-0.547586 8:-0.125285 9:-0.425773 10:-0.0750982 
1 1:-0.17532 2:-0.086278 3:-0.499999 4:-1 5:-0.75 6:-0.384615 7:-0.351827 8:-0.243406 9:-0.336935 10:-0.17589 
1 1:-0.17532 2:-0.086278 3:-0.499999 4:-0.928571 5:-0.0833333 6:-0.384615 7:-0.351827 8:-0.243406 9:-0.336935 10:-0.17589 
1 1:-0.0608906 2:-0.0652075 3:-0.624999 4:-0.857143 5:-0.0833333 6:-0.384615 7:-0.351827 8:-0.243406 9:-0.336935 10:-0.17589 
1 1:-0.0608906 2:-0.0652075 3:-0.624999 4:-0.785714 5:-0.416667 6:-0.384615 7:-0.351827 8:-0.243406 9:-0.336935 10:-0.17589 
1 1:-0.0773717 2:0.0469108 3:-0.499999 4:-0.285714 5:-0.0833333 6:-0.384615 7:-0.351827 8:-0.243406 9:-0.336935 10:-0.17589 
1 1:-0.0773717 2:0.0469108 3:-0.499999 4:-0.214286 5:-1 6:-0.384615 7:-0.351827 8:-0.243406 9:-0.336935 10:-0.17589 
1 1:-0.126374 2:-0.0377746 3:-0.499999 4:-1 5:-0.5 6:-0.461538 7:-0.313597 8:-0.115499 9:-0.230052 10:0.0348562 
1 1:-0.126374 2:-0.0377746 3:-0.499999 4:-0.928571 5:1 6:-0.461538 7:-0.313597 8:-0.115499 9:-0.230052 10:0.0348562 
1 1:-0.175273 2:-0.0798451 3:-0.499999 4:-1 5:-0.0833333 6:-0.230769 7:-0.227944 8:-0.253604 9:-0.160052 10:0.0976866 
1 1:-0.175273 2:-0.0798451 3:-0.499999 4:-0.928571 5:-0.5 6:-0.230769 7:-0.227944 8:-0.253604 9:-0.160052 10:0.0976866 
1 1:-0.175273 2:-0.0798451 3:-0.499999 4:-0.857143 5:0.333333 6:-0.230769 7:-0.227944 8:-0.253604 9:-0.160052 10:0.0976866 
1 1:-0.0773456 2:0.0242525 3:-0.392856 4:-0.785714 6:-0.230769 7:-0.227944 8:-0.253604 9:-0.160052 10:0.0976866 
1 1:-0.1264 2:-0.0356 3:-0.499999 4:-1 5:-0.0833333 6:-0.230769 7:-0.260879 8:-0.28557 9:-0.257085 10:0.011293 
1 1:-0.1264 2:-0.0356 3:-0.499999 4:-0.928571 5:0.75 6:-0.230769 7:-0.260879 8:-0.28557 9:-0.257085 10:0.011293 
1 1:-0.0774084 2:0.0380615 3:-0.499999 4:-0.857143 5:-0.0833333 6:-0.230769 7:-0.260879 8:-0.28557 9:-0.257085 10:0.011293 
1 1:-0.0774084 2:0.0380615 3:-0.499999 4:-0.785714 5:-0.75 6:-0.230769 7:-0.260879 8:-0.28557 9:-0.257085 10:0.011293 
1 1:-0.0283923 2:0.116298 3:-0.499999 4:-0.714286 5:-1 6:-0.230769 7:-0.260879 8:-0.28557 9:-0.257085 10:0.011293 
1 1:-0.077251 2:0.0540791 3:-0.499999 4:-1 5:-0.0833333 6:-0.307692 7:-0.555463 8:-0.525051 9:-0.561653 10:-0.0750982 
1 1:-0.077251 2:0.0540791 3:-0.499999 4:-0.928571 5:-0.0833333 6:-0.307692 7:-0.555463 8:-0.525051 9:-0.561653 10:-0.0750982 
1 1:-0.077251 2:0.0540791 3:-0.499999 4:-0.857143 5:0.5 6:-0.307692 7:-0.555463 8:-0.525051 9:-0.561653 10:-0.0750982 
1 1:-0.028262 2:0.101504 3:-0.384615 4:-0.785714 5:0.833333 6:-0.307692 7:-0.555463 8:-0.525051 9:-0.561653 10:-0.0750982 
1 1:0.0290323 2:0.132075 3:-0.26923 4:-0.714286 5:1 6:-0.307692 7:-0.555463 8:-0.525051 9:-0.561653 10:-0.0750982 
1 1:0.143423 2:0.0961133 3:-0.384615 4:-0.5 5:-0.666667 6:-0.307692 7:-0.555463 8:-0.525051 9:-0.561653 10:-0.0750982 
1 1:0.0454048 2:-0.012941 3:-0.384615 4:-0.428571 5:-0.583333 6:-0.307692 7:-0.555463 8:-0.525051 9:-0.561653 10:-0.0750982 
1 1:0.0454048 2:-0.012941 3:-0.384615 4:-0.357143 5:-0.5 6:-0.307692 7:-0.555463 8:-0.525051 9:-0.561653 10:-0.0750982 
1 1:-0.0690747 2:-0.0234318 3:-0.384615 4:-0.285714 5:1 6:-0.307692 7:-0.555463 8:-0.525051 9:-0.561653 10:-0.0750982 
1 1:-0.175386 2:-0.106725 3:-0.499999 4:-0.214286 5:0.5 6:-0.307692 7:-0.555463 8:-0.525051 9:-0.561653 10:-0.0750982 
1 1:-0.175386 2:-0.106725 3:-0.499999 4:-0.142857 5:0.0833333 6:-0.307692 7:-0.555463 8:-0.525051 9:-0.561653 10:-0.0750982 
1 1:-0.0773147 2:-0.0419649 3:-0.384615 4:-0.0714286 5:0.416667 6:-0.307692 7:-0.555463 8:-0.525051 9:-0.561653 10:-0.0750982 
1 1:-0.126377 2:-0.0385149 3:-0.499999 4:-1 5:-0.0833333 6:-0.538462 7:-0.323058 8:-0.0274584 9:-0.257545 10:0.0458504 
1 1:-0.126377 2:-0.0385149 3:-0.499999 4:-0.928571 5:0.75 6:-0.538462 7:-0.323058 8:-0.0274584 9:-0.257545 10:0.0458504 
1 1:-0.116163 2:-0.0835618 3:-0.213636 4:-0.357143 5:1 6:-0.538462 7:-0.323058 8:-0.0274584 9:-0.257545 10:0.0458504 
1 1:-0.175189 2:-0.0768376 3:-0.499999 4:-0.571429 5:0.5 6:-0.461538 7:-0.264377 8:-0.0557837 9:-0.164878 10:0.254763 
1 1:-0.175189 2:-0.0768376 3:-0.499999 4:-0.5 5:-0.0833333 6:-0.461538 7:-0.264377 8:-0.0557837 9:-0.164878 10:0.254763 
1 1:-0.175 2:-0.0427968 3:-0.499999 4:-0.428571 5:0.75 6:-0.461538 7:-0.264377 8:-0.0557837 9:-0.164878 10:0.254763 
1 1:0.0780885 2:0.151006 3:-0.363636 4:-0.214286 5:-0.166667 6:-0.461538 7:-0.483153 8:-0.321213 9:-0.396187 10:-0.295005 
1 1:0.0204529 2:0.186426 3:-0.499999 4:-0.857143 5:-0.0833333 6:-0.461538 7:-0.430947 8:-0.257874 9:-0.39526 10:-0.185053 
1 1:0.0286003 2:0.0181269 3:-0.363636 4:-0.785714 5:0.25 6:-0.461538 7:-0.430947 8:-0.257874 9:-0.39526 10:-0.185053 
1 1:0.0286003 2:0.0181269 3:-0.363636 4:-0.714286 5:-1 6:-0.461538 7:-0.430947 8:-0.257874 9:-0.39526 10:-0.185053 
1 1:0.0777231 2:-0.0197451 3:-0.363636 4:-0.571429 5:0.333333 6:-0.461538 7:-0.430947 8:-0.257874 9:-0.39526 10:-0.185053 
1 1:0.0777231 2:-0.0197451 3:-0.363636 4:-0.5 5:-0.75 6:-0.461538 7:-0.430947 8:-0.257874 9:-0.39526 10:-0.185053 
1 1:-0.0284719 2:-0.0287268 3:-0.363636 4:-0.285714 5:0.583333 6:-0.461538 7:-0.430947 8:-0.257874 9:-0.39526 10:-0.185053 
1 1:-0.0284719 2:-0.0287268 3:-0.363636 4:-0.214286 5:-0.166667 6:-0.461538 7:-0.430947 8:-0.257874 9:-0.39526 10:-0.185053 
1 1:-0.126405 2:-0.0236178 3:-0.499999 4:-1 5:-1 6:-0.384615 7:-0.471972 8:-0.377959 9:-0.357958 10:-0.0750982 
1 1:-0.126405 2:-0.0236178 3:-0.499999 4:-0.928571 5:-0.0833333 6:-0.384615 7:-0.471972 8:-0.377959 9:-0.357958 10:-0.0750982 
1 1:-0.126139 2:-0.126018 3:-0.124999 4:-0.857143 5:1 6:-0.384615 7:-0.471972 8:-0.377959 9:-0.357958 10:-0.0750982 
1 1:-0.126139 2:-0.126018 3:-0.124999 4:-0.785714 5:-0.583333 6:-0.384615 7:-0.471972 8:-0.377959 9:-0.357958 10:-0.0750982 
1 1:-0.0282398 2:0.0375056 3:1.5e-006 4:-0.714286 5:-0.75 6:-0.384615 7:-0.471972 8:-0.377959 9:-0.357958 10:-0.0750982 
1 1:-0.126087 2:-0.113633 3:-0.124999 4:-0.642857 5:-0.5 6:-0.384615 7:-0.471972 8:-0.377959 9:-0.357958 10:-0.0750982 
1 1:-0.174962 2:-0.174014 3:-0.249999 4:-0.571429 5:-0.75 6:-0.384615 7:-0.471972 8:-0.377959 9:-0.357958 10:-0.0750982 
1 1:-0.175181 2:-0.142275 3:-0.249999 4:-0.5 5:-0.583333 6:-0.384615 7:-0.471972 8:-0.377959 9:-0.357958 10:-0.0750982 
1 1:-0.175181 2:-0.142275 3:-0.249999 4:-0.285714 5:-0.0833333 6:-0.384615 7:-0.471972 8:-0.377959 9:-0.357958 10:-0.0750982 
1 1:-0.077698 2:-0.0198543 3:-0.249999 4:-0.214286 5:0.75 6:-0.384615 7:-0.471972 8:-0.377959 9:-0.357958 10:-0.0750982 
1 1:0.0204462 2:0.138068 3:-0.374999 4:-0.142857 5:0.416667 6:-0.384615 7:-0.471972 8:-0.377959 9:-0.357958 10:-0.0750982 
1 1:-0.175347 2:-0.103282 3:-0.499999 4:-0.5 5:-0.416667 6:-0.384615 7:-0.423809 8:-0.32402 9:-0.478574 10:-0.17589 
1 1:-0.175347 2:-0.103282 3:-0.499999 4:-0.428571 5:1 6:-0.384615 7:-0.423809 8:-0.32402 9:-0.478574 10:-0.17589 
1 1:-0.12634 2:-0.0238397 3:-0.374999 4:-0.357143 5:-0.75 6:-0.384615 7:-0.423809 8:-0.32402 9:-0.478574 10:-0.17589 
1 1:-0.0528567 2:-0.0382474 3:-0.374999 4:-0.142857 5:0.416667 6:-0.384615 7:-0.423809 8:-0.32402 9:-0.478574 10:-0.17589 
1 1:-0.12639 2:-0.0385654 3:-0.499999 4:-0.857143 5:-0.0833333 6:-0.307692 7:-0.433517 8:-0.398235 9:-0.333367 10:-0.354211 
1 1:-0.093637 2:0.128435 3:-0.615384 4:-0.785714 5:-0.416667 6:-0.307692 7:-0.433517 8:-0.398235 9:-0.333367 10:-0.354211 
1 1:0.0696293 2:0.248393 3:-0.384615 4:-0.714286 5:-0.75 6:-0.307692 7:-0.433517 8:-0.398235 9:-0.333367 10:-0.354211 
1 1:0.0206238 2:0.180938 3:-0.384615 4:-0.642857 5:0.75 6:-0.307692 7:-0.433517 8:-0.398235 9:-0.333367 10:-0.354211 
1 1:-0.175327 2:-0.0857391 3:-0.384615 4:-0.571429 5:0.5 6:-0.307692 7:-0.433517 8:-0.398235 9:-0.333367 10:-0.354211 
1 1:0.0205852 2:0.095451 3:-0.26923 4:-0.0714286 5:0.416667 6:-0.307692 7:-0.433517 8:-0.398235 9:-0.333367 10:-0.354211 
1 1:0.0206011 2:0.141965 3:-0.499999 4:-0.428571 5:-0.166667 6:-0.692308 7:-0.603494 8:-0.215725 9:-0.513449 10:-0.226284 
1 1:-0.0770724 2:0.0859374 3:-0.26923 4:-0.857143 5:0.75 6:-0.307692 7:-0.246289 8:-0.203532 9:-0.171615 10:0.0179403 
1 1:-0.0770724 2:0.0859374 3:-0.26923 4:-0.785714 6:-0.307692 7:-0.246289 8:-0.203532 9:-0.171615 10:0.0179403 
1 1:-0.0772057 2:-0.210217 3:-0.153844 4:-0.357143 5:0.5 6:-0.307692 7:-0.246289 8:-0.203532 9:-0.171615 10:0.0179403 
1 1:-0.0773804 2:-0.165666 3:-0.384615 4:-0.285714 5:-0.666667 6:-0.307692 7:-0.246289 8:-0.203532 9:-0.171615 10:0.0179403 
1 1:-0.126437 2:-0.0302204 3:-0.499999 4:-0.214286 5:0.5 6:-0.307692 7:-0.246289 8:-0.203532 9:-0.171615 10:0.0179403 
1 1:-0.126437 2:-0.0302204 3:-0.499999 4:-0.142857 6:-0.307692 7:-0.246289 8:-0.203532 9:-0.171615 10:0.0179403 
1 1:-0.126318 2:-0.00396424 3:-0.714285 4:-0.642857 5:0.75 6:-0.769231 7:-0.565973 8:-0.021696 9:-0.459744 10:0.270469 
1 1:-0.126446 2:-0.034074 3:-0.499999 4:-1 5:0.25 6:-0.307692 7:-0.324382 8:-0.284743 9:-0.223144 10:0.110976 
1 1:-0.126446 2:-0.034074 3:-0.499999 4:-0.928571 5:-0.0833333 6:-0.307692 7:-0.324382 8:-0.284743 9:-0.223144 10:0.110976 
1 1:-0.110046 2:-0.0943829 3:-0.26923 4:-0.857143 5:0.25 6:-0.307692 7:-0.324382 8:-0.284743 9:-0.223144 10:0.110976 
1 1:0.0041654 2:-0.0247703 3:-0.384615 4:-0.785714 5:0.75 6:-0.307692 7:-0.324382 8:-0.284743 9:-0.223144 10:0.110976 
1 1:0.0125237 2:-0.144028 3:-0.26923 4:-0.571429 5:-0.666667 6:-0.307692 7:-0.324382 8:-0.284743 9:-0.223144 10:0.110976 
1 1:-0.0528398 2:-0.16117 3:-0.26923 4:-0.5 5:-0.666667 6:-0.307692 7:-0.324382 8:-0.284743 9:-0.223144 10:0.110976 
1 1:-0.0528398 2:-0.16117 3:-0.26923 4:-0.428571 5:-0.5 6:-0.307692 7:-0.324382 8:-0.284743 9:-0.223144 10:0.110976 
1 1:-0.126342 2:-0.00642084 3:-0.26923 4:-0.357143 5:0.0833333 6:-0.307692 7:-0.324382 8:-0.284743 9:-0.223144 10:0.110976 
1 1:-0.126342 2:-0.00642084 3:-0.26923 4:-0.285714 5:0.25 6:-0.307692 7:-0.324382 8:-0.284743 9:-0.223144 10:0.110976 
1 1:-0.126342 2:-0.00642084 3:-0.26923 4:-0.214286 5:-0.0833333 6:-0.307692 7:-0.324382 8:-0.284743 9:-0.223144 10:0.110976 
1 1:-0.0774977 2:0.0420912 3:-0.499999 4:-0.142857 5:-0.0833333 6:-0.307692 7:-0.324382 8:-0.284743 9:-0.223144 10:0.110976 
1 1:-0.175386 2:-0.106725 3:-0.499999 4:-1 5:0.583333 6:-0.384615 7:-0.00493292 8:0.145088 9:0.219321 10:-0.0750982 
1 1:-0.175386 2:-0.106725 3:-0.499999 4:-0.928571 5:-1 6:-0.384615 7:-0.00493292 8:0.145088 9:0.219321 10:-0.0750982 
1 1:-0.0257314 2:0.0743688 3:-0.26923 4:-0.214286 5:-0.666667 6:-0.384615 7:-0.00493292 8:0.145088 9:0.219321 10:-0.0750982 
1 1:-0.0257314 2:0.0743688 3:-0.26923 4:-0.142857 5:-0.166667 6:-0.384615 7:-0.00493292 8:0.145088 9:0.219321 10:-0.0750982 
1 1:0.0207575 2:0.0620646 3:-0.374999 4:-0.142857 5:-0.166667 6:-0.384615 7:-0.414339 8:-0.313414 9:-0.38122 10:-0.17589 
1 1:-0.175386 2:-0.106725 3:-0.499999 4:-1 5:0.583333 6:-0.692308 7:-0.678457 8:-0.336989 9:-0.625321 10:-0.226284 
1 1:-0.175386 2:-0.106725 3:-0.499999 4:-0.928571 5:-0.0833333 6:-0.692308 7:-0.678457 8:-0.336989 9:-0.625321 10:-0.226284 
1 1:-0.026967 2:0.0157999 3:-0.354166 4:-0.428571 5:-0.166667 6:-0.692308 7:-0.678457 8:-0.336989 9:-0.625321 10:-0.226284 
1 1:-0.0691611 2:-0.0263209 3:-0.499999 4:-1 5:0.583333 6:-0.384615 7:-0.398778 8:-0.295987 9:-0.457851 10:-0.276679 
1 1:-0.0691611 2:-0.0263209 3:-0.499999 4:-0.928571 5:-0.75 6:-0.384615 7:-0.398778 8:-0.295987 9:-0.457851 10:-0.276679 
1 1:-0.0200866 2:-0.0919885 3:-0.499999 4:-0.357143 5:0.25 6:-0.384615 7:-0.398778 8:-0.295987 9:-0.457851 10:-0.276679 
1 1:-0.0200866 2:-0.0919885 3:-0.499999 4:-0.285714 5:0.75 6:-0.384615 7:-0.398778 8:-0.295987 9:-0.457851 10:-0.276679 
1 1:-0.020033 2:-0.074202 3:-0.499999 4:-0.214286 5:0.75 6:-0.384615 7:-0.398778 8:-0.295987 9:-0.457851 10:-0.276679 
1 1:0.0697572 2:0.138293 3:-0.374999 4:-0.142857 5:-0.166667 6:-0.384615 7:-0.398778 8:-0.295987 9:-0.457851 10:-0.276679 
1 1:-0.0774219 2:0.0282083 3:-0.374999 4:-0.714286 5:-0.0833333 6:-0.384615 7:-0.640969 8:-0.567223 9:-0.580854 10:-0.276679 
1 1:-0.0773674 2:0.0455602 3:-0.374999 4:-0.642857 5:-0.666667 6:-0.384615 7:-0.640969 8:-0.567223 9:-0.580854 10:-0.276679 
1 1:-0.0283817 2:0.113137 3:-0.249999 4:-0.571429 5:0.75 6:-0.384615 7:-0.640969 8:-0.567223 9:-0.580854 10:-0.276679 
1 1:0.0695935 2:0.181238 3:-0.374999 4:-0.142857 5:-0.166667 6:-0.384615 7:-0.640969 8:-0.567223 9:-0.580854 10:-0.276679 
1 1:-0.172843 2:-0.168153 3:-0.363636 4:-0.285714 5:0.0833333 6:-0.461538 7:-0.113595 8:0.127153 9:0.0564276 10:0.0348562 
1 1:-0.126324 2:-0.0183171 3:-0.333333 4:-1 5:0.75 6:-0.615385 7:-0.753727 8:-0.535046 9:-0.688249 10:-0.0750982 
1 1:-0.126324 2:-0.0183171 3:-0.333333 4:-0.928571 5:-0.0833333 6:-0.615385 7:-0.753727 8:-0.535046 9:-0.688249 10:-0.0750982 
1 1:-0.126324 2:-0.0183171 3:-0.333333 4:-0.857143 5:-0.0833333 6:-0.615385 7:-0.753727 8:-0.535046 9:-0.688249 10:-0.0750982 
1 1:-0.126324 2:-0.0183171 3:-0.333333 4:-0.785714 5:-0.75 6:-0.615385 7:-0.753727 8:-0.535046 9:-0.688249 10:-0.0750982 
1 1:-0.12632 2:-0.0193929 3:-0.333333 4:-0.714286 5:-0.0833333 6:-0.615385 7:-0.753727 8:-0.535046 9:-0.688249 10:-0.0750982 
1 1:-0.12632 2:-0.0193929 3:-0.333333 4:-0.642857 5:0.583333 6:-0.615385 7:-0.753727 8:-0.535046 9:-0.688249 10:-0.0750982 
1 1:-0.175386 2:-0.106725 3:-0.499999 4:-0.571429 5:0.25 6:-0.615385 7:-0.753727 8:-0.535046 9:-0.688249 10:-0.0750982 
1 1:-0.175386 2:-0.106725 3:-0.499999 4:-0.5 5:0.0833333 6:-0.615385 7:-0.753727 8:-0.535046 9:-0.688249 10:-0.0750982 
1 1:-0.175364 2:-0.098464 3:-0.499999 4:-0.428571 5:1 6:-0.615385 7:-0.753727 8:-0.535046 9:-0.688249 10:-0.0750982 
1 1:-0.175364 2:-0.098464 3:-0.499999 4:-0.357143 5:0.416667 6:-0.615385 7:-0.753727 8:-0.535046 9:-0.688249 10:-0.0750982 
1 1:0.0204134 2:0.0292087 3:-0.499999 4:-1 5:-1 6:0.307692 7:0.0742352 8:-0.361658 9:-0.0659995 10:-0.247883 
1 1:0.0204134 2:0.0292087 3:-0.499999 4:-0.928571 5:-1 6:0.307692 7:0.0742352 8:-0.361658 9:-0.0659995 10:-0.247883 
1 1:0.0204134 2:0.0292087 3:-0.499999 4:-0.857143 5:-1 6:0.307692 7:0.0742352 8:-0.361658 9:-0.0659995 10:-0.247883 
1 1:0.0204134 2:0.0292087 3:-0.499999 4:-0.785714 5:-0.0833333 6:0.307692 7:0.0742352 8:-0.361658 9:-0.0659995 10:-0.247883 
1 1:0.118486 2:-0.171197 3:-0.428571 4:-0.142857 5:0.5 6:0.307692 7:0.0742352 8:-0.361658 9:-0.0659995 10:-0.247883 
1 1:0.118486 2:-0.171197 3:-0.428571 4:-0.0714286 5:-0.833333 6:0.307692 7:0.0742352 8:-0.361658 9:-0.0659995 10:-0.247883 
1 1:0.118486 2:-0.171197 3:-0.428571 5:0.75 6:0.307692 7:0.0742352 8:-0.361658 9:-0.0659995 10:-0.247883 
1 1:0.0777014 2:-0.0855321 3:-0.428571 4:0.142857 5:0.75 6:0.307692 7:0.0742352 8:-0.361658 9:-0.0659995 10:-0.247883 
1 1:0.0694497 2:-0.030102 3:-0.428571 4:0.214286 5:-0.583333 6:0.307692 7:0.0742352 8:-0.361658 9:-0.0659995 10:-0.247883 
1 1:0.0205026 2:-0.0229436 3:-0.428571 4:0.285714 5:0.333333 6:0.307692 7:0.0742352 8:-0.361658 9:-0.0659995 10:-0.247883 
1 1:0.0204341 2:0.0392739 3:-0.428571 4:0.357143 5:-0.416667 6:0.307692 7:0.0742352 8:-0.361658 9:-0.0659995 10:-0.247883 
1 1:0.0203274 2:0.0227005 3:-0.428571 4:0.428571 5:-0.5 6:0.307692 7:0.0742352 8:-0.361658 9:-0.0659995 10:-0.247883 
1 1:0.0203274 2:0.0227005 3:-0.428571 4:0.5 5:-0.166667 6:0.307692 7:0.0742352 8:-0.361658 9:-0.0659995 10:-0.247883 
1 1:-0.101682 2:0.0179374 3:-0.574999 4:-0.714286 5:-0.0833333 6:0.230769 7:0.431398 8:-0.0730886 9:0.324776 10:-0.196047 
1 1:-0.101682 2:0.0179374 3:-0.574999 4:-0.642857 5:0.5 6:0.230769 7:0.431398 8:-0.0730886 9:0.324776 10:-0.196047 
1 1:-0.159047 2:-0.180503 3:-0.312499 4:-1 5:-0.666667 6:-0.692308 7:-0.625241 8:-0.250904 9:-0.637998 10:0.227273 
1 1:-0.159047 2:-0.180503 3:-0.312499 4:-0.928571 5:-0.5 6:-0.692308 7:-0.625241 8:-0.250904 9:-0.637998 10:0.227273 
1 1:-0.175341 2:-0.105703 3:-0.349999 4:-0.642857 5:0.583333 6:-0.538462 7:-0.430485 8:-0.169643 9:-0.405571 10:0.287748 
1 1:-0.175341 2:-0.105703 3:-0.349999 4:-0.571429 5:0.5 6:-0.538462 7:-0.430485 8:-0.169643 9:-0.405571 10:0.287748 
1 1:-0.175374 2:-0.103939 3:-0.499999 4:-0.5 5:-0.0833333 6:-0.538462 7:-0.430485 8:-0.169643 9:-0.405571 10:0.287748 
1 1:-0.12635 2:-0.0303422 3:-0.312499 4:-0.714286 5:0.333333 6:-0.692308 7:-0.772697 8:-0.489439 9:-0.74621 10:0.227273 
1 1:-0.12635 2:-0.0303422 3:-0.312499 4:-0.642857 5:0.0833333 6:-0.692308 7:-0.772697 8:-0.489439 9:-0.74621 10:0.227273 
1 1:-0.110055 2:-0.111916 3:-0.363636 4:-0.857143 5:-0.666667 6:-0.461538 7:-0.273303 8:-0.0666134 9:-0.212983 10:0.0348562 
1 1:-0.126337 2:-0.0142648 3:-0.363636 4:-0.5 5:0.0833333 6:-0.461538 7:-0.273303 8:-0.0666134 9:-0.212983 10:0.0348562 
1 1:-0.126337 2:-0.0142648 3:-0.363636 4:-0.428571 5:-0.666667 6:-0.461538 7:-0.273303 8:-0.0666134 9:-0.212983 10:0.0348562 
1 1:-0.0690008 2:-0.287554 3:-0.227272 4:-0.357143 5:0.583333 6:-0.461538 7:-0.273303 8:-0.0666134 9:-0.212983 10:0.0348562 
1 1:-0.175356 2:-0.0914258 3:-0.499999 4:-1 5:-0.666667 6:-0.923077 7:-0.753096 8:-0.075749 9:-0.671516 10:0.166799 
1 1:-0.175356 2:-0.0914258 3:-0.499999 4:-0.928571 5:0.333333 6:-0.923077 7:-0.753096 8:-0.075749 9:-0.671516 10:0.166799 
1 1:-0.126333 2:-0.0246351 3:-0.499999 4:-1 5:0.583333 6:-0.0769231 7:0.0572277 8:-0.123272 9:-0.0246514 10:-0.0750982 
1 1:-0.126333 2:-0.0246351 3:-0.499999 4:-0.928571 5:-0.0833333 6:-0.0769231 7:0.0572277 8:-0.123272 9:-0.0246514 10:-0.0750982 
1 1:-0.175368 2:-0.102896 3:-0.499999 4:-0.857143 6:-0.0769231 7:0.0572277 8:-0.123272 9:-0.0246514 10:-0.0750982 
1 1:-0.175368 2:-0.102896 3:-0.499999 4:-0.785714 5:-0.666667 6:-0.0769231 7:0.0572277 8:-0.123272 9:-0.0246514 10:-0.0750982 
1 1:-0.126354 2:-0.0294947 3:-0.499999 4:-1 5:0.75 6:-0.307692 7:-0.0306272 8:0.0207407 9:0.0753932 10:0.0179403 
1 1:-0.126354 2:-0.0294947 3:-0.499999 4:-0.928571 5:-0.0833333 6:-0.307692 7:-0.0306272 8:0.0207407 9:0.0753932 10:0.0179403 
1 1:-0.175386 2:-0.106725 3:-0.499999 4:-1 5:-1 6:0.461538 7:0.0741777 8:-0.433363 9:0.0309958 10:-0.0750982 
1 1:-0.175386 2:-0.106725 3:-0.499999 4:-0.928571 5:-0.666667 6:0.461538 7:0.0741777 8:-0.433363 9:0.0309958 10:-0.0750982 
1 1:-0.17533 2:-0.0955835 3:-0.499999 4:-0.857143 5:-0.5 6:0.461538 7:0.0741777 8:-0.433363 9:0.0309958 10:-0.0750982 
1 1:-0.17533 2:-0.0955835 3:-0.499999 4:-0.785714 5:0.5 6:0.461538 7:0.0741777 8:-0.433363 9:0.0309958 10:-0.0750982 
1 1:-0.0773345 2:0.0733796 3:-0.499999 4:-0.714286 5:-0.75 6:0.461538 7:0.0741777 8:-0.433363 9:0.0309958 10:-0.0750982 
1 1:-0.0773345 2:0.0733796 3:-0.499999 4:-0.642857 5:0.75 6:0.461538 7:0.0741777 8:-0.433363 9:0.0309958 10:-0.0750982 
1 1:0.0694618 2:0.0517563 3:-0.434782 4:-0.5 5:0.0833333 6:0.461538 7:0.0741777 8:-0.433363 9:0.0309958 10:-0.0750982 
1 1:0.0694618 2:0.0517563 3:-0.434782 4:-0.428571 5:-1 6:0.461538 7:0.0741777 8:-0.433363 9:0.0309958 10:-0.0750982 
1 1:0.0694695 2:0.134469 3:-0.434782 4:-0.357143 5:0.75 6:0.461538 7:0.0741777 8:-0.433363 9:0.0309958 10:-0.0750982 
1 1:-0.0285641 2:-0.0371844 3:-0.434782 4:-0.285714 5:-0.0833333 6:0.461538 7:0.0741777 8:-0.433363 9:0.0309958 10:-0.0750982 
1 1:-0.0285641 2:-0.0371844 3:-0.434782 4:-0.214286 5:-0.75 6:0.461538 7:0.0741777 8:-0.433363 9:0.0309958 10:-0.0750982 
1 1:0.0205181 2:-0.0261977 3:-0.434782 4:0.5 5:0.583333 6:0.461538 7:0.0741777 8:-0.433363 9:0.0309958 10:-0.0750982 
0.2201570471981745 1:0.0204066 2:0.0370174 3:-0.434782 4:0.571429 5:-1 6:0.461538 7:0.0741777 8:-0.433363 9:0.0309958 10:-0.0750982 
1 1:-0.150628 2:-0.420081 3:-0.199999 4:-0.642857 5:0.0833333 6:-0.538462 7:-0.361654 8:-0.0785422 9:-0.364264 10:-0.0750982 
1 1:-0.150628 2:-0.420081 3:-0.199999 4:-0.571429 5:-0.75 6:-0.538462 7:-0.361654 8:-0.0785422 9:-0.364264 10:-0.0750982 
1 1:-0.150628 2:-0.420081 3:-0.199999 4:-0.5 5:-0.416667 6:-0.538462 7:-0.361654 8:-0.0785422 9:-0.364264 10:-0.0750982 
1 1:-0.175343 2:-0.0974379 3:-0.499999 4:-0.428571 5:0.75 6:-0.538462 7:-0.361654 8:-0.0785422 9:-0.364264 10:-0.0750982 
1 1:-0.175343 2:-0.0974379 3:-0.499999 4:-0.357143 5:0.0833333 6:-0.538462 7:-0.361654 8:-0.0785422 9:-0.364264 10:-0.0750982 
1 1:0.0778341 2:0.131343 3:-0.349999 4:-0.285714 5:-0.166667 6:-0.538462 7:-0.788507 8:-0.643501 9:-0.74655 10:-0.316996 
1 1:-0.175249 2:-0.0795919 3:-0.499999 4:-0.428571 5:0.75 6:-0.461538 7:-0.211132 8:0.00881632 9:-0.16537 10:-0.0750982 
1 1:-0.175249 2:-0.0795919 3:-0.499999 4:-0.357143 5:0.333333 6:-0.461538 7:-0.211132 8:0.00881632 9:-0.16537 10:-0.0750982 
1 1:-0.175356 2:-0.100684 3:-0.499999 4:-0.285714 5:0.416667 6:-0.461538 7:-0.211132 8:0.00881632 9:-0.16537 10:-0.0750982 
1 1:-0.175356 2:-0.100684 3:-0.499999 4:-0.214286 5:-0.166667 6:-0.461538 7:-0.211132 8:0.00881632 9:-0.16537 10:-0.0750982 
1 1:-0.126488 2:-0.0390336 3:-0.499999 4:-1 5:0.5 6:-0.461538 7:-0.145903 8:0.0879544 9:-0.00827503 10:0.0348562 
1 1:-0.126488 2:-0.0390336 3:-0.499999 4:-0.928571 5:1 6:-0.461538 7:-0.145903 8:0.0879544 9:-0.00827503 10:0.0348562 
1 1:-0.166964 2:-0.0979195 3:-0.499999 4:-0.785714 5:0.583333 6:-0.846154 7:-0.67525 8:-0.0775468 9:-0.59036 10:0.126482 
1 1:-0.166964 2:-0.0979195 3:-0.499999 4:-0.714286 5:0.25 6:-0.846154 7:-0.67525 8:-0.0775468 9:-0.59036 10:0.126482 
1 1:-0.166964 2:-0.0979195 3:-0.499999 4:-0.642857 5:0.5 6:-0.846154 7:-0.67525 8:-0.0775468 9:-0.59036 10:0.126482 
1 1:-0.126428 2:-0.106069 3:-0.312499 4:-1 5:-1 6:-0.692308 7:-0.867564 8:-0.642902 9:-0.930074 10:0.0760876 
1 1:-0.126428 2:-0.106069 3:-0.312499 4:-0.928571 5:-0.75 6:-0.692308 7:-0.867564 8:-0.642902 9:-0.930074 10:0.0760876 
1 1:-0.0775739 2:-0.212573 3:-0.124999 4:-0.785714 5:0.75 6:-0.692308 7:-0.867564 8:-0.642902 9:-0.930074 10:0.0760876 
1 1:-0.0775739 2:-0.212573 3:-0.124999 4:-0.714286 5:0.75 6:-0.692308 7:-0.867564 8:-0.642902 9:-0.930074 10:0.0760876 
1 1:-0.0775739 2:-0.212573 3:-0.124999 4:-0.642857 5:0.5 6:-0.692308 7:-0.867564 8:-0.642902 9:-0.930074 10:0.0760876 
1 1:-0.0775585 2:-0.209569 3:-0.124999 4:-0.571429 5:-0.5 6:-0.692308 7:-0.867564 8:-0.642902 9:-0.930074 10:0.0760876 
1 1:-0.0775503 2:-0.207551 3:0.0625005 4:-0.5 5:0.25 6:-0.692308 7:-0.867564 8:-0.642902 9:-0.930074 10:0.0760876 
1 1:-0.0774663 2:-0.0254128 3:-0.499999 4:-0.428571 5:-0.166667 6:-0.692308 7:-0.867564 8:-0.642902 9:-0.930074 10:0.0760876 
1 1:-0.0776845 2:-0.0273749 3:-0.421052 4:-0.857143 5:0.5 6:0.153846 7:-0.11666 8:-0.414617 9:-0.0650726 10:-0.138756 
1 1:-0.126577 2:-0.111433 3:-0.421052 4:-0.5 5:0.75 6:0.153846 7:-0.11666 8:-0.414617 9:-0.0650726 10:-0.138756 
1 1:-0.0288856 2:-0.0330208 3:-0.342105 4:-0.428571 5:-1 6:0.153846 7:-0.11666 8:-0.414617 9:-0.0650726 10:-0.138756 
1 1:0.0686625 2:0.0926577 3:-0.421052 4:-0.357143 5:-0.0833333 6:0.153846 7:-0.11666 8:-0.414617 9:-0.0650726 10:-0.138756 
1 1:0.068858 2:0.048436 3:-0.421052 4:-0.285714 5:0.5 6:0.153846 7:-0.11666 8:-0.414617 9:-0.0650726 10:-0.138756 
1 1:0.117591 2:0.0253769 3:-0.421052 4:-0.214286 5:-0.75 6:0.153846 7:-0.11666 8:-0.414617 9:-0.0650726 10:-0.138756 
1 1:0.215353 2:0.104556 3:-0.421052 4:-0.142857 5:0.75 6:0.153846 7:-0.11666 8:-0.414617 9:-0.0650726 10:-0.138756 
1 1:0.166727 2:-0.0274164 3:-0.421052 4:-0.0714286 5:-0.833333 6:0.153846 7:-0.11666 8:-0.414617 9:-0.0650726 10:-0.138756 
1 1:0.166727 2:-0.0274164 3:-0.421052 5:-0.75 6:0.153846 7:-0.11666 8:-0.414617 9:-0.0650726 10:-0.138756 
1 1:0.166918 2:0.173575 3:-0.421052 4:0.0714286 5:0.75 6:0.153846 7:-0.11666 8:-0.414617 9:-0.0650726 10:-0.138756 
1 1:0.166563 2:0.178016 3:-0.421052 4:0.142857 5:0.25 6:0.153846 7:-0.11666 8:-0.414617 9:-0.0650726 10:-0.138756 
1 1:0.0689839 2:0.130513 3:-0.421052 4:0.214286 5:0.583333 6:0.153846 7:-0.11666 8:-0.414617 9:-0.0650726 10:-0.138756 
1 1:0.0688927 2:0.126303 3:-0.421052 4:0.285714 5:-1 6:0.153846 7:-0.11666 8:-0.414617 9:-0.0650726 10:-0.138756 
1 1:0.0688927 2:0.126303 3:-0.421052 4:0.357143 5:-0.166667 6:0.153846 7:-0.11666 8:-0.414617 9:-0.0650726 10:-0.138756 
1 1:-0.126313 2:-0.0224835 3:-0.499999 4:-0.785714 5:-1 6:-0.615385 7:-0.583859 8:-0.287735 9:-0.569146 10:0.0592902 
1 1:-0.0611595 2:-0.17907 3:-0.312499 4:-0.785714 5:0.333333 6:-0.692308 7:-0.69194 8:-0.3588 9:-0.685059 10:0.0760876 
1 1:-0.126468 2:-0.0416666 3:-0.285714 4:-0.714286 5:-0.5 6:-0.769231 7:-0.886304 8:-0.604657 9:-0.859349 10:0.270469 
1 1:-0.126347 2:-0.0283182 3:-0.249999 4:-0.857143 5:0.5 6:-0.846154 7:-0.848048 8:-0.436942 9:-0.805664 10:-0.0750982 
1 1:-0.126347 2:-0.0283182 3:-0.249999 4:-0.785714 5:0.583333 6:-0.846154 7:-0.848048 8:-0.436942 9:-0.805664 10:-0.0750982 
1 1:-0.0773032 2:0.0523791 3:1.5e-006 4:-0.714286 5:1 6:-0.846154 7:-0.848048 8:-0.436942 9:-0.805664 10:-0.0750982 
1 1:-0.0282914 2:0.12019 3:-0.249999 4:-0.642857 5:-0.0833333 6:-0.846154 7:-0.848048 8:-0.436942 9:-0.805664 10:-0.0750982 
1 1:-0.0282687 2:0.0604189 3:-0.249999 4:-0.571429 5:-0.166667 6:-0.846154 7:-0.848048 8:-0.436942 9:-0.805664 10:-0.0750982 
1 1:-0.17535 2:-0.0928291 3:-0.499999 4:-1 5:0.5 6:-0.692308 7:-0.445685 8:0.0395566 9:-0.31324 10:0.0760876 
1 1:-0.17535 2:-0.0928291 3:-0.499999 4:-0.928571 5:-0.583333 6:-0.692308 7:-0.445685 8:0.0395566 9:-0.31324 10:0.0760876 
1 1:-0.126295 2:-0.0145431 3:-0.499999 4:-1 5:-0.0833333 6:-0.538462 7:-0.542929 8:-0.318468 9:-0.449712 10:0.166799 
1 1:-0.126295 2:-0.0145431 3:-0.499999 4:-0.928571 5:-0.416667 6:-0.538462 7:-0.542929 8:-0.318468 9:-0.449712 10:0.166799 
1 1:-0.116994 2:-0.106725 3:-0.336363 4:-0.357143 5:0.0833333 6:-0.538462 7:-0.542929 8:-0.318468 9:-0.449712 10:0.166799 
1 1:-0.127847 2:-0.121577 3:-0.508241 4:-0.142857 5:0.5 6:-0.230769 7:-0.282881 8:-0.306926 9:-0.280789 10:0.011293 
1 1:-0.127847 2:-0.121577 3:-0.508241 4:-0.0714286 5:-1 6:-0.230769 7:-0.282881 8:-0.306926 9:-0.280789 10:0.011293 
1 1:-0.127847 2:-0.121577 3:-0.508241 5:0.416667 6:-0.230769 7:-0.282881 8:-0.306926 9:-0.280789 10:0.011293 
1 1:-0.156657 2:-0.209006 3:0.0892875 4:-0.642857 5:-0.666667 6:-0.769231 7:-0.577993 8:-0.0435707 9:-0.476397 10:0.0976866 
1 1:-0.156657 2:-0.209006 3:0.0892875 4:-0.571429 5:-0.0833333 6:-0.769231 7:-0.577993 8:-0.0435707 9:-0.476397 10:0.0976866 
1 1:-0.156657 2:-0.209006 3:0.0892875 4:-0.5 5:-0.166667 6:-0.769231 7:-0.577993 8:-0.0435707 9:-0.476397 10:0.0976866 
1 1:-0.0796074 2:-0.0464382 3:-0.520833 4:-0.642857 5:-0.5 6:-0.615385 7:-0.396659 8:-0.0151907 9:-0.289601 10:0.0592902 
1 1:-0.0796074 2:-0.0464382 3:-0.520833 4:-0.571429 5:-0.5 6:-0.615385 7:-0.396659 8:-0.0151907 9:-0.289601 10:0.0592902 
1 1:0.0190547 2:0.103852 3:-0.486363 4:-0.285714 5:-1 6:-0.461538 7:-0.415022 8:-0.238553 9:-0.39675 10:-0.185053 
1 1:0.069595 2:0.137481 3:-0.363636 4:-0.214286 5:-0.166667 6:-0.461538 7:-0.415022 8:-0.238553 9:-0.39675 10:-0.185053 
1 1:-0.0778394 2:0.0123218 3:-0.499999 4:-1 5:-0.416667 6:-0.615385 7:-0.241327 8:0.210957 9:-0.00238169 10:0.0592902 
1 1:-0.0778394 2:0.0123218 3:-0.499999 4:-0.928571 5:-0.5 6:-0.615385 7:-0.241327 8:0.210957 9:-0.00238169 10:0.0592902 
1 1:-0.0778394 2:0.0123218 3:-0.499999 4:-0.857143 5:-1 6:-0.615385 7:-0.241327 8:0.210957 9:-0.00238169 10:0.0592902 
1 1:-0.175332 2:-0.169749 3:-0.349999 4:-1 5:-0.5 6:-0.538462 7:-0.377091 8:-0.0989733 9:-0.274192 10:0.166799 
1 1:-0.175332 2:-0.169749 3:-0.349999 4:-0.928571 5:0.25 6:-0.538462 7:-0.377091 8:-0.0989733 9:-0.274192 10:0.166799 
1 1:-0.175332 2:-0.169749 3:-0.349999 4:-0.857143 5:-0.666667 6:-0.538462 7:-0.377091 8:-0.0989733 9:-0.274192 10:0.166799 
1 1:-0.126372 2:-0.0257454 3:-0.499999 4:-0.428571 5:-0.0833333 6:-0.538462 7:-0.377091 8:-0.0989733 9:-0.274192 10:0.166799 
1 1:-0.126372 2:-0.0257454 3:-0.499999 4:-0.357143 6:-0.538462 7:-0.377091 8:-0.0989733 9:-0.274192 10:0.166799 
1 1:0.0205881 2:-0.229842 3:-0.249999 4:-0.571429 5:-1 6:-0.384615 7:-0.321223 8:-0.209132 9:-0.289448 10:0.0256931 
1 1:-0.0285265 2:-0.190506 3:-0.374999 4:-0.428571 5:-0.5 6:-0.384615 7:-0.321223 8:-0.209132 9:-0.289448 10:0.0256931 
1 1:-0.17527 2:-0.0725784 3:-0.499999 4:-0.785714 5:-0.666667 6:-0.846154 7:-0.734881 8:-0.201572 9:-0.687653 10:0.126482 
1 1:-0.17527 2:-0.0725784 3:-0.499999 4:-0.714286 5:0.583333 6:-0.846154 7:-0.734881 8:-0.201572 9:-0.687653 10:0.126482 
1 1:-0.17527 2:-0.0725784 3:-0.499999 4:-0.642857 5:0.75 6:-0.846154 7:-0.734881 8:-0.201572 9:-0.687653 10:0.126482 
1 1:-0.175341 2:-0.0968935 3:-0.499999 4:-0.714286 5:-0.666667 6:-0.384615 7:-0.225411 8:-0.10183 9:-0.270593 10:0.0256931 
1 1:-0.175341 2:-0.0968935 3:-0.499999 4:-0.642857 5:0.0833333 6:-0.384615 7:-0.225411 8:-0.10183 9:-0.270593 10:0.0256931 
1 1:-0.0774441 2:0.0536536 3:-0.499999 4:-0.857143 5:-0.0833333 6:-0.230769 7:-0.136039 8:-0.164401 9:-0.0765908 10:0.011293 
1 1:-0.126354 2:-0.0260131 3:-0.499999 4:-0.357143 5:-0.666667 6:-0.384615 7:-0.458721 8:-0.363119 9:-0.461523 10:0.0256931 
1 1:-0.126354 2:-0.0260131 3:-0.499999 4:-0.285714 5:0.333333 6:-0.384615 7:-0.458721 8:-0.363119 9:-0.461523 10:0.0256931 
1 1:-0.0773239 2:0.00406428 3:-0.499999 4:-1 5:-0.0833333 6:0.0769231 7:0.300284 8:-0.0526505 9:0.250353 10:-0.142292 
1 1:-0.0773239 2:0.00406428 3:-0.499999 4:-0.928571 5:-0.5 6:0.0769231 7:0.300284 8:-0.0526505 9:0.250353 10:-0.142292 
1 1:-0.175286 2:-0.0860015 3:-0.499999 4:0.142857 5:-0.75 6:0.0769231 7:0.300284 8:-0.0526505 9:0.250353 10:-0.142292 
1 1:-0.175286 2:-0.0860015 3:-0.499999 4:0.214286 5:-0.166667 6:0.0769231 7:0.300284 8:-0.0526505 9:0.250353 10:-0.142292 
1 1:-0.175165 2:-0.12461 3:-0.333333 4:-1 5:-0.5 6:-0.615385 7:-0.396386 8:-0.0147933 9:-0.285433 10:0.0592902 
1 1:-0.175165 2:-0.12461 3:-0.333333 4:-0.928571 6:-0.615385 7:-0.396386 8:-0.0147933 9:-0.285433 10:0.0592902 
1 1:-0.175165 2:-0.12461 3:-0.333333 4:-0.857143 5:0.5 6:-0.615385 7:-0.396386 8:-0.0147933 9:-0.285433 10:0.0592902 
1 1:-0.126349 2:-0.0188074 3:-0.499999 4:-0.5 5:-1 6:-0.615385 7:-0.396386 8:-0.0147933 9:-0.285433 10:0.0592902 
1 1:-0.172805 2:-0.194347 3:-0.183331 4:-0.428571 5:-0.75 6:-0.615385 7:-0.396386 8:-0.0147933 9:-0.285433 10:0.0592902 
1 1:-0.172805 2:-0.194347 3:-0.183331 4:-0.357143 5:-0.166667 6:-0.615385 7:-0.396386 8:-0.0147933 9:-0.285433 10:0.0592902 
1 1:-0.12638 2:-0.0412158 3:-0.499999 4:-0.857143 5:0.25 6:-0.153846 7:-0.285399 8:-0.36639 9:-0.233695 10:-0.0750982 
1 1:-0.12638 2:-0.0412158 3:-0.499999 4:-0.785714 5:-0.416667 6:-0.153846 7:-0.285399 8:-0.36639 9:-0.233695 10:-0.0750982 
1 1:-0.077446 2:-0.00337527 3:-0.399999 4:-0.571429 5:0.5 6:-0.153846 7:-0.285399 8:-0.36639 9:-0.233695 10:-0.0750982 
1 1:-0.0284328 2:0.0646438 3:-0.399999 4:-0.5 5:0.333333 6:-0.153846 7:-0.285399 8:-0.36639 9:-0.233695 10:-0.0750982 
1 1:0.0616532 2:-0.0314039 3:-0.399999 4:-0.285714 5:0.25 6:-0.153846 7:-0.285399 8:-0.36639 9:-0.233695 10:-0.0750982 
1 1:0.0616532 2:-0.0314039 3:-0.399999 4:-0.214286 5:-0.666667 6:-0.153846 7:-0.285399 8:-0.36639 9:-0.233695 10:-0.0750982 
1 1:0.0616571 2:-0.0298125 3:-0.299999 4:-0.142857 5:-0.75 6:-0.153846 7:-0.285399 8:-0.36639 9:-0.233695 10:-0.0750982 
1 1:-0.0527838 2:-0.110367 3:-0.399999 4:-0.0714286 5:0.833333 6:-0.153846 7:-0.285399 8:-0.36639 9:-0.233695 10:-0.0750982 
1 1:-0.0527838 2:-0.110367 3:-0.399999 5:-0.75 6:-0.153846 7:-0.285399 8:-0.36639 9:-0.233695 10:-0.0750982 
1 1:0.0289276 2:0.0446141 3:-0.399999 4:0.0714286 5:-0.166667 6:-0.153846 7:-0.285399 8:-0.36639 9:-0.233695 10:-0.0750982 
1 1:-0.0771193 2:-0.118128 3:-0.333333 4:-0.785714 5:-0.583333 6:-0.615385 7:-0.43431 8:-0.0700068 9:-0.293368 10:0.0592902 
1 1:-0.0771193 2:-0.118128 3:-0.333333 4:-0.714286 5:0.75 6:-0.615385 7:-0.43431 8:-0.0700068 9:-0.293368 10:0.0592902 
1 1:-0.175119 2:-0.212371 3:-0.312499 4:-0.928571 5:-0.5 6:-0.692308 7:-0.547244 8:-0.124732 9:-0.466559 10:0.378459 
1 1:-0.175119 2:-0.212371 3:-0.312499 4:-0.857143 5:-0.0833333 6:-0.692308 7:-0.547244 8:-0.124732 9:-0.466559 10:0.378459 
1 1:-0.17535 2:-0.100408 3:-0.199999 4:-1 5:0.5 6:-0.923077 7:-0.716772 8:0.0123894 9:-0.580707 10:0.166799 
1 1:-0.17535 2:-0.100408 3:-0.199999 4:-0.928571 6:-0.923077 7:-0.716772 8:0.0123894 9:-0.580707 10:0.166799 
1 1:-0.17526 2:-0.076132 3:-0.499999 4:-0.857143 5:0.25 6:-0.923077 7:-0.716772 8:0.0123894 9:-0.580707 10:0.166799 
1 1:-0.17526 2:-0.076132 3:-0.499999 4:-0.785714 5:-0.0833333 6:-0.923077 7:-0.716772 8:0.0123894 9:-0.580707 10:0.166799 
1 1:-0.17526 2:-0.076132 3:-0.499999 4:-0.714286 5:0.416667 6:-0.923077 7:-0.716772 8:0.0123894 9:-0.580707 10:0.166799 
1 1:-0.17526 2:-0.076132 3:-0.499999 4:-0.642857 5:-0.166667 6:-0.923077 7:-0.716772 8:0.0123894 9:-0.580707 10:0.166799 
1 1:-0.0774919 2:-0.035731 3:-0.349999 4:-1 5:0.75 6:-0.538462 7:-0.603986 8:-0.39928 9:-0.547228 10:-0.0750982 
1 1:-0.0774919 2:-0.035731 3:-0.349999 4:-0.928571 5:-0.0833333 6:-0.538462 7:-0.603986 8:-0.39928 9:-0.547228 10:-0.0750982 
1 1:-0.0283059 2:0.0193837 3:-0.0499995 4:-0.857143 5:0.75 6:-0.538462 7:-0.603986 8:-0.39928 9:-0.547228 10:-0.0750982 
1 1:-0.07721 2:-0.053162 3:-0.349999 4:-0.785714 5:-0.75 6:-0.538462 7:-0.603986 8:-0.39928 9:-0.547228 10:-0.0750982 
1 1:-0.0773398 2:-0.0823511 3:-0.349999 4:-0.714286 5:0.333333 6:-0.538462 7:-0.603986 8:-0.39928 9:-0.547228 10:-0.0750982 
1 1:-0.0773398 2:-0.0823511 3:-0.349999 4:-0.642857 5:0.583333 6:-0.538462 7:-0.603986 8:-0.39928 9:-0.547228 10:-0.0750982 
1 1:-0.0773389 2:0.00271445 3:-0.349999 4:-0.571429 5:0.583333 6:-0.538462 7:-0.603986 8:-0.39928 9:-0.547228 10:-0.0750982 
1 1:-0.126547 2:-0.0573246 3:-0.349999 4:-0.357143 5:0.5 6:-0.538462 7:-0.603986 8:-0.39928 9:-0.547228 10:-0.0750982 
1 1:-0.0299962 2:0.122994 3:-0.499999 4:-0.285714 5:0.416667 6:-0.538462 7:-0.603986 8:-0.39928 9:-0.547228 10:-0.0750982 
1 1:-0.16728 2:-0.214159 3:-0.285714 4:-1 5:1 6:-0.769231 7:-0.559179 8:-0.00933089 9:-0.509741 10:0.0976866 
1 1:-0.16728 2:-0.214159 3:-0.285714 4:-0.928571 6:-0.769231 7:-0.559179 8:-0.00933089 9:-0.509741 10:0.0976866 
1 1:-0.156707 2:-0.236133 3:-0.0982125 4:-0.642857 5:-0.583333 6:-0.769231 7:-0.559179 8:-0.00933089 9:-0.509741 10:0.0976866 
0.4506196815106883 1:-0.156707 2:-0.236133 3:-0.0982125 4:-0.571429 6:-0.769231 7:-0.559179 8:-0.00933089 9:-0.509741 10:0.0976866 
1 1:-0.0774808 2:0.0490384 3:-0.499999 4:-1 5:0.5 6:-0.307692 7:-0.224206 8:-0.180567 9:-0.121437 10:0.110976 
1 1:-0.0774808 2:0.0490384 3:-0.499999 4:-0.928571 5:0.583333 6:-0.307692 7:-0.224206 8:-0.180567 9:-0.121437 10:0.110976 
1 1:-0.0774523 2:0.0555423 3:-0.384615 4:-0.857143 5:-0.5 6:-0.307692 7:-0.224206 8:-0.180567 9:-0.121437 10:0.110976 
1 1:-0.144731 2:0.131555 3:-0.51923 4:-0.785714 5:-0.5 6:-0.307692 7:-0.224206 8:-0.180567 9:-0.121437 10:0.110976 
1 1:-0.144731 2:0.131555 3:-0.51923 4:-0.714286 5:-1 6:-0.307692 7:-0.224206 8:-0.180567 9:-0.121437 10:0.110976 
1 1:-0.0282736 2:0.167673 3:-0.499999 4:-0.571429 5:-0.0833333 6:-0.692308 7:-0.634984 8:-0.266665 9:-0.586997 10:-0.0750982 
1 1:-0.0282736 2:0.167673 3:-0.499999 4:-0.5 5:-1 6:-0.692308 7:-0.634984 8:-0.266665 9:-0.586997 10:-0.0750982 
1 1:-0.150502 2:-0.090076 3:-0.363636 4:-1 5:0.583333 6:-0.461538 7:-0.283826 8:-0.0793807 9:-0.0839863 10:0.144808 
1 1:-0.150502 2:-0.090076 3:-0.363636 4:-0.928571 5:-0.0833333 6:-0.461538 7:-0.283826 8:-0.0793807 9:-0.0839863 10:0.144808 
1 1:-0.150502 2:-0.090076 3:-0.363636 4:-0.857143 5:-0.416667 6:-0.461538 7:-0.283826 8:-0.0793807 9:-0.0839863 10:0.144808 
1 1:-0.150502 2:-0.090076 3:-0.363636 4:-0.785714 5:0.583333 6:-0.461538 7:-0.283826 8:-0.0793807 9:-0.0839863 10:0.144808 
1 1:-0.0775382 2:0.0436137 3:-0.499999 4:-0.714286 5:-0.75 6:-0.461538 7:-0.283826 8:-0.0793807 9:-0.0839863 10:0.144808 
1 1:-0.117985 2:0.0515055 3:-0.363636 4:-0.5 5:-0.583333 6:-0.461538 7:-0.283826 8:-0.0793807 9:-0.0839863 10:0.144808 
1 1:-0.117985 2:0.0515055 3:-0.363636 4:-0.428571 5:-0.5 6:-0.461538 7:-0.283826 8:-0.0793807 9:-0.0839863 10:0.144808 
1 1:-0.117985 2:0.0515055 3:-0.363636 4:-0.357143 5:-0.0833333 6:-0.461538 7:-0.283826 8:-0.0793807 9:-0.0839863 10:0.144808 
1 1:-0.0773007 2:0.0794954 3:-0.499999 4:-0.642857 5:-0.666667 6:-0.846154 7:-0.753887 8:-0.241101 9:-0.64276 10:0.126482 
1 1:-0.126563 2:-0.0372542 3:-0.499999 4:-1 5:0.5 6:-0.230769 7:-0.0565146 8:-0.0872145 9:0.0901254 10:0.184078 
1 1:-0.126563 2:-0.0372542 3:-0.499999 4:-0.928571 5:-0.5 6:-0.230769 7:-0.0565146 8:-0.0872145 9:0.0901254 10:0.184078 
1 1:-0.126285 2:0.0173378 3:-0.499999 4:-0.857143 5:0.5 6:-0.230769 7:-0.0565146 8:-0.0872145 9:0.0901254 10:0.184078 
1 1:-0.126285 2:0.0173378 3:-0.499999 4:-0.785714 5:-0.0833333 6:-0.230769 7:-0.0565146 8:-0.0872145 9:0.0901254 10:0.184078 
1 1:-0.126325 2:0.00472792 3:-0.499999 4:-0.214286 5:0.75 6:-0.230769 7:-0.0565146 8:-0.0872145 9:0.0901254 10:0.184078 
1 1:0.0288933 2:0.113994 3:-0.499999 4:-1 5:0.5 6:-0.615385 7:-0.536849 8:-0.219294 9:-0.516049 10:-0.343873 
1 1:0.0288933 2:0.113994 3:-0.499999 4:-0.928571 6:-0.615385 7:-0.536849 8:-0.219294 9:-0.516049 10:-0.343873 
1 1:0.0862025 2:0.0680621 3:-0.333333 4:-0.571429 5:-1 6:-0.615385 7:-0.536849 8:-0.219294 9:-0.516049 10:-0.343873 
1 1:-0.0772916 2:0.0587351 3:-0.499999 4:-0.5 5:0.75 6:-0.615385 7:-0.536849 8:-0.219294 9:-0.516049 10:-0.343873 
1 1:-0.0772916 2:0.0587351 3:-0.499999 4:-0.428571 5:-0.583333 6:-0.615385 7:-0.536849 8:-0.219294 9:-0.516049 10:-0.343873 
1 1:0.0207382 2:0.0503882 3:-0.333333 4:-0.357143 5:0.416667 6:-0.615385 7:-0.536849 8:-0.219294 9:-0.516049 10:-0.343873 
1 1:-0.126226 2:0.0119822 3:-0.199999 4:-0.857143 5:-0.75 6:-0.923077 7:-0.885894 8:-0.397983 9:-0.839838 10:0.166799 
1 1:-0.175369 2:-0.104618 3:-0.499999 4:-0.857143 5:0.583333 6:-0.307692 7:0.106873 8:0.16373 9:0.144803 10:0.204015 
1 1:-0.077295 2:-0.187468 3:-0.312499 4:-0.642857 5:0.583333 6:-0.692308 7:-0.640692 8:-0.275899 9:-0.59156 10:0.0760876 
1 1:-0.077295 2:-0.187468 3:-0.312499 4:-0.571429 5:-0.5 6:-0.692308 7:-0.640692 8:-0.275899 9:-0.59156 10:0.0760876 
1 1:-0.126422 2:-0.0281273 3:-0.499999 4:-1 5:0.583333 6:-0.307692 7:-0.293063 8:-0.252173 9:-0.264767 10:0.110976 
1 1:-0.126422 2:-0.0281273 3:-0.499999 4:-0.928571 5:0.75 6:-0.307692 7:-0.293063 8:-0.252173 9:-0.264767 10:0.110976 
1 1:-0.126367 2:-0.013697 3:-0.499999 4:-0.214286 5:-0.75 6:-0.307692 7:-0.293063 8:-0.252173 9:-0.264767 10:0.110976 
1 1:-0.126367 2:-0.013697 3:-0.499999 4:-0.142857 5:0.583333 6:-0.307692 7:-0.293063 8:-0.252173 9:-0.264767 10:0.110976 
1 1:-0.0772694 2:-0.0108395 3:-0.312499 4:-0.857143 5:-1 6:-0.692308 7:-0.584036 8:-0.184248 9:-0.498586 10:0.0760876 
1 1:-0.175057 2:-0.0855509 3:-0.249999 4:-1 5:-0.0833333 6:-0.846154 7:-0.734941 8:-0.201695 9:-0.640405 10:0.328065 
1 1:-0.175057 2:-0.0855509 3:-0.249999 4:-0.928571 6:-0.846154 7:-0.734941 8:-0.201695 9:-0.640405 10:0.328065 
1 1:-0.175057 2:-0.0855509 3:-0.249999 4:-0.857143 5:0.75 6:-0.846154 7:-0.734941 8:-0.201695 9:-0.640405 10:0.328065 
1 1:-0.175057 2:-0.0855509 3:-0.249999 4:-0.785714 5:-1 6:-0.846154 7:-0.734941 8:-0.201695 9:-0.640405 10:0.328065 
1 1:-0.126219 2:0.021226 3:-0.749999 4:-0.714286 5:-0.0833333 6:-0.846154 7:-0.734941 8:-0.201695 9:-0.640405 10:0.328065 
1 1:-0.126219 2:0.021226 3:-0.749999 4:-0.642857 5:-1 6:-0.846154 7:-0.734941 8:-0.201695 9:-0.640405 10:0.328065 
1 1:-0.0284623 2:0.0383348 3:-0.499999 4:-1 5:-1 6:0.230769 7:0.1312 8:-0.281211 9:0.0715658 10:-0.256521 
1 1:-0.0284623 2:0.0383348 3:-0.499999 4:-0.928571 5:-0.75 6:0.230769 7:0.1312 8:-0.281211 9:0.0715658 10:-0.256521 
1 1:0.0696037 2:0.216017 3:-0.349999 4:-0.357143 5:-0.416667 6:0.230769 7:0.1312 8:-0.281211 9:0.0715658 10:-0.256521 
1 1:0.0696037 2:0.216017 3:-0.349999 4:-0.285714 5:0.25 6:0.230769 7:0.1312 8:-0.281211 9:0.0715658 10:-0.256521 
1 1:0.0938938 2:-0.110573 3:-0.349999 4:-0.0714286 5:0.5 6:0.230769 7:0.1312 8:-0.281211 9:0.0715658 10:-0.256521 
1 1:0.0938938 2:-0.110573 3:-0.349999 5:-0.666667 6:0.230769 7:0.1312 8:-0.281211 9:0.0715658 10:-0.256521 
1 1:0.0204505 2:-0.0333582 3:-0.424999 4:0.0714286 5:-0.666667 6:0.230769 7:0.1312 8:-0.281211 9:0.0715658 10:-0.256521 
1 1:-0.126417 2:-0.174991 3:-0.424999 4:0.142857 5:-0.0833333 6:0.230769 7:0.1312 8:-0.281211 9:0.0715658 10:-0.256521 
1 1:-0.126438 2:-0.108927 3:-0.424999 4:0.214286 5:0.75 6:0.230769 7:0.1312 8:-0.281211 9:0.0715658 10:-0.256521 
1 1:-0.0773785 2:0.0311278 3:-0.349999 4:-0.714286 5:0.0833333 6:-0.538462 7:-0.203812 8:0.130369 9:-0.0319273 10:-0.0750982 
1 1:-0.126429 2:-0.0436703 3:-0.312499 4:-1 5:-0.0833333 6:-0.692308 7:-0.772922 8:-0.489803 9:-0.719862 10:-0.37747 
1 1:0.069624 2:0.274493 3:-0.312499 4:-0.5 5:-0.0833333 6:-0.692308 7:-0.772922 8:-0.489803 9:-0.719862 10:-0.37747 
1 1:0.0697046 2:0.23243 3:-0.312499 4:-0.428571 5:0.416667 6:-0.692308 7:-0.772922 8:-0.489803 9:-0.719862 10:-0.37747 
1 1:-0.0285829 2:0.0368378 3:-0.392856 4:-0.5 5:-0.0833333 6:-0.230769 7:-0.171089 8:-0.19842 9:-0.0316725 10:-0.161489 
1 1:0.0203067 2:0.173792 3:-0.285714 4:-0.428571 5:0.5 6:-0.230769 7:-0.171089 8:-0.19842 9:-0.0316725 10:-0.161489 
1 1:0.0203067 2:0.173792 3:-0.285714 4:-0.357143 5:0.0833333 6:-0.230769 7:-0.171089 8:-0.19842 9:-0.0316725 10:-0.161489 
1 1:0.0203067 2:0.173792 3:-0.285714 4:-0.285714 5:0.833333 6:-0.230769 7:-0.171089 8:-0.19842 9:-0.0316725 10:-0.161489 
1 1:0.118318 2:0.120759 3:-0.17857 4:-0.214286 5:0.583333 6:-0.230769 7:-0.171089 8:-0.19842 9:-0.0316725 10:-0.161489 
1 1:-0.175313 2:-0.089194 3:-0.499999 4:-0.142857 6:-0.230769 7:-0.171089 8:-0.19842 9:-0.0316725 10:-0.161489 
1 1:-0.175313 2:-0.089194 3:-0.499999 4:-0.0714286 5:-0.666667 6:-0.230769 7:-0.171089 8:-0.19842 9:-0.0316725 10:-0.161489 
1 1:-0.124152 2:-0.0607083 3:-0.307142 5:-0.166667 6:-0.230769 7:-0.171089 8:-0.19842 9:-0.0316725 10:-0.161489 
1 1:0.00457373 2:-0.0281512 3:-0.285714 4:-0.785714 5:-0.416667 6:-0.769231 7:-0.64638 8:-0.168026 9:-0.610981 10:-0.247883 
1 1:-0.0445022 2:-0.107276 3:-0.285714 4:-0.714286 5:1 6:-0.769231 7:-0.64638 8:-0.168026 9:-0.610981 10:-0.247883 
1 1:-0.0445022 2:-0.107276 3:-0.285714 4:-0.642857 5:-0.416667 6:-0.769231 7:-0.64638 8:-0.168026 9:-0.610981 10:-0.247883 
1 1:0.00460076 2:-0.0187074 3:-0.0714285 4:-0.571429 5:-0.0833333 6:-0.769231 7:-0.64638 8:-0.168026 9:-0.610981 10:-0.247883 
1 1:0.037296 2:0.0643599 3:-0.285714 4:-0.5 5:-0.166667 6:-0.769231 7:-0.64638 8:-0.168026 9:-0.610981 10:-0.247883 
1 1:0.0204023 2:0.0621217 3:-0.349999 4:-0.285714 5:0.416667 6:-0.538462 7:-0.528725 8:-0.299668 9:-0.476819 10:-0.0750982 
1 1:-0.0776029 2:0.028469 3:-0.499999 4:-1 6:-0.307692 7:-0.255919 8:-0.213546 9:-0.180785 10:-0.0750982 
1 1:-0.0776029 2:0.028469 3:-0.499999 4:-0.928571 5:0.75 6:-0.307692 7:-0.255919 8:-0.213546 9:-0.180785 10:-0.0750982 
1 1:-0.079494 2:-0.0328277 3:-0.499999 4:-0.5 5:-0.5 6:-0.307692 7:-0.255919 8:-0.213546 9:-0.180785 10:-0.0750982 
1 1:-0.079494 2:-0.0328277 3:-0.499999 4:-0.428571 5:-1 6:-0.307692 7:-0.255919 8:-0.213546 9:-0.180785 10:-0.0750982 
1 1:-0.0773698 2:-0.161192 3:-0.384615 4:-0.357143 5:0.333333 6:-0.307692 7:-0.255919 8:-0.213546 9:-0.180785 10:-0.0750982 
1 1:-0.0775257 2:-0.0394222 3:-0.499999 4:-0.285714 5:-0.0833333 6:-0.307692 7:-0.255919 8:-0.213546 9:-0.180785 10:-0.0750982 
1 1:-0.0775257 2:-0.0394222 3:-0.499999 4:-0.214286 5:0.25 6:-0.307692 7:-0.255919 8:-0.213546 9:-0.180785 10:-0.0750982 
1 1:-0.0773302 2:-0.0113214 3:-0.374999 4:-1 5:-1 6:-0.384615 7:-0.188828 8:-0.06086 9:-0.0268685 10:0.126482 
1 1:-0.0773302 2:-0.0113214 3:-0.374999 4:-0.928571 5:-1 6:-0.384615 7:-0.188828 8:-0.06086 9:-0.0268685 10:0.126482 
1 1:-0.0773302 2:-0.0113214 3:-0.374999 4:-0.857143 5:-0.75 6:-0.384615 7:-0.188828 8:-0.06086 9:-0.0268685 10:0.126482 
1 1:-0.0773302 2:-0.0113214 3:-0.374999 4:-0.785714 5:-0.583333 6:-0.384615 7:-0.188828 8:-0.06086 9:-0.0268685 10:0.126482 
1 1:-0.175331 2:-0.0993581 3:-0.374999 4:-0.357143 5:0.5 6:-0.384615 7:-0.188828 8:-0.06086 9:-0.0268685 10:0.126482 
1 1:-0.175331 2:-0.0993581 3:-0.374999 4:-0.285714 5:-0.0833333 6:-0.384615 7:-0.188828 8:-0.06086 9:-0.0268685 10:0.126482 
1 1:-0.0773756 2:0.0582941 3:-0.499999 4:-0.214286 5:-0.583333 6:-0.384615 7:-0.188828 8:-0.06086 9:-0.0268685 10:0.126482 
1 1:0.0207676 2:0.220487 3:-0.499999 4:-0.285714 5:-1 6:-0.384615 7:-0.159962 8:-0.0285325 9:-0.165954 10:-0.276679 
1 1:0.0207676 2:0.220487 3:-0.499999 4:-0.214286 5:0.5 6:-0.384615 7:-0.159962 8:-0.0285325 9:-0.165954 10:-0.276679 
1 1:-0.175221 2:-0.0783049 3:-0.499999 4:-0.5 5:0.25 6:-0.615385 7:-0.303029 8:0.121125 9:-0.166128 10:0.193676 
1 1:-0.175221 2:-0.0783049 3:-0.499999 4:-0.428571 5:-0.5 6:-0.615385 7:-0.303029 8:0.121125 9:-0.166128 10:0.193676 
1 1:-0.126654 2:-0.142637 3:-0.285714 4:-0.857143 5:-0.0833333 6:-0.230769 7:-0.153069 8:-0.18093 9:-0.106592 10:0.184078 
1 1:-0.0773022 2:-0.21629 3:-0.392856 4:-0.785714 5:0.75 6:-0.230769 7:-0.153069 8:-0.18093 9:-0.106592 10:0.184078 
1 1:-0.0773022 2:-0.21629 3:-0.392856 4:-0.714286 5:0.0833333 6:-0.230769 7:-0.153069 8:-0.18093 9:-0.106592 10:0.184078 
1 1:-0.0773022 2:-0.21629 3:-0.392856 4:-0.642857 5:-0.5 6:-0.230769 7:-0.153069 8:-0.18093 9:-0.106592 10:0.184078 
1 1:-0.172841 2:-0.178347 3:-0.378571 4:-0.0714286 5:0.333333 6:-0.230769 7:-0.153069 8:-0.18093 9:-0.106592 10:0.184078 
1 1:-0.126485 2:-0.0423459 3:-0.499999 4:-1 5:-0.5 6:-0.538462 7:-0.145606 8:0.207406 9:-0.0552526 10:-0.0750982 
1 1:-0.126485 2:-0.0423459 3:-0.499999 4:-0.928571 5:0.5 6:-0.538462 7:-0.145606 8:0.207406 9:-0.0552526 10:-0.0750982 
1 1:-0.126401 2:-0.0326326 3:-0.499999 4:-1 5:-0.75 6:-0.307692 7:-0.50915 8:-0.476888 9:-0.527669 10:0.0179403 
1 1:-0.126401 2:-0.0326326 3:-0.499999 4:-0.928571 5:0.5 6:-0.307692 7:-0.50915 8:-0.476888 9:-0.527669 10:0.0179403 
1 1:-0.126375 2:-0.0247844 3:-0.499999 4:-0.857143 5:-0.0833333 6:-0.307692 7:-0.50915 8:-0.476888 9:-0.527669 10:0.0179403 
1 1:-0.028234 2:-0.214709 3:-0.384615 4:-0.714286 5:0.333333 6:-0.307692 7:-0.50915 8:-0.476888 9:-0.527669 10:0.0179403 
1 1:-0.028234 2:-0.214709 3:-0.384615 4:-0.642857 5:-0.75 6:-0.307692 7:-0.50915 8:-0.476888 9:-0.527669 10:0.0179403 
1 1:-0.028234 2:-0.214709 3:-0.384615 4:-0.571429 5:-0.5 6:-0.307692 7:-0.50915 8:-0.476888 9:-0.527669 10:0.0179403 
1 1:-0.028234 2:-0.214709 3:-0.384615 4:-0.5 5:-0.666667 6:-0.307692 7:-0.50915 8:-0.476888 9:-0.527669 10:0.0179403 
1 1:-0.0282398 2:-0.218869 3:-0.153844 4:-0.428571 5:-0.583333 6:-0.307692 7:-0.50915 8:-0.476888 9:-0.527669 10:0.0179403 
1 1:-0.126301 2:-0.308652 3:-0.153844 4:-0.357143 5:0.5 6:-0.307692 7:-0.50915 8:-0.476888 9:-0.527669 10:0.0179403 
1 1:-0.175168 2:-0.0565382 3:-0.384615 4:-0.285714 6:-0.307692 7:-0.50915 8:-0.476888 9:-0.527669 10:0.0179403 
1 1:-0.175168 2:-0.0565382 3:-0.384615 4:-0.214286 5:-0.75 6:-0.307692 7:-0.50915 8:-0.476888 9:-0.527669 10:0.0179403 
1 1:-0.175168 2:-0.0565382 3:-0.384615 4:-0.142857 5:-0.0833333 6:-0.307692 7:-0.50915 8:-0.476888 9:-0.527669 10:0.0179403 
1 1:-0.0773838 2:0.0516901 3:-0.384615 4:-0.0714286 5:0.416667 6:-0.307692 7:-0.50915 8:-0.476888 9:-0.527669 10:0.0179403 
1 1:-0.175314 2:-0.0915341 3:-0.499999 4:-0.928571 5:-0.416667 6:-0.461538 7:-0.0665271 8:0.184257 9:0.0378951 10:0.364715 
1 1:-0.175314 2:-0.0915341 3:-0.499999 4:-0.857143 5:-0.0833333 6:-0.461538 7:-0.0665271 8:0.184257 9:0.0378951 10:0.364715 
1 1:-0.17526 2:-0.159298 3:-0.349999 4:-0.857143 5:-0.666667 6:-0.538462 7:-0.246237 8:0.0742176 9:-0.147004 10:0.166799 
1 1:-0.175089 2:0.0515126 3:-0.499999 4:-0.785714 5:-1 6:-0.538462 7:-0.246237 8:0.0742176 9:-0.147004 10:0.166799 
1 1:-0.175346 2:-0.0981569 3:-0.499999 4:-1 5:0.5 6:-0.461538 7:-0.220931 8:-0.0030723 9:-0.125043 10:0.0348562 
