svm_type c_svc
kernel_type linear
nr_class 2
total_sv 1721
rho 0.367545
label 1 -1
probA -1.44899
probB 0.0793876
nr_sv 861 860
SV
1 1:-0.0125285 2:0.0189825 3:0.0712032 4:0.54642 5:0.00767595 6:0.199999 7:-0.123595 8:-0.932432 9:0.139886 
1 1:-0.128695 2:-0.0291265 3:-0.0187413 4:0.53201 5:0.0410019 6:0.199999 7:-0.757148 8:-0.945946 9:-0.0964576 
1 1:0.0753836 2:0.0543341 3:0.152353 4:0.575691 5:0.115122 6:0.199999 7:0.0466224 8:-0.0675676 9:0.0294484 
1 1:0.0267571 2:0.0636334 3:-0.0335013 4:0.377554 5:-0.0330656 6:0.199999 7:-0.133685 8:0.216216 9:0.353312 
1 1:-0.301152 2:-0.0553069 3:-0.14509 4:0.401632 5:0.140466 6:0.199999 7:-0.310069 8:-0.756757 9:0.230052 
1 1:-0.124453 2:-0.0635836 3:0.0311352 4:0.493598 5:0.00353996 6:0.181817 7:-0.469649 8:-0.486486 9:0.0408285 
1 1:-0.254509 2:-0.219978 3:-0.0421145 4:0.437829 5:0.049783 6:0.349999 7:0.0237654 8:0.0810811 9:0.318495 
1 1:0.0216309 2:0.0832307 3:0.106327 4:0.554677 5:-0.128229 6:-0.0823535 7:0.0272204 8:-1 9:0.159413 
0.815593722724073 1:-0.0616177 2:0.0469279 3:-0.00596037 4:0.555358 5:0.0686592 6:0.199999 7:-0.248683 8:-1 9:0.421372 
1 1:-0.0519906 2:-0.0648876 3:0.0336869 4:0.529736 5:0.0299394 6:0.199999 7:-0.280758 8:-1 9:0.619946 
1 1:0.100347 2:-0.0376533 3:0.0950187 4:0.539974 5:0.1504 6:0.199999 7:-0.149329 8:-0.918919 9:0.0524704 
1 1:0.085477 2:0.0204955 3:0.171273 4:0.554613 5:0.107378 6:0.199999 7:-0.526172 8:-0.986486 9:0.0620962 
1 1:-0.135755 2:-0.180815 3:0.0059806 4:0.479484 5:0.00848218 6:0.199999 7:0.264767 8:-0.837838 9:0.165113 
1 1:0.0351812 2:0.0220336 3:0.0646184 4:0.552695 5:0.0114657 6:0.199999 7:0.252079 8:-0.513514 9:0.355342 
1 1:0.121791 2:0.0170548 3:0.21486 4:0.548331 5:0.0150475 6:0.199999 7:0.0514974 8:-0.810811 9:0.219784 
1 1:0.26096 2:-0.0251725 3:0.0125443 4:0.521965 5:0.0274192 6:0.199999 7:0.297034 8:-0.364865 9:0.323717 
1 1:0.311454 2:0.0204955 3:0.202025 4:0.554677 5:0.172722 6:0.199999 7:0.268825 8:-0.810811 9:-0.0926206 
1 1:0.144179 2:0.0204955 3:0.117256 4:0.526173 5:-0.0333912 6:0.173528 7:0.301199 8:-0.77027 9:0.231174 
1 1:-0.218186 2:0.0271696 3:-0.00568675 4:0.485571 5:-0.092176 6:0.199999 7:-0.493149 8:-0.972973 9:-0.00863154 
1 1:-0.370415 2:-0.11303 3:-0.41356 4:-0.276825 5:0.138865 6:0.153845 7:-0.599276 8:-0.945946 9:-0.0114977 
1 1:-0.10238 2:0.0425681 3:0.102255 4:0.554677 5:-0.01406 6:0.199999 7:-0.322638 8:-1 9:0.307338 
1 1:-0.151641 2:0.0653935 3:0.277152 4:0.730554 5:-0.0765392 6:0.0285705 7:-0.58219 8:-0.986486 9:0.0809307 
1 1:-0.131044 2:-0.0960618 3:0.0451059 4:0.4855 5:-0.0397558 6:-0.0666676 7:-0.327907 8:-0.5 9:0.258498 
1 1:0.159469 2:0.0547562 3:0.215121 4:0.563128 5:0.0264195 6:0.199999 7:0.230327 8:0.581081 9:0.0183705 
1 1:-0.0546103 2:-0.0138737 3:-0.0036904 4:0.364987 5:0.0454273 6:0.199999 7:-0.307508 8:-1 9:-0.0126619 
1 1:-0.0169021 2:0.0515379 3:0.091886 4:0.526148 5:-0.00232336 6:0.199999 7:-0.193727 8:-0.972973 9:0.22578 
1 1:-0.203584 2:0.0555888 3:-0.01132 4:0.529658 5:-0.057871 6:0.199999 7:-0.78317 8:-0.972973 9:0.051981 
1 1:0.0555341 2:0.0627014 3:0.184928 4:0.595859 5:-0.0717526 6:0.199999 7:0.147993 8:-1 9:0.314869 
1 1:-0.0851131 2:0.0150419 3:0.0854817 4:0.547679 5:0.0475393 6:0.199999 7:-0.423638 8:-1 9:0.335267 
1 1:0.0792944 2:-0.0532048 3:0.0389175 4:0.511247 5:0.0686592 6:0.199999 7:0.00974937 8:-1 9:-0.171169 
1 1:0.00910863 2:-0.0182516 3:0.0940916 4:0.522148 5:-0.00282293 6:0.199999 7:-0.123565 8:-0.891892 9:0.0648254 
1 1:-0.259601 2:-0.0245053 3:-0.00443818 4:0.400135 5:-0.194772 6:-0.142858 7:-0.604796 8:-0.959459 9:0.0441579 
1 1:-0.143006 2:0.0204955 3:0.0108305 4:0.523166 5:0.0354709 6:0.199999 7:-0.629184 8:-0.851351 9:-0.0347514 
1 1:0.0707608 2:-0.037157 3:0.20216 4:0.527712 5:-0.0366095 6:0.199999 7:0.0551055 8:-0.77027 9:0.530855 
1 1:-0.00180618 2:0.0204955 3:0.221369 4:0.554677 5:0.223537 6:0.199999 7:-0.726414 8:-1 9:0.11014 
1 1:-0.0767455 2:-0.0719409 3:0.131588 4:0.51687 5:0.176521 6:0.199999 7:-0.472085 8:-0.945946 9:0.10298 
1 1:-0.142082 2:-0.0216827 3:0.114993 4:0.418341 5:-0.142538 6:0.199999 7:-0.587644 8:-0.851351 9:0.0927862 
1 1:0.00458655 2:0.0358111 3:0.132664 4:0.56684 5:-0.0640939 6:-0.142858 7:-0.565093 8:-1 9:0.0539972 
1 1:-0.0429924 2:-0.0749364 3:0.0970594 4:0.570703 5:-0.0762933 6:0.199999 7:0.0885174 8:-0.891892 9:0.282102 
1 1:-0.094099 2:-0.0125126 3:0.0355444 4:0.537717 5:-0.085323 6:0.199999 7:-0.19026 8:-0.891892 9:0.0385787 
1 1:0.227527 2:-0.0260266 3:0.112223 4:0.536927 5:0.0105797 6:0.0999993 7:-0.132195 8:-1 9:0.44575 
1 1:-0.427465 2:-0.147919 3:-0.929411 4:-0.86103 5:-0.244554 6:-0.100001 7:-0.780137 8:0.0540541 9:0.120562 
1 1:-0.082331 2:0.0320686 3:-0.0333592 4:0.494624 5:0.0989944 6:0.199999 7:-0.42892 8:-0.986486 9:0.270007 
1 1:-0.00154298 2:-0.0391332 3:0.0570643 4:0.391883 5:0.0852533 6:0.199999 7:-0.595968 8:-1 9:0.0292651 
1 1:-0.189421 2:-0.0706852 3:0.0837706 4:0.576928 5:-0.0253741 6:0.114285 7:-0.717723 8:-0.986486 9:-0.176378 
1 1:0.0223799 2:-0.0458948 3:0.199911 4:0.531394 5:-0.0580594 6:0.199999 7:-0.0377887 8:-1 9:0.169581 
1 1:-0.0622466 2:0.109153 3:0.0772996 4:0.554459 5:0.0354709 6:-0.2 7:-0.621218 8:-0.837838 9:0.0619794 
1 1:-0.247961 2:-0.131777 3:0.206218 4:0.599117 5:0.0354709 6:0.199999 7:-0.83008 8:-1 9:0.0684066 
1 1:-0.0883492 2:-0.0242511 3:0.0991152 4:0.538148 5:-0.0482034 6:0.146666 7:-0.194933 8:-1 9:-0.130239 
1 1:0.284328 2:-0.00886356 3:0.0782757 4:0.47812 5:0.00228266 6:0.184614 7:0.124102 8:-0.945946 9:0.273097 
1 1:-0.131731 2:0.054555 3:0.105801 4:0.507841 5:0.115122 6:0.199999 7:-0.792026 8:-0.959459 9:0.519493 
1 1:-0.165648 2:-0.219042 3:0.074733 4:0.554329 5:0.0531713 6:0.199999 7:-0.458256 8:-1 9:0.274573 
1 1:-0.265266 2:0.016855 3:0.00273936 4:0.550304 5:-0.0115962 6:0.199999 7:-0.909004 8:-0.986486 9:0.14159 
1 1:-0.0972927 2:-0.0190621 3:0.0474634 4:0.534873 5:0.00529962 6:0.199999 7:-0.314577 8:-0.878378 9:0.137152 
1 1:0.191869 2:-0.0195042 3:0.0995286 4:0.532188 5:0.068909 6:0.199999 7:-0.236617 8:-0.986486 9:0.0429595 
1 1:-0.0186474 2:-0.0471989 3:0.112059 4:0.521118 5:0.107378 6:0.199999 7:-0.555242 8:-0.972973 9:0.223732 
1 1:0.0274778 2:0.0512675 3:0.0729531 4:0.546213 5:-0.0414301 6:0.179999 7:-0.00705145 8:-0.972973 9:0.84177 
1 1:0.0982536 2:0.0367701 3:0.0987582 4:0.538546 5:-0.0358835 6:0.199999 7:0.319588 8:-0.932432 9:0.282332 
1 1:0.109476 2:0.00689328 3:0.125942 4:0.547698 5:0.193422 6:0.199999 7:-0.284647 8:-1 9:-0.124096 
1 1:-0.373329 2:-0.0833217 3:-0.431018 4:0.214757 5:0.307171 6:0.253332 7:-0.774405 8:-0.891892 9:0.0850437 
1 1:-0.0979692 2:0.0290668 3:0.142155 4:0.458255 5:0.0851708 6:0.199999 7:-0.268107 8:-0.959459 9:0.231615 
1 1:0.045877 2:-0.104145 3:0.032407 4:0.2752 5:0.300976 6:0.466666 7:-0.203909 8:-0.959459 9:0.0529176 
1 1:-0.249988 2:-0.0115793 3:0.140458 4:0.523657 5:-0.0640939 6:-0.2 7:-0.860251 8:-0.945946 9:0.0394146 
1 1:-0.119749 2:0.0204955 3:0.0216705 4:0.554677 5:0.247045 6:0.199999 7:-0.622555 8:0.432432 9:0.115289 
1 1:0.178316 2:-0.0012616 3:0.168764 4:0.542681 5:0.0329179 6:0.199999 7:0.0174429 8:-1 9:0.115387 
1 1:-0.00412375 2:0.0113178 3:-0.0327024 4:0.443319 5:-0.0890637 6:0.199999 7:0.356581 8:0.0540541 9:0.0121124 
1 1:0.0790401 2:0.0204955 3:0.0291919 4:0.546885 5:-0.0309056 6:0.199999 7:0.326128 8:-0.837838 9:0.202909 
1 1:-0.0126009 2:-0.0125658 3:0.0725608 4:0.543727 5:0.0841466 6:0.199999 7:-0.442673 8:-1 9:-0.186455 
1 1:0.0932829 2:-0.00588108 3:0.0346487 4:0.550985 5:0.0897785 6:0.199999 7:0.0156434 8:-0.824324 9:0.675555 
1 1:-0.216801 2:-0.0165531 3:0.126052 4:0.534681 5:0.0354709 6:0.199999 7:-0.577214 8:-0.878378 9:0.368917 
1 1:-0.0887802 2:-0.0385566 3:0.0834362 4:0.513299 5:-0.0111033 6:0.0999993 7:-0.269279 8:-0.986486 9:0.129799 
1 1:-0.0738503 2:0.073467 3:0.0797933 4:0.326929 5:-0.254688 6:-0.2 7:-0.708374 8:-0.824324 9:-0.0798729 
1 1:-0.205252 2:-0.00583289 3:0.0706739 4:0.551047 5:-0.0253741 6:0.157142 7:-0.714075 8:-1 9:0.0294504 
1 1:-0.131314 2:0.0204955 3:0.0123983 4:0.523358 5:-0.0467404 6:0.199999 7:0.162502 8:-0.932432 9:0.0858191 
1 1:-0.317961 2:0.00922411 3:0.0735682 4:0.498013 5:-0.086219 6:0.199999 7:-0.715137 8:-0.702703 9:0.163083 
1 1:-0.247015 2:-0.192849 3:-0.0359042 4:0.473001 5:0.0491641 6:0.181817 7:-0.0046369 8:-1 9:0.191328 
1 1:-0.0117053 2:-0.0250061 3:0.103388 4:0.48449 5:0.184818 6:0.199999 7:-0.453069 8:-1 9:-0.193331 
1 1:-0.16629 2:-0.0679512 3:0.00232072 4:0.501463 5:-0.00948412 6:0.199999 7:-0.454617 8:-1 9:0.510949 
1 1:-0.0676713 2:0.0128986 3:0.00931557 4:0.536407 5:-0.0494702 6:0.179999 7:-0.164532 8:-1 9:0.0118788 
1 1:-0.0918238 2:-0.0581305 3:0.0321801 4:0.530325 5:-0.0126522 6:0.199999 7:0.0545883 8:-0.959459 9:0.291676 
1 1:0.0266211 2:-0.00582644 3:0.10346 4:0.541224 5:0.0390912 6:0.199999 7:-0.40442 8:-0.986486 9:0.333401 
1 1:0.0228586 2:0.0727709 3:0.0430692 4:0.47462 5:0.0299394 6:0.199999 7:-0.0597552 8:0.567568 9:0.0755005 
1 1:-0.41204 2:-0.0817086 3:-0.27813 4:-0.013169 5:0.0264195 6:0.199999 7:-0.737094 8:-1 9:0.320279 
1 1:-0.21773 2:0.00161725 3:0.275627 4:0.528347 5:0.115122 6:-0.280001 7:-0.921674 8:-0.972973 9:-0.0353334 
1 1:0.20481 2:0.0385606 3:0.104339 4:0.54043 5:-0.0332346 6:0.199999 7:0.424684 8:-0.945946 9:0.540164 
1 1:0.0430171 2:-0.0156278 3:0.104018 4:0.519097 5:0.0491641 6:0.181817 7:-0.225291 8:-1 9:-0.0817863 
1 1:-0.39313 2:-0.0509418 3:-0.28046 4:0.17014 5:0.239025 6:0.199999 7:-0.748286 8:-0.851351 9:0.128506 
1 1:0.0362446 2:0.0313019 3:0.0512792 4:0.529151 5:0.0639177 6:0.358241 7:-0.158366 8:-0.0675676 9:0.354494 
1 1:0.185934 2:-0.00659846 3:0.0820228 4:0.547258 5:0.089904 6:0.345453 7:0.30492 8:-0.918919 9:-0.0618078 
1 1:-0.0119137 2:-0.0729224 3:0.0841167 4:0.442619 5:0.107378 6:0.199999 7:-0.528798 8:-0.986486 9:0.251588 
1 1:0.0655233 2:-0.165802 3:-0.289076 4:-0.291375 5:0.223537 6:0.199999 7:-0.268113 8:-1 9:0.027396 
1 1:-0.0201559 2:0.0204955 3:0.0606091 4:0.554677 5:-0.0988623 6:0.199999 7:0.310674 8:-1 9:0.433385 
1 1:0.175698 2:0.00357187 3:0.130483 4:0.446102 5:0.152293 6:0.199999 7:-0.0277847 8:-0.986486 9:-0.00605944 
1 1:-0.0146199 2:0.0351102 3:0.347253 4:0.567703 5:0.2346 6:0.199999 7:-0.739111 8:-0.986486 9:0.0125697 
1 1:0.0746381 2:0.0208993 3:0.431256 4:0.555523 5:-0.0735473 6:-0.0400008 7:-0.300319 8:-1 9:-0.0515012 
1 1:-0.0464688 2:-0.0114377 3:-0.0409984 4:0.389528 5:0.204977 6:0.265454 7:-0.269802 8:-0.932432 9:0.0157198 
1 1:0.0970401 2:0.0157963 3:0.154704 4:0.590845 5:0.00692435 6:0.163635 7:-0.200919 8:-0.972973 9:0.0190956 
1 1:-0.192822 2:-0.0462809 3:-0.0630497 4:0.271504 5:0.0105797 6:-0.142858 7:-0.826218 8:-1 9:0.808019 
1 1:0.0600332 2:0.0205535 3:0.0483775 4:0.552378 5:0.121459 6:0.199999 7:0.0770598 8:-0.783784 9:0.0284172 
1 1:-0.157037 2:-0.0702285 3:-0.228384 4:0.255289 5:0.135538 6:0.199999 7:-0.212156 8:-0.986486 9:0.476609 
1 1:0.0245579 2:-0.102266 3:0.153723 4:0.436972 5:0.0686592 6:0.199999 7:-0.325936 8:-0.945946 9:0.382118 
1 1:0.195651 2:-0.00949245 3:0.0661858 4:0.516882 5:0.146098 6:0.199999 7:0.0102635 8:-0.986486 9:0.43408 
1 1:-0.0967945 2:-0.103628 3:0.0069909 4:0.55297 5:0.0629063 6:0.0285705 7:0.0131065 8:-0.837838 9:0.375558 
1 1:-0.105973 2:-0.0352707 3:-0.0626573 4:0.384957 5:0.0475393 6:0.199999 7:-0.356744 8:-0.337838 9:0.0982849 
1 1:-0.0852367 2:-0.325208 3:0.152656 4:0.466501 5:0.0631276 6:-0.4 7:-0.27984 8:-0.986486 9:0.180278 
1 1:0.0381435 2:-0.00365561 3:0.0781361 4:0.53877 5:-0.00492048 6:0.199999 7:0.26974 8:-0.878378 9:0.158343 
1 1:0.052616 2:-0.0663377 3:0.0126417 4:0.40017 5:0.138162 6:0.199999 7:-0.146159 8:-0.824324 9:0.23206 
1 1:0.0199528 2:-0.0342322 3:0.186078 4:0.616042 5:-0.000270417 6:0.153845 7:-0.141486 8:-1 9:0.0710492 
1 1:-0.0695949 2:0.0367403 3:0.048498 4:0.544033 5:-0.016317 6:0.153845 7:-0.422445 8:-1 9:0.0535863 
1 1:-0.0140105 2:-0.00782924 3:0.0777124 4:0.438102 5:0.184818 6:0.199999 7:-0.626659 8:-1 9:0.400425 
1 1:0.0751186 2:-0.0371039 3:0.0640994 4:0.426853 5:-0.0411174 6:0.199999 7:0.149771 8:-0.972973 9:0.2402 
1 1:0.0216486 2:-0.00895271 3:0.138783 4:0.63671 5:-0.0219701 6:0.015384 7:-0.325456 8:-1 9:0.220459 
1 1:-0.123821 2:0.0122902 3:0.0146722 4:0.397685 5:0.0201531 6:0.199999 7:-0.723822 8:-0.986486 9:0.283428 
1 1:-0.133293 2:0.0361965 3:0.0134209 4:0.449181 5:-0.0119407 6:0.199999 7:-0.864695 8:-0.959459 9:0.107643 
1 1:-0.066426 2:0.0671346 3:0.0681393 4:0.577157 5:-0.00103595 6:0.199999 7:-0.324774 8:-0.689189 9:0.493601 
1 1:0.0131485 2:-0.10457 3:0.0230171 4:0.452545 5:-0.0424109 6:0.199999 7:0.269746 8:-0.986486 9:0.146659 
1 1:0.105955 2:-0.00720483 3:0.105824 4:0.525707 5:-0.0542061 6:0.199999 7:0.354855 8:-0.405405 9:0.267447 
1 1:-0.123701 2:0.0475295 3:-0.0809798 4:0.127214 5:0.176213 6:0.199999 7:-0.61757 8:-0.27027 9:0.426412 
1 1:-0.00406899 2:-0.0326279 3:-0.00259032 4:0.477007 5:-0.0206939 6:0.120878 7:0.00368394 8:-1 9:0.0837747 
1 1:0.0166283 2:-0.106851 3:0.00626444 4:0.472777 5:0.1044 6:0.399999 7:0.00360131 8:-0.959459 9:0.21528 
1 1:0.12593 2:0.0718537 3:0.12588 4:0.544274 5:-0.0300202 6:0.0285705 7:0.535223 8:-0.932432 9:0.362408 
1 1:-0.411856 2:-0.0894062 3:-0.138313 4:0.362307 5:0.16933 6:0.166666 7:-0.771856 8:-1 9:-0.236485 
1 1:-0.0899213 2:0.0385609 3:-0.0288224 4:0.498215 5:0.0160516 6:0.199999 7:-0.147885 8:-1 9:-0.226076 
1 1:-0.346919 2:-0.0370826 3:0.019676 4:0.491712 5:0.107378 6:0.199999 7:-0.919458 8:-1 9:0.964692 
1 1:-0.074223 2:0.0338653 3:0.0850764 4:0.564261 5:-0.0279879 6:0.199999 7:-0.339368 8:-0.945946 9:0.0935737 
1 1:0.0227667 2:0.0204955 3:0.00316236 4:0.382106 5:0.0686592 6:0.199999 7:-0.277652 8:-0.824324 9:-0.0286162 
1 1:-0.172813 2:-0.457167 3:-0.123667 4:0.194257 5:0.0604112 6:0.199999 7:-0.129379 8:-0.675676 9:-0.202474 
1 1:-0.276028 2:-0.0467405 3:-0.0144811 4:0.460803 5:-0.0143115 6:0.199999 7:-0.62878 8:-1 9:0.279925 
1 1:0.168678 2:0.0414648 3:0.16974 4:0.547091 5:-0.0257197 6:0.179999 7:-0.148983 8:-0.986486 9:0.367864 
1 1:-0.181654 2:-0.0530968 3:-0.0149185 4:0.521015 5:0.0852533 6:0.199999 7:-0.527008 8:-0.972973 9:0.235283 
1 1:-0.109504 2:0.0656994 3:0.0443416 4:0.554827 5:0.0259885 6:0.199999 7:-0.55694 8:-0.783784 9:0.11584 
1 1:-0.0261318 2:0.0256208 3:-0.00311877 4:0.462721 5:0.158741 6:0.199999 7:-0.424569 8:-0.756757 9:0.0654216 
1 1:-0.0582403 2:0.0230503 3:-0.0393936 4:0.358 5:0.0299394 6:0.199999 7:-0.155257 8:-1 9:0.0825018 
1 1:0.0186527 2:0.0204955 3:0.134405 4:0.535456 5:-0.042853 6:0.199999 7:-0.265374 8:-0.986486 9:0.00856749 
1 1:-0.233114 2:-0.00846629 3:-0.130951 4:0.236643 5:0.110898 6:0.199999 7:-0.535062 8:0.027027 9:0.0449938 
1 1:-0.302727 2:0.0298863 3:0.0436563 4:0.545342 5:0.339696 6:0.199999 7:-0.792721 8:-0.932432 9:0.0544846 
1 1:-0.0861553 2:-0.0525238 3:0.144442 4:0.52076 5:0.0109315 6:0.199999 7:-0.433462 8:-1 9:0.439685 
1 1:-0.137232 2:-0.110849 3:0.0657771 4:0.554641 5:-0.162637 6:-0.0109896 7:-0.282845 8:-0.554054 9:0.364236 
1 1:-0.177 2:-0.00464543 3:0.125708 4:0.53471 5:0.187188 6:0.199999 7:-0.630239 8:-0.945946 9:0.0580336 
1 1:-0.250156 2:-0.0916219 3:0.0714457 4:0.592629 5:-0.0320118 6:0.133332 7:-0.724064 8:-1 9:-0.0273654 
1 1:-0.0211487 2:-0.191046 3:-0.00418288 4:0.319367 5:0.000169499 6:0.199999 7:0.124592 8:-0.986486 9:0.0881274 
1 1:-0.0540309 2:-0.125542 3:0.362349 4:0.597743 5:0.0852533 6:-0.142858 7:-0.534291 8:-1 9:0.0294343 
1 1:0.0644493 2:-0.00859442 3:0.0439738 4:0.542234 5:-0.037859 6:0.199999 7:0.456269 8:-0.851351 9:0.30254 
1 1:0.057108 2:-0.102732 3:0.0552981 4:0.469701 5:0.0686592 6:0.199999 7:-0.278236 8:-1 9:0.168882 
1 1:-0.106376 2:-0.0178754 3:-0.000680004 4:0.562812 5:0.146098 6:0.199999 7:-0.456616 8:-0.702703 9:-0.0810673 
1 1:-0.196687 2:-0.0332865 3:0.145449 4:0.554677 5:0.057043 6:0.199999 7:-0.58511 8:-1 9:-0.00956612 
1 1:0.202223 2:0.047513 3:0.120207 4:0.526878 5:0.0381673 6:0.199999 7:0.480151 8:-0.527027 9:0.44085 
1 1:-0.120841 2:-0.0426333 3:0.0404631 4:0.349197 5:0.18912 6:0.199999 7:-0.494939 8:-1 9:-0.275808 
1 1:0.00750647 2:0.0204955 3:0.0525877 4:0.45445 5:0.184818 6:0.199999 7:-0.517043 8:-1 9:0.436765 
1 1:0.142386 2:-0.0160974 3:0.0768037 4:0.509062 5:-0.0765392 6:0.0588225 7:0.623423 8:-0.148649 9:0.535004 
1 1:0.173716 2:-0.0334033 3:0.144567 4:0.643906 5:-0.0341239 6:0.199999 7:-0.224449 8:-1 9:0.64582 
1 1:-0.0809531 2:0.0204955 3:0.0992269 4:0.547998 5:-0.0385643 6:0.199999 7:-0.25675 8:-0.864865 9:0.245112 
1 1:-0.17822 2:-0.061364 3:-0.0258423 4:0.474653 5:0.00374124 6:0.199999 7:-0.190502 8:-0.662162 9:-0.22211 
1 1:-0.00238557 2:-0.0101757 3:0.245195 4:0.554677 5:-0.0183231 6:0.16923 7:-0.247833 8:-0.972973 9:0.185243 
1 1:-0.0598954 2:0.0330243 3:0.114129 4:0.561479 5:0.239025 6:0.199999 7:-0.313353 8:-0.972973 9:-0.00799305 
1 1:-0.024761 2:0.0204955 3:0.200903 4:0.518583 5:0.180171 6:0.199999 7:-0.426129 8:-1 9:0.32587 
1 1:-0.0748307 2:0.0408165 3:0.0336617 4:0.510783 5:0.0114439 6:0.199999 7:-0.467134 8:-1 9:0.0799861 
1 1:0.113307 2:0.0268273 3:-0.116943 4:0.365406 5:0.0625494 6:0.199999 7:0.283884 8:-0.986486 9:-0.383771 
1 1:-0.227513 2:0.0204955 3:0.0479368 4:0.544528 5:-0.0158197 6:0.199999 7:-0.621756 8:-0.986486 9:0.46883 
1 1:0.136446 2:-0.109444 3:0.104009 4:0.38599 5:0.0655614 6:-0.0133339 7:-0.199551 8:-0.824324 9:-0.12126 
1 1:-0.267257 2:-0.0336666 3:-0.0603968 4:0.512357 5:0.34744 6:0.466666 7:-0.509497 8:-0.959459 9:-0.0634292 
1 1:0.192666 2:-0.00489364 3:0.104849 4:0.414873 5:0.317872 6:0.199999 7:-0.171764 8:-0.716216 9:0.417113 
1 1:-0.175456 2:-0.229137 3:-0.0150314 4:0.453116 5:-0.188549 6:-0.142858 7:-0.714136 8:-0.743243 9:0.0993463 
1 1:0.342017 2:0.0191833 3:0.470111 4:0.586334 5:0.0201531 6:0.199999 7:0.127425 8:-1 9:0.449118 
1 1:-0.087791 2:-0.103789 3:0.00211112 4:0.465085 5:-0.00282293 6:0.199999 7:-0.425156 8:-0.783784 9:0.1408 
1 1:-0.000128067 2:0.0186722 3:0.112174 4:0.533057 5:0.111251 6:0.199999 7:-0.518295 8:-1 9:0.150643 
1 1:0.150263 2:-0.0142195 3:0.0238979 4:0.539948 5:0.458619 6:0.199999 7:-0.256704 8:-0.918919 9:-0.0668512 
1 1:0.0489965 2:0.00265237 3:0.0622398 4:0.513659 5:0.115983 6:0.199999 7:-0.283454 8:-0.959459 9:-0.00802528 
1 1:-0.257219 2:-0.109357 3:0.134181 4:0.617107 5:0.0686592 6:-0.0571435 7:-0.719204 8:-1 9:0.0329229 
1 1:-0.212855 2:-0.0881146 3:0.044155 4:0.552291 5:-0.0145668 6:0.199999 7:-0.472125 8:-0.945946 9:-0.0375188 
1 1:0.245573 2:0.00123842 3:0.13677 4:0.536282 5:0.240746 6:0.199999 7:-0.170402 8:-0.945946 9:0.300149 
1 1:0.192286 2:0.000624148 3:0.0530169 4:0.545686 5:-0.0830733 6:0.199999 7:0.331572 8:-0.716216 9:-0.0475454 
1 1:-0.0532254 2:0.0181012 3:0.0922136 4:0.553743 5:0.0369791 6:0.156363 7:-0.279583 8:-1 9:0.30329 
1 1:-0.207285 2:0.0273348 3:-0.273691 4:0.15931 5:0.210249 6:0.199999 7:-0.408481 8:-0.972973 9:0.153133 
1 1:0.0173349 2:-0.116408 3:0.065662 4:0.504118 5:0.0160003 6:0.199999 7:-0.162506 8:0.810811 9:0.020288 
1 1:-0.152485 2:-0.0451785 3:0.00279474 4:0.526002 5:0.0385793 6:0.199999 7:-0.509775 8:-0.837838 9:0.146053 
1 1:0.275717 2:0.0204955 3:0.0656204 4:0.554677 5:0.0865296 6:0.199999 7:-0.0318028 8:-0.891892 9:0.0304978 
1 1:-0.107556 2:-0.0863423 3:0.15816 4:0.5286 5:0.262257 6:0.199999 7:-0.611798 8:-1 9:0.316414 
1 1:0.0994619 2:-0.0370411 3:0.325072 4:0.48685 5:0.110515 6:0.199999 7:0.0730692 8:-0.851351 9:0.0183242 
1 1:-0.0443632 2:0.0204955 3:0.200044 4:0.554677 5:-0.0791793 6:0.199999 7:-0.297253 8:0.0810811 9:0.134443 
1 1:0.180105 2:-0.0721513 3:0.127075 4:0.566284 5:-0.175274 6:-0.105455 7:0.104011 8:-0.72973 9:-0.00403922 
1 1:-0.30443 2:-0.191016 3:-0.0969598 4:0.363827 5:0.0479163 6:0.199999 7:-0.542964 8:-0.945946 9:-0.119383 
1 1:-0.0120621 2:-0.0829835 3:0.0421135 4:0.518406 5:-0.01406 6:0.199999 7:-0.0350406 8:-0.648649 9:0.459505 
1 1:0.0628684 2:0.00899033 3:0.0740259 4:0.550425 5:0.110898 6:0.199999 7:-0.328063 8:-1 9:0.243996 
1 1:-0.0426038 2:0.02562 3:-0.0580936 4:0.41733 5:0.0739388 6:0.199999 7:-0.254737 8:-0.986486 9:0.233017 
1 1:0.073981 2:0.0204955 3:-0.0269749 4:0.398858 5:0.105775 6:0.199999 7:-0.181073 8:-0.797297 9:0.302486 
1 1:0.126774 2:0.0505223 3:0.184476 4:0.572535 5:-0.0060724 6:0.10909 7:0.312727 8:-0.986486 9:0.282251 
1 1:0.141077 2:0.00130426 3:0.317189 4:0.547406 5:0.135035 6:0.199999 7:-0.448301 8:-1 9:-0.0594915 
1 1:0.155324 2:0.026416 3:0.0536102 4:0.556564 5:0.0229213 6:0.199999 7:0.148847 8:-0.905405 9:0.303598 
1 1:0.0954785 2:0.0315272 3:-0.0333141 4:0.366982 5:0.0584949 6:0.199999 7:0.291458 8:-0.837838 9:0.402621 
1 1:-0.126034 2:-0.065859 3:0.0386239 4:0.412369 5:0.0113057 6:0.199999 7:-0.250645 8:-0.22973 9:0.0632221 
1 1:-0.31872 2:0.0157025 3:-0.0937396 4:0.490411 5:-0.0972816 6:-0.2 7:-0.878454 8:-0.972973 9:0.316134 
1 1:-0.0726544 2:0.0200809 3:0.0821447 4:0.522327 5:0.0191712 6:0.199999 7:-0.204135 8:-0.851351 9:-0.123004 
1 1:0.0295852 2:0.0375613 3:0.100232 4:0.520733 5:0.0416939 6:0.199999 7:-0.29485 8:-0.918919 9:-0.0407798 
1 1:-0.11135 2:-0.0667158 3:0.0392492 4:0.457113 5:0.0299394 6:0.199999 7:-0.421386 8:-0.310811 9:0.758408 
1 1:-0.287568 2:-0.057416 3:-0.124228 4:0.335438 5:0.112059 6:0.199999 7:-0.530083 8:-1 9:0.739898 
1 1:-0.208062 2:-0.296428 3:-0.0144184 4:0.482359 5:-0.0773689 6:0.0171422 7:0.0575628 8:-0.608108 9:0.600874 
1 1:-0.124105 2:0.00971601 3:0.0393814 4:0.512308 5:-0.00138833 6:0.156363 7:-0.280268 8:-1 9:-0.0184144 
1 1:0.0421004 2:0.0122979 3:0.125602 4:0.560345 5:0.0348676 6:0.134544 7:0.0933556 8:-1 9:0.0499829 
1 1:0.0366368 2:-0.0107672 3:0.0167355 4:0.46616 5:0.0223415 6:0.015384 7:-0.0019653 8:-0.756757 9:-0.309992 
1 1:-0.013122 2:-0.047181 3:0.0473564 4:0.527386 5:0.184818 6:0.199999 7:-0.547074 8:-1 9:-0.0221668 
1 1:0.349351 2:-0.00102471 3:0.0906906 4:0.513266 5:0.152293 6:0.199999 7:-0.0525789 8:-1 9:-0.0603676 
1 1:0.0193734 2:-0.0323886 3:-0.0453718 4:0.286852 5:0.266559 6:0.499999 7:-0.18622 8:-1 9:0.334944 
1 1:-0.312666 2:0.0204955 3:-0.229996 4:0.175623 5:0.0897785 6:0.199999 7:-0.53699 8:-1 9:0.124048 
1 1:-0.0496324 2:0.0204989 3:0.0362964 4:0.554677 5:0.0644351 6:0.199999 7:-0.472918 8:-0.918919 9:0.0752951 
1 1:-0.40183 2:-0.218433 3:0.0899828 4:0.588642 5:0.257955 6:0.199999 7:-0.579353 8:-0.986486 9:-0.00494157 
1 1:0.0449496 2:-0.120411 3:0.226924 4:0.554677 5:-0.0107542 6:0.173625 7:0.0202155 8:-0.918919 9:0.181609 
1 1:-0.0183135 2:0.0204955 3:0.177073 4:0.554677 5:-0.0876269 6:-0.0400008 7:-0.404622 8:-0.972973 9:-0.0628229 
1 1:-0.118421 2:0.0525131 3:-0.0102066 4:0.523531 5:0.2346 6:0.199999 7:-0.752481 8:0.189189 9:-0.454165 
1 1:-0.0277728 2:0.0204955 3:0.0385776 4:0.551194 5:-0.0115962 6:0.199999 7:-0.287389 8:-1 9:-0.00297977 
1 1:-0.0343528 2:-0.0465597 3:0.0550168 4:0.543858 5:-0.0172292 6:0.16923 7:0.0701619 8:-1 9:0.230284 
1 1:-0.0205516 2:-0.0917049 3:0.0634359 4:0.501335 5:0.0221954 6:0.199999 7:-0.255575 8:-0.986486 9:0.0158689 
1 1:0.00424386 2:0.0204955 3:0.313838 4:0.554677 5:0.2346 6:0.199999 7:-0.72332 8:-1 9:-0.0980166 
1 1:-0.213985 2:-0.0171146 3:-0.0274576 4:0.530496 5:0.0800312 6:0.199999 7:-0.612493 8:-0.932432 9:0.380799 
1 1:-0.0500264 2:0.069807 3:0.0688525 4:0.557523 5:-0.0369395 6:-0.0181824 7:-0.42466 8:-0.635135 9:0.854898 
1 1:0.0178649 2:-0.0125499 3:0.0372895 4:0.49441 5:-0.00435511 6:0.199999 7:0.0389595 8:-0.905405 9:0.160315 
1 1:-0.180596 2:0.0117874 3:-0.0398255 4:0.520177 5:-0.0358835 6:0.199999 7:-0.199025 8:-0.810811 9:0.319012 
1 1:-0.225071 2:0.0606331 3:-0.0224635 4:0.480212 5:0.136805 6:0.199999 7:-0.537642 8:-0.621622 9:0.5225 
1 1:-0.105703 2:0.0426859 3:0.200134 4:0.582315 5:-0.0165239 6:0.133332 7:-0.706578 8:-0.932432 9:-0.0643214 
1 1:-0.0369706 2:-0.0251492 3:0.040446 4:0.528963 5:0.0897785 6:0.199999 7:-0.290909 8:-0.905405 9:0.222698 
1 1:-0.153163 2:-0.0200843 3:-0.000659569 4:0.436491 5:0.0446896 6:0.199999 7:-0.453369 8:-0.986486 9:-0.158416 
1 1:0.0893172 2:0.0204955 3:0.447557 4:0.554677 5:0.383947 6:0.199999 7:-0.524605 8:-1 9:0.138985 
1 1:-0.178635 2:-0.101936 3:-0.164004 4:0.217449 5:0.239025 6:0.466666 7:-0.204873 8:-0.824324 9:0.331327 
1 1:0.0725043 2:0.0148355 3:0.0583572 4:0.519784 5:0.0975269 6:0.199999 7:-0.171292 8:-1 9:-0.0898974 
1 1:-0.171425 2:-0.00580906 3:-0.000187388 4:0.544424 5:0.184818 6:0.199999 7:-0.57476 8:-0.986486 9:0.0848362 
1 1:0.0974905 2:0.0230655 3:0.276327 4:0.507518 5:0.146098 6:0.199999 7:-0.477315 8:-0.986486 9:0.418269 
1 1:0.190907 2:-0.0247761 3:0.0775237 4:0.510627 5:0.0334592 6:0.199999 7:-0.0211868 8:-1 9:0.0113672 
1 1:-0.0791001 2:0.0748804 3:0.0024532 4:0.494537 5:-0.105579 6:-0.257143 7:-0.81977 8:-1 9:0.00645664 
1 1:-0.249416 2:0.0525183 3:-0.0729302 4:0.212056 5:-0.0198425 6:0.157142 7:-0.710075 8:-0.986486 9:0.0810838 
1 1:-0.242078 2:-0.0337746 3:-0.301779 4:0.162804 5:0.813317 6:0.199999 7:-0.583754 8:-1 9:-0.123693 
1 1:-0.0117742 2:0.00668655 3:-0.0148621 4:0.440975 5:0.395799 6:0.199999 7:-0.571899 8:-0.972973 9:0.685449 
1 1:-0.236905 2:0.0072471 3:-0.000122064 4:0.540923 5:0.135035 6:0.199999 7:-0.885593 8:-0.905405 9:-0.338048 
1 1:0.0767508 2:-0.0332389 3:0.0620899 4:0.516602 5:0.0354709 6:0.199999 7:-0.023892 8:-0.878378 9:0.412283 
1 1:0.0412189 2:0.0341222 3:0.147531 4:0.562534 5:0.0897785 6:0.199999 7:-0.334309 8:-1 9:0.0248501 
1 1:-0.0352784 2:0.0319031 3:0.0402914 4:0.486939 5:0.144338 6:0.199999 7:-0.0491208 8:-1 9:0.458431 
0.71559826723917 1:-0.142934 2:0.0814603 3:0.432861 4:0.469252 5:0.107378 6:0.199999 7:-0.887757 8:-0.959459 9:0.0355856 
1 1:-0.0359267 2:0.0856009 3:0.127814 4:0.577548 5:0.0976987 6:-0.142858 7:-0.429841 8:-0.959459 9:0.00219666 
1 1:-0.0292601 2:0.00224917 3:0.0570698 4:0.488496 5:0.0531713 6:0.199999 7:-0.552197 8:-0.905405 9:0.260651 
1 1:-0.16207 2:0.00332563 3:-0.116956 4:0.20156 5:0.154948 6:0.199999 7:-0.044659 8:-0.959459 9:0.155266 
1 1:0.152377 2:0.00262998 3:0.0596412 4:0.551398 5:-0.0369395 6:0.199999 7:-0.187983 8:-0.972973 9:0.0766486 
1 1:-0.100144 2:0.0611278 3:0.016042 4:0.476244 5:0.0221954 6:0.199999 7:-0.436892 8:-0.783784 9:0.0862925 
1 1:-0.0202001 2:0.00311877 3:0.229924 4:0.548207 5:-0.086219 6:0.199999 7:-0.428021 8:-0.986486 9:0.132909 
1 1:-0.0217422 2:-0.0087041 3:0.0090506 4:0.49373 5:0.093299 6:0.199999 7:-0.276097 8:-1 9:-0.298683 
1 1:0.100864 2:-0.0987875 3:0.0919126 4:0.494586 5:0.0739388 6:0.199999 7:0.0552126 8:-0.986486 9:0.271846 
1 1:0.0894974 2:-0.0476658 3:0.0859653 4:0.518283 5:-0.0574561 6:0.0285705 7:0.397377 8:-0.945946 9:-0.0242394 
1 1:-0.300324 2:0.00780457 3:-0.0342841 4:0.376898 5:0.0686592 6:0.199999 7:-0.567853 8:-0.986486 9:0.0613368 
1 1:-0.105298 2:0.0483885 3:0.133309 4:0.595119 5:0.0785147 6:0.146666 7:-0.635041 8:-1 9:-0.00249838 
1 1:-0.0116841 2:-0.0270547 3:0.0844641 4:0.458522 5:0.167609 6:0.333332 7:-0.205359 8:-1 9:0.178165 
1 1:0.0284723 2:-0.0223827 3:0.0268977 4:0.534684 5:0.0342928 6:0.199999 7:-0.0279867 8:-0.162162 9:0.126993 
1 1:0.175576 2:0.0108686 3:0.0761403 4:0.510483 5:0.0264195 6:0.199999 7:0.130394 8:-1 9:-0.108279 
1 1:-0.0304189 2:0.00589925 3:0.0101415 4:0.548665 5:-0.0591154 6:0.199999 7:-0.195787 8:-1 9:-0.10794 
1 1:-0.203305 2:-0.0177951 3:-0.0363185 4:0.473899 5:0.0600549 6:0.199999 7:-0.767844 8:-0.972973 9:0.0738489 
1 1:0.221611 2:0.0204955 3:0.1248 4:0.545102 5:-0.0369027 6:0.199999 7:0.234409 8:-0.891892 9:0.185019 
1 1:-0.260535 2:-0.0456165 3:-0.0628579 4:0.280629 5:-0.188549 6:-0.2 7:-0.755208 8:-0.932432 9:-0.0811418 
1 1:-0.00855574 2:0.0191675 3:0.138635 4:0.570845 5:-0.0115962 6:-0.0618192 7:-0.139591 8:-1 9:-0.073075 
1 1:-0.211774 2:-0.117373 3:0.232826 4:0.570767 5:-0.357256 6:-0.100001 7:-0.849899 8:-0.972973 9:0.0582411 
1 1:-0.0910554 2:0.00456234 3:0.0169412 4:0.496316 5:-0.051648 6:-0.142858 7:-0.284807 8:-1 9:-0.149594 
1 1:-0.0922389 2:0.0944472 3:0.868297 4:0.558348 5:0.107378 6:0.199999 7:-0.87775 8:-1 9:0.140587 
1 1:0.200408 2:0.00108291 3:0.16092 4:0.570333 5:0.0775941 6:0.199999 7:0.0238082 8:-1 9:0.0370761 
1 1:-0.120943 2:0.0146727 3:0.0295147 4:0.42107 5:0.0471479 6:0.0333326 7:-0.500858 8:-0.743243 9:0.270875 
1 1:-0.243154 2:-0.0354827 3:-0.127276 4:0.372172 5:0.0897785 6:0.199999 7:-0.55313 8:-0.972973 9:0.0779699 
1 1:-0.133139 2:0.0644084 3:-0.0236621 4:0.472443 5:0.0792189 6:0.156363 7:-0.331506 8:-0.351351 9:0.256635 
1 1:0.147641 2:0.0342435 3:0.180697 4:0.554677 5:0.0528194 6:0.199999 7:-0.25884 8:-1 9:0.37207 
1 1:0.10767 2:0.00848148 3:0.206961 4:0.546877 5:0.0686592 6:0.199999 7:-0.0453659 8:-0.635135 9:0.342012 
1 1:-0.0527696 2:0.00130307 3:0.069048 4:0.5293 5:0.00529962 6:0.199999 7:-0.224914 8:-0.959459 9:0.273053 
1 1:-0.0724142 2:0.0546315 3:0.158752 4:0.525545 5:-0.0697102 6:0.160439 7:0.0505151 8:-1 9:0.0690108 
1 1:-0.352467 2:-0.0791819 3:-0.297805 4:0.0913635 5:0.278159 6:0.542856 7:-0.598847 8:-0.945946 9:0.0871384 
1 1:0.0034207 2:-0.0562157 3:0.0127486 4:0.482089 5:-0.00523996 6:0.199999 7:-0.179072 8:-0.945946 9:0.00143329 
1 1:-0.22508 2:-0.0964788 3:0.0684159 4:0.368546 5:0.168223 6:0.199999 7:-0.611128 8:-0.972973 9:0.115192 
1 1:-0.051307 2:0.0708295 3:0.199903 4:0.570118 5:-0.0397558 6:-0.0666676 7:-0.243205 8:-0.972973 9:-0.157763 
1 1:-0.116107 2:0.0204955 3:0.0877118 4:0.554677 5:0.0531713 6:0.199999 7:-0.719804 8:-0.986486 9:0.274769 
1 1:-0.0675565 2:0.0610431 3:0.0801727 4:0.553569 5:-0.000310004 6:0.199999 7:0.0158729 8:0.297297 9:0.390064 
1 1:-0.0477088 2:-0.11704 3:0.0850069 4:0.190295 5:0.107378 6:0.199999 7:-0.411165 8:-0.986486 9:0.175919 
1 1:0.258007 2:0.0200106 3:0.0844184 4:0.554677 5:-0.0326034 6:0.199999 7:0.368941 8:-1 9:0.0292893 
1 1:0.387472 2:0.0204955 3:0.200781 4:0.554677 5:0.0267568 6:-0.0505502 7:0.358316 8:-0.986486 9:0.232862 
1 1:0.0728664 2:-0.114626 3:0.0885735 4:0.471518 5:0.0183153 6:0.199999 7:0.282366 8:-0.918919 9:0.209393 
1 1:-0.114583 2:-0.086599 3:0.0277424 4:0.558497 5:-0.0799219 6:0.0285705 7:-0.295368 8:-0.824324 9:0.102253 
1 1:-0.0472955 2:-0.0243161 3:-0.127963 4:0.231968 5:0.262257 6:0.199999 7:-0.281581 8:-0.986486 9:0.160068 
1 1:-0.0249076 2:0.0102165 3:0.369387 4:0.637389 5:-0.102813 6:0.114285 7:-0.50576 8:-1 9:0.367074 
1 1:-0.265751 2:0.0129635 3:0.0237283 4:0.556062 5:-0.0369395 6:0.199999 7:-0.80629 8:0.0540541 9:0.177601 
1 1:-0.0571433 2:-0.104282 3:0.0590159 4:0.49121 5:-0.0513291 6:0.16923 7:-0.0163516 8:-1 9:0.331293 
1 1:-0.33001 2:0.0345703 3:-0.0790949 4:0.512 5:0.201412 6:0.199999 7:-0.947099 8:-0.986486 9:0.259179 
1 1:-0.0983331 2:0.0188603 3:0.0180195 4:0.553739 5:0.146098 6:0.199999 7:-0.577836 8:-1 9:0.355316 
1 1:-0.131385 2:-0.124865 3:-0.0503243 4:0.439263 5:0.117939 6:0.146666 7:-0.224455 8:-0.824324 9:0.385973 
1 1:-0.0483553 2:0.0662884 3:0.0744503 4:0.306885 5:0.0390912 6:-0.0400008 7:-0.419602 8:-0.351351 9:0.0732164 
1 1:-0.247632 2:0.000158539 3:-0.217893 4:0.0977008 5:0.242897 6:0.0857135 7:-0.72792 8:-1 9:-0.508298 
1 1:0.257828 2:-0.0110905 3:0.0572714 4:0.509568 5:0.0505162 6:0.199999 7:0.477837 8:-0.513514 9:0.305711 
1 1:-0.150724 2:0.0271524 3:0.0471051 4:0.554677 5:-0.0674287 6:0.199999 7:-0.202137 8:0.743243 9:0.19707 
1 1:0.0878334 2:-0.0182482 3:0.115857 4:0.529278 5:0.0507883 6:0.199999 7:-0.289299 8:-1 9:0.176078 
1 1:-0.254387 2:-0.118676 3:-0.0958667 4:0.407877 5:0.215932 6:0.199999 7:-0.602587 8:-1 9:0.0892674 
1 1:0.0216362 2:-0.0684497 3:0.0825452 4:0.502766 5:0.383947 6:0.199999 7:-0.492773 8:-0.972973 9:-0.0829163 
1 1:-0.0815431 2:0.0204955 3:-0.0659703 4:0.320408 5:-0.0357949 6:0.199999 7:-0.129245 8:-1 9:0.0273376 
1 1:-0.171499 2:0.0204955 3:-0.0236407 4:0.476412 5:0.0466645 6:0.199999 7:-0.110956 8:-0.932432 9:0.202093 
1 1:0.130348 2:0.0494331 3:0.0851057 4:0.527078 5:0.0256372 6:0.199999 7:-0.225933 8:-0.5 9:0.0130108 
1 1:-0.162169 2:0.0204955 3:0.0429874 4:0.550769 5:0.184818 6:0.199999 7:-0.804766 8:-1 9:0.00911132 
1 1:-0.12052 2:-0.000659174 3:0.116665 4:0.554677 5:-0.0840066 6:0.199999 7:0.288447 8:-0.445946 9:0.578375 
1 1:-0.148025 2:-0.157678 3:0.093467 4:0.427509 5:0.0672508 6:0.199999 7:-0.496916 8:-0.972973 9:0.306228 
1 1:-0.105653 2:-0.102599 3:0.00753167 4:0.474919 5:0.0213105 6:0.18857 7:-0.297351 8:-0.77027 9:0.104196 
1 1:-0.188708 2:-0.0670983 3:0.0946175 4:0.474469 5:0.00529962 6:0.199999 7:-0.715321 8:-0.986486 9:0.206841 
1 1:-0.423756 2:-0.258985 3:-0.502676 4:-0.0578361 5:0.219235 6:0.199999 7:-0.621377 8:-1 9:0.336409 
1 1:-0.00864052 2:-0.00118812 3:0.140303 4:0.553394 5:0.110898 6:0.199999 7:-0.502161 8:-1 9:0.0908586 
1 1:0.0228038 2:0.00103116 3:0.242401 4:0.542567 5:0.0852533 6:0.199999 7:-0.5974 8:-1 9:0.136232 
1 1:-0.0556171 2:0.0395153 3:0.0944247 4:0.543365 5:-0.0234432 6:0.199999 7:-0.291916 8:-0.72973 9:-0.128817 
1 1:-0.0906844 2:0.0210736 3:0.0303873 4:0.473045 5:0.11973 6:0.199999 7:-0.292577 8:-0.959459 9:0.0648375 
1 1:-0.134893 2:0.00120458 3:0.282671 4:0.54097 5:-0.0972816 6:0.199999 7:-0.72142 8:-1 9:0.110595 
1 1:-0.140298 2:0.0519944 3:-0.0295417 4:0.419059 5:0.0686592 6:0.199999 7:-0.434117 8:-1 9:0.618326 
1 1:-0.289637 2:-0.0315608 3:0.0466317 4:0.511302 5:0.184818 6:0.199999 7:-0.810372 8:-1 9:0.280392 
1 1:-0.143409 2:-0.0164776 3:0.0256001 4:0.522888 5:0.0686592 6:0.199999 7:-0.515036 8:-0.986486 9:0.147908 
1 1:-0.087095 2:0.00533041 3:0.0801217 4:0.548445 5:0.0416939 6:0.199999 7:-0.460814 8:-0.972973 9:0.140196 
1 1:-0.0716899 2:0.0204955 3:0.197269 4:0.554677 5:-0.0474998 6:0.199999 7:-0.537361 8:-0.986486 9:0.361473 
1 1:-0.0131891 2:0.0213909 3:0.308478 4:0.579566 5:0.146098 6:0.0999993 7:-0.429587 8:-0.810811 9:-0.00170681 
1 1:0.00760363 2:-0.0277405 3:0.0280468 4:0.552731 5:0.0129031 6:0.199999 7:-0.56561 8:-0.986486 9:0.14956 
1 1:-0.0124719 2:0.0204955 3:-0.0177981 4:0.514099 5:0.121318 6:0.199999 7:-0.569463 8:-0.648649 9:0.426178 
1 1:0.13944 2:-0.0228039 3:0.169273 4:0.291287 5:0.405283 6:0.199999 7:-0.432795 8:-0.945946 9:0.439828 
1 1:-0.00840559 2:-0.0250111 3:0.0524277 4:0.471185 5:-0.061165 6:0.199999 7:-0.0438205 8:-0.918919 9:0.231452 
1 1:-0.234709 2:0.0342718 3:-0.022125 4:0.455396 5:0.101847 6:0.199999 7:-0.592999 8:-1 9:0.461797 
1 1:-0.128769 2:-0.0645106 3:0.0169357 4:0.522741 5:-0.0878438 6:0.0285705 7:-0.166264 8:-0.972973 9:0.225559 
1 1:0.0886566 2:-0.0267473 3:0.117024 4:0.456995 5:0.0841466 6:0.199999 7:-0.332709 8:-0.986486 9:0.209697 
1 1:0.233826 2:0.0116845 3:0.183687 4:0.507259 5:0.0242377 6:0.134065 7:0.291468 8:-0.986486 9:0.555232 
1 1:0.127516 2:-0.0779094 3:0.0851745 4:0.539424 5:-0.0733126 6:-0.300002 7:-0.254605 8:-0.972973 9:-0.258446 
1 1:0.0812658 2:-0.0139666 3:0.11898 4:0.53044 5:0.0221954 6:0.199999 7:-0.0190415 8:-0.635135 9:0.343472 
1 1:-0.0883916 2:-0.00620132 3:0.0992323 4:0.540155 5:0.300976 6:0.199999 7:-0.619345 8:-1 9:0.809006 
1 1:-0.046066 2:-0.0633009 3:-0.461071 4:-0.327291 5:0.115122 6:0.199999 7:-0.480076 8:-0.743243 9:-0.0827391 
1 1:0.0820925 2:-0.0391328 3:0.0104955 4:0.478491 5:-0.0304172 6:0.199999 7:0.142525 8:-1 9:0.252689 
1 1:-0.2874 2:0.0214961 3:-0.00770162 4:0.54767 5:0.0852533 6:0.199999 7:-0.922861 8:-0.472973 9:0.258529 
1 1:0.0848711 2:0.0264288 3:0.10778 4:0.582677 5:-0.0104822 6:0.199999 7:0.265079 8:-1 9:0.271264 
1 1:-0.0252521 2:-0.0383343 3:0.0711705 4:0.516551 5:0.0729613 6:0.199999 7:-0.219023 8:-0.972973 9:0.137986 
1 1:0.0288503 2:-0.0145814 3:0.0845117 4:0.546442 5:0.135035 6:0.199999 7:-0.520569 8:-0.959459 9:0.0579611 
1 1:0.247491 2:0.0148545 3:0.191666 4:0.597311 5:0.0897785 6:0.199999 7:-0.0280846 8:-1 9:0.124679 
1 1:-0.0981918 2:0.0204955 3:0.106482 4:0.554677 5:0.184818 6:0.199999 7:-0.767415 8:-1 9:0.03195 
1 1:0.0598195 2:0.0145669 3:0.0950112 4:0.584488 5:-0.0806875 6:0.177142 7:0.373862 8:-0.959459 9:0.267151 
1 1:-0.124174 2:0.0221816 3:0.0757861 4:0.558401 5:0.101651 6:0.199999 7:-0.560928 8:-0.986486 9:0.147842 
1 1:-0.104521 2:-0.0118362 3:0.124574 4:0.522111 5:0.284382 6:0.199999 7:-0.735968 8:-1 9:0.0477029 
1 1:0.244797 2:-0.0658655 3:-0.0273256 4:0.423287 5:-0.0178905 6:0.199999 7:0.31972 8:-0.648649 9:0.30021 
1 1:0.174134 2:0.0405168 3:0.129856 4:0.499483 5:0.00483573 6:0.199999 7:0.0746666 8:-1 9:0.164171 
1 1:-0.192588 2:-0.0152957 3:0.152116 4:0.54422 5:-0.0397558 6:0.199999 7:-0.33654 8:-0.77027 9:0.155884 
1 1:-0.108817 2:0.0416457 3:-0.0650941 4:0.425797 5:0.0264195 6:0.199999 7:-0.439432 8:-1 9:0.790069 
1 1:0.0212829 2:-0.132148 3:0.0405863 4:0.482686 5:0.0201531 6:0.199999 7:0.0878319 8:-1 9:-0.135651 
1 1:-0.245103 2:-0.0319756 3:0.0955384 4:0.567949 5:0.146098 6:0.199999 7:-0.711804 8:-1 9:-0.0109257 
1 1:0.0261565 2:-0.0549173 3:0.141114 4:0.502823 5:0.765612 6:0.199999 7:-0.563648 8:-1 9:0.67317 
1 1:-0.154402 2:-0.00665442 3:0.0516178 4:0.526502 5:-0.0434379 6:0.181817 7:-0.488632 8:-0.986486 9:0.133487 
1 1:0.279301 2:0.021065 3:0.284155 4:0.554677 5:0.184818 6:0.199999 7:-0.460126 8:-1 9:0.079269 
1 1:0.107199 2:-0.00177711 3:0.0998297 4:0.444704 5:0.0105797 6:0.199999 7:0.115013 8:-1 9:-0.0336959 
1 1:-0.050627 2:0.0454896 3:0.0650646 4:0.539936 5:-0.00698791 6:0.199999 7:-0.134159 8:-1 9:0.109901 
1 1:0.0913557 2:-0.0353269 3:0.37182 4:0.436777 5:0.0354709 6:0.199999 7:-0.561234 8:-0.986486 9:0.246063 
1 1:0.0829951 2:-0.190319 3:0.0173778 4:0.481939 5:-0.0104822 6:0.199999 7:0.0781859 8:-0.959459 9:0.0222115 
1 1:0.00740755 2:0.0475517 3:0.0370804 4:0.534413 5:-0.00877992 6:0.199999 7:-0.525569 8:-0.891892 9:0.0630509 
1 1:-0.0285271 2:0.0416248 3:0.113709 4:0.567238 5:0.107378 6:0.199999 7:-0.709396 8:-0.945946 9:-0.0345076 
1 1:0.112523 2:0.0204955 3:0.0920004 4:0.541137 5:0.0897785 6:0.199999 7:-0.470806 8:-1 9:-0.039102 
1 1:0.0497738 2:0.00400232 3:0.088361 4:0.520511 5:0.0934395 6:0.199999 7:-0.337376 8:-0.986486 9:0.234729 
1 1:-0.118638 2:-0.131598 3:-0.287649 4:0.0607307 5:0.0715769 6:0.239559 7:-0.163428 8:-0.364865 9:-0.0291338 
1 1:-0.218186 2:-0.0736106 3:0.0535175 4:0.435485 5:0.0299394 6:0.199999 7:-0.563097 8:-0.783784 9:-0.0148896 
1 1:-0.0976566 2:0.0131968 3:-0.0861068 4:0.34199 5:0.0354709 6:-0.2 7:-0.540369 8:-0.986486 9:0.384034 
1 1:-0.0146906 2:-0.0109368 3:0.130922 4:0.540653 5:0.154703 6:0.199999 7:-0.492791 8:-1 9:0.149046 
1 1:-0.474327 2:-0.212802 3:-0.435129 4:-0.198934 5:0.115122 6:-0.280001 7:-0.889728 8:-0.972973 9:0.0268924 
1 1:0.109857 2:0.0467175 3:0.364003 4:0.529402 5:0.146098 6:-0.0400008 7:-0.529845 8:-0.945946 9:0.0997089 
1 1:0.0907516 2:-0.000727383 3:0.0277424 4:0.478548 5:0.0329179 6:0.199999 7:-0.266944 8:-0.959459 9:-0.40379 
1 1:-0.132787 2:0.0368959 3:0.0477944 4:0.552688 5:-0.040189 6:0.199999 7:-0.406614 8:-1 9:0.233378 
1 1:0.0646754 2:0.0204955 3:0.0584519 4:0.554677 5:0.184242 6:0.199999 7:-0.229502 8:-0.918919 9:-0.0423065 
1 1:0.158016 2:0.0306413 3:0.118007 4:0.557127 5:-0.0491301 6:0.185964 7:0.396979 8:-0.864865 9:0.28232 
1 1:-0.0837441 2:0.0359479 3:0.0485519 4:0.51853 5:0.115122 6:0.199999 7:-0.540096 8:-1 9:-0.036832 
1 1:-0.051549 2:-0.0351069 3:0.0671993 4:0.506778 5:0.235857 6:0.199999 7:-0.553228 8:-0.972973 9:-0.333232 
1 1:-0.0571062 2:-0.24629 3:-0.065706 4:0.210011 5:0.257969 6:0.199999 7:-0.137862 8:-0.662162 9:0.129323 
1 1:-0.0893419 2:-0.0833991 3:0.0519767 4:0.551587 5:0.0390912 6:0.199999 7:-0.837508 8:-1 9:0.258216 
1 1:-0.15059 2:-0.037555 3:0.0733843 4:0.541397 5:-0.0094607 6:0.160439 7:-0.249066 8:-1 9:0.145668 
1 1:-0.179455 2:0.0358128 3:0.0392199 4:0.573671 5:0.0188768 6:0.0857135 7:-0.609026 8:-1 9:0.180435 
1 1:-0.321634 2:-0.00996715 3:-0.00530053 4:0.537707 5:0.0880188 6:0.199999 7:-0.936219 8:-1 9:-0.120366 
1 1:-0.526977 2:-0.173919 3:-0.572162 4:-0.282103 5:0.334164 6:0.199999 7:-0.951765 8:-0.986486 9:0.0418799 
1 1:0.180398 2:0.0268553 3:-0.0398792 4:0.31676 5:0.0897785 6:0.199999 7:-0.183898 8:-0.851351 9:-0.261586 
1 1:0.115727 2:0.00493709 3:0.113796 4:0.527549 5:0.0686592 6:0.199999 7:-0.214491 8:-1 9:0.106331 
1 1:0.0554829 2:0.0336084 3:-0.0608889 4:0.253322 5:0.20805 6:0.199999 7:-0.180106 8:-0.648649 9:0.404653 
1 1:-0.149355 2:0.0487831 3:-0.00295154 4:0.555352 5:-0.00282293 6:0.199999 7:-0.194104 8:-0.851351 9:0.071452 
1 1:-0.143552 2:0.00570358 3:-0.00412832 4:0.517878 5:-0.0441806 6:0.199999 7:-0.134582 8:-0.918919 9:0.536716 
1 1:0.10377 2:0.0677567 3:0.159451 4:0.644861 5:0.0221954 6:-0.0666676 7:-0.302265 8:-0.864865 9:0.0166886 
1 1:0.142173 2:-0.0299681 3:0.0911912 4:0.536615 5:0.0354709 6:0.199999 7:0.346488 8:-0.675676 9:0.474484 
1 1:0.0160666 2:-0.0380496 3:-0.140152 4:0.165302 5:0.193458 6:0.199999 7:-0.135793 8:-0.824324 9:0.0362523 
1 1:0.0649351 2:-0.0116833 3:-0.0032582 4:0.518244 5:0.140466 6:0.199999 7:0.0086538 8:-1 9:0.881465 
1 1:0.0489276 2:-0.0917943 3:0.196363 4:0.507514 5:0.0841466 6:0.199999 7:-0.211988 8:-0.959459 9:0.278195 
1 1:0.0278523 2:0.012622 3:0.00829464 4:0.46898 5:0.0180455 6:0.199999 7:0.654396 8:-0.891892 9:0.417151 
1 1:0.0208537 2:-0.0166619 3:0.00421237 4:0.459467 5:0.0892789 6:0.399999 7:0.0129443 8:-1 9:-0.00121535 
1 1:0.0135512 2:0.0597368 3:-0.0255396 4:0.504455 5:0.0549125 6:0.199999 7:-0.0683056 8:0.0540541 9:0.731328 
1 1:0.0345453 2:0.0426063 3:0.0973367 4:0.514662 5:0.00353996 6:0.199999 7:-0.0576987 8:0.351351 9:-0.184592 
1 1:0.324681 2:0.0864148 3:0.106864 4:0.502916 5:0.0137478 6:0.199999 7:-0.0544855 8:0.351351 9:0.0428387 
1 1:-0.345888 2:-0.219758 3:-0.0914496 4:0.327285 5:0.146098 6:0.199999 7:-0.778454 8:-0.972973 9:0.246572 
1 1:0.0100431 2:0.0204955 3:0.60986 4:0.554677 5:0.20805 6:0.199999 7:-0.752986 8:-1 9:-0.0707587 
1 1:0.121445 2:-0.117628 3:0.0417007 4:0.530542 5:-0.00282293 6:0.199999 7:-0.0352946 8:-1 9:0.320146 
1 1:0.0759612 2:-0.00707473 3:0.139283 4:0.535806 5:-0.00871301 6:0.199999 7:-0.0687707 9:0.245575 
1 1:0.110189 2:0.0204955 3:0.158439 4:0.535325 5:0.0114657 6:0.199999 7:0.438366 8:0.256757 9:0.598404 
1 1:-0.118204 2:0.0363016 3:-0.121907 4:0.339834 5:0.16581 6:0.199999 7:-0.328039 8:-1 9:0.114809 
1 1:-0.0111118 2:0.0175967 3:-0.135825 4:0.0391845 5:0.239025 6:0.199999 7:-0.523014 8:-1 9:-0.0878027 
1 1:-0.197808 2:-0.0519127 3:-0.312951 4:-0.0364548 5:0.184818 6:0.199999 7:-0.58526 8:-0.918919 9:0.168517 
1 1:-0.207409 2:0.0204955 3:0.0834655 4:0.554677 5:0.0137478 6:0.199999 7:-0.711208 8:-1 9:-0.152387 
1 1:-0.519809 2:-0.152233 3:-0.187805 4:0.409255 5:0.254513 6:0.466666 7:-0.77928 8:0.351351 9:-0.0298932 
1 1:-0.134174 2:-0.0217164 3:0.0433491 4:0.537997 5:-0.0158197 6:0.199999 7:-0.339285 8:-1 9:0.154442 
1 1:-0.389396 2:-0.0526556 3:-0.313285 4:-0.186773 5:0.404229 6:0.499999 7:-0.788978 8:-0.905405 9:-0.0410879 
1 1:-0.0927441 2:0.0173211 3:-0.0718426 4:0.49412 5:0.168114 6:0.199999 7:-0.537284 8:-1 9:0.159179 
1 1:0.180515 2:0.0351232 3:0.223409 4:0.562877 5:0.115122 6:0.199999 7:-0.266151 8:-1 9:0.349156 
1 1:-0.192908 2:-0.0196403 3:-0.142205 4:0.18771 5:0.101847 6:0.199999 7:-0.750211 8:-1 9:0.29769 
1 1:-0.12233 2:-0.0851659 3:-0.0246512 4:0.403953 5:0.0133452 6:0.157142 7:-0.554926 8:-1 9:0.390229 
1 1:-0.33653 2:0.0176403 3:-0.223635 4:0.156415 5:0.0874747 6:0.199999 7:-0.818305 8:-1 9:0.0130974 
1 1:0.108245 2:0.0204955 3:0.0680883 4:0.554677 5:-0.0298842 6:0.199999 7:0.33702 8:-0.810811 9:0.508262 
1 1:-0.0962681 2:0.0313774 3:0.170285 4:0.581482 5:-0.072391 6:0.142856 7:-0.568235 8:-0.918919 9:0.0897911 
1 1:-0.398739 2:-0.0720716 3:-0.336238 4:0.0425931 5:0.763538 6:0.199999 7:-0.892424 8:-0.905405 9:0.00389864 
1 1:-0.380698 2:-0.0826867 3:-0.0511857 4:0.517671 5:0.0841466 6:0.199999 7:-0.831904 8:-0.837838 9:0.374674 
1 1:0.102825 2:-0.0186192 3:0.0928308 4:0.537057 5:0.0088195 6:0.199999 7:-0.144016 8:-1 9:0.0143844 
1 1:-0.26034 2:-0.144606 3:-0.162243 4:0.199768 5:-0.140426 6:0.0399993 7:-0.237856 8:-1 9:0.283609 
1 1:0.0312986 2:-0.00969431 3:0.03327 4:0.517484 5:-0.0591154 6:0.0399993 7:0.072044 8:0.27027 9:0.261391 
1 1:0.0430207 2:0.00756175 3:0.0349736 4:0.540432 5:0.00892042 6:0.199999 7:-0.14809 8:-0.972973 9:0.235287 
1 1:-0.0480974 2:-0.0189932 3:-0.0111794 4:0.538385 5:-0.0717526 6:0.199999 7:-0.19997 8:-1 9:0.108547 
1 1:-0.0572264 2:-0.0725903 3:0.0343524 4:0.506177 5:0.187188 6:0.199999 7:-0.474555 8:-0.891892 9:0.1376 
1 1:0.137442 2:0.0100568 3:0.00819846 4:0.511292 5:0.216497 6:0.199999 7:0.050766 8:-1 9:0.666926 
1 1:0.0675847 2:0.0204955 3:0.0821542 4:0.517835 5:-0.00929176 6:0.199999 7:-0.132091 8:-0.986486 9:0.145541 
1 1:0.0446352 2:-0.00323965 3:0.0164943 4:0.366507 5:0.0507883 6:0.199999 7:-0.203896 8:-0.310811 9:-0.582977 
1 1:0.000470755 2:0.0204955 3:0.243562 4:0.554677 5:0.219235 6:0.199999 7:-0.748999 8:-1 9:0.027112 
1 1:0.112846 2:0.0204955 3:0.00138562 4:0.309726 5:0.115122 6:0.199999 7:-0.188552 8:-1 9:0.0499447 
1 1:-0.456376 2:-0.143666 3:-0.902853 4:-0.358695 5:1 6:0.885712 7:-0.917454 8:-1 9:0.0349713 
1 1:0.0510103 2:-0.0711996 3:0.117888 4:0.433801 5:0.184818 6:0.199999 7:-0.425817 8:-0.972973 9:-0.00462334 
1 1:-0.101645 2:0.0184974 3:0.0711215 4:0.495275 5:0.0686592 6:-0.0181824 7:-0.420557 8:-1 9:-0.0452351 
1 1:0.16624 2:0.0435836 3:0.134813 4:0.419026 5:0.12259 6:0.199999 7:-0.334358 8:-0.148649 9:0.0205619 
1 1:-0.106872 2:0.0435289 3:-0.0831009 4:0.0462905 5:0.0221954 6:0.199999 7:-0.423788 8:-1 9:0.0750715 
1 1:-0.115717 2:-0.0593417 3:0.108913 4:0.540888 5:0.143332 6:-0.085715 7:-0.913931 8:-0.986486 9:0.328207 
1 1:0.219191 2:-0.0214109 3:0.15295 4:0.53814 5:0.0686592 6:0.199999 7:0.114315 8:-1 9:0.338536 
0.2503446503921735 1:0.0814848 2:0.0343757 3:-0.0168 4:0.256082 5:0.146098 6:0.199999 7:-0.231497 8:-1 9:0.383806 
1 1:-0.0975029 2:-0.0913209 3:0.0259495 4:0.476227 5:0.0562685 6:0.199999 7:-0.333844 8:-1 9:0.201149 
1 1:-0.0650234 2:0.0204955 3:0.0530496 4:0.554677 5:-0.0829584 6:0.199999 7:0.025577 8:-1 9:-0.00712897 
1 1:-0.181183 2:0.0204955 3:0.0146021 4:0.546342 5:-0.0159524 6:0.199999 7:-0.573903 8:-0.986486 9:0.0229568 
1 1:0.00118969 2:-0.0484095 3:0.103857 4:0.57144 5:0.0390912 6:0.199999 7:-0.296319 8:-0.972973 9:-0.183248 
1 1:0.147767 2:0.0204955 3:0.0899781 4:0.554677 5:-0.0340871 6:0.199999 7:0.0934383 8:-1 9:0.313135 
1 1:0.258197 2:0.0204817 3:0.117748 4:0.447473 5:-0.07568 6:0.199999 7:0.400336 8:-1 9:0.0446414 
1 1:0.260534 2:-0.0295244 3:0.0573116 4:0.535841 5:-0.0499887 6:0.0399993 7:0.142543 8:0.986486 9:0.0898394 
1 1:0.105636 2:0.0495662 3:0.0332066 4:0.504196 5:0.107378 6:0.199999 7:-0.255419 8:-0.0945946 9:0.51053 
1 1:0.103791 2:-0.0333444 3:0.0218442 4:0.422724 5:0.00944118 6:0.199999 7:0.360531 8:-0.486486 9:0.204613 
1 1:0.0358295 2:0.0253625 3:0.314004 4:0.561503 5:0.0354709 6:0.199999 7:-0.519746 8:-1 9:-0.0504639 
1 1:-0.286072 2:-0.0353609 3:-0.0569592 4:0.410614 5:-0.0564347 6:0.199999 7:-0.528119 8:-0.972973 9:-0.028163 
1 1:0.015708 2:0.00514896 3:0.0462168 4:0.546336 5:-0.0201681 6:0.199999 7:-0.0236258 8:-1 9:0.297755 
1 1:-0.0537376 2:-0.0206534 3:-0.0707985 4:0.451043 5:0.0728075 6:0.199999 7:-0.455927 8:-0.851351 9:0.279569 
1 1:0.103851 2:0.0168485 3:0.10244 4:0.55492 5:0.0897785 6:0.199999 7:-0.203612 8:-0.932432 9:-0.00967488 
1 1:-0.0569632 2:0.019195 3:0.00574253 4:0.475492 5:-0.089696 6:0.199999 7:-0.167684 8:-1 9:0.166718 
1 1:-0.153725 2:0.0668136 3:0.147635 4:0.602898 5:-0.0143115 6:0.199999 7:-0.51152 8:-0.972973 9:0.0344456 
1 1:-0.1662 2:-0.0393067 3:0.0191413 4:0.566914 5:-0.0143115 6:0.199999 7:-0.614048 8:0.608108 9:0.0653007 
1 1:0.182778 2:0.0204955 3:0.154765 4:0.554677 5:0.00529962 6:0.199999 7:0.0225902 8:-1 9:0.141725 
1 1:-0.0312456 2:0.0204955 3:0.0260469 4:0.522927 5:0.049299 6:0.166666 7:-0.29538 8:-1 9:0.0317083 
1 1:-0.0417347 2:0.0117187 3:0.0765176 4:0.455956 5:-0.0130347 6:0.199999 7:-0.031099 8:-0.986486 9:0.177099 
1 1:-0.0115127 2:0.0217418 3:0.073654 4:0.537406 5:-0.0575292 6:0.199999 7:0.173219 8:-0.851351 9:0.508904 
1 1:0.0475975 2:-0.0397272 3:0.132021 4:0.513739 5:-0.0397558 6:0.199999 7:-0.256928 8:-0.891892 9:0.296858 
1 1:0.259202 2:-0.0148729 3:0.0845751 4:0.546821 5:0.116178 6:0.199999 7:0.240367 8:-1 9:0.00787663 
1 1:0.140134 2:-0.0236334 3:0.159422 4:0.53767 5:0.0354709 6:0.199999 7:0.236371 8:-1 9:0.284215 
1 1:0.198668 2:0.0163247 3:0.130477 4:0.554677 5:-0.00726168 6:0.199999 7:0.296863 8:-0.878378 9:0.438918 
1 1:-0.0520189 2:-0.00620751 3:0.137164 4:0.548609 5:-0.0431597 6:0.160439 7:-0.282331 8:-1 9:0.201026 
1 1:-0.321693 2:-0.0588823 3:-0.16234 4:0.390485 5:0.177074 6:0.199999 7:-0.612248 8:-1 9:0.102063 
1 1:-0.0913892 2:-0.161429 3:0.0238366 4:0.532167 5:-0.0791793 6:-0.0181824 7:-0.401002 8:-0.77027 9:0.00946178 
1 1:0.0654138 2:-0.0611054 3:0.0657764 4:0.520892 5:-0.0201681 6:0.199999 7:0.427618 8:-1 9:0.243183 
1 1:0.267233 2:0.0204955 3:0.104415 4:0.548916 5:-0.0128027 6:0.199999 7:0.574064 8:-0.972973 9:0.443605 
1 1:-0.0746894 2:0.0472717 3:0.101321 4:0.577712 5:0.0306436 6:0.112726 7:0.0223546 8:-0.972973 9:0.185051 
1 1:-0.13309 2:-0.0114862 3:0.0582645 4:0.55922 5:-0.00537601 6:0.16923 7:-0.108006 8:-0.986486 9:0.0934931 
1 1:-0.091179 2:-0.0665536 3:0.250986 4:0.582385 5:0.0575961 6:0.114285 7:-0.471547 8:-1 9:0.0420249 
1 1:-0.273527 2:-0.0141613 3:-0.404359 4:-0.0911715 5:0.101847 6:0.199999 7:-0.745942 8:-0.986486 9:0.371453 
1 1:-0.0454124 2:0.0184509 3:-0.091872 4:0.235909 5:-0.037336 6:0.199999 7:0.10403 8:-0.891892 9:0.0327255 
1 1:-0.260281 2:0.0304034 3:-0.185487 4:0.220105 5:0.0920283 6:0.199999 7:-0.780633 8:-0.878378 9:0.0613409 
1 1:-0.0396009 2:-0.0740831 3:0.0174234 4:0.493559 5:-0.0369395 6:0.199999 7:-0.333563 8:-0.256757 9:-0.0225878 
1 1:-0.3068 2:-0.244902 3:-0.0495883 4:0.433474 5:-0.0444019 6:0.166666 7:-0.316312 8:-0.256757 9:0.314762 
1 1:0.00163484 2:0.020011 3:-0.0183645 4:0.383806 5:-0.0679857 6:0.185964 7:-0.00769104 8:-0.797297 9:0.370096 
1 1:-0.158996 2:0.0204955 3:0.384597 4:0.554677 5:-0.0143115 6:0.199999 7:-0.766421 8:-0.540541 9:0.0943995 
1 1:0.069685 2:0.0204955 3:0.0824737 4:0.554677 5:0.0897785 6:0.199999 7:-0.273312 8:-1 9:0.267258 
1 1:0.0580919 2:0.013969 3:-0.0347738 4:0.539891 5:0.00267518 6:0.199999 7:0.143128 8:-0.986486 9:0.0311162 
1 1:0.00592904 2:-0.106846 3:-0.151687 4:0.160902 5:0.12819 6:0.199999 7:-0.023938 8:-0.959459 9:0.131728 
1 1:-0.113198 2:0.00904858 3:-0.0677579 4:0.33122 5:0.184818 6:0.199999 7:-0.600913 8:-0.945946 9:0.185539 
1 1:-0.133201 2:-0.0520474 3:0.0696781 4:0.542686 5:-0.0104822 6:0.138461 7:-0.549592 8:-1 9:0.0575341 
1 1:0.1709 2:-0.0159957 3:0.184314 4:0.545377 5:0.334164 6:0.199999 7:-0.266984 8:-0.972973 9:-0.0759976 
1 1:-0.264205 2:-0.055166 3:-0.774406 4:-0.339325 5:0.486832 6:0.466666 7:-0.757617 8:-1 9:0.0301796 
1 1:-0.133939 2:0.00665653 3:0.0245429 4:0.543461 5:-0.046277 6:0.199999 7:-0.286015 8:-1 9:0.530299 
1 1:0.0910042 2:-0.070163 3:0.10356 4:0.511523 5:0.00892042 6:0.199999 7:0.256783 8:-1 9:0.354133 
1 1:0.0884358 2:0.0919227 3:0.0644263 4:0.528887 5:-0.0938593 6:0.199999 7:0.469158 8:0.662162 9:0.365993 
1 1:-0.0124825 2:0.0074086 3:0.0896995 4:0.542223 5:-0.0283525 6:0.184614 7:-0.0645721 8:-0.0135135 9:0.0677983 
1 1:-0.186703 2:-0.00400995 3:0.0273064 4:0.476872 5:0.110898 6:0.199999 7:-0.575375 8:-1 9:-0.00465959 
1 1:-0.352951 2:-0.0241952 3:-0.393432 4:-0.111531 5:0.251194 6:0.157142 7:-0.863336 8:-0.945946 9:-0.198995 
1 1:-0.0191031 2:0.0309481 3:0.100264 4:0.562048 5:-0.046277 6:0.199999 7:0.0375855 8:0.108108 9:0.175057 
1 1:0.0475498 2:-0.128997 3:0.0577455 4:0.43474 5:0.0390912 6:0.199999 7:-0.272474 8:-1 9:0.258893 
1 1:-0.325195 2:-0.0053923 3:0.0976704 4:0.568305 5:-0.0309056 6:-0.100001 7:-0.808092 8:-0.986486 9:0.153973 
1 1:-0.2624 2:-0.140138 3:-0.0281541 4:0.444566 5:0.0228996 6:0.199999 7:-0.0348814 8:-0.391892 9:0.240987 
1 1:-0.0206311 2:0.0204955 3:-0.0291291 4:0.424557 5:0.146098 6:0.199999 7:-0.451462 8:-0.959459 9:0.16351 
1 1:-0.157413 2:0.0047085 3:0.317163 4:0.563056 5:0.023025 6:0.199999 7:-0.567186 8:-0.72973 9:0.0107851 
1 1:-0.283479 2:-0.00720285 3:-0.0325544 4:0.392839 5:0.0686592 6:0.199999 7:-0.769212 8:-0.918919 9:0.183762 
1 1:0.289564 2:-0.0360086 3:0.207901 4:0.509719 5:0.175026 6:0.199999 7:-0.169386 8:-0.986486 9:0.219989 
1 1:0.0189742 2:-0.181427 3:-0.0146955 4:0.376934 5:0.262257 6:0.199999 7:-0.284225 8:-0.743243 9:0.221286 
1 1:-0.290059 2:-0.0355371 3:-0.0434553 4:0.492679 5:-0.0972816 6:0.199999 7:-0.824318 8:-0.716216 9:0.0746908 
1 1:0.189755 2:-0.0482729 3:0.097744 4:0.53784 5:0.0356672 6:0.199999 7:0.374275 8:-0.581081 9:0.626869 
1 1:0.0127722 2:0.00612271 3:0.0302497 4:0.585476 5:0.0686592 6:-0.100001 7:-0.464153 8:-1 9:0.0476969 
1 1:-0.00272473 2:0.0209336 3:0.210599 4:0.548479 5:0.101847 6:-0.2 7:-0.599034 8:-0.986486 9:0.234518 
1 1:-0.0112195 2:0.00499463 3:0.0245014 4:0.524529 5:0.0494139 6:0.199999 7:-0.213561 8:-1 9:0.275935 
1 1:0.180075 2:-0.0224747 3:0.117323 4:0.520443 5:0.0943868 6:0.199999 7:-0.00798177 8:-0.986486 9:0.207542 
1 1:0.110022 2:-0.00223113 3:0.241357 4:0.546161 5:0.184818 6:0.199999 7:-0.427962 8:-1 9:0.0996464 
1 1:-0.0576945 2:0.00225865 3:0.0913867 4:0.507192 5:0.219313 6:0.199999 7:-0.204276 8:-1 9:-0.0704143 
1 1:0.103795 2:-0.0517965 3:0.0765435 4:0.520982 5:0.0070236 6:0.199999 7:-0.135426 8:-0.864865 9:0.224245 
1 1:-0.0615559 2:0.0267066 3:-0.0364821 4:0.402072 5:0.0205461 6:0.199999 7:-0.447398 8:-0.972973 9:0.4657 
1 1:0.0145298 2:0.0245514 3:0.0938239 4:0.561035 5:-0.0360112 6:0.199999 7:-0.321973 8:-1 9:0.0678386 
1 1:-0.0221114 2:0.0340969 3:-0.00415829 4:0.498426 5:0.115122 6:0.199999 7:-0.291802 8:-0.986486 9:0.412357 
1 1:-0.0384774 2:0.0316241 3:0.00540379 4:0.561933 5:-0.0158197 6:-0.0181824 7:-0.499952 8:-0.283784 9:0.0696735 
1 1:-0.164684 2:-0.0646074 3:-0.085806 4:0.405213 5:-0.061165 6:0.199999 7:-0.310672 8:-0.716216 9:0.218726 
1 1:-0.110937 2:-0.0963477 3:0.0361002 4:0.501976 5:0.0213351 6:0.133332 7:-0.543861 8:-0.945946 9:0.221129 
1 1:-0.161208 2:-0.00897062 3:0.162069 4:0.535761 5:0.146098 6:0.199999 7:-0.724358 8:-1 9:0.417606 
1 1:-0.0202531 2:-0.0940892 3:0.184669 4:0.300791 5:0.2346 6:0.199999 7:-0.631445 8:-0.972973 9:-0.110422 
1 1:0.0519959 2:-0.00941503 3:0.0607467 4:0.54778 5:0.110898 6:0.199999 7:-0.189302 8:-0.864865 9:0.324587 
1 1:-0.205144 2:-0.00295838 3:0.0367371 4:0.543812 5:0.0404996 6:0.199999 7:-0.612459 8:-0.716216 9:0.318519 
1 1:-0.152693 2:-0.112119 3:-0.0549016 4:0.383973 5:0.262257 6:0.199999 7:-0.584767 8:-1 9:0.660956 
1 1:-0.157244 2:0.0683937 3:0.0920808 4:0.554677 5:0.0221954 6:0.199999 7:-0.844308 8:-0.824324 9:0.0129403 
1 1:-0.0308782 2:0.0275862 3:0.0636546 4:0.553173 5:-0.0503076 6:0.173625 7:0.0782318 8:-1 9:0.0622674 
1 1:-0.0407579 2:0.0132718 3:-0.0183386 4:0.471727 5:0.146098 6:0.199999 7:-0.334129 8:-0.945946 9:0.115017 
1 1:0.0578534 2:-0.0183663 3:0.012244 4:0.465479 5:0.0590363 6:0.230768 7:-0.173829 8:-0.675676 9:-0.233107 
1 1:-0.000113935 2:0.0258902 3:0.0965295 4:0.49523 5:0.0479163 6:0.199999 7:-0.445681 8:-0.959459 9:0.0646844 
1 1:0.102679 2:0.0356778 3:0.183039 4:0.566725 5:-0.0181408 6:0.123076 7:0.331168 8:-0.837838 9:0.38267 
1 1:-0.155954 2:-0.0422005 3:0.00179704 4:0.515299 5:0.2346 6:0.199999 7:-0.814764 8:-0.986486 9:0.130175 
1 1:0.0492986 2:0.0204955 3:0.0675644 4:0.545002 5:0.146098 6:0.199999 7:-0.488874 8:-0.986486 9:0.128381 
1 1:-0.0566169 2:0.0299589 3:0.105207 4:0.549419 5:-0.00435511 6:0.199999 7:-0.122432 8:-0.932432 9:0.0762498 
1 1:0.0567441 2:0.0204955 3:0.132626 4:0.481264 5:0.184818 6:0.199999 7:-0.54353 8:-1 9:0.128749 
1 1:-0.15727 2:-0.126972 3:-0.0704675 4:0.349434 5:0.0531713 6:0.199999 7:-0.355593 8:-0.581081 9:0.32664 
1 1:-0.138595 2:-0.0478786 3:-0.00505654 4:0.528233 5:0.0221954 6:0.199999 7:-0.454578 8:-0.486486 9:0.0261371 
1 1:0.127801 2:-0.0313708 3:0.162812 4:0.540195 5:0.135035 6:0.199999 7:-0.507725 8:-1 9:0.179571 
1 1:-0.159572 2:-0.0339259 3:-0.038425 4:0.472472 5:0.316464 6:0.199999 7:-0.567645 8:-0.891892 9:0.606338 
1 1:-0.0715928 2:-0.076912 3:0.124382 4:0.519592 5:0.393903 6:0.199999 7:-0.439588 8:-1 9:0.503011 
1 1:0.0275131 2:-0.00327888 3:0.023216 4:0.502221 5:0.0190591 6:0.199999 7:-0.152906 8:-0.243243 9:0.42953 
1 1:0.0919139 2:-0.114722 3:0.25646 4:0.646908 5:0.0390912 6:-0.0400008 7:-0.153014 8:0.918919 9:0.00600143 
1 1:-0.0512911 2:-0.0572107 3:-0.0724078 4:0.302102 5:0.427976 6:0.253332 7:-0.446875 8:-0.797297 9:0.156795 
1 1:-0.186579 2:0.0520482 3:-0.0283731 4:0.542077 5:-0.0415478 6:0.199999 7:-0.33636 8:-0.513514 9:0.116006 
1 1:-0.250431 2:-0.0863517 3:-0.177114 4:0.193785 5:0.284382 6:0.199999 7:-0.894722 8:-0.986486 9:-0.26356 
1 1:0.0705206 2:-0.00745357 3:0.0850608 4:0.533138 5:0.154703 6:0.199999 7:-0.264713 8:-1 9:0.0419222 
1 1:0.0336533 2:-0.0712846 3:-0.0147858 4:0.48152 5:0.0239657 6:0.199999 7:0.347663 8:-0.918919 9:0.0636954 
1 1:-0.0488535 2:0.0010068 3:-0.276264 4:-0.065598 5:0.2346 6:0.199999 7:-0.724557 8:-0.72973 9:0.196504 
1 1:0.0723382 2:0.0204955 3:0.104348 4:0.554677 5:0.0535376 6:0.199999 7:-0.31342 8:-1 9:0.195769 
1 1:0.124423 2:-0.0291723 3:0.0865689 4:0.539672 5:0.0365649 6:0.199999 7:-0.00864278 8:-0.851351 9:0.130006 
1 1:0.0455096 2:-0.0491735 3:0.0475369 4:0.440066 5:0.0531713 6:0.199999 7:-0.00524589 8:-0.594595 9:0.028812 
1 1:-0.12602 2:-0.0954016 3:-0.186717 4:0.195472 5:0.0678296 6:0.199999 7:0.0118916 8:-1 9:-0.0948422 
1 1:-0.0246056 2:0.0411553 3:0.143439 4:0.569937 5:-0.0309056 6:0.199999 7:-0.605846 8:-1 9:0.11913 
1 1:0.0386735 2:0.0130244 3:0.109181 4:0.55984 5:0.00892042 6:0.199999 7:0.0060587 8:-0.972973 9:0.333168 
1 1:-0.157954 2:0.0151741 3:-0.0164887 4:0.549142 5:0.223537 6:0.199999 7:-0.829992 8:-0.959459 9:-0.0366991 
1 1:0.15163 2:-0.0883893 3:0.0648391 4:0.528195 5:0.0475393 6:0.199999 7:0.0862099 8:-0.972973 9:0.31588 
1 1:-0.159846 2:0.0427025 3:0.0164596 4:0.501734 5:-0.0461555 6:0.199999 7:-0.317799 8:-1 9:0.418883 
1 1:-0.110514 2:0.105493 3:-0.0147446 4:0.376155 5:-0.113876 6:-0.142858 7:-0.482239 8:-1 9:0.0479788 
1 1:0.0895221 2:0.0549622 3:0.0522431 4:0.549907 5:-0.0276918 6:0.163635 7:0.214527 8:-0.5 9:0.0423694 
1 1:-0.169231 2:-0.133063 3:0.299837 4:0.656088 5:0.566479 6:0.199999 7:-0.561001 8:-0.959459 9:0.108825 
1 1:-0.136209 2:0.0204955 3:0.0824315 4:0.554677 5:0.0354709 6:0.199999 7:-0.734028 8:-0.959459 9:0.234036 
1 1:0.07591 2:-0.0304849 3:0.0763276 4:0.536409 5:0.184818 6:0.199999 7:-0.325092 8:-1 9:0.0154217 
1 1:-0.0284546 2:-0.102197 3:-0.0525736 4:0.230832 5:0.145074 6:0.199999 7:-0.31813 8:-1 9:0.00951818 
1 1:-0.168844 2:-0.0493533 3:-0.0033445 4:0.494205 5:-0.0206939 6:0.199999 7:-0.534163 8:-0.378378 9:0.227311 
1 1:0.103438 2:0.000688538 3:0.0737855 4:0.547103 5:0.0302287 6:0.173625 7:0.286712 8:-0.0135135 9:0.381083 
1 1:0.13413 2:0.00242865 3:0.174284 4:0.631534 5:0.00789897 6:0.147252 7:0.510062 8:-0.945946 9:0.331927 
1 1:-0.371326 2:-0.0169307 3:-0.582183 4:-0.389227 5:0.494576 6:0.499999 7:-0.942594 8:-0.702703 9:0.00819084 
1 1:-0.220993 2:-0.0794766 3:0.0954001 4:0.572984 5:0.0179719 6:0.163635 7:-0.720875 8:-1 9:0.743076 
1 1:-0.0229981 2:-0.0253827 3:0.0729306 4:0.552235 5:0.119021 6:0.199999 7:-0.27804 8:-1 9:0.277816 
1 1:-0.260043 2:0.0337706 3:0.0105582 4:0.546824 5:0.191154 6:0.199999 7:-0.884177 8:-0.527027 9:0.131533 
1 1:0.0191491 2:0.0204955 3:0.110854 4:0.554677 5:-0.00103595 6:0.199999 7:-0.230836 8:-0.972973 9:0.376219 
1 1:-0.0911578 2:-0.0346991 3:0.149674 4:0.527484 5:-0.0115962 6:-0.0400008 7:-0.326686 8:-0.986486 9:0.176092 
1 1:-0.260294 2:-0.158473 3:-0.13795 4:0.434374 5:0.173976 6:0.226666 7:-0.402024 8:-0.878378 9:0.196806 
1 1:0.0426409 2:-0.0433625 3:0.157117 4:0.566534 5:0.0354709 6:-0.142858 7:-0.50535 8:-1 9:0.0826408 
1 1:-0.0784695 2:0.0193618 3:-0.0290058 4:0.420995 5:0.284382 6:0.199999 7:-0.730542 8:-0.851351 9:0.122302 
1 1:-0.113017 2:0.0204955 3:0.463721 4:0.554677 5:-0.086219 6:0.199999 7:-0.889664 8:-0.540541 9:0.0625997 
1 1:-0.318761 2:-0.0534719 3:-0.0240195 4:0.465053 5:-0.0528942 6:0.199999 7:-0.484681 8:0.162162 9:0.261278 
1 1:-0.243904 2:-0.0765318 3:-0.354337 4:0.109174 5:0.318185 6:0.499999 7:-0.551655 8:-0.878378 9:-0.0308298 
1 1:-0.0445486 2:-0.00883236 3:-0.15206 4:0.251821 5:0.0717565 6:0.199999 7:-0.725276 8:-1 9:0.0443996 
1 1:0.0476717 2:-0.0731694 3:0.00789691 4:0.376968 5:0.107378 6:0.199999 7:-0.290664 8:-0.959459 9:0.132131 
1 1:0.0596658 2:0.0406513 3:0.0975717 4:0.528139 5:0.0727829 6:0.199999 7:0.0221251 8:-0.959459 9:0.199527 
1 1:-0.24537 2:-0.10296 3:-0.0444245 4:0.398419 5:0.184818 6:0.199999 7:-0.772358 8:-0.945946 9:0.0970381 
1 1:-0.129532 2:0.0300613 3:0.14119 4:0.562393 5:-0.124939 6:-0.100001 7:-0.596913 8:-1 9:0.197922 
1 1:-0.0512805 2:0.0841116 3:-0.0170393 4:0.436392 5:0.115397 6:0.199999 7:-0.0106626 8:0.986486 9:0.0287193 
1 1:0.0129047 2:0.021905 3:0.26978 4:0.498145 5:0.0299394 6:0.199999 7:-0.2844 8:-0.945946 9:0.354059 
1 1:-0.151271 2:0.00198911 3:-0.00275932 4:0.519507 5:-0.0334587 6:0.16923 7:-0.181391 8:-0.743243 9:0.382882 
1 1:0.0622289 2:0.0544355 3:0.239961 4:0.650657 5:-0.0640939 6:0.0285705 7:-0.524596 8:-0.972973 9:-0.0809424 
1 1:-0.140376 2:0.0204955 3:-0.243233 4:0.0345997 5:0.147858 6:0.199999 7:-0.478974 8:-0.337838 9:0.222561 
1 1:-0.0512081 2:-0.0171155 3:-0.0604135 4:0.36273 5:0.0267178 6:0.199999 7:-0.535996 8:-0.932432 9:-0.0207488 
1 1:-0.20465 2:-0.00473786 3:-0.0438161 4:0.455862 5:0.240822 6:0.242856 7:-0.582196 8:-0.959459 9:0.0104024 
1 1:0.17169 2:-0.0255346 3:0.00232406 4:0.482469 5:0.108524 6:0.199999 7:0.128322 8:-0.662162 9:-0.0972028 
1 1:-0.0340295 2:-0.0405524 3:-0.0762581 4:0.318334 5:0.0230808 6:0.199999 7:0.0546219 8:-0.459459 9:0.538021 
1 1:-0.18722 2:0.0362639 3:-0.114006 4:0.366405 5:0.149682 6:0.243635 7:-0.751071 8:-0.905405 9:0.343736 
1 1:-0.186111 2:-0.0364267 3:-0.0984217 4:0.270876 5:0.0644351 6:0.199999 7:-0.552668 8:-0.837838 9:0.225123 
1 1:-0.0508283 2:0.0204955 3:0.0212638 4:0.444031 5:0.174258 6:0.199999 7:-0.492381 8:-0.972973 9:0.260535 
1 1:-0.217916 2:-0.0723764 3:-0.121676 4:0.395487 5:0.0299394 6:0.199999 7:-0.581217 8:-1 9:0.187148 
1 1:-0.361421 2:-0.0165984 3:-0.419567 4:-0.146053 5:0.311348 6:0.142856 7:-0.918464 8:-1 9:-0.029871 
1 1:-0.238754 2:-0.0242944 3:0.0118171 4:0.534744 5:-0.093963 6:-0.133334 7:-0.502694 8:-1 9:-0.090971 
1 1:-0.114217 2:-0.119545 3:0.247418 4:0.588458 5:0.075699 6:0.0933326 7:-0.500169 8:-1 9:0.335575 
1 1:0.000988321 2:-0.067994 3:0.0521293 4:0.460099 5:0.383947 6:0.542856 7:-0.282117 8:-0.972973 9:0.2562 
1 1:-0.111345 2:0.0287998 3:0.0263739 4:0.560833 5:-0.0787198 6:0.199999 7:0.230896 8:-0.5 9:0.481375 
1 1:-0.314633 2:-0.00370815 3:-0.0384195 4:0.523237 5:0.0263442 6:0.199999 7:-0.496561 8:-0.756757 9:0.325651 
1 1:-0.0211964 2:0.0341526 3:0.122448 4:0.560332 5:-0.148341 6:0.199999 7:0.0205704 8:-0.783784 9:0.221478 
1 1:-0.183928 2:-0.119013 3:0.0932728 4:0.549271 5:-0.0735473 6:0.173332 7:-0.133752 8:-0.77027 9:-0.205277 
1 1:0.171285 2:-0.035006 3:0.166275 4:0.528145 5:0.155391 6:0.199999 7:-0.216872 8:-0.986486 9:0.168551 
1 1:0.219292 2:-0.0220103 3:0.170438 4:0.503498 5:-0.0140901 6:0.199999 7:0.318814 8:-1 9:0.144939 
1 1:-0.0689997 2:0.0746945 3:0.0613917 4:0.569448 5:-0.115259 6:0.182352 7:0.747171 8:-0.959459 9:0.250091 
1 1:-0.10445 2:0.0402108 3:0.020505 4:0.521456 5:0.0686592 6:0.199999 7:-0.284978 8:-0.986486 9:0.329713 
1 1:-0.0188541 2:-0.0995065 3:0.0464477 4:0.532274 5:-0.0625796 6:0.192981 7:0.502267 8:-1 9:0.201262 
1 1:-0.0129877 2:-0.02188 3:0.0685801 4:0.500339 5:0.0914757 6:0.199999 7:-0.339573 8:-0.472973 9:-0.134536 
1 1:-0.0569526 2:-0.134991 3:0.0231738 4:0.40508 5:0.0260677 6:0.199999 7:-0.106464 8:-0.945946 9:0.027261 
1 1:-0.179678 2:-0.0329471 3:-0.148514 4:-0.144164 5:0.2346 6:0.199999 7:-0.847261 8:-0.959459 9:0.132413 
1 1:0.165898 2:0.0204955 3:0.265767 4:0.554677 5:0.2346 6:0.199999 7:-0.532709 8:-1 9:0.244945 
1 1:-0.0203149 2:-0.207407 3:-0.121996 4:-0.255981 5:0.284382 6:0.199999 7:-0.596072 8:-1 9:0.0155607 
1 1:-0.0923431 2:-0.111543 3:0.185189 4:0.396578 5:0.135035 6:0.199999 7:-0.598905 8:-1 9:0.461797 
1 1:-0.0528173 2:-0.0121718 3:0.0258671 4:0.53295 5:0.0475393 6:0.199999 7:-0.226044 8:-1 9:0.171867 
1 1:0.110949 2:0.0204955 3:0.101507 4:0.417842 5:0.0920829 6:0.199999 7:-0.205855 8:-0.959459 9:0.272767 
1 1:-0.0901368 2:-0.00442329 3:0.0241363 4:0.54263 5:-0.0409066 6:0.199999 7:0.0988519 8:-0.972973 9:-0.00461931 
1 1:-0.313914 2:-0.092109 3:-0.0550205 4:0.478015 5:0.135035 6:0.199999 7:-0.56576 8:-0.959459 9:0.149064 
1 1:-0.105885 2:0.0458338 3:0.0584103 4:0.510347 5:-0.0381656 6:0.199999 7:-0.266139 8:-0.0405405 9:0.332962 
1 1:0.414062 2:0.0132078 3:0.253871 4:0.61992 5:0.0376833 6:0.0666657 7:0.064326 8:-1 9:0.323405 
1 1:-0.184148 2:-0.13169 3:0.0317564 4:0.533982 5:0.0354709 6:0.199999 7:-0.565258 8:-0.891892 9:-0.016519 
1 1:-0.221581 2:0.0136466 3:0.00921053 4:0.460469 5:0.154546 6:0.119999 7:-0.413732 8:-1 9:-0.416049 
1 1:-0.208476 2:-0.0988723 3:-0.0670442 4:0.425201 5:0.0373148 6:0.114285 7:-0.546881 8:-0.972973 9:0.0925868 
1 1:-0.00381992 2:0.0451727 3:-0.118955 4:0.0952844 5:0.0531713 6:0.199999 7:-0.57555 8:-0.202703 9:0.223313 
1 1:-0.0921205 2:-0.0736139 3:0.0538268 4:0.528431 5:-0.0946639 6:0.199999 7:0.55442 8:0.22973 9:0.304693 
1 1:0.0548452 2:-0.0103277 3:0.108327 4:0.473872 5:0.0528194 6:0.199999 7:0.0159372 8:-0.932432 9:0.326346 
1 1:0.0231871 2:-0.0157903 3:0.103373 4:0.530246 5:0.0329179 6:0.199999 7:0.015827 8:-0.635135 9:0.302168 
1 1:-0.067583 2:-0.0127528 3:0.0322952 4:0.48445 5:0.0624641 6:0.199999 7:-0.419403 8:-0.932432 9:0.15953 
1 1:-0.0779202 2:-0.0570537 3:0.102568 4:0.49981 5:0.00811809 6:0.199999 7:0.00727056 8:-0.959459 9:0.0651255 
1 1:-0.0130354 2:0.0204955 3:0.0236486 4:0.437604 5:0.146098 6:0.199999 7:-0.336846 8:-1 9:-0.215789 
1 1:-0.18143 2:0.0637217 3:0.0682783 4:0.579012 5:0.0449534 6:0.199999 7:-0.715122 8:-0.905405 9:0.338042 
1 1:-0.114454 2:-0.0685977 3:-0.0548929 4:0.417676 5:0.201854 6:0.199999 7:-0.414436 8:-1 9:0.0422304 
1 1:-0.246996 2:-0.161591 3:0.257211 4:0.647666 5:0.0354709 6:0.199999 7:-0.526188 8:-0.945946 9:0.036204 
1 1:0.0320935 2:-0.0716379 3:0.160023 4:0.480195 5:0.115122 6:0.199999 7:-0.320722 8:-1 9:0.127869 
1 1:-0.163025 2:0.0785256 3:0.251195 4:0.542614 5:-0.0180728 6:0.199999 7:-0.816328 8:0.0540541 9:0.29769 
1 1:0.188476 2:0.0710597 3:0.0574042 4:0.505628 5:0.00529962 6:0.199999 7:-0.22575 8:-0.0810811 9:-0.321221 
1 1:-0.0158193 2:-0.0881465 3:0.0749401 4:0.433907 5:0.110898 6:0.199999 7:-0.54416 8:-1 9:-0.095656 
1 1:-0.112625 2:0.0084635 3:0.0851391 4:0.543333 5:-0.0543327 6:0.199999 7:0.0466102 8:-0.945946 9:0.141475 
1 1:-0.0796407 2:-0.10082 3:0.126631 4:0.561093 5:0.0109315 6:0.0933326 7:-0.213659 8:-1 9:0.0757039 
1 1:-0.202005 2:-0.112997 3:0.138911 4:0.226893 5:0.0961146 6:0.199999 7:-0.430313 8:-0.986486 9:0.311397 
1 1:-0.154417 2:-0.0766072 3:0.173595 4:0.492753 5:0.0479163 6:0.0857135 7:-0.713035 8:-0.986486 9:0.118946 
1 1:-0.083919 2:-0.0822402 3:-0.0899029 4:0.249582 5:-0.0139 6:-0.0400008 7:-0.450189 8:-0.77027 9:0.18831 
1 1:-0.102373 2:-0.00902684 3:0.105923 4:0.525727 5:-0.00435511 6:0.199999 7:-0.13016 8:-1 9:0.273506 
1 1:-0.120532 2:0.06588 3:0.18584 4:0.57632 5:-0.0309056 6:0.199999 7:-0.619516 8:-1 9:-0.00138656 
1 1:0.0158246 2:-0.00314313 3:0.172027 4:0.546423 5:0.00483573 6:0.199999 7:-0.137963 8:-0.959459 9:0.224064 
1 1:-0.0629955 2:-0.0516671 3:0.0080234 4:0.459834 5:-0.0411174 6:0.199999 7:-0.404099 8:-0.972973 9:0.506361 
1 1:-0.019497 2:-0.0583141 3:0.0653629 4:0.497382 5:-0.0304172 6:0.199999 7:0.258821 8:-1 9:0.451229 
1 1:-0.268304 2:-0.0512993 3:0.0354817 4:0.516738 5:-0.194634 6:-0.0666676 7:-0.74573 8:-0.418919 9:-0.00037947 
1 1:0.00234494 2:0.0456535 3:0.162169 4:0.576856 5:0.0144514 6:0.199999 7:-0.455171 8:-0.972973 9:0.138824 
1 1:0.0586236 2:-0.0846703 3:0.247247 4:0.5119 5:-0.0640939 6:-0.142858 7:-0.520869 8:-0.648649 9:-0.0630525 
1 1:-0.0426515 2:-0.108649 3:0.0361261 4:0.503931 5:-0.0385643 6:0.199999 7:0.00921689 8:0.189189 9:0.0902503 
1 1:-0.0478748 2:0.010929 3:0.068625 4:0.537861 5:-0.0776599 6:0.0947361 7:-0.244858 8:-0.621622 9:-0.0401715 
1 1:0.0494063 2:0.0810086 3:0.0829076 4:0.571645 5:0.0531713 6:-0.0666676 7:-0.260113 8:-0.675676 9:-0.106931 
1 1:-0.177035 2:-0.140191 3:0.0450623 4:0.517403 5:0.0540377 6:0.0727262 7:-0.556166 8:-0.878378 9:-0.13766 
1 1:-0.150413 2:0.0204955 3:-0.0346836 4:0.45422 5:0.239025 6:0.199999 7:-0.745134 8:0.459459 9:0.339442 
1 1:-0.258353 2:-0.171638 3:-0.119271 4:0.368655 5:0.00842865 6:0.199999 7:0.111687 8:-0.959459 9:0.0287918 
1 1:-0.102617 2:-0.0490462 3:-0.152954 4:0.19598 5:0.239025 6:0.199999 7:-0.338064 8:-0.959459 9:-0.000889056 
1 1:-0.0924915 2:0.0476812 3:0.0956576 4:0.55066 5:-0.0730461 6:0.199999 7:0.240563 8:0.783784 9:0.0786608 
1 1:-0.0117389 2:0.00876074 3:0.0377357 4:0.477813 5:0.0729613 6:0.199999 7:-0.464578 8:-0.608108 9:-0.330386 
1 1:-0.131579 2:-0.108022 3:-0.0504445 4:0.438493 5:0.132018 6:0.199999 7:-0.465206 8:-1 9:-0.222378 
1 1:-0.0955916 2:0.0204955 3:0.0496301 4:0.509549 5:-0.090437 6:0.0399993 7:-0.2476 8:-0.945946 9:0.0715286 
1 1:-0.139424 2:0.0427272 3:-0.0406305 4:0.436007 5:0.115122 6:0.199999 7:-0.500093 8:-0.472973 9:0.200645 
1 1:-0.0653855 2:0.0180301 3:-0.0350447 4:0.454603 5:0.223537 6:0.199999 7:-0.429688 8:-0.108108 9:-0.224084 
1 1:0.0164782 2:-0.0428749 3:0.0247507 4:0.524142 5:0.0897785 6:0.199999 7:-0.232066 8:-0.972973 9:0.76516 
1 1:0.206879 2:0.0362579 3:0.271682 4:0.557647 5:-0.0397558 6:0.199999 7:-0.296824 8:-1 9:0.0482467 
1 1:-0.292342 2:-0.022514 3:-0.104699 4:0.33936 5:0.211147 6:0.199999 7:-0.588045 8:-0.986486 9:-0.112229 
1 1:-0.0835763 2:-0.00361032 3:-0.0025378 4:0.537497 5:0.146098 6:0.199999 7:-0.542897 8:-1 9:0.262337 
1 1:-0.0686481 2:0.0267938 3:0.188492 4:0.566684 5:0.135035 6:0.199999 7:-0.731965 8:-0.972973 9:0.158515 
1 1:-0.0219559 2:0.00755028 3:0.195615 4:0.548028 5:-0.0474998 6:0.199999 7:-0.518981 8:-0.851351 9:0.168966 
1 1:-0.0496625 2:-0.0685928 3:0.0998263 4:0.517651 5:-0.00391743 6:0.199999 7:-0.293418 8:-0.121622 9:0.214857 
1 1:-0.139161 2:0.0745408 3:0.0222474 4:0.395202 5:-0.0640939 6:-0.142858 7:-0.586469 8:-1 9:0.168277 
1 1:-0.0266652 2:0.0491311 3:0.0240007 4:0.521083 5:-0.0628104 6:0.199999 7:-0.110589 8:-1 9:-0.19401 
1 1:0.279972 2:-0.070987 3:0.087329 4:0.46603 5:0.133191 6:0.199999 7:-0.0148214 8:-0.878378 9:-0.0119247 
1 1:-0.108782 2:-0.0140826 3:0.102257 4:0.53467 5:0.0552833 6:0.199999 7:-0.245525 8:-0.972973 9:0.134407 
1 1:-0.129399 2:0.0204955 3:0.0551809 4:0.54748 5:-0.110047 6:-9.59999e-007 7:-0.295625 8:-0.851351 9:0.321669 
1 1:0.258575 2:0.0194553 3:0.234892 4:0.504808 5:0.114098 6:0.199999 7:0.125877 8:-1 9:0.139171 
1 1:-0.00158361 2:0.0431647 3:0.0386273 4:0.522453 5:-0.0369395 6:0.199999 7:-0.176223 8:-1 9:0.0532701 
1 1:0.0293803 2:-0.0455241 3:0.0493774 4:0.530863 5:-0.00103595 6:0.199999 7:0.0572415 8:-0.959459 9:0.121252 
1 1:-0.151906 2:0.0204955 3:0.0059729 4:0.554677 5:0.184818 6:0.199999 7:-0.72351 8:-0.986486 9:0.0653954 
1 1:-0.0177748 2:0.0383468 3:0.481787 4:0.57608 5:0.0354709 6:0.199999 7:-0.84279 8:-1 9:0.954428 
1 1:-0.196065 2:-0.113661 3:0.0541782 4:0.546589 5:0.00483573 6:0.199999 7:-0.334227 8:0.351351 9:0.149036 
1 1:-0.0889233 2:-0.0662074 3:-0.0152 4:0.479628 5:0.0398595 6:0.0472718 7:-0.327338 8:-0.918919 9:-0.110619 
1 1:0.110018 2:0.0213668 3:0.121553 4:0.51906 5:0.1044 6:0.199999 7:0.0739934 8:-0.891892 9:0.249906 
1 1:0.0891017 2:0.00510393 3:0.151364 4:0.549335 5:0.176213 6:0.199999 7:-0.454697 8:-1 9:0.190457 
1 1:-0.151826 2:-0.0638626 3:0.0707053 4:0.559039 5:0.0390912 6:0.156363 7:-0.293173 8:-0.986486 9:-0.16555 
1 1:-0.10267 2:-0.0388144 3:0.0354558 4:0.534984 5:-0.0411174 6:0.199999 7:-0.130104 8:-0.72973 9:0.142826 
1 1:-0.046248 2:-0.147615 3:-0.00723721 4:0.45667 5:0.0934395 6:0.199999 7:-0.254079 8:-0.878378 9:0.0834243 
1 1:-0.262616 2:-0.0616624 3:-0.0127971 4:0.365727 5:0.404692 6:0.542856 7:-0.722696 8:-0.945946 9:0.108152 
1 1:-0.0445027 2:0.0174226 3:0.151647 4:0.553234 5:0.0329179 6:0.199999 7:-0.623482 8:-1 9:0.0501703 
1 1:-0.0994513 2:-0.116986 3:-0.0637315 4:0.453695 5:0.110898 6:0.199999 7:-0.194856 8:-0.972973 9:-0.0593726 
1 1:-0.257507 2:-0.201924 3:0.0288819 4:0.426994 5:0.0920829 6:0.199999 7:-0.220446 8:-0.905405 9:-0.0743339 
1 1:-0.163121 2:0.0375681 3:0.0360866 4:0.213271 5:0.0897785 6:0.199999 7:-0.799175 8:-0.972973 9:0.530224 
1 1:-0.0267377 2:0.0204955 3:0.0901354 4:0.554677 5:0.0354709 6:0.199999 7:-0.60465 8:-1 9:0.211872 
0.6132717001222493 1:-0.122016 2:0.0661917 3:-0.00701079 4:0.525669 5:-0.0707311 6:0.199999 7:0.0463531 8:-0.959459 9:-0.342429 
1 1:-0.0774432 2:-0.0226304 3:0.0513964 4:0.433114 5:-0.00877992 6:0.199999 7:-0.432709 8:-1 9:0.00308088 
1 1:-0.0359814 2:0.0204955 3:0.124301 4:0.554677 5:-0.0326948 6:0.199999 7:-0.00703921 8:-0.932432 9:0.333927 
1 1:-0.0523439 2:0.0204955 3:0.128504 4:0.554677 5:0.0751604 6:0.199999 7:-0.179815 8:-0.959459 9:0.306532 
1 1:-0.0414521 2:0.000581485 3:0.0435664 4:0.539949 5:-0.0197817 6:0.153845 7:-0.0081103 8:-0.851351 9:0.153534 
1 1:0.0498939 2:0.0219469 3:0.0306284 4:0.451676 5:0.149196 6:0.199999 7:-0.240522 8:-0.972973 9:-0.058003 
1 1:0.094189 2:-0.0206884 3:0.180688 4:0.538107 5:0.115122 6:0.199999 7:-0.191505 8:-1 9:-0.10936 
1 1:-0.0197514 2:-0.131628 3:0.0467761 4:0.46267 5:0.0915387 6:0.199999 7:-0.203716 8:-0.878378 9:0.411588 
1 1:-0.028543 2:0.0298206 3:0.112849 4:0.565085 5:0.142226 6:0.0999993 7:-0.502054 8:-1 9:-0.0430719 
1 1:-0.0167467 2:-0.00907056 3:0.102532 4:0.52727 5:0.115122 6:0.199999 7:-0.494043 8:-1 9:0.229373 
1 1:-0.235905 2:-0.118421 3:-0.264549 4:0.100109 5:0.500107 6:0.599999 7:-0.78623 8:-1 9:0.0352271 
1 1:-0.121564 2:0.0291105 3:0.174544 4:0.560477 5:-0.101707 6:0.199999 7:-0.533407 8:-0.972973 9:0.056666 
1 1:0.064255 2:0.0214339 3:0.0763521 4:0.538299 5:0.121318 6:0.199999 7:-0.210941 8:-0.662162 9:0.0224995 
1 1:-0.0639194 2:-0.314705 3:0.0499755 4:0.40149 5:-0.0548105 6:-9.59999e-007 7:-0.210601 8:-0.810811 9:0.234495 
1 1:-0.0428352 2:0.0408734 3:0.122234 4:0.569066 5:0.0686592 6:0.199999 7:-0.566822 8:-1 9:-0.14233 
1 1:-0.0548434 2:0.0204955 3:-0.0213102 4:0.488617 5:0.0246598 6:0.199999 7:-0.262225 8:-0.364865 9:0.58962 
1 1:-0.283012 2:-0.191549 3:0.00424418 4:0.468037 5:0.642341 6:0.599999 7:-0.61798 8:-0.986486 9:0.381532 
1 1:-0.212915 2:0.00127029 3:-0.210488 4:0.316781 5:0.262257 6:0.199999 7:-0.59321 8:-0.959459 9:0.0797766 
1 1:0.129274 2:0.011815 3:0.0475969 4:0.549328 5:-0.00435511 6:0.199999 7:0.158481 8:-1 9:0.0351506 
1 1:0.224577 2:-0.110971 3:0.0854422 4:0.511171 5:-0.0126522 6:0.199999 7:0.44632 8:-1 9:0.684156 
1 1:0.15385 2:-0.0187971 3:0.0721923 4:0.454889 5:0.0944721 6:0.199999 7:-0.246431 8:-0.662162 9:-0.101304 
1 1:0.0603565 2:0.0440132 3:0.138897 4:0.554677 5:0.0639177 6:0.199999 7:-0.263688 8:-0.864865 9:0.412361 
1 1:-0.161799 2:-0.0247725 3:0.0406333 4:0.461731 5:-0.107653 6:0.199999 7:-0.596215 8:0.378378 9:0.0862884 
1 1:-0.0132739 2:-0.0939969 3:-0.00594 4:0.528875 5:-0.0576892 6:0.199999 7:0.407644 8:-1 9:0.443806 
1 1:-0.0394472 2:-0.0764614 3:-0.00547429 4:0.499542 5:0.0390912 6:0.199999 7:-0.235555 8:-0.810811 9:0.263481 
1 1:0.330941 2:-0.0261336 3:0.0930753 4:0.53378 5:-0.0574561 6:0.199999 7:0.974358 8:-0.891892 9:0.423761 
1 1:-0.230633 2:0.00479712 3:0.0601595 4:0.426708 5:0.0413956 6:0.199999 7:-0.519623 8:-1 9:0.109256 
1 1:-0.181656 2:-0.140096 3:0.0320562 4:0.506664 5:0.0809791 6:0.156363 7:-0.572266 8:-1 9:0.1886 
1 1:-0.29371 2:-0.0610539 3:-0.0696066 4:0.490093 5:0.40884 6:0.0285705 7:-0.496879 8:-0.959459 9:-0.0172381 
1 1:-0.250468 2:-0.0531529 3:-0.190963 4:0.239744 5:0.0281797 6:-0.0181824 7:-0.495352 8:-0.77027 9:0.334008 
1 1:-0.268673 2:-0.078238 3:0.00427613 4:0.484191 5:0.218006 6:0.199999 7:-0.71918 8:-0.959459 9:-0.0924534 
1 1:-0.151667 2:0.0550455 3:0.0220342 4:0.565355 5:0.107378 6:0.199999 7:-0.636201 8:0.0135135 9:0.182415 
1 1:0.0516603 2:0.0174216 3:0.109694 4:0.556707 5:-0.0856659 6:0.0628564 7:-0.114268 8:-0.959459 9:-0.0748616 
1 1:-0.121866 2:0.0648792 3:0.0955581 4:0.525942 5:-0.00982144 6:0.199999 7:-0.190052 8:-0.797297 9:0.406772 
1 1:-0.0862648 2:0.0466747 3:0.0119991 4:0.492085 5:0.0825179 6:0.199999 7:-0.418567 8:-0.756757 9:-0.0283503 
1 1:-0.000571442 2:0.00265856 3:0.171164 4:0.525899 5:0.132018 6:0.199999 7:-0.148478 8:-0.986486 9:0.190423 
1 1:-0.0357359 2:0.0204955 3:0.0691543 4:0.421486 5:-0.036658 6:-0.0666676 7:-0.410106 8:-1 9:0.0874144 
1 1:-0.0275732 2:-0.00509603 3:0.0131526 4:0.523915 5:0.0562869 6:0.199999 7:-0.274438 8:-0.986486 9:0.0743685 
1 1:-0.276746 2:-0.175512 3:-0.0533963 4:0.408663 5:0.0852533 6:0.199999 7:-0.620242 8:-0.972973 9:0.0596167 
1 1:0.00447173 2:0.0204955 3:0.113749 4:0.554677 5:-0.0463607 6:0.191175 7:0.0926059 8:-0.905405 9:0.290153 
1 1:-0.0880471 2:-0.0265065 3:0.114985 4:0.554677 5:-0.0411174 6:0.199999 7:-0.191359 8:-0.945946 9:0.643361 
1 1:-0.0605879 2:0.0237755 3:0.0520673 4:0.542141 5:0.0201531 6:0.199999 7:-0.403257 8:-0.932432 9:0.23909 
1 1:-0.00392767 2:-0.040147 3:0.0315003 4:0.443852 5:0.0436994 6:0.199999 7:-0.211247 8:-1 9:0.235077 
1 1:0.176277 2:-0.0790054 3:0.0584519 4:0.582223 5:-0.0268209 6:0.199999 7:0.228558 8:-1 9:-0.244626 
1 1:-0.0207 2:0.0419483 3:0.435118 4:0.562252 5:-0.0972816 6:0.199999 7:-0.582711 8:-0.905405 9:0.102031 
1 1:-0.105637 2:0.051438 3:0.0678853 4:0.462461 5:0.0137478 6:0.199999 7:-0.436862 8:-0.986486 9:-0.264327 
1 1:-0.37706 2:-0.0781564 3:-0.1925 4:0.290472 5:0.553204 6:0.519999 7:-0.942958 8:-0.986486 9:0.0417651 
1 1:-0.0697681 2:0.0839063 3:0.0529985 4:0.583648 5:0.0264195 6:0.199999 7:-0.306354 9:0.304935 
1 1:-0.0858197 2:-0.0747911 3:-0.0451977 4:-0.264062 5:0.20805 6:0.199999 7:-0.525022 8:-0.567568 9:-0.0476159 
1 1:-0.103631 2:-0.084255 3:0.0721126 4:0.433057 5:0.0729613 6:0.199999 7:-0.407297 8:-0.864865 9:0.0686261 
1 1:0.0458364 2:0.0212872 3:0.0803335 4:0.164725 5:0.0239657 6:0.199999 7:0.0653206 8:-1 9:0.235786 
1 1:-0.302971 2:-0.063696 3:0.0038677 4:0.55083 5:-0.0474998 6:0.199999 7:-0.476431 8:-1 9:0.176147 
1 1:0.0465094 2:0.0300657 3:0.142175 4:0.553811 5:-0.163658 6:0.199999 7:-0.301219 8:-0.972973 9:-0.0726158 
1 1:0.0744244 2:-0.10894 3:-0.0913256 4:0.0375204 5:0.0671594 6:0.127272 7:0.0984081 8:-0.959459 9:0.065901 
1 1:0.186038 2:-0.0500642 3:0.0895816 4:0.474106 5:0.0779515 6:0.199999 7:-0.183371 8:-0.945946 9:0.257737 
1 1:-0.0680652 2:-0.0491244 3:0.00715043 4:0.517958 5:0.197263 6:0.199999 7:-0.531922 8:-0.986486 9:0.123553 
1 1:-0.227108 2:-0.209361 3:0.0754475 4:0.548107 5:-0.0900913 6:0.166666 7:-0.49855 8:-1 9:0.556594 
1 1:-0.130634 2:0.0614234 3:0.0864742 4:0.383533 5:-0.0239428 6:0.181817 7:-0.532645 8:-0.932432 9:0.0394025 
1 1:0.0542905 2:0.0235004 3:-0.0928728 4:0.39705 5:0.0457791 6:0.199999 7:0.144248 8:0.243243 9:0.485248 
1 1:-0.229411 2:-0.0218761 3:0.0693096 4:0.460737 5:-0.163658 6:-0.100001 7:-0.581863 8:0.716216 9:-0.104027 
1 1:-0.226689 2:-0.098142 3:0.0725539 4:0.5133 5:0.184818 6:0.199999 7:-0.59261 8:-0.972973 9:-0.351108 
1 1:-0.0871321 2:0.0375046 3:0.0277396 4:0.558797 5:0.0299394 6:0.199999 7:-0.51813 8:-0.945946 9:0.328213 
1 1:0.140046 2:0.0392855 3:0.12677 4:0.554677 5:-0.0422197 6:0.199999 7:-0.268474 8:-0.959459 9:0.404663 
1 1:-0.391448 2:-0.127898 3:-0.135507 4:0.40704 5:0.0891574 6:0.209999 7:-0.726472 8:-0.986486 9:0.308502 
1 1:-0.119499 2:0.00556717 3:0.069719 4:0.56214 5:-0.00581927 6:0.179999 7:-0.259128 8:-1 9:0.0559107 
1 1:-0.0750833 2:-0.163219 3:0.415744 4:0.545152 5:-0.163658 6:-0.100001 7:-0.744727 8:0.283784 9:0.146323 
1 1:0.0256937 2:0.0756091 3:0.0143664 4:0.546399 5:0.0354709 6:0.199999 7:-0.0173064 8:-0.027027 9:0.0300084 
1 1:-0.156518 2:0.0442746 3:0.0372125 4:0.517306 5:-0.0774787 6:0.199999 7:-0.145268 8:-0.662162 9:0.22697 
1 1:0.175765 2:0.0265595 3:0.127868 4:0.556572 5:0.0390912 6:0.199999 7:-0.404796 8:-0.972973 9:0.160996 
1 1:-0.0132333 2:0.0204955 3:0.0177633 4:0.403612 5:-0.0393075 6:0.199999 7:0.460978 8:-1 9:0.539353 
1 1:-0.174845 2:0.0237956 3:0.0171605 4:0.483931 5:-0.0904431 6:0.173332 7:-0.493394 8:-0.972973 9:-0.0269364 
1 1:0.011458 2:0.052528 3:0.0900891 4:0.541699 5:-0.0115761 6:0.199999 7:-0.176544 8:-0.905405 9:0.37578 
1 1:-0.267685 2:-0.108597 3:-0.132768 4:0.257805 5:0.0376833 6:0.199999 7:-0.415657 8:-0.972973 9:-0.0968685 
1 1:0.0325846 2:0.0150668 3:0.159476 4:0.544332 5:0.0639177 6:0.199999 7:-0.541862 8:-1 9:0.079261 
1 1:-0.0118325 2:-0.0275108 3:0.0709035 4:0.508328 5:-0.0130821 6:0.199999 7:-0.279607 8:-1 9:-0.00379551 
1 1:-0.256442 2:-0.201834 3:0.018501 4:0.512525 5:-0.0395138 6:0.199999 7:-0.291475 8:-1 9:0.404028 
1 1:-0.0149326 2:0.0376635 3:0.11461 4:0.491873 5:0.149196 6:0.199999 7:-0.547603 8:-1 9:0.236276 
1 1:-0.116284 2:-0.0157591 3:0.125503 4:0.534661 5:0.00107609 6:0.178181 7:-0.480816 8:-1 9:0.0927016 
1 1:0.186436 2:-0.215461 3:0.145558 4:0.468999 5:0.066739 6:0.199999 7:0.0800741 8:-0.72973 9:-0.112577 
1 1:0.0786656 2:0.0855154 3:0.106643 4:0.520368 5:-0.0279879 6:0.199999 7:0.105502 8:-0.175676 9:0.597701 
1 1:0.0771818 2:0.0189377 3:0.273362 4:0.539424 5:-0.113876 6:0.199999 7:-0.470837 8:-0.986486 9:-0.0553221 
1 1:-0.0971372 2:0.00120116 3:-0.0637525 4:0.445697 5:-0.0610764 6:0.199999 7:0.00287603 8:-1 9:0.387585 
1 1:0.0898242 2:-0.0240319 3:0.11808 4:0.534126 5:-0.0176301 6:0.199999 7:0.0437427 8:-0.621622 9:0.399293 
1 1:-0.227576 2:-0.0635483 3:0.0763923 4:0.494443 5:-0.174721 6:-0.185715 7:-0.546235 8:-0.972973 9:0.0817263 
1 1:0.0235051 2:0.0269375 3:0.0809002 4:0.475674 5:0.197724 6:0.199999 7:-0.279417 8:-0.797297 9:-0.0878772 
1 1:0.231809 2:-0.0361054 3:0.161352 4:0.554677 5:-0.0450877 6:0.149999 7:0.73418 8:-1 9:0.0267494 
1 1:-0.0168527 2:0.0313657 3:0.105714 4:0.557694 5:0.106674 6:0.199999 7:-0.140234 8:-0.864865 9:0.360687 
1 1:-0.155862 2:-0.0738104 3:-0.0212172 4:0.554677 5:0.0616189 6:0.0666657 7:-0.739787 8:-1 9:0.154202 
1 1:0.119726 2:0.00542983 3:0.102172 4:0.515379 5:0.0049478 6:0.199999 7:-0.487497 8:-0.932432 9:0.139706 
1 1:-0.0780915 2:0.0491189 3:0.113669 4:0.552496 5:-0.0575292 6:0.199999 7:0.11027 8:-0.945946 9:-0.00656701 
1 1:0.0328177 2:0.000845234 3:0.168058 4:0.527009 5:0.0342415 6:0.199999 7:-0.254173 8:-0.662162 9:0.102442 
1 1:-0.101027 2:0.00857412 3:0.0246908 4:0.452051 5:0.0188768 6:-0.142858 7:-0.558629 8:-0.986486 9:0.497377 
1 1:0.0875702 2:-0.107262 3:-0.0157156 4:0.358726 5:0.0644351 6:0.199999 7:-0.0461126 8:-0.986486 9:0.705015 
1 1:0.0150174 2:-0.114813 3:0.0729674 4:0.486489 5:0.0329179 6:0.199999 7:0.0105603 8:-0.918919 9:0.0529216 
1 1:-0.182924 2:-0.0684727 3:-0.322913 4:0.0463554 5:0.499221 6:0.466666 7:-0.620823 8:-0.756757 9:0.337178 
1 1:0.340303 2:-0.0365969 3:0.0817673 4:0.453905 5:0.0897785 6:0.199999 7:0.433173 8:-1 9:-0.037124 
1 1:-0.241081 2:-0.11067 3:-0.159429 4:0.248777 5:-0.21107 6:-0.085715 7:-0.461647 8:-0.891892 9:0.016171 
1 1:-0.251734 2:-0.41805 3:0.0188689 4:0.487763 5:-0.13754 6:0.0909081 7:-0.466598 8:-1 9:0.119295 
1 1:-0.032816 2:-0.195451 3:-0.0451405 4:0.433833 5:0.0345376 6:0.199999 7:0.527863 8:-1 9:0.258561 
1 1:-0.221733 2:-0.00332339 3:-0.0183534 4:0.532735 5:0.0450755 6:0.199999 7:-0.580449 8:-0.986486 9:0.433008 
1 1:-0.00850098 2:0.00539651 3:0.0494305 4:0.463701 5:0.16581 6:0.199999 7:-0.313258 8:-0.905405 9:0.193509 
1 1:0.0466913 2:-0.107084 3:-0.0177693 4:0.42024 5:0.209585 6:0.439999 7:-0.0022805 8:-1 9:-0.113002 
1 1:-0.184959 2:-0.140707 3:0.0266559 4:0.445515 5:-0.0474998 6:0.199999 7:-0.569585 8:-1 9:0.0616792 
1 1:-0.229815 2:-0.239173 3:0.0593987 4:0.478155 5:-0.163658 6:-0.142858 7:-0.759912 8:-0.945946 9:0.0219255 
1 1:0.103749 2:-0.115323 3:0.0366887 4:0.0596066 5:0.0088195 6:0.199999 7:-0.047147 8:-1 9:0.203948 
1 1:0.000698626 2:0.0204955 3:0.138715 4:0.538687 5:0.0221954 6:0.199999 7:-0.151939 8:-0.72973 9:0.141823 
1 1:0.0403799 2:0.0342553 3:0.10431 4:0.554677 5:0.00705984 6:0.199999 7:-0.19724 8:-0.986486 9:0.155975 
1 1:-0.182935 2:0.0552459 3:0.0213932 4:0.506999 5:-0.00526003 6:0.134544 7:-0.40139 8:-1 9:-0.104347 
1 1:-0.237546 2:-0.179781 3:-0.0890962 4:0.479493 5:0.270001 6:0.466666 7:-0.351643 8:0.0810811 9:-0.110627 
1 1:0.0107885 2:0.0684384 3:0.0498154 4:0.52078 5:-0.0605673 6:0.199999 7:0.120212 8:-0.027027 9:0.0660198 
1 1:-0.00205172 2:0.0406629 3:0.0641232 4:0.539708 5:-0.0193189 6:0.199999 7:-0.115883 8:-0.945946 9:0.414373 
1 1:-0.104655 2:-0.0748567 3:-0.000627282 4:0.489308 5:0.0644351 6:0.199999 7:-0.490275 8:-1 9:0.0596369 
1 1:-0.246682 2:-0.0465218 3:0.0767118 4:0.559701 5:-0.349512 6:-0.333333 7:-0.847698 8:-0.959459 9:0.152446 
1 1:0.341513 2:0.000733308 3:0.0946209 4:0.479817 5:0.0773388 6:0.199999 7:0.10619 8:-1 9:0.717762 
1 1:-0.362149 2:-0.042447 3:-0.0955667 4:0.459264 5:0.0259885 6:-0.085715 7:-0.568774 8:-0.297297 9:-0.103501 
1 1:-0.0744809 2:0.0204955 3:0.241114 4:0.554677 5:0.300976 6:0.199999 7:-0.789257 8:-1 9:0.150692 
1 1:-0.112099 2:0.0204955 3:0.311001 4:0.554677 5:0.20805 6:0.199999 7:-0.808937 8:-0.986486 9:0.00444649 
1 1:-0.0783335 2:0.0721236 3:0.0485369 4:0.571872 5:-0.0369395 6:-0.0400008 7:-0.410553 8:-0.851351 9:-0.184789 
1 1:-0.00935593 2:-0.00186283 3:0.0106602 4:0.522747 5:-0.071713 6:0.193683 7:0.566863 8:-0.864865 9:0.442646 
1 1:-0.148836 2:0.0120518 3:-0.0539052 4:0.397251 5:0.00892042 6:0.199999 7:-0.452946 8:-0.932432 9:0.215824 
1 1:0.0245985 2:0.0114905 3:0.129024 4:0.530114 5:0.112025 6:0.199999 7:-0.409469 8:-1 9:0.332608 
1 1:-0.00670098 2:0.0209253 3:0.0446079 4:0.534574 5:-0.0236116 6:0.199999 7:0.0230799 8:-0.972973 9:-0.134387 
1 1:0.0049946 2:0.017251 3:0.065961 4:0.554677 5:0.0095237 6:0.199999 7:-0.416318 8:-1 9:0.194651 
1 1:0.266268 2:-0.0633237 3:0.194175 4:0.50162 5:0.115122 6:0.199999 7:-0.128192 8:-0.986486 9:0.234084 
1 1:-0.373098 2:-0.167859 3:0.11947 4:0.565177 5:-0.180252 6:-0.2 7:-0.914403 8:-1 9:-0.0827874 
1 1:-0.0842175 2:0.0204955 3:0.0409535 4:0.554677 5:0.107378 6:0.199999 7:-0.730331 8:-1 9:0.197249 
1 1:-0.269303 2:-0.0804405 3:-0.0105725 4:0.503179 5:0.115122 6:0.199999 7:-0.469836 8:-1 9:0.160801 
1 1:-0.201756 2:0.00505112 3:0.267901 4:0.51917 5:0.579755 6:0.199999 7:-0.758464 8:-1 9:0.375 
1 1:-0.142814 2:-0.0420356 3:-0.0706773 4:0.450665 5:-0.0564347 6:0.199999 7:-0.602079 8:-0.972973 9:0.151969 
1 1:-0.0189865 2:-0.0102521 3:0.142126 4:0.545657 5:0.0643571 6:0.199999 7:0.00216299 8:-0.824324 9:0.0703321 
1 1:0.101961 2:-0.0108499 3:0.182126 4:0.471125 5:0.197263 6:0.199999 7:-0.0303676 8:-0.945946 9:0.0272026 
1 1:-0.0881107 2:0.0219045 3:0.0341739 4:0.555698 5:0.0686592 6:0.199999 7:-0.413546 8:-1 9:0.0572078 
1 1:0.151012 2:-0.281811 3:0.0373917 4:0.527776 5:-0.0387879 6:0.199999 7:0.410151 8:0.472973 9:0.163947 
1 1:-0.100455 2:-0.0824362 3:0.0913111 4:0.600742 5:0.126386 6:0.146666 7:-0.415406 8:-1 9:0.261221 
1 1:-0.390311 2:-0.147576 3:-0.186148 4:-0.0832925 5:0.0285315 6:0.156363 7:-0.762238 8:-1 9:0.255193 
1 1:-0.0958089 2:-0.0330048 3:-0.0165875 4:0.503067 5:-0.0126522 6:0.199999 7:-0.178248 8:-0.932432 9:0.149314 
1 1:0.055898 2:0.0254526 3:0.221396 4:0.549421 5:0.0334592 6:0.146666 7:-0.304689 8:-1 9:0.322064 
1 1:-0.153213 2:0.0176843 3:0.0594177 4:0.552348 5:-0.0564347 6:0.199999 7:-0.476688 8:-1 9:0.25981 
1 1:0.100483 2:-0.0439554 3:0.163405 4:0.671219 5:0.0137478 6:-0.0400008 7:-0.0205564 8:0.405405 9:0.58154 
1 1:-0.278608 2:-0.0933578 3:-0.0021131 4:0.410045 5:0.2346 6:0.199999 7:-0.809056 8:-1 9:0.253427 
1 1:0.231111 2:-0.248581 3:0.0642996 4:0.124492 5:0.0748543 6:0.173332 7:-0.207192 8:-0.986486 9:0.134236 
1 1:-0.366509 2:-0.0287776 3:9.35235e-005 4:0.452884 5:0.0299394 6:0.199999 7:-0.881545 8:-0.918919 9:0.213063 
1 1:0.232731 2:-0.0128372 3:0.144893 4:0.587448 5:0.0841466 6:0.146666 7:-0.162537 8:-0.527027 9:0.072018 
1 1:-0.239118 2:-0.00332471 3:0.0156981 4:0.528945 5:0.0354709 6:0.199999 7:-0.798156 8:-1 9:0.300502 
1 1:-0.242704 2:0.0235225 3:-0.00734858 4:0.411126 5:-0.163658 6:-0.4 7:-0.929416 8:-0.864865 9:0.0070629 
1 1:-0.0596305 2:-0.119135 3:-0.0234589 4:0.30977 5:0.0741902 6:0.199999 7:-0.597629 8:-0.972973 9:0.120539 
1 1:0.155838 2:-0.276554 3:0.0691829 4:0.557008 5:0.0221954 6:0.199999 7:0.311662 8:-0.783784 9:0.309372 
1 1:-0.0845832 2:0.0474453 3:-0.000795052 4:0.466694 5:0.00177974 6:0.199999 7:-0.445914 8:-0.972973 9:-0.102216 
1 1:-0.0845549 2:0.010598 3:0.0880817 4:0.508292 5:0.184818 6:0.199999 7:-0.712472 8:-0.972973 9:-0.0453157 
1 1:-0.0360874 2:-0.0495547 3:0.437005 4:0.761142 5:-0.0309056 6:-0.2 7:-0.554024 8:-0.986486 9:-0.0410859 
1 1:-0.0289969 2:0.013538 3:0.231719 4:0.553405 5:0.184818 6:0.199999 7:-0.494704 8:-0.959459 9:-0.076189 
1 1:-0.0691551 2:-0.00402365 3:0.121327 4:0.534164 5:0.135035 6:0.199999 7:-0.612875 8:-1 9:0.234536 
1 1:-0.0929048 2:-0.112581 3:0.0423649 4:0.51558 5:-0.121419 6:-0.0181824 7:-0.631292 8:-0.864865 9:-0.0528185 
1 1:0.110885 2:0.0332252 3:0.260002 4:0.556772 5:0.0976987 6:0.199999 7:-0.607554 8:-1 9:0.209491 
1 1:-0.399117 2:-0.179857 3:-0.134068 4:0.395887 5:0.168223 6:0.199999 7:-0.802312 8:-0.905405 9:-0.0726279 
1 1:0.0947296 2:-0.0454663 3:-0.0201787 4:0.348175 5:-0.078411 6:0.0472718 7:0.0885939 8:-0.675676 9:-0.0461173 
1 1:-0.135725 2:0.00683311 3:-0.13908 4:0.192217 5:0.115122 6:0.199999 7:-0.607395 8:-0.945946 9:0.202134 
1 1:0.0354038 2:-0.266883 3:0.0528806 4:0.436787 5:0.0460033 6:0.199999 7:-0.0161251 8:-0.986486 9:0.372329 
1 1:-0.135306 2:-0.0132442 3:0.0148255 4:0.481786 5:0.115122 6:0.199999 7:-0.464181 8:-1 9:0.28434 
1 1:-0.106939 2:-0.0122407 3:-0.170754 4:0.149358 5:0.0420357 6:0.199999 7:-0.455694 8:-1 9:0.0120601 
1 1:-0.231068 2:-0.0043589 3:0.120854 4:0.534141 5:0.107378 6:0.199999 7:-0.623443 8:-0.986486 9:0.146448 
1 1:-0.211286 2:-0.071026 3:-0.0732002 4:0.39686 5:0.0170329 6:0.199999 7:-0.433021 8:-0.972973 9:0.0953885 
1 1:-0.14735 2:0.0407978 3:0.140227 4:0.470655 5:0.0259885 6:0.199999 7:-0.796742 8:-0.797297 9:0.0230011 
1 1:-0.0783953 2:0.0248115 3:0.0137874 4:0.533323 5:-0.0370243 6:0.177142 7:-0.0499746 8:-0.918919 9:0.00838017 
0.5695513907061185 1:-0.046149 2:0.0401603 3:-0.5213 4:-0.480386 5:0.0897785 6:0.199999 7:-0.45814 8:-1 9:0.306119 
1 1:0.114948 2:-0.0359266 3:0.0203109 4:0.454035 5:0.124823 6:0.199999 7:0.395247 8:-0.891892 9:0.21438 
1 1:0.0128058 2:-0.0417006 3:0.158036 4:0.473464 5:0.0634109 6:0.199999 7:-0.228498 8:-0.972973 9:0.0306449 
1 1:-0.105586 2:0.0233498 3:0.0965758 4:0.547429 5:0.0433153 6:0.178181 7:-0.524495 8:-1 9:0.298633 
1 1:0.064119 2:0.0142724 3:0.135544 4:0.554261 5:0.16933 6:0.199999 7:-0.433471 8:-1 9:0.189416 
1 1:0.190082 2:0.0204955 3:0.0504775 4:0.471036 5:-0.0791793 6:0.199999 7:0.452746 8:-0.945946 9:0.392503 
1 1:0.111712 2:0.0204955 3:0.0352174 4:0.545554 5:-0.0257995 6:0.199999 7:-0.162096 8:-0.891892 9:0.125907 
1 1:-0.128931 2:-0.0246808 3:0.0506607 4:0.508783 5:0.135035 6:0.199999 7:-0.618427 8:-0.986486 9:-0.0017189 
1 1:-0.03988 2:0.00459723 3:0.0768507 4:0.518857 5:-0.0566265 6:0.199999 7:-0.418641 8:-0.972973 9:0.123976 
1 1:-0.180418 2:-0.056443 3:-0.0263821 4:0.536046 5:-0.110667 6:-0.0400008 7:-0.456695 8:-1 9:0.165339 
1 1:-0.0398623 2:-0.126108 3:-0.031066 4:0.315741 5:0.177074 6:0.199999 7:-0.190939 8:-1 9:0.15335 
1 1:-0.0274654 2:0.00875089 3:0.0822694 4:0.568155 5:0.177074 6:0.466666 7:-0.502905 8:-0.351351 9:-0.054877 
1 1:-0.0652795 2:-0.0785735 3:-0.0246754 4:0.512842 5:-0.0152448 6:0.177142 7:0.140052 8:-0.918919 9:0.758654 
1 1:-0.108766 2:-0.144418 3:0.0348857 4:0.386266 5:0.0777764 6:0.239559 7:-0.229235 8:-0.743243 9:0.0153553 
1 1:-0.243057 2:-0.0103054 3:0.0298328 4:0.510043 5:-0.0349725 6:0.199999 7:-0.874365 8:-0.986486 9:0.0753797 
1 1:-0.0559475 2:0.0382139 3:0.0348809 4:0.544925 5:-0.027001 6:0.199999 7:-0.00348931 8:-1 9:0.303678 
1 1:-0.0256089 2:0.0215228 3:0.101032 4:0.557738 5:-0.0707311 6:0.199999 7:-0.53696 8:-1 9:0.104474 
1 1:-0.0192745 2:-0.0148575 3:-0.0263546 4:0.43636 5:0.128889 6:0.199999 7:-0.477239 8:-0.108108 9:0.2294 
1 1:-0.0235722 2:0.0388003 3:0.162832 4:0.591206 5:-0.0204435 6:0.199999 7:-0.294088 8:-0.878378 9:0.341353 
1 1:-0.0990255 2:-0.0620543 3:0.0241942 4:0.468108 5:0.0659099 6:0.199999 7:-0.434022 8:-0.783784 9:0.0885685 
1 1:0.015171 2:-0.033833 3:0.0618665 4:0.545377 5:-0.00991901 6:0.199999 7:-0.156554 8:0.648649 9:0.241041 
1 1:0.311648 2:-0.0222422 3:0.0743904 4:0.540736 5:0.0354709 6:0.199999 7:0.36638 8:-0.959459 9:0.134183 
1 1:-0.178019 2:-0.0171271 3:0.0273929 4:0.53728 5:0.0897785 6:0.134544 7:-0.295368 8:-0.689189 9:0.944516 
-1 1:-0.084221 2:-0.0163645 3:0.0298621 4:0.535541 5:-0.0605673 6:0.199999 7:-0.158381 8:-1 9:0.139886 
-1 1:-0.188065 2:-0.0829247 3:-0.39562 4:-0.265621 5:0.168223 6:0.199999 7:-0.715419 8:-0.986486 9:0.0997633 
-1 1:0.0586289 2:-0.0976677 3:0.162237 4:0.507338 5:0.109491 6:0.199999 7:-0.169236 8:-0.391892 9:-0.195829 
-1 1:0.174071 2:-0.091343 3:0.361284 4:0.546096 5:0.0299394 6:-0.100001 7:-0.221294 8:-1 9:-0.0347232 
-1 1:-0.0410281 2:-0.0226424 3:0.00713973 4:0.453954 5:-0.0640939 6:0.16923 7:-0.120299 8:-0.905405 9:0.354657 
-1 1:-0.201062 2:0.0386279 3:0.0480703 4:0.571912 5:-0.112971 6:-0.0400008 7:-0.326132 8:-0.648649 9:0.230052 
-1 1:-0.184443 2:-0.102144 3:-0.00397151 4:0.478679 5:0.00177974 6:0.181817 7:-0.469016 8:-0.972973 9:0.0408285 
-1 1:0.0693953 2:-0.10203 3:0.034744 4:0.348049 5:0.0500735 6:0.199999 7:-0.501534 8:-0.959459 9:0.282888 
-1 1:-0.122867 2:-0.00701021 3:0.278975 4:0.592118 5:0.115122 6:-0.0400008 7:-0.463651 8:-0.945946 9:-0.691741 
-1 1:-0.0511639 2:-0.0634444 3:0.0355478 4:0.529736 5:0.0299394 6:0.199999 7:-0.280421 8:-1 9:0.619946 
-1 1:0.059014 2:-0.105694 3:0.077931 4:0.509946 5:0.1504 6:0.199999 7:-0.165141 8:-1 9:0.0524704 
-1 1:0.0154095 2:0.0161406 3:0.0463708 4:0.546198 5:0.00235514 6:0.199999 7:0.235257 8:-0.513514 9:0.355342 
-1 1:-0.104449 2:-0.087553 3:0.0128855 4:0.509785 5:0.156762 6:0.199999 7:-0.504634 8:-0.878378 9:0.0266346 
-1 1:0.165336 2:-0.0407986 3:0.0240709 4:0.535613 5:-0.0185055 6:0.153845 7:0.299388 8:-0.972973 9:0.324956 
-1 1:-0.107497 2:-0.104107 3:-0.0450972 4:0.311055 5:0.0475393 6:0.199999 7:-0.420566 8:-1 9:-0.00317112 
-1 1:0.141604 2:0.0204955 3:0.106665 4:0.526173 5:-0.00207357 6:0.199999 7:0.301199 8:-0.77027 9:0.231174 
-1 1:-0.270095 2:-0.0505004 3:-0.042834 4:0.472804 5:-0.0743056 6:0.199999 7:-0.515125 8:-1 9:-0.00863154 
-1 1:-0.176267 2:-0.125704 3:-0.0146028 4:0.469796 5:0.0467036 6:0.199999 7:-0.140041 8:-0.986486 9:-0.0450277 
-1 1:-0.00709313 2:-0.0942734 3:0.122425 4:0.624984 5:0.146098 6:-0.100001 7:-0.502807 8:-0.837838 9:-0.0829868 
-1 1:-0.322922 2:-0.112328 3:-0.54772 4:-0.687123 5:0.173133 6:0.145454 7:-0.583289 8:-0.972973 9:-0.0128814 
-1 1:-0.143591 2:-0.0189692 3:0.0850608 4:0.536553 5:-0.01406 6:0.199999 7:-0.336923 8:-1 9:0.307338 
-1 1:-0.258613 2:-0.0669063 3:0.0565678 4:0.358325 5:-0.0765392 6:0.0285705 7:-0.610583 8:-0.918919 9:0.0809307 
-1 1:0.00231845 2:0.137053 3:0.145135 4:0.462306 5:0.11822 6:0.199999 7:-0.281018 8:-1 9:0.258498 
-1 1:0.168116 2:-0.0782375 3:0.288542 4:0.492807 5:0.146098 6:0.199999 7:-0.339273 8:-1 9:0.139376 
-1 1:-0.0397068 2:-0.0321359 3:-0.001773 4:0.364987 5:0.057043 6:0.199999 7:-0.321169 8:-0.972973 9:-0.0126619 
-1 1:-0.0671237 2:-0.0867704 3:0.00418288 4:0.37483 5:-0.0210998 6:0.181817 7:-0.216456 8:-0.972973 9:0.22439 
-1 1:-0.29344 2:-0.0549137 3:-0.0418707 4:0.499034 5:-0.00808854 6:0.199999 7:-0.800632 8:-0.959459 9:0.051981 
-1 1:-0.0202072 2:-0.0606796 3:0.0502943 4:0.449586 5:-0.0798043 6:0.199999 7:0.121008 8:-0.878378 9:0.31336 
-1 1:-0.149228 2:-0.0858175 3:0.0492957 4:0.48085 5:-0.0385643 6:0.199999 7:-0.268018 8:-0.824324 9:-0.0363063 
-1 1:-0.101099 2:-0.0334783 3:0.077363 4:0.524428 5:0.0475393 6:0.199999 7:-0.434903 8:-1 9:0.335267 
-1 1:-0.139576 2:-0.0322798 3:-0.10013 4:0.349109 5:0.227839 6:0.199999 7:-0.606042 8:-0.918919 9:0.356002 
-1 1:-0.244185 2:-0.0926031 3:0.291322 4:0.626396 5:0.251194 6:0.485713 7:-0.779892 8:-0.932432 9:-0.129534 
-1 1:0.0480091 2:-0.004457 3:0.141981 4:0.53184 5:0.0150475 6:0.199999 7:-0.120358 8:-0.891892 9:0.0648254 
-1 1:-0.331112 2:-0.119568 3:-0.105705 4:0.32493 5:0.0541392 6:0.199999 7:-0.635322 8:-0.972973 9:0.793525 
-1 1:0.0749808 2:-0.037157 3:0.208329 4:0.527712 5:-0.0366095 6:0.199999 7:0.0551055 8:-1 9:0.530855 
-1 1:-0.00180618 2:0.0204955 3:0.221369 4:0.554677 5:0.223537 6:0.199999 7:-0.726414 8:-1 9:0.11014 
-1 1:-0.198501 2:-0.0253168 3:0.286397 4:0.556506 5:0.0752964 6:0.0399993 7:-0.783791 8:-1 9:0.226008 
-1 1:-0.00769371 2:-0.0996446 3:0.0738856 4:0.46317 5:0.0775941 6:0.16923 7:-0.0426423 8:-1 9:0.155882 
-1 1:-0.1429 2:-0.0216827 3:0.121958 4:0.418341 5:-0.163658 6:0.199999 7:-0.587644 8:-0.851351 9:0.0927862 
-1 1:0.00995829 2:0.00690421 3:0.0829308 4:0.526694 5:-0.0857345 6:0.0914279 7:0.0906228 8:-0.581081 9:0.281248 
-1 1:-0.24507 2:-0.0162354 3:-0.246014 4:0.264198 5:0.115122 6:0.199999 7:-0.587766 8:-0.810811 9:0.7757 
-1 1:-0.206504 2:-0.10403 3:0.0134679 4:0.534448 5:-0.115435 6:0.156363 7:-0.203447 8:-1 9:0.0401679 
-1 1:-0.0566646 2:0.0942865 3:0.0822251 4:0.577571 5:0.0852533 6:0.199999 7:-0.629811 8:-0.986486 9:-0.17863 
-1 1:-0.0659949 2:0.172768 3:0.153832 4:0.510236 5:0.0354709 6:0.199999 7:-0.843778 8:-1 9:0.0684066 
-1 1:-0.0357129 2:0.0652421 3:0.117459 4:0.571205 5:-0.0482034 6:0.146666 7:-0.179668 8:-1 9:-0.130239 
-1 1:0.191529 2:-0.143442 3:0.0621547 4:0.498804 5:0.0809791 6:0.199999 7:0.310594 8:-0.797297 9:0.0424338 
-1 1:0.295384 2:0.0204955 3:0.126937 4:0.554677 5:0.0176005 6:0.184614 7:0.130923 8:-0.932432 9:0.273097 
-1 1:-0.214293 2:-0.013564 3:0.148667 4:0.568918 5:0.0221954 6:0.199999 7:-0.799992 8:-0.972973 9:0.519493 
-1 1:-0.0988931 2:0.160098 3:0.0532321 4:0.519165 5:0.184818 6:0.199999 7:-0.787696 8:-0.702703 9:-0.27468 
-1 1:0.200562 2:0.0012217 3:0.0925958 4:0.547895 5:0.132018 6:0.199999 7:0.0366001 8:-0.918919 9:0.402703 
-1 1:-0.390453 2:-0.0614035 3:0.0751914 4:0.554677 5:0.050355 6:0.199999 7:-0.917028 8:-0.702703 9:-0.0342337 
-1 1:-0.0874748 2:-0.00537742 3:0.0520598 4:0.541757 5:0.00529962 6:0.199999 7:-0.311397 8:-0.878378 9:0.137152 
-1 1:0.175549 2:-0.0529029 3:0.0927354 4:0.518623 5:0.068909 6:0.199999 7:-0.244378 8:-0.986486 9:0.0429595 
-1 1:-0.0112125 2:-0.0471989 3:0.145737 4:0.521118 5:0.184818 6:0.199999 7:-0.555242 8:-0.972973 9:0.223732 
-1 1:0.102553 2:0.0042209 3:0.125636 4:0.570807 5:-0.0358835 6:0.199999 7:0.305119 8:-0.905405 9:0.282332 
-1 1:-0.0568006 2:-0.134231 3:0.0504598 4:0.493088 5:-0.0176301 6:0.199999 7:-0.15047 8:-0.986486 9:0.343015 
-1 1:0.113579 2:0.0340977 3:0.0833408 4:0.554677 5:0.232142 6:0.199999 7:-0.281486 8:-1 9:-0.124096 
-1 1:-0.352039 2:-0.0880832 3:-0.268179 4:0.214757 5:0.202418 6:0.146666 7:-0.783528 8:-1 9:0.0867537 
-1 1:0.0623914 2:-0.0714527 3:0.0529842 4:0.307343 5:0.455854 6:0.733331 7:-0.19631 8:-0.959459 9:0.0529176 
-0.7321802306014892 1:0.070275 2:-0.0263949 3:0.0943613 4:0.545436 5:-0.0578096 6:-9.59999e-007 7:-0.0592809 8:0.972973 9:0.484628 
-1 1:-0.135232 2:-0.0832678 3:0.0871363 4:0.505608 5:0.0897785 6:0.199999 7:-0.303113 8:-0.986486 9:0.0041927 
-1 1:-0.0675406 2:-0.063347 3:0.220758 4:0.561061 5:0.101847 6:-0.2 7:-0.610504 8:-1 9:0.127889 
-1 1:-0.233817 2:0.00487836 3:0.124446 4:0.541418 5:-0.0226086 6:-0.2 7:-0.856423 8:-0.945946 9:0.0394146 
-1 1:-0.136525 2:-0.057437 3:-0.306637 4:0.222657 5:0.173202 6:0.166666 7:-0.517683 8:-0.797297 9:0.153616 
-1 1:0.11298 2:-0.0984952 3:0.149095 4:0.516468 5:0.0329179 6:0.199999 7:-0.00512654 8:-0.986486 9:0.115387 
-1 1:-0.0239361 2:-0.0355973 3:-0.0351894 4:0.443319 5:-0.0890637 6:0.199999 7:0.345677 8:0.0540541 9:0.0121124 
-1 1:0.0790401 2:0.0204955 3:0.0291919 4:0.546885 5:-0.0309056 6:0.199999 7:0.326128 8:-0.837838 9:0.202909 
-1 1:-0.0146111 2:0.0535568 3:0.0575663 4:0.565626 5:0.0841466 6:0.199999 7:-0.426509 8:-0.905405 9:-0.186455 
-1 1:0.239296 2:0.064171 3:0.218256 4:0.571967 5:0.334164 6:0.199999 7:-0.483472 8:0.594595 9:0.831051 
-1 1:0.0418955 2:-0.100285 3:0.0124285 4:0.531396 5:0.132018 6:0.199999 7:-0.000438229 8:-0.72973 9:0.675555 
-1 1:-0.213519 2:-0.0165531 3:0.127834 4:0.534681 5:0.0354709 6:0.199999 7:-0.577214 8:-1 9:0.368917 
-1 1:-0.0756026 2:-0.13352 3:0.0635728 4:0.537178 5:0.195377 6:0.134544 7:-0.288225 8:-0.972973 9:0.00784642 
-1 1:-0.23422 2:-0.0379657 3:0.35991 4:0.782424 5:0.135035 6:0.42857 7:-0.721652 8:-1 9:-0.0773068 
-1 1:-0.164606 2:0.0128188 3:0.0947094 4:0.551047 5:-0.0253741 6:0.157142 7:-0.714075 8:-1 9:0.0294504 
-1 1:-0.139155 2:0.0204955 3:0.00791163 4:0.523358 5:-0.0467404 6:0.199999 7:0.162502 8:-0.932432 9:0.0858191 
-1 1:-0.181115 2:-0.0897316 3:0.0154426 4:0.514619 5:-0.106059 6:-0.0400008 7:-0.242945 8:-0.972973 9:0.35259 
