svm_type c_svc
kernel_type rbf
gamma 0.25
nr_class 2
total_sv 1942
rho 0.182673
label 1 -1
probA -1.59182
probB 0.117264
nr_sv 971 971
SV
1 1:0.0727439 2:0.0505811 3:-0.12701 4:-0.382444 
1 1:-0.0405171 2:0.00402161 3:-0.642986 4:-0.645739 
1 1:0.147618 2:0.0847939 3:0.000690953 4:-0.405835 
1 1:-0.199502 2:-0.0213155 3:-0.369023 4:-0.617322 
1 1:-0.0243777 2:0.0855112 3:-0.440136 4:-0.591335 
1 1:-0.124681 2:-0.180683 3:-0.129635 4:-0.350133 
1 1:0.0213195 2:0.0776263 3:-0.257935 4:-0.417534 
1 1:-0.0134134 2:0.0786651 3:-0.451326 4:-0.427391 
1 1:0.0333536 2:-0.0305876 3:-0.317058 4:-0.471572 
1 1:0.175578 2:-0.00423048 3:-0.169974 4:-0.619245 
1 1:0.156923 2:0.0520453 3:-0.501501 4:-0.868924 
1 1:-0.047026 2:-0.142781 3:0.207401 4:-0.419316 
1 1:0.110556 2:0.0535338 3:0.156857 4:0.0838427 
1 1:0.1904 2:0.0487154 3:-0.0377686 4:-0.168218 
1 1:0.0840501 2:0.0819641 3:-0.270471 4:-0.398452 
1 1:0.322147 2:0.00784824 3:0.286955 4:0.169227 
1 1:0.444737 2:0.0520453 3:0.189563 4:-0.541215 
1 1:0.211244 2:0.0520453 3:0.275082 4:0.265079 
1 1:-0.123017 2:0.0585045 3:-0.489303 4:-0.647421 
1 1:-0.263353 2:-0.0771794 3:-0.603819 4:-0.704464 
1 1:-0.0162583 2:0.0734069 3:-0.36331 4:-0.609704 
1 1:-0.0616705 2:0.0954971 3:-0.580534 4:-0.714663 
1 1:-0.0426829 2:-0.0607577 3:-0.356414 4:-0.577166 
1 1:0.225135 2:0.0852025 3:0.191271 4:-0.274168 
1 1:0.0277795 2:0.0187831 3:-0.34589 4:-0.224229 
1 1:0.0728725 2:0.0820879 3:-0.232819 4:-0.485453 
1 1:-0.0848839 2:0.0860083 3:-0.737691 4:-0.801644 
1 1:0.129319 2:0.0928917 3:0.116311 4:-0.262521 
1 1:-0.000340343 2:0.0467674 3:-0.416479 4:-0.460905 
1 1:0.151223 2:-0.0192811 3:-0.081813 4:-0.260545 
1 1:-0.0135388 2:0.103121 3:-0.605026 4:-0.669549 
1 1:0.0865205 2:0.0145463 3:-0.168687 4:-0.266649 
1 1:-0.119601 2:0.00849396 3:-0.609376 4:-0.798226 
1 1:-0.0537107 2:0.0520453 3:-0.644866 4:-0.820174 
1 1:-0.0225522 2:0.113333 3:-0.713958 4:-0.915536 
1 1:0.152861 2:-0.00375017 3:-0.0231664 4:-0.107615 
1 1:0.0764583 2:0.0520453 3:-0.651972 4:-0.62153 
1 1:-0.00760317 2:0.096382 3:-0.719118 4:-0.826719 
1 1:0.00737356 2:-0.0374137 3:-0.457994 4:-0.654614 
1 1:-0.052859 2:0.0112257 3:-0.516524 4:-0.670202 
1 1:0.0823517 2:0.0668676 3:-0.566884 4:-0.756173 
1 1:0.0384897 2:-0.0403127 3:0.0627388 4:0.13696 
1 1:0.000332201 2:0.0201004 3:-0.244209 4:-0.431 
1 1:0.287875 2:0.0070217 3:-0.0427222 4:-0.142946 
1 1:-0.0749667 2:0.0361284 3:-0.704771 4:-0.756785 
1 1:0.076701 2:-0.00566273 3:-0.588962 4:-0.685342 
1 1:-0.0964995 2:-0.0361984 3:-0.655149 4:-0.673246 
1 1:0.0987549 2:-0.0122065 3:-0.0989402 4:-0.498172 
1 1:-0.150466 2:-0.0953224 3:-0.782746 4:-0.931005 
1 1:-0.00332364 2:0.00874004 3:-0.221628 4:-0.498021 
1 1:0.370183 2:0.0757063 3:0.250393 4:-0.233507 
1 1:0.340239 2:0.0236319 3:0.241824 4:0.252291 
1 1:-0.0433164 2:0.0850078 3:-0.737201 4:-0.836161 
1 1:-0.053232 2:-0.179776 3:-0.452372 4:-0.682773 
1 1:0.272338 2:0.0683792 3:-0.0262055 4:-0.290757 
1 1:-0.166419 2:0.048522 3:-0.827924 4:-0.833075 
1 1:-0.0115684 2:0.0137619 3:-0.349294 4:-0.552658 
1 1:0.28047 2:0.013334 3:-0.127648 4:-0.0488481 
1 1:0.0609328 2:-0.0134687 3:-0.553355 4:-0.677904 
1 1:0.110563 2:0.0818261 3:-0.101952 4:-0.00415964 
1 1:0.168701 2:0.0677957 3:0.285582 4:0.175014 
1 1:0.204248 2:0.0388812 3:-0.321104 4:-0.619 
1 1:-0.266039 2:-0.0484279 3:-0.75774 4:-0.73915 
1 1:0.120416 2:-0.0685802 3:-0.357708 4:-0.400603 
1 1:-0.00493742 2:0.0983002 3:-0.332412 4:-0.539 
1 1:-0.152334 2:0.0210037 3:-0.820135 4:-0.843336 
1 1:-0.0322707 2:0.0520453 3:-0.614578 4:-0.744043 
1 1:0.265718 2:0.030989 3:-0.0442607 4:-0.363541 
1 1:0.0975205 2:0.0431632 3:0.475572 4:0.165535 
1 1:0.150989 2:0.0520453 3:0.294258 4:0.268265 
1 1:0.066507 2:0.0200489 3:-0.416603 4:-0.567767 
1 1:0.164119 2:0.0265183 3:-0.0197168 4:-0.356299 
1 1:-0.12174 2:0.01619 3:-0.576909 4:-0.72216 
1 1:0.00240194 2:-0.00510469 3:-0.275397 4:-0.420417 
1 1:0.0226516 2:0.103311 3:-0.646939 4:-0.752524 
1 1:-0.111094 2:0.026565 3:-0.652227 4:-0.704674 
1 1:-0.0350114 2:0.0520453 3:-0.0831893 4:-0.561945 
1 1:0.154363 2:0.0904062 3:-0.00642211 4:0.0748397 
1 1:-0.214998 2:0.041137 3:-0.663542 4:-0.927133 
1 1:-0.149594 2:-0.154427 3:-0.218624 4:-0.668293 
1 1:-0.0442316 2:0.101447 3:-0.662034 4:-0.672797 
1 1:0.0673326 2:0.00800932 3:-0.450719 4:-0.647058 
1 1:-0.0751751 2:-0.0335525 3:-0.401366 4:-0.593948 
1 1:0.0405367 2:0.0446931 3:-0.0472411 4:-0.195104 
1 1:-0.00652677 2:-0.0240481 3:-0.0052044 4:-0.545817 
1 1:0.102665 2:0.0265712 3:-0.329107 4:-0.419942 
1 1:-0.301726 2:-0.0468668 3:-0.676023 4:-0.85363 
1 1:-0.122597 2:0.0337751 3:-0.932795 4:-0.918185 
1 1:0.266933 2:0.0695286 3:0.402627 4:0.521437 
1 1:0.11778 2:0.0170855 3:-0.231098 4:-0.371223 
1 1:0.06716 2:0.0946936 3:-0.305409 4:-0.571409 
1 1:-0.262277 2:0.0112424 3:-0.704106 4:-0.751522 
1 1:0.111536 2:0.0625036 3:-0.171954 4:-0.44863 
1 1:0.293213 2:0.025824 3:0.161435 4:-0.198803 
1 1:-0.0934055 2:0.0621935 3:-0.716659 4:-0.669796 
1 1:0.0744065 2:-0.0383636 3:-0.520135 4:-0.60214 
1 1:0.138528 2:-0.128252 3:-0.315844 4:-0.480738 
1 1:0.512633 2:0.0715817 3:0.570374 4:0.574585 
1 1:-0.155228 2:0.0606115 3:-0.864334 4:-0.94333 
1 1:0.0595421 2:0.0520453 3:0.22616 4:-0.140899 
1 1:0.255042 2:0.0356668 3:-0.133829 4:-0.262518 
1 1:0.0646457 2:0.0661893 3:-0.683843 4:-0.822355 
1 1:0.146931 2:0.0524361 3:-0.331301 4:-0.540702 
1 1:0.0623414 2:0.0211407 3:-0.325461 4:-0.389501 
1 1:0.167582 2:0.0474975 3:-0.14513 4:-0.156588 
1 1:0.175677 2:0.0727337 3:-0.252506 4:-0.456143 
1 1:-0.0996343 2:-0.0125802 3:-0.794037 4:-0.834677 
1 1:0.155931 2:0.0521014 3:-0.00118562 4:-0.267803 
1 1:-0.0647075 2:-0.0357565 3:-0.238014 4:-0.442209 
1 1:0.100763 2:-0.0667618 3:-0.446866 4:-0.626629 
1 1:0.25849 2:0.0230233 3:-0.0561928 4:-0.47829 
1 1:-0.00743056 2:-0.0680801 3:-0.0255535 4:-0.228875 
1 1:-0.0195705 2:-0.00192466 3:-0.433564 4:-0.558376 
1 1:-0.000454334 2:-0.282523 3:-0.405254 4:-0.528463 
1 1:0.22988 2:0.102339 3:0.250086 4:0.0627773 
1 1:-0.125707 2:0.115527 3:-0.811595 4:-0.758177 
1 1:0.113567 2:0.0286721 3:0.289115 4:0.087209 
1 1:0.132136 2:0.008614 3:-0.18518 4:-0.527894 
1 1:0.0965174 2:-0.000919575 3:-0.13257 4:-0.104922 
1 1:0.0109203 2:0.0896007 3:-0.582356 4:-0.617528 
1 1:-0.111647 2:0.0388209 3:-0.565984 4:-0.644883 
1 1:0.0195543 2:0.0677669 3:-0.403701 4:-0.284812 
1 1:0.0652075 2:0.0246329 3:-0.589762 4:-0.547545 
1 1:0.163759 2:-0.00369882 3:0.0663712 4:-0.324402 
1 1:0.0980807 2:0.0235456 3:-0.192052 4:-0.0540753 
1 1:-0.0360243 2:0.0441043 3:-0.596523 4:-0.486235 
1 1:-0.0306439 2:0.0672406 3:-0.796086 4:-0.805566 
1 1:0.0168869 2:0.0971822 3:-0.374749 4:-0.525499 
1 1:0.09804 2:-0.0689916 3:0.165178 4:-0.0629932 
1 1:-0.0966493 2:0.11589 3:-0.794092 4:-0.818733 
1 1:0.260799 2:0.0836928 3:0.176058 4:-0.0577228 
1 1:0.178905 2:0.0252372 3:0.296907 4:-0.214746 
1 1:-0.0244396 2:0.0782086 3:-0.608183 4:-0.758653 
1 1:0.0743723 2:0.000632972 3:-0.102021 4:0.129896 
1 1:0.0934527 2:-0.0711991 3:-0.0889433 4:-0.276614 
1 1:0.19827 2:0.101749 3:0.454526 4:-0.156156 
1 1:-0.0712311 2:0.113921 3:-0.680931 4:-0.841687 
1 1:-0.301557 2:-0.0543165 3:-0.753873 4:-0.769912 
1 1:-0.00251593 2:0.0695288 3:-0.159791 4:-0.509431 
1 1:-0.241693 2:-0.00367817 3:-0.884848 4:-1 
1 1:0.00969897 2:0.0649845 3:-0.390255 4:-0.533434 
1 1:0.0991115 2:0.0520453 3:-0.308327 4:-0.0790717 
1 1:-0.140185 2:0.0827802 3:-0.584174 4:-0.939646 
1 1:-0.0480763 2:-0.410232 3:-0.0289479 4:-0.403938 
1 1:-0.17634 2:-0.0130251 3:-0.645825 4:-0.920217 
1 1:0.252509 2:0.0723392 3:-0.0177782 4:0.00965877 
1 1:-0.0893393 2:-0.0191766 3:-0.524758 4:-0.726023 
1 1:0.235348 2:0.0536908 3:-0.29537 4:-0.374056 
1 1:0.0426585 2:0.0971969 3:-0.408551 4:-0.629263 
1 1:0.0576694 2:0.0826798 3:-0.604937 4:-0.8072 
1 1:-0.021186 2:0.0957932 3:-0.554462 4:-0.778811 
1 1:0.075579 2:0.0570055 3:-0.435858 4:-0.752867 
1 1:0.136455 2:0.0520453 3:-0.298165 4:-0.489608 
1 1:-0.136779 2:0.0240164 3:-0.520815 4:-0.645728 
1 1:-0.200953 2:0.0611336 3:-0.799771 4:-1 
1 1:-0.00130112 2:-0.018622 3:-0.429646 4:-0.47022 
1 1:-0.0483874 2:-0.0750682 3:-0.236444 4:-0.271496 
1 1:-0.0850483 2:0.0277142 3:-0.629995 4:-0.821587 
1 1:-0.152489 2:-0.0564608 3:-0.652555 4:-0.64738 
1 1:-0.0543442 2:0.0648282 3:-0.762828 4:-0.782661 
1 1:0.0600828 2:-0.152682 3:0.0144997 4:0.0833924 
1 1:0.0283136 2:-0.0892883 3:-0.526379 4:-0.872186 
1 1:0.139207 2:0.0238924 3:0.432704 4:0.558075 
1 1:0.13077 2:-0.0672132 3:-0.329097 4:-0.246206 
1 1:-0.0199418 2:0.0149103 3:-0.429559 4:-0.487684 
1 1:-0.103197 2:-4.33281e-006 3:-0.600052 4:-0.718186 
1 1:0.288417 2:0.105317 3:0.416563 4:0.0800086 
1 1:-0.0185121 2:-0.00905009 3:-0.481717 4:-0.580181 
1 1:-0.0131268 2:0.10902 3:-0.593501 4:-0.727467 
1 1:0.0850435 2:0.0520453 3:-0.515965 4:-0.615709 
1 1:0.209386 2:0.0166311 3:0.587204 4:0.536559 
1 1:0.238268 2:-0.000117368 3:-0.114446 4:-0.128525 
1 1:0.00349462 2:0.0520453 3:-0.312456 4:-0.692083 
1 1:-0.0806532 2:-0.0271775 3:-0.219869 4:-0.587738 
1 1:0.0772693 2:0.022362 3:-0.299337 4:-0.414195 
1 1:0.0229072 2:0.0641706 3:-0.346386 4:-0.609103 
1 1:0.0707051 2:0.0520453 3:-0.42128 4:-0.620249 
1 1:0.0116156 2:0.0717118 3:-0.458015 4:-0.603684 
1 1:0.200542 2:0.0581731 3:0.294876 4:0.46123 
1 1:-0.131615 2:0.0520453 3:-0.634652 4:-0.706456 
1 1:0.21666 2:-0.0404482 3:-0.266225 4:-0.564918 
1 1:-0.168255 2:-0.000372239 3:-0.494998 4:-0.58182 
1 1:0.255738 2:0.027474 3:-0.241626 4:-0.311742 
1 1:-0.0796143 2:-0.189547 3:-0.585533 4:-0.550542 
1 1:0.39342 2:0.0507753 3:0.115166 4:-0.0503614 
1 1:-0.147449 2:0.137041 3:-0.796265 4:-0.782319 
1 1:-0.00280905 2:-0.0682364 3:-0.328224 4:-0.292635 
1 1:0.0780054 2:0.0502808 3:-0.521733 4:-0.546759 
1 1:0.216647 2:0.0184485 3:-0.344524 4:-0.447985 
1 1:0.137587 2:0.0347769 3:-0.320942 4:-0.553357 
1 1:0.0322365 2:0.0940581 3:-0.841625 4:-0.821786 
1 1:-0.159001 2:-0.0736243 3:-0.715241 4:-0.687513 
1 1:-0.0594933 2:0.0654045 3:-0.50069 4:-0.605093 
1 1:-0.118102 2:-0.0530664 3:-0.459116 4:-0.418025 
1 1:0.304511 2:0.0334085 3:-0.247714 4:-0.389107 
1 1:0.263232 2:0.032814 3:0.48006 4:0.422877 
1 1:0.0290562 2:0.0497281 3:-0.356628 4:-0.427546 
1 1:-0.109346 2:0.0586643 3:-0.392583 4:-0.595634 
1 1:0.134379 2:-0.0804481 3:-0.14137 4:-0.542732 
1 1:-0.0614914 2:-0.0115133 3:-0.522064 4:-0.559216 
1 1:0.3323 2:0.0520453 3:0.0919465 4:0.0827471 
1 1:0.146694 2:0.113542 3:0.261918 4:0.0182896 
1 1:-0.0210296 2:-0.0513513 3:-0.62967 4:-0.620736 
1 1:0.191805 2:-0.00363803 3:0.0206848 4:-0.299088 
1 1:0.0372261 2:0.0520453 3:-0.33464 4:-0.74155 
1 1:0.253709 2:-0.0376173 3:0.171611 4:0.110943 
1 1:-0.15898 2:-0.152653 3:-0.543055 4:-0.658385 
1 1:0.0670036 2:-0.0481007 3:-0.101914 4:-0.39325 
1 1:0.13608 2:0.0409107 3:-0.272824 4:-0.286832 
1 1:0.0620744 2:0.0570047 3:-0.268488 4:-0.35207 
1 1:0.17905 2:0.0520453 3:-0.214067 4:-0.3283 
1 1:0.194994 2:0.0811049 3:0.199146 4:-0.19362 
1 1:0.208179 2:0.0334722 3:-0.432895 4:-0.676969 
1 1:0.238331 2:0.0577751 3:0.12776 4:0.0982387 
1 1:0.426763 2:0.0704014 3:0.215842 4:0.215012 
1 1:0.168458 2:0.0627217 3:0.181429 4:0.183485 
1 1:-0.0275873 2:-0.0315277 3:-0.257449 4:-0.260885 
1 1:-0.215697 2:0.0474067 3:-0.854781 4:-0.85234 
1 1:0.011158 2:0.0516441 3:-0.215202 4:-0.35112 
1 1:0.124779 2:0.0685615 3:-0.333554 4:-0.713881 
1 1:0.00841413 2:-0.0323569 3:-0.387875 4:-0.719862 
1 1:-0.186978 2:-0.0233566 3:-0.574539 4:-0.604377 
1 1:0.113147 2:0.0496044 3:-0.106992 4:-0.365663 
1 1:-0.113684 2:-0.25467 3:-0.0407456 4:-0.296893 
1 1:-0.0127018 2:0.041613 3:-0.327917 4:-0.614984 
1 1:0.116935 2:0.0441118 3:0.00743491 4:-0.288065 
1 1:0.118324 2:0.0217896 3:-0.0822786 4:-0.237364 
1 1:0.332048 2:0.076975 3:0.437747 4:0.353511 
1 1:0.0660266 2:-0.0134513 3:-0.520836 4:-0.680939 
1 1:0.400182 2:0.0312183 3:0.00172928 4:0.065972 
1 1:0.0181115 2:0.112618 3:-0.591087 4:-0.892298 
1 1:0.148403 2:0.00086465 3:-0.213239 4:-0.474042 
1 1:-0.210116 2:0.0520453 3:-0.53789 4:-0.78654 
1 1:0.0323684 2:0.0520486 3:-0.455669 4:-0.622215 
1 1:-0.292314 2:-0.179188 3:-0.609332 4:-0.914915 
1 1:0.128305 2:-0.0843222 3:-0.0108065 4:-0.113925 
1 1:0.0612406 2:0.0520453 3:-0.420904 4:-0.56419 
1 1:-0.0310461 2:0.0830316 3:-0.709215 4:-0.780874 
1 1:0.0525203 2:0.0520453 3:-0.347069 4:-0.519982 
1 1:0.0751409 2:-0.0128501 3:-0.0271887 4:-0.240992 
1 1:0.0591774 2:-0.0565411 3:-0.288858 4:-0.541884 
1 1:0.0820357 2:0.0520453 3:-0.664801 4:-0.807856 
1 1:-0.119145 2:0.0156467 3:-0.618228 4:-0.516366 
1 1:0.0320053 2:0.0997685 3:-0.395667 4:-0.481991 
1 1:0.0945926 2:0.0200643 3:-0.00613234 4:-0.197472 
1 1:-0.0883638 2:0.0436177 3:-0.25225 4:-0.383048 
1 1:-0.120226 2:0.0908901 3:-0.554511 4:-0.793353 
1 1:0.12722 2:0.0478856 3:-0.780231 4:-0.764693 
1 1:-0.0193214 2:0.073521 3:-0.650247 4:-0.696462 
1 1:0.0440411 2:0.0078708 3:-0.333902 4:-0.518051 
1 1:-0.0630742 2:0.0127726 3:-0.464086 4:-0.560982 
1 1:0.160463 2:0.0520453 3:-0.520787 4:-0.66804 
1 1:-0.0865563 2:-0.0664428 3:-0.312601 4:-0.431311 
1 1:0.162262 2:0.0465676 3:-0.194235 4:-0.262078 
1 1:-0.079909 2:0.026588 3:-0.630943 4:-0.691153 
1 1:0.167998 2:0.0545326 3:-0.492056 4:-0.605542 
1 1:0.277297 2:0.00823195 3:-0.0526708 4:-0.135991 
0.8118273779785877 1:0.00520285 2:0.104678 3:-0.762307 4:-0.720654 
1 1:-0.151808 2:0.0830366 3:-0.645607 4:-0.648022 
1 1:-0.109025 2:-0.000476736 3:-0.715003 4:-0.860816 
1 1:0.0879242 2:0.0386811 3:-0.570313 4:-0.787939 
1 1:0.120994 2:0.0603571 3:-0.579399 4:-0.762625 
1 1:-0.140274 2:0.0392236 3:-0.82647 4:-0.792718 
1 1:0.23399 2:0.0796211 3:0.0821324 4:-0.420124 
1 1:0.148878 2:4.16714e-005 3:-0.0664554 4:-0.0560822 
1 1:0.116122 2:0.0652331 3:-0.37815 4:-0.54433 
1 1:-0.053644 2:0.111046 3:-0.794095 4:-0.747033 
1 1:0.0511492 2:0.0343867 3:-0.508714 4:-0.566286 
1 1:-0.0712848 2:0.0354285 3:-0.143933 4:-0.38795 
1 1:0.026664 2:0.0736175 3:-0.536852 4:-0.704769 
1 1:0.218596 2:0.0347552 3:-0.0762591 4:-0.0305608 
1 1:-0.0141967 2:0.0913689 3:-0.420546 4:-0.632711 
1 1:0.231985 2:0.0301144 3:-0.106688 4:-0.502845 
1 1:0.0595014 2:0.0352283 3:-0.400476 4:-0.652035 
1 1:0.138 2:0.0960686 3:-0.104908 4:-0.0171275 
1 1:0.0636507 2:0.0237862 3:-0.312929 4:-0.431831 
1 1:0.0561436 2:0.0855922 3:-0.408186 4:-0.514575 
1 1:0.210083 2:-0.0633956 3:-0.011493 4:0.0627377 
1 1:0.160629 2:-0.0139205 3:0.348096 4:0.196192 
1 1:-0.198738 2:0.0397631 3:-0.574256 4:-0.843085 
1 1:-0.0189485 2:0.0790398 3:-0.637508 4:-0.703932 
1 1:0.0860352 2:0.0539729 3:-0.213846 4:-0.336428 
1 1:0.104371 2:0.0105482 3:-0.0868459 4:-0.46581 
1 1:0.239983 2:0.0427285 3:0.0790726 4:-0.128889 
1 1:0.408409 2:0.0520453 3:-0.0542921 4:-0.429875 
1 1:0.0500809 2:0.0379192 3:-0.160871 4:-0.140206 
1 1:-0.0509212 2:0.0702233 3:-0.719032 4:-0.766794 
1 1:0.282421 2:0.0520453 3:0.394579 4:0.664102 
1 1:-0.162057 2:-0.0119373 3:-0.710394 4:-0.829731 
1 1:0.0702361 2:0.0507601 3:-0.179381 4:-0.590557 
1 1:-0.117106 2:-0.0813822 3:-0.75607 4:-0.831385 
1 1:-0.0058184 2:0.0366254 3:-0.335475 4:-0.601504 
1 1:0.262875 2:0.033258 3:0.0755575 4:0.145065 
1 1:0.0208896 2:0.0464101 3:-0.492984 4:-0.721507 
1 1:-0.130972 2:-0.00212983 3:-0.559005 4:-0.631019 
1 1:-0.0446143 2:0.0945438 3:-0.368164 4:-0.429302 
1 1:0.217346 2:0.0653505 3:-0.287091 4:-0.392013 
1 1:0.177382 2:0.0404183 3:-0.0573277 4:-0.195998 
1 1:0.0294763 2:0.0334711 3:-0.254638 4:-0.502465 
1 1:0.0113665 2:0.0850818 3:-0.0286858 4:-0.0225881 
1 1:-0.244277 2:-0.0444215 3:-0.65221 4:-0.914566 
1 1:0.0911713 2:-0.0221951 3:-0.202431 4:-0.171686 
1 1:-0.129373 2:-0.0611613 3:-0.671231 4:-0.890534 
1 1:0.0308247 2:0.100758 3:-0.267656 4:-0.467897 
1 1:-0.0289129 2:0.0520453 3:-0.654652 4:-0.664426 
1 1:0.0158447 2:0.0912869 3:-0.0379583 4:-0.674316 
1 1:0.0341418 2:-0.0810598 3:-0.45904 4:-0.530537 
1 1:0.334891 2:0.051576 3:0.430648 4:0.631991 
1 1:0.446949 2:0.0520453 3:0.368135 4:0.17142 
1 1:0.153579 2:-0.0787239 3:0.18463 4:-0.0787088 
1 1:-0.0275075 2:-0.0515997 3:-0.241429 4:-0.0852406 
1 1:0.0345229 2:0.00867709 3:-0.368333 4:-0.576656 
1 1:0.0551617 2:0.0420974 3:-0.501242 4:-0.601463 
1 1:-0.166866 2:0.0447559 3:-0.716114 4:-0.874807 
1 1:0.0254443 2:-0.0687129 3:-0.0580556 4:-0.0983846 
1 1:-0.226105 2:0.0656668 3:-0.900842 4:-0.855416 
1 1:-0.0125276 2:0.0504628 3:-0.584677 4:-0.6646 
1 1:-0.0429972 2:-0.0886333 3:-0.261109 4:-0.310237 
1 1:0.0335458 2:0.0963632 3:-0.378402 4:-0.332047 
1 1:-0.150162 2:0.0323634 3:-0.674387 4:-0.751849 
1 1:0.332883 2:0.0214767 3:0.336167 4:0.22675 
1 1:-0.0608254 2:0.0584878 3:-0.196464 4:-0.194639 
1 1:0.159095 2:0.0145496 3:-0.293063 4:-0.237522 
1 1:-0.15639 2:-0.0826439 3:-0.651886 4:-0.810346 
1 1:0.0980693 2:-0.034035 3:-0.471375 4:-0.661937 
1 1:0.00401572 2:0.0520453 3:-0.0262883 4:-0.193986 
1 1:-0.0499213 2:0.0520453 3:-0.136589 4:-0.474079 
1 1:0.195554 2:0.0752707 3:-0.588879 4:-0.797259 
1 1:-0.071376 2:0.0520453 3:-0.752062 4:-0.807269 
1 1:-0.0329807 2:0.031572 3:0.168341 4:-0.432499 
1 1:-0.0583371 2:-0.120389 3:-0.54431 4:-0.554546 
1 1:-0.017548 2:-0.067084 3:-0.215181 4:-0.245014 
1 1:-0.0958416 2:-0.0327271 3:-0.657478 4:-0.605875 
1 1:-0.312527 2:-0.218433 3:-0.634983 4:-0.856033 
1 1:0.11978 2:0.079575 3:-0.14424 4:-0.201373 
1 1:0.0701579 2:0.0310601 3:-0.493374 4:-0.605077 
1 1:0.0991457 2:0.0332079 3:-0.60839 4:-0.738155 
1 1:0.0376755 2:0.0704525 3:-0.27717 4:-0.409611 
1 1:0.00123435 2:0.0526048 3:-0.355586 4:-0.406106 
1 1:-0.0462313 2:0.0333757 3:-0.648112 4:-0.800666 
1 1:-0.0512143 2:0.0825297 3:-0.454493 4:-0.923283 
1 1:0.15961 2:0.0794606 3:-0.32937 4:-0.435254 
1 1:-0.188886 2:0.00166571 3:-0.812797 4:-1 
1 1:-0.054082 2:0.0162631 3:-0.502815 4:-0.644649 
1 1:-0.0240781 2:0.106673 3:-0.56913 4:-0.662109 
1 1:0.00932117 2:0.0373687 3:-0.449001 4:-0.742613 
1 1:0.0120341 2:0.0520453 3:-0.464031 4:-0.457038 
1 1:-0.0379035 2:0.0889647 3:-0.348408 4:-0.444938 
1 1:0.0659647 2:0.0529119 3:-0.433188 4:-0.565777 
1 1:-0.0242197 2:0.0993862 3:-0.458602 4:-0.647775 
1 1:0.0936693 2:0.005363 3:-0.444948 4:-0.398132 
1 1:0.0679139 2:0.0520453 3:-0.523523 4:-0.601966 
1 1:0.230069 2:0.0101406 3:-0.51434 4:-0.675456 
1 1:0.0703745 2:0.00800448 3:-0.0112515 4:-0.18199 
1 1:-0.138249 2:0.0653779 3:-0.575212 4:-0.710994 
1 1:-0.035368 2:-0.0302227 3:-0.17944 4:-0.524034 
0.6103033229331036 1:0.0905069 2:0.110227 3:-0.534855 4:-1 
1 1:0.159854 2:0.00632424 3:-0.384056 4:-0.42393 
1 1:0.293682 2:0.0435181 3:0.194755 4:0.341435 
1 1:0.196945 2:-0.0431899 3:-0.284673 4:-0.599173 
1 1:0.157641 2:0.0933684 3:-0.100127 4:-0.350309 
1 1:0.15304 2:0.0186933 3:-0.0384343 4:-0.380022 
1 1:-0.00336272 2:0.0262084 3:-0.621129 4:-0.935917 
1 1:0.0452461 2:-0.029052 3:-0.469116 4:-0.634144 
1 1:0.153803 2:-0.00566234 3:0.311799 4:0.394839 
1 1:-0.186824 2:0.0530137 3:-0.867237 4:-0.893038 
1 1:0.156364 2:0.0577875 3:0.183412 4:-0.238525 
1 1:0.0548441 2:-0.00488957 3:-0.290631 4:-0.515154 
1 1:0.10472 2:0.0180983 3:-0.536776 4:-0.805051 
1 1:0.30628 2:0.046586 3:-0.0623228 4:0.00483755 
1 1:-0.0123973 2:0.0520453 3:-0.719456 4:-0.779893 
1 1:0.13327 2:0.0463076 3:0.28502 4:-0.14636 
1 1:-0.0340995 2:0.0536771 3:-0.555052 4:-0.588387 
1 1:0.0508414 2:0.0149092 3:-0.470379 4:-0.669915 
1 1:-0.018232 2:0.020755 3:-0.681014 4:-0.79323 
1 1:0.303796 2:-0.031534 3:0.455792 4:0.684451 
1 1:0.238654 2:0.0714218 3:0.0794693 4:0.139489 
1 1:-0.0994193 2:0.0174069 3:-0.387888 4:-0.411827 
1 1:-0.0221923 2:0.0725143 3:-0.346859 4:-0.35972 
1 1:0.0977436 2:-0.0956818 3:-0.0270679 4:-0.214681 
1 1:0.525827 2:0.12377 3:0.84807 4:0.784959 
1 1:-0.147832 2:0.00126429 3:-0.662352 4:-0.791508 
1 1:0.102236 2:-0.0209384 3:-0.621002 4:-0.813916 
1 1:-0.0642158 2:0.0257699 3:-0.43738 4:-0.43174 
0.7367033480848477 1:0.387436 2:0.0525965 3:-0.35688 4:-0.359077 
1 1:0.189841 2:0.0304901 3:-0.00419712 4:0.0428997 
1 1:0.0493221 2:0.0762344 3:-0.14108 4:-0.35805 
1 1:0.162342 2:-0.00197907 3:-0.558005 4:-0.793622 
1 1:0.154635 2:-0.151979 3:0.151148 4:0.15412 
1 1:0.0849523 2:0.07823 3:-0.461875 4:-0.527733 
1 1:0.051825 2:0.072494 3:-0.648764 4:-0.698715 
1 1:0.181856 2:0.0520453 3:-0.373893 4:-0.404161 
1 1:0.157892 2:0.0360834 3:-0.379799 4:-0.525677 
1 1:-0.0569464 2:0.116802 3:-0.294066 4:-0.825545 
1 1:0.0289552 2:-0.0951491 3:-0.163555 4:-0.243545 
1 1:-0.123017 2:-0.0390297 3:-0.607641 4:-0.784057 
1 1:-0.0119039 2:0.0449817 3:-0.527535 4:-0.7561 
1 1:0.0703175 2:0.0216254 3:-0.516462 4:-0.629823 
1 1:-0.359147 2:-0.173737 3:-0.859575 4:-1 
1 1:0.161785 2:0.031506 3:-0.168888 4:-0.196423 
1 1:-0.0442902 2:0.0679174 3:-0.364566 4:-0.511317 
1 1:0.137746 2:0.0520453 3:-0.291117 4:-0.393825 
1 1:0.223794 2:0.0618643 3:0.42012 4:0.573885 
1 1:0.000921695 2:0.067 3:-0.537487 4:-0.612055 
1 1:0.0426048 2:-0.00176613 3:-0.555359 4:-0.731752 
1 1:0.102813 2:-0.206147 3:-0.038286 4:-0.49207 
1 1:-0.00423882 2:-0.0485029 3:-0.711898 4:-0.566457 
1 1:0.0966233 2:0.10022 3:-0.127089 4:-0.2494 
1 1:-0.0607016 2:-0.00413541 3:-0.267187 4:-0.1843 
1 1:-0.0873119 2:0.0668692 3:-0.580127 4:-0.576948 
1 1:-0.218384 2:0.0225639 3:-0.9005 4:-0.875749 
1 1:-0.407685 2:-0.136107 3:-0.920895 4:-0.958159 
1 1:0.244428 2:0.0582002 3:-0.0949904 4:-0.122617 
1 1:0.18481 2:0.036988 3:-0.238887 4:-0.569508 
1 1:0.129272 2:0.0647359 3:-0.189544 4:-0.657314 
1 1:-0.0595633 2:0.0794218 3:-0.181413 4:-0.391785 
1 1:-0.0542139 2:0.0377298 3:-0.17431 4:-0.380435 
1 1:0.209189 2:0.00320717 3:0.0765406 4:-0.133785 
1 1:0.0123517 2:0.093567 3:-0.620132 4:-0.731294 
1 1:0.0929349 2:-0.00461406 3:-0.170857 4:-0.457685 
1 1:0.137986 2:0.020903 3:-0.12899 4:-0.404842 
1 1:0.123229 2:-0.0566276 3:-0.239718 4:-0.449539 
1 1:0.107609 2:0.0444254 3:0.536533 4:-0.0621554 
1 1:0.0973479 2:0.0160848 3:-0.0747102 4:-0.31602 
1 1:0.0991815 2:0.0900226 3:-0.0814025 4:-0.0909579 
1 1:0.10997 2:0.0734439 3:-0.0957873 4:-0.468875 
1 1:-0.240742 2:-0.18047 3:-0.736611 4:-0.824971 
1 1:0.0873819 2:0.0520453 3:-0.711833 4:-0.880706 
1 1:0.190081 2:-0.0816295 3:-0.0395071 4:-0.138212 
1 1:0.154145 2:0.0253631 3:-0.0538575 4:-0.0284769 
1 1:0.184297 2:0.0520453 3:0.33181 4:0.0797064 
1 1:-0.0308458 2:0.0673423 3:-0.384284 4:-0.53314 
1 1:0.0678797 2:0.0492399 3:-0.523782 4:-0.603296 
1 1:-0.104231 2:-0.0180306 3:-0.603257 4:-0.879205 
1 1:-0.113082 2:0.0520453 3:-0.660662 4:-0.75551 
1 1:-0.400668 2:-0.11512 3:-0.73518 4:-1 
1 1:-0.0455685 2:0.011193 3:-0.370209 4:-0.505438 
1 1:0.00325036 2:0.0939493 3:-0.695451 4:-0.793789 
1 1:-0.280852 2:-0.0187496 3:-0.739371 4:-1 
1 1:0.00521425 2:0.0489731 3:-0.526189 4:-0.621568 
1 1:0.244536 2:0.0662019 3:-0.297826 4:-0.493743 
1 1:-0.099714 2:0.0132023 3:-0.695289 4:-0.799877 
1 1:-0.0346499 2:-0.0502128 3:-0.543203 4:-0.619703 
1 1:-0.216234 2:0.0492821 3:-0.776968 4:-0.822862 
1 1:0.177912 2:0.0520453 3:0.240572 4:-0.106105 
1 1:-0.0106239 2:0.0625767 3:-0.562907 4:-0.726223 
1 1:-0.288712 2:-0.0375402 3:-0.855095 4:-0.941363 
1 1:-0.272833 2:-0.0478134 3:-0.792812 4:-0.956229 
1 1:0.192362 2:0.0141905 3:-0.11792 4:-0.234625 
1 1:-0.161878 2:-0.107738 3:-0.25085 4:-0.620923 
1 1:0.106977 2:0.0228279 3:0.0859856 4:0.253225 
1 1:0.117783 2:0.0395282 3:-0.166749 4:-0.306206 
1 1:0.0337835 2:0.0138285 3:-0.100451 4:-0.390461 
1 1:0.0519553 2:-0.0380422 3:-0.479392 4:-0.834027 
1 1:0.204828 2:0.0419428 3:-0.0697325 4:-0.457111 
1 1:0.140428 2:0.0520453 3:-0.149118 4:-0.450967 
1 1:0.123204 2:0.0290747 3:-0.206223 4:-0.497009 
1 1:-0.0678586 2:0.0520453 3:-0.69354 4:-0.917493 
1 1:0.0890152 2:0.0520453 3:-0.692946 4:-0.795207 
1 1:0.203323 2:0.0520453 3:-0.200503 4:-0.477102 
1 1:-0.321597 2:-0.106829 3:-0.886795 4:-0.841222 
1 1:0.125149 2:-0.0366963 3:-0.421405 4:-0.580891 
1 1:-0.0155809 2:0.0501116 3:-0.463014 4:-0.797453 
1 1:0.182818 2:0.0520453 3:-0.56526 4:-0.770525 
1 1:-0.0203994 2:0.0743368 3:-0.403715 4:-0.630487 
1 1:-0.175399 2:0.0708645 3:-0.770945 4:-0.764374 
1 1:0.560884 2:0.0998814 3:0.497008 4:0.463284 
1 1:-0.028553 2:-0.0252204 3:-0.821034 4:-0.801765 
1 1:0.28019 2:0.0114887 3:0.0443007 4:-0.117638 
1 1:0.153242 2:0.0654784 3:-0.29962 4:-0.53732 
1 1:0.00554483 2:-0.0561695 3:-0.370385 4:-0.561611 
1 1:0.0181799 2:0.0520453 3:0.116625 4:-0.246131 
1 1:-0.0889045 2:0.0520453 3:-0.518604 4:-0.674791 
1 1:0.656901 2:0.0328459 3:0.551125 4:0.464509 
1 1:0.0792202 2:-0.0146403 3:-0.321518 4:-0.457719 
1 1:0.214346 2:0.0520453 3:0.145588 4:-0.033633 
1 1:0.417241 2:0.052032 3:0.368735 4:-0.186856 
1 1:0.318304 2:0.0036365 3:0.297228 4:0.539627 
1 1:0.175506 2:0.0801796 3:-0.253606 4:-0.60561 
1 1:0.173806 2:-6.04044e-005 3:0.293768 4:0.00496007 
1 1:0.111154 2:0.0567555 3:-0.507458 4:-0.702033 
1 1:-0.1856 2:-0.00201195 3:-0.498265 4:-0.720439 
1 1:0.0926043 2:0.0371931 3:-0.107957 4:-0.0564988 
1 1:0.0285839 2:0.0122218 3:-0.428421 4:-0.682742 
1 1:0.173862 2:0.0485158 3:-0.153506 4:-0.267002 
1 1:0.037187 2:0.0507867 3:-0.0383929 4:-0.0411834 
1 1:-0.0635921 2:0.0968715 3:-0.497254 4:-0.591161 
1 1:-0.240331 2:0.0485504 3:-0.820914 4:-0.929176 
1 1:-0.0750921 2:-0.00583069 3:-0.520663 4:-0.579279 
1 1:0.246622 2:0.0520453 3:-0.0266643 4:-0.345193 
1 1:0.0493188 2:0.0520453 3:-0.34275 4:-0.527966 
1 1:0.0396492 2:0.0435512 3:-0.131525 4:-0.255891 
1 1:0.0921223 2:0.0532515 3:0.124431 4:-0.387051 
1 1:0.122002 2:-0.00623759 3:-0.281051 4:-0.618076 
1 1:0.350005 2:0.0178161 3:0.176075 4:0.0535748 
1 1:0.20731 2:0.00933784 3:0.11945 4:-0.237121 
1 1:0.267181 2:0.0480089 3:0.200412 4:0.21213 
1 1:0.0301684 2:0.0262024 3:-0.244058 4:-0.392151 
1 1:-0.218437 2:-0.0247758 3:-0.611222 4:-0.853255 
1 1:0.00553506 2:-0.12402 3:-0.298954 4:-0.379507 
1 1:0.161643 2:-0.0269273 3:0.347023 4:-0.15253 
1 1:0.324479 2:0.0520453 3:0.640266 4:0.751098 
1 1:0.00926906 2:0.0779591 3:-0.0564619 4:-0.405163 
1 1:0.273076 2:0.0984757 3:0.159748 4:0.146346 
1 1:-0.0445687 2:0.0210938 3:-0.137472 4:-0.356349 
1 1:-0.00593239 2:-0.0321999 3:-0.454228 4:-0.553146 
1 1:-0.174034 2:0.0185048 3:-0.700615 4:-0.832466 
1 1:0.0561534 2:0.0500666 3:0.0593237 4:-0.316342 
1 1:-0.160257 2:0.0616341 3:-0.735345 4:-0.720032 
1 1:0.0416163 2:-0.0394869 3:-0.204039 4:-0.231208 
1 1:-0.14728 2:0.116613 3:-0.748533 4:-0.59114 
1 1:0.085703 2:0.0915389 3:-0.168539 4:-0.363686 
1 1:-0.189572 2:-0.204804 3:-0.318469 4:-0.785149 
1 1:-0.0252538 2:0.097891 3:-0.661483 4:-0.749308 
1 1:0.094604 2:0.0515765 3:0.00942532 4:-0.233433 
1 1:-0.0684513 2:0.0520453 3:-0.699131 4:-0.876983 
1 1:0.272403 2:0.0951904 3:0.257862 4:-0.249765 
1 1:0.310277 2:0.0932247 3:0.087807 4:0.0661552 
1 1:0.142364 2:0.0520453 3:-0.292873 4:-0.438192 
1 1:0.19553 2:0.045729 3:0.0234997 4:-0.131465 
1 1:0.122877 2:0.0978802 3:0.26999 4:-0.0418403 
1 1:0.0914628 2:-0.0711945 3:0.0580301 4:0.367046 
1 1:0.39954 2:0.0715415 3:0.379946 4:0.626134 
1 1:-0.0262309 2:0.0409671 3:-0.612333 4:-0.671279 
1 1:-0.0446713 2:-0.018161 3:-0.532457 4:-0.483028 
1 1:-0.00771879 2:0.0916686 3:-0.603605 4:-0.91399 
1 1:0.235672 2:0.0167295 3:-0.342944 4:-0.649808 
1 1:-0.165441 2:-0.0211791 3:-0.717069 4:-0.575335 
1 1:-0.045352 2:0.0386521 3:-0.317779 4:-0.188202 
1 1:0.162018 2:-0.035693 3:0.203472 4:-0.214571 
1 1:-0.0299697 2:0.119942 3:0.141569 4:-0.10424 
1 1:0.0666161 2:0.0393799 3:-0.109696 4:-0.337006 
1 1:-0.0939933 2:0.0283292 3:-0.515151 4:-0.657829 
1 1:-0.247254 2:0.00879407 3:-0.831781 4:-0.832157 
1 1:0.0605127 2:0.0621613 3:0.00104281 4:-0.359638 
1 1:0.121958 2:-0.0926323 3:-0.324785 4:-0.468831 
1 1:-0.221666 2:0.0269914 3:-0.827066 4:-0.902874 
1 1:0.150073 2:0.0827691 3:-0.41851 4:-0.679298 
1 1:-0.120242 2:-0.103415 3:-0.112118 4:-0.594721 
1 1:0.0591041 2:0.0520453 3:-0.469012 4:-0.480561 
1 1:-0.045321 2:0.0870524 3:-0.589455 4:-1 
1 1:-0.183209 2:0.0252391 3:-0.715676 4:-0.923388 
1 1:0.345066 2:-0.00263881 3:-0.200931 4:-0.0783051 
1 1:0.0956153 2:-0.143373 3:-0.384411 4:-0.455624 
1 1:-0.189275 2:-0.00218246 3:-0.782418 4:-0.872652 
1 1:0.295648 2:-0.014508 3:0.323456 4:-0.237263 
1 1:0.0898978 2:0.0381355 3:-0.452123 4:-0.564527 
1 1:0.0756116 2:0.0524693 3:-0.596989 4:-0.694792 
1 1:0.0677804 2:0.0370437 3:-0.24107 4:-0.491712 
1 1:0.248736 2:0.0104591 3:-0.0755692 4:-0.242085 
1 1:0.17955 2:0.0300507 3:-0.422074 4:-0.58202 
1 1:0.0249362 2:0.0343959 3:-0.244834 4:-0.332477 
1 1:0.181872 2:-0.0179182 3:-0.149904 4:-0.224003 
1 1:0.0479705 2:0.0910556 3:-0.583415 4:-0.668912 
1 1:0.0539143 2:0.0580564 3:-0.336062 4:-0.390449 
1 1:0.0915181 2:0.0559706 3:-0.232077 4:-0.318623 
1 1:0.0577395 2:0.0652086 3:-0.32099 4:-0.478893 
1 1:-0.105414 2:0.109786 3:-0.692798 4:-0.954575 
1 1:0.042652 2:0.0628154 3:-0.39633 4:-0.353396 
1 1:-0.0736949 2:-0.0303164 3:-0.321004 4:-0.424213 
1 1:-0.0211664 2:-0.0610344 3:-0.491631 4:-0.639202 
1 1:-0.0704901 2:0.0235283 3:-0.660127 4:-0.736128 
1 1:0.0594526 2:-0.0588486 3:-0.637439 4:-0.799533 
1 1:0.126057 2:0.0230982 3:-0.23008 4:-0.453213 
1 1:-0.0994014 2:0.0293469 3:-0.634917 4:-0.874191 
1 1:-0.0626411 2:-0.0762976 3:-0.581086 4:-0.702751 
1 1:-0.0668359 2:0.0984007 3:-0.779555 4:-0.720117 
1 1:0.0496575 2:0.0589076 3:0.0383122 4:-0.0829758 
1 1:0.074185 2:0.0450543 3:-0.386126 4:-0.554873 
1 1:0.140326 2:0.0144353 3:-0.208137 4:-0.413657 
1 1:0.0780184 2:0.0572662 3:-0.419366 4:-0.58733 
1 1:0.17278 2:0.0667386 3:0.184185 4:0.0605347 
1 1:-0.0656472 2:-0.00863121 3:-0.764925 4:-0.855695 
1 1:0.132174 2:0.0520453 3:-0.466863 4:-0.600904 
1 1:0.0259296 2:0.0612039 3:-0.145617 4:-0.494532 
1 1:0.174995 2:0.0520453 3:-0.54004 4:-0.720133 
1 1:-0.0668603 2:-0.0906723 3:-0.447546 4:-0.538524 
1 1:-0.0496445 2:-0.0141265 3:-0.476274 4:-0.60886 
1 1:0.19594 2:0.0018496 3:-0.501715 4:-0.673091 
1 1:-0.0689822 2:-0.00062316 3:-0.581442 4:-0.894633 
1 1:0.0121237 2:-0.0422247 3:-0.528387 4:-0.892616 
1 1:0.106931 2:0.0290367 3:-0.160295 4:-0.465455 
1 1:0.162857 2:-0.078817 3:-0.17362 4:-0.560391 
1 1:-0.0884648 2:0.0825817 3:-0.429839 4:-0.701466 
1 1:-0.129119 2:-0.0513603 3:-0.862632 4:-0.798426 
1 1:0.180528 2:0.0249965 3:-0.387537 4:-0.502671 
1 1:0.157019 2:-0.0367785 3:0.287956 4:-0.124706 
1 1:0.0330866 2:0.0331843 3:-0.654946 4:-0.749747 
1 1:0.150863 2:0.0520453 3:-0.31148 4:-0.239496 
1 1:0.199239 2:0.00397726 3:-0.0518429 4:-0.102564 
1 1:0.120078 2:-0.0153797 3:-0.0517877 4:-0.194745 
1 1:-0.0380517 2:-0.0601187 3:-0.0814645 4:-0.215364 
1 1:0.0554401 2:0.0720397 3:-0.601163 4:-0.762049 
1 1:0.113776 2:0.0448149 3:-0.0516911 4:-0.466487 
1 1:0.124491 2:0.0898615 3:-0.202738 4:-0.44654 
1 1:-0.0674905 2:0.0468953 3:-0.789552 4:-0.803563 
1 1:0.217908 2:-0.0533323 3:0.0509964 4:-0.247855 
1 1:-0.0418736 2:0.0735371 3:-0.363396 4:-0.474781 
1 1:0.220332 2:0.0854018 3:0.127201 4:-0.220405 
1 1:-0.0778865 2:-0.0965675 3:-0.559064 4:-0.871094 
1 1:-0.0474445 2:0.0520453 3:-0.658982 4:-0.790893 
1 1:0.148103 2:0.00270699 3:-0.369385 4:-0.594132 
1 1:0.0602163 2:-0.066695 3:-0.370247 4:-0.534511 
1 1:-0.0775299 2:-0.0155536 3:-0.499928 4:-0.469541 
1 1:0.213354 2:0.0976754 3:0.375686 4:0.258872 
1 1:-0.0841267 2:0.0907898 3:-0.743386 4:-0.948278 
1 1:0.173481 2:0.0328763 3:0.146267 4:-0.176345 
1 1:0.201775 2:0.0345604 3:0.416446 4:-0.087377 
1 1:-0.264193 2:0.0158246 3:-0.916983 4:-0.895017 
1 1:-0.125605 2:-0.0447067 3:-0.663766 4:-0.677347 
1 1:0.056922 2:0.00764486 3:-0.322746 4:-0.369762 
1 1:-0.161604 2:0.0648928 3:-0.818661 4:-0.837341 
1 1:0.0604964 2:0.0783404 3:-0.700849 4:-0.700598 
1 1:0.0957765 2:0.0520453 3:-0.237838 4:-0.266926 
1 1:-0.00591285 2:-0.00137146 3:-0.351516 4:-0.640933 
1 1:0.168195 2:0.0575315 3:-0.087629 4:-0.414795 
1 1:-0.0432692 2:-0.121159 3:-0.388337 4:-0.431375 
1 1:0.117433 2:-0.00975583 3:-0.498324 4:-0.695641 
1 1:0.00578421 2:0.0509481 3:-0.666295 4:-0.772811 
1 1:-0.0708533 2:0.111894 3:-0.545418 4:-0.748928 
1 1:-0.0260648 2:0.0520453 3:-0.775202 4:-0.801407 
1 1:-0.215735 2:-0.0195396 3:-0.469547 4:-0.782106 
1 1:-0.0868445 2:0.0233476 3:-0.549854 4:-0.661395 
1 1:0.0370551 2:0.0236621 3:-0.583708 4:-0.530754 
1 1:0.122071 2:-0.0386026 3:-0.371806 4:-0.466609 
1 1:0.152376 2:0.0715519 3:-0.0462408 4:-0.26766 
1 1:0.00921369 2:0.0440695 3:-0.763359 4:-0.766149 
1 1:-0.148077 2:-0.0674339 3:-0.729953 4:-0.767824 
1 1:-0.041289 2:0.061303 3:-0.593419 4:-0.710562 
1 1:0.09002 2:0.0534094 3:-0.369923 4:-0.617202 
1 1:-0.0613302 2:0.034135 3:-0.20071 4:-0.422974 
1 1:-0.0422042 2:0.0520453 3:-0.46558 4:-0.603944 
1 1:0.0851477 2:0.0960897 3:-0.162616 4:-0.488613 
1 1:0.0349414 2:0.0156458 3:-0.392438 4:-0.289027 
1 1:-0.0653052 2:0.102296 3:-0.57862 4:-0.746436 
1 1:0.25996 2:0.0074978 3:0.0142168 4:0.146134 
1 1:0.126165 2:0.0937497 3:-0.10152 4:-0.305248 
1 1:0.0570865 2:-0.00703623 3:-0.000761325 4:-0.203685 
1 1:0.369111 2:0.0630165 3:0.253218 4:0.15702 
1 1:-0.0791176 2:0.0673058 3:-0.689221 4:-0.662692 
1 1:-0.0866377 2:-0.00304342 3:-0.574818 4:-0.635766 
1 1:-0.100292 2:0.116161 3:-0.680224 4:-1 
1 1:0.031266 2:0.0520453 3:-0.516437 4:-0.581348 
1 1:-0.122768 2:-0.0378352 3:-0.571862 4:-0.735524 
1 1:-0.255062 2:0.0161462 3:-0.882118 4:-0.967198 
1 1:-0.0177272 2:0.115893 3:-0.324823 4:-0.70045 
1 1:-0.141979 2:0.00869811 3:-0.492518 4:-0.562833 
1 1:-0.0271705 2:-0.0834849 3:-0.442834 4:-0.546509 
1 1:0.0790345 2:-0.0335939 3:-0.497447 4:-0.619222 
1 1:-0.0245226 2:0.0600822 3:0.248548 4:-0.0300276 
1 1:-0.21193 2:0.0286213 3:-0.487999 4:-0.722256 
1 1:0.058583 2:0.0652625 3:-0.032777 4:-0.673063 
1 1:-0.0914351 2:-0.0829701 3:-0.141125 4:-0.41129 
1 1:0.15457 2:0.0782616 3:-0.25778 4:-0.363456 
1 1:0.236027 2:-0.00166851 3:-0.240884 4:-0.291548 
1 1:0.290435 2:0.0109086 3:0.192226 4:0.12823 
1 1:0.0145143 2:0.104499 3:0.548773 4:0.174582 
1 1:-0.0181668 2:0.0711256 3:-0.296899 4:-0.371544 
1 1:0.0607423 2:-0.0640914 3:0.493896 4:0.327702 
1 1:0.308068 2:0.0520453 3:-0.203808 4:-0.123947 
1 1:0.0256202 2:-0.0984331 3:-0.118969 4:-0.512496 
1 1:-0.0875171 2:0.000324069 3:-0.808817 4:-0.789163 
1 1:0.23106 2:0.0520453 3:-0.530526 4:-0.732305 
1 1:-0.16514 2:0.0987131 3:-0.374345 4:-0.505522 
1 1:0.0593956 2:-0.168516 3:-0.580348 4:-0.770339 
1 1:-0.00700553 2:-0.0757407 3:-0.685602 4:-0.730134 
1 1:0.0621362 2:0.0204302 3:-0.273003 4:-0.638461 
1 1:0.180405 2:0.0520453 3:-0.314781 4:-0.374857 
1 1:-0.00497162 2:0.0279292 3:0.242031 4:0.363149 
1 1:-0.157092 2:0.0213604 3:-0.630867 4:-0.809763 
1 1:-0.016159 2:0.0765675 3:-0.202807 4:-0.463059 
1 1:0.459838 2:0.0449923 3:0.155253 4:0.148378 
1 1:-0.0916386 2:-0.0952383 3:-0.544759 4:-0.675441 
1 1:-0.126147 2:0.045417 3:-0.411504 4:-0.491743 
1 1:-0.0816498 2:-0.0634777 3:-0.573401 4:-0.657706 
1 1:0.106021 2:0.0759276 3:-0.477464 4:-0.427387 
1 1:0.1294 2:-0.00285825 3:-0.228224 4:-0.486299 
1 1:-0.00626785 2:-0.0390329 3:0.489881 4:0.164213 
1 1:0.128684 2:0.0222149 3:-0.030552 4:-0.238599 
1 1:0.0994991 2:0.0169283 3:-0.0305796 4:-0.265568 
1 1:-0.156058 2:0.109998 3:-0.866764 4:-0.84964 
1 1:0.0390597 2:0.019868 3:-0.408144 4:-0.594886 
1 1:-0.0590862 2:0.0929824 3:-0.68573 4:-0.803566 
1 1:0.0149849 2:-0.0230061 3:-0.0793189 4:-0.2564 
1 1:0.0661064 2:0.0520453 3:-0.384391 4:-0.483269 
1 1:-0.0809903 2:0.0938792 3:-0.668137 4:-0.816422 
1 1:-0.00367212 2:-0.0341782 3:-0.410059 4:-0.592084 
1 1:-0.149576 2:-0.124176 3:-0.528894 4:-0.83387 
1 1:0.10771 2:-0.0371204 3:-0.345127 4:-0.321639 
1 1:-0.0705683 2:0.108206 3:-0.721464 4:-0.83839 
1 1:0.0240813 2:0.0950038 3:-0.451351 4:-0.61145 
1 1:0.06354 2:-0.0530973 3:-0.423423 4:-0.375648 
1 1:-0.0257032 2:0.0404009 3:-0.0589077 4:-0.396393 
1 1:0.00470455 2:-0.0653627 3:-0.265176 4:-0.398209 
1 1:-0.0811613 2:-0.0771476 3:-0.464559 4:-0.528471 
1 1:-0.00836691 2:-0.0419297 3:-0.656753 4:-0.730505 
1 1:0.00626297 2:-0.0473813 3:-0.459147 4:-0.550026 
1 1:-0.0162518 2:0.0234739 3:-0.1925 4:-0.531773 
1 1:-0.0329921 2:0.095968 3:-0.614813 4:-0.76077 
1 1:0.0927118 2:0.0291681 3:-0.161212 4:-0.481532 
1 1:0.0625906 2:0.0395918 3:-0.428159 4:-0.566416 
1 1:0.0200493 2:-0.0177929 3:-0.284701 4:-0.164838 
1 1:0.0601496 2:-0.0242259 3:0.168217 4:-0.122255 
1 1:-0.16922 2:-0.017437 3:-0.617079 4:-0.662397 
1 1:0.0802852 2:0.076393 3:-0.431888 4:-0.601565 
1 1:0.132167 2:-0.0497331 3:-0.465932 4:-0.732516 
1 1:0.038804 2:-0.072939 3:-0.0751518 4:-0.316674 
1 1:-0.0644144 2:0.045675 3:-0.631409 4:-0.686269 
1 1:0.0339887 2:0.0427869 3:-0.179788 4:-0.0662206 
1 1:-0.0850809 2:-0.103466 3:-0.612395 4:-0.509266 
1 1:0.139458 2:0.0827598 3:-0.459937 4:-0.676848 
1 1:-0.0524812 2:0.0520453 3:-0.66922 4:-0.758517 
1 1:-0.157172 2:-0.1339 3:0.00944947 4:-0.391555 
1 1:-0.0164765 2:-0.0152565 3:-0.361168 4:-0.511369 
1 1:-0.00612129 2:0.0783554 3:0.18037 4:-0.231542 
1 1:0.109607 2:0.0406885 3:-0.443596 4:-0.720107 
1 1:0.0213944 2:0.0520453 3:-0.768672 4:-0.858313 
1 1:-0.0431764 2:-0.0723323 3:-0.444548 4:-0.580346 
1 1:-0.00209905 2:0.0520453 3:-0.104635 4:-0.0487839 
1 1:-0.0504082 2:0.0735609 3:-0.464407 4:-0.717111 
1 1:0.017846 2:0.0496593 3:-0.400134 4:-0.629998 
1 1:0.121706 2:-0.00928393 3:-0.295971 4:-0.344973 
1 1:0.26884 2:0.0673 3:-0.20655 4:-0.11964 
1 1:-0.190211 2:0.0104212 3:-0.594109 4:-0.622044 
1 1:0.0010764 2:0.0287159 3:-0.520732 4:-0.673521 
1 1:0.0148383 2:0.0581407 3:-0.670589 4:-0.788047 
1 1:0.0578828 2:0.0395171 3:-0.502225 4:-0.897746 
1 1:0.281355 2:0.100405 3:0.226432 4:0.152642 
1 1:0.0508821 2:-0.0341735 3:-0.321335 4:-0.633735 
1 1:-0.0134427 2:0.102196 3:-0.432005 4:-0.477127 
1 1:-0.0501656 2:0.10435 3:-0.672245 4:-0.830827 
1 1:0.0535414 2:0.0797586 3:-0.0224317 4:-0.105061 
1 1:0.351298 2:-0.0364905 3:-0.049442 4:-0.359903 
1 1:-0.00427627 2:0.018581 3:-0.279837 4:-0.38168 
1 1:-0.0411669 2:0.0520453 3:-0.33483 4:-0.476242 
1 1:0.316498 2:0.0510386 3:0.0857234 4:-0.289785 
1 1:0.106891 2:0.0739844 3:-0.155752 4:-0.346643 
1 1:0.105208 2:-0.0118478 3:0.0242793 4:-0.124192 
1 1:-0.0619148 2:0.0520453 3:-0.672124 4:-0.719681 
1 1:0.0617373 2:0.0693216 3:-0.760538 4:-0.72182 
1 1:-0.102624 2:-0.0777898 3:-0.352854 4:-0.604121 
1 1:0.00231889 2:-0.0318649 3:-0.368557 4:-0.57137 
1 1:0.179547 2:0.0528885 3:-0.00343131 4:-0.512459 
1 1:0.160264 2:0.0371495 3:-0.441533 4:-0.663287 
1 1:-0.0618415 2:-0.0295956 3:-0.32334 4:-0.507327 
1 1:-0.0165254 2:-0.0053542 3:-0.114643 4:-0.328379 
1 1:0.067528 2:-0.11065 3:-0.29438 4:-0.510384 
1 1:-0.163976 2:-0.0274663 3:-0.764753 4:-0.911554 
1 1:0.0370974 2:0.0490714 3:-0.503798 4:-0.513066 
1 1:-0.0135584 2:-0.0810076 3:-0.232364 4:-0.553703 
1 1:-0.102561 2:-0.16321 3:-0.249905 4:-0.657836 
1 1:-0.0722537 2:0.068568 3:-0.735387 4:-0.749186 
1 1:0.0534746 2:0.0520453 3:-0.569334 4:-0.657816 
1 1:-0.03436 2:0.0962696 3:-0.0395658 4:-0.557481 
1 1:0.00673033 2:0.0103085 3:-0.408203 4:-0.583784 
1 1:0.0321111 2:0.0942321 3:-0.599707 4:-0.774309 
1 1:0.044953 2:0.0520453 3:-0.0755243 4:-0.152167 
1 1:0.0321877 2:0.0520453 3:-0.211749 4:-0.527935 
1 1:0.0477246 2:0.0327727 3:-0.119079 4:-0.275528 
1 1:0.124119 2:0.05345 3:-0.27192 4:-0.580163 
1 1:0.164954 2:0.0121879 3:-0.247569 4:-0.329291 
1 1:0.085304 2:-0.0951784 3:-0.241005 4:-0.523942 
1 1:0.0518103 2:0.06107 3:-0.496809 4:-0.561687 
1 1:0.062685 2:0.0234316 3:-0.457446 4:-0.400609 
1 1:-0.139352 2:-0.0823966 3:-0.722426 4:-0.784606 
1 1:0.0559531 2:0.0813266 3:-0.497734 4:-0.591809 
1 1:-0.0339431 2:0.0603828 3:-0.416965 4:-0.335381 
1 1:0.144436 2:0.0529535 3:-0.232008 4:-0.49895 
1 1:0.0191976 2:-0.272358 3:-0.131325 4:-0.306545 
1 1:0.0386347 2:0.0717668 3:-0.565442 4:-0.67165 
1 1:0.0300577 2:0.0520453 3:-0.272524 4:-0.437902 
1 1:0.0848529 2:0.081925 3:-0.323388 4:-0.435513 
1 1:-0.122903 2:-0.0542827 3:-0.709132 4:-0.788271 
1 1:-0.118158 2:0.0334393 3:-0.594698 4:-0.755965 
1 1:0.19823 2:0.0436444 3:0.123924 4:0.149151 
1 1:0.285155 2:-0.0751871 3:0.373016 4:0.0419465 
1 1:0.249169 2:0.0140183 3:-0.258549 4:-0.506018 
1 1:0.144429 2:0.0748055 3:-0.298196 4:-0.523096 
1 1:-0.0361969 2:0.00823539 3:-0.573887 4:-0.709978 
1 1:0.0658865 2:-0.0587592 3:0.460066 4:0.0890875 
1 1:0.041758 2:-0.0417887 3:-0.247169 4:-0.444541 
1 1:0.395485 2:0.00691809 3:0.987785 4:0.998413 
1 1:-0.13119 2:0.0368526 3:-0.531495 4:-0.600366 
1 1:-0.0867045 2:-0.103374 3:-0.538056 4:-0.543247 
1 1:-0.174052 2:-0.0268774 3:-0.572417 4:-0.687259 
1 1:-0.0794775 2:0.083482 3:-0.492163 4:-0.768626 
1 1:-0.16956 2:-0.043508 3:-0.659399 4:-0.767055 
1 1:0.181515 2:0.108556 3:0.298084 4:0.394641 
1 1:-0.0616949 2:0.0854825 3:-0.630071 4:-0.86094 
1 1:0.125748 2:0.0490704 3:0.0141202 4:-0.0115175 
1 1:0.341504 2:0.119761 3:0.834492 4:0.69032 
1 1:-0.0300968 2:0.0949994 3:-0.220545 4:-0.295825 
1 1:0.0149849 2:0.109652 3:-0.153095 4:-0.231333 
1 1:0.0775966 2:0.0347829 3:-0.250988 4:-0.537405 
1 1:0.0813127 2:0.0520453 3:-0.404878 4:-0.586611 
1 1:0.134374 2:0.0658458 3:-0.22266 4:-0.432857 
1 1:0.0948157 2:0.0272781 3:-0.315889 4:-0.357128 
1 1:-0.177002 2:-0.137649 3:-0.64054 4:-0.662919 
1 1:-0.203036 2:0.0994465 3:-0.73114 4:-0.71531 
1 1:0.154172 2:0.0870097 3:-0.35756 4:-0.692561 
1 1:0.0250079 2:0.0932364 3:-0.51314 4:-0.587941 
1 1:0.0822458 2:0.0520453 3:0.0137373 4:0.174314 
1 1:-0.00304518 2:0.0065572 3:-0.223546 4:-0.457869 
1 1:0.0222689 2:0.0552196 3:-0.333975 4:-0.271577 
1 1:0.111302 2:-0.00664385 3:-0.308348 4:-0.370131 
1 1:0.240629 2:-0.0442507 3:0.251611 4:0.195491 
1 1:0.0590406 2:0.0728071 3:-0.59711 4:-0.699338 
1 1:-0.0192611 2:0.0819911 3:-0.416561 4:-0.839022 
1 1:0.176218 2:0.0711364 3:-0.608749 4:-0.645693 
1 1:-0.26948 2:-0.043429 3:-0.909206 4:-0.89333 
1 1:-0.000991718 2:-0.0401721 3:-0.559599 4:-0.589598 
1 1:-0.0174112 2:-0.0493312 3:-0.453151 4:-0.51743 
1 1:0.191455 2:0.0930156 3:-0.0303968 4:0.036515 
1 1:-0.201178 2:-0.0294344 3:-0.462658 4:-0.636087 
1 1:0.120999 2:0.0613072 3:-0.189613 4:-0.153294 
1 1:0.18656 2:-0.0732211 3:0.0243414 4:-0.143367 
1 1:0.291295 2:-0.0162417 3:-0.187415 4:-0.502946 
1 1:0.0239624 2:-0.0153322 3:-0.517662 4:-0.633407 
1 1:-0.131242 2:-0.170407 3:-0.510611 4:-0.749949 
1 1:-0.0423051 2:0.0916549 3:-0.464221 4:-0.468746 
1 1:0.15775 2:0.0549534 3:0.0993045 4:-0.419266 
1 1:-0.133365 2:0.0110385 3:-0.57159 4:-0.703961 
1 1:-0.122183 2:-0.00847013 3:-0.662248 4:-0.924913 
1 1:-0.00220165 2:0.0685065 3:-0.533799 4:-0.72587 
1 1:0.22527 2:0.0702301 3:-0.149753 4:-0.14633 
1 1:-0.282743 2:-0.0915682 3:-0.668399 4:-0.623341 
1 1:-0.0320395 2:0.0375978 3:-0.279506 4:-0.127609 
1 1:0.00890592 2:-0.125751 3:-0.589731 4:-0.689625 
1 1:-0.0609817 2:0.0750585 3:-0.158422 4:-0.436722 
0.6766237315025456 1:0.250468 2:0.147151 3:0.836006 4:0.188502 
1 1:0.240157 2:0.057914 3:-0.293911 4:-0.213176 
1 1:0.0778995 2:0.0520453 3:0.402513 4:0.0410772 
1 1:0.228435 2:0.0616088 3:-0.12852 4:-0.352756 
1 1:-0.0830617 2:0.0552391 3:-0.47002 4:-0.609616 
1 1:0.0966884 2:0.083046 3:-0.211552 4:-0.339422 
1 1:-0.16181 2:-0.0728887 3:-0.429404 4:-0.475263 
1 1:0.108162 2:0.0467914 3:-0.535472 4:-0.71093 
1 1:0.0964653 2:0.00558524 3:-0.313957 4:-0.602908 
1 1:-0.158285 2:-0.163123 3:-0.325647 4:-0.739972 
1 1:0.0874763 2:0.0686604 3:-0.533127 4:-0.705298 
1 1:-0.0290757 2:0.0169585 3:-0.469264 4:-0.539259 
1 1:0.342426 2:-0.176312 3:0.0162383 4:-0.382873 
1 1:0.233103 2:0.0816254 3:0.135239 4:-0.0676161 
1 1:0.149276 2:0.0505377 3:-0.376294 4:-0.387416 
1 1:-0.0114251 2:0.0333724 3:-0.0273059 4:0.204919 
1 1:0.104391 2:0.0952396 3:0.0614417 4:-0.194313 
1 1:0.16093 2:0.00895209 3:0.0263249 4:-0.112136 
1 1:-0.131674 2:-0.0292914 3:-0.553279 4:-0.804672 
1 1:0.0997922 2:0.0582798 3:-0.346317 4:-0.645028 
1 1:0.294499 2:-0.00273247 3:0.663147 4:0.187371 
1 1:0.0625873 2:0.0625654 3:-0.151146 4:-0.289464 
1 1:-0.0655625 2:-0.039223 3:-0.66962 4:-0.412829 
1 1:0.197524 2:0.0374649 3:-0.390703 4:-0.336901 
1 1:0.016426 2:0.0797467 3:0.0404234 4:-0.562279 
1 1:0.108377 2:0.033028 3:-0.270944 4:-0.614862 
1 1:0.0146722 2:0.0794833 3:-0.468443 4:-0.78598 
1 1:0.00793211 2:0.0405079 3:-0.556087 4:-0.679771 
1 1:0.158852 2:-0.071597 3:-0.148069 4:-0.469672 
1 1:0.0919676 2:-0.0789049 3:-0.0675903 4:-0.381047 
1 1:0.18492 2:0.0520453 3:-0.288744 4:-0.383978 
1 1:-0.0802607 2:-0.0159528 3:-0.656722 4:-0.690383 
1 1:0.391841 2:-0.00320819 3:0.396559 4:0.07282 
1 1:-0.0859521 2:-0.0748958 3:-0.455276 4:-0.690854 
1 1:-0.147085 2:-0.372375 3:-0.404391 4:-0.722036 
1 1:0.0652482 2:-0.156945 3:0.39906 4:-0.0243943 
1 1:0.564672 2:0.0813176 3:0.942109 4:0.743806 
1 1:-0.115513 2:0.0289936 3:-0.555118 4:-0.755315 
1 1:0.0702866 2:0.0374327 3:-0.398161 4:-0.525527 
1 1:0.0592099 2:0.0928871 3:-0.270757 4:-0.190577 
1 1:0.226069 2:0.0331186 3:-0.348511 4:-0.538339 
1 1:-0.0609947 2:0.113933 3:-0.691701 4:-0.901599 
1 1:0.158751 2:-0.0714247 3:-0.0429912 4:-0.232801 
1 1:-0.0923861 2:-0.103965 3:-0.474415 4:-0.442023 
1 1:-0.133737 2:-0.199259 3:-0.701208 4:-0.811767 
1 1:0.187656 2:0.0510265 3:-0.114491 4:-0.399441 
1 1:0.0787675 2:0.0520453 3:-0.210214 4:-0.302473 
1 1:0.151049 2:0.0653619 3:-0.224685 4:-0.248913 
1 1:-0.0905199 2:0.0856764 3:-0.393915 4:-0.392378 
1 1:0.0442918 2:0.0885446 3:-0.504074 4:-0.489676 
1 1:-0.140864 2:-0.14178 3:-0.386374 4:-0.607332 
1 1:-0.114997 2:0.0882453 3:-0.563807 4:-0.915748 
1 1:0.157012 2:0.0674425 3:-0.168698 4:-0.486032 
1 1:0.09222 2:0.0984439 3:0.049889 4:-0.292869 
1 1:0.076232 2:0.0715631 3:-0.0987401 4:-0.418231 
1 1:-0.0183557 2:-0.0402356 3:-0.473135 4:-0.527349 
1 1:-0.149287 2:-0.0128134 3:-0.731192 4:-0.744943 
1 1:0.392956 2:0.0329197 3:0.172294 4:0.344433 
1 1:0.00288722 2:0.10622 3:-0.10329 4:-0.365784 
1 1:-0.228982 2:0.0520404 3:-0.591797 4:-0.891637 
1 1:0.00946122 2:0.0520453 3:-0.742976 4:-0.88978 
1 1:-0.0681484 2:0.0967454 3:-0.800165 4:-0.798545 
1 1:-0.025218 2:0.0520453 3:-0.76249 4:-0.904518 
1 1:0.0059096 2:0.10201 3:-0.396126 4:-0.631627 
1 1:0.102943 2:0.0304071 3:0.574741 4:0.646716 
1 1:-0.0590846 2:0.0438736 3:-0.408786 4:-0.470394 
1 1:0.101691 2:0.0433304 3:-0.391255 4:-0.564346 
1 1:0.0724329 2:0.0524613 3:-0.0469479 4:-0.124846 
1 1:0.0827278 2:0.0489053 3:-0.319338 4:-0.296832 
1 1:-0.116407 2:0.0698904 3:-0.69524 4:-0.817833 
1 1:0.0895526 2:0.0845361 3:-0.51829 4:-0.657839 
1 1:0.32359 2:-0.029074 3:-0.125633 4:-0.136267 
1 1:-0.265827 2:-0.130242 3:-0.879766 4:-0.883632 
1 1:-0.0349707 2:0.121164 3:-0.783671 4:-0.915928 
1 1:0.000485274 2:0.0520453 3:-0.714793 4:-0.692717 
1 1:-0.170141 2:-0.0456395 3:-0.454924 4:-0.811597 
1 1:-0.107871 2:0.0370984 3:-0.712902 4:-1 
1 1:-0.0535332 2:-0.00847166 3:-0.509214 4:-0.426574 
1 1:0.0606202 2:0.0222881 3:-0.0683699 4:-0.765273 
1 1:0.0571451 2:0.0608784 3:-0.624879 4:-0.710888 
1 1:0.228336 2:0.0217095 3:-0.203301 4:-0.564348 
1 1:-0.0031038 2:0.0534089 3:-0.386329 4:-0.586311 
1 1:0.265393 2:-0.240524 3:0.573265 4:0.334317 
1 1:-0.0144833 2:-0.0475709 3:-0.389303 4:-0.565912 
1 1:-0.281695 2:-0.110612 3:-0.700118 4:-0.713834 
1 1:0.0546031 2:0.0932917 3:-0.688365 4:-0.796148 
1 1:-0.00614083 2:0.000268252 3:-0.243354 4:-0.419913 
1 1:0.129654 2:0.0568427 3:-0.343123 4:-0.416544 
1 1:-0.0631198 2:0.0493247 3:-0.412039 4:-0.596386 
1 1:0.18494 2:0.0821308 3:0.103244 4:-0.213859 
1 1:0.170756 2:-0.0103297 3:-0.0641924 4:-0.487612 
1 1:-0.178718 2:-0.0581408 3:-0.767944 4:-0.923447 
1 1:0.291179 2:-0.208364 3:-0.213477 4:-0.464202 
1 1:-0.259753 2:0.00435931 3:-0.8459 4:-1 
1 1:-0.140921 2:0.0605091 3:-0.682508 4:-0.735504 
1 1:0.292672 2:0.0197863 3:-0.0945937 4:-0.197804 
1 1:-0.142314 2:0.0289923 3:-0.756167 4:-0.831934 
1 1:-0.14562 2:0.0549748 3:-0.886537 4:-0.813557 
1 1:0.0231515 2:-0.0830873 3:-0.540205 4:-0.5621 
1 1:0.221787 2:-0.235437 3:0.384331 4:0.176414 
1 1:0.0257863 2:0.078127 3:-0.388727 4:-0.623533 
1 1:0.000174243 2:0.0424666 3:-0.649947 4:-0.669656 
1 1:0.0448553 2:-0.0157486 3:-0.553169 4:-0.738445 
1 1:0.0513918 2:0.0453119 3:-0.482176 4:-0.712771 
1 1:0.014371 2:0.0283159 3:-0.596396 4:-0.676791 
1 1:-0.00752338 2:-0.0767449 3:-0.519663 4:-0.519431 
1 1:0.180346 2:0.064365 3:-0.615165 4:-0.643175 
1 1:-0.289813 2:-0.141854 3:-0.744673 4:-0.782175 
1 1:-0.0469983 2:0.038823 3:-0.554142 4:-0.581491 
1 1:0.182455 2:0.0180122 3:-0.0830514 4:-0.325352 
1 1:-0.0466124 2:0.0193924 3:-0.460206 4:-0.651262 
1 1:-0.0146478 2:0.0203636 3:-0.33107 4:-0.482594 
1 1:-0.0752452 2:0.111057 3:-0.521674 4:-0.758568 
1 1:-0.134893 2:0.0279915 3:-0.628487 4:-0.728277 
1 1:-0.0877011 2:0.0091565 3:-0.43422 4:-0.554809 
1 1:-0.0425413 2:0.0716937 3:-0.743966 4:-0.846071 
1 1:0.011728 2:0.0562223 3:-0.0953595 4:-0.151856 
1 1:0.0497894 2:0.0710767 3:-0.43887 4:-0.546843 
1 1:0.184091 2:-0.00255942 3:0.262198 4:0.312055 
1 1:0.113448 2:-0.00814746 3:-0.27588 4:-0.404713 
1 1:-0.0192139 2:0.0548077 3:-0.505878 4:-0.537325 
1 1:0.142649 2:0.0460227 3:-0.41493 4:-0.547315 
1 1:0.253355 2:0.0520453 3:0.699996 4:0.84219 
1 1:0.181108 2:0.0520453 3:-0.0281062 4:-0.137278 
1 1:-0.0407353 2:0.00832409 3:-0.600145 4:-0.640169 
1 1:0.041359 2:0.0366591 3:-0.245865 4:-0.14643 
1 1:-0.0733399 2:-0.022415 3:-0.426852 4:-0.465597 
1 1:0.0413753 2:-0.0898363 3:-0.214998 4:-0.487014 
1 1:0.0528037 2:0.040679 3:-0.47773 4:-0.718675 
1 1:0.0221614 2:-0.0438327 3:0.104106 4:-0.0364497 
1 1:0.0169911 2:0.0977824 3:-0.685926 4:-0.726753 
1 1:-0.0160824 2:-0.107556 3:-0.264845 4:-0.206204 
1 1:-0.145945 2:0.0222365 3:-0.768034 4:-0.594544 
1 1:0.0265468 2:0.069193 3:-0.0611706 4:-0.291107 
1 1:0.0545152 2:0.0530395 3:-0.391059 4:-0.324622 
1 1:0.0925962 2:0.017831 3:-0.445052 4:-0.603737 
1 1:0.0651928 2:0.0697605 3:-0.397692 4:-0.362653 
1 1:-0.00163821 2:-0.0278456 3:-0.426517 4:-0.612793 
1 1:0.0921092 2:-0.000533318 3:-0.15589 4:-0.184428 
1 1:0.365424 2:0.0106842 3:0.382392 4:0.349462 
1 1:-0.086286 2:0.114782 3:-0.593253 4:-0.722789 
1 1:-0.085988 2:0.0156346 3:-0.362765 4:-0.688123 
-1 1:0.0692639 2:0.0535095 3:-0.126613 4:-0.382444 
-1 1:-0.0151819 2:0.0521207 3:-0.629988 4:-0.645739 
-1 1:0.0312106 2:0.00943902 3:-0.344282 4:-0.649367 
-1 1:0.199596 2:-0.0561909 3:-0.26647 4:-0.573136 
-1 1:0.0111646 2:-0.00709281 3:-0.14067 4:-0.473622 
-1 1:-0.148469 2:-0.0110679 3:-0.366249 4:-0.624352 
-1 1:-0.07376 2:0.0144824 3:-0.459361 4:-0.591335 
-1 1:0.0748657 2:-0.00866918 3:-0.00726381 4:0.0592244 
-1 1:0.00528916 2:0.0264643 3:-0.264859 4:-0.417534 
-1 1:0.0881701 2:0.119759 3:-0.294691 4:-0.426877 
-1 1:0.12223 2:-0.0421055 3:-0.208389 4:-0.358862 
-1 1:0.0842341 2:0.0505568 3:0.156454 4:0.0838427 
-1 1:-0.0927167 2:-0.0835448 3:-0.567802 4:-0.564641 
-1 1:0.132566 2:0.123015 3:-0.112694 4:-0.397785 
-1 1:0.250766 2:0.0200218 3:0.29025 4:0.196367 
-1 1:-0.0478793 2:-0.0873602 3:-0.577164 4:-0.673206 
-1 1:0.201881 2:-0.0331295 3:-0.248121 4:-0.333532 
-1 1:-0.15171 2:-0.0242029 3:-0.509942 4:-0.656625 
-1 1:-0.0526881 2:-0.0214256 3:-0.188426 4:-0.28733 
-1 1:0.314091 2:-0.0262851 3:-0.032984 4:-0.0494198 
-1 1:-0.218564 2:0.0128744 3:-0.703102 4:-0.845888 
-1 1:-0.201628 2:-0.037039 3:-0.574784 4:-0.704464 
-1 1:-0.0508675 2:0.0138517 3:-0.379433 4:-0.609704 
-1 1:-0.160286 2:-0.0325413 3:-0.603429 4:-0.710662 
-1 1:0.170273 2:-0.0518632 3:0.163143 4:-0.274168 
-1 1:0.233106 2:-0.0435075 3:-0.387902 4:-0.601483 
-1 1:0.126788 2:-0.0265437 3:-0.28655 4:-0.514047 
-1 1:0.0561892 2:0.0220028 3:-0.24095 4:-0.485453 
-1 1:0.143576 2:-0.124866 3:-0.213263 4:-0.510891 
-1 1:-0.16772 2:-0.020935 3:-0.757447 4:-0.817501 
-1 1:0.1491 2:0.0933129 3:0.095158 4:-0.286946 
-1 1:-0.049213 2:-0.0508433 3:-0.33491 4:-0.451261 
-1 1:0.0266005 2:0.0583924 3:-0.441029 4:-0.585958 
-1 1:0.095472 2:-0.0289173 3:-0.180454 4:-0.266649 
-1 1:-0.0649779 2:0.0820083 3:-0.597589 4:-0.744711 
-1 1:-0.180399 2:0.0743274 3:-0.722768 4:-0.92498 
-1 1:0.0886732 2:-0.0418311 3:-0.0485796 4:-0.154562 
-1 1:-0.053613 2:0.0112257 3:-0.516524 4:-0.670202 
-1 1:0.190876 2:0.306035 3:-0.28518 4:-0.596472 
-1 1:0.0748495 2:0.00180003 3:0.0741397 4:0.159225 
-1 1:-0.207112 2:-0.021427 3:-0.596903 4:-0.815217 
-1 1:-0.104718 2:-0.0684693 3:-0.276832 4:-0.38715 
-1 1:0.341042 2:0.0970689 3:-0.0305348 4:-0.155684 
-1 1:-0.0282908 2:0.0679623 3:-0.700463 4:-0.756785 
-1 1:-0.0159326 2:-0.0633324 3:-0.457591 4:-0.509413 
-1 1:0.0762971 2:-0.0208948 3:-0.593084 4:-0.685342 
-1 1:-0.117856 2:-0.0923595 3:-0.670351 4:-0.764185 
-1 1:-0.0395547 2:-0.0555526 3:-0.648395 4:-0.822909 
-1 1:0.0970206 2:0.0520453 3:-0.264859 4:-0.564385 
-1 1:0.265269 2:-0.106612 3:0.207446 4:-0.233507 
-1 1:0.339648 2:0.0520453 3:0.249517 4:0.252291 
-1 1:-0.124305 2:-0.0830606 3:-0.779969 4:-0.716185 
-1 1:0.240167 2:0.018386 3:-0.0353159 4:-0.290757 
-1 1:-0.166419 2:0.048522 3:-0.827924 4:-0.833075 
-1 1:0.0133385 2:0.0764105 3:-0.338932 4:-0.552658 
-1 1:0.265425 2:-0.0189889 3:-0.136396 4:-0.0488481 
-1 1:0.0677869 2:-0.0134687 3:-0.553355 4:-0.677904 
-1 1:0.0185772 2:-0.102528 3:-0.143792 4:-0.0669241 
-1 1:0.182619 2:-0.00939455 3:0.268952 4:0.175014 
-1 1:0.0257602 2:-0.0976978 3:-0.20673 4:-0.319788 
-1 1:0.208026 2:0.0652094 3:-0.317541 4:-0.619 
-1 1:-0.246413 2:-0.0530361 3:-0.762794 4:-0.738162 
-1 1:0.115645 2:0.237645 3:-0.555025 4:-0.648686 
-1 1:0.135603 2:-0.0994169 3:-0.123443 4:-0.408853 
-1 1:0.0882336 2:-0.0822297 3:-0.193811 4:-0.367465 
-1 1:-0.108438 2:-0.0816065 3:-0.634807 4:-0.796488 
-1 1:-0.120527 2:0.0671594 3:-0.811732 4:-0.843336 
-1 1:-0.0347394 2:-0.023377 3:-0.556532 4:-0.479529 
-1 1:0.207346 2:-0.0631127 3:-0.0697325 4:-0.363541 
-1 1:0.0709233 2:-0.0010595 3:-0.615706 4:-0.782659 
-1 1:0.079396 2:-0.0022407 3:0.463281 4:0.165535 
-1 1:0.125692 2:0.00897337 3:0.282599 4:0.268265 
-1 1:-0.151035 2:0.100701 3:-0.779641 4:-1 
-1 1:0.298725 2:0.094314 3:-0.452875 4:-0.696087 
-1 1:0.117865 2:-0.0648449 3:-0.044447 4:-0.356299 
-1 1:-0.0922118 2:0.0632972 3:-0.567202 4:-0.72216 
-1 1:0.0537189 2:-0.0782053 3:-0.337059 4:-0.560385 
-1 1:-0.194078 2:-0.0676601 3:-0.679344 4:-0.725724 
-1 1:-0.0736232 2:0.0446159 3:-0.652227 4:-0.704674 
-1 1:0.129381 2:-0.0131223 3:-0.0240633 4:0.0748397 
-1 1:0.139826 2:-0.0546521 3:-0.404688 4:-0.614989 
-1 1:-0.0855515 2:-0.0546314 3:-0.254813 4:-0.436835 
-1 1:-0.209383 2:0.0569229 3:-0.679696 4:-0.855602 
-1 1:-0.17017 2:-0.0713396 3:-0.695433 4:-0.769524 
-1 1:0.377191 2:-0.0353743 3:0.00683468 4:-0.0600645 
-1 1:0.104168 2:0.0520453 3:-0.358612 4:-0.591556 
-1 1:-0.0120797 2:-0.00392935 3:-0.378195 4:-0.593948 
-1 1:0.051571 2:0.0486515 3:-0.0461683 4:-0.195104 
-1 1:0.0953808 2:-0.0863089 3:-0.157252 4:-0.397775 
-1 1:0.0547529 2:0.0772657 3:0.0153931 4:-0.545817 
-1 1:0.120122 2:0.0775194 3:-0.322212 4:-0.419942 
-1 1:-0.0766717 2:-0.0764479 3:-0.352934 4:-0.510949 
-1 1:0.0472833 2:0.0896355 3:-0.133536 4:-0.392747 
-1 1:-0.233426 2:-0.0260641 3:-0.64925 4:-0.8402 
-1 1:-0.101533 2:0.0703155 3:-0.927849 4:-0.918185 
-1 1:0.240553 2:0.0118639 3:0.391751 4:0.512278 
-1 1:0.145271 2:0.0870051 3:-0.221635 4:-0.371223 
-1 1:-0.0933029 2:-0.099998 3:-0.70236 4:-0.737572 
-1 1:-0.0957341 2:-0.0142521 3:-0.650796 4:-0.783505 
-1 1:0.0420071 2:0.00939697 3:-0.316954 4:-0.571409 
-1 1:-0.190944 2:0.0429354 3:-0.695527 4:-0.868358 
-1 1:0.216491 2:-0.108263 3:0.125138 4:-0.216255 
-1 1:-0.193834 2:-0.0156374 3:-0.764956 4:-0.751225 
-1 1:-0.117721 2:0.00272139 3:-0.533727 4:-0.724171 
-1 1:0.0398951 2:-0.0810879 3:-0.531698 4:-0.607105 
-1 1:0.289407 2:0.232342 3:-0.267039 4:-0.480738 
-1 1:0.457986 2:-0.022252 3:0.550263 4:0.528765 
-1 1:0.17026 2:-0.0481222 3:-0.0427498 4:-0.294423 
-1 1:0.0523363 2:-0.0368686 3:0.202092 4:-0.140899 
-1 1:0.0247278 2:0.00278039 3:-0.358477 4:-0.544933 
-1 1:0.267728 2:0.0607341 3:-0.129393 4:-0.262518 
-1 1:0.39437 2:0.201379 3:0.666911 4:0.293841 
-1 1:0.0369264 2:0.0379014 3:-0.687672 4:-0.822355 
-1 1:0.00520285 2:-0.10217 3:-0.385205 4:-0.575502 
-1 1:0.175718 2:-0.0865561 3:-0.149553 4:-0.414604 
-1 1:0.189905 2:0.0519892 3:-0.00120287 4:-0.267803 
-1 1:-0.0199174 2:0.0260353 3:-0.221287 4:-0.485042 
-1 1:0.245093 2:-0.13812 3:0.521252 4:0.419482 
-1 1:0.134271 2:0.0188221 3:-0.318072 4:-0.295498 
-1 1:0.155192 2:0.110903 3:-0.414706 4:-0.634307 
-1 1:0.276823 2:0.0810673 3:-0.0483381 4:-0.47829 
-1 1:0.0212495 2:0.0371893 3:0.00294354 4:-0.126201 
-1 1:-0.0553001 2:-0.076244 3:-0.453679 4:-0.564182 
-1 1:0.264746 2:0.0460918 3:-0.316299 4:-0.4248 
-1 1:-0.318352 2:-0.0195844 3:-0.99175 4:-1 
-1 1:0.0165303 2:-0.0481042 3:-0.209579 4:-0.537288 
-1 1:0.124546 2:0.0261161 3:0.293786 4:0.087209 
-1 1:0.0161915 2:-0.0234258 3:-0.308023 4:-0.498563 
-1 1:0.133421 2:-0.0192112 3:-0.181724 4:-0.486328 
-1 1:0.122193 2:-0.00613131 3:-0.133981 4:-0.123314 
-1 1:0.171141 2:-0.120942 3:0.0120263 4:0.00826911 
-1 1:-0.0123224 2:-0.0157958 3:-0.347701 4:-0.347684 
-1 1:0.00412646 2:0.0144899 3:-0.592522 4:-0.673806 
-1 1:-0.0942767 2:0.0258256 3:-0.569499 4:-0.65047 
-1 1:0.0959572 2:0.023369 3:-0.41572 4:-0.339153 
-1 1:0.0717424 2:0.0473591 3:-0.583608 4:-0.427981 
-1 1:0.175446 2:0.101293 3:0.0814632 4:-0.324402 
-1 1:0.236161 2:0.0177718 3:-0.110151 4:-0.132263 
-1 1:0.0673342 2:-0.0373812 3:0.090032 4:-0.383844 
-1 1:-0.0402321 2:0.0599863 3:-0.594374 4:-0.471806 
-1 1:0.0170986 2:-0.00706439 3:-0.397947 4:-0.653768 
-1 1:-0.235819 2:-0.0364171 3:-0.840348 4:-0.849561 
-1 1:-0.0488808 2:0.00690841 3:-0.386967 4:-0.525499 
-1 1:0.117189 2:0.173082 3:0.197942 4:-0.0511152 
-1 1:0.122774 2:-0.0576755 3:0.274461 4:-0.21479 
-1 1:-0.0509749 2:0.025882 3:-0.615265 4:-0.758653 
-1 1:0.0743902 2:-0.0239802 3:-0.108682 4:0.116602 
-1 1:0.0920897 2:-0.0175953 3:-0.374852 4:-0.549038 
-1 1:0.152016 2:-0.0332423 3:0.431438 4:-0.15552 
-1 1:0.0607472 2:0.0345618 3:-0.164524 4:-0.509431 
-1 1:-0.241693 2:-0.00367817 3:-0.884848 4:-1 
-1 1:0.00130601 2:0.0391061 3:-0.393756 4:-0.533434 
-1 1:0.0970043 2:0.027724 3:-0.314909 4:-0.104349 
-1 1:-0.0957651 2:0.117116 3:-0.628211 4:-0.920217 
-1 1:0.268111 2:-0.039251 3:0.0403095 4:-0.379174 
-1 1:0.0513804 2:-0.0680642 3:-0.290696 4:-0.148852 
-1 1:-0.111253 2:0.130988 3:-0.640029 4:-0.908128 
-1 1:0.234047 2:0.0503998 3:-0.295815 4:-0.374056 
-1 1:0.0172321 2:-0.0704534 3:-0.453931 4:-0.67952 
-1 1:-0.0618708 2:-0.0510008 3:-0.63283 4:-0.837566 
-1 1:0.157336 2:-0.121359 3:-0.362731 4:-0.440654 
-1 1:0.107773 2:-0.110494 3:-0.0967911 4:-0.166676 
-1 1:-0.166542 2:-0.0572541 3:-0.566243 4:-0.75212 
-1 1:-0.0195787 2:-0.0442459 3:-0.210828 4:-0.440777 
-1 1:-0.131881 2:0.0240164 3:-0.520815 4:-0.645728 
-1 1:-0.295726 2:-0.0436959 3:-0.788245 4:-0.953244 
-1 1:0.0936709 2:0.048733 3:-0.357135 4:-0.632252 
-1 1:-0.00542269 2:-0.0274928 3:-0.432047 4:-0.47022 
-1 1:0.0957569 2:-0.0226712 3:-0.383894 4:-0.56209 
-1 1:-0.0401051 2:-0.0669391 3:-0.234244 4:-0.271496 
-1 1:-0.198676 2:-0.0490591 3:-0.657364 4:-0.782735 
-1 1:-0.147221 2:-0.0709672 3:-0.656481 4:-0.685495 
-1 1:-0.113702 2:-0.0154127 3:-0.78109 4:-0.850402 
-1 1:0.22085 2:0.256773 3:0.0699174 4:0.0409687 
-1 1:0.0903163 2:-0.131715 3:0.390585 4:0.557503 
-1 1:0.199301 2:-0.0359228 3:-0.339573 4:-0.620871 
-1 1:0.017167 2:-0.0100694 3:-0.258249 4:-0.347573 
-1 1:0.319555 2:-0.0395155 3:0.246937 4:0.000460886 
-1 1:0.194808 2:0.135688 3:-0.296816 4:-0.246206 
-1 1:-0.0180414 2:0.0394241 3:-0.422922 4:-0.471666 
-1 1:-0.0577281 2:0.0520453 3:-0.585961 4:-0.718219 
-1 1:0.274763 2:-0.00122657 3:0.402141 4:0.0800086 
-1 1:0.253481 2:0.0482234 3:0.596791 4:0.48788 
-1 1:0.240847 2:-0.0225298 3:-0.120514 4:-0.128525 
-1 1:-0.0666991 2:-0.0515528 3:-0.340498 4:-0.692083 
-1 1:-0.238124 2:-0.0413764 3:-0.903012 4:-1 
-1 1:-0.0379181 2:0.109649 3:-0.198423 4:-0.587738 
-1 1:0.120509 2:-0.0893342 3:-0.0352297 4:-0.120183 
-1 1:0.180682 2:-0.0631816 3:-0.403812 4:-0.706913 
-1 1:0.0655527 2:0.0520453 3:-0.42128 4:-0.620249 
-1 1:-0.00620923 2:-0.0751012 3:0.0546702 4:-0.311566 
-1 1:0.19894 2:-0.0047982 3:0.277831 4:0.460063 
-1 1:-0.0476529 2:-0.0673097 3:-0.601842 4:-0.746548 
-1 1:-0.112313 2:-0.0961367 3:-0.779176 4:-0.803763 
-1 1:-0.150405 2:0.0471952 3:-0.635962 4:-0.706456 
-1 1:0.223312 2:-0.0193598 3:-0.260516 4:-0.482667 
-1 1:-0.15513 2:-0.0205146 3:-0.500452 4:-0.599365 
-1 1:0.127311 2:-0.125406 3:-0.283007 4:-0.544339 
-1 1:0.0386949 2:-0.00687591 3:-0.536086 4:-0.458522 
-1 1:-0.193123 2:-0.0432929 3:-0.822074 4:-0.84816 
-1 1:-0.00904434 2:-0.0488713 3:-0.322981 4:-0.259908 
-1 1:0.0587247 2:-0.0699181 3:-0.315854 4:-0.41893 
-1 1:0.045378 2:-0.106184 3:-0.359098 4:-0.553357 
-1 1:-0.123359 2:-0.0850358 3:-0.718328 4:-0.683767 
-1 1:-0.136669 2:-0.0237053 3:-0.521198 4:-0.610943 
-1 1:-0.0311666 2:0.0521679 3:-0.430663 4:-0.391358 
-1 1:0.290674 2:0.0712766 3:0.485266 4:0.422877 
-1 1:0.0330149 2:0.0543625 3:-0.356004 4:-0.427546 
-1 1:-0.0822491 2:-0.037793 3:-0.453551 4:-0.658237 
-1 1:-0.0411131 2:-0.0115133 3:-0.522064 4:-0.559216 
-1 1:0.217277 2:0.00983305 3:-0.266963 4:-0.299319 
-1 1:0.3323 2:0.0520453 3:0.0919465 4:0.0827471 
-1 1:0.296092 2:-0.0534642 3:0.36494 4:0.200532 
-1 1:0.194893 2:0.11626 3:0.237654 4:0.0222567 
-1 1:0.0228551 2:0.0306797 3:-0.340425 4:-0.74155 
-1 1:-0.0995072 2:-0.0329562 3:-0.50118 4:-0.59436 
-1 1:-0.00100149 2:-0.0970912 3:-0.481817 4:-0.729207 
-1 1:0.1914 2:0.00117024 3:-0.120686 4:-0.42674 
-1 1:-0.0327023 2:-0.0566418 3:-0.131335 4:-0.368237 
-1 1:0.130562 2:0.0248953 3:-0.27716 4:-0.286832 
-1 1:0.0642255 2:0.0459949 3:-0.270126 4:-0.35207 
-1 1:0.125609 2:-0.0407202 3:0.174036 4:-0.214788 
-1 1:-0.102261 2:-0.0540022 3:-0.377719 4:-0.825561 
-1 1:0.410066 2:0.0336892 3:0.210875 4:0.215012 
-1 1:0.168312 2:0.041369 3:0.178542 4:0.165301 
-1 1:-0.0902903 2:0.0508241 3:-0.290741 4:-0.182885 
-1 1:-0.239815 2:0.0268207 3:-0.860354 4:-0.834605 
-1 1:-0.0639829 2:-0.0176901 3:-0.234078 4:-0.319175 
-1 1:-0.00291327 2:0.0178681 3:-0.342806 4:-0.666371 
-1 1:0.0665526 2:0.136448 3:-0.365028 4:-0.719862 
-1 1:-0.156702 2:0.0394577 3:-0.559509 4:-0.604377 
-1 1:0.180046 2:-0.0708525 3:-0.260067 4:-0.502578 
-1 1:0.102911 2:0.0544862 3:-0.106329 4:-0.365663 
-1 1:-0.0376511 2:0.0720248 3:-0.242436 4:-0.352514 
-1 1:-0.0891927 2:-0.0218951 3:-0.341364 4:-0.653558 
-1 1:-0.142958 2:-0.0703109 3:-0.399596 4:-0.763344 
-1 1:0.154443 2:0.00261294 3:-0.380713 4:-0.508869 
-1 1:0.115077 2:0.041365 3:0.00454415 4:-0.290949 
-1 1:0.141252 2:0.0212006 3:-0.0824373 4:-0.119762 
-1 1:0.120208 2:-0.0134513 3:-0.520836 4:-0.680939 
-1 1:0.43197 2:0.0728724 3:0.00736936 4:0.065972 
-1 1:0.416878 2:-0.00807584 3:0.00944947 4:-0.15343 
-1 1:-0.0306765 2:-0.0539582 3:-0.5714 4:-0.581496 
-1 1:0.171191 2:-0.0769819 3:-0.00549417 4:-0.225988 
-1 1:-0.110169 2:-0.045069 3:-0.617376 4:-0.892298 
-1 1:0.125642 2:-0.0916344 3:-0.238276 4:-0.568949 
-1 1:-0.18107 2:0.0520453 3:-0.53789 4:-0.78654 
-1 1:0.221199 2:0.0251438 3:0.0188255 4:-0.149282 
-1 1:0.0653687 2:0.0520453 3:-0.420904 4:-0.56419 
-1 1:0.106755 2:-0.0179238 3:-0.437959 4:-0.580161 
-1 1:-0.27426 2:0.0272564 3:-0.83652 4:-0.916959 
-1 1:0.181359 2:0.264752 3:-0.444272 4:-0.592117 
-1 1:-0.0382047 2:-0.0597343 3:-0.568012 4:-0.614906 
-1 1:-0.105609 2:-0.0446873 3:-0.319148 4:-0.486941 
-1 1:0.0872842 2:-0.0155468 3:-0.0215037 4:-0.240992 
-1 1:0.0966966 2:-0.0565411 3:-0.288858 4:-0.541884 
-1 1:-0.10633 2:0.0706003 3:-0.608376 4:-0.516366 
-1 1:0.155236 2:0.0840263 3:0.00252269 4:-0.198134 
-1 1:0.238994 2:-0.0504115 3:-0.0853074 4:-0.170606 
-1 1:-0.0883638 2:0.0436177 3:-0.25225 4:-0.383048 
-1 1:-0.0674775 2:-0.0845172 3:-0.662949 4:-0.816034 
-1 1:-0.135133 2:0.0132005 3:-0.565025 4:-0.793353 
-1 1:-0.102956 2:-0.104349 3:-0.821442 4:-0.83331 
-1 1:-0.059008 2:0.0213268 3:-0.658561 4:-0.696462 
-1 1:0.182292 2:-0.0999165 3:-0.00364518 4:0.114409 
-1 1:0.0242002 2:-0.00530399 3:-0.337469 4:-0.518051 
-1 1:0.0251203 2:-0.0522338 3:-0.186343 4:-0.136577 
-1 1:0.170957 2:0.0520453 3:-0.520787 4:-0.66804 
-1 1:0.0196992 2:0.0712058 3:-0.280527 4:-0.55175 
-1 1:0.0883736 2:-0.0672364 3:-0.225043 4:-0.328444 
-1 1:-0.205918 2:-0.0488406 3:-0.644793 4:-0.834025 
-1 1:-0.265005 2:0.0182086 3:-0.828195 4:-0.952866 
-1 1:-0.130897 2:-0.0911757 3:-0.801077 4:-0.841699 
-1 1:-0.235033 2:-0.0486182 3:-0.672856 4:-0.768834 
-1 1:-0.0585928 2:0.104567 3:-0.700787 4:-0.860816 
-1 1:0.0315021 2:-0.0426234 3:-0.592322 4:-0.787939 
-1 1:-0.213237 2:-0.0560678 3:-0.852265 4:-0.854185 
-1 1:0.218539 2:0.0244695 3:0.0746675 4:-0.420124 
-1 1:-0.154613 2:-0.0663684 3:-0.794778 4:-0.862955 
-1 1:0.0605681 2:0.184564 3:-0.390155 4:-0.568685 
-1 1:0.181994 2:0.103043 3:-0.0523776 4:-0.0560822 
-1 1:0.0459545 2:-0.0374934 3:-0.402387 4:-0.54433 
-1 1:0.000425022 2:-0.0488374 3:-0.138034 4:-0.260126 
-1 1:0.164676 2:-0.0609996 3:0.0822014 4:-0.283602 
-1 1:-0.114507 2:-0.00695581 3:-0.810066 4:-0.751543 
-1 1:-0.0137245 2:-0.010963 3:-0.411746 4:-0.605504 
-1 1:-0.170386 2:-0.0042083 3:-0.571993 4:-0.798546 
-1 1:-0.091212 2:-0.0432066 3:-0.165217 4:-0.385468 
-1 1:-0.169344 2:0.0353627 3:-0.821759 4:-0.945839 
-1 1:0.104051 2:-0.0822832 3:-0.101555 4:-0.523559 
-1 1:0.0319564 2:-0.0258824 3:-0.0263849 4:-0.100875 
-1 1:-0.00724329 2:0.00514814 3:-0.549547 4:-0.704769 
-1 1:-0.0456646 2:0.0127218 3:-0.431191 4:-0.640607 
-1 1:0.209051 2:0.0451927 3:-0.102607 4:-0.537975 
-1 1:0.0275613 2:-0.0873845 3:-0.154565 4:-0.16314 
-1 1:0.104357 2:0.0803044 3:-0.305281 4:-0.431831 
-1 1:-0.0455034 2:-0.0675833 3:-0.440567 4:-0.600789 
-1 1:0.155921 2:-0.12373 3:-0.511774 4:-0.684335 
-1 1:0.195056 2:-0.0308369 3:-0.0026793 4:0.0256229 
-1 1:0.215134 2:0.118011 3:0.365951 4:0.196192 
-1 1:0.0280938 2:0.166434 3:-0.0247981 4:-0.182765 
-1 1:-0.264599 2:-0.0151906 3:-0.592456 4:-0.843085 
-1 1:0.13352 2:-0.0762797 3:-0.428732 4:-0.625934 
-1 1:0.0687461 2:0.0785863 3:-0.201386 4:-0.302151 
-1 1:0.108768 2:0.0935424 3:-0.075614 4:-0.46581 
-1 1:0.418614 2:0.0520453 3:-0.0542921 4:-0.429875 
-1 1:0.0545998 2:0.0542149 3:-0.157049 4:-0.140206 
-1 1:-0.0685995 2:0.0338673 3:-0.723951 4:-0.766794 
-1 1:-0.094547 2:0.106388 3:-0.676164 4:-0.896378 
-1 1:0.0485437 2:0.0134643 3:-0.189478 4:-0.590557 
-1 1:-0.00688829 2:0.066158 3:-0.582394 4:-0.71565 
-1 1:-0.0612634 2:0.0576805 3:-0.491459 4:-0.658178 
-1 1:-0.0845386 2:0.080185 3:-0.544341 4:-0.631019 
-1 1:-0.0814072 2:-0.0704736 3:-0.401328 4:-0.49929 
-1 1:0.207149 2:0.0387307 3:-0.290693 4:-0.392013 
-1 1:-0.209931 2:-0.0528761 3:-0.76408 4:-0.733165 
-1 1:0.208217 2:0.0595614 3:-0.0541817 4:-0.195998 
-1 1:-0.0403641 2:-0.0694044 3:-0.282483 4:-0.445093 
-1 1:0.00027032 2:0.0780341 3:-0.0255328 4:-0.0603737 
-1 1:-0.293452 2:-0.0353035 3:-0.675857 4:-0.918915 
-1 1:0.086882 2:-0.0221951 3:-0.202431 4:-0.171686 
-1 1:-0.13352 2:-0.0430642 3:-0.666333 4:-0.890534 
-1 1:0.275053 2:-0.0654652 3:0.214276 4:-0.067322 
-1 1:0.201807 2:-0.0397635 3:0.63869 4:0.365506 
-1 1:-0.0655006 2:-0.0835588 3:-0.605985 4:-0.7525 
-1 1:-0.069658 2:-0.0847402 3:-0.582977 4:-0.636002 
-1 1:0.0998004 2:0.0944759 3:-0.423009 4:-0.532377 
-1 1:0.324445 2:-0.0125787 3:0.413283 4:0.631991 
-1 1:0.176373 2:0.0022579 3:-0.326976 4:-0.593798 
-1 1:-0.138478 2:-0.00979138 3:-0.782429 4:-0.841508 
-1 1:0.120652 2:-0.0276242 3:0.205214 4:-0.293645 
-1 1:0.116777 2:0.0481667 3:-0.499597 4:-0.643089 
-1 1:-0.18488 2:0.0230276 3:-0.723968 4:-0.802092 
-1 1:0.189706 2:0.079053 3:-0.0180541 4:-0.128825 
-1 1:0.148287 2:0.00166724 3:-0.423761 4:-0.512825 
-1 1:0.136154 2:-0.13412 3:-0.439277 4:-0.516392 
-1 1:-0.265164 2:0.0107497 3:-0.915708 4:-0.951208 
-1 1:-0.246449 2:0.0169513 3:-0.855933 4:-1 
-1 1:-0.0233371 2:0.00313606 3:-0.391642 4:-0.266243 
-1 1:-0.0332934 2:-0.0621934 3:-0.663966 4:-0.783388 
-1 1:-0.0483711 2:0.0717272 3:-0.669061 4:-0.785465 
-1 1:-0.0862225 2:-0.00494157 3:-0.204008 4:-0.194639 
-1 1:0.122162 2:-0.0361092 3:-0.306775 4:-0.255961 
-1 1:-0.0214937 2:0.00675128 3:-0.0385482 4:-0.193986 
-1 1:-0.0374345 2:0.044033 3:-0.138759 4:-0.541159 
-1 1:0.100185 2:-0.113736 3:0.0478745 4:-0.194013 
-1 1:0.391486 2:0.418203 3:-0.323643 4:-0.39013 
-1 1:-0.065411 2:-0.0756285 3:0.139323 4:-0.455123 
-1 1:-0.0719525 2:-0.051004 3:-0.243078 4:-0.337281 
-1 1:-0.0469381 2:0.0387349 3:-0.638132 4:-0.566982 
-1 1:0.0368271 2:0.276369 3:-0.80272 4:-0.80754 
-1 1:-0.0299095 2:-0.0119931 3:-0.598441 4:-0.715056 
-1 1:-0.0570311 2:0.181489 3:-0.601053 4:-0.761648 
-1 1:0.111113 2:-0.000212053 3:-0.158387 4:-0.201373 
-1 1:0.0897415 2:0.0730305 3:-0.487692 4:-0.605077 
-1 1:0.0431943 2:0.0147686 3:-0.683591 4:-0.818973 
-1 1:-0.0299828 2:-0.0789164 3:-0.391034 4:-0.50888 
-1 1:-0.0804545 2:0.0215609 3:-0.462748 4:-0.923283 
-1 1:0.149015 2:-0.0489293 3:-0.301321 4:-0.370276 
-1 1:0.32415 2:-0.134467 3:-0.176797 4:-0.274308 
-1 1:0.0795833 2:-0.0853493 3:-0.366563 4:-0.517414 
-1 1:-0.245724 2:-0.0162888 3:-0.831294 4:-1 
-1 1:-0.0323245 2:0.0878275 3:-0.493129 4:-0.644649 
-1 1:-0.0713972 2:-0.0025821 3:-0.583915 4:-0.662109 
-1 1:0.0240292 2:-0.112268 3:-0.41989 4:-0.590433 
-1 1:-0.115673 2:-0.0314209 3:-0.471593 4:-0.704079 
-1 1:0.12267 2:-0.101711 3:-0.338728 4:-0.431561 
-1 1:-0.124711 2:-0.0765397 3:-0.383214 4:-0.57731 
-1 1:0.332002 2:-0.0320428 3:0.271294 4:0.152902 
-1 1:0.119301 2:0.0454807 3:-0.434089 4:-0.398132 
-1 1:0.0273919 2:-0.0813007 3:-0.125012 4:-0.261237 
-1 1:0.10102 2:-0.049899 3:-0.122397 4:-0.17176 
-1 1:0.0524324 2:-0.0755317 3:-0.340274 4:-0.536131 
-1 1:0.00419811 2:-0.08277 3:-0.606127 4:-0.775918 
-1 1:0.0951789 2:0.0466847 3:-0.000778573 4:-0.18199 
-1 1:-0.192234 2:-0.00934396 3:-0.591832 4:-0.790376 
-1 1:-0.184988 2:0.0327388 3:-0.653007 4:-0.915722 
-1 1:0.158133 2:0.067523 3:-0.371679 4:-0.42393 
-1 1:0.0423768 2:-0.0576011 3:-0.129807 4:-0.350309 
-1 1:-0.0567885 2:-0.0463524 3:-0.462762 4:-0.391361 
-1 1:-0.0747208 2:-0.0183968 3:-0.433509 4:-0.467928 
-1 1:0.0657823 2:-0.00628741 3:-0.314467 4:-0.621811 
-1 1:0.117228 2:0.075224 3:-0.0398625 4:-0.167332 
-1 1:-0.00441632 2:0.0262001 3:-0.621129 4:-0.935917 
-1 1:0.163254 2:0.00113851 3:0.313638 4:0.394839 
-1 1:-0.187752 2:0.0510769 3:-0.867499 4:-0.893038 
-1 1:0.19396 2:-0.0294092 3:0.116411 4:-0.218998 
-1 1:0.12708 2:0.0180983 3:-0.536776 4:-0.805051 
-1 1:0.125772 2:-0.0563776 3:-0.382245 4:-0.353915 
-1 1:0.255375 2:-0.0684833 3:-0.0934691 4:0.00483755 
-1 1:-0.0220702 2:-0.0943284 3:-0.34442 4:-0.448224 
-1 1:-0.124914 2:-0.0435684 3:-0.745339 4:-0.848479 
-1 1:0.0472654 2:-0.100677 3:0.243677 4:-0.14636 
-1 1:-0.0486772 2:-0.0810789 3:-0.509159 4:-0.643555 
-1 1:-0.0515677 2:-0.101355 3:-0.501853 4:-0.640881 
-1 1:0.0298916 2:0.0833356 3:-0.672542 4:-0.79323 
-1 1:0.0825552 2:-0.0377001 3:-0.230432 4:-0.382925 
-1 1:0.254489 2:-0.0773515 3:0.443391 4:0.511099 
-1 1:0.189241 2:0.0326689 3:0.0742259 4:0.12729 
-1 1:-0.0928258 2:0.040553 3:-0.378512 4:-0.409954 
-1 1:-0.0365942 2:-0.029369 3:-0.368898 4:-0.45861 
-1 1:0.10308 2:-0.0956818 3:-0.0270679 4:-0.214681 
-1 1:-0.0901519 2:0.102826 3:-0.648605 4:-0.714398 
-1 1:-0.0101207 2:-0.0869129 3:-0.52789 4:-0.615221 
-1 1:-0.227932 2:0.0269553 3:-0.676995 4:-0.939515 
-1 1:-0.0759258 2:0.0302894 3:-0.445814 4:-0.58901 
-1 1:0.392414 2:0.0514941 3:-0.357028 4:-0.365201 
-1 1:0.155695 2:-0.0760529 3:-0.0330357 4:0.029065 
-1 1:0.212905 2:0.10607 3:-0.543382 4:-0.793622 
-1 1:-0.0379979 2:0.00549132 3:-0.481566 4:-0.452 
-1 1:0.0415707 2:0.0315966 3:-0.6543 4:-0.698715 
-1 1:-0.0886114 2:0.0982152 3:-0.343233 4:-0.562753 
-1 1:0.181856 2:0.0520453 3:-0.373893 4:-0.404161 
-1 1:0.194636 2:0.0680072 3:-0.37548 4:-0.525677 
-1 1:0.0194728 2:-0.100694 3:-0.537311 4:-0.565234 
-1 1:-0.0242328 2:0.0591089 3:-0.52562 4:-0.777195 
-1 1:0.0962324 2:0.0824652 3:-0.508227 4:-0.629823 
-1 1:0.220432 2:-0.0856004 3:0.17354 4:-0.126629 
-1 1:-0.0155353 2:-0.0867435 3:-0.50552 4:-0.709008 
-1 1:0.0759584 2:0.0266679 3:-0.534969 4:-0.662892 
-1 1:0.0435346 2:-0.0899115 3:-0.479541 4:-0.667249 
-1 1:0.211941 2:-0.0234614 3:0.0523003 4:-0.276255 
-1 1:0.0330328 2:-0.0153134 3:-0.308955 4:-0.542613 
-1 1:0.0259068 2:0.0959439 3:-0.368864 4:-0.564474 
-1 1:0.131057 2:0.0520453 3:-0.291117 4:-0.393825 
-1 1:0.208235 2:0.0422263 3:0.417464 4:0.573885 
-1 1:-0.0502389 2:-0.0862019 3:-0.402418 4:-0.493312 
-1 1:-0.101367 2:-0.0874622 3:-0.57525 4:-0.734954 
-1 1:0.0452901 2:0.0152074 3:-0.550764 4:-0.731752 
-1 1:0.20906 2:-0.117125 3:-0.0141871 4:-0.49207 
-1 1:0.0784157 2:0.152593 3:-0.684681 4:-0.482681 
-1 1:0.207256 2:-0.0824667 3:0.00687607 4:-0.0754523 
-1 1:0.00424208 2:0.0232885 3:-0.262054 4:-0.205039 
-1 1:-0.115135 2:0.0267894 3:-0.586964 4:-0.578515 
-1 1:-0.24561 2:-0.0257338 3:-0.913574 4:-0.960267 
-1 1:-0.289925 2:-0.0159748 3:-0.888376 4:-0.864056 
-1 1:0.248879 2:0.0458904 3:-0.0966566 4:-0.105852 
-1 1:0.121283 2:0.0393547 3:-0.19298 4:-0.657314 
-1 1:0.0152389 2:0.091718 3:-0.357146 4:-0.655602 
-1 1:-0.0827132 2:-0.0277 3:-0.192021 4:-0.380435 
-1 1:0.164798 2:-0.0504725 3:0.0559224 4:-0.222176 
-1 1:-0.0189534 2:0.0105236 3:-0.631371 4:-0.731294 
-1 1:0.14938 2:0.108705 3:-0.15552 4:-0.470882 
-1 1:0.156336 2:0.0831876 3:-0.120559 4:-0.404842 
-1 1:-0.00559531 2:-0.0969077 3:-0.28004 4:-0.506948 
-1 1:0.105829 2:-0.0356706 3:0.514853 4:-0.0676802 
-1 1:-0.0305234 2:0.115594 3:-0.67367 4:-0.825656 
-1 1:0.029973 2:-0.0413597 3:-0.0885121 4:-0.207242 
-1 1:0.26892 2:0.18572 3:-0.00332437 4:-0.0514419 
-1 1:0.0960468 2:-0.0778039 3:-0.0890054 4:-0.0284769 
-1 1:0.21214 2:0.0527229 3:-0.296471 4:-0.295786 
-1 1:0.000623691 2:0.0520453 3:-0.59414 4:-0.57236 
-1 1:-0.0946024 2:-0.00107632 3:-0.603257 4:-0.879205 
-1 1:0.0246741 2:0.189223 3:-0.647436 4:-0.737409 
-1 1:-0.113082 2:0.0520453 3:-0.660662 4:-0.75551 
-1 1:-0.323059 2:-0.0392941 3:-0.721592 4:-1 
-1 1:-0.0170497 2:0.0520453 3:-0.35915 4:-0.505438 
-1 1:-0.0547383 2:0.0101413 3:-0.706793 4:-0.81289 
-1 1:-0.167069 2:0.0520453 3:-0.720205 4:-1 
-1 1:-0.0683471 2:0.0298537 3:-0.543182 4:-0.750648 
-1 1:0.229095 2:0.0378888 3:-0.301659 4:-0.493743 
-1 1:-0.0564774 2:0.0908883 3:-0.684774 4:-0.799877 
-1 1:0.0469543 2:-0.0760121 3:-0.638522 4:-0.765635 
-1 1:0.0313669 2:-0.0205871 3:-0.535186 4:-0.599224 
-1 1:0.207368 2:-0.0827369 3:-0.108799 4:-0.264189 
-1 1:-0.317337 2:-0.025062 3:-0.797348 4:-0.88445 
-1 1:-0.00402875 2:-0.0749591 3:-0.642665 4:-0.690741 
-1 1:0.185671 2:0.0520453 3:0.240572 4:-0.106105 
-1 1:-0.247696 2:-0.0480521 3:-0.85794 4:-0.941363 
-1 1:-0.13291 2:0.0899104 3:-0.765781 4:-0.956229 
-1 1:0.223579 2:-0.0449644 3:-0.12841 4:-0.189873 
-1 1:-0.0825357 2:0.00870958 3:-0.219328 4:-0.487708 
-1 1:0.146655 2:-0.0249026 3:0.0915877 4:0.349859 
-1 1:0.268884 2:0.206004 3:-0.236348 4:-0.534072 
-1 1:0.129905 2:0.0645625 3:-0.163358 4:-0.306206 
-1 1:0.0550607 2:0.0466302 3:-0.0915719 4:-0.390461 
-1 1:0.236387 2:0.0621478 3:-0.0670004 4:-0.457111 
-1 1:0.0471823 2:-0.0159937 3:-0.167535 4:-0.430318 
-1 1:-0.290273 2:-0.0422701 3:-0.713275 4:-1 
-1 1:0.203323 2:0.0520453 3:-0.200503 4:-0.477102 
-1 1:0.121976 2:-0.0366963 3:-0.421405 4:-0.580891 
-1 1:-0.0673261 2:-0.0325607 3:-0.485915 4:-0.797453 
-1 1:0.0134949 2:-0.0375457 3:-0.166742 4:-0.229098 
-1 1:-0.130548 2:-0.0931815 3:-0.812759 4:-0.902219 
-1 1:-0.232312 2:-0.0294925 3:-0.768134 4:-0.910974 
-1 1:0.202463 2:-0.00268405 3:-0.375836 4:-0.663889 
-1 1:-0.0421798 2:0.0297538 3:-0.409748 4:-0.630487 
-1 1:0.198977 2:-0.0166152 3:0.0703727 4:-0.0623946 
-1 1:-0.266718 2:-0.0558872 3:-0.768723 4:-0.928505 
-1 1:0.0132799 2:-0.0252204 3:-0.821034 4:-0.801765 
-1 1:0.312438 2:0.0800908 3:0.0552773 4:-0.117638 
-1 1:0.107314 2:0.152624 3:-0.385657 4:-0.728731 
-1 1:0.0595926 2:-0.0225798 3:-0.361292 4:-0.561611 
-1 1:0.0265924 2:0.0520453 3:0.116625 4:-0.246131 
-1 1:-0.158264 2:0.0266289 3:-0.565197 4:-0.800246 
-1 1:0.488596 2:-0.16605 3:0.492089 4:0.476562 
-1 1:0.214346 2:0.0520453 3:0.145588 4:-0.033633 
-1 1:0.0581563 2:-0.00804004 3:-0.264552 4:-0.306776 
-1 1:0.26745 2:-0.0491901 3:0.269825 4:0.467041 
-1 1:-0.189835 2:0.00997247 3:-0.558095 4:-0.745069 
-1 1:-0.0238419 2:-0.0693735 3:0.256937 4:0.261182 
-1 1:0.0752712 2:-0.00318907 3:-0.522409 4:-0.702033 
-1 1:-0.173907 2:0.0520453 3:-0.515513 4:-0.842139 
-1 1:0.0823793 2:0.0371931 3:-0.107957 4:-0.0564988 
-1 1:0.0190494 2:-0.00262747 3:-0.427307 4:-0.465204 
-1 1:0.056326 2:0.0840264 3:-0.417641 4:-0.682742 
-1 1:0.0259101 2:0.023881 3:-0.0384964 4:-0.0411834 
-1 1:-0.0644812 2:-0.0407527 3:-0.579279 4:-0.657724 
-1 1:-0.115012 2:0.0072191 3:-0.509387 4:-0.641776 
-1 1:-0.236805 2:0.0471702 3:-0.821288 4:-0.929176 
-1 1:-0.111059 2:-0.0292962 3:-0.542682 4:-0.579279 
-1 1:0.238971 2:-0.0712456 3:-0.0279441 4:0.0921574 
-1 1:0.22264 2:0.0520453 3:-0.0266643 4:-0.345193 
-1 1:0.0189973 2:0.0181472 3:-0.351926 4:-0.53504 
-1 1:0.182053 2:-0.103768 3:0.253926 4:0.097842 
-1 1:0.0361008 2:-0.1186 3:-0.443158 4:-0.482187 
-1 1:0.15301 2:0.00452103 3:-0.27814 4:-0.618076 
-1 1:0.367904 2:0.0862745 3:0.185341 4:0.0535748 
-1 1:0.247083 2:0.0148417 3:0.191433 4:0.21213 
-1 1:0.0467964 2:-0.0444177 3:-0.263175 4:-0.359378 
-1 1:0.154184 2:0.0777903 3:-0.0536332 4:-0.174875 
-1 1:0.126994 2:0.03789 3:-0.255127 4:-0.239571 
-1 1:0.213271 2:0.131018 3:0.3684 4:-0.15253 
-1 1:0.235755 2:-0.165771 3:0.581306 4:0.640042 
-1 1:-0.0271737 2:-0.026908 3:-0.0778356 4:-0.434351 
-1 1:-0.0815472 2:-0.0723481 3:-0.750979 4:-0.752949 
-1 1:0.250015 2:0.00397586 3:0.146736 4:0.137829 
-1 1:0.00785558 2:0.0864112 3:-0.129097 4:-0.375315 
-1 1:-0.183559 2:0.0185048 3:-0.700615 4:-0.832466 
-1 1:0.0163332 2:0.0285558 3:0.0536043 4:-0.341289 
-1 1:0.166019 2:-0.0883428 3:0.231296 4:0.00910104 
-1 1:-0.19496 2:0.0397295 3:-0.741275 4:-0.713483 
-1 1:-0.0506949 2:-0.0413358 3:-0.497292 4:-0.913051 
-1 1:0.0428442 2:-0.0183503 3:-0.488837 4:-0.65963 
-1 1:0.0640252 2:-0.0394869 3:-0.204039 4:-0.231208 
-1 1:0.0874601 2:0.146556 3:-0.248942 4:-0.535392 
-1 1:-0.0619115 2:0.00619961 3:-0.673894 4:-0.798264 
-1 1:0.15315 2:-0.0850664 3:-0.140263 4:-0.387385 
-1 1:-0.155146 2:-0.0729479 3:-0.732968 4:-0.896912 
-1 1:0.325407 2:0.0984358 3:0.246185 4:-0.29403 
-1 1:0.179652 2:-0.0350483 3:-0.0761556 4:-0.25904 
-1 1:0.286693 2:0.0108659 3:0.0766613 4:0.0661552 
-1 1:0.105708 2:0.00621044 3:0.257582 4:-0.0554043 
-1 1:0.102601 2:-0.0544527 3:0.0625628 4:0.367046 
-1 1:0.241212 2:-0.12899 3:0.141948 4:0.042139 
-1 1:0.35587 2:-0.099148 3:0.33902 4:0.606788 
-1 1:-0.208807 2:0.0238183 3:-0.783481 4:-0.932281 
-1 1:-0.202671 2:0.00454269 3:-0.780004 4:-0.918427 
-1 1:0.0972958 2:-0.0839411 3:-0.314688 4:-0.446732 
-1 1:-0.0877906 2:-0.0560088 3:-0.492632 4:-0.670567 
-1 1:-0.0998264 2:0.0323401 3:-0.702581 4:-0.695444 
-1 1:0.162182 2:0.000566451 3:-0.295564 4:-0.42148 
-1 1:-0.0483825 2:0.029728 3:-0.320194 4:-0.188202 
-1 1:0.207704 2:0.139784 3:0.227222 4:-0.214571 
-1 1:0.014853 2:-0.0741811 3:0.330227 4:-0.0999854 
-1 1:0.26691 2:-0.121002 3:-0.154993 4:-0.276641 
-1 1:0.294898 2:-0.132681 3:-0.239252 4:-0.290743 
-1 1:0.345675 2:-0.100797 3:-0.174952 4:-0.376665 
-1 1:-0.251961 2:0.00879407 3:-0.831781 4:-0.832157 
-1 1:0.143959 2:-0.0765996 3:-0.428111 4:-0.652799 
-1 1:0.0403999 2:0.00967822 3:-0.0131661 4:-0.359638 
-1 1:0.105887 2:-0.115689 3:-0.331025 4:-0.468831 
-1 1:-0.0339659 2:-0.0210351 3:-0.4187 4:-0.629145 
-1 1:-0.178272 2:0.0747838 3:-0.838927 4:-0.903351 
-1 1:0.120628 2:0.0213215 3:-0.426827 4:-0.679298 
-1 1:0.064846 2:0.0520453 3:-0.469012 4:-0.480561 
-1 1:-0.103249 2:0.0170383 3:-0.598931 4:-1 
-1 1:-0.219222 2:0.002008 3:-0.721964 4:-0.923388 
-1 1:0.085374 2:-0.120499 3:-0.378219 4:-0.442362 
-1 1:-0.203562 2:-0.0217488 3:-0.787713 4:-0.872652 
-1 1:0.0281524 2:0.0544575 3:-0.462579 4:-0.713223 
-1 1:0.337085 2:-0.014508 3:0.323456 4:-0.237263 
-1 1:-0.0619962 2:-0.0993443 3:-0.691873 4:-0.728469 
-1 1:0.0566338 2:-0.0277845 3:-0.469968 4:-0.564527 
-1 1:0.161761 2:-0.0945489 3:-0.103994 4:-0.245452 
-1 1:0.203071 2:0.0740399 3:-0.41612 4:-0.58202 
-1 1:0.0360047 2:0.00587937 3:-0.249718 4:-0.340573 
-1 1:0.231438 2:-0.101605 3:-0.131884 4:-0.35519 
-1 1:0.014739 2:0.013035 3:-0.593977 4:-0.668912 
-1 1:-0.000153073 2:-0.0237533 3:-0.358208 4:-0.392283 
-1 1:0.292596 2:0.0181905 3:-0.161761 4:-0.339253 
-1 1:-0.0673977 2:-0.0796338 3:-0.356635 4:-0.56743 
-1 1:-0.275196 2:-0.0432658 3:-0.734228 4:-1 
-1 1:0.00655608 2:-0.0562548 3:-0.37083 4:-0.453026 
-1 1:0.0336142 2:0.0412752 3:-0.399244 4:-0.349838 
-1 1:-0.0338487 2:0.0520453 3:-0.29871 4:-0.424213 
-1 1:0.0695701 2:0.0705464 3:-0.461023 4:-0.639202 
-1 1:-0.0583518 2:0.0235283 3:-0.660127 4:-0.736128 
-1 1:0.168898 2:0.162939 3:-0.60742 4:-0.799533 
-1 1:0.327773 2:-0.0545251 3:0.323883 4:0.373965 
-0.4432031640997761 1:0.237078 2:-0.134876 3:0.430659 4:0.0607366 
-1 1:-0.167384 2:-0.0739408 3:-0.662876 4:-0.874191 
-1 1:-0.0406083 2:-0.0608163 3:-0.576895 4:-0.702751 
-1 1:0.111874 2:0.0617331 3:0.0364529 4:-0.128672 
-1 1:0.101004 2:0.0590364 3:-0.384232 4:-0.554873 
-1 1:0.250258 2:0.0681679 3:0.177745 4:0.0229183 
-1 1:-0.268863 2:-0.0605802 3:-0.87296 4:-1 
-1 1:0.014809 2:0.0306337 3:-0.151415 4:-0.494532 
-1 1:-0.00997254 2:0.0831137 3:-0.456677 4:-0.557072 
-1 1:-0.0392421 2:0.00553962 3:-0.470951 4:-0.60886 
-1 1:0.179037 2:0.0018496 3:-0.501715 4:-0.673091 
-1 1:-0.0650837 2:0.0459875 3:-0.572838 4:-0.832703 
-1 1:0.350091 2:-0.0664211 3:0.119267 4:-0.263435 
-1 1:0.122833 2:0.0733542 3:-0.154068 4:-0.465455 
-1 1:0.128725 2:-0.0273126 3:-0.265473 4:-0.427955 
-1 1:-0.0512892 2:0.0520501 3:-0.361164 4:-0.619708 
-1 1:0.153988 2:-0.0302505 3:-0.402491 4:-0.502671 
-1 1:0.114544 2:-0.0559385 3:-0.24948 4:-0.540419 
-1 1:0.143475 2:0.0520453 3:-0.31148 4:-0.239496 
-1 1:0.226307 2:0.100113 3:-0.038831 4:-0.102564 
-1 1:0.0193572 2:-0.0721466 3:-0.0854074 4:-0.24324 
-1 1:0.0660868 2:0.154349 3:-0.0511047 4:-0.256957 
-1 1:0.170155 2:-0.0954397 3:-0.287267 4:-0.548574 
-1 1:-0.066038 2:0.0571953 3:-0.788158 4:-0.803563 
-1 1:0.539599 2:-0.0482341 3:0.00189141 4:-0.130994 
-1 1:-0.104984 2:-0.0820717 3:-0.405519 4:-0.487078 
-1 1:-0.225917 2:-0.070196 3:-0.535158 4:-0.632401 
-1 1:0.374114 2:0.0471565 3:-0.40158 4:-0.18272 
-1 1:0.171694 2:0.0648671 3:-0.108268 4:-0.120998 
-1 1:-0.0814511 2:-0.0453337 3:-0.673684 4:-0.803399 
-1 1:0.106576 2:-0.051286 3:0.099232 4:-0.237679 
-1 1:-0.014156 2:-0.103538 3:-0.579872 4:-0.865228 
-1 1:0.114972 2:-0.0386472 3:-0.380579 4:-0.594132 
-1 1:0.147343 2:0.113526 3:-0.338107 4:-0.534511 
-1 1:-0.0454643 2:0.0244233 3:-0.481628 4:-0.482885 
-1 1:-0.134351 2:0.0133008 3:-0.753873 4:-0.948278 
-1 1:-0.266765 2:0.0158246 3:-0.916983 4:-0.895017 
-1 1:-0.125605 2:-0.0447067 3:-0.663766 4:-0.677347 
-1 1:0.0526473 2:-0.0335266 3:-0.333892 4:-0.369762 
-1 1:0.297081 2:0.149514 3:-0.0503768 4:-0.397538 
-1 1:-0.164876 2:0.0550225 3:-0.829678 4:-0.881243 
-1 1:0.0854734 2:0.0520453 3:-0.237838 4:-0.266926 
-1 1:-0.080676 2:-0.0505385 3:-0.364824 4:-0.384907 
-1 1:0.109814 2:-0.0883479 3:-0.125633 4:-0.430375 
-1 1:0.0606707 2:0.0826867 3:-0.34145 4:-0.37023 
-1 1:-0.00312008 2:0.0288828 3:-0.672269 4:-0.772811 
-1 1:-0.0281394 2:0.0520453 3:-0.775202 4:-0.801407 
-1 1:-0.215735 2:-0.0195396 3:-0.469547 4:-0.782106 
-1 1:-0.164018 2:-0.0430858 3:-0.567836 4:-0.672137 
-1 1:0.229066 2:0.142693 3:-0.347269 4:-0.466886 
-1 1:-0.0813013 2:-0.0640979 3:-0.508262 4:-0.616301 
-1 1:-0.168908 2:-0.0603974 3:-0.792101 4:-0.902209 
-1 1:-0.00714721 2:0.18363 3:-0.731647 4:-0.752062 
-1 1:0.0147846 2:-0.0521292 3:-0.601122 4:-0.693542 
-1 1:-0.0504897 2:0.0427876 3:-0.595923 4:-0.710562 
-1 1:0.0236954 2:-0.0747439 3:-0.515817 4:-0.736216 
-1 1:0.00193133 2:-0.100996 3:-0.488192 4:-0.684008 
-1 1:0.0348046 2:-0.0347318 3:-0.393415 4:-0.617202 
-1 1:-0.0413818 2:0.012941 3:-0.20645 4:-0.439739 
-1 1:0.149889 2:-0.113014 3:0.527685 4:0.388632 
-1 1:-0.115227 2:-0.0885594 3:-0.765746 4:-0.715087 
-1 1:-0.161902 2:-0.041217 3:-0.473611 4:-0.67032 
-1 1:0.202348 2:0.118523 3:-0.174538 4:-0.458254 
-1 1:0.0382178 2:0.0156458 3:-0.392438 4:-0.289027 
-1 1:0.0515547 2:0.171633 3:-0.719432 4:-0.804176 
-1 1:-0.0591057 2:0.098449 3:-0.600118 4:-0.768351 
-1 1:0.256697 2:-0.0170395 3:0.00757289 4:0.141406 
-1 1:0.0677413 2:-0.0462862 3:-0.128138 4:-0.305248 
-1 1:0.0942718 2:0.101623 3:0.015231 4:-0.214212 
-1 1:-0.163786 2:-0.0305012 3:-0.711564 4:-0.670016 
-1 1:-0.0734685 2:-0.00304342 3:-0.574818 4:-0.635766 
-1 1:-0.181322 2:-0.0120701 3:-0.697579 4:-1 
-1 1:0.119684 2:0.0176554 3:-0.244779 4:-0.485972 
-1 1:-0.133335 2:0.0902442 3:-0.86383 4:-1 
-1 1:-0.132415 2:-0.0830657 3:-0.361396 4:-0.70045 
-1 1:-0.0077481 2:0.129684 3:-0.487975 4:-0.620999 
-1 1:0.129666 2:0.125128 3:-0.406147 4:-0.527138 
-1 1:0.138246 2:0.0998728 3:-0.474263 4:-0.609031 
-1 1:-0.0513658 2:-0.0431062 3:0.196007 4:-0.151409 
-1 1:0.253448 2:0.180693 3:0.437409 4:0.185819 
-1 1:-0.216721 2:0.0152979 3:-0.497948 4:-0.722256 
-1 1:0.324684 2:0.00292299 3:0.145094 4:-0.135623 
-1 1:0.0250551 2:0.0160166 3:-0.040918 4:-0.673063 
-1 1:-0.0562283 2:-0.0257596 3:-0.130818 4:-0.446453 
-1 1:0.117708 2:0.00923449 3:-0.269367 4:-0.363456 
-1 1:0.124002 2:-0.0691941 3:-0.259163 4:-0.263959 
-1 1:0.23243 2:-0.0505158 3:0.175599 4:0.114562 
-1 1:-0.0198376 2:-0.0483673 3:0.521593 4:0.174582 
-1 1:0.00204043 2:-0.0951708 3:-0.168998 4:-0.0122911 
-1 1:0.130799 2:-0.0777784 3:0.249355 4:0.377221 
-1 1:0.15199 2:-0.0141759 3:0.525336 4:0.396648 
-1 1:0.150954 2:0.118899 3:-0.0782323 4:-0.512496 
-1 1:0.0901177 2:-0.103203 3:-0.392438 4:-0.555529 
-1 1:-0.0971997 2:-0.0779823 3:-0.413291 4:-0.75053 
-1 1:-0.208121 2:-0.0163801 3:-0.392866 4:-0.618469 
-1 1:0.0070609 2:-0.0105829 3:-0.667964 4:-0.727471 
-1 1:0.0863364 2:0.0680792 3:-0.264448 4:-0.638461 
-1 1:0.1862 2:0.0520453 3:-0.314781 4:-0.374857 
-1 1:-0.172045 2:0.0213604 3:-0.630867 4:-0.809763 
-1 1:0.152882 2:-0.1103 3:0.507564 4:0.338086 
-1 1:-0.030341 2:0.0275231 3:-0.209444 4:-0.463059 
-1 1:-0.0222249 2:-0.0433346 3:-0.270744 4:-0.471892 
-1 1:-0.0479428 2:0.136482 3:-0.409711 4:-0.544554 
-1 1:0.0340066 2:-0.0640812 3:-0.313294 4:-0.537334 
-1 1:-0.0325134 2:-0.0717467 3:-0.575639 4:-0.71112 
-1 1:0.0751947 2:0.028163 3:-0.483929 4:-0.434676 
-1 1:0.245446 2:-0.09356 3:-0.285294 4:-0.293951 
-1 1:-0.00418182 2:-0.040115 3:0.494804 4:0.164213 
-1 1:-0.117104 2:-0.0160106 3:-0.544355 4:-0.821727 
-1 1:0.00835876 2:-0.00191077 3:-0.349808 4:-0.451926 
-1 1:0.106796 2:0.0105729 3:-0.0337049 4:-0.307427 
-1 1:-0.111554 2:-0.0829013 3:-0.791922 4:-0.788943 
-1 1:0.0810098 2:-0.0354032 3:-0.0447436 4:-0.265568 
-1 1:-0.262004 2:-0.0608404 3:-0.873786 4:-0.922159 
-1 1:0.0561794 2:0.0348313 3:-0.404095 4:-0.594886 
-1 1:-0.144757 2:0.0153845 3:-0.651824 4:-0.801982 
-1 1:0.0826431 2:0.127097 3:-0.0590008 4:-0.272017 
-1 1:-0.131679 2:-0.00385046 3:-0.68327 4:-0.816422 
-1 1:-0.00664402 2:0.0972805 3:-0.386719 4:-0.561067 
-1 1:0.0245047 2:-0.0587535 3:-0.385312 4:-0.529446 
-1 1:0.013192 2:0.0375988 3:-0.485105 4:-0.691612 
-0.3922546163993091 1:0.319976 2:-0.153372 3:0.674383 4:0.0329388 
-1 1:-0.0481871 2:-0.0823457 3:-0.48773 4:-0.61145 
-1 1:0.219914 2:0.00310981 3:-0.20181 4:-0.0894247 
-1 1:0.113753 2:0.0984866 3:-0.398389 4:-0.314353 
-1 1:-0.00973479 2:0.0520476 3:-0.0557547 4:-0.409347 
-1 1:-0.148827 2:-0.0869932 3:-0.685574 4:-0.792899 
-1 1:0.27949 2:-0.00218692 3:0.126832 4:-0.0319505 
-1 1:-0.0357116 2:-0.0847287 3:-0.66834 4:-0.730505 
-1 1:0.333958 2:-0.108178 3:-0.202031 4:-0.625336 
-1 1:0.0991197 2:-0.0599506 3:-0.396416 4:-0.582392 
-1 1:-0.0385891 2:-0.0116602 3:-0.202011 4:-0.531773 
-1 1:-0.222353 2:0.0520453 3:-0.804483 4:-0.863286 
-1 1:-0.0225994 2:-0.0432681 3:-0.485226 4:-0.695384 
-1 1:-0.176976 2:-0.0803131 3:-0.65064 4:-0.780372 
-1 1:0.097641 2:0.0508476 3:-0.155344 4:-0.481532 
-1 1:0.00799562 2:-0.055509 3:-0.294912 4:-0.167883 
-1 1:0.13092 2:0.0520453 3:0.188863 4:-0.122255 
-1 1:0.108858 2:-0.0426979 3:-0.529249 4:-0.721004 
-1 1:-0.234905 2:-0.0493469 3:-0.644524 4:-0.662397 
-1 1:0.0105718 2:-0.0227601 3:-0.452137 4:-0.601565 
-1 1:-0.0760317 2:-0.0257133 3:-0.561265 4:-0.823812 
-1 1:0.0378937 2:-0.0788577 3:-0.0767559 4:-0.316674 
-1 1:0.0169651 2:-0.00043532 3:-0.191486 4:-0.0662206 
-1 1:-0.00953775 2:-0.0517971 3:-0.392594 4:-0.666162 
-1 1:0.0776846 2:0.0790932 3:-0.562976 4:-0.434773 
-1 1:0.118084 2:0.0213308 3:-0.46825 4:-0.676848 
-1 1:-0.0524812 2:0.0520453 3:-0.66922 4:-0.758517 
-1 1:-0.0812606 2:-0.0858094 3:-0.380265 4:-0.690126 
-1 1:0.208218 2:-0.134028 3:0.359835 4:0.307189 
-1 1:-0.0809398 2:-0.0525575 3:-0.468837 4:-0.796334 
-1 1:-0.168594 2:0.0813742 3:-0.850654 4:-1 
-1 1:-0.117668 2:-0.0839845 3:-0.447704 4:-0.772336 
-1 1:-0.000972177 2:0.0520453 3:-0.104635 4:-0.0487839 
-1 1:-0.0420788 2:0.0305297 3:-0.47023 4:-0.717111 
-1 1:0.0203001 2:0.0544313 3:-0.399489 4:-0.643401 
-1 1:0.163493 2:-0.0919619 3:-0.245531 4:-0.125696 
-1 1:-0.160805 2:0.0306152 3:-0.588641 4:-0.805266 
-1 1:0.0162095 2:0.0459499 3:-0.672242 4:-0.788047 
-1 1:0.241596 2:-0.0765371 3:0.191626 4:0.0434773 
-1 1:0.10597 2:0.0855494 3:-0.297995 4:-0.633735 
-1 1:-0.0864081 2:-0.0619793 3:-0.462872 4:-0.477127 
-1 1:-0.243499 2:-0.0587812 3:-0.716403 4:-0.910232 
-1 1:-0.0702621 2:-0.0307533 3:-0.678265 4:-0.762426 
-1 1:-0.00900688 2:-0.0857864 3:-0.0597425 4:-0.174902 
-1 1:0.0407191 2:-0.0926412 3:-0.403719 4:-0.700548 
-1 1:-0.0298053 2:-0.00406519 3:-0.285967 4:-0.400939 
-1 1:0.22304 2:-0.0518842 3:-0.379703 4:-0.499234 
-1 1:0.0639601 2:-0.0922143 3:-0.244641 4:-0.438193 
-1 1:-0.0754634 2:0.026055 3:-0.341867 4:-0.476242 
-1 1:0.0599574 2:-0.0355423 3:-0.179464 4:-0.435787 
-1 1:0.114368 2:-0.0118478 3:0.0264077 4:-0.124192 
-1 1:-0.179879 2:-0.0473744 3:-0.699035 4:-0.71481 
-1 1:0.058723 2:0.04943 3:-0.346552 4:-0.581357 
-1 1:0.196889 2:0.0512021 3:-0.00365898 4:-0.512459 
-1 1:-0.074058 2:-0.0530328 3:-0.322284 4:-0.489709 
-1 1:0.194067 2:0.189476 3:-0.250339 4:-0.510384 
-1 1:-0.127261 2:-0.0235735 3:-0.763701 4:-0.905969 
-1 1:0.0653378 2:-0.0385022 3:-0.0846451 4:-0.32134 
-1 1:-0.0837342 2:0.0355227 3:-0.739861 4:-0.696166 
-1 1:0.0534746 2:0.0520453 3:-0.569334 4:-0.657816 
-1 1:0.0718173 2:-0.00630615 3:-0.0817957 4:-0.116328 
-1 1:-0.0807607 2:-0.0184993 3:-0.0586627 4:-0.562231 
-1 1:0.044953 2:0.0520453 3:-0.0755243 4:-0.152167 
-1 1:-0.00489019 2:-0.0784895 3:-0.175638 4:-0.410754 
-1 1:0.496976 2:-0.0481858 3:0.0260731 4:-0.00650491 
-1 1:0.0246154 2:-0.0166486 3:-0.163968 4:-0.34118 
-1 1:0.205201 2:-0.0780817 3:-0.242178 4:-0.487037 
-1 1:-0.0489589 2:-0.0391999 3:-0.700701 4:-0.805699 
-1 1:0.0355292 2:-0.0905206 3:-0.103338 4:-0.0439067 
-1 1:0.0132359 2:-0.00781193 3:-0.135282 4:-0.275528 
-1 1:0.168817 2:-0.104913 3:0.438655 4:0.357688 
-1 1:0.115692 2:0.0506407 3:-0.272299 4:-0.580163 
-1 1:0.135089 2:-0.0484416 3:-0.228355 4:-0.523942 
-1 1:0.086014 2:-0.0801525 3:-0.532592 4:-0.717155 
-1 1:0.0495322 2:0.0349846 3:-0.454317 4:-0.400609 
-1 1:-0.096239 2:0.0447534 3:-0.68801 4:-0.862724 
-1 1:-0.0742372 2:-0.0934746 3:-0.617521 4:-0.767908 
-1 1:0.0300577 2:0.0520453 3:-0.272524 4:-0.437902 
-1 1:-0.117176 2:-0.027664 3:-0.67516 4:-0.720256 
-1 1:-0.0752191 2:0.0706513 3:-0.589662 4:-0.755965 
-1 1:0.222876 2:0.0262488 3:0.130527 4:0.119745 
-1 1:-0.0178802 2:-0.107579 3:-0.696251 4:-0.821056 
-1 1:0.254603 2:0.00149495 3:-0.172696 4:-0.522118 
-1 1:-0.0494116 2:0.044989 3:-0.390558 4:-0.636905 
-1 1:0.176855 2:0.0900723 3:-0.248256 4:-0.452883 
-1 1:0.110579 2:-0.0943004 3:-0.0603082 4:0.173672 
-1 1:0.115057 2:-0.0721964 3:0.45643 4:0.0618124 
-1 1:-0.116653 2:0.0739052 3:-0.664008 4:-0.822665 
-1 1:0.133094 2:0.145879 3:-0.22177 4:-0.444541 
-1 1:0.419015 2:0.0655437 3:1 4:1 
-1 1:-0.221778 2:-0.0421972 3:-0.554659 4:-0.622722 
-1 1:0.058469 2:0.145007 3:-0.495985 4:-0.509352 
-1 1:-0.0581971 2:0.0825808 3:-0.551054 4:-0.687259 
-1 1:0.186096 2:0.126579 3:0.267841 4:-0.323184 
-1 1:-0.157738 2:-0.0266659 3:-0.513467 4:-0.778814 
-1 1:0.105826 2:-0.0260668 3:0.276941 4:0.401583 
-1 1:0.458924 2:-0.0968962 3:0.0262731 4:-0.467765 
-1 1:0.316822 2:-0.0156705 3:0.816161 4:0.69032 
-1 1:-0.0632827 2:-0.0173953 3:-0.239342 4:-0.295825 
-1 1:-0.065284 2:-0.0550527 3:-0.182086 4:-0.231333 
-1 1:0.20163 2:-0.124793 3:-0.414388 4:-0.530489 
-1 1:-0.0192042 2:-0.0635754 3:-0.279557 4:-0.221645 
-1 1:0.0276574 2:-0.0643577 3:-0.277826 4:-0.692731 
-1 1:-0.0160906 2:-0.0712302 3:-0.438246 4:-0.683017 
-1 1:0.0483694 2:-0.0805246 3:-0.43876 4:-0.604175 
-1 1:0.168025 2:0.0382448 3:-0.226396 4:-0.49083 
-1 1:0.0104546 2:-0.0829599 3:-0.345731 4:-0.310205 
-1 1:-0.182342 2:0.0520453 3:-0.742748 4:-0.925019 
-1 1:-0.111891 2:-0.0827063 3:-0.549616 4:-0.607308 
-1 1:-0.0761424 2:-0.0709009 3:-0.266663 4:-0.712966 
-1 1:-0.0169748 2:0.0065572 3:-0.230725 4:-0.457869 
-1 1:0.0241041 2:0.048871 3:-0.334834 4:-0.271577 
-1 1:0.0661064 2:-0.0283668 3:-0.314226 4:-0.414988 
-1 1:0.147709 2:-0.0543434 3:-0.307037 4:-0.339305 
-1 1:0.0342362 2:-0.0621461 3:-0.623903 4:-0.706145 
-1 1:0.352087 2:0.019701 3:0.268924 4:0.125429 
-1 1:-0.0415365 2:0.019996 3:-0.425237 4:-0.839022 
-1 1:0.154788 2:-0.0767907 3:-0.13078 4:-0.309857 
-1 1:-0.191321 2:0.0503658 3:-0.913581 4:-0.952637 
-1 1:0.00122621 2:0.0704171 3:-0.534634 4:-0.58747 
-1 1:-0.0217299 2:-0.0681379 3:-0.458243 4:-0.536003 
-1 1:0.131092 2:0.0206663 3:-0.374787 4:-0.522344 
-1 1:0.275921 2:0.0647353 3:-0.214243 4:-0.241525 
-1 1:-0.120867 2:-0.0898236 3:-0.556066 4:-0.655582 
-1 1:-0.0587556 2:-0.0847325 3:-0.48742 4:-0.728888 
-1 1:-0.0994877 2:-0.0172052 3:-0.48297 4:-0.492615 
-1 1:-0.0652742 2:0.106346 3:-0.631167 4:-0.854026 
-1 1:-0.0266559 2:0.0355841 3:-0.538253 4:-0.72587 
-1 1:0.167807 2:-0.0731416 3:-0.183641 4:-0.165772 
-1 1:-0.257183 2:-0.0475038 3:-0.668399 4:-0.623341 
-1 1:0.0881473 2:-0.110923 3:-0.133785 4:-0.490727 
-1 1:0.0123957 2:0.0687232 3:-0.275594 4:-0.162387 
-1 1:0.195049 2:0.229842 3:-0.541602 4:-0.548385 
-1 1:0.0566647 2:-0.00129309 3:-0.0744412 4:-0.341033 
-1 1:-0.123779 2:0.0180325 3:-0.203218 4:-0.441176 
-1 1:0.235408 2:0.197189 3:0.809155 4:0.178316 
-1 1:0.230601 2:0.0372113 3:-0.297926 4:-0.213176 
-1 1:0.0828711 2:0.0520453 3:0.402513 4:0.0410772 
-1 1:0.359217 2:-0.0514053 3:-0.317831 4:-0.530265 
-1 1:-0.143881 2:-0.0798556 3:-0.505723 4:-0.609616 
-1 1:0.0307433 2:-0.0643374 3:-0.243057 4:-0.392702 
-1 1:0.0848757 2:0.00601904 3:-0.394212 4:-0.606213 
-1 1:-0.0926043 2:-0.0672106 3:-0.409776 4:-0.503595 
-1 1:0.061765 2:-0.00273005 3:-0.547953 4:-0.705298 
-1 1:-0.00199809 2:0.0871321 3:-0.459764 4:-0.539259 
-1 1:-0.00128809 2:-0.00574199 3:-0.513412 4:-0.432856 
-1 1:-0.04877 2:-0.0307785 3:-0.0497248 4:0.0285574 
-1 1:0.0676811 2:-0.00262186 3:0.0466464 4:-0.23711 
-1 1:0.16052 2:-0.0124434 3:0.020533 4:-0.10587 
-1 1:0.0455392 2:-0.0448182 3:-0.372538 4:-0.645028 
-1 1:0.304765 2:-0.0592752 3:0.647845 4:0.218804 
-1 1:0.0248809 2:0.0235962 3:-0.158849 4:-0.289464 
-1 1:0.04636 2:0.140964 3:-0.644914 4:-0.426148 
-1 1:0.102709 2:-0.116232 3:-0.432305 4:-0.453963 
-1 1:0.173481 2:-0.0210499 3:-0.208358 4:-0.343409 
-1 1:-0.000936351 2:0.0243439 3:0.0329239 4:-0.562279 
-1 1:0.163866 2:-0.108089 3:-0.173565 4:-0.599497 
-1 1:-0.0365291 2:-0.0858055 3:-0.303111 4:-0.614544 
-1 1:-0.0271851 2:-0.0110705 3:-0.485529 4:-0.78598 
-1 1:0.0184942 2:0.0635827 3:-0.552965 4:-0.686537 
-1 1:0.00414111 2:-0.11187 3:-0.512457 4:-0.561937 
-1 1:0.162985 2:-0.0695107 3:-0.147504 4:-0.469672 
-1 1:0.177889 2:0.0625498 3:-0.0321457 4:-0.388046 
-1 1:-0.0664549 2:0.0473537 3:-0.65101 4:-0.717594 
-1 1:0.418042 2:0.104824 3:0.411517 4:0.07282 
-1 1:0.171482 2:0.0442259 3:0.453516 4:-0.0243943 
-1 1:-0.150795 2:0.00780657 3:-0.583332 4:-0.830053 
-1 1:0.0592523 2:0.00578048 3:-0.40673 4:-0.525527 
-1 1:-0.0122686 2:0.070585 3:-0.435251 4:-0.493885 
-1 1:-0.0400449 2:-0.101915 3:-0.312432 4:-0.237014 
-1 1:-0.169613 2:-0.076699 3:-0.726552 4:-0.901599 
-1 1:0.156755 2:0.175515 3:-0.00957158 4:-0.172524 
-1 1:0.203167 2:0.202218 3:-0.432185 4:-0.454948 
-1 1:0.114254 2:0.240366 3:-0.633179 4:-0.681594 
-1 1:0.0400172 2:-0.0415713 3:-0.46043 4:-0.639964 
-1 1:0.00482669 2:-0.0845554 3:-0.24719 4:-0.420834 
-1 1:0.156121 2:0.110622 3:-0.136637 4:-0.516711 
-1 1:-0.0904352 2:0.0184142 3:-0.403018 4:-0.434054 
-1 1:0.124163 2:-0.0610532 3:0.157299 4:0.277599 
-1 1:-0.285275 2:-0.0300789 3:-0.787251 4:-0.848665 
-1 1:0.119379 2:-0.100583 3:-0.276208 4:-0.644929 
-1 1:-0.168107 2:-0.0504287 3:-0.591545 4:-1 
-1 1:0.0846103 2:-0.0613411 3:-0.199392 4:-0.486032 
-1 1:-0.0518282 2:-0.0394119 3:-0.587789 4:-0.727081 
-1 1:0.0672284 2:0.0325275 3:-0.104021 4:-0.418231 
-1 1:0.047438 2:0.144326 3:-0.448156 4:-0.527349 
-1 1:-0.0737095 2:0.0227985 3:-0.721554 4:-0.671703 
-1 1:0.408098 2:0.071171 3:0.177469 4:0.344433 
-1 1:-0.150465 2:-0.0888997 3:-0.587844 4:-0.661057 
-1 1:-0.0324987 2:-0.0657558 3:-0.36806 4:-0.585568 
-1 1:-0.17618 2:0.00891488 3:-0.586985 4:-0.897976 
-1 1:0.0214156 2:0.0520453 3:-0.76249 4:-0.904518 
-1 1:-0.122449 2:-0.0592104 3:-0.426244 4:-0.501295 
-1 1:0.12579 2:0.0736835 3:0.580599 4:0.646716 
-1 1:0.022816 2:0.0419648 3:-0.298089 4:-0.415104 
-1 1:-0.119778 2:-0.0611431 3:-0.439425 4:-0.564182 
-1 1:0.00504327 2:-0.0161 3:-0.0653929 4:-0.124846 
-1 1:0.113666 2:-0.0924959 3:0.169159 4:-0.08162 
-1 1:0.175868 2:0.0520453 3:-0.31849 4:-0.300223 
-1 1:-0.065968 2:-0.102965 3:-0.520432 4:-0.598474 
-1 1:-0.136033 2:0.0342003 3:-0.700073 4:-0.818831 
-1 1:0.0539648 2:0.0195545 3:-0.527083 4:-0.654332 
-1 1:0.301358 2:-0.0465971 3:-0.130376 4:-0.136267 
-1 1:-0.0890136 2:-0.0299921 3:-0.736998 4:-0.710729 
-1 1:-0.191302 2:-0.0281919 3:-0.730578 4:-1 
-1 1:-0.0449497 2:0.0490515 3:-0.467757 4:-0.587546 
-1 1:0.0899679 2:0.0818025 3:-0.0603116 4:-0.765273 
-1 1:0.0102266 2:0.000684456 3:-0.638781 4:-0.710888 
-1 1:0.25741 2:0.0823811 3:-0.195087 4:-0.564348 
-1 1:0.198189 2:-0.00815384 3:-0.295367 4:-0.50792 
-1 1:-0.0598939 2:-0.0880713 3:-0.424261 4:-0.613984 
-1 1:0.388486 2:-0.0475921 3:0.625488 4:0.602203 
-1 1:0.108596 2:-0.0661086 3:-0.24343 4:-0.481535 
-1 1:0.190276 2:0.199251 3:-0.362337 4:-0.562331 
-1 1:-0.234095 2:-0.0503163 3:-0.683794 4:-0.723845 
-1 1:0.0202138 2:0.0515562 3:-0.229469 4:-0.4353 
-1 1:-0.0666438 2:0.0520453 3:-0.411304 4:-0.596386 
-1 1:0.267116 2:-0.0593079 3:-0.175859 4:-0.156979 
-1 1:0.287362 2:0.0520453 3:-0.142985 4:-0.576794 
-1 1:-0.275242 2:0.0110908 3:-0.849967 4:-1 
-1 1:-0.160628 2:-0.00132112 3:-0.696951 4:-0.735504 
-1 1:-0.114738 2:0.0750983 3:-0.749927 4:-0.831934 
-1 1:-0.241512 2:-0.0619715 3:-0.917401 4:-0.860567 
-1 1:0.135261 2:0.187178 3:-0.503626 4:-0.523293 
-1 1:-0.0620809 2:-0.103917 3:-0.738598 4:-0.905515 
-1 1:-0.0138043 2:0.00479858 3:-0.660144 4:-0.670366 
-1 1:-0.154088 2:-0.0759407 3:-0.652127 4:-1 
-1 1:0.0352231 2:0.0757747 3:-0.589972 4:-0.676791 
-1 1:-0.15379 2:0.0482091 3:-0.663642 4:-0.919268 
-1 1:0.312166 2:-0.0101516 3:0.0596445 4:-0.359373 
-1 1:0.16405 2:0.115882 3:0.030385 4:-0.0744593 
-1 1:0.0381722 2:-0.0156479 3:-0.509763 4:-0.508347 
-1 1:-0.055046 2:-0.0456717 3:-0.357522 4:-0.556695 
-1 1:-0.144767 2:-0.0249777 3:-0.542527 4:-0.758568 
-1 1:0.103034 2:-0.0380902 3:-0.545042 4:-0.639683 
-1 1:-0.108542 2:0.0279915 3:-0.628487 4:-0.728277 
-1 1:-0.0163462 2:0.0949341 3:-0.422609 4:-0.609963 
-1 1:-0.0562429 2:0.0323969 3:-0.749285 4:-0.846071 
-1 1:0.105361 2:0.0452865 3:-0.0983227 4:-0.199922 
-1 1:0.0175399 2:0.033014 3:-0.44402 4:-0.546843 
-1 1:0.0920327 2:-0.108704 3:-0.434172 4:-0.347109 
-1 1:0.143434 2:0.0453456 3:0.276979 4:0.312055 
-1 1:0.127992 2:0.0897656 3:-0.321994 4:-0.684978 
-1 1:0.0885837 2:0.208827 3:-0.506627 4:-0.568598 
-1 1:0.14452 2:0.0580679 3:-0.413298 4:-0.547315 
-1 1:0.171367 2:-0.0503314 3:0.672285 4:0.803371 
-1 1:0.0522891 2:0.0674315 3:-0.241702 4:-0.14643 
-1 1:0.0589201 2:0.0634116 3:-0.474653 4:-0.718675 
-1 1:0.0620076 2:0.107867 3:0.130061 4:-0.0364497 
-1 1:-0.0982387 2:-0.0967803 3:-0.726214 4:-0.791904 
-1 1:-0.205835 2:-0.0789508 3:-0.795423 4:-0.700922 
-1 1:0.0631345 2:-0.0920754 3:0.334218 4:0.0580308 
-1 1:0.0170123 2:0.0348976 3:-0.0658137 4:-0.305487 
-1 1:0.0489492 2:0.0510511 3:-0.391328 4:-0.324622 
-1 1:-0.126556 2:-0.0310209 3:-0.384097 4:-0.720026 
-1 1:0.159647 2:-0.108119 3:0.00357826 4:-0.158248 
-1 1:-0.00091681 2:-0.0278456 3:-0.426517 4:-0.612793 
-1 1:0.0917477 2:0.104041 3:-0.141656 4:-0.14439 
-1 1:0.326813 2:-0.0388568 3:0.368983 4:0.336301 
-1 1:-0.0813583 2:-0.0349551 3:-0.37646 4:-0.7509 
