svm_type c_svc
kernel_type rbf
gamma 0.1
nr_class 2
total_sv 7145
rho -0.699251
label -1 1
probA -1.63663
probB -0.0566039
nr_sv 3577 3568
SV
1 1:-0.0984142 2:0.0109464 3:-0.269841 4:-0.75 5:-0.625 6:-0.586207 7:-0.605478 8:-0.377716 9:0.105948 10:-0.0643284 
1 1:0.1215 2:0.18248 3:-0.269841 4:-0.5 5:0.125 6:-0.586207 7:-0.605478 8:-0.377716 9:0.105948 10:-0.0643284 
1 1:0.0408204 2:0.0331516 3:-0.309524 4:-0.3125 5:-0.75 6:-0.37931 7:-0.153152 8:0.0314409 9:-0.0863001 10:0.140352 
1 1:0.00619535 2:-0.0132233 3:-0.36646 4:-0.125 6:0.37931 7:-0.0992749 8:-0.419983 9:0.0892801 10:-0.0389011 
1 1:-0.0435654 2:0.0399346 3:-0.269841 4:-0.625 5:0.125 6:-0.586207 7:-0.298527 8:0.116508 9:0.0210327 10:0.286549 
1 1:-0.247957 2:0.0270976 3:-0.476191 4:-0.8125 5:-0.625 6:-0.793103 7:-0.704536 8:-0.325011 9:0.000120081 10:0.228069 
1 1:-0.201182 2:0.00487732 3:-0.428571 4:-1 5:-1 6:-0.0344828 7:-0.271792 8:-0.37018 9:0.461015 10:0.0526316 
1 1:0.250398 2:0.0492419 3:-0.0204086 4:-0.75 5:0.3125 6:-0.724138 7:-0.507965 8:-0.0177984 9:-0.038652 10:0.353383 
1 1:0.0182382 2:0.0186671 3:-0.309524 4:-0.875 5:0.125 6:-0.37931 7:0.308105 8:0.602728 9:0.063798 10:0.929825 
1 1:0.140599 2:0.120674 3:-0.318681 4:-0.8125 5:-0.75 6:-0.310345 7:0.176952 8:0.335101 9:0.176194 10:0.133604 
1 1:-0.193613 2:0.00705572 3:-0.428571 4:-1 5:0.3125 6:-0.241379 7:-0.239591 8:-0.203183 9:-0.302381 10:0.353383 
1 1:0.146505 2:0.0308422 3:-0.298701 4:-0.5 5:-0.3125 6:-0.448276 7:-0.551642 8:-0.41459 9:0.395258 10:0.148326 
1 1:0.010094 2:0.0461607 3:-0.269841 4:-0.5625 5:-0.0625 6:-0.586207 7:-0.465987 8:-0.153122 9:0.398476 10:0.169592 
1 1:0.207672 2:0.224995 3:-0.428571 4:-0.3125 5:-0.3125 6:-0.103448 7:-0.146257 8:-0.212333 9:0.0704029 10:0.118421 
1 1:0.0588275 2:0.0388468 3:-0.190476 4:-0.375 5:-1 6:-0.37931 7:-0.510884 8:-0.411629 9:0.00307035 10:0.578947 
1 1:0.331586 2:0.0640984 3:-0.285714 4:-0.5625 5:-0.8125 6:-0.517241 7:0.105419 8:0.603337 9:0.212279 10:0.368421 
1 1:-0.0819463 2:0.0352911 3:-0.22449 4:-0.875 5:-0.75 6:-0.724138 7:-0.663949 8:-0.331738 9:-0.542598 10:0.203008 
1 1:-0.151853 2:0.0260582 3:-0.428571 4:-0.9375 5:0.3125 6:-0.448276 7:-0.449571 8:-0.277632 9:-0.0451106 10:0.148326 
1 1:0.140008 2:0.101476 3:-0.428571 4:-0.875 5:-0.8125 6:-0.448276 7:-0.22044 8:0.0298019 9:-0.0409848 10:0.0526316 
1 1:-0.248771 2:0.0106192 3:-0.374929 4:-0.75 5:-0.75 6:0.37931 7:0.17652 8:-0.234961 9:0.343788 10:0.235699 
1 1:0.0638146 2:0.0420495 3:-0.298701 4:-0.3125 5:-0.1875 6:0.310345 7:0.154164 8:-0.21594 9:0.618296 10:0.148326 
1 1:0.338878 2:0.0564016 3:-0.22449 4:-0.4375 5:-0.3125 6:-0.241379 7:-0.262988 8:-0.228297 9:-0.411628 10:0.0526316 
1 1:0.13757 2:0.0273404 3:-0.428571 4:-0.875 5:0.5 6:-0.37931 7:-0.0234185 8:0.19212 9:-0.153127 10:0.140352 
1 1:-0.144311 2:-0.00115127 3:-0.428571 4:-0.3125 5:-0.625 6:-0.37931 7:-0.0234185 8:0.19212 9:-0.153127 10:0.140352 
1 1:-0.0917378 2:0.0379243 3:-0.22449 4:-0.8125 5:0.125 6:-0.724138 7:-0.666542 8:-0.336955 9:-0.620499 10:0.353383 
1 1:0.350193 2:0.153672 3:-0.111111 4:-1 5:0.3125 6:-0.586207 7:-0.400074 8:-0.046995 9:0.0137371 10:0.403509 
1 1:-0.16608 2:0.0569785 3:0.285714 4:-0.8125 5:0.125 6:-0.793103 7:-0.740637 8:-0.408043 9:-0.546412 10:0.228069 
1 1:0.200011 2:-0.110838 3:-0.238095 4:-0.375 5:-0.75 6:-0.172414 7:-0.0218178 8:-0.035856 9:0.0445594 10:-0.08772 
1 1:-0.181373 2:0.0232727 3:-0.468254 4:-0.5625 5:-1 6:-0.586207 7:-0.143019 8:0.366891 9:0.0281706 10:0.286549 
1 1:0.207066 2:0.192724 3:-0.0714286 4:-0.8125 5:-1 6:-0.655172 7:-0.55173 8:-0.208825 9:-0.432065 10:0.0526316 
1 1:0.245232 2:0.0929067 3:-0.428571 4:-1 5:-0.25 6:-0.448276 7:-0.185432 8:0.0767767 9:-0.326384 10:-0.138756 
1 1:0.220407 2:0.0651196 3:-0.344538 4:-0.4375 5:-0.8125 6:-0.0344828 7:-0.440869 8:-0.521422 9:0.21665 10:-0.00928842 
1 1:-0.0106928 2:0.0217251 3:-0.344538 4:-0.1875 5:-0.625 6:-0.0344828 7:-0.440869 8:-0.521422 9:0.21665 10:-0.00928842 
1 1:0.289513 2:0.0482222 3:-0.190476 4:-0.25 5:-0.375 6:-0.37931 7:-0.364277 8:-0.230048 9:-0.431962 10:0.140352 
1 1:0.174346 2:0.166006 3:-0.142857 4:-0.6875 5:0.0625 6:-0.862069 7:-0.585316 8:0.112809 9:0.22827 10:0.473684 
1 1:0.604687 2:0.0573137 3:-0.22449 4:-0.5625 5:-0.3125 6:-0.241379 7:-0.180376 8:-0.139623 9:-0.287982 10:-0.172933 
1 1:-0.0665433 2:0.030986 3:-0.285714 4:-0.6875 5:0.3125 6:-0.517241 7:-0.516308 8:-0.306708 9:-0.331402 10:0.157895 
1 1:-0.126848 2:0.0143611 3:0.142857 4:-0.75 5:-0.3125 6:-0.862069 7:-0.69206 8:-0.17364 9:-0.412255 10:0.263158 
1 1:-0.190071 2:0.00887931 3:-0.428571 4:-1 5:-0.0625 6:-0.103448 7:0.39974 8:0.304795 9:0.867302 10:0.381579 
1 1:0.229495 2:0.159859 3:-0.25 4:-0.5 5:-0.375 6:-0.655172 7:-0.541821 8:-0.191097 9:-0.0997158 10:-0.0789474 
1 1:0.171639 2:-0.0168639 3:-0.0714286 4:-0.8125 5:0.125 6:-0.655172 7:-0.407275 8:0.0496069 9:-0.247184 10:0.447368 
1 1:0.342126 2:-0.0426929 3:-0.208791 4:-0.5625 5:-0.75 6:-0.310345 7:-0.187574 8:-0.084132 9:-0.150767 10:-0.0283411 
1 1:0.202019 2:0.0813497 3:-0.318681 4:-0.25 5:-0.6875 6:-0.310345 7:-0.187574 8:-0.084132 9:-0.150767 10:-0.0283411 
1 1:-0.182774 2:0.00809956 3:-0.428571 4:-0.9375 5:-0.75 6:-0.517241 7:-0.376095 8:-0.101472 9:0.055265 10:0.263158 
1 1:-0.0451689 2:0.0562473 3:-0.428571 4:-0.875 5:-0.1875 6:0.448276 7:0.169923 8:-0.271105 9:0.665254 10:0.00877263 
1 1:0.049239 2:0.0426312 3:-0.298701 4:-0.625 5:0.125 6:-0.448276 7:-0.687669 8:-0.597101 9:0.385236 10:-0.138756 
1 1:0.141257 2:0.0309784 3:-0.298701 4:-0.625 5:0.3125 6:-0.448276 7:-0.555455 8:-0.419703 9:-0.356943 10:0.0526316 
1 1:0.183495 2:0.0510256 3:-0.269841 4:-0.5625 5:-0.3125 6:-0.586207 7:-0.43292 8:-0.0998792 9:0.0167628 10:-0.0643284 
1 1:-0.307999 2:0.00487732 3:-0.326531 4:-0.9375 5:1 6:-0.655172 7:-0.59038 8:-0.27797 9:-0.313034 10:0.578947 
1 1:-0.159243 2:0.0179732 3:-0.428571 4:-0.6875 5:-0.625 6:-0.448276 7:-0.496292 8:-0.340321 9:0.0416092 10:0.0526316 
1 1:0.0436847 2:0.0490907 3:-0.298701 4:-0.375 5:-0.8125 6:-0.448276 7:-0.496292 8:-0.340321 9:0.0416092 10:0.0526316 
1 1:0.516488 2:0.0637758 3:-0.326531 4:-0.75 5:-0.625 6:-0.241379 7:-0.0587009 8:-0.00901569 9:0.362629 10:-0.172933 
1 1:0.0300281 2:0.0668902 3:-0.318681 4:-0.25 5:-0.3125 6:-0.310345 7:-0.474258 8:-0.41384 9:-0.277089 10:0.133604 
1 1:0.0878922 2:0.0111296 3:-0.363636 4:-0.0625 6:0.310345 7:-0.234362 8:-0.487926 9:0.0666065 10:-0.0430632 
1 1:0.114378 2:0.0361603 3:-0.357143 4:-0.1875 5:-0.75 6:0.172414 7:0.0163915 8:-0.243823 9:-0.0597911 10:-0.0526316 
1 1:-0.109685 2:0.0375922 3:-0.428571 4:-0.625 5:0.125 6:-0.37931 7:-0.510814 8:-0.411538 9:0.0344851 10:0.315789 
1 1:0.0697422 2:0.125392 3:-0.0714286 4:-0.6875 5:-0.3125 6:-0.37931 7:-0.691083 8:-0.634813 9:-0.420122 10:0.140352 
1 1:0.0381998 2:0.0435558 3:-0.298701 4:-0.875 5:-0.75 6:-0.448276 7:-0.135884 8:0.14326 9:-0.0118388 10:0.0526316 
1 1:0.178143 2:0.0414892 3:-0.22449 4:-0.75 5:0.3125 6:-0.724138 7:-0.538718 8:-0.0796947 9:-0.43255 10:-0.0977453 
1 1:0.153785 2:-0.0223402 3:-0.190476 4:-0.5 5:0.375 6:-0.37931 7:-0.568411 8:-0.482876 9:-0.203229 10:-0.0350884 
1 1:0.412887 2:0.0667691 3:-0.168831 4:-0.5 5:-0.3125 6:-0.448276 7:-0.274356 8:-0.0425369 9:0.0240562 10:0.244019 
1 1:0.282941 2:0.0482013 3:-0.0714286 4:-0.8125 5:-0.3125 6:-0.655172 7:-0.213592 8:0.396109 9:-0.351591 10:0.315789 
1 1:0.373037 2:-0.0172701 4:-0.6875 5:0.3125 6:-0.517241 7:-0.0438596 8:0.384832 9:0.112548 10:0.263158 
1 1:-0.139464 2:0.018915 3:-0.428571 4:-0.9375 5:0.125 6:-0.241379 7:-0.195026 8:-0.155349 9:0.0915877 10:0.278196 
1 1:0.0420241 2:0.0167844 3:-0.326531 4:-0.25 5:-0.75 6:-0.241379 7:-0.195026 8:-0.155349 9:0.0915877 10:0.278196 
1 1:0.0717762 2:0.0551085 3:-0.168831 4:-0.75 5:-0.0625 6:-0.448276 7:-0.398792 8:-0.209501 9:0.0372135 10:0.244019 
1 1:0.389291 2:0.0833514 3:-0.269841 4:-0.6875 5:-0.3125 6:-0.586207 7:-0.420078 8:-0.0792026 9:-0.450412 10:-0.0643284 
1 1:0.347554 2:-0.0872801 3:-0.160714 4:-0.25 5:-0.3125 6:-0.103448 7:-0.0196654 8:-0.0924352 9:-0.0855362 10:-0.144737 
1 1:0.313221 2:0.0946323 3:-0.333333 4:-0.4375 5:-0.3125 6:-0.172414 7:-0.0701052 8:-0.0844489 9:0.676915 10:0.0526316 
1 1:-0.588961 2:-0.179819 3:-0.477833 4:-0.3125 5:-0.8125 6:0.793103 7:-0.749117 8:-0.891229 9:-0.508285 10:-0.637023 
1 1:-0.588961 2:-0.179819 3:-0.477833 4:-0.25 5:-0.1875 6:0.793103 7:-0.749117 8:-0.891229 9:-0.508285 10:-0.637023 
1 1:0.127423 2:-0.00657903 3:-0.298701 4:-0.625 5:0.1875 6:-0.448276 7:-0.240703 8:0.00261958 9:-0.169923 10:0.148326 
1 1:0.0551829 2:0.049033 3:-0.111111 4:-0.875 5:-0.6875 6:-0.586207 7:-0.471282 8:-0.161646 9:-0.440052 10:0.403509 
1 1:0.275777 2:0.124671 3:-0.357143 4:-0.5625 5:-0.3125 6:0.172414 7:0.283786 8:-0.0388045 9:-0.0410031 
1 1:0.0519197 2:0.0450785 3:-0.309524 4:-0.25 5:0.0625 6:-0.37931 7:-0.219992 8:-0.0513447 9:0.201958 10:0.228069 
1 1:0.223529 2:0.159352 3:-0.428571 4:-1 5:-1 6:-0.655172 7:-0.255868 8:0.320475 9:0.119958 10:0.184211 
1 1:0.589245 2:0.113133 3:-0.25 4:-0.75 5:-0.75 6:-0.655172 7:-0.255868 8:0.320475 9:0.119958 10:0.184211 
1 1:-0.086358 2:0.0301455 3:-0.428571 4:-0.5 5:-0.375 6:-0.655172 7:-0.255868 8:0.320475 9:0.119958 10:0.184211 
1 1:0.0369095 2:0.0442111 3:-0.0714286 4:-1 5:-1 6:-0.931034 7:-0.695538 8:-0.0130985 9:0.109918 10:0.315789 
1 1:0.235847 2:0.0480035 3:-0.326531 4:-0.4375 5:-0.3125 6:-0.241379 7:-0.0947578 8:-0.0477165 9:-0.175661 10:-0.0225558 
1 1:-0.0539261 2:0.0154811 3:-0.326531 4:-0.1875 5:-0.6875 6:-0.241379 7:-0.0947578 8:-0.0477165 9:-0.175661 10:-0.0225558 
1 1:-0.122106 2:0.175717 3:-0.190476 4:-0.875 5:-0.75 6:-0.793103 7:-0.652574 8:-0.205485 9:0.0648431 10:0.578947 
1 1:0.207448 2:0.0947902 3:0.04762 4:-0.6875 5:0.3125 6:-0.793103 7:-0.652574 8:-0.205485 9:0.0648431 10:0.578947 
1 1:0.00349831 2:0.0178773 3:-0.326531 4:-0.75 6:-0.241379 7:-0.352901 8:-0.324811 9:0.058954 10:-0.0225558 
1 1:0.00349831 2:0.0178773 3:-0.326531 4:-0.6875 5:-0.8125 6:-0.241379 7:-0.352901 8:-0.324811 9:0.058954 10:-0.0225558 
1 1:-0.0217136 2:0.0598737 3:-0.428571 4:-0.5625 5:0.5 6:0.103448 7:0.0606201 8:-0.168786 9:0.00986742 10:0.0526316 
1 1:-0.018683 2:0.0395313 3:-0.238095 4:-0.3125 5:-0.3125 6:-0.172414 7:-0.128424 8:-0.143134 9:0.0603148 10:-0.0175432 
0.5377438231669307 1:-0.201206 2:0.00487732 3:-0.428571 4:-0.1875 5:-0.625 6:-0.0344828 7:-0.174385 8:-0.283049 9:0.206591 10:-0.0712084 
1 1:-0.0532386 2:0.103309 3:-0.428571 4:-0.125 5:-0.3125 6:-0.172414 7:-0.0122707 8:-0.0262476 9:-0.220526 10:-0.0175432 
1 1:0.18118 2:0.0147595 3:-0.428571 4:-0.5 5:0.125 6:-0.0344828 7:-0.190053 8:-0.297066 9:0.35528 10:-0.195046 
1 1:0.361315 2:0.0499389 3:-0.22449 4:-0.8125 5:-0.75 6:-0.724138 7:-0.50802 8:-0.017911 9:-0.57884 10:0.353383 
1 1:0.161101 2:-0.0253149 3:-0.0204086 4:-0.6875 5:-0.6875 6:-0.724138 7:-0.50802 8:-0.017911 9:-0.57884 10:0.353383 
1 1:-0.0621774 2:0.0861565 3:-0.428571 4:-0.4375 5:-0.625 6:0.0344828 7:-0.253951 8:-0.38991 9:0.373026 10:0.0526316 
1 1:0.046392 2:0.0577884 3:-0.428571 4:-0.125 5:-1 6:-0.172414 7:-0.183772 8:-0.198833 9:-0.218022 10:0.0526316 
1 1:0.0741683 2:0.0263409 3:-0.357143 4:-0.25 5:-0.75 6:0.172414 7:-0.0855759 8:-0.322 9:0.0297074 
1 1:0.00537828 2:0.0111966 3:-0.357143 4:0.0625 5:-0.875 6:0.172414 7:-0.0855759 8:-0.322 9:0.0297074 
1 1:0.104416 2:-0.0266837 3:0.142857 4:-0.75 5:0.3125 6:-0.517241 7:-0.437911 8:-0.191956 9:-0.449488 10:0.368421 
1 1:0.210973 2:0.0171426 3:-0.349206 4:-0.3125 5:-0.25 6:0.0344828 7:0.0888082 8:-0.0994497 9:-0.170243 10:-0.0643284 
1 1:0.120956 2:0.0787005 3:-0.298701 4:-0.3125 5:-0.375 6:-0.448276 7:-0.324275 8:-0.109517 9:0.399224 10:0.244019 
1 1:0.0826736 2:0.0998275 3:-0.190476 4:-0.8125 5:-0.3125 6:-0.793103 7:-0.594296 8:-0.0714416 9:-0.197509 10:0.403509 
1 1:-0.0537303 2:0.0929332 3:-0.428571 4:-0.875 5:0.1875 6:-0.931034 7:-0.709662 8:-0.0585803 9:0.471391 10:0.315789 
1 1:-0.192284 2:0.00241566 3:-0.285714 4:-0.9375 5:-1 6:-0.517241 7:-0.540461 8:-0.342064 9:-0.111526 10:0.0526316 
1 1:0.320959 2:0.0705978 3:-0.298701 4:-0.5625 5:0.125 6:-0.448276 7:-0.455394 8:-0.285447 9:-0.321485 10:-0.0430632 
1 1:-0.142843 2:0.141786 3:-0.496599 4:-1 5:-1 6:-0.724138 7:-0.478599 8:0.0412996 9:-0.0266291 10:0.353383 
1 1:-0.0115313 2:0.105142 3:-0.422925 4:-0.75 5:-1 6:0.37931 7:-0.0578954 8:-0.392225 9:0.704122 10:-0.0389011 
1 1:0.335859 2:0.154246 3:-0.190476 4:-0.5 5:0.3125 6:-0.37931 7:-0.461657 8:-0.350659 9:0.230123 10:0.315789 
1 1:-0.0310502 2:0.0420315 3:-0.428571 4:-0.8125 5:0.3125 6:-0.241379 7:-0.0852961 8:-0.0375617 9:0.00521559 10:0.278196 
1 1:0.216958 2:0.034557 3:-0.353383 4:-0.125 5:-0.0625 6:0.103448 7:-0.137992 8:-0.328681 9:0.326446 10:-0.00277053 
1 1:-0.484111 2:-0.00766584 3:-0.503401 4:0.0625 5:-1 6:0.241379 7:-0.0175364 8:-0.304493 9:0.320117 10:0.102758 
1 1:-0.338396 2:-0.0718807 3:-0.25 4:-0.625 6:-0.655172 7:-0.373028 8:0.110873 9:-0.352495 10:0.184211 
1 1:-0.201206 2:0.00487732 3:-0.428571 4:-0.0625 5:-0.875 6:-0.0344828 7:-0.16116 8:-0.271222 9:0.63152 10:-0.256966 
1 1:0.209098 2:0.21422 3:-0.269841 4:-0.4375 5:-0.375 6:-0.586207 7:-0.386432 8:-0.0250298 9:-0.0244564 10:0.520467 
1 1:-0.107031 2:-0.0315852 3:-0.318681 4:-0.625 6:-0.310345 7:-0.456883 8:-0.39386 9:-0.559949 10:0.214575 
1 1:-0.107031 2:-0.0315852 3:-0.318681 4:-0.5625 5:-0.8125 6:-0.310345 7:-0.456883 8:-0.39386 9:-0.559949 10:0.214575 
1 1:-0.00303316 2:0.0087629 3:-0.285714 4:-0.625 5:0.125 6:-0.517241 7:-0.632109 8:-0.476211 9:-0.407173 10:0.263158 
1 1:0.0157962 2:0.0403849 3:-0.428571 4:-0.4375 5:-0.3125 6:0.724138 7:0.382985 8:-0.25781 9:0.417284 10:-0.0977453 
1 1:-0.0799 2:0.0158727 3:0.183674 4:-0.8125 5:-0.1875 6:-0.724138 7:-0.692601 8:-0.389406 9:-0.423441 10:0.203008 
1 1:-0.0232498 2:0.0335081 3:-0.428571 4:-0.9375 5:-0.0625 6:-0.103448 7:-0.136614 8:-0.2032 9:0.0409391 10:-0.0131579 
1 1:0.117647 2:0.0485 3:-0.339286 5:-0.375 6:-0.103448 7:-0.136614 8:-0.2032 9:0.0409391 10:-0.0131579 
1 1:0.0680907 2:0.0527089 3:-0.318681 4:-0.1875 5:-0.375 6:-0.310345 7:-0.408982 8:-0.338769 9:0.0210304 10:-0.0283411 
1 1:-0.1711 2:0.025178 3:-0.607143 4:-0.75 5:-0.3125 6:-0.655172 7:-0.557315 8:-0.218818 9:-0.603545 10:0.315789 
1 1:-0.1711 2:0.025178 3:-0.607143 4:-0.6875 6:-0.655172 7:-0.557315 8:-0.218818 9:-0.603545 10:0.315789 
1 1:-0.238315 2:0.00487732 3:-0.349206 4:-0.5 5:1 6:0.0344828 7:0.235258 8:0.0246557 9:0.220622 10:0.111112 
1 1:-0.21507 2:0.00672519 3:-0.428571 4:-0.3125 5:-0.3125 6:0.0344828 7:0.235258 8:0.0246557 9:0.220622 10:0.111112 
1 1:-0.252499 2:-0.125931 3:-0.547619 4:-0.375 6:-0.37931 7:-0.389916 8:-0.261801 9:-0.251799 10:0.315789 
1 1:0.260963 2:0.11099 3:-0.25 4:-0.875 5:-0.75 6:-0.655172 7:-0.433204 8:0.00322011 9:0.179597 10:0.315789 
1 1:0.0464042 2:0.0268557 3:-0.25 4:-0.8125 5:-0.8125 6:-0.655172 7:-0.40074 8:0.0612964 9:-0.390606 10:0.0526316 
1 1:0.168223 2:0.105485 3:-0.22449 4:-0.5625 5:-0.375 6:-0.724138 7:-0.611981 8:-0.227146 9:-0.412228 10:0.0526316 
1 1:0.0985968 2:0.0277432 3:-0.285714 4:-0.5625 5:-0.3125 6:-0.517241 7:-0.224742 8:0.120065 9:-0.0649415 10:-0.0526316 
1 1:-0.0541485 2:0.0487218 3:-0.428571 4:-0.6875 5:0.125 6:-0.655172 7:-0.53189 8:-0.173332 9:-0.47911 10:0.315789 
1 1:-0.0808966 2:0.0438601 3:-0.428571 4:-0.5625 5:-0.3125 6:-0.655172 7:-0.620208 8:-0.331334 9:-0.462286 10:0.184211 
1 1:0.155695 2:0.0295978 3:-0.349206 4:-0.4375 5:-0.0625 6:0.0344828 7:-0.155915 8:-0.306833 9:-0.24945 10:-0.00584842 
1 1:0.0738898 2:0.0971992 3:-0.309524 4:-1 5:0.1875 6:-0.37931 7:-0.216337 8:-0.0468199 9:-0.179156 10:0.228069 
1 1:-0.127761 2:0.055032 3:-0.285714 4:-0.8125 5:0.3125 6:-0.517241 7:-0.573583 8:-0.390544 9:0.19834 10:-0.0526316 
1 1:-0.102821 2:-0.0199008 3:-0.22449 4:-0.6875 5:-0.3125 6:-0.724138 7:-0.678627 8:-0.361285 9:-0.524247 10:0.353383 
1 1:0.112974 2:0.0288677 3:-0.269841 4:-0.75 6:-0.586207 7:-0.449066 8:-0.125877 9:-0.368623 10:0.0526316 
1 1:0.278361 2:0.0692896 3:-0.339286 4:-0.1875 5:-0.3125 6:-0.103448 7:-0.290588 8:-0.349032 9:0.0745699 10:-0.0131579 
1 1:0.228303 2:0.0334401 3:-0.238095 4:-0.6875 5:-0.0625 6:-0.172414 7:-0.0811442 8:-0.0955587 9:0.047823 10:0.263158 
1 1:0.068103 2:-0.00746665 3:-0.333333 4:-0.3125 5:0.3125 6:-0.172414 7:-0.0811442 8:-0.0955587 9:0.047823 10:0.263158 
1 1:-0.349085 2:0.0236971 3:-0.428571 4:-0.5 5:-0.3125 6:-0.517241 7:-0.421546 8:-0.168002 9:-0.0914139 10:0.263158 
1 1:0.0678143 2:0.0158019 3:-0.0714286 4:-0.75 5:-0.75 6:-0.655172 7:-0.506963 8:-0.128734 9:-0.449108 10:0.315789 
1 1:0.252796 2:0.0953622 3:-0.344538 4:-0.375 5:-0.75 6:-0.0344828 7:-0.257486 8:-0.357386 9:0.138801 10:0.114552 
1 1:0.0812455 2:0.0513495 3:-0.269841 4:-0.5 5:-0.0625 6:-0.586207 7:-0.217335 8:0.247236 9:-0.13076 10:0.403509 
1 1:-0.0292345 2:-0.144732 3:-0.302983 4:-0.6875 5:-0.3125 6:-0.241379 7:-0.220282 8:-0.182456 9:0.0849279 10:-0.0977453 
1 1:0.369221 2:0.099329 3:-0.309524 4:-0.5 5:-0.6875 6:-0.37931 7:-0.194384 8:-0.0196251 9:0.217505 10:0.140352 
1 1:0.130806 2:0.0259931 3:-0.344538 4:-0.125 5:-0.75 6:-0.0344828 7:-0.0916937 8:-0.209084 9:0.041552 10:-0.0712084 
1 1:0.239867 2:0.176433 3:-0.428571 4:-0.75 5:-0.1875 6:0.0344828 7:0.113054 8:-0.0789024 9:0.30478 10:-0.00584842 
1 1:0.038614 2:0.0863029 3:-0.349206 4:-0.4375 5:-1 6:0.0344828 7:0.113054 8:-0.0789024 9:0.30478 10:-0.00584842 
1 1:0.0254725 2:0.0552244 3:-0.298701 4:-0.8125 5:-0.1875 6:-0.448276 7:-0.296807 8:-0.0726635 9:0.277508 10:-0.0430632 
1 1:0.0507721 2:0.104999 3:-0.428571 4:-1 5:-0.3125 6:-0.37931 7:-0.257748 8:-0.0981068 9:0.32906 10:0.403509 
1 1:0.104992 2:0.0848262 3:-0.298701 4:-0.3125 5:-0.375 6:-0.448276 7:-0.391509 8:-0.199726 9:-0.0651496 10:0.244019 
1 1:-0.276614 2:-0.030287 3:-0.298701 4:-1 5:-0.75 6:-0.448276 7:-0.280246 8:-0.0504398 9:-0.36653 10:0.339714 
1 1:0.186757 2:0.0531634 3:-0.360544 4:-0.6875 5:0.3125 6:0.241379 7:0.228923 8:-0.124117 9:0.424367 10:0.0526316 
1 1:0.097391 2:-0.0926851 3:-0.298701 4:-0.625 5:-0.875 6:-0.448276 7:-0.337301 8:-0.126991 9:-0.430609 10:0.244019 
1 1:0.140053 2:0.141572 3:-0.428571 4:-0.8125 5:-0.25 6:-0.724138 7:-0.519613 8:-0.0412441 9:0.0906112 10:0.0526316 
1 1:0.0375745 2:0.0682198 3:-0.428571 4:-0.625 5:-0.3125 6:-0.724138 7:-0.519613 8:-0.0412441 9:0.0906112 10:0.0526316 
1 1:0.0254572 2:0.156537 3:-0.25 4:-0.625 5:-0.3125 6:-0.655172 7:-0.657347 8:-0.397776 9:0.00264039 10:0.184211 
1 1:-0.0492135 2:0.0340449 3:-0.428571 4:-0.625 5:0.3125 6:-0.103448 7:0.109817 8:0.0302023 9:0.0726557 10:-0.0789474 
1 1:-0.0108428 2:0.0705542 3:-0.428571 4:-0.6875 5:-0.8125 6:-0.655172 7:-0.569483 8:-0.240583 9:-0.341396 10:0.0526316 
1 1:0.0989966 2:0.0297509 3:-0.25 4:-0.8125 5:-0.3125 6:-0.655172 7:-0.520455 8:-0.152872 9:-0.552338 10:0.184211 
1 1:0.185278 2:0.26097 3:-0.428571 4:-0.5625 5:-0.3125 6:-0.586207 7:-0.53736 8:-0.26804 9:0.0507642 10:0.169592 
1 1:0.316847 2:0.0472074 3:-0.333333 4:-0.25 5:-0.3125 6:-0.172414 7:-0.103691 8:-0.11825 9:0.159828 10:-0.157895 
1 1:0.461955 2:0.154758 3:0.142857 4:-0.75 5:-0.75 6:-0.517241 7:-0.368934 8:-0.0909922 9:-0.367859 10:0.473684 
1 1:0.328499 2:0.118516 3:-0.298701 4:-0.8125 5:-0.3125 6:-0.448276 7:-0.253127 8:-0.0140535 9:0.34465 10:0.531101 
1 1:0.0772376 2:0.0691441 3:-0.298701 4:-0.3125 5:-0.375 6:-0.448276 7:-0.253127 8:-0.0140535 9:0.34465 10:0.531101 
1 1:-0.094595 2:0.019678 3:-0.428571 4:-0.6875 5:-0.0625 6:-0.793103 7:-0.770326 8:-0.476337 9:-0.391672 10:0.228069 
1 1:0.0678622 2:0.174989 3:-0.428571 4:-0.625 5:-0.375 6:-0.793103 7:-0.770326 8:-0.476337 9:-0.391672 10:0.228069 
1 1:-0.00654932 2:0.0135731 3:-0.111111 4:-0.875 5:-0.3125 6:-0.586207 7:-0.304691 8:0.106582 9:-0.00199771 10:0.520467 
1 1:0.0929415 2:0.131419 3:-0.25 4:-0.5 5:-0.375 6:-0.655172 7:-0.664302 8:-0.410216 9:-0.205544 10:0.184211 
1 1:0.212856 2:0.0717997 3:-0.298701 4:-0.625 5:-0.3125 6:-0.448276 7:-0.349575 8:-0.143464 9:-0.00416125 10:0.339714 
1 1:-0.101592 2:0.0148714 3:-0.22449 4:-0.9375 5:-1 6:-0.724138 7:-0.691358 8:-0.386903 9:-0.781788 10:0.353383 
1 1:-0.0999451 2:0.0268949 3:-0.428571 4:-1 5:-0.8125 6:-0.655172 7:-0.422875 8:0.0216989 9:-0.461337 10:0.184211 
1 1:0.274172 2:0.0693879 3:-0.318681 4:-0.375 5:0.125 6:-0.310345 7:-0.333446 8:-0.251897 9:0.00215554 10:-0.109312 
1 1:-0.0157278 2:0.0576645 3:-0.190476 4:-1 5:-0.3125 6:-0.793103 7:-0.719253 8:-0.358862 9:-0.489671 10:0.403509 
1 1:0.0999718 2:0.036978 3:-0.22449 4:-0.625 5:0.3125 6:-0.724138 7:-0.600005 8:-0.203041 9:-0.545772 10:0.0526316 
1 1:-0.261117 2:0.0296652 3:-0.324675 4:-0.3125 5:-0.375 6:-0.448276 7:-0.564321 8:-0.431601 9:-0.566447 10:0.339714 
1 1:0.370556 2:0.127455 3:-0.371429 4:-0.5 5:0.3125 6:0.517241 7:0.178838 8:-0.294864 9:1 10:-0.0315789 
1 1:0.0887735 2:0.106554 3:-0.428571 4:-0.875 5:-0.3125 6:-0.655172 7:-0.465902 8:-0.0552732 9:0.178378 10:-0.0789474 
1 1:0.0466449 2:-0.00715021 3:-0.326531 4:-0.5 5:-0.3125 6:-0.241379 7:0.00788036 8:0.0624557 9:-0.147199 10:0.278196 
1 1:0.0559132 2:0.125022 3:-0.428571 4:-0.8125 5:-0.3125 6:-0.793103 7:-0.636984 8:-0.169624 9:-0.203627 10:0.228069 
1 1:-0.0606086 2:0.00224108 3:-0.285714 4:-0.5 5:-0.875 6:-0.517241 7:-0.536249 8:-0.335896 9:-0.477388 10:0.157895 
1 1:-0.1722 2:0.00303326 3:-0.428571 4:-0.6875 5:0.375 6:-0.37931 7:-0.386134 8:-0.257118 9:-0.294674 10:0.140352 
1 1:0.11144 2:0.104727 3:-0.269841 4:-0.4375 5:-0.375 6:-0.586207 7:-0.473838 8:-0.165762 9:-0.30162 10:0.169592 
1 1:0.0122668 2:0.0849212 3:-0.428571 4:-1 5:-0.3125 6:-0.448276 7:-0.559001 8:-0.424462 9:-0.232453 10:0.0526316 
1 1:0.0581849 2:0.0476467 3:-0.298701 4:-0.5625 5:0.1875 6:-0.448276 7:-0.463612 8:-0.296474 9:-0.383031 10:0.0526316 
1 1:0.146254 2:0.0295711 3:-0.285714 4:-0.8125 5:-0.1875 6:-0.517241 7:-0.36049 8:-0.0786313 9:0.0220276 10:0.368421 
1 1:0.232089 2:0.104625 3:-0.428571 4:-0.375 5:-0.375 6:-0.517241 7:-0.432057 8:-0.183386 9:-0.0747048 10:-0.0526316 
1 1:0.123749 2:0.139472 3:-0.269841 4:-0.4375 5:-0.375 6:-0.586207 7:-0.626805 8:-0.412055 9:-0.394306 10:0.169592 
1 1:0.0281288 2:0.0511842 3:-0.22449 4:-0.625 5:0.3125 6:-0.724138 7:-0.728953 8:-0.462566 9:-0.622747 10:0.203008 
1 1:-0.267664 2:0.0118268 3:-0.345029 4:-0.8125 5:-0.625 6:0.103448 7:-0.0959337 8:-0.294822 9:0.443082 10:-0.00277053 
1 1:0.0237496 2:0.014709 3:-0.428571 4:-0.875 5:0.3125 6:-0.517241 7:-0.376914 8:-0.102669 9:-0.52544 10:0.263158 
1 1:0.294769 2:0.0662103 3:-0.285714 4:-0.625 5:-0.3125 6:-0.517241 7:-0.427978 8:-0.177419 9:-0.142744 10:0.0526316 
1 1:-0.112075 2:0.0321405 3:-0.190476 4:-0.875 5:-0.0625 6:-0.793103 7:-0.717984 8:-0.355943 9:-0.509205 10:0.403509 
1 1:0.181916 2:-0.165722 3:-0.03896 4:-0.5625 5:0.3125 6:-0.448276 7:-0.489345 8:-0.331 9:-0.380559 10:-0.0430632 
1 1:0.0569425 2:0.00518533 3:-0.309524 4:-0.5 5:-0.0625 6:-0.37931 7:-0.285851 8:-0.132913 9:-0.378094 10:0.315789 
1 1:0.0173844 2:0.136778 3:0.04762 4:-1 5:0.0625 6:-1 7:-0.759316 8:-0.0150085 9:-0.549374 10:0.754385 
1 1:0.136253 2:0.0784004 3:-0.0912686 4:-0.5 5:-0.375 6:-0.655172 7:-0.422803 8:0.0218282 9:-0.22902 10:0.184211 
1 1:-0.231055 2:-0.0342816 3:-0.362519 4:0.75 5:-0.75 6:0.862069 7:-0.766933 8:-0.905035 9:-0.653768 10:-0.543859 
1 1:-0.00565778 2:0.0973567 3:-0.22449 4:-0.25 5:-0.3125 6:-0.241379 7:-0.553663 8:-0.54031 9:-0.315932 10:0.203008 
1 1:0.0102124 2:0.00182306 3:-0.326531 4:-0.6875 5:-0.0625 6:-0.241379 7:-0.0493843 8:0.000988977 9:-0.0283009 10:0.353383 
1 1:0.604457 2:0.120478 3:-0.318681 4:-0.6875 5:-0.3125 6:-0.310345 7:0.0160081 8:0.150004 9:0.0766648 10:0.214575 
1 1:0.519535 2:0.0578398 3:-0.318681 4:-0.625 5:0.1875 6:-0.310345 7:0.0160081 8:0.150004 9:0.0766648 10:0.214575 
1 1:-0.0892254 2:0.00837513 3:-0.428571 4:-0.875 5:-0.375 6:-0.448276 7:-0.254508 8:-0.0159051 9:-0.391137 10:0.435406 
1 1:0.0677776 2:0.0452308 3:-0.285714 4:-0.75 5:-0.3125 6:-0.517241 7:-0.648994 8:-0.500925 9:-0.480235 10:0.157895 
1 1:-0.164717 2:-0.0530472 3:-0.428571 4:-0.625 5:-0.0625 6:-0.655172 7:-0.455948 8:-0.03747 9:-0.103709 10:0.315789 
1 1:0.189394 2:0.0955851 3:-0.318681 4:-0.5625 5:-0.25 6:-0.310345 7:-0.388217 8:-0.314886 9:0.0846717 10:-0.109312 
1 1:-0.0712152 2:0.081414 3:-0.428571 4:-0.8125 5:-1 6:-0.586207 7:-0.495305 8:-0.200326 9:-0.31713 10:0.169592 
1 1:-0.173856 2:0.0234916 3:-0.428571 4:-0.6875 6:-0.586207 7:-0.495305 8:-0.200326 9:-0.31713 10:0.169592 
1 1:0.383628 2:0.10131 3:-0.339286 4:-0.4375 6:-0.103448 7:-0.169247 8:-0.234106 9:-0.00586737 10:-0.0789474 
1 1:-0.0123504 2:0.0373533 3:-0.0714286 4:-0.875 5:-0.6875 6:-0.931034 7:-0.685442 8:0.0194177 9:0.00657867 10:0.842105 
1 1:0.293809 2:0.0524784 3:-0.333333 4:-0.4375 5:-0.875 6:-0.172414 7:-0.212636 8:-0.22788 9:-0.0995969 10:-0.0175432 
1 1:0.0435541 2:0.0402772 3:-0.269841 4:-0.625 5:0.5 6:-0.586207 7:-0.620803 8:-0.402392 9:-0.188574 10:0.169592 
1 1:0.301859 2:0.0679284 3:-0.285714 4:-0.9375 5:-0.75 6:-0.517241 7:0.0285624 8:0.490834 9:-0.0368933 10:0.684211 
1 1:0.184131 2:0.120037 3:-0.298701 4:-0.375 5:-0.25 6:-0.448276 7:-0.150976 8:0.123009 9:-0.0780988 10:0.435406 
1 1:0.293434 2:0.160838 3:-0.22449 4:-0.5625 5:-0.375 6:-0.724138 7:-0.330761 8:0.338846 9:0.277713 10:0.203008 
1 1:0.0872465 2:0.0601273 3:-0.190476 4:-0.75 5:-0.3125 6:-0.793103 7:-0.622205 8:-0.135632 9:-0.0463113 10:0.403509 
1 1:-0.175267 2:0.0914683 3:-0.428571 4:-0.8125 5:-0.3125 6:-0.241379 7:-0.331411 8:-0.301745 9:-0.282937 10:0.203008 
1 1:0.0599374 2:0.0602677 3:-0.428571 4:-0.6875 5:-1 6:0.0344828 7:0.218953 8:0.0108352 9:0.589228 10:-0.00584842 
1 1:0.0573036 2:0.0100962 3:-0.373626 4:0.375 5:-0.8125 6:0.586207 7:0.0943459 8:-0.372562 9:0.619078 10:-0.0688253 
1 1:0.058289 2:0.0173591 3:-0.269841 4:-0.5625 5:-0.6875 6:-0.586207 7:-0.513591 8:-0.229769 9:-0.353728 10:0.0526316 
1 1:0.0709041 2:0.0524847 3:-0.269841 4:-0.5625 5:-0.3125 6:-0.586207 7:-0.547786 8:-0.284826 9:-0.274827 10:0.286549 
1 1:-0.152579 2:0.0136827 3:-0.428571 4:-0.5625 5:-0.0625 6:-0.517241 7:-0.526891 8:-0.3222 9:-0.627264 10:0.263158 
1 1:-0.110912 2:0.00823443 3:-0.269841 4:-1 5:-0.3125 6:-0.586207 7:-0.397583 8:-0.0429832 9:0.0268235 10:0.286549 
1 1:0.326412 2:0.125139 4:-0.8125 5:-0.75 6:-0.517241 7:-0.167747 8:0.203493 9:-0.0255267 10:0.368421 
1 1:0.38466 2:0.102895 3:-0.285714 4:-0.6875 6:-0.517241 7:-0.167747 8:0.203493 9:-0.0255267 10:0.368421 
1 1:0.00810083 2:0.00487732 3:-0.25 4:-0.625 5:-0.1875 6:-0.103448 7:0.0503762 8:-0.0260974 9:0.239101 10:0.118421 
1 1:-0.0172977 2:-0.0286059 3:-0.298701 4:-1 5:-0.3125 6:-0.448276 7:-0.231951 8:0.0143591 9:-0.140663 10:0.435406 
1 1:-0.185459 2:0.0111902 3:-0.428571 4:-0.9375 5:0.3125 6:-0.517241 7:-0.0773471 8:0.335814 9:0.736925 10:0.368421 
1 1:-0.0236231 2:0.0351928 3:-0.428571 4:-0.375 5:-0.3125 6:-0.448276 7:0.451185 8:0.93096 9:0.278011 10:0.626794 
1 1:0.00868125 2:0.017661 3:-0.37931 4:-0.75 5:-0.1875 6:0.793103 7:-0.801517 8:-0.919352 9:-0.860527 10:-0.782215 
1 1:0.0460768 2:0.0643419 3:-0.357143 4:-0.25 5:0.3125 6:0.172414 7:-0.240065 8:-0.440451 9:0.588837 10:-0.105263 
1 1:0.273078 2:0.0790691 3:-0.357143 4:-0.0625 5:-1 6:0.172414 7:-0.240065 8:-0.440451 9:0.588837 10:-0.105263 
1 1:0.109749 2:0.124196 3:-0.269841 4:-0.5 5:-0.3125 6:-0.586207 7:-0.608179 8:-0.382066 9:0.232117 10:0.0526316 
1 1:-0.108628 2:-0.132951 3:-0.238095 4:-0.6875 5:-0.0625 6:-0.172414 7:-0.0965942 8:-0.111106 9:0.197441 10:-0.08772 
1 1:-0.0822798 2:0.0152336 3:-0.428571 4:-0.6875 5:-0.3125 6:-0.655172 7:-0.490024 8:-0.0984321 9:0.258925 10:-0.0789474 
1 1:0.185365 2:0.0348687 3:-0.357143 4:-0.0625 6:0.172414 7:-0.0405184 8:-0.287457 9:0.370642 
1 1:0.101034 2:0.101514 3:-0.285714 4:-0.5625 5:0.3125 6:-0.517241 7:-0.353981 8:-0.0691021 9:0.160825 10:0.368421 
1 1:0.149942 2:0.0348088 3:-0.25 4:-0.75 5:-0.8125 6:-0.655172 7:-0.584265 8:-0.267027 9:-0.435242 10:0.184211 
0.3084565798141296 1:-0.111832 2:-0.0139612 3:-0.357143 4:0.1875 5:0.3125 6:0.172414 7:-0.314518 8:-0.497534 9:0.31647 10:-0.105263 
1 1:-0.0432389 2:0.0279648 3:-0.428571 4:-0.4375 5:-1 6:0.103448 7:0.0964335 8:-0.139956 9:0.11251 10:-0.00277053 
1 1:-0.0165684 2:-0.00603346 3:-0.353383 4:-0.1875 5:-1 6:0.103448 7:-0.268355 8:-0.433632 9:0.527778 10:-0.0581726 
1 1:-0.172996 2:0.0179423 3:-0.25 4:-0.8125 5:0.375 6:-0.655172 7:-0.618389 8:-0.328081 9:-0.0173666 10:0.0526316 
1 1:0.0988671 2:0.00712033 3:-0.373626 4:-0.25 5:-0.3125 6:0.586207 7:0.00288923 8:-0.427101 9:0.229345 10:0.0121453 
1 1:-0.141172 2:0.0159574 3:-0.428571 4:-0.875 5:-0.8125 6:-0.310345 7:-0.11293 8:0.00171462 9:0.0418241 10:0.214575 
1 1:-0.201206 2:0.00487732 3:-0.428571 4:-0.3125 5:0.3125 6:-0.103448 7:0.0102762 8:-0.0640768 9:0.199927 10:-0.0789474 
1 1:0.309278 2:0.153276 3:-0.339286 5:-0.375 6:-0.103448 7:0.0102762 8:-0.0640768 9:0.199927 10:-0.0789474 
1 1:-0.0191757 2:0.0116947 3:-0.428571 4:-0.9375 5:-0.3125 6:0.37931 7:0.411484 8:-0.0773302 9:0.106003 10:0.00686526 
1 1:-0.0399666 2:-0.0108468 3:-0.36646 4:-0.75 5:-0.625 6:0.37931 7:0.411484 8:-0.0773302 9:0.106003 10:0.00686526 
1 1:0.122458 2:0.0488769 3:-0.360813 4:-0.375 5:-0.0625 6:0.37931 7:0.411484 8:-0.0773302 9:0.106003 10:0.00686526 
1 1:-0.182885 2:0.00256315 3:-0.428571 4:0.125 5:-0.25 6:0.37931 7:0.411484 8:-0.0773302 9:0.106003 10:0.00686526 
1 1:-0.188395 2:-0.0119846 3:-0.428571 4:-0.5 5:-0.1875 6:-0.586207 7:-0.304442 8:0.106983 9:-0.0308258 10:0.0526316 
1 1:-0.201206 2:0.00487732 3:-0.428571 4:-0.9375 5:0.0625 6:-0.517241 7:-0.31831 8:-0.0168893 9:-0.00403089 10:0.473684 
1 1:0.0997821 2:0.247493 3:-0.142857 4:-1 5:-0.3125 6:-0.862069 7:-0.72815 8:-0.270488 9:-0.353103 10:0.0526316 
1 1:-0.128533 2:0.0270418 3:-0.428571 4:-0.875 5:-0.8125 6:-0.241379 7:-0.18141 8:-0.140728 9:-0.0739615 10:0.0526316 
1 1:0.0170815 2:0.0092888 3:-0.25 4:-0.6875 5:-0.1875 6:-0.655172 7:-0.581561 8:-0.262189 9:-0.272458 10:0.184211 
1 1:-0.0216758 2:0.0148246 3:-0.25 4:-0.625 5:-0.625 6:-0.655172 7:-0.581561 8:-0.262189 9:-0.272458 10:0.184211 
1 1:-0.0579615 2:0.071047 3:-0.111111 4:-0.5625 5:-0.3125 6:-0.586207 7:-0.596573 8:-0.363378 9:-0.400054 10:0.169592 
1 1:0.253404 2:0.0339597 3:-0.339286 4:-0.625 5:-0.0625 6:-0.103448 7:-0.0247653 8:-0.0972644 9:-0.156478 10:0.0526316 
1 1:0.128427 2:0.0307048 3:-0.25 4:-0.8125 5:-0.25 6:-0.655172 7:-0.472584 8:-0.0672337 9:-0.350507 10:0.315789 
1 1:-0.201206 2:0.00487732 3:-0.428571 4:-1 5:-0.375 6:-0.37931 7:-0.190903 8:-0.0153171 9:-0.0928524 10:0.0526316 
1 1:0.14837 2:0.0925995 3:-0.309524 4:-0.3125 5:-0.625 6:-0.37931 7:-0.190903 8:-0.0153171 9:-0.0928524 10:0.0526316 
1 1:0.12262 2:0.155758 3:-0.428571 4:-0.5 5:-0.375 6:-0.655172 7:-0.607431 8:-0.308472 9:-0.374112 10:0.184211 
1 1:0.148734 2:0.03572 3:-0.298701 4:-0.5625 6:-0.448276 7:-0.421217 8:-0.23959 9:-0.432148 10:0.148326 
1 1:0.237436 2:0.175477 3:-0.289683 4:-0.5625 5:-0.3125 6:-0.655172 7:-0.489324 8:-0.097181 9:-0.0581673 10:-0.0789474 
1 1:0.0162144 2:-0.0456766 3:0.04762 4:-0.75 5:-0.8125 6:-0.586207 7:-0.50559 8:-0.216887 9:-0.391482 10:0.0526316 
1 1:0.0162144 2:-0.0456766 3:0.04762 4:-0.625 5:-1 6:-0.586207 7:-0.50559 8:-0.216887 9:-0.391482 10:0.0526316 
1 1:-0.00906173 2:0.0580983 3:-0.269841 4:-0.75 5:0.1875 6:-0.586207 7:-0.394915 8:-0.0386877 9:-0.111364 10:-0.0643284 
1 1:-0.178351 2:-0.000802016 3:-0.269841 4:-0.9375 5:-0.6875 6:-0.586207 7:-0.659572 8:-0.464814 9:-0.753734 10:0.286549 
1 1:-0.145504 2:0.0242498 3:-0.420807 4:0.375 5:-0.625 6:0.448276 7:0.294875 8:-0.19063 9:0.372543 10:-0.0789474 
1 1:0.369842 2:0.157664 3:-0.339286 4:-0.4375 5:-0.75 6:-0.103448 7:-0.0768239 8:-0.14657 9:0.0617854 10:-0.144737 
1 1:0.0866273 2:0.0705527 3:-0.428571 5:-0.375 6:-0.103448 7:-0.0768239 8:-0.14657 9:0.0617854 10:-0.144737 
1 1:0.227271 2:-0.175431 3:0.04762 4:-0.625 5:-1 6:-0.586207 7:-0.474659 8:-0.167084 9:-0.499441 10:0.637427 
1 1:0.0889969 2:0.108812 3:-0.25 4:-0.5 5:-0.375 6:-0.655172 7:-0.65282 8:-0.389673 9:-0.45693 10:0.315789 
1 1:0.180737 2:0.0558419 3:-0.309524 4:-0.4375 5:0.1875 6:-0.37931 7:-0.192195 8:-0.0169143 9:-0.0576641 10:-0.0350884 
1 1:0.010549 2:0.102931 3:-0.428571 4:-0.5625 5:-0.625 6:-0.655172 7:-0.621091 8:-0.332914 9:-0.205926 10:0.184211 
1 1:0.115712 2:0.0659461 3:-0.22449 4:-0.9375 5:-0.625 6:-0.724138 7:-0.482054 8:0.0343518 9:-0.463379 10:0.50376 
1 1:0.0303178 2:0.0291816 3:-0.339286 5:0.0625 6:-0.103448 7:0.1368 8:0.0557582 9:0.373563 10:0.184211 
1 1:-0.200523 2:0.00246039 3:-0.428571 4:-0.875 5:0.125 6:-0.586207 7:-0.130079 8:0.387726 9:0.36133 10:0.520467 
1 1:0.0998953 2:0.0249155 3:-0.298701 4:-0.5625 5:-0.6875 6:-0.448276 7:-0.451307 8:-0.279963 9:-0.36229 10:0.0526316 
1 1:-0.0161726 2:0.0430891 3:-0.238095 4:-0.75 5:0.1875 6:-0.172414 7:-0.209191 8:-0.224414 9:0.127785 10:-0.0175432 
1 1:0.125297 2:0.0424544 3:-0.285714 4:-0.5 5:0.1875 6:-0.517241 7:-0.420479 8:-0.166442 9:-0.279081 10:-0.0526316 
1 1:-0.0516534 2:0.00635793 3:-0.309524 4:-0.5625 5:-0.6875 6:-0.37931 7:-0.455459 8:-0.342977 9:-0.265178 10:0.140352 
1 1:0.164667 2:0.0249635 3:-0.285714 4:-0.5 5:-0.75 6:-0.517241 7:-0.375639 8:-0.100805 9:-0.0746591 10:-0.157895 
1 1:0.198056 2:0.0703002 3:-0.298701 4:-0.6875 5:-1 6:-0.448276 7:-0.454575 8:-0.284346 9:-0.0284884 10:0.148326 
1 1:0.0836559 2:0.056413 3:-0.428571 4:-0.4375 5:0.0625 6:-0.586207 7:-0.490614 8:-0.192774 9:-0.485198 10:0.169592 
1 1:-0.0157472 2:0.0827821 3:-0.428571 4:-0.75 5:-1 6:-0.241379 7:0.137153 8:0.201216 9:0.0821674 10:0.203008 
1 1:-0.147235 2:0.0163933 3:-0.428571 4:-0.9375 5:-1 6:-0.586207 7:-0.178079 8:0.310441 9:-0.144009 10:0.403509 
1 1:-0.0358394 2:0.0595113 3:-0.357143 4:-0.625 5:0.125 6:0.172414 7:0.187258 8:-0.112816 9:0.139968 10:-0.0526316 
1 1:-0.201206 2:0.00487732 3:-0.428571 4:-0.875 6:-0.793103 7:-0.780461 8:-0.499649 9:-0.34388 10:0.228069 
1 1:0.1905 2:0.0261151 3:-0.318681 4:-0.4375 5:-0.625 6:-0.310345 7:-0.115585 8:-0.00134225 9:-0.00386393 10:0.214575 
1 1:0.1905 2:0.0261151 3:-0.318681 4:-0.375 5:0.125 6:-0.310345 7:-0.115585 8:-0.00134225 9:-0.00386393 10:0.214575 
1 1:0.258288 2:0.0737117 3:-0.318681 4:-0.4375 5:-0.3125 6:-0.310345 7:-0.277663 8:-0.18774 9:-0.277656 10:0.0526316 
1 1:0.146872 2:0.0502977 3:-0.349206 4:0.125 5:-0.375 6:0.0344828 7:0.00410917 8:-0.171226 9:0.191527 10:-0.00584842 
1 1:-0.0144783 2:0.0713399 3:-0.428571 4:-0.5625 5:-0.0625 6:-0.655172 7:-0.503039 8:-0.121715 9:0.162237 10:0.184211 
1 1:-0.213396 2:0.00282198 3:-0.428571 4:-0.9375 5:0.0625 6:-0.655172 7:-0.471603 8:-0.065478 9:-0.132144 10:0.447368 
1 1:-0.211969 2:0.00487732 3:-0.428571 4:-0.875 5:-0.25 6:-0.241379 7:-0.535923 8:-0.521268 9:0.421277 10:-0.0225558 
1 1:-0.0522726 2:0.0616827 3:-0.326531 4:-0.6875 5:-0.8125 6:-0.241379 7:-0.535923 8:-0.521268 9:0.421277 10:-0.0225558 
1 1:0.198312 2:0.0885724 3:-0.285714 4:-0.5 5:-1 6:-0.517241 7:-0.154747 8:0.222522 9:-0.0821423 10:0.263158 
1 1:0.213119 2:0.0513808 3:-0.25 4:-0.6875 5:-0.3125 6:-0.655172 7:-0.45844 8:-0.0419239 9:0.123531 10:0.0526316 
1 1:-0.00179888 2:0.0570203 3:-0.326531 4:-0.5625 5:-0.3125 6:-0.241379 7:-0.22007 8:-0.182227 9:-0.236149 10:0.127819 
1 1:0.187989 2:0.0889543 3:-0.285714 4:-0.5 5:-0.6875 6:-0.517241 7:-0.497369 8:-0.278987 9:0.0112076 10:-0.0526316 
1 1:-0.201206 2:0.00487732 3:-0.428571 4:-0.8125 5:-0.875 6:-0.310345 7:-0.131747 8:-0.0199253 9:0.217182 10:-0.109312 
1 1:-0.0334749 2:0.0584153 3:-0.22449 4:-0.75 5:-0.75 6:-0.724138 7:-0.613491 8:-0.230186 9:-0.508192 10:0.203008 
1 1:-0.0428105 2:0.042449 3:-0.190476 4:-0.75 5:-0.625 6:-0.793103 7:-0.739498 8:-0.405424 9:-0.0179109 10:0.0526316 
1 1:-0.0428105 2:0.042449 3:-0.190476 4:-0.6875 5:-0.3125 6:-0.793103 7:-0.739498 8:-0.405424 9:-0.0179109 10:0.0526316 
1 1:0.131774 2:0.080065 3:-0.269841 4:-0.625 5:0.125 6:-0.586207 7:-0.636611 8:-0.427844 9:0.305146 10:-0.181286 
1 1:0.141156 2:0.0567142 3:-0.318681 4:-0.3125 5:-1 6:-0.310345 7:-0.327391 8:-0.244932 9:0.117447 10:-0.0283411 
1 1:0.0098176 2:0.00487732 3:-0.309524 4:-0.8125 5:-0.6875 6:-0.37931 7:-0.537752 8:-0.4449 9:-0.596153 10:0.315789 
1 1:0.147449 2:0.0933988 3:-0.339286 4:-0.5625 5:-0.625 6:-0.103448 7:-0.329346 8:-0.38574 9:0.369243 10:-0.0789474 
1 1:-0.0205874 2:0.0244706 3:-0.339286 4:-0.125 5:0.125 6:-0.103448 7:-0.329346 8:-0.38574 9:0.369243 10:-0.0789474 
1 1:0.218032 2:0.0341688 3:-0.269841 4:-0.625 5:0.3125 6:-0.586207 7:-0.286299 8:0.136196 9:0.159622 10:0.0526316 
1 1:0.0311308 2:0.079347 3:-0.428571 4:-0.5625 5:0.3125 6:-0.586207 7:-0.286299 8:0.136196 9:0.159622 10:0.0526316 
1 1:-0.0493226 2:0.0194515 3:-0.285714 4:-1 5:-0.0625 6:-0.517241 7:-0.456793 8:-0.219593 9:0.328044 10:-0.0526316 
1 1:-0.00172034 2:0.060142 3:-0.428571 4:-0.375 5:0.0625 6:-0.517241 7:-0.456793 8:-0.219593 9:0.328044 10:-0.0526316 
1 1:-0.172742 2:0.00952892 3:-0.428571 4:-0.9375 5:-0.75 6:-0.241379 7:-0.129683 8:-0.0852038 9:0.432859 10:-0.172933 
1 1:0.145094 2:0.135257 3:-0.300366 4:-0.625 5:-0.625 6:-0.310345 7:-0.505963 8:-0.450305 9:0.0910343 10:-0.0283411 
1 1:-0.0628027 2:0.0244801 3:-0.428571 4:-1 5:-0.0625 6:0.0344828 7:0.0903701 8:-0.0981277 9:-0.0908124 10:0.111112 
1 1:-0.186449 2:-0.0595549 3:-0.428571 4:-0.9375 5:-0.75 6:-0.724138 7:-0.47059 8:0.0574221 9:0.109726 10:0.353383 
1 1:0.0841435 2:0.0788204 3:-0.428571 4:-0.6875 5:-0.3125 6:-0.724138 7:-0.47059 8:0.0574221 9:0.109726 10:0.353383 
1 1:-0.203322 2:0.0132942 3:-0.428571 4:-0.9375 5:0.3125 6:-0.172414 7:0.0175337 8:0.00374558 9:-0.284275 10:0.192983 
1 1:0.289719 2:0.116216 3:-0.238095 4:-0.625 5:0.3125 6:-0.172414 7:0.0175337 8:0.00374558 9:-0.284275 10:0.192983 
1 1:0.163804 2:0.104582 3:-0.25 4:-0.5625 5:-0.8125 6:-0.655172 7:-0.619969 8:-0.330904 9:-0.0266908 10:-0.0789474 
1 1:0.552385 2:0.143487 3:-0.269841 4:-0.6875 5:0.125 6:-0.586207 7:-0.155548 8:0.346719 9:0.0358138 10:0.403509 
1 1:0.00288525 2:0.122619 3:-0.428571 4:-1 5:-0.0625 6:-0.241379 7:-0.282885 8:-0.249653 9:0.538916 10:0.0526316 
1 1:-0.0489921 2:0.0243309 3:-0.326531 4:-0.375 5:-0.625 6:-0.241379 7:-0.282885 8:-0.249653 9:0.538916 10:0.0526316 
1 1:0.297164 2:0.125099 3:-0.190476 4:-0.625 5:-0.375 6:-0.793103 7:-0.658406 8:-0.218901 9:-0.491595 10:0.0526316 
1 1:0.00638304 2:0.106654 3:-0.428571 4:-0.3125 5:-0.3125 6:-0.310345 7:-0.567978 8:-0.521627 9:0.439029 10:-0.109312 
1 1:0.24955 2:0.0241694 3:-0.269841 4:-0.625 5:-0.75 6:-0.586207 7:-0.400849 8:-0.048242 9:-0.333986 10:0.0526316 
1 1:0.201173 2:0.0327086 3:-0.309524 4:-0.6875 5:-0.625 6:-0.37931 7:-0.347599 8:-0.209393 9:-0.207764 10:-0.0350884 
1 1:0.236026 2:-0.0241419 3:-0.428571 4:-0.625 5:-0.8125 6:-0.37931 7:-0.347599 8:-0.209393 9:-0.207764 10:-0.0350884 
1 1:-0.206094 2:-0.097837 3:-0.22449 4:-1 5:0.3125 6:-0.724138 7:-0.745478 8:-0.495829 9:-0.623472 10:0.203008 
1 1:-0.174654 2:0.0653552 3:-0.538461 4:-0.8125 5:0.3125 6:-0.310345 7:-0.363044 8:-0.285939 9:0.619454 10:0.0526316 
1 1:0.17668 2:0.103009 3:-0.25 4:-0.5 5:0.0625 6:-0.655172 7:-0.356584 8:0.140295 9:0.195138 10:0.184211 
1 1:-0.144093 2:0.0194679 3:-0.428571 4:-0.1875 5:-0.3125 6:-0.0344828 7:-0.117885 8:-0.232509 9:0.201907 10:-0.0712084 
1 1:0.0629731 2:0.0707311 3:-0.285714 4:-0.4375 5:-0.3125 6:-0.517241 7:-0.398502 8:-0.134272 9:0.309597 10:0.157895 
1 1:-0.0521584 2:0.0786905 3:-0.428571 4:-0.6875 5:0.3125 6:-0.724138 7:-0.493901 8:0.0105015 9:-0.251202 10:0.353383 
1 1:-0.159471 2:0.0166214 3:-0.190476 4:-0.75 5:-0.1875 6:-0.793103 7:-0.70566 8:-0.327597 9:-0.597539 10:0.403509 
1 1:0.0621723 2:0.0431963 3:-0.326531 4:-0.6875 5:-0.3125 6:-0.241379 7:-0.0866482 8:-0.039013 9:0.102559 10:0.353383 
1 1:-0.027582 2:0.0462432 3:-0.339286 4:-0.5625 5:0.125 6:-0.103448 7:-0.121464 8:-0.188849 9:0.0778175 10:-0.0789474 
1 1:-0.019754 2:0.0402628 3:-0.25 4:-0.5625 5:-0.3125 6:-0.655172 7:-0.409171 8:0.0462122 9:-0.534728 10:0.447368 
1 1:0.0134205 2:0.00733934 3:-0.339286 4:-0.125 5:-1 6:-0.103448 7:-0.16087 8:-0.226174 9:-0.177354 10:-0.0131579 
1 1:-0.0703971 2:0.00824411 3:-0.428571 4:-0.8125 5:-0.625 6:-0.0344828 7:0.0400495 8:-0.0912383 9:-0.00295598 10:0.238389 
1 1:0.181449 2:0.181837 3:-0.525974 4:-0.75 5:0.125 6:-0.37931 7:-0.386637 8:-0.257739 9:0.143426 10:-0.210526 
1 1:-0.188268 2:0.0250103 3:-0.439394 4:-0.8125 5:0.125 6:-0.37931 7:-0.353763 8:-0.217024 9:-0.0799376 10:0.140352 
1 1:-0.162394 2:0.0143504 3:-0.428571 4:-0.9375 5:-0.625 6:-0.586207 7:-0.42755 8:-0.0912341 9:-0.0802989 10:0.403509 
1 1:0.00832423 2:0.0322588 3:-0.269841 4:-0.4375 5:-0.375 6:-0.586207 7:-0.622339 8:-0.404865 9:-0.551645 10:0.169592 
1 1:-0.239079 2:-0.0183921 3:-0.428571 4:-0.4375 5:-0.6875 6:-0.448276 7:-0.38097 8:-0.185584 9:-0.469845 10:0.244019 
1 1:-0.035667 2:0.0312149 3:-0.357143 4:0.25 5:0.0625 6:0.172414 7:-0.157907 8:-0.377458 9:0.538952 10:0.315789 
1 1:0.138359 2:0.0781826 3:-0.298701 4:-0.6875 5:-0.1875 6:-0.448276 7:-0.470072 8:-0.30514 9:-0.0837592 10:-0.0430632 
1 1:-0.249093 2:-0.00300777 3:-0.190476 4:-1 5:0.1875 6:-0.793103 7:-0.704557 8:-0.325053 9:-0.610674 10:0.228069 
1 1:0.174083 2:-0.106544 3:1 4:-0.8125 5:-0.25 6:-0.931034 7:-0.700076 8:-0.0277155 9:0.0609094 10:0.842105 
1 1:-0.0595946 2:0.00614698 3:-0.424176 4:0.375 5:-0.1875 6:0.586207 7:0.198802 8:-0.310269 9:0.0249504 10:-0.0283411 
1 1:0.130426 2:0.0378663 3:-0.298701 4:-0.625 5:-0.3125 6:-0.448276 7:-0.397339 8:-0.207549 9:-0.128816 10:-0.0430632 
1 1:-0.215162 2:0.0343995 3:-0.446886 4:-0.875 5:-0.625 6:-0.310345 7:8.93198e-005 8:0.131692 9:-0.0934722 10:0.214575 
1 1:-0.033736 2:0.0187722 3:-0.22449 4:-0.6875 5:-0.625 6:-0.724138 7:-0.508931 8:-0.0197418 9:-0.367653 10:0.50376 
1 1:-0.033736 2:0.0187722 3:-0.22449 4:-0.625 5:-0.3125 6:-0.724138 7:-0.508931 8:-0.0197418 9:-0.367653 10:0.50376 
1 1:0.0860826 2:0.0529305 3:-0.333333 4:-0.125 5:-1 6:-0.172414 7:-0.4052 8:-0.421659 9:0.405332 10:-0.157895 
1 1:-0.0814689 2:0.00798021 3:-0.0204086 4:-0.5625 5:0.0625 6:-0.724138 7:-0.647961 8:-0.29956 9:-0.116224 10:0.353383 
1 1:-0.190404 2:0.00331699 3:-0.22449 4:-0.9375 5:-1 6:-0.724138 7:-0.683152 8:-0.370389 9:-0.540256 10:0.50376 
1 1:-0.061546 2:0.0578787 3:-0.292517 4:-0.75 5:-0.625 6:-0.724138 7:-0.683152 8:-0.370389 9:-0.540256 10:0.50376 
1 1:-0.0715896 2:0.00526971 3:-0.304348 4:0.4375 5:-0.375 6:0.37931 7:-0.086371 8:-0.411325 9:0.0924522 10:-0.0846674 
1 1:0.194147 2:0.0341226 3:-0.326531 4:-0.375 5:-0.3125 6:-0.241379 7:-0.205607 8:-0.166705 9:-0.0224164 10:0.0526316 
1 1:0.143988 2:0.0645152 3:-0.298701 4:-0.8125 5:-0.0625 6:-0.448276 7:-0.119351 8:0.165438 9:0.100306 10:0.0526316 
1 1:-0.119982 2:0.0342783 3:-0.547619 4:-1 5:-0.3125 6:-0.37931 7:-0.134866 8:0.05409 9:-0.134511 10:0.228069 
1 1:0.0695525 2:0.0985308 3:-0.428571 4:-0.3125 5:-0.625 6:-0.0344828 7:-0.125414 8:-0.239244 9:-0.162246 10:0.0526316 
1 1:0.188894 2:0.0189491 3:-0.260504 4:-0.25 5:0.1875 6:-0.0344828 7:-0.125414 8:-0.239244 9:-0.162246 10:0.0526316 
1 1:-0.289957 2:-0.0223965 3:-0.428571 4:-0.875 5:-0.5625 6:-0.655172 7:-0.43573 8:-0.00130054 9:-0.305887 10:0.447368 
1 1:0.0377051 2:0.0514487 3:-0.309524 4:-0.3125 5:0.1875 6:-0.37931 7:-0.379638 8:-0.249073 9:-0.0429791 10:0.140352 
1 1:0.549761 2:0.0569527 3:-0.190476 4:-0.8125 5:-0.0625 6:-0.37931 7:0.188092 8:0.454085 9:0.48872 10:0.315789 
1 1:0.541254 2:0.243907 3:-0.530612 4:-0.75 5:-0.75 6:-0.241379 7:-0.152973 8:-0.110205 9:0.197432 10:-0.398497 
1 1:-0.149793 2:0.0146643 3:-0.428571 4:-0.9375 5:-0.625 6:-0.172414 7:-0.179866 8:-0.194901 9:-0.0706453 10:0.192983 
1 1:0.0785301 2:-0.00979533 3:-0.309524 4:-0.4375 6:-0.448276 7:-0.309825 8:-0.090129 9:0.0970446 10:0.0526316 
1 1:-0.0540832 2:0.0476785 3:-0.428571 4:-0.375 6:-0.448276 7:-0.309825 8:-0.090129 9:0.0970446 10:0.0526316 
1 1:-0.189517 2:0.00675085 3:-0.428571 4:-1 5:-0.625 6:-0.310345 7:-0.411828 8:-0.342043 9:0.0315256 10:0.133604 
1 1:-0.0187095 2:0.112521 3:-0.428571 4:-0.375 5:0.0625 6:-0.517241 7:-0.496406 8:-0.277578 9:-0.347553 10:0.157895 
1 1:0.206799 2:0.103672 3:-0.36646 4:-0.375 5:-0.6875 6:0.37931 7:-0.060628 8:-0.39406 9:0.468329 10:0.00686526 
1 1:-0.0947878 2:0.0180463 3:-0.36646 4:0.25 5:-0.3125 6:0.37931 7:-0.060628 8:-0.39406 9:0.468329 10:0.00686526 
1 1:-0.148629 2:0.413037 3:-0.428571 4:-0.9375 5:-0.1875 6:-0.655172 7:-0.598168 8:-0.291903 9:0.347447 10:-0.0789474 
1 1:0.0631465 2:0.0542376 3:-0.333333 4:-0.3125 5:-0.75 6:-0.172414 7:-0.0653264 8:-0.0796405 9:-0.122685 10:-0.08772 
1 1:-0.297477 2:-0.0292837 3:-0.371429 4:-0.5625 5:-0.3125 6:0.517241 7:-0.745602 8:-0.867343 9:-0.739424 10:-0.536842 
1 1:-0.0785403 2:0.0298294 3:-0.428571 4:-0.125 5:-0.1875 6:-0.103448 7:-0.2083 8:-0.271097 9:0.0274021 10:0.25 
1 1:-0.166304 2:0.0162629 3:-0.428571 4:-1 5:-0.3125 6:-0.517241 7:-0.592245 8:-0.41786 9:-0.214635 10:0.263158 
1 1:0.375981 2:0.206795 3:-0.111111 4:-0.8125 5:-0.3125 6:-0.586207 7:-0.369509 8:0.00221923 9:0.477801 10:0.403509 
1 1:-0.145057 2:0.0115434 3:-0.269841 4:-0.625 5:-0.25 6:-0.586207 7:-0.369509 8:0.00221923 9:0.477801 10:0.403509 
1 1:-0.0205252 2:-0.000331613 3:-0.269841 4:-0.5 5:0.3125 6:-0.586207 7:-0.369509 8:0.00221923 9:0.477801 10:0.403509 
1 1:-0.286602 2:-0.0189609 3:-0.428571 4:-0.9375 5:0.125 6:-0.310345 7:-0.242627 8:-0.147446 9:0.0210853 10:0.133604 
1 1:0.373509 2:0.0867416 3:-0.318681 4:-0.375 5:-1 6:-0.310345 7:-0.242627 8:-0.147446 9:0.0210853 10:0.133604 
1 1:0.175143 2:0.0334552 3:-0.371429 4:0.25 6:0.517241 7:-0.122951 8:-0.481754 9:0.525722 10:0.0105263 
1 1:-0.201206 2:0.00487732 3:-0.428571 4:-1 5:-0.875 6:-0.37931 7:-0.1822 8:-0.00453673 9:0.0215542 10:0.0526316 
1 1:-0.165589 2:0.00930853 3:-0.428571 4:-0.3125 5:0.1875 6:-0.37931 7:-0.1822 8:-0.00453673 9:0.0215542 10:0.0526316 
1 1:-0.155211 2:0.0168159 3:-0.428571 4:-0.3125 5:-0.0625 6:0.0344828 7:-0.231938 8:-0.371256 9:0.471659 10:-0.122806 
1 1:0.168576 2:0.0569111 3:-0.371429 4:-0.5625 5:0.1875 6:0.517241 7:-0.263925 8:-0.569052 9:0.151334 10:-0.0736842 
1 1:-0.19438 2:0.0247049 3:-0.428571 4:-0.9375 5:-0.5625 6:-0.241379 7:-0.00493549 8:0.0486978 9:0.414718 10:0.428571 
1 1:-0.148206 2:-0.0353134 3:-0.417749 4:-0.4375 5:-0.1875 6:-0.448276 7:-0.0676446 8:0.23482 9:0.414624 10:0.148326 
1 1:0.017057 2:0.0526537 3:-0.428571 4:0.125 5:-0.6875 6:0.103448 7:-0.0441186 8:-0.25311 9:0.356417 10:-0.113573 
1 1:-0.0814668 2:0.0662444 3:-0.428571 4:-1 5:-0.3125 6:-0.0344828 7:-0.0247809 8:-0.149227 9:0.476932 10:-0.00928842 
1 1:0.157032 2:0.0697763 3:-0.344538 4:-0.4375 5:0.3125 6:-0.0344828 7:-0.0247809 8:-0.149227 9:0.476932 10:-0.00928842 
1 1:-0.107237 2:0.035605 3:-0.285714 4:-0.875 5:0.5 6:-0.517241 7:-0.645964 8:-0.496492 9:-0.0638231 10:0.0526316 
1 1:0.112565 2:0.156581 3:-0.190476 4:-0.625 5:-0.3125 6:-0.37931 7:-0.363093 8:-0.22858 9:-0.198676 10:-0.0350884 
1 1:0.651284 2:0.338355 3:-0.428571 4:-0.875 5:-1 6:-0.724138 7:-0.283198 8:0.434572 9:0.103636 10:0.0526316 
1 1:0.0351651 2:0.0713998 3:-0.428571 4:-0.5 5:0.0625 6:-0.655172 7:-0.343281 8:0.164091 9:0.00601605 10:0.315789 
1 1:-0.0345898 2:0.0393349 3:-0.428571 4:-0.4375 5:0.0625 6:-0.586207 7:-0.63163 8:-0.419824 9:-0.4471 10:0.403509 
1 1:0.0538874 2:0.0681706 3:-0.190476 4:-0.875 5:0.125 6:-0.793103 7:-0.57284 8:-0.0220897 9:-0.388436 10:0.0526316 
1 1:-0.201883 2:-0.0052575 3:-0.428571 4:-0.75 5:-0.3125 6:-0.862069 7:-0.622842 8:0.0121071 9:-0.568277 10:0.473684 
1 1:0.0465868 2:0.0374698 3:-0.190476 4:-0.4375 6:-0.37931 7:-0.406998 8:-0.282958 9:-0.103958 10:0.228069 
1 1:0.443531 2:0.120205 3:-0.428571 4:-0.75 5:-0.6875 6:-0.517241 7:0.0165235 8:0.473214 9:-0.0831714 10:0.263158 
1 1:0.192731 2:0.225639 3:-0.190476 4:-0.75 5:-1 6:-0.793103 7:-0.620428 8:-0.131545 9:0.0163672 10:0.228069 
1 1:-0.151578 2:0.00653209 3:-0.190476 4:-1 5:-0.8125 6:-0.793103 7:-0.650605 8:-0.20096 9:-0.251298 10:0.0526316 
1 1:-0.151578 2:0.00653209 3:-0.190476 4:-0.9375 5:-0.375 6:-0.793103 7:-0.650605 8:-0.20096 9:-0.251298 10:0.0526316 
1 1:0.144619 2:0.116952 3:-0.0204086 4:-0.625 5:-0.3125 6:-0.724138 7:-0.673706 8:-0.351376 9:-0.288076 10:0.353383 
1 1:0.247272 2:0.0572229 3:-0.318681 4:-0.4375 5:0.1875 6:-0.310345 7:-0.308177 8:-0.222838 9:-0.0199143 10:-0.109312 
1 1:0.291818 2:0.130124 3:-0.269841 4:-0.4375 5:-0.375 6:-0.586207 7:-0.285317 8:0.137776 9:-0.182891 10:0.0526316 
1 1:0.112497 2:-0.389437 3:-0.111111 4:-0.75 6:-0.586207 7:-0.601587 8:-0.371452 9:-0.499567 10:0.0526316 
1 1:0.207666 2:0.0716959 3:-0.300752 4:-0.0625 5:0.3125 6:0.172414 7:0.226737 8:-0.0825473 9:0.648666 10:0.368421 
1 1:-0.192459 2:0.00487732 3:-0.428571 4:-0.875 5:-0.3125 6:-0.724138 7:-0.652462 8:-0.308618 9:-0.3021 10:0.50376 
1 1:-0.0790748 2:0.0395175 3:-0.428571 4:-0.9375 5:-0.8125 6:-0.310345 7:-0.296196 8:-0.209055 9:-0.0326028 10:0.457491 
1 1:-0.141277 2:0.0442716 3:-0.428571 4:-0.9375 5:-0.625 6:-0.724138 7:-0.349218 8:0.301696 9:-0.2537 10:0.203008 
1 1:-0.183698 2:-0.0837869 3:-0.190476 4:-0.875 5:-0.3125 6:-0.793103 7:-0.787081 8:-0.514875 9:-0.529882 10:0.228069 
1 1:0.353268 2:0.0619403 3:-0.318681 4:-0.375 5:-0.6875 6:-0.310345 7:0.0769715 8:0.220116 9:-0.0768638 10:-0.109312 
1 1:-0.0140447 2:0.0461162 3:-0.142857 4:-0.6875 5:-0.375 6:-0.862069 7:-0.883097 8:-0.68629 9:-0.770267 10:0.263158 
1 1:0.66383 2:0.237745 3:-0.357143 4:-0.25 5:-0.3125 6:0.172414 7:-0.0052204 8:-0.260392 9:0.587483 10:0.0526316 
1 1:-0.0209669 2:0.146995 3:0.04762 4:-0.9375 5:-0.3125 6:-1 7:-0.799728 8:-0.177677 9:-0.2795 10:0.403509 
1 1:0.0516024 2:0.0296844 3:-0.142857 4:-0.875 5:-0.8125 6:-0.517241 7:-0.303132 8:0.00532614 9:-0.428267 10:0.157895 
1 1:0.0899425 2:0.0717802 3:-0.428571 4:-0.4375 5:-0.3125 6:-0.517241 7:-0.303132 8:0.00532614 9:-0.428267 10:0.157895 
1 1:0.592661 2:0.135726 3:-0.111111 4:-0.3125 5:-0.3125 6:0.0344828 7:-0.16014 8:-0.310415 9:-0.198616 10:0.0526316 
1 1:0.100012 2:0.0491823 3:-0.285714 4:-0.625 5:0.125 6:-0.517241 7:-0.372264 8:-0.0958674 9:0.13173 10:0.368421 
1 1:0.0651999 2:0.0175112 3:-0.22449 4:-0.3125 5:0.3125 6:-0.241379 7:-0.431917 8:-0.409628 9:0.1477 10:-0.0977453 
1 1:0.709786 2:0.163323 3:-0.142857 4:-0.375 5:-0.75 6:-0.172414 7:0.0135423 8:-0.000274638 9:0.264508 10:-0.157895 
1 1:-0.0820993 2:0.0235618 3:-0.190476 4:-0.9375 5:-0.75 6:-0.37931 7:-0.192962 8:-0.0178652 9:-0.125742 10:0.0526316 
1 1:0.0700411 2:0.0472757 3:-0.428571 4:-0.625 5:-0.3125 6:-0.586207 7:-0.436123 8:-0.105038 9:-0.0731016 10:0.0526316 
1 1:-0.114914 2:0.141365 3:-0.428571 4:-0.6875 5:-0.0625 6:-0.793103 7:-0.630552 8:-0.154836 9:-0.344895 10:0.228069 
1 1:-0.12256 2:0.0256146 3:-0.142857 4:-0.9375 5:0.1875 6:-0.862069 7:-0.826031 8:-0.533153 9:-0.482231 10:0.263158 
1 1:-0.00886792 2:-0.1814 3:-0.22449 4:-0.8125 5:-0.75 6:-0.241379 7:-0.238928 8:-0.202474 9:-0.0729392 10:0.127819 
1 1:0.221577 2:0.10524 3:-0.216641 4:-0.375 5:-0.75 6:-0.241379 7:-0.238928 8:-0.202474 9:-0.0729392 10:0.127819 
1 1:0.113922 2:0.0346069 3:-0.142857 4:-0.75 5:-0.0625 6:-0.517241 7:-0.433311 8:-0.185221 9:0.104372 10:-0.0526316 
1 1:0.417817 2:0.0708639 3:-0.22449 4:-0.875 5:-1 6:-0.724138 7:-0.245336 8:0.510776 9:-0.222598 10:0.654135 
1 1:0.242559 2:0.116119 3:-0.326531 4:-0.75 5:-0.0625 6:-0.241379 7:-0.202123 8:-0.162964 9:0.319966 10:0.203008 
1 1:-0.0409917 2:-0.190118 3:-0.321429 4:-0.6875 5:-1 6:-0.103448 7:-0.249377 8:-0.309998 9:-0.0801297 10:-0.0789474 
1 1:-0.169543 2:-0.0177548 3:-0.22449 4:-0.8125 5:-0.6875 6:-0.724138 7:-0.565914 8:-0.134431 9:-0.416363 10:0.203008 
1 1:0.0972452 2:0.139815 3:-0.335201 4:-0.3125 5:0.125 6:0.0344828 7:-0.166571 8:-0.315866 9:0.129523 10:-0.0643284 
1 1:-0.128029 2:0.0137198 3:-0.428571 4:-0.9375 5:0.125 6:-0.448276 7:-0.0980265 8:0.194055 9:-0.051082 10:0.0526316 
1 1:0.31059 2:0.277445 3:-0.0714286 4:-1 5:0.3125 6:-0.931034 7:-0.611261 8:0.258287 9:-0.113728 10:0.315789 
1 1:-0.0295864 2:0.0172607 3:-0.22449 4:-0.9375 5:-0.3125 6:-0.724138 7:-0.524027 8:-0.0501311 9:-0.577486 10:0.353383 
1 1:-0.0130043 2:0.0176465 3:-0.339286 4:-0.125 5:-1 6:-0.103448 7:0.0969671 8:0.018029 9:0.06332 10:-0.144737 
1 1:0.410076 2:0.110413 3:-0.0714286 4:-0.8125 5:-0.5625 6:-0.655172 7:-0.472483 8:-0.0670544 9:-0.290884 10:0.578947 
1 1:-0.0202885 2:0.0385674 3:-0.428571 4:-0.625 5:-0.75 6:-0.655172 7:-0.404291 8:0.0549449 9:-0.514062 10:0.315789 
1 1:-0.0126013 2:0.0576196 3:-0.344538 4:-0.8125 5:0.125 6:-0.0344828 7:-0.546283 8:-0.615715 9:0.427157 10:-0.0712084 
1 1:-0.17485 2:0.0145863 3:-0.428571 4:-0.625 5:-0.0625 6:-0.37931 7:-0.531587 8:-0.437269 9:0.303758 10:-0.0350884 
1 1:0.025547 2:-0.0272512 3:-0.142857 4:-0.75 5:0.125 6:-0.517241 7:-0.534545 8:-0.333402 9:-0.550161 10:0.0526316 
1 1:-0.124589 2:0.00646877 3:-0.428571 4:-0.875 5:-0.625 6:-0.241379 7:-0.154545 8:-0.111894 9:0.23262 10:0.203008 
1 1:-0.171024 2:0.0188531 3:-0.428571 4:-1 5:0.3125 6:-0.448276 7:-0.440861 8:-0.265942 9:0.0485983 10:0.148326 
1 1:-0.0743723 2:-0.0010095 3:-0.25 4:-0.8125 5:-0.0625 6:-0.655172 7:-0.728593 8:-0.525234 9:-0.649087 10:0.315789 
1 1:0.186613 2:0.0708285 3:-0.318681 4:-0.1875 5:-0.375 6:-0.310345 7:-0.191705 8:-0.0888862 9:0.151211 10:-0.0283411 
1 1:0.00107464 2:0.0485559 3:-0.428571 4:-0.6875 5:0.125 6:-0.655172 7:-0.533732 8:-0.176626 9:-0.608448 10:0.315789 
1 1:0.472224 2:0.162691 3:-0.326531 4:-0.375 5:-0.0625 6:-0.241379 7:-0.353854 8:-0.325833 9:-0.306361 10:0.127819 
1 1:-0.00290055 2:0.0100769 3:-0.349206 4:-0.125 5:-0.8125 6:0.0344828 7:-0.256904 8:-0.392417 9:0.376882 10:-0.0643284 
1 1:0.0431074 2:0.0305328 3:-0.371429 4:0.5 5:-0.625 6:0.517241 7:-0.141978 8:-0.493535 9:0.483986 10:-0.115789 
1 1:0.114859 2:0.0547544 3:-0.208791 4:-0.5625 5:0.3125 6:-0.310345 7:-0.45369 8:-0.390185 9:0.0963631 10:0.0526316 
1 1:-0.233146 2:-0.286369 3:0.04762 4:-0.9375 5:-0.3125 6:-0.793103 7:-0.698636 8:-0.311441 9:-0.464628 10:0.403509 
1 1:-0.247602 2:0.00843457 3:-0.428571 4:-0.875 5:0.3125 6:-0.172414 7:-0.143931 8:-0.158744 9:0.290329 10:0.263158 
1 1:0.313587 2:0.0931716 3:-0.333333 4:-0.625 5:-0.3125 6:-0.172414 7:-0.143931 8:-0.158744 9:0.290329 10:0.263158 
1 1:0.189 2:0.0695614 3:-0.344538 4:0.0625 5:-0.375 6:-0.0344828 7:-0.0652694 8:-0.185446 9:0.180826 10:-0.0712084 
1 1:0.055035 2:0.0529418 3:-0.25 4:-0.625 5:-0.3125 6:-0.655172 7:-0.67203 8:-0.424045 9:0.172906 10:0.0526316 
1 1:-0.144426 2:0.035607 3:-0.571429 4:-1 5:-0.3125 6:-0.517241 7:-0.216001 8:0.13286 9:-0.0443925 10:0.473684 
1 1:0.313173 2:0.0749117 3:-0.142857 4:-0.8125 6:-0.517241 7:-0.216001 8:0.13286 9:-0.0443925 10:0.473684 
1 1:0.202486 2:0.103726 3:-0.142857 4:-0.8125 5:-0.8125 6:-0.517241 7:-0.472385 8:-0.242418 9:-0.253592 10:0.684211 
1 1:0.128202 2:0.0729507 3:-0.269841 4:-0.6875 5:-0.3125 6:-0.586207 7:-0.599178 8:-0.367574 9:-0.153964 10:-0.0643284 
1 1:0.0052671 2:0.0347859 3:-0.111111 4:-0.8125 5:-0.3125 6:-0.586207 7:-0.461328 8:-0.14562 9:-0.23917 10:0.169592 
1 1:0.00828954 2:-0.00872768 3:-0.349206 4:-0.375 5:-0.0625 6:0.0344828 7:0.195578 8:-0.00896981 9:0.191444 10:-0.122806 
1 1:0.130598 2:0.0431229 3:-0.349206 4:0.125 5:-0.375 6:0.0344828 7:0.195578 8:-0.00896981 9:0.191444 10:-0.122806 
1 1:0.121047 2:0.0212737 3:-0.36646 4:-0.6875 5:-0.75 6:0.37931 7:0.0383038 8:-0.327684 9:0.115174 10:-0.0846674 
1 1:0.157869 2:0.0861054 3:-0.269841 4:-0.8125 5:-0.8125 6:-0.586207 7:-0.371666 8:-0.00125467 9:-0.261784 10:0.169592 
1 1:-0.176704 2:-0.00145172 3:-0.373626 4:-0.625 5:-0.0625 6:0.586207 7:-0.658386 8:-0.821442 9:-0.591058 10:-0.190284 
1 1:-0.173226 2:0.0128773 3:-0.571429 4:-0.5 5:-0.75 6:-0.517241 7:-0.519051 8:-0.310724 9:0.0486715 10:0.0526316 
1 1:-0.146773 2:0.0274538 3:-0.309524 4:-0.9375 5:-0.5625 6:-0.586207 7:-0.433197 8:-0.100325 9:-0.21511 10:0.403509 
1 1:0.486521 2:0.0726744 3:-0.333333 4:-0.625 5:-1 6:-0.172414 7:-0.299104 8:-0.314894 9:0.0623983 10:-0.0175432 
1 1:0.091542 2:0.0901107 3:-0.428571 4:-0.5 6:-0.310345 7:-0.0145318 8:0.114877 9:-0.127316 10:0.295547 
1 1:-0.00543133 2:0.0792569 3:-0.428571 4:-0.875 5:0.375 6:-0.310345 7:-0.475283 8:-0.41502 9:0.498675 10:-0.109312 
1 1:0.141685 2:0.0619655 3:-0.190476 4:-0.8125 5:0.125 6:-0.793103 7:-0.738153 8:-0.402334 9:-0.424781 10:0.228069 
1 1:0.103554 2:0.0575008 3:-0.428571 4:-0.8125 5:0.5 6:-0.655172 7:-0.574407 8:-0.249395 9:-0.0332249 10:0.184211 
1 1:-0.43516 2:-0.080831 3:-0.428571 4:-0.75 5:-0.3125 6:-0.448276 7:-0.276638 8:-0.045598 9:-0.220602 10:0.244019 
1 1:-0.226105 2:-0.0350927 3:-0.0989 4:-1 5:-0.375 6:-0.310345 7:-0.172663 8:-0.0669835 9:-0.286905 10:0.700404 
1 1:0.355562 2:0.0748616 3:-0.371429 4:-0.375 5:-0.3125 6:0.517241 7:0.274405 8:-0.235678 9:0.338889 10:-0.157895 
1 1:0.0799255 2:0.028496 3:-0.0714286 4:-0.5625 5:0.3125 6:-0.586207 7:-0.62129 8:-0.403176 9:-0.271506 10:0.0526316 
1 1:0.131148 2:0.0473457 3:-0.360544 4:-0.0625 5:-0.3125 6:0.241379 7:0.0615085 8:-0.246642 9:0.48926 10:-0.0977453 
1 1:0.207239 2:0.0519648 3:-0.357143 4:-0.375 5:-0.0625 6:0.172414 7:0.156503 8:-0.136395 9:0.381053 10:-0.105263 
1 1:0.346112 2:0.130977 3:-0.309524 4:-0.25 5:-0.375 6:-0.37931 7:0.250068 8:0.530848 9:0.341597 10:0.403509 
1 1:-0.120786 2:-0.244394 3:-0.333333 4:-0.8125 5:-0.3125 6:-0.862069 7:-0.736218 8:-0.292141 9:-0.640007 10:0.473684 
1 1:-0.120786 2:-0.244394 3:-0.333333 4:-0.75 5:-0.75 6:-0.862069 7:-0.736218 8:-0.292141 9:-0.640007 10:0.473684 
1 1:-0.054985 2:0.0196986 3:-0.344538 4:-0.9375 5:-0.8125 6:-0.0344828 7:-0.33569 8:-0.427339 9:0.120548 10:-0.00928842 
0.5222791847291773 1:-0.201609 2:-0.0738695 3:-0.607143 4:-0.9375 5:-0.625 6:-0.655172 7:-0.567776 8:-0.23753 9:-0.564002 10:0.184211 
1 1:-0.185458 2:0.00786509 3:-0.428571 4:-1 5:-0.375 6:-0.793103 7:-0.606555 8:-0.0996415 9:-0.371788 10:0.228069 
1 1:-0.0972574 2:-0.0976541 3:-0.208791 4:-0.5 5:0.125 6:-0.310345 7:-0.304046 8:-0.218088 9:-0.346315 10:0.0526316 
1 1:0.033276 2:0.0359514 3:-0.309524 4:-0.25 5:-0.375 6:-0.37931 7:-0.580216 8:-0.497497 9:-0.358617 10:0.140352 
1 1:-0.18375 2:0.0088586 3:-0.428571 4:-0.5625 5:-0.5625 6:-0.37931 7:-0.348492 8:-0.210498 9:8.80623e-005 10:0.0526316 
1 1:-0.141677 2:0.0251598 3:-0.309524 4:-0.4375 5:-0.0625 6:-0.37931 7:-0.348492 8:-0.210498 9:8.80623e-005 10:0.0526316 
1 1:-0.140742 2:0.0148331 3:-0.190476 4:-1 5:-1 6:-0.793103 7:-0.67762 8:-0.263098 9:-0.287856 10:0.578947 
1 1:0.00170912 2:0.0511926 3:-0.190476 4:-0.875 5:-1 6:-0.793103 7:-0.67762 8:-0.263098 9:-0.287856 10:0.578947 
1 1:-0.0127503 2:0.0341633 3:-0.428571 4:-0.625 5:-0.625 6:-0.37931 7:-0.331548 8:-0.189513 9:-0.347896 10:0.0526316 
1 1:0.00821508 2:0.00572532 3:-0.285714 4:-0.625 5:-0.375 6:-0.517241 7:-0.382778 8:-0.111256 9:-0.0678048 10:0.473684 
1 1:-0.166961 2:0.011944 3:-0.428571 4:-0.8125 5:-0.625 6:-0.793103 7:-0.744714 8:-0.417426 9:-0.186548 10:0.228069 
1 1:0.0822768 2:0.182333 3:-0.22449 4:-0.625 5:-1 6:-0.724138 7:-0.415918 8:0.167457 9:-0.118021 10:0.654135 
1 1:-0.142059 2:-0.568046 3:-0.360544 4:0.25 5:-0.75 6:0.241379 7:-0.626033 8:-0.749832 9:-0.631547 10:-0.24812 
1 1:0.116951 2:0.0269694 3:-0.190476 4:-0.8125 5:-0.8125 6:-0.793103 7:-0.679767 8:-0.268032 9:-0.547835 10:0.0526316 
1 1:0.126575 2:0.0619657 3:-0.344538 4:-0.5625 5:-0.375 6:-0.0344828 7:-0.298379 8:-0.393964 9:0.247296 10:-0.133126 
1 1:0.170289 2:0.0265373 3:-0.344538 4:-0.375 5:-0.8125 6:-0.0344828 7:-0.298379 8:-0.393964 9:0.247296 10:-0.133126 
1 1:0.144401 2:0.0157597 3:-0.176471 4:-0.25 5:-0.3125 6:-0.0344828 7:-0.370977 8:-0.458904 9:0.0326211 10:-0.00928842 
1 1:0.158661 2:0.0231635 3:-0.285714 4:-0.8125 5:0.125 6:-0.517241 7:-0.595524 8:-0.422656 9:-0.66205 10:0.0526316 
1 1:-0.500968 2:-0.0325458 3:-0.632653 4:-0.5 5:-0.1875 6:-0.241379 7:-0.353647 8:-0.325612 9:0.443343 10:0.127819 
1 1:-0.105765 2:0.120183 3:-0.0204086 4:-0.8125 5:-0.1875 6:-0.724138 7:-0.652366 8:-0.308426 9:-0.122559 10:0.353383 
1 1:0.0603525 2:0.0285209 3:-0.339286 4:-0.375 5:-0.3125 6:-0.103448 7:-0.20585 8:-0.268774 9:0.538428 10:-0.0789474 
1 1:-0.166345 2:-0.0258626 3:-0.22449 4:-0.625 5:-0.0625 6:-0.724138 7:-0.601595 8:-0.20624 9:-0.449916 10:0.50376 
1 1:0.327576 2:0.0956162 3:-0.190476 4:-0.8125 5:-0.6875 6:-0.793103 7:-0.398031 8:0.379999 9:0.391011 10:0.578947 
1 1:0.265817 2:0.0777273 3:-0.285714 4:-0.625 5:-0.75 6:-0.517241 7:-0.314658 8:-0.0115471 9:0.071336 10:0.157895 
1 1:0.181445 2:0.094301 3:-0.190476 4:-0.75 5:-1 6:-0.793103 7:-0.439589 8:0.284406 9:-0.262987 10:0.403509 
1 1:0.161891 2:0.0824309 3:-0.285714 4:-0.375 5:-0.375 6:-0.517241 7:-0.317533 8:-0.015755 9:-0.293174 10:0.0526316 
1 1:0.00580161 2:0.0343403 3:-0.318681 4:-0.1875 5:-0.375 6:-0.310345 7:-0.272535 8:-0.181843 9:0.359264 10:0.295547 
1 1:-0.219393 2:0.0247555 3:-0.428571 4:-0.8125 5:0.1875 6:-0.655172 7:-0.448046 8:-0.0233325 9:0.0378058 10:0.315789 
1 1:0.0163797 2:0.0316689 3:-0.309524 4:-0.8125 5:-1 6:-0.37931 7:-0.187468 8:-0.0110633 9:-0.390091 10:0.0526316 
1 1:0.126705 2:0.0504661 3:-0.309524 4:-0.625 5:-0.3125 6:-0.37931 7:-0.187468 8:-0.0110633 9:-0.390091 10:0.0526316 
1 1:0.273707 2:0.0311733 3:-0.309524 4:-0.5 5:-0.75 6:-0.37931 7:-0.187468 8:-0.0110633 9:-0.390091 10:0.0526316 
1 1:-0.0718538 2:0.0277728 3:-0.25 4:-0.625 5:-1 6:-0.655172 7:-0.413276 8:0.0388682 9:-0.19076 10:0.184211 
1 1:-0.0468132 2:-0.42713 4:-0.6875 5:0.1875 6:-0.517241 7:-0.62036 8:-0.459009 9:-0.510595 10:0.0526316 
1 1:-0.274265 2:0.0261107 3:-0.289683 4:-0.5625 5:-1 6:-0.586207 7:-0.62654 8:-0.411629 9:-0.0741719 10:0.286549 
1 1:0.0913778 2:0.215304 3:0.107143 4:-0.8125 5:-0.6875 6:-0.655172 7:-0.701431 8:-0.476641 9:-0.388596 10:0.184211 
1 1:0.00133985 2:-0.19661 3:-0.142857 4:-0.625 5:-0.5625 6:-0.517241 7:-0.573099 8:-0.389831 9:-0.822051 10:0.157895 
1 1:-0.12882 2:0.011093 3:-0.428571 4:-0.8125 5:-0.3125 6:-0.448276 7:-0.354312 8:-0.149819 9:0.00325789 10:-0.0430632 
1 1:-0.080813 2:0.00896646 3:-0.142857 4:-0.1875 5:-0.3125 6:-0.172414 7:-0.494186 8:-0.511209 9:0.0774218 10:0.122806 
1 1:-0.0692883 2:0.0226473 3:-0.300366 4:-0.625 5:-0.75 6:-0.310345 7:-0.283489 8:-0.194442 9:0.191151 10:-0.0283411 
1 1:-0.0283919 2:0.0370634 3:-0.269841 4:-0.5625 5:-0.6875 6:-0.586207 7:-0.620643 8:-0.402134 9:-0.646312 10:0.286549 
1 1:-0.159178 2:0.00859338 3:-0.428571 4:-0.5 5:-0.75 6:-0.586207 7:-0.281808 8:0.143427 9:-0.19941 10:0.169592 
1 1:-0.163078 2:0.0140888 3:-0.428571 4:-0.9375 5:0.0625 6:-0.586207 7:-0.302635 8:0.109893 9:0.0303295 10:0.403509 
1 1:-0.171717 2:0.0126181 3:-0.428571 4:-0.9375 5:-1 6:-0.517241 7:-0.430519 8:-0.181134 9:0.134008 10:0.0526316 
1 1:0.0889929 2:-0.136513 3:-0.326531 4:-0.8125 5:-0.75 6:-0.241379 7:-0.159093 8:-0.116777 9:0.169928 10:-0.0225558 
1 1:-0.1412 2:0.0152551 3:-0.269841 4:-0.9375 5:-0.625 6:-0.586207 7:-0.369089 8:0.00289483 9:-0.18765 10:0.169592 
1 1:0.269099 2:0.00873538 3:-0.190476 4:-0.5625 5:-0.0625 6:-0.37931 7:-0.379991 8:-0.249511 9:-0.373403 10:-0.0350884 
1 1:-0.159878 2:-0.0137492 3:-0.269841 4:-0.6875 5:-0.75 6:-0.586207 7:-0.517784 8:-0.236521 9:-0.165779 10:0.403509 
1 1:0.251771 2:0.0606817 3:-0.285714 4:-0.375 5:-0.375 6:-0.517241 7:-0.384674 8:-0.114029 9:-0.336275 10:-0.0526316 
1 1:-0.169791 2:-0.00064414 3:-0.428571 4:-0.9375 5:-0.3125 6:-0.241379 7:-0.100762 8:-0.0541639 9:0.0817649 10:0.127819 
1 1:0.354865 2:0.210132 3:-0.22449 4:-0.75 5:0.3125 6:-0.241379 7:-0.100762 8:-0.0541639 9:0.0817649 10:0.127819 
1 1:0.512764 2:0.246984 3:-0.298701 4:-0.8125 6:-0.448276 7:-0.34469 8:-0.136912 9:-0.213221 10:-0.234451 
1 1:-0.130869 2:-0.00194672 3:0.04762 4:-0.875 5:0.0625 6:-0.793103 7:-0.7742 8:-0.485249 9:-0.785769 10:0.228069 
1 1:-0.0769102 2:0.0693716 3:-0.353383 4:-0.6875 5:-0.6875 6:0.103448 7:-0.123609 8:-0.317104 9:0.385911 10:-0.0581726 
1 1:0.00803147 2:0.050701 3:-0.326531 4:-0.125 5:0.0625 6:-0.241379 7:-0.523825 8:-0.508281 9:0.506083 10:0.127819 
1 1:-0.0996056 2:-0.0206242 3:-0.142857 4:-0.9375 5:-0.625 6:-0.517241 7:-0.258372 8:0.0708423 9:-0.218372 10:0.368421 
0.5346057628539714 1:-0.109637 2:0.00385481 3:-0.25 4:-0.75 5:-0.75 6:-0.655172 7:-0.696183 8:-0.467254 9:-0.562049 10:0.184211 
1 1:0.0826766 2:0.072163 3:-0.269841 4:-0.5 5:-0.3125 6:-0.586207 7:-0.371296 8:-0.00065831 9:0.408546 10:0.403509 
1 1:0.0243096 2:0.172778 3:-0.309524 4:-0.3125 6:-0.37931 7:-0.342095 8:-0.202574 9:-0.105818 10:0.403509 
1 1:0.247787 2:0.0425271 3:-0.318681 4:-0.5 5:-0.25 6:-0.310345 7:-0.40267 8:-0.331509 9:-0.254756 10:-0.0283411 
1 1:-0.173967 2:0.0425558 3:-0.428571 4:-0.875 5:-1 6:-0.103448 7:-0.0457452 8:-0.117136 9:0.381581 10:-0.144737 
1 1:0.0963149 2:0.0771965 3:-0.285714 4:-0.4375 5:-0.3125 6:-0.517241 7:-0.282478 8:0.035557 9:0.27944 10:0.368421 
1 1:-0.0550951 2:0.0467665 3:-0.428571 4:-1 5:-0.75 6:-0.793103 7:-0.563829 8:-0.00135893 9:-0.476795 10:0.0526316 
1 1:0.105231 2:0.130409 3:-0.298701 4:-0.375 5:-0.625 6:-0.448276 7:-0.271569 8:-0.0387961 9:0.599282 10:0.531101 
1 1:0.148344 2:0.0732412 3:-0.428571 4:-0.3125 5:0.0625 6:-0.448276 7:-0.447864 8:-0.275342 9:-0.215927 10:0.0526316 
1 1:-0.121402 2:0.000970837 3:-0.298701 4:-0.75 5:-0.3125 6:-0.448276 7:-0.195231 8:0.0636318 9:0.00488169 10:-0.138756 
1 1:0.292649 2:0.0431149 3:-0.326531 4:-0.5625 5:-0.5625 6:-0.241379 7:-0.265363 8:-0.230845 9:0.0367904 10:-0.172933 
1 1:0.0425147 2:0.0675989 3:-0.428571 4:-0.9375 5:-0.3125 6:-0.448276 7:-0.377307 8:-0.180671 9:-0.346215 10:0.148326 
1 1:0.142093 2:0.0173475 3:-0.269841 4:-0.6875 5:-0.1875 6:-0.586207 7:-0.549899 8:-0.288229 9:-0.434195 10:0.0526316 
1 1:0.142093 2:0.0173475 3:-0.269841 4:-0.625 5:-1 6:-0.586207 7:-0.549899 8:-0.288229 9:-0.434195 10:0.0526316 
1 1:-0.181238 2:0.00931018 3:-0.428571 4:-0.9375 5:0.5 6:0.172414 7:0.201478 8:-0.101914 9:0.468388 10:0.105263 
1 1:0.330242 2:0.436513 3:-0.333333 4:-0.6875 5:-0.0625 6:-0.172414 7:-0.23331 8:-0.248686 9:0.0304553 10:0.122806 
1 1:0.0302933 2:0.187823 3:-0.289683 4:-0.75 5:0.125 6:-0.586207 7:-0.48827 8:-0.189 9:-0.343841 10:0.286549 
1 1:0.167047 2:0.0252226 3:-0.309524 4:-0.625 5:-0.3125 6:-0.37931 7:-0.288371 8:-0.136036 9:-0.225219 10:0.140352 
1 1:0.182385 2:0.0694206 3:-0.298701 4:-0.4375 5:-0.6875 6:-0.448276 7:-0.282491 8:-0.0534507 9:0.276035 10:0.0526316 
1 1:-0.131568 2:-0.0438594 3:0.04762 4:-0.75 5:-0.0625 6:-0.586207 7:-0.516741 8:-0.23484 9:-0.558625 10:0.169592 
1 1:0.16501 2:0.167406 3:-0.22449 4:-0.5625 5:-0.375 6:-0.724138 7:-0.610987 8:-0.225144 9:0.475922 10:0.203008 
1 1:0.244064 2:0.0352162 3:0.0909086 4:-0.75 5:-0.3125 6:-0.448276 7:-0.431109 8:-0.252864 9:-0.289935 10:0.0526316 
1 1:-0.00401548 2:0.12606 3:-0.269841 4:-0.625 5:-0.0625 6:-0.586207 7:-0.483815 8:-0.181827 9:0.0850994 10:0.169592 
1 1:0.180673 2:-0.00407508 3:-0.318681 4:-0.625 5:0.3125 6:-0.310345 7:-0.300674 8:-0.214209 9:-0.264213 10:0.0526316 
1 1:0.466435 2:0.0884807 3:-0.285714 4:-0.6875 5:-0.3125 6:-0.517241 7:-0.326189 8:-0.0284245 9:-0.198271 10:-0.0526316 
1 1:0.368043 2:0.056655 3:-0.285714 4:-0.625 5:-0.1875 6:-0.517241 7:-0.326189 8:-0.0284245 9:-0.198271 10:-0.0526316 
1 1:-0.295673 2:0.0159856 3:-0.496599 4:-1 5:1 6:-0.724138 7:-0.639273 8:-0.282073 9:-0.501033 10:0.353383 
1 1:-0.1438 2:0.124642 3:-0.441558 4:-0.5 5:0.1875 6:-0.448276 7:-0.330976 8:-0.118508 9:0.0221396 10:0.148326 
1 1:-0.125714 2:0.029528 3:-0.428571 4:-0.875 5:-0.3125 6:-0.0344828 7:0.222968 8:0.0723853 9:-0.153507 10:0.238389 
1 1:0.0478782 2:0.0187002 3:-0.353383 4:0.125 5:-0.0625 6:0.103448 7:0.122332 8:-0.119105 9:-0.0289344 10:-0.0581726 
1 1:0.0357496 2:0.255677 3:-0.269841 4:-1 5:-0.0625 6:-0.586207 7:-0.462742 8:-0.147897 9:-0.230127 10:0.169592 
1 1:-0.0951316 2:0.0208308 3:-0.428571 4:-0.3125 5:0.0625 6:-0.448276 7:-0.350318 8:-0.14446 9:-0.340973 10:0.0526316 
1 1:0.12358 2:0.123464 3:-0.285714 4:-0.375 5:-0.375 6:-0.517241 7:-0.309949 8:-0.0046535 9:-0.0239967 10:0.473684 
1 1:0.214349 2:0.0361289 3:-0.298701 4:-0.5625 5:-1 6:-0.448276 7:-0.409989 8:-0.224523 9:-0.152226 10:0.148326 
1 1:-0.267635 2:-0.0164801 3:-0.22449 4:-0.75 5:-0.375 6:-0.724138 7:-0.661919 8:-0.327651 9:-0.300565 10:0.203008 
1 1:0.158163 2:0.00465708 3:-0.357143 4:-0.125 5:-0.0625 6:0.172414 7:-0.088267 8:-0.324065 9:-0.0650924 10:-0.0526316 
1 1:0.097492 2:0.0338011 3:-0.367347 4:0.25 5:-0.375 6:0.172414 7:-0.088267 8:-0.324065 9:-0.0650924 10:-0.0526316 
1 1:-0.199858 2:0.00476206 3:-0.428571 4:-0.9375 5:0.125 6:-0.586207 7:-0.192949 8:0.286499 9:0.000243581 10:0.286549 
1 1:-0.197204 2:0.00750302 3:-0.428571 4:-0.625 5:0.0625 6:-0.241379 7:0.0156688 8:0.0708131 9:0.180585 10:-0.0977453 
1 1:-0.231895 2:-0.0178847 3:-0.03896 4:-0.875 5:-0.6875 6:-0.448276 7:-0.750174 8:-0.680967 9:-0.446986 10:0.339714 
1 1:-0.129463 2:0.0816525 3:-0.298701 4:-0.4375 5:-0.25 6:-0.448276 7:-0.750174 8:-0.680967 9:-0.446986 10:0.339714 
1 1:-0.035412 2:0.0230645 3:-0.326531 4:-0.25 5:-0.875 6:-0.241379 7:-0.358604 8:-0.330933 9:0.15726 10:-0.0225558 
1 1:0.140758 2:0.0721503 3:-0.428571 4:-0.625 5:0.3125 6:-0.586207 7:-0.516077 8:-0.233772 9:-0.387329 10:0.0526316 
1 1:0.0199142 2:0.347914 3:-0.428571 4:-0.75 5:0.5 6:-0.862069 7:-0.645629 8:-0.0490469 9:-0.117905 10:0.0526316 
1 1:0.41451 2:0.531108 3:-0.333333 4:-0.625 5:-0.0625 6:-0.172414 7:-0.450973 8:-0.467725 9:0.528882 10:-0.08772 
1 1:-0.0165643 2:-0.134512 3:-0.210884 4:-0.4375 5:-0.3125 6:-0.172414 7:-0.450973 8:-0.467725 9:0.528882 10:-0.08772 
1 1:-0.201206 2:0.00487732 3:-0.428571 4:-0.9375 5:0.3125 6:-0.586207 7:-0.87594 8:-0.81319 9:-0.799498 10:0.286549 
1 1:0.142193 2:0.0213772 3:-0.339286 4:-0.4375 5:-0.625 6:-0.103448 7:-0.424188 8:-0.475569 9:-0.101497 10:0.0526316 
1 1:0.642768 2:0.115495 3:-0.168831 4:-0.8125 5:-0.3125 6:-0.448276 7:0.186763 8:0.576172 9:0.00536196 10:0.531101 
1 1:0.550193 2:0.197651 3:-0.428571 4:-0.5625 5:-0.75 6:-0.448276 7:0.186763 8:0.576172 9:0.00536196 10:0.531101 
1 1:0.311445 2:0.0287067 3:-0.369048 5:0.3125 6:0.448276 7:0.137147 8:-0.292212 9:-0.103499 10:-0.0350884 
1 1:-0.2643 2:-0.0114452 3:-0.357143 4:-0.625 5:-1 6:0.172414 7:-0.164377 8:-0.38242 9:0.26532 10:0.157895 
1 1:-0.176737 2:0.0127457 3:-0.428571 4:-1 5:-0.3125 6:-0.37931 7:-0.199572 8:-0.0260557 9:0.13908 10:0.0526316 
1 1:-0.19234 2:0.0103469 3:-0.428571 4:-0.875 5:0.125 6:-0.37931 7:-0.199572 8:-0.0260557 9:0.13908 10:0.0526316 
1 1:0.237668 2:0.0844919 3:-0.309524 4:-0.25 5:-0.375 6:-0.37931 7:-0.199572 8:-0.0260557 9:0.13908 10:0.0526316 
1 1:0.0861775 2:0.0814821 3:-0.285714 4:-0.375 5:-0.375 6:-0.517241 7:-0.465493 8:-0.232329 9:-0.2898 10:0.368421 
1 1:0.00999203 2:0.0762101 3:-0.238095 4:-0.75 5:-0.3125 6:-0.172414 7:-0.117908 8:-0.132554 9:0.121863 10:0.192983 
1 1:0.46896 2:0.385308 3:-0.0204086 4:-1 5:-0.3125 6:-0.724138 7:-0.511664 8:-0.0252467 9:0.394656 10:0.353383 
1 1:-0.011925 2:0.018987 3:-0.171219 4:-0.625 5:0.125 6:-0.0344828 7:-0.325371 8:-0.418106 9:-0.398451 10:0.176472 
1 1:-0.21381 2:0.00512607 3:-0.428571 4:-0.9375 5:-0.75 6:-0.448276 7:-0.265744 8:-0.0309809 9:0.135233 10:0.626794 
1 1:0.105596 2:0.0552731 3:-0.353383 4:-0.3125 5:-0.625 6:0.103448 7:0.328411 8:0.0467961 9:0.25144 10:-0.0581726 
1 1:0.104888 2:0.027345 3:-0.344538 4:-0.3125 5:-0.625 6:-0.0344828 7:-0.289764 8:-0.386257 9:0.476777 10:-0.133126 
1 1:0.0901159 2:0.0613105 3:0.0136057 4:-0.75 5:-0.3125 6:-0.724138 7:-0.704215 8:-0.41278 9:-0.475784 10:0.203008 
1 1:0.319723 2:0.0447292 3:-0.285714 4:-0.5625 5:-0.8125 6:-0.517241 7:-0.295183 8:0.0169614 9:-0.513061 10:0.0526316 
1 1:-0.214788 2:0.0224034 3:-0.428571 4:-1 5:-0.625 6:-0.517241 7:-0.26261 8:0.064641 9:0.0626041 10:0.368421 
1 1:0.170578 2:0.0414932 3:-0.357143 4:-0.1875 5:-0.3125 6:0.172414 7:-0.0238303 8:-0.274659 9:0.452031 10:-0.0526316 
1 1:-0.118805 2:0.0513303 3:-0.632653 4:-0.6875 5:-0.3125 6:-0.655172 7:-0.515712 8:-0.144389 9:-0.240524 10:0.0526316 
1 1:0.141793 2:0.0565952 3:-0.428571 4:-0.5 5:-0.375 6:-0.655172 7:-0.553145 8:-0.211357 9:-0.468893 10:0.0526316 
1 1:-0.0256775 2:0.0351209 3:-0.190476 4:-0.9375 5:-0.3125 6:-0.793103 7:-0.553639 8:0.0220743 9:-0.376849 10:0.228069 
1 1:0.0969126 2:0.0769854 3:-0.298701 4:-0.3125 5:-0.375 6:-0.448276 7:-0.440591 8:-0.265588 9:-0.250587 10:0.244019 
1 1:0.263607 2:0.105444 3:-0.428571 4:-0.5 5:-0.75 6:-0.448276 7:-0.302984 8:-0.08095 9:0.137255 10:-0.138756 
1 1:-0.00368906 2:0.0128177 3:-0.363636 4:0.3125 5:-0.8125 6:0.310345 7:0.0986947 8:-0.25477 9:0.0670204 10:0.00478526 
1 1:0.209917 2:0.0441617 3:-0.208791 4:-0.75 5:-0.625 6:-0.310345 7:-0.227136 8:-0.12963 9:0.393652 10:0.295547 
1 1:0.267411 2:0.0426844 3:-0.318681 4:-0.625 5:-0.0625 6:-0.310345 7:-0.227136 8:-0.12963 9:0.393652 10:0.295547 
1 1:0.143374 2:-0.175605 3:-0.269841 4:-0.625 5:0.125 6:-0.586207 7:-0.606387 8:-0.37918 9:-0.0124266 10:0.0526316 
1 1:0.284401 2:0.180188 3:-0.190476 4:-0.75 5:-0.75 6:-0.793103 7:-0.42496 8:0.318056 9:0.054739 10:0.228069 
1 1:0.574368 2:0.184543 3:-0.318681 4:-0.625 5:-0.6875 6:-0.310345 7:-0.181547 8:-0.0772009 9:0.219092 10:-0.190284 
1 1:0.173327 2:0.0699142 3:-0.318681 4:-0.3125 5:-0.5625 6:-0.310345 7:-0.181547 8:-0.0772009 9:0.219092 10:-0.190284 
1 1:-0.052446 2:0.0397725 3:-0.22449 4:-0.6875 5:-0.3125 6:-0.724138 7:-0.763697 8:-0.532494 9:-0.340666 10:0.203008 
1 1:0.0756872 2:0.232053 3:-0.22449 4:-0.5625 5:-0.375 6:-0.724138 7:-0.763697 8:-0.532494 9:-0.340666 10:0.203008 
1 1:-0.257866 2:-0.0503722 3:-0.22449 4:-0.8125 5:-0.3125 6:-0.241379 7:0.251985 8:0.324475 9:-0.0290213 10:0.50376 
1 1:-0.144995 2:0.0201529 3:-0.428571 4:-0.8125 5:-0.6875 6:-0.172414 7:-0.110607 8:-0.125206 9:-0.17071 10:0.0526316 
1 1:0.321536 2:0.0525972 3:-0.326531 4:-0.375 5:0.3125 6:-0.241379 7:-0.228348 8:-0.191114 9:0.0284084 10:-0.172933 
1 1:0.0720557 2:0.0789007 3:-0.269841 4:-0.75 5:-0.75 6:-0.586207 7:-0.762702 8:-0.630864 9:0.129294 10:-0.0643284 
1 1:-0.0732023 2:0.0236491 3:-0.357143 4:0.125 5:-0.3125 6:0.172414 7:-0.0787717 8:-0.316783 9:0.0293026 10:-0.0526316 
1 1:-0.0841363 2:-0.0516754 3:-0.179654 4:-0.3125 5:-0.375 6:-0.448276 7:-0.450514 8:-0.2789 9:-0.199291 10:0.148326 
1 1:-0.162399 2:0.029183 3:-0.428571 4:-0.875 5:-0.8125 6:-0.724138 7:-0.751135 8:-0.50721 9:0.185656 10:0.0526316 
1 1:0.0402379 2:0.0330646 3:-0.285714 4:-0.625 5:-0.6875 6:-0.517241 7:-0.481948 8:-0.256413 9:0.118094 10:0.0526316 
1 1:0.0444324 2:0.0107447 3:-0.22449 4:-0.75 5:-0.625 6:-0.724138 7:-0.468938 8:0.0607501 9:-0.286788 10:0.353383 
1 1:0.13512 2:0.0157246 4:-0.8125 5:-0.3125 6:-0.517241 7:-0.42696 8:-0.175926 9:-0.466515 10:0.578947 
1 1:0.056056 2:0.116689 3:-0.454545 4:-0.6875 5:-0.625 6:-0.448276 7:-0.355553 8:-0.151483 9:-0.00626761 10:0.244019 
1 1:0.162157 2:0.127463 3:-0.298701 4:-0.4375 5:-0.75 6:-0.448276 7:-0.355553 8:-0.151483 9:-0.00626761 10:0.244019 
1 1:0.0330373 2:0.0343054 3:-0.428571 4:-0.6875 5:0.1875 6:-0.724138 7:-0.701949 8:-0.408218 9:-0.158429 10:0.0526316 
1 1:-0.0100063 2:0.0233172 3:-0.318681 4:-0.5625 5:-0.3125 6:-0.310345 7:-0.391504 8:-0.318668 9:-0.00712296 10:0.133604 
1 1:0.205556 2:0.0938859 3:-0.25 4:-0.6875 5:0.3125 6:-0.655172 7:-0.544512 8:-0.195914 9:-0.0428922 10:0.0526316 
1 1:0.071918 2:0.0380507 3:-0.269841 4:-0.5 5:-0.625 6:-0.586207 7:-0.350655 8:0.0325752 9:-0.305803 10:0.0526316 
1 1:-0.2004 2:0.000509777 3:-0.428571 4:-1 5:0.3125 6:-0.517241 7:-0.0883292 8:0.319741 9:0.354684 10:0.368421 
1 1:0.0444253 2:0.0319443 3:-0.349206 4:-0.6875 5:0.3125 6:0.103448 7:-0.087679 8:-0.288175 9:-0.350405 10:0.0526316 
1 1:0.538576 2:0.274559 3:-0.25 4:-0.6875 5:0.5 6:-0.655172 7:-0.408653 8:0.0471422 9:-0.12115 10:-0.0789474 
1 1:-0.0643471 2:0.0764815 3:-0.428571 4:-1 5:-0.3125 6:0.103448 7:-0.0920175 8:-0.291669 9:0.317887 10:0.163436 
1 1:0.213148 2:0.048397 3:-0.339286 4:-0.6875 5:-0.6875 6:-0.103448 7:-0.197733 8:-0.261088 9:0.374194 10:0.315789 
1 1:0.100544 2:0.0321779 3:-0.339286 4:-0.25 5:-0.25 6:-0.103448 7:-0.197733 8:-0.261088 9:0.374194 10:0.315789 
1 1:0.0130216 2:0.295746 3:-0.339286 5:-0.5625 6:-0.103448 7:-0.197733 8:-0.261088 9:0.374194 10:0.315789 
1 1:-0.192164 2:-0.0104973 3:-0.428571 4:-0.9375 5:-0.8125 6:-0.241379 7:-0.0833484 8:-0.0354682 9:-0.015697 10:0.0526316 
1 1:-0.181125 2:0.0360461 3:-0.428571 4:-0.3125 5:-0.625 6:-0.241379 7:-0.0833484 8:-0.0354682 9:-0.015697 10:0.0526316 
1 1:-0.094489 2:0.0118612 3:-0.25 4:-1 5:-0.25 6:-0.655172 7:-0.618161 8:-0.327672 9:-0.717174 10:0.184211 
1 1:0.290804 2:0.142703 3:-0.428571 4:-0.875 5:-0.3125 6:-0.241379 7:-0.0459213 8:0.00470476 9:0.0418882 10:0.278196 
1 1:-0.223595 2:0.00285969 3:-0.333333 4:-0.9375 5:0.3125 6:-0.172414 7:-0.280129 8:-0.295798 9:0.848159 10:-0.0175432 
1 1:-0.116421 2:0.0401213 3:-0.496599 4:-0.625 5:-0.625 6:-0.724138 7:-0.682285 8:-0.368646 9:-0.633862 10:0.353383 
1 1:0.104575 2:0.207976 3:-0.428571 4:-0.5 5:-0.6875 6:-0.517241 7:-0.480575 8:-0.254403 9:-0.392818 10:0.578947 
1 1:-0.0553083 2:0.0357171 3:-0.428571 4:0.25 5:-0.625 6:0.310345 7:-0.119395 8:-0.407447 9:0.0931909 10:-0.0430632 
1 1:0.00489579 2:0.0225049 3:-0.428571 4:-0.875 5:-0.75 6:-0.793103 7:-0.475024 8:0.202905 9:-0.288165 10:0.578947 
1 1:0.310118 2:0.0609364 3:-0.298701 4:-0.625 5:-0.3125 6:-0.448276 7:-0.112365 8:0.174817 9:-0.014103 10:0.244019 
1 1:0.300171 2:0.0526982 3:-0.298701 4:-0.5625 5:-0.3125 6:-0.448276 7:-0.112365 8:0.174817 9:-0.014103 10:0.244019 
1 1:-0.241983 2:-0.0155905 3:-0.0714286 4:-0.875 5:0.3125 6:-0.655172 7:-0.791749 8:-0.63822 9:-0.811265 10:0.315789 
1 1:-0.0628313 2:0.025018 3:-0.309524 4:-0.3125 5:-0.75 6:-0.37931 7:-0.36085 8:-0.225803 9:-0.488891 10:0.140352 
1 1:-0.029617 2:-0.0716587 3:-0.22449 4:-0.875 5:-0.3125 6:-0.724138 7:-0.543592 8:-0.0895076 9:-0.457035 10:0.353383 
1 1:-0.146169 2:0.0285022 3:-0.269841 4:-0.875 5:-1 6:-0.586207 7:-0.296949 8:0.119047 9:-0.261226 10:0.520467 
1 1:0.2768 2:0.181039 3:-0.0714286 4:-0.5 5:-0.375 6:-0.655172 7:-0.523967 8:-0.159157 9:-0.1001 10:-0.0789474 
1 1:-0.161689 2:0.00799745 3:-0.428571 4:-0.9375 5:0.1875 6:-0.172414 7:-0.244026 8:-0.259466 9:0.477678 10:-0.0175432 
1 1:0.217252 2:0.0713935 3:-0.333333 4:-0.375 5:0.1875 6:-0.172414 7:-0.244026 8:-0.259466 9:0.477678 10:-0.0175432 
1 1:0.267512 2:0.0727719 3:0.04762 4:-0.6875 5:0.1875 6:-0.586207 7:-0.503606 8:-0.213692 9:-0.410473 10:-0.0643284 
1 1:0.136435 2:0.0352789 3:-0.349206 4:-0.0625 5:-0.1875 6:0.0344828 7:-0.224421 8:-0.364888 9:0.311326 10:-0.0643284 
1 1:-0.0869589 2:-0.0131399 3:-0.309524 4:-0.5 5:-0.75 6:-0.37931 7:-0.541528 8:-0.44958 9:-0.563074 10:0.403509 
1 1:0.0952326 2:0.0143366 3:-0.285714 4:-0.625 5:-0.625 6:-0.517241 7:-0.450268 8:-0.210043 9:-0.152025 10:-0.0526316 
1 1:-0.0723005 2:0.012424 3:-0.25 4:-0.9375 5:-1 6:-0.655172 7:-0.514163 8:-0.141616 9:-0.48491 10:0.184211 
1 1:0.318105 2:0.0877168 3:-0.269841 4:-0.75 5:-0.1875 6:-0.586207 7:-0.480668 8:-0.17676 9:-0.460742 10:0.169592 
1 1:0.200261 2:0.0695692 3:-0.22449 4:-0.8125 5:0.3125 6:-0.724138 7:-0.511682 8:-0.0252842 9:0.223472 10:0.203008 
1 1:0.158702 2:0.0350262 3:-0.318681 4:-0.6875 5:0.125 6:-0.310345 7:-0.459473 8:-0.396837 9:-0.116112 10:-0.0283411 
1 1:0.279733 2:0.0624424 3:-0.309524 4:-0.4375 5:-0.6875 6:-0.37931 7:-0.230112 8:-0.0638808 9:-0.218328 10:-0.0350884 
1 1:0.289596 2:0.085747 3:-0.298701 4:-0.5625 5:-0.8125 6:-0.448276 7:-0.402146 8:-0.214001 9:-0.119224 10:-0.138756 
1 1:0.155867 2:0.0529827 3:-0.269841 4:-0.625 5:-0.3125 6:-0.586207 7:-0.442653 8:-0.115551 9:-0.483338 10:0.169592 
1 1:0.152951 2:0.0488404 3:-0.318681 4:-0.375 5:-0.1875 6:-0.310345 7:-0.131097 8:-0.0191788 9:0.203341 10:0.214575 
1 1:0.0529071 2:0.0365909 3:-0.22449 4:-1 5:-0.375 6:-0.724138 7:-0.60885 8:-0.220849 9:-0.598934 10:0.0526316 
1 1:0.377563 2:0.0425463 3:-0.269841 4:-0.6875 5:-0.5625 6:-0.586207 7:-0.428781 8:-0.093215 9:-0.222225 10:0.0526316 
1 1:0.157137 2:0.16486 3:-0.428571 4:-0.625 5:-0.25 6:-0.172414 7:-0.245292 8:-0.260742 9:-0.278562 10:-0.0175432 
1 1:-0.0752761 2:-0.00268321 3:-0.298701 4:-0.5 5:-0.0625 6:-0.448276 7:-0.541064 8:-0.400395 9:-0.114163 10:0.148326 
1 1:-0.167725 2:0.021884 3:-0.428571 4:-0.75 5:-0.6875 6:-0.586207 7:-0.334708 8:0.058252 9:-0.224823 10:0.403509 
1 1:0.128691 2:0.0255097 3:-0.333333 4:-0.375 5:0.125 6:-0.172414 7:-0.381019 8:-0.397325 9:-0.158625 10:-0.0175432 
1 1:0.0287857 2:0.0650534 3:-0.269841 4:-0.4375 5:0.0625 6:-0.586207 7:-0.585821 8:-0.346067 9:-0.344387 10:0.403509 
1 1:-0.040955 2:0.0422617 3:-0.428571 4:-0.875 5:-1 6:-0.103448 7:0.101663 8:0.0224788 9:0.439148 10:-0.0789474 
1 1:-0.102301 2:0.0146154 3:-0.190476 4:-0.875 5:-0.75 6:-0.793103 7:-0.66871 8:-0.242605 9:-0.525669 10:0.403509 
1 1:0.016192 2:0.126539 3:0.04762 4:-0.625 5:-0.375 6:-0.793103 7:-0.66871 8:-0.242605 9:-0.525669 10:0.403509 
1 1:0.278048 2:0.146768 3:-0.318681 4:-0.1875 5:-0.375 6:-0.310345 7:-0.133962 8:-0.0224734 9:0.187113 10:-0.0283411 
1 1:-0.0900405 2:-0.215887 3:-0.160714 5:0.0625 6:-0.103448 7:-0.316295 8:-0.373379 9:0.214557 10:0.184211 
1 1:0.182695 2:0.0897156 3:-0.309524 4:-0.25 5:-0.375 6:-0.37931 7:-0.118294 8:0.0746123 9:0.0426521 10:-0.0350884 
1 1:0.251746 2:0.0711393 3:-0.298701 4:-0.4375 5:-0.8125 6:-0.448276 7:-0.30639 8:-0.0855207 9:-0.123458 10:-0.138756 
1 1:0.0605311 2:0.0687668 3:-0.428571 4:-0.5 5:-0.6875 6:-0.586207 7:-0.22016 8:0.242686 9:-0.0724795 10:0.403509 
1 1:0.280816 2:0.0468706 3:-0.360544 4:-0.1875 5:-1 6:0.241379 7:0.111762 8:-0.209864 9:0.199838 10:0.152882 
0.6277690771048177 1:-0.307687 2:-0.55624 3:-0.380952 4:-0.9375 5:0.3125 6:-0.172414 7:-0.923096 8:-0.942828 9:-0.819102 10:-0.438596 
1 1:0.0948011 2:0.0228431 3:-0.25 4:-0.6875 6:-0.655172 7:-0.521626 8:-0.154965 9:-0.35376 10:0.315789 
1 1:0.162698 2:0.0600906 3:-0.285714 4:-0.375 5:-0.375 6:-0.517241 7:-0.429972 8:-0.180334 9:-0.468955 10:0.157895 
1 1:0.00864044 2:0.0289819 3:-0.25 4:-0.5625 5:-1 6:-0.655172 7:-0.500089 8:-0.11644 9:-0.707767 10:0.973684 
1 1:-0.182555 2:0.0280642 3:-0.41978 4:0.5 5:-0.625 6:0.586207 7:-0.29454 8:-0.60447 9:0.337586 10:-0.109312 
1 1:0.0741713 2:0.0646814 3:-0.353383 4:0.1875 5:-0.375 6:0.103448 7:-0.180558 8:-0.362949 9:0.00954724 10:-0.0581726 
1 1:-0.151238 2:0.00497848 3:-0.428571 4:-0.6875 5:-0.3125 6:-0.793103 7:-0.688853 8:-0.288938 9:-0.634312 10:0.228069 
1 1:-0.121984 2:0.0202094 3:-0.428571 4:-1 5:-0.8125 6:-0.586207 7:-0.324301 8:0.0750085 9:-0.0167925 10:0.286549 
1 1:-0.289325 2:-0.0132151 3:-0.260504 4:-0.75 5:-0.75 6:-0.0344828 7:-0.000112708 8:-0.127162 9:0.0320997 10:0.114552 
1 1:-0.0520737 2:0.0360973 3:-0.428571 4:-0.3125 5:0.3125 6:-0.172414 7:-0.230456 8:-0.245812 9:-0.323452 10:0.263158 
1 1:0.0292937 2:0.0466087 3:-0.428571 4:-0.8125 5:0.3125 6:-0.37931 7:-0.46714 8:-0.357448 9:0.141404 10:-0.122806 
1 1:-0.207172 2:-0.000124953 3:-0.22449 4:-1 5:-0.3125 6:-0.724138 7:-0.690666 8:-0.385515 9:-0.51318 10:0.203008 
1 1:0.0784964 2:0.027606 3:-0.269841 4:-0.8125 5:-0.3125 6:-0.586207 7:-0.281245 8:0.144332 9:-0.305515 10:0.637427 
1 1:0.102399 2:0.0749279 3:-0.155844 4:-0.75 5:-0.8125 6:-0.448276 7:-0.254575 8:-0.0159969 9:0.0723172 10:0.148326 
1 1:-0.227403 2:0.0386293 3:-0.460317 4:-0.4375 5:-1 6:-0.517241 7:-0.480098 8:-0.253707 9:-0.14741 10:0.263158 
1 1:0.330832 2:0.109131 3:-0.285714 4:-0.625 5:-0.1875 6:-0.517241 7:-0.296628 8:0.0148429 9:0.107583 10:-0.0526316 
1 1:-0.0168428 2:0.0167471 3:-0.349206 4:-0.0625 5:-1 6:0.0344828 7:-0.330639 8:-0.454901 9:0.840258 10:-0.0643284 
1 1:0.191807 2:0.106593 3:-0.326531 4:-0.125 5:-0.375 6:-0.241379 7:-0.276029 8:-0.242297 9:0.78433 10:-0.172933 
1 1:-0.194124 2:0.0264664 3:-0.428571 4:-0.8125 5:-0.75 6:-0.241379 7:-0.127906 8:-0.0832979 9:-0.071352 10:0.203008 
1 1:-0.0622825 2:-0.0326659 3:-0.111111 4:-0.8125 5:-0.625 6:-0.586207 7:-0.364036 8:0.0110312 9:-0.476043 10:0.169592 
1 1:0.0659466 2:0.0479397 3:-0.318681 4:-0.3125 5:0.125 6:-0.310345 7:-0.259253 8:-0.166567 9:0.261684 10:0.133604 
1 1:0.134711 2:-0.00215147 3:-0.214286 4:-0.625 5:-0.25 6:0.172414 7:0.0780204 8:-0.196569 9:-0.0258812 10:0.157895 
1 1:0.25943 2:0.101665 3:-0.357143 4:-0.5 6:0.172414 7:0.0780204 8:-0.196569 9:-0.0258812 10:0.157895 
1 1:-0.17551 2:0.00360383 3:-0.357143 4:0.0625 5:0.3125 6:0.172414 7:0.0780204 8:-0.196569 9:-0.0258812 10:0.157895 
1 1:-0.131393 2:0.0222161 3:-0.428571 4:0.1875 5:-1 6:0.172414 7:0.2116 8:-0.0941492 9:-0.237135 
1 1:-0.0442763 2:0.0905531 3:-0.428571 4:-0.6875 5:0.5 6:-0.655172 7:-0.377002 8:0.103767 9:0.0439351 10:0.0526316 
1 1:0.162473 2:0.0832931 3:-0.25 4:-0.5625 5:-0.625 6:-0.655172 7:-0.377002 8:0.103767 9:0.0439351 10:0.0526316 
1 1:-0.131309 2:0.0804337 3:-0.428571 4:-0.75 5:-0.3125 6:-0.586207 7:-0.384218 8:-0.0214642 9:-0.153159 10:0.0526316 
1 1:-0.131309 2:0.0804337 3:-0.428571 4:-0.625 5:-0.75 6:-0.586207 7:-0.384218 8:-0.0214642 9:-0.153159 10:0.0526316 
1 1:-0.193182 2:0.0499725 3:-0.0204086 4:-0.8125 5:0.1875 6:-0.724138 7:-0.636062 8:-0.275609 9:0.337423 10:-0.0977453 
1 1:0.137427 2:0.336929 3:-0.22449 4:-0.6875 5:-0.6875 6:-0.724138 7:-0.636062 8:-0.275609 9:0.337423 10:-0.0977453 
1 1:-0.120156 2:-0.0148079 3:-0.326531 4:-0.6875 5:-0.6875 6:-0.241379 7:-0.168493 8:-0.126866 9:0.315106 10:-0.0225558 
1 1:0.294036 2:0.135024 3:-0.22449 4:-0.3125 5:-0.3125 6:-0.241379 7:-0.168493 8:-0.126866 9:0.315106 10:-0.0225558 
1 1:-0.20962 2:-0.0263533 3:-0.428571 4:-0.5625 5:0.1875 6:-0.310345 7:-0.398404 8:-0.326604 9:0.4256 10:0.133604 
1 1:0.000210643 2:0.115537 3:-0.190476 4:-0.9375 5:-0.25 6:-0.793103 7:-0.550127 8:0.0301564 9:-0.165136 10:0.228069 
1 1:0.0876647 2:0.0578018 3:-0.318681 4:-0.1875 5:-0.375 6:-0.310345 7:-0.213061 8:-0.113445 9:-0.140823 10:0.0526316 
1 1:0.10734 2:-0.12626 3:-0.0989 4:-0.1875 5:-0.375 6:-0.310345 7:-0.387572 8:-0.314148 9:-0.248435 10:-0.0283411 
1 1:-0.049597 2:0.0331796 3:-0.428571 4:-0.875 5:-0.8125 6:0.0344828 7:0.0918283 8:-0.0968891 9:0.319822 10:0.169592 
1 1:0.288636 2:0.202543 3:-0.269841 4:-0.5 5:-0.3125 6:-0.586207 7:-0.510467 8:-0.224739 9:-0.0664967 10:-0.0643284 
1 1:0.435419 2:0.0654882 3:-0.326531 4:-0.75 5:-1 6:-0.241379 7:0.014827 8:0.0699123 9:0.456946 10:0.127819 
1 1:0.174435 2:0.053096 3:-0.326531 4:-0.4375 5:0.3125 6:-0.241379 7:0.014827 8:0.0699123 9:0.456946 10:0.127819 
1 1:0.133922 2:0.0932177 3:-0.309524 4:-0.25 5:-0.375 6:-0.37931 7:-0.310376 8:-0.163289 9:-0.00130017 10:-0.122806 
1 1:-0.136631 2:0.0172102 3:-0.285714 4:-0.75 5:0.0625 6:-0.517241 7:-0.360275 8:-0.0783144 9:0.22481 10:-0.157895 
1 1:0.108915 2:0.132853 3:-0.194805 4:-0.4375 5:-0.75 6:-0.517241 7:-0.360275 8:-0.0783144 9:0.22481 10:-0.157895 
1 1:-0.0906862 2:0.0219814 3:-0.25 4:-0.8125 5:-0.8125 6:-0.655172 7:-0.687496 8:-0.451711 9:-0.464742 10:0.315789 
1 1:-0.201206 2:0.00487732 3:-0.428571 4:-1 5:-0.375 6:-0.724138 7:-0.688509 8:-0.381169 9:-0.230626 10:0.203008 
1 1:-0.174216 2:0.0106441 3:-0.428571 4:-1 5:-0.3125 6:-0.655172 7:-0.553419 8:-0.211845 9:-0.235415 10:0.184211 
1 1:0.00680739 2:0.0144928 3:-0.318681 4:-0.1875 5:0.0625 6:-0.310345 7:-0.0128405 8:0.116825 9:-0.151314 10:-0.0283411 
1 1:-0.198266 2:0.0076817 3:-0.428571 4:-0.875 5:-0.625 6:-0.37931 7:-0.283929 8:-0.130531 9:-0.243932 10:0.140352 
1 1:0.152736 2:0.0697914 3:-0.199634 4:-0.25 5:-0.375 6:-0.37931 7:-0.283929 8:-0.130531 9:-0.243932 10:0.140352 
1 1:0.275747 2:0.0887802 3:-0.298701 4:-0.375 5:-0.875 6:-0.448276 7:-0.302215 8:-0.0799199 9:-0.139389 10:-0.138756 
1 1:0.0798072 2:0.03697 3:-0.326531 4:-0.125 5:-0.375 6:-0.241379 7:-0.0921703 8:-0.0449391 9:0.0976598 10:-0.0225558 
1 1:-0.0979113 2:-0.00613695 3:-0.22449 4:-0.9375 5:-0.625 6:-0.724138 7:-0.709913 8:-0.424253 9:-0.520249 10:0.353383 
1 1:0.116892 2:-0.0308276 3:0.285714 4:-0.8125 5:-0.3125 6:-0.793103 7:-0.613406 8:-0.115397 9:-0.555961 10:0.0526316 
1 1:0.231121 2:0.146806 3:-0.0204086 4:-1 5:-0.3125 6:-0.724138 7:-0.569032 8:-0.140707 9:-0.597974 10:0.203008 
1 1:-0.0211556 2:-0.00650556 3:-0.22449 4:-0.875 5:-0.625 6:-0.724138 7:-0.569032 8:-0.140707 9:-0.597974 10:0.203008 
1 1:0.257009 2:0.0436127 3:-0.326531 4:-0.75 5:-0.3125 6:-0.241379 7:-0.345048 8:-0.316379 9:-0.249535 10:-0.0977453 
1 1:0.11144 2:0.0795825 3:-0.428571 4:-1 5:-0.3125 6:-0.103448 7:-0.0224835 8:-0.0951042 9:0.355763 10:-0.0789474 
1 1:-0.120637 2:0.0173113 3:-0.428571 4:-0.5 5:-0.75 6:-0.586207 7:-0.440825 8:-0.112607 9:-0.285901 10:0.0526316 
1 1:0.138332 2:0.105151 3:-0.269841 4:-0.5625 5:-1 6:-0.586207 7:-0.602823 8:-0.373442 9:-0.110479 10:0.286549 
1 1:0.12274 2:0.182362 3:-0.269841 4:-0.5 5:-0.25 6:-0.586207 7:-0.602823 8:-0.373442 9:-0.110479 10:0.286549 
1 1:0.13784 2:0.0386655 3:-0.353383 5:0.3125 6:0.103448 7:0.329836 8:0.0479429 9:0.585791 10:0.108034 
1 1:-0.0301169 2:0.00574139 3:-0.269841 4:-0.6875 5:-0.3125 6:0.0344828 7:-0.153056 8:-0.30441 9:0.344273 10:-0.0643284 
1 1:0.201623 2:0.0299796 3:-0.333333 4:-0.3125 5:-0.8125 6:-0.172414 7:-0.0468305 8:-0.0610283 9:-0.0513862 10:-0.0175432 
1 1:0.223387 2:0.0202208 3:-0.309524 4:-0.6875 5:-0.8125 6:-0.37931 7:-0.368915 8:-0.235791 9:0.382766 10:0.0526316 
1 1:0.218419 2:0.0658061 3:-0.298701 4:-0.625 5:-0.75 6:-0.448276 7:-0.227765 8:0.0199766 9:0.178564 10:0.339714 
1 1:-0.0105643 2:0.0114201 3:-0.363636 4:0.3125 5:0.3125 6:0.310345 7:0.16755 8:-0.206569 9:0.339209 10:0.0526316 
1 1:-0.169561 2:0.0146938 3:-0.428571 4:-0.375 5:-0.375 6:0.172414 7:-0.0598276 8:-0.302262 9:0.40678 
1 1:0.134406 2:-0.0504616 3:-0.22449 5:-0.3125 6:0.241379 7:0.387103 8:-0.0083526 9:0.478327 10:-0.348371 
1 1:-0.157839 2:0.0949001 3:-0.479592 4:-0.875 5:-0.625 6:-0.655172 7:-0.375082 8:0.107199 9:-0.253146 10:0.315789 
1 1:0.319224 2:0.373138 3:-0.0714286 4:-0.9375 5:-0.3125 6:-0.655172 7:-0.532393 8:-0.174232 9:0.0745608 10:0.184211 
1 1:-0.0500111 2:0.00367793 3:-0.309524 4:-0.625 5:0.125 6:-0.37931 7:-0.487768 8:-0.382996 9:-0.148279 10:0.140352 
1 1:0.260294 2:0.278953 3:-0.428571 4:-0.5625 5:-0.75 6:-0.586207 7:-0.389079 8:-0.0292919 9:0.310214 10:-0.181286 
1 1:-0.0841741 2:-0.0561133 3:-0.142857 4:-0.5625 5:0.3125 6:-0.517241 7:-0.500697 8:-0.283858 9:-0.0687517 10:0.263158 
1 1:0.349588 2:0.0218309 3:-0.285714 4:-0.625 5:-0.875 6:-0.517241 7:-0.1403 8:0.243666 9:-0.0394365 10:-0.263158 
1 1:0.277019 2:0.0577479 3:-0.0714286 4:-0.9375 5:-0.3125 6:-0.655172 7:-0.418581 8:0.0293807 9:-0.494703 10:0.0526316 
1 1:0.0868905 2:0.116901 3:-0.428571 4:-0.5 5:-0.25 6:-0.517241 7:-0.483139 8:-0.258156 9:-0.37948 10:0.157895 
1 1:0.0868905 2:0.116901 3:-0.428571 4:-0.4375 5:-1 6:-0.517241 7:-0.483139 8:-0.258156 9:-0.37948 10:0.157895 
1 1:0.369558 2:0.0652818 3:-0.333333 4:-0.625 5:-0.0625 6:-0.172414 7:-0.037633 8:-0.0517701 9:-0.241946 10:0.263158 
1 1:-0.297054 2:-0.123503 3:-0.301587 4:-0.8125 5:-0.625 6:-0.517241 7:-0.563062 8:-0.375143 9:-0.325871 10:0.263158 
1 1:0.111504 2:0.0280462 3:-0.269841 4:-0.1875 5:-0.3125 6:0.0344828 7:-0.0431422 8:-0.211269 9:0.164958 10:-0.122806 
1 1:0.0458432 2:0.12518 3:0.0109886 4:-0.6875 5:-1 6:-0.310345 7:-0.390732 8:-0.31778 9:-0.177939 10:0.295547 
1 1:0.498783 2:0.116037 3:-0.142857 4:-0.5625 5:0.3125 6:-0.517241 7:-0.32952 8:-0.0332996 9:-0.00326473 10:0.473684 
1 1:0.136736 2:0.057963 3:-0.318681 4:-0.25 5:0.125 6:-0.310345 7:0.0984901 8:0.244863 9:0.211415 10:0.295547 
1 1:0.136736 2:0.057963 3:-0.318681 4:-0.1875 5:0.0625 6:-0.310345 7:0.0984901 8:0.244863 9:0.211415 10:0.295547 
1 1:0.187696 2:0.101167 3:-0.269841 4:-0.6875 5:-0.3125 6:-0.586207 7:-0.512912 8:-0.228676 9:-0.229823 10:0.0526316 
1 1:0.101174 2:0.053118 3:-0.298701 4:-0.5625 5:-0.3125 6:-0.448276 7:-0.345545 8:-0.138055 9:-0.310375 10:0.0526316 
1 1:0.0355028 2:0.327395 3:-0.428571 4:-0.5 5:-0.0625 6:-0.586207 7:-0.566478 8:-0.314923 9:0.00441056 10:0.286549 
1 1:0.273155 2:0.0939963 3:-0.22449 4:-0.4375 5:-0.8125 6:-0.241379 7:-0.445083 8:-0.423757 9:0.274884 10:-0.172933 
1 1:-0.173717 2:0.0198479 3:-0.428571 4:-0.9375 5:0.1875 6:-0.655172 7:-0.550788 8:-0.207141 9:-0.0798323 10:0.184211 
1 1:-0.138951 2:0.0172585 3:-0.428571 4:-0.9375 5:-0.75 6:-0.586207 7:-0.549715 8:-0.287933 9:-0.424443 10:0.286549 
1 1:-0.192199 2:0.00884961 3:-0.428571 4:-0.9375 5:0.1875 6:-0.724138 7:-0.578779 8:-0.160324 9:0.44885 10:0.353383 
1 1:0.182789 2:0.118411 3:-0.414966 4:-0.6875 5:-0.0625 6:-0.172414 7:-0.376738 8:-0.393017 9:-0.0780736 10:-0.08772 
1 1:-0.0255194 2:0.00836968 3:-0.142857 4:-0.5625 5:-0.1875 6:-0.517241 7:-0.421339 8:-0.167697 9:-0.215584 10:0.157895 
1 1:-0.0033606 2:0.0131619 3:-0.339286 4:-0.0625 5:-0.625 6:-0.103448 7:0.329983 8:0.238724 9:0.296675 10:0.315789 
1 1:0.346594 2:0.200844 3:-0.190476 4:-0.9375 5:0.5 6:-0.793103 7:-0.28546 8:0.638931 9:0.209782 10:0.754385 
1 1:-0.11287 2:0.0534118 3:-0.480519 4:-0.8125 5:0.125 6:-0.448276 7:-0.557397 8:-0.42231 9:-0.427574 10:0.435406 
1 1:0.0435725 2:-0.00533945 3:-0.0714286 4:-0.5 5:-0.375 6:-0.655172 7:-0.731015 8:-0.529567 9:-0.631964 10:0.184211 
1 1:0.0882564 2:0.0157291 3:-0.269841 4:-0.625 5:-0.625 6:-0.586207 7:-0.414351 8:-0.069982 9:-0.193288 10:-0.0643284 
1 1:0.0420506 2:0.0364601 3:-0.190476 4:-0.4375 5:-0.75 6:-0.37931 7:-0.462543 8:-0.351752 9:0.229059 10:0.228069 
1 1:-0.0495358 2:-0.0147333 3:-0.339286 4:-0.125 5:-0.3125 6:-0.103448 7:-0.27383 8:-0.33316 9:0.11452 10:-0.0131579 
1 1:0.2757 2:0.089688 3:-0.190476 4:-0.875 5:-0.0625 6:-0.793103 7:-0.511894 8:0.118097 9:-0.0894836 10:0.228069 
1 1:0.29624 2:0.181279 3:0.0136057 4:-0.6875 5:-0.75 6:-0.793103 7:-0.511894 8:0.118097 9:-0.0894836 10:0.228069 
1 1:0.187122 2:0.0990218 3:-0.22449 4:-1 5:-0.1875 6:-0.724138 7:-0.407389 8:0.184622 9:0.0805299 10:0.654135 
1 1:-0.231067 2:0.06762 3:-0.436421 4:-0.25 5:0.1875 6:-0.241379 7:-0.316199 8:-0.285414 9:0.120837 10:0.127819 
1 1:0.165425 2:0.0992631 3:-0.22449 4:-0.875 5:-0.3125 6:-0.724138 7:-0.65289 8:-0.309481 9:-0.707479 10:0.0526316 
1 1:-0.00612293 2:0.0196491 3:-0.428571 4:-0.5 5:-0.3125 6:-0.586207 7:-0.420982 8:-0.0806581 9:-0.592256 10:0.169592 
1 1:0.165176 2:0.117181 3:-0.339286 4:-0.9375 5:-0.3125 6:-0.103448 7:-0.0793622 8:-0.148973 9:-0.155108 10:-0.144737 
1 1:0.156105 2:0.111136 3:-0.269841 4:-0.625 5:0.1875 6:-0.586207 7:-0.378633 8:-0.0124729 9:0.10759 10:0.286549 
1 1:0.173249 2:0.0569075 3:-0.309524 4:-0.25 5:-0.375 6:-0.37931 7:-0.174297 8:0.00525107 9:-0.296142 10:0.140352 
1 1:-0.136575 2:0.0677893 3:-0.428571 4:-0.8125 5:0.3125 6:-0.310345 7:-0.0507778 8:0.0731944 9:-0.270521 10:0.214575 
1 1:0.281766 2:0.0146965 3:-0.0989 4:-0.625 5:-0.6875 6:-0.310345 7:-0.0507778 8:0.0731944 9:-0.270521 10:0.214575 
1 1:0.105286 2:-0.0549172 3:-0.168831 4:-0.75 5:-0.8125 6:-0.448276 7:-0.288203 8:-0.0611158 9:-0.0579477 10:-0.0430632 
1 1:0.0695821 2:0.0225909 3:-0.106751 4:-0.4375 5:0.3125 6:-0.241379 7:-0.378525 8:-0.352315 9:-0.325807 10:0.127819 
1 1:-0.149708 2:0.0172287 3:-0.428571 4:-1 5:-0.75 6:-0.586207 7:-0.169153 8:0.324812 9:0.325897 10:0.169592 
1 1:-0.221541 2:-0.0523034 3:-0.22449 4:-0.875 5:-0.625 6:-0.724138 7:-0.559415 8:-0.121352 9:-0.424733 10:0.203008 
1 1:0.463438 2:0.119499 3:-0.318681 4:-0.5 5:-0.1875 6:-0.310345 7:-0.0825273 8:0.0366788 9:-0.220119 10:0.133604 
1 1:-0.0801091 2:0.0604981 3:-0.0714286 4:-1 5:-0.3125 6:-0.931034 7:-0.787975 8:-0.310765 9:-0.693332 10:0.315789 
1 1:-0.13443 2:0.0573068 3:-0.523809 4:-0.8125 5:0.125 6:-0.172414 7:-0.0798673 8:-0.0942701 9:-0.177974 10:0.122806 
1 1:-0.210601 2:0.00658025 3:-0.269841 4:-0.9375 5:-0.1875 6:-0.586207 7:-0.462035 8:-0.146758 9:-0.136597 10:0.169592 
1 1:-0.0290468 2:0.0663661 3:0.04762 4:-0.875 5:-0.3125 6:-0.793103 7:-0.681748 8:-0.272594 9:-0.202653 10:0.403509 
1 1:-0.135542 2:-0.0642507 3:-0.309524 4:-0.5625 5:-0.625 6:-0.310345 7:-0.383309 8:-0.309243 9:-0.200691 10:0.0526316 
1 1:-0.0560397 2:0.00765474 3:-0.298701 4:-0.375 5:0.3125 6:-0.448276 7:-0.426931 8:-0.247255 9:-0.153733 10:0.148326 
1 1:0.0895478 2:-0.0633856 3:-0.333333 4:-0.4375 5:-0.3125 6:-0.172414 7:-0.212227 8:-0.227467 9:0.320545 10:-0.08772 
1 1:0.0705879 2:0.082232 3:-0.428571 4:-0.4375 5:-0.75 6:-0.517241 7:-0.374134 8:-0.0986031 9:-0.151476 10:0.263158 
1 1:0.0748007 2:0.121289 3:-0.285714 4:-0.875 5:-0.75 6:-0.517241 7:-0.618094 8:-0.455693 9:0.477232 10:0.263158 
1 1:0.0583491 2:0.0465725 3:-0.285714 4:-0.6875 5:-1 6:-0.517241 7:-0.618094 8:-0.455693 9:0.477232 10:0.263158 
1 1:-0.16021 2:0.00674742 3:-0.428571 4:-0.875 5:-0.625 6:-0.241379 7:-0.141792 8:-0.0982027 9:-0.0342929 10:0.127819 
1 1:-0.201746 2:0.000556093 3:-0.142857 4:-0.9375 5:-0.8125 6:-0.517241 7:-0.583765 8:-0.405449 9:-0.304435 10:0.157895 
1 1:-0.0308829 2:0.168989 3:-0.428571 4:-0.625 5:0.0625 6:-0.793103 7:-0.807561 8:-0.561983 9:-0.395301 10:0.403509 
1 1:-0.194586 2:0.0131981 3:-0.168831 4:-0.625 5:-1 6:-0.448276 7:-0.346203 8:-0.138939 9:-0.434128 10:0.531101 
1 1:0.0331107 2:0.128403 3:-0.428571 4:-0.5 5:-0.75 6:-0.586207 7:-0.400416 8:-0.0475455 9:0.421854 10:0.286549 
1 1:-0.146802 2:0.0438955 3:-0.428571 4:-0.3125 5:0.125 6:-0.37931 7:-0.50155 8:-0.400065 9:-0.393012 10:0.228069 
1 1:0.294081 2:0.0253808 3:-0.298701 4:-0.5625 5:-0.5625 6:0.310345 7:0.133573 8:-0.230357 9:0.135217 10:-0.0909095 
1 1:0.0685457 2:0.0616725 3:-0.269841 4:-0.5 5:-0.75 6:-0.586207 7:-0.259843 8:0.178792 9:0.285345 10:0.286549 
1 1:0.225172 2:0.20541 3:-0.269841 4:-0.4375 5:-0.375 6:-0.586207 7:-0.565266 8:-0.312971 9:-0.469339 10:0.169592 
1 1:0.166096 2:0.0426998 4:-0.75 5:0.3125 6:-0.517241 7:-0.468422 8:-0.236612 9:-0.442206 10:0.0526316 
1 1:0.195044 2:0.0130756 3:-0.285714 4:-0.625 5:-0.25 6:-0.517241 7:-0.468422 8:-0.236612 9:-0.442206 10:0.0526316 
1 1:-0.201206 2:0.00487732 3:-0.428571 4:0.3125 5:0.125 6:0.310345 7:-0.26786 8:-0.511376 9:0.458307 10:-0.0909095 
1 1:-0.0307524 2:-0.00181597 3:-0.190476 4:-0.5 5:-0.0625 6:-0.37931 7:-0.202716 8:-0.0299467 9:0.0443124 10:-0.0350884 
1 1:0.283399 2:0.0876737 3:-0.25 4:-0.625 5:-0.5625 6:-0.655172 7:-0.433725 8:0.00228596 9:-0.0423479 10:0.315789 
1 1:-0.0158452 2:0.0108284 3:-0.333333 4:-0.8125 5:-0.0625 6:-0.172414 7:-0.286395 8:-0.302104 9:0.01639 10:-0.0175432 
1 1:0.154897 2:0.0380202 3:-0.339286 4:-0.5 5:-0.625 6:-0.103448 7:0.0324553 8:-0.0430707 9:0.0788146 10:-0.0789474 
1 1:0.128755 2:0.0567909 3:-0.339286 4:-0.0625 5:-0.3125 6:-0.103448 7:0.0324553 8:-0.0430707 9:0.0788146 10:-0.0789474 
1 1:-0.107838 2:0.0828513 3:-0.428571 4:-0.8125 5:-0.75 6:0.37931 7:0.484059 8:-0.0286413 9:0.189649 10:0.0526316 
1 1:-0.230592 2:-0.0160756 3:-0.428571 4:-1 5:-0.3125 6:-0.655172 7:-0.612041 8:-0.316721 9:-0.49234 10:0.315789 
1 1:-0.0399564 2:0.0340556 3:-0.25 4:-0.875 5:-0.3125 6:-0.655172 7:-0.570848 8:-0.243026 9:-0.471608 10:0.0526316 
1 1:-0.155259 2:-0.0383038 3:-0.25 4:-0.75 5:-1 6:-0.655172 7:-0.53779 8:-0.183883 9:-0.467142 10:0.315789 
1 1:0.215478 2:0.0726424 3:-0.344538 4:-0.4375 5:-0.3125 6:-0.0344828 7:-0.124756 8:-0.238656 9:0.255813 10:-0.00928842 
1 1:0.293802 2:0.0348954 3:-0.363636 4:-0.0625 5:0.3125 6:0.310345 7:0.0709313 8:-0.274208 9:0.145452 10:0.0526316 
1 1:0.188686 2:0.0162344 3:-0.285714 4:-0.5625 5:-0.8125 6:-0.517241 7:-0.282494 8:0.035532 9:0.0352809 10:0.368421 
1 1:0.0778956 2:0.135735 3:-0.428571 4:-0.375 5:0.0625 6:-0.517241 7:-0.282494 8:0.035532 9:0.0352809 10:0.368421 
1 1:-0.257941 2:0.042657 3:-0.428571 4:-0.75 6:-0.655172 7:-0.640558 8:-0.367737 9:-0.440376 10:0.315789 
1 1:0.118342 2:0.0689663 3:-0.22449 4:-0.875 5:-0.3125 6:-0.724138 7:-0.519906 8:-0.0418322 9:-0.312323 10:0.0526316 
1 1:-0.174539 2:0.0104421 3:-0.298701 4:-0.4375 5:-0.1875 6:-0.448276 7:-0.488692 8:-0.330124 9:-0.411066 10:0.339714 
1 1:0.165486 2:0.0206882 3:-0.309524 4:-0.5 5:-0.625 6:-0.37931 7:-0.365613 8:-0.231704 9:-0.365494 10:0.228069 
1 1:0.0194705 2:0.0407648 3:-0.428571 4:-0.375 5:-0.3125 6:-0.37931 7:-0.178827 8:-0.000362216 9:0.134691 10:0.140352 
1 1:0.243462 2:0.0558395 3:-0.428571 4:-0.3125 5:0.1875 6:0.37931 7:0.121286 8:-0.272015 9:0.331264 10:-0.0389011 
1 1:0.240314 2:0.109043 3:-0.111111 4:-0.75 5:0.1875 6:-0.586207 7:-0.557887 8:-0.30109 9:-0.305288 10:-0.0643284 
1 1:0.140841 2:0.0302567 3:-0.309524 4:-0.5 5:-0.75 6:-0.37931 7:-0.51012 8:-0.410679 9:-0.222031 10:0.0526316 
1 1:0.123517 2:0.117661 3:-0.428571 4:-0.875 5:-0.3125 6:-0.793103 7:-0.476356 8:0.199844 9:-0.167167 10:0.0526316 
1 1:-0.0100971 2:0.0112296 3:-0.142857 4:-0.6875 5:-0.3125 6:-0.448276 7:-0.413846 8:-0.229698 9:-0.428397 10:0.0526316 
1 1:0.252266 2:0.0620426 3:-0.22449 4:-0.75 5:0.125 6:-0.724138 7:-0.421404 8:0.156414 9:0.0575018 10:0.203008 
1 1:-0.061594 2:0.238499 3:-0.428571 4:-0.75 5:-0.625 6:-0.793103 7:-0.731007 8:-0.385894 9:-0.458236 10:0.228069 
1 1:-0.140215 2:0.0360177 3:-0.285714 4:-0.625 5:-0.625 6:-0.517241 7:-0.493761 8:-0.273708 9:-0.477232 10:0.263158 
1 1:-0.0618949 2:0.0289162 3:-0.428571 4:-0.0625 5:0.1875 6:-0.0344828 7:0.0773159 8:-0.0579005 9:-0.00850204 10:-0.00928842 
1 1:0.25561 2:0.143205 3:-0.269841 4:-0.4375 5:-0.3125 6:0.0344828 7:-0.321944 8:-0.447532 9:0.356644 10:-0.0643284 
