svm_type c_svc
kernel_type rbf
gamma 0.1
nr_class 2
total_sv 1381
rho -0.922274
label -1 1
probA -1.89708
probB 0.430247
nr_sv 690 691
SV
1 1:0.262205 2:0.312217 3:0.445153 4:-0.588553 5:-0.0777294 6:-1 7:-1 8:-0.775769 9:-0.716937 10:-0.45 
1 1:0.327094 2:0.0180994 3:0.475689 4:-0.336356 5:-0.231359 6:-0.500278 7:-1 8:-0.626278 9:-0.650948 10:-0.175 
1 1:0.261758 2:0.221719 3:0.461969 4:-0.335898 5:-0.23094 6:-0.24983 7:-1 8:-0.626009 9:-0.513107 10:0.2375 
1 1:0.261807 2:0.0407236 3:0.436406 4:-0.520331 5:-0.181792 6:-0.750977 7:-1 8:-0.701773 9:-0.799217 10:-0.511112 
1 1:0.196531 2:0.0588233 3:0.42613 4:-0.617501 5:-0.385512 6:-0.750406 7:-1 8:-0.738613 9:-0.855981 10:-0.23 
1 1:0.326695 2:0.251337 3:0.475689 4:-0.557241 5:-0.664731 6:-0.75011 7:-1 8:-0.663829 9:-0.610671 10:-0.0999999 
1 1:0.327094 2:0.357466 3:0.475689 4:-0.593771 5:-0.0785014 6:-1 7:-1 8:-0.66398 9:-0.703377 10:-0.358333 
1 1:0.261842 2:0.0859725 3:0.452412 4:-0.506551 5:-0.180836 6:-0.750323 7:-1 8:-0.589304 9:-0.612619 10:-0.175 
1 1:0.327094 2:0.357466 3:0.475689 4:-0.681077 5:-0.488169 6:-0.750458 7:-1 8:-0.738731 9:-0.742837 10:-0.358333 
1 1:0.0986043 2:0.221719 3:0.461963 4:-0.391714 5:0.0654475 6:-1 7:-1 8:-0.364897 9:-0.80921 10:-0.266667 
1 1:0.2625 2:0.187782 3:0.469694 4:-0.516338 5:-0.0994089 6:-1 7:-1 8:-0.496222 9:-0.828687 10:-0.266667 
1 1:0.327093 2:0.125898 3:0.474542 4:-0.746217 5:-0.783048 6:-0.750169 7:-1 8:-0.701104 9:-0.709427 10:-0.935294 
1 1:0.262009 2:0.125898 3:0.46977 4:-0.43269 5:-0.206764 6:-1 7:-1 8:-0.329419 9:-0.758518 10:0.0352935 
1 1:0.326715 2:0.197764 3:0.475689 4:-0.588756 5:-0.421585 6:-1 7:-1 8:-0.514433 9:-0.703775 10:-0.741177 
1 1:0.261777 2:0.14415 3:0.454241 4:-0.771942 5:-0.765783 6:-1 7:-1 8:-0.66366 9:-0.813993 10:-0.738094 
1 1:0.261863 2:0.221719 3:0.460521 4:-0.746439 5:-0.707485 6:-1 7:-1 8:-0.626708 9:-0.547587 10:-0.738094 
0.6757680653353945 1:0.261806 2:0.221719 3:0.454053 4:-0.840759 5:-0.78618 6:-1 7:-1 8:-0.738464 9:-0.762127 10:-0.856522 
1 1:0.197161 2:0.17763 3:0.459007 4:-0.694219 5:-0.62231 6:-1 7:-1 8:-0.440518 9:-0.854671 10:-0.703847 
1 1:0.262185 2:0.117299 3:0.437041 4:-0.757152 5:-0.763953 6:-1 7:-1 8:-0.552429 9:-0.856017 10:-0.703847 
1 1:0.327043 2:0.159067 3:0.447264 4:-0.715241 5:-0.52795 6:-0.750651 7:-1 8:-0.4779 9:-0.762956 10:-0.873077 
1 1:0.196608 2:0.159067 3:0.405717 4:-0.71503 5:-0.716552 6:-1 7:-1 8:-0.477525 9:-0.638769 10:-0.746153 
1 1:0.261822 2:0.159067 3:0.430511 4:-0.672924 5:-0.62193 6:-1 7:-1 8:-0.40265 9:-0.588296 10:-0.703847 
1 1:0.261856 2:0.221719 3:0.463198 4:-0.756927 5:-0.810996 6:-1 7:-1 8:-0.552028 9:-0.746547 10:-0.703847 
1 1:0.2623 2:0.237962 3:0.461038 4:-0.65207 5:-0.574852 6:-1 7:-1 8:-0.365566 9:-0.676435 10:-0.703847 
1 1:0.262159 2:0.231001 3:0.455334 4:-0.820032 5:-0.763887 6:-1 7:-1 8:-0.664248 9:-0.722308 10:-0.830769 
1 1:0.196614 2:0.159067 3:-0.503873 4:-0.753784 5:-0.905589 6:-1 7:-1 8:-0.546439 9:-0.886867 10:-0.619231 
1 1:0.131688 2:0.0964148 3:0.447399 4:-0.694482 5:-0.90566 6:-1 7:-1 8:-0.440985 9:-0.819298 10:-0.576922 
1 1:0.261923 2:0.159067 3:0.439773 4:-0.820192 5:-0.811261 6:-1 7:-1 8:-0.664531 9:-0.697754 10:-0.873077 
1 1:0.262152 2:0.177293 3:0.455507 4:-0.565516 5:-0.508033 6:-0.750127 7:-1 8:-0.700951 9:-0.776676 10:-0.23 
1 1:0.197121 2:0.236528 3:0.344888 4:-0.359368 5:-0.139391 6:-0.750142 7:-1 8:-0.551605 9:-0.718417 10:0.21 
1 1:0.392355 2:0.384615 3:0.484368 4:-0.359546 5:-0.139591 6:-0.500541 7:-1 8:-0.55173 9:-0.622434 10:-0.0100001 
1 1:0.196479 2:0.221719 3:0.421112 4:-0.381391 5:-0.148619 6:-0.750225 7:-1 8:-0.43943 9:-0.388939 10:-0.323078 
1 1:0.197003 2:0.203819 3:0.452533 4:-0.421832 5:-0.0539471 6:-1 7:-1 8:-0.476723 9:-0.693326 10:-0.0692307 
1 1:0.261856 2:0.105365 3:0.467952 4:-0.614099 5:-0.648956 6:-0.750399 7:-1 8:-0.626623 9:-0.793571 10:-0.214285 
1 1:0.326677 2:0.150117 3:0.475689 4:-0.576264 5:-0.385539 6:-1 7:-1 8:-0.589245 9:-0.787463 10:-0.371429 
1 1:0.261772 2:0.105365 3:0.440682 4:-0.273384 5:-0.121595 6:-1 7:-1 8:-0.290023 9:-0.570812 10:-0.45 
1 1:0.262074 2:0.175178 3:0.393065 4:-0.613648 5:-0.384998 6:-0.750065 7:-1 8:-0.626175 9:-0.837263 10:-0.371429 
1 1:0.13204 2:0.0820943 3:0.408117 4:-0.0842385 5:0.317516 6:-1 7:-1 8:-0.10316 9:-0.531187 10:-0.214285 
1 1:0.326699 2:0.201357 3:0.475689 4:-0.62977 5:-0.462512 6:-1 7:-1 8:-0.589403 9:-0.626996 10:-0.79375 
1 1:0.261793 2:0.221719 3:0.445425 4:-0.671672 5:-0.521996 6:-0.750316 7:-1 8:-0.589142 9:-0.751766 10:-0.694444 
1 1:0.131248 2:0.221719 3:0.458436 4:-0.641706 5:-0.658487 6:-1 7:-1 8:-0.551642 9:-0.832599 10:-0.633333 
1 1:0.196715 2:0.221719 3:0.456574 4:-0.344485 5:-0.454581 6:-1 7:-1 8:-0.179711 9:-0.840782 10:-0.572223 
1 1:0.326796 2:0.184455 3:0.475689 4:-0.641654 5:-0.521784 6:-1 7:-1 8:-0.551576 9:-0.875804 10:-0.572223 
1 1:0.261824 2:0.147676 3:0.460215 4:-0.684601 5:-0.497085 6:-1 7:-1 8:-0.514367 9:-0.459735 10:-0.8 
1 1:0.261795 2:0.147676 3:0.463951 4:-0.536452 5:-0.496881 6:-1 7:-1 8:-0.289949 9:-0.467952 10:-0.6 
1 1:0.261865 2:0.221719 3:0.484647 4:-0.635273 5:-0.776516 6:-1 7:-1 8:-0.439643 9:-0.748946 10:-0.65 
1 1:0.261803 2:0.221719 3:0.452148 4:-0.783199 5:-0.720563 6:-1 7:-1 8:-0.663726 9:-0.662585 10:-0.85 
1 1:0.261777 2:0.147676 3:0.452884 4:-0.511845 5:-0.664682 6:-1 7:-1 8:-0.252673 9:-0.675353 10:-0.45 
1 1:0.261798 2:0.221719 3:0.445157 4:-0.659923 5:-0.552934 6:-1 7:-1 8:-0.476984 9:-0.569013 10:-0.8 
1 1:0.262188 2:0.170211 3:0.45308 4:-0.610625 5:-0.552972 6:-1 7:-1 8:-0.402309 9:-0.644251 10:-0.699999 
1 1:0.261853 2:0.147676 3:0.460398 4:-0.709397 5:-0.609016 6:-1 7:-1 8:-0.551929 9:-0.596834 10:-0.750001 
1 1:0.196707 2:0.221719 3:0.455413 4:-0.586545 5:-0.66523 6:-1 7:-1 8:-0.365831 9:-0.738029 10:-0.45 
1 1:0.131496 2:0.147676 3:0.468182 4:-0.291265 5:-0.665176 6:-0.750803 7:-1 8:0.0814637 9:-0.71348 10:-0.3 
1 1:0.261886 2:0.221719 3:0.40752 4:-0.66092 5:-0.665594 6:-1 7:-1 8:-0.478496 9:-0.747484 10:-0.6 
1 1:0.196862 2:0.147676 3:0.454976 4:-0.488621 5:-0.553899 6:-1 7:-1 8:-0.217494 9:-0.675472 10:-0.6 
1 1:0.0553765 2:-0.000411475 3:0.458951 4:-0.25787 5:-0.274239 6:-0.750543 7:-1 8:0.132053 9:-0.684346 10:-0.149999 
1 1:0.263338 2:0.192209 3:0.475009 4:-0.157633 5:-0.413602 6:-0.502252 7:-1 8:0.341337 9:-0.325114 10:-0.37826 
1 1:0.196529 2:0.156561 3:0.445156 4:-0.746312 5:-0.655894 6:-1 7:-1 8:-0.551826 9:-0.847932 10:-0.78 
1 1:0.261892 2:0.159067 3:0.465375 4:-0.736147 5:-0.622276 6:-1 7:-1 8:-0.515076 9:-0.852626 10:-0.788462 
1 1:0.261922 2:0.221719 3:0.468582 4:-0.841105 5:-0.811176 6:-1 7:-1 8:-0.701719 9:-0.918556 10:-0.830769 
1 1:0.327049 2:0.159067 3:0.473497 4:-0.799247 5:-0.858475 6:-1 7:-1 8:-0.627285 9:-0.946586 10:-0.703847 
1 1:0.261829 2:0.221719 3:0.426354 4:-0.624975 5:-0.433025 6:-1 7:-1 8:-0.664031 9:-0.61753 10:-0.407692 
1 1:0.261801 2:0.221719 3:0.444091 4:-0.765162 5:-0.824403 6:-1 7:-1 8:-0.77586 9:-0.830932 10:-0.842857 
1 1:0.26255 2:0.330316 3:0.471354 4:-0.273652 5:-0.297668 6:-1 7:-1 8:-0.290284 9:-0.752291 10:0.0999999 
1 1:0.19745 2:0.213962 3:0.457217 4:-0.292957 5:-0.473489 6:-1 7:-1 8:-0.309359 9:-0.766347 10:0.0214291 
1 1:0.26189 2:0.113122 3:0.473646 4:-0.392049 5:0.392543 6:-1 7:-1 8:-0.365246 9:-0.803268 10:-0.266667 
1 1:0.392394 2:0.330316 3:0.482958 4:-0.249674 5:-0.26217 6:-0.500238 7:-1 8:-0.215218 9:-0.702262 10:0.173332 
1 1:0.261861 2:0.113122 3:0.471799 4:-0.285671 5:0.392701 6:-1 7:-1 8:-0.253148 9:-0.758181 10:-0.12 
1 1:0.392387 2:0.425339 3:0.505336 4:-0.21054 5:0.382973 6:-0.750191 7:-1 8:-0.551701 9:-0.574711 10:0.2375 
1 1:0.261877 2:0.0180994 3:0.456047 4:-0.399948 5:0.22867 6:-0.500637 7:-1 8:-0.663972 9:-0.222321 10:-0.0375001 
1 1:-0.0537945 2:-0.185521 3:0.336261 4:-0.0844841 5:0.536646 6:-0.000792123 7:-1 8:-0.476981 9:-0.233087 10:0.375 
1 1:0.262401 2:0.199095 3:0.468228 4:-0.273055 5:0.230195 6:-1 7:-1 8:-0.588756 9:-0.437453 10:-0.0375001 
1 1:0.261801 2:0.221719 3:0.468775 4:-0.3362 5:0.0763042 6:-1 7:-1 8:-0.626186 9:-0.514552 10:-0.0375001 
1 1:0.261795 2:0.221719 3:0.463948 4:-0.336256 5:0.22988 6:-1 7:-1 8:-0.626219 9:-0.521686 10:-0.0375001 
1 1:0.261851 2:0.0180994 3:0.42863 4:-0.588968 5:-0.0785691 6:-0.750366 7:-1 8:-0.776014 9:-0.547522 10:-0.3125 
0.6045033899819767 1:0.196878 2:-0.0271495 3:-0.623327 4:-0.46234 5:0.229989 6:-1 7:-1 8:-0.700956 9:-0.676929 10:-0.3125 
1 1:0.261805 2:0.0180994 3:0.338122 4:-0.315801 5:0.38261 6:-0.500541 7:-1 8:-0.614093 9:-0.12669 10:-0.0375001 
1 1:0.262435 2:0.199095 3:0.467829 4:-0.336334 5:0.0761009 6:-1 7:-1 8:-0.626267 9:-0.491036 10:-0.0375001 
1 1:0.185766 2:0.0180994 3:0.42799 4:-0.463104 5:0.22838 6:-0.500822 7:-1 8:-0.701408 9:-0.171455 10:-0.0375001 
1 1:0.0875063 2:0.0180994 3:0.431666 4:-0.272954 5:0.691698 6:-0.250122 7:-1 8:-0.588697 9:-0.485798 10:-0.0375001 
1 1:0.26244 2:0.199095 3:0.458607 4:-0.336434 5:0.0759847 6:-1 7:-1 8:-0.626325 9:-0.575466 10:-0.0375001 
1 1:0.21821 2:0.221719 3:0.467269 4:-0.273233 5:0.537408 6:-0.500252 7:-1 8:-0.588862 9:-0.572498 10:-0.0375001 
1 1:0.0767706 2:0.0180994 3:0.447458 4:-0.273306 5:0.690924 6:-0.500325 7:-1 8:-0.588903 9:-0.604564 10:-0.0375001 
1 1:0.196461 2:0.0180994 3:0.418723 4:-0.462289 5:0.230098 6:-0.749999 7:-1 8:-0.700925 9:-0.336939 10:-0.175 
1 1:0.261841 2:0.221719 3:0.44898 4:-0.525868 5:-0.231957 6:-1 7:-1 8:-0.738612 9:-0.666335 10:-0.45 
1 1:0.185593 2:0.0180994 3:0.456522 4:-0.336317 5:0.537239 6:-0.250396 7:-1 8:-0.626255 9:-0.63854 10:-0.0375001 
1 1:0.196551 2:0.0180994 3:0.431798 4:-0.399853 5:0.382477 6:-0.7502 7:-1 8:-0.663913 9:-0.758103 10:-0.175 
1 1:0.262285 2:0.17647 3:0.449321 4:-0.399256 5:0.0763054 6:-1 7:-1 8:-0.66356 9:-0.620113 10:-0.175 
1 1:0.196495 2:0.0180994 3:0.391379 4:-0.388995 5:0.229554 6:-0.500374 7:-1 8:-0.657479 9:-0.478278 10:-0.0375001 
1 1:0.261751 2:0.0180994 3:0.270282 4:-0.525774 5:-0.0781614 6:-0.750365 7:-1 8:-0.738556 9:-0.59541 10:-0.3125 
1 1:0.2618 2:0.0180994 3:0.443968 4:-0.179021 5:0.536718 6:-0.250686 7:-1 8:-0.533015 9:-0.537093 10:0.0999999 
1 1:0.261781 2:0.0180994 3:0.454192 4:-0.588439 5:-0.0774899 6:-0.750132 7:-1 8:-0.775701 9:-0.671928 10:-0.175 
1 1:0.196494 2:0.0180994 3:0.421986 4:-0.399446 5:0.38336 6:-0.750104 7:-1 8:-0.663674 9:-0.578337 10:-0.175 
1 1:0.196563 2:0.0180994 3:0.321534 4:-0.462786 5:0.228997 6:-0.750363 7:-1 8:-0.701221 9:-0.0277435 10:-0.175 
1 1:0.261763 2:0.0180994 3:0.410434 4:-0.525356 5:0.0763102 6:-0.750055 7:-1 8:-0.738308 9:-0.405428 10:-0.175 
1 1:0.196424 2:0.0180994 3:0.388852 4:-0.336094 5:0.384025 6:-0.500058 7:-1 8:-0.626123 9:-0.390416 10:-0.0375001 
1 1:-0.0213408 2:-0.185521 3:0.426009 4:-0.073397 5:0.230074 6:-0.000205037 7:-1 8:-0.47041 9:-0.595194 10:0.5125 
1 1:0.19652 2:0.0180994 3:0.403072 4:-0.588721 5:-0.846409 6:-0.500384 7:-1 8:-0.775868 9:-0.722657 10:-0.45 
1 1:0.2618 2:0.221719 3:0.432911 4:-0.39963 5:-0.231698 6:-0.500459 7:-1 8:-0.663785 9:-0.594947 10:0.0999999 
1 1:0.196461 2:-0.185521 3:0.416102 4:-0.525463 5:-0.23143 6:-0.500142 7:-1 8:-0.738372 9:-0.7496 10:-0.45 
1 1:0.131122 2:-0.185521 3:0.387988 4:-0.525323 5:-0.692487 6:-0.499977 7:-1 8:-0.738289 9:-0.751522 10:-0.3125 
1 1:0.261761 2:0.0180994 3:0.463225 4:-0.588358 5:-0.692412 6:-0.500021 7:-1 8:-0.775653 9:-0.662421 10:-0.3125 
1 1:0.109302 2:-0.185521 3:0.403063 4:-0.462295 5:-0.692458 6:-0.500089 7:-1 8:-0.70093 9:-0.812531 10:-0.175 
1 1:0.196411 2:-0.185521 3:0.393061 4:-0.525269 5:-0.692457 6:-0.499893 7:-1 8:-0.738257 9:-0.590889 10:-0.3125 
1 1:0.261762 2:0.0180994 3:0.468605 4:-0.27282 5:-0.230927 6:-0.49992 7:-1 8:-0.588616 9:-0.639977 10:-0.175 
1 1:0.130982 2:0.0180994 3:0.319728 4:-0.335926 5:0.230534 6:-0.250003 7:-1 8:-0.626024 9:-0.773682 10:-0.0375001 
1 1:0.196432 2:-0.185521 3:0.451705 4:-0.525276 5:-0.692457 6:-0.500058 7:-1 8:-0.738261 9:-0.890767 10:-0.3125 
1 1:0.131007 2:-0.185521 3:0.370051 4:-0.46201 5:-0.692347 6:-0.49975 7:-1 8:-0.700759 9:-0.612025 10:-0.3125 
1 1:0.261759 2:0.0180994 3:0.438767 4:-0.525394 5:-0.0775346 6:-0.500206 7:-1 8:-0.738331 9:-0.795184 10:-0.175 
1 1:0.131048 2:-0.185521 3:0.431713 4:-0.335915 5:-0.230974 6:-0.499838 7:-1 8:-0.626016 9:-0.669455 10:-0.175 
1 1:0.196393 2:0.0180994 3:0.385535 4:-0.336038 5:-0.231127 6:-0.49985 7:-1 8:-0.62609 9:-0.603719 10:-0.175 
1 1:0.131058 2:-0.185521 3:0.373284 4:-0.462183 5:-0.538681 6:-0.499883 7:-1 8:-0.700864 9:-0.643372 10:-0.3125 
1 1:0.196395 2:0.0180994 3:0.451859 4:-0.399094 5:-0.0772902 6:-0.24996 7:-1 8:-0.663465 9:-0.897307 10:-0.0375001 
1 1:0.13094 2:-0.185521 3:0.263717 4:-0.588134 5:-0.692308 6:-0.499697 7:-1 8:-0.775521 9:-0.789901 10:-0.3125 
1 1:0.261782 2:0.0180994 3:0.461261 4:-0.588447 5:-0.69247 6:-0.750101 7:-1 8:-0.775706 9:-0.816841 10:-0.3125 
1 1:0.131037 2:-0.185521 3:0.361561 4:-0.462189 5:-0.538686 6:-0.49989 7:-1 8:-0.700865 9:-0.774628 10:-0.3125 
1 1:0.196432 2:0.0180994 3:0.342666 4:-0.525405 5:-0.38503 6:-0.500095 7:-1 8:-0.738338 9:-0.596191 10:-0.175 
1 1:0.196398 2:-0.185521 3:0.421118 4:-0.525143 5:-0.692382 6:-0.499808 7:-1 8:-0.738182 9:-0.728905 10:-0.3125 
1 1:0.130996 2:-0.185521 3:0.304438 4:-0.462072 5:-0.538615 6:-0.49985 7:-1 8:-0.700796 9:-0.712932 10:-0.3125 
0.6297423196590787 1:0.0658056 2:-0.185521 3:0.401031 4:-0.336317 5:0.0760779 6:-0.500257 7:-1 8:-0.626255 9:-0.839132 10:-0.175 
1 1:0.196348 2:0.0180994 3:0.327027 4:-0.462066 5:-0.230887 6:-0.249917 7:-1 8:-0.700795 9:-0.68651 10:-0.175 
1 1:0.196483 2:-0.185521 3:0.36494 4:-0.651609 5:-1 6:-0.500249 7:-1 8:-0.813145 9:-0.675747 10:-0.5875 
1 1:0.196435 2:-0.185521 3:0.359938 4:-0.525375 5:-0.692547 6:-0.49998 7:-1 8:-0.738319 9:-0.543778 10:-0.3125 
1 1:0.196447 2:-0.185521 3:0.389187 4:-0.58846 5:-0.846293 6:-0.500114 7:-1 8:-0.775713 9:-0.778367 10:-0.45 
1 1:0.120326 2:0.0180994 3:0.913175 4:-0.525468 5:-0.231291 6:-0.500368 7:-1 8:-0.738375 9:-0.105564 10:-0.175 
1 1:0.196463 2:-0.185521 3:0.39384 4:-0.588553 5:-1 6:-0.500201 7:-1 8:-0.775769 9:-0.781523 10:-0.5875 
1 1:0.196438 2:-0.185521 3:0.40045 4:-0.525355 5:-0.538774 6:-0.500014 7:-1 8:-0.738308 9:-0.750688 10:-0.3125 
1 1:0.131148 2:-0.185521 3:0.380199 4:-0.525453 5:-0.692608 6:-0.500156 7:-1 8:-0.738366 9:-0.752095 10:-0.45 
1 1:0.131114 2:-0.185521 3:0.424849 4:-0.588415 5:-0.692524 6:-0.500073 7:-1 8:-0.775687 9:-0.873506 10:-0.3125 
1 1:0.392676 2:0.312217 3:0.487162 4:-0.588455 5:-0.538872 6:-0.500051 7:-1 8:-0.77571 9:-0.806534 10:-0.45 
1 1:0.262092 2:0.312217 3:0.460797 4:-0.651442 5:-0.231154 6:-1 7:-1 8:-0.813046 9:-0.839142 10:-0.45 
1 1:0.163853 2:0.221719 3:0.471542 4:-0.292203 5:0.0930907 6:-1 7:-1 8:-0.551524 9:-0.702125 10:0.0999999 
1 1:0.16426 2:0.239819 3:0.420112 4:-0.29174 5:0.0938094 6:-1 7:-1 8:-0.551219 9:-0.660473 10:0.222223 
1 1:0.2622 2:0.18552 3:0.437916 4:-0.462234 5:0.093588 6:-1 7:-1 8:-0.663509 9:-0.471658 10:-0.144444 
1 1:0.175065 2:0.16742 3:0.469998 4:-0.348325 5:-0.0426137 6:-1 7:-1 8:-0.588487 9:-0.572678 10:-0.266667 
1 1:0.13186 2:0.0588233 3:0.457359 4:-0.292125 5:0.0931972 6:-0.75021 7:-1 8:-0.551473 9:-0.830807 10:0.0999999 
1 1:0.262253 2:0.384615 3:0.419388 4:-0.348649 5:-0.0430952 6:-1 7:-1 8:-0.588701 9:-0.476808 10:0.0999999 
1 1:0.262093 2:0.312217 3:0.444221 4:-0.575654 5:-0.316341 6:-1 7:-1 8:-0.738209 9:-0.779619 10:-0.388888 
1 1:0.131144 2:-0.140271 3:0.435914 4:-0.292002 5:0.366796 6:-0.250221 7:-1 8:-0.551392 9:-0.542107 10:-0.0222233 
1 1:0.261781 2:0.0407236 3:0.469009 4:-0.518947 5:-0.043094 6:-0.749987 7:-1 8:-0.700861 9:-0.640383 10:-0.144444 
1 1:0.262137 2:0.18552 3:0.40345 4:-0.462111 5:-0.042921 6:-1 7:-1 8:-0.663428 9:-0.676471 10:-0.144444 
1 1:0.26218 2:0.312217 3:0.452486 4:-0.575898 5:-0.0434679 6:-1 7:-1 8:-0.73837 9:-0.743685 10:-0.388888 
1 1:0.131121 2:-0.140271 3:0.444584 4:-0.348805 5:-0.179978 6:-0.000272892 7:-1 8:-0.588804 9:-0.758611 10:0.344444 
1 1:0.261782 2:0.221719 3:0.445713 4:-0.518995 5:0.093519 6:-1 7:-1 8:-0.700893 9:-0.613539 10:-0.266667 
1 1:0.262025 2:0.16742 3:0.0891604 4:-0.575613 5:-0.453074 6:-1 7:-1 8:-0.738182 9:-0.666389 10:-0.266667 
1 1:0.262295 2:0.221719 3:0.458104 4:-0.405603 5:-0.180093 6:-1 7:-1 8:-0.626211 9:-0.752267 10:0.0999999 
1 1:0.327082 2:0.221719 3:0.453967 4:-0.292304 5:0.502852 6:-0.500331 7:-1 8:-0.551591 9:-0.342788 10:-0.0222233 
1 1:0.18569 2:0.0407236 3:0.438497 4:-0.576243 5:-0.044189 6:-0.750289 7:-1 8:-0.738597 9:-0.578389 10:-0.144444 
1 1:0.327081 2:0.221719 3:0.436199 4:-0.575724 5:-0.179798 6:-1 7:-1 8:-0.738255 9:-0.686587 10:-0.266667 
1 1:0.185643 2:0.0407236 3:0.440754 4:-0.462686 5:0.229227 6:-0.50048 7:-1 8:-0.663807 9:-0.528728 10:-0.0222233 
1 1:-0.0868637 2:-0.140271 3:0.3874 4:-0.291667 5:0.0939038 6:-0.249765 7:-1 8:-0.551171 9:-0.435932 10:0.344444 
1 1:0.262098 2:0.330316 3:0.442415 4:-0.518785 5:-0.179466 6:-1 7:-1 8:-0.700754 9:-0.634731 10:-0.266667 
1 1:0.174741 2:0.0407236 3:0.434693 4:-0.292544 5:0.638957 6:-0.500452 7:-1 8:-0.551749 9:-0.666726 10:-0.0222233 
1 1:0.163834 2:0.0407236 3:0.471174 4:-0.348839 5:0.503312 6:-0.250187 7:-1 8:-0.588826 9:-0.62164 10:-0.0222233 
1 1:0.185668 2:0.0407236 3:0.451491 4:-0.406078 5:0.229033 6:-0.500685 7:-1 8:-0.626524 9:-0.61936 10:-0.0222233 
1 1:0.174695 2:0.0407236 3:0.456188 4:-0.462345 5:0.0933278 6:-0.500212 7:-1 8:-0.663582 9:-0.528419 10:-0.0222233 
1 1:0.174578 2:0.0407236 3:0.44493 4:-0.461966 5:0.230788 6:-0.499852 7:-1 8:-0.663332 9:-0.44038 10:-0.144444 
1 1:0.109284 2:0.0407236 3:0.454055 4:-0.518802 5:-0.0428121 6:-0.499855 7:-1 8:-0.700766 9:-0.558314 10:-0.0222233 
1 1:0.098416 2:0.0407236 3:0.434794 4:-0.405408 5:0.230316 6:-0.499979 7:-1 8:-0.626083 9:-0.546908 10:-0.0222233 
1 1:0.2621 2:0.348416 3:0.451125 4:-0.518828 5:-0.0428291 6:-1 7:-1 8:-0.700783 9:-0.704605 10:-0.144444 
1 1:0.26214 2:0.20362 3:0.441748 4:-0.518909 5:-0.316436 6:-1 7:-1 8:-0.700836 9:-0.514246 10:-0.0222233 
1 1:0.18566 2:0.0407236 3:0.459253 4:-0.519346 5:0.0927616 6:-0.500452 7:-1 8:-0.701124 9:-0.657983 10:-0.0222233 
1 1:-0.217034 2:-0.140271 3:0.422876 4:-0.122206 5:0.229409 6:-0.000790648 7:-1 8:-0.439562 9:-0.421809 10:0.711111 
1 1:0.32708 2:0.221719 3:0.467313 4:-0.462412 5:0.22982 6:-0.500341 7:-1 8:-0.663627 9:-0.674418 10:-0.0222233 
1 1:0.1965 2:0.0407236 3:0.43469 4:-0.462541 5:0.22953 6:-0.750248 7:-1 8:-0.663711 9:-0.6398 10:-0.144444 
1 1:0.261754 2:0.0407236 3:0.4664 4:-0.348532 5:0.230546 6:-0.500007 7:-1 8:-0.588623 9:-0.713978 10:-0.144444 
1 1:0.196456 2:0.0407236 3:0.456708 4:-0.462195 5:0.230292 6:-0.750006 7:-1 8:-0.663483 9:-0.645731 10:-0.144444 
1 1:0.261753 2:0.0407236 3:0.428676 4:-0.405581 5:0.0933073 6:-0.750105 7:-1 8:-0.626197 9:-0.705749 10:-0.0222233 
1 1:0.261753 2:0.0407236 3:0.462482 4:-0.348521 5:0.0938154 6:-0.499865 7:-1 8:-0.588616 9:-0.557345 10:-0.0222233 
1 1:0.0984533 2:0.0407236 3:0.461501 4:-0.405441 5:-0.179762 6:-0.499995 7:-1 8:-0.626105 9:-0.754337 10:-0.0222233 
1 1:0.261773 2:0.0407236 3:0.456501 4:-0.519078 5:-0.0433106 6:-0.500285 7:-1 8:-0.700948 9:-0.736148 10:-0.0222233 
1 1:0.109359 2:0.0407236 3:0.46389 4:-0.348683 5:0.366977 6:-0.250197 7:-1 8:-0.588723 9:-0.728473 10:0.0999999 
1 1:0.261786 2:0.0407236 3:0.471133 4:-0.405497 5:0.36682 6:-0.75008 7:-1 8:-0.626142 9:-0.815539 10:-0.144444 
1 1:0.261643 2:0.0407236 3:-0.74662 4:-0.462329 5:0.0933569 6:-0.750155 7:-1 8:-0.663571 9:-0.709255 10:-0.144444 
1 1:0.19647 2:0.0407236 3:0.446266 4:-0.462312 5:0.230038 6:-0.500249 7:-1 8:-0.66356 9:-0.680039 10:-0.0222233 
1 1:0.196484 2:0.0407236 3:0.44498 4:-0.575813 5:-0.0432876 6:-0.750068 7:-1 8:-0.738314 9:-0.670044 10:-0.144444 
1 1:0.109512 2:0.0588233 3:0.437955 4:-0.565873 5:-0.262467 6:-0.500756 7:-1 8:-0.70121 9:-0.54257 10:-0.12 
1 1:0.0224062 2:0.0588233 3:0.458734 4:-0.462513 5:-0.262125 6:-0.500147 7:-1 8:-0.626329 9:-0.66375 10:-0.0100001 
1 1:0.261837 2:0.221719 3:0.463715 4:-0.61729 5:-0.385267 6:-1 7:-1 8:-0.73846 9:-0.573045 10:-0.34 
1 1:0.0875153 2:0.0588233 3:0.440206 4:-0.410633 5:-0.0157666 6:-0.250267 7:-1 8:-0.588741 9:-0.602084 10:-0.0100001 
1 1:0.131221 2:0.0588233 3:0.450126 4:-0.565767 5:-0.262361 6:-0.500508 7:-1 8:-0.701133 9:-0.696823 10:-0.0100001 
1 1:0.261837 2:0.0588233 3:0.468595 4:-0.359658 5:0.106199 6:-0.500645 7:-1 8:-0.551811 9:-0.769948 10:-0.12 
1 1:0.261793 2:0.221719 3:0.436169 4:-0.668954 5:-0.50837 6:-0.750242 7:-1 8:-0.775889 9:-0.848955 10:-0.34 
1 1:0.327064 2:0.384615 3:0.455303 4:-0.307991 5:0.229288 6:-0.500564 7:-1 8:-0.514378 9:-0.636967 10:-0.0100001 
1 1:0.196487 2:0.0588233 3:0.426647 4:-0.668828 5:-0.508125 6:-0.750223 7:-1 8:-0.775798 9:-0.810503 10:-0.34 
1 1:-0.0321934 2:0.0736322 3:0.459081 4:-0.210138 5:-0.77634 6:-0.500107 7:-1 8:-0.389499 9:-0.810172 10:-0.0999999 
1 1:0.185577 2:0.0736322 3:0.462524 4:-0.549132 5:-0.888203 6:-0.75012 7:-1 8:-0.65742 9:-0.900932 10:-0.3 
1 1:0.1964 2:0.0736322 3:0.438664 4:-0.556826 5:-0.776302 6:-0.249978 7:-1 8:-0.663502 9:-0.844117 10:-0.400001 
1 1:0.261901 2:0.0736322 3:0.499215 4:-0.321227 5:0.452048 6:0.247936 7:-1 8:-0.477297 9:-0.616279 10:-0.0999999 
1 1:0.326742 2:0.10325 3:0.475689 4:-0.509569 5:-0.32901 6:-1 7:-1 8:-0.626153 9:-0.719255 10:-0.200001 
1 1:0.32676 2:0.132867 3:0.475689 4:-0.604393 5:-0.441139 6:-1 7:-1 8:-0.701096 9:-0.748155 10:-0.400001 
1 1:0.196378 2:-0.0744552 3:-0.814256 4:-0.557123 5:0.00591292 6:-1 7:-1 8:-0.663737 9:-0.773225 10:-0.400001 
1 1:0.326678 2:-0.0448377 3:0.473182 4:-0.509837 5:-0.329305 6:-0.750275 7:-1 8:-0.626366 9:-0.686577 10:-0.3 
1 1:0.326704 2:0.0884407 3:0.475689 4:-0.509751 5:-0.329229 6:-1 7:-1 8:-0.626296 9:-0.474623 10:-0.0999999 
1 1:0.327094 2:0.369806 3:0.475689 4:-0.415278 5:-0.329235 6:-0.250635 7:-1 8:-0.551631 9:-0.652028 10:0.0999999 
1 1:0.326572 2:0.0736322 3:0.475689 4:-0.415473 5:-0.106079 6:-1 7:-1 8:-0.551785 9:-0.524996 10:-1.1e-006 
1 1:0.326636 2:0.0884407 3:0.475689 4:-0.510068 5:-0.329692 6:-1 7:-1 8:-0.626546 9:-0.617553 10:-0.0999999 
1 1:0.326649 2:0.118058 3:0.475689 4:-0.557459 5:-0.441533 6:-1 7:-1 8:-0.664002 9:-0.651532 10:-0.3 
1 1:0.326652 2:0.10325 3:0.475689 4:-0.557451 5:-0.441498 6:-1 7:-1 8:-0.663994 9:-0.570306 10:-0.200001 
1 1:0.327094 2:0.369806 3:0.475689 4:-0.462663 5:-0.441194 6:-0.500508 7:-1 8:-0.589079 9:-0.65203 10:-1.1e-006 
1 1:0.261824 2:0.221719 3:0.444363 4:-0.557326 5:-0.441406 6:-0.500656 7:-1 8:-0.663895 9:-0.634516 10:-0.0999999 
1 1:0.262025 2:0.221719 3:0.48322 4:-0.243109 5:-0.55361 6:-0.251678 7:-1 8:-0.41556 9:-0.836507 10:-1.1e-006 
1 1:0.229485 2:0.221719 3:0.507778 4:-0.369456 5:-0.442252 6:-0.501563 7:-1 8:-0.515414 9:-0.823286 10:-1.1e-006 
1 1:0.327094 2:0.357466 3:0.475689 4:-0.550983 5:-0.488932 6:-0.501845 7:-1 8:-0.627344 9:-0.541773 10:-0.0833327 
1 1:0.262424 2:0.305256 3:0.453534 4:-0.550401 5:-0.590486 6:-0.750602 7:-1 8:-0.626847 9:-0.739381 10:-0.266667 
1 1:0.197706 2:0.179951 3:0.467757 4:-0.463579 5:-0.283978 6:-1 7:-1 8:-0.55251 9:-0.776952 10:-0.266667 
1 1:0.327094 2:0.493212 3:0.475689 4:-0.724451 5:-0.692693 6:-1 7:-1 8:-0.775868 9:-0.685646 10:-0.358333 
1 1:0.327094 2:0.493212 3:0.475689 4:-0.550722 5:-0.693058 6:-0.750534 7:-1 8:-0.627123 9:-0.670208 10:-0.266667 
1 1:0.261903 2:0.0859725 3:0.460608 4:-0.507038 5:-0.386189 6:-0.750509 7:-1 8:-0.589719 9:-0.740879 10:-0.175 
1 1:0.261953 2:0.357466 3:0.467289 4:-0.637735 5:-0.692958 6:-1 7:-1 8:-0.701622 9:-0.701398 10:-0.358333 
1 1:0.196414 2:-0.104073 3:0.393148 4:-0.651266 5:-0.261435 6:-0.499791 7:-1 8:-0.887743 9:0.0250887 10:-0.34 
1 1:0.197145 2:0.294814 3:0.454674 4:-0.637473 5:-0.385798 6:-0.750406 7:-1 8:-0.701398 9:-0.837579 10:-0.358333 
1 1:0.261759 2:0.221719 3:0.453142 4:-0.593284 5:-0.179988 6:-1 7:-1 8:-0.663564 9:-0.797123 10:-0.541667 
1 1:0.261725 2:0.221719 3:-0.206432 4:-0.637122 5:-0.590163 6:-1 7:-1 8:-0.701097 9:-0.77369 10:-0.541667 
1 1:0.261698 2:0.221719 3:0.341254 4:-0.5933 5:-0.282534 6:-0.750143 7:-1 8:-0.663579 9:-0.859467 10:-0.266667 
1 1:0.19656 2:-0.0497738 3:0.44715 4:-0.506288 5:-0.385365 6:-0.500575 7:-1 8:-0.589079 9:-0.617584 10:-0.175 
1 1:0.327091 2:0.221719 3:0.474502 4:-0.506306 5:-0.487792 6:-0.750229 7:-1 8:-0.589094 9:-0.805944 10:-0.175 
1 1:0.261796 2:0.0859725 3:0.461592 4:-0.33165 5:0.0246305 6:-0.50039 7:-1 8:-0.439555 9:-0.709676 10:0.0083325 
1 1:0.327094 2:0.493212 3:0.475689 4:-0.549816 5:-0.2828 6:-0.750139 7:-1 8:-0.626347 9:-0.795751 10:-0.0833327 
1 1:0.197103 2:0.211277 3:0.444949 4:-0.418951 5:-0.077963 6:-0.75021 7:-1 8:-0.5143 9:-0.708951 10:0.0083325 
1 1:-0.173677 2:-0.0497738 3:0.434662 4:-0.50602 5:-0.487474 6:-0.500262 7:-1 8:-0.588848 9:-0.783854 10:-0.175 
1 1:0.131209 2:-0.0497738 3:0.442857 4:-0.462479 5:-0.180206 6:-0.750121 7:-1 8:-0.551569 9:-0.750142 10:-0.0833327 
1 1:-0.0861851 2:-0.0497738 3:0.457653 4:-0.419303 5:-0.28323 6:-0.500811 7:-1 8:-0.514602 9:-0.752764 10:-0.0833327 
1 1:0.196456 2:0.0859725 3:0.431941 4:-0.375189 5:-0.0777246 6:-0.750259 7:-1 8:-0.47683 9:-0.695937 10:-0.0833327 
1 1:0.327094 2:0.357466 3:0.475689 4:-0.418823 5:-0.385163 6:-1 7:-1 8:-0.51419 9:-0.551889 10:-0.175 
1 1:0.261809 2:0.0859725 3:0.440443 4:-0.680898 5:-0.59034 6:-0.750351 7:-1 8:-0.738579 9:-0.750896 10:-0.358333 
1 1:-0.173466 2:-0.0497738 3:0.412174 4:-0.506278 5:-0.487737 6:-0.500547 7:-1 8:-0.589068 9:-0.786267 10:-0.175 
1 1:0.262239 2:0.273929 3:0.470227 4:-0.724652 5:-0.488067 6:-1 7:-1 8:-0.776041 9:-0.886445 10:-0.541667 
1 1:0.262427 2:0.190393 3:0.482658 4:-0.593768 5:-0.488059 6:-0.750297 7:-1 8:-0.66398 9:-0.842829 10:-0.175 
1 1:0.327094 2:0.493212 3:0.475689 4:-0.593636 5:-0.590319 6:-0.750235 7:-1 8:-0.663866 9:-0.796904 10:-0.175 
1 1:0.262264 2:0.461886 3:0.457006 4:-0.50618 5:-0.282785 6:-0.750161 7:-1 8:-0.588984 9:-0.748552 10:0.0083325 
1 1:-0.0537758 2:-0.0497738 3:0.436789 4:-0.549917 5:-0.487756 6:-0.500557 7:-1 8:-0.626432 9:-0.820637 10:-0.0833327 
1 1:0.262271 2:0.441002 3:0.463545 4:-0.54985 5:-0.487705 6:-0.750182 7:-1 8:-0.626377 9:-0.59394 10:-0.175 
1 1:0.261753 2:0.0859725 3:0.458091 4:-0.549436 5:-0.384742 6:-0.750014 7:-1 8:-0.62602 9:-0.584102 10:-0.0833327 
1 1:0.327062 2:0.357466 3:0.445304 4:-0.462513 5:-0.282716 6:-0.750148 7:-1 8:-0.551598 9:-0.613462 10:0.0083325 
1 1:0.261818 2:0.0859725 3:0.462093 4:-0.549915 5:-0.385372 6:-0.750294 7:-1 8:-0.626432 9:-0.683261 10:-0.175 
1 1:0.327084 2:0.221719 3:0.468315 4:-0.506072 5:-0.385066 6:-0.50033 7:-1 8:-0.588892 9:-0.684161 10:-0.0833327 
1 1:0.261802 2:0.357466 3:0.467636 4:-0.593347 5:-0.590045 6:-1 7:-1 8:-0.663616 9:-0.685806 10:-0.266667 
1 1:0.196403 2:-0.0497738 3:0.116679 4:-0.505989 5:-0.4875 6:-0.750071 7:-1 8:-0.588822 9:-0.832853 10:-0.0833327 
1 1:0.2618 2:0.357466 3:0.450237 4:-0.637146 5:-0.385307 6:-1 7:-1 8:-0.701118 9:-0.736638 10:-0.45 
1 1:0.327094 2:0.493212 3:0.475689 4:-0.506147 5:-0.487723 6:-0.75013 7:-1 8:-0.588958 9:-0.313863 10:-0.175 
1 1:0.261797 2:0.0859725 3:0.462942 4:-0.418806 5:-0.282638 6:-0.75013 7:-1 8:-0.514172 9:-0.540984 10:0.0083325 
1 1:0.327094 2:0.357466 3:0.475689 4:-0.549744 5:-0.487578 6:-0.750148 7:-1 8:-0.626285 9:-0.426163 10:-0.0833327 
1 1:0.262365 2:0.315698 3:0.463982 4:-0.462652 5:-0.385338 6:-0.750176 7:-1 8:-0.551719 9:-0.647615 10:-0.175 
1 1:0.261802 2:0.0859725 3:0.464082 4:-0.637053 5:-0.692553 6:-0.750114 7:-1 8:-0.701038 9:-0.74009 10:-0.175 
1 1:0.261804 2:0.221719 3:0.454583 4:-0.637109 5:-0.69257 6:-1 7:-1 8:-0.701087 9:-0.620332 10:-0.45 
1 1:0.327094 2:0.493212 3:0.475689 4:-0.593346 5:-0.692524 6:-0.750102 7:-1 8:-0.663616 9:-0.676058 10:-0.266667 
1 1:0.327094 2:0.357466 3:0.475689 4:-0.680979 5:-0.590388 6:-0.750371 7:-1 8:-0.738647 9:-0.74229 10:-0.266667 
1 1:0.327094 2:0.357466 3:0.475689 4:-0.505927 5:-0.282399 6:-0.500147 7:-1 8:-0.58877 9:-0.589784 10:-0.0833327 
1 1:0.261842 2:0.0859725 3:0.47023 4:-0.549898 5:-0.487754 6:-0.750189 7:-1 8:-0.626417 9:-0.752025 10:-0.266667 
1 1:0.196881 2:0.200835 3:0.451508 4:-0.593342 5:-0.487578 6:-0.750098 7:-1 8:-0.663612 9:-0.777859 10:-0.0833327 
1 1:0.262084 2:0.305256 3:0.462176 4:-0.680638 5:-0.487496 6:-0.750167 7:-1 8:-0.738355 9:-0.771663 10:-0.266667 
1 1:0.196794 2:0.305256 3:0.450051 4:-0.680555 5:-0.692459 6:-0.750102 7:-1 8:-0.738285 9:-0.151491 10:-0.266667 
1 1:0.261789 2:0.221719 3:0.460048 4:-0.505999 5:-0.385002 6:-0.750055 7:-1 8:-0.588829 9:-0.608507 10:-0.175 
1 1:0.262237 2:0.315698 3:0.467271 4:-0.593519 5:-0.487775 6:-0.750251 7:-1 8:-0.663766 9:-0.829602 10:-0.175 
1 1:0.261811 2:0.357466 3:0.464834 4:-0.680653 5:-0.692551 6:-1 7:-1 8:-0.738369 9:-0.638504 10:-0.358333 
1 1:0.327064 2:0.221719 3:0.457466 4:-0.332113 5:-0.180955 6:-0.500896 7:-1 8:-0.439952 9:-0.577828 10:-0.0833327 
1 1:0.327094 2:0.493212 3:0.475689 4:-0.549728 5:-0.590047 6:-0.750171 7:-1 8:-0.62627 9:-0.640254 10:-0.175 
1 1:0.262568 2:0.179951 3:0.469021 4:-0.594333 5:-0.284051 6:-1 7:-1 8:-0.664461 9:-0.83519 10:-0.266667 
1 1:0.327094 2:0.357466 3:0.475689 4:-0.549944 5:-0.590201 6:-0.75034 7:-1 8:-0.626454 9:-0.646279 10:-0.175 
1 1:0.392283 2:0.357466 3:0.478133 4:-0.375691 5:-0.48786 6:-0.500852 7:-1 8:-0.47726 9:-0.684945 10:-0.175 
1 1:-0.21664 2:-0.0497738 3:0.447853 4:-0.375619 5:-0.385541 6:-0.500576 7:-1 8:-0.477198 9:-0.585641 10:-0.175 
1 1:0.00152485 2:0.0859725 3:0.466535 4:-0.463925 5:-0.28448 6:-0.252608 7:-1 8:-0.552808 9:-0.499008 10:-0.0833327 
1 1:0.262703 2:0.336582 3:0.473461 4:-0.332326 5:-0.0787627 6:-0.251501 7:-1 8:-0.440132 9:-0.853441 10:0.0083325 
1 1:0.26248 2:0.179951 3:0.451647 4:-0.50672 5:-0.181211 6:-1 7:-1 8:-0.589447 9:-0.574348 10:-0.266667 
1 1:0.2625 2:0.179951 3:0.468715 4:-0.550375 5:0.0234363 6:-1 7:-1 8:-0.626825 9:-0.673351 10:-0.266667 
1 1:0.327083 2:0.221719 3:0.468078 4:-0.353808 5:0.228888 6:-0.750346 7:-1 8:-0.458527 9:-0.482218 10:-0.175 
1 1:0.19687 2:0.0442044 3:-0.821339 4:-0.637187 5:-0.180486 6:-1 7:-1 8:-0.701153 9:-0.689956 10:-0.358333 
1 1:0.131639 2:0.0546464 3:-0.848152 4:-0.549915 5:-0.0780235 6:-1 7:-1 8:-0.626432 9:-0.684981 10:-0.266667 
1 1:0.262307 2:0.159067 3:0.442875 4:-0.593758 5:-0.385671 6:-1 7:-1 8:-0.663969 9:-0.72705 10:-0.45 
1 1:0.262358 2:0.179951 3:0.457604 4:-0.506382 5:-0.180674 6:-1 7:-1 8:-0.589157 9:-0.592943 10:-0.266667 
1 1:0.262435 2:0.179951 3:0.471113 4:-0.506462 5:0.126474 6:-1 7:-1 8:-0.589226 9:-0.690655 10:-0.266667 
1 1:0.19731 2:0.179951 3:0.449115 4:-0.550409 5:-0.181344 6:-0.750433 7:-1 8:-0.626855 9:-0.754962 10:-0.266667 
1 1:0.262413 2:0.305256 3:0.438147 4:-0.593995 5:-0.283635 6:-0.750579 7:-1 8:-0.664171 9:-0.795114 10:-0.266667 
1 1:0.261909 2:0.0859725 3:0.464776 4:-0.46335 5:-0.181417 6:-0.75049 7:-1 8:-0.552315 9:-0.683354 10:-0.175 
1 1:0.327094 2:0.357466 3:0.475689 4:-0.680988 5:-0.283293 6:-1 7:-1 8:-0.738655 9:-0.743146 10:-0.358333 
1 1:0.327067 2:0.357466 3:0.462695 4:-0.768351 5:-0.488366 6:-1 7:-1 8:-0.813455 9:-0.857657 10:-0.541667 
1 1:-0.217041 2:-0.0288899 3:0.4154 4:-0.118013 5:0.0405302 6:-0.250426 7:-1 8:-0.19658 9:-0.486482 10:-0.323078 
1 1:0.327094 2:0.347024 3:0.475689 4:-0.827275 5:-0.621768 6:-1 7:-1 8:-0.850565 9:-0.940578 10:-0.661539 
1 1:0.327077 2:0.221719 3:0.465768 4:-0.584165 5:-0.0543343 6:-1 7:-1 8:-0.626403 9:-0.805928 10:-0.407692 
1 1:0.262184 2:0.174208 3:0.462256 4:-0.675417 5:-0.754205 6:-1 7:-1 8:-0.663855 9:-0.800196 10:-0.413333 
1 1:0.197128 2:0.282805 3:0.499462 4:-0.243562 5:-0.179913 6:-1 7:-1 8:-0.208772 9:-0.562179 10:-0.34 
1 1:0.261735 2:0.113122 3:0.439455 4:-0.284773 5:-0.179696 6:-1 7:-1 8:-0.252199 9:-0.603601 10:-0.34 
1 1:0.261798 2:0.221719 3:0.465334 4:-0.391669 5:-0.262345 6:-1 7:-1 8:-0.364849 9:-0.783443 10:-0.486667 
1 1:0.261797 2:0.113122 3:0.461767 4:-0.249725 5:-0.180196 6:-1 7:-1 8:-0.215269 9:-0.490301 10:-0.486667 
1 1:0.261789 2:0.113122 3:0.461507 4:-0.285108 5:-0.262048 6:-1 7:-1 8:-0.252552 9:-0.430085 10:-0.413333 
1 1:0.262516 2:0.174208 3:0.470774 4:-0.243874 5:-0.262165 6:-1 7:-1 8:-0.209103 9:-0.385148 10:-0.413333 
1 1:0.174846 2:0.113122 3:0.471578 4:-0.327039 5:0.228864 6:-0.750472 7:-1 8:-0.296744 9:-0.785989 10:-0.12 
1 1:0.305362 2:0.330316 3:0.506544 4:-0.149176 5:-0.0161695 6:-0.250295 7:-1 8:-0.109311 9:-0.626937 10:0.0999999 
1 1:0.197224 2:0.19457 3:0.467608 4:-0.297093 5:0.229517 6:-1 7:-1 8:-0.265186 9:-0.756439 10:-0.193333 
1 1:0.262424 2:0.276018 3:0.46882 4:-0.279179 5:-0.180037 6:-1 7:-1 8:-0.246305 9:-0.313264 10:-0.413333 
1 1:0.327094 2:0.113122 3:0.475689 4:0.0165115 5:-0.0159094 6:-0.749986 7:-1 8:0.0652821 9:-0.297733 10:-0.193333 
1 1:0.262386 2:0.160633 3:0.467965 4:-0.356091 5:-0.18015 6:-0.750083 7:-1 8:-0.327357 9:-0.448702 10:-0.56 
1 1:0.261792 2:0.113122 3:0.460732 4:-0.403571 5:0.147348 6:-1 7:-1 8:-0.377387 9:-0.766693 10:-0.266667 
1 1:0.197371 2:0.221719 3:0.469281 4:0.0815716 5:0.148031 6:-1 7:-1 8:0.133844 9:-0.686965 10:0.0999999 
1 1:0.261771 2:0.221719 3:0.425611 4:-0.356158 5:-0.262181 6:-1 7:-1 8:-0.327427 9:-0.46523 10:-0.486667 
1 1:0.327025 2:0.330316 3:0.0335981 4:-0.154926 5:-0.0160509 6:-1 7:-1 8:-0.115374 9:-0.652989 10:0.0266673 
1 1:0.261825 2:0.113122 3:0.466129 4:-0.450929 5:0.147168 6:-1 7:-1 8:-0.427292 9:-0.734392 10:-0.266667 
1 1:0.196405 2:0.0045246 3:-0.47434 4:-0.373866 5:-0.18029 6:-1 7:-1 8:-0.346086 9:-0.764626 10:-0.0466675 
1 1:0.26184 2:0.113122 3:0.470036 4:-0.250255 5:0.310752 6:-1 7:-1 8:-0.215828 9:-0.793081 10:-0.193333 
1 1:-0.206361 2:0.0045246 3:0.454566 4:-0.137218 5:0.065981 6:-0.000286167 7:-1 8:-0.0967144 9:-0.722341 10:0.246667 
1 1:-0.228203 2:0.113122 3:0.428757 4:0.0402545 5:-0.0158283 6:-0.00024044 7:-1 8:0.0903028 9:-0.187461 10:-0.193333 
1 1:0.196923 2:0.214932 3:0.320622 4:-0.391401 5:-0.262029 6:-1 7:-1 8:-0.364566 9:-0.700828 10:0.0266673 
1 1:0.261753 2:0.113122 3:0.446824 4:-0.320485 5:-0.0160449 6:-1 7:-1 8:-0.289835 9:-0.739979 10:-0.12 
1 1:0.197297 2:0.19457 3:0.463111 4:-0.161173 5:0.475423 6:-1 7:-1 8:-0.121952 9:-0.727481 10:-0.193333 
1 1:0.197202 2:0.221719 3:0.420226 4:-0.0899272 5:0.147914 6:-1 7:-1 8:-0.0468752 9:-0.610545 10:0.0999999 
1 1:0.197277 2:0.187782 3:0.470998 4:-0.397709 5:0.0653119 6:-1 7:-1 8:-0.37121 9:-0.753249 10:-0.266667 
1 1:0.262496 2:0.187782 3:0.467039 4:-0.267612 5:0.311357 6:-1 7:-1 8:-0.23412 9:-0.682426 10:-0.266667 
1 1:0.262304 2:0.201357 3:0.467344 4:-0.355901 5:-0.0980345 6:-1 7:-1 8:-0.327155 9:-0.71623 10:-0.12 
1 1:0.261792 2:0.221719 3:0.465813 4:-0.350246 5:-0.344248 6:-1 7:-1 8:-0.321198 9:-0.77721 10:0.0266673 
1 1:0.261848 2:0.221719 3:0.474825 4:-0.350318 5:0.147471 6:-1 7:-1 8:-0.321272 9:-0.749012 10:-0.266667 
1 1:0.262284 2:0.180995 3:0.462646 4:-0.60464 5:-0.0989286 6:-1 7:-1 8:-0.589274 9:-0.792089 10:-0.34 
1 1:0.153845 2:0.19457 3:0.470926 4:-0.267835 5:0.392918 6:-1 7:-1 8:-0.234352 9:-0.738602 10:-0.193333 
1 1:0.327056 2:0.330316 3:0.466821 4:-0.675413 5:-0.262552 6:-1 7:-1 8:-0.663851 9:-0.812392 10:-0.34 
1 1:0.262426 2:0.19457 3:0.470389 4:-0.296999 5:0.229663 6:-1 7:-1 8:-0.26509 9:-0.777529 10:-0.193333 
1 1:0.261755 2:0.221719 3:0.252528 4:-0.208184 5:-0.0980224 6:-1 7:-1 8:-0.171493 9:-0.683398 10:0.0266673 
1 1:0.262655 2:0.19457 3:0.468057 4:-0.232541 5:0.392664 6:-1 7:-1 8:-0.197165 9:-0.664145 10:-0.193333 
1 1:0.262288 2:0.180995 3:0.47098 4:-0.53354 5:0.0654051 6:-1 7:-1 8:-0.514348 9:-0.816758 10:-0.34 
1 1:0.327079 2:0.330316 3:0.469408 4:-0.421291 5:0.0654003 6:-1 7:-1 8:-0.396065 9:-0.724857 10:-0.266667 
1 1:0.261842 2:0.113122 3:0.467417 4:-0.356644 5:0.14681 6:-1 7:-1 8:-0.327938 9:-0.800004 10:-0.266667 
1 1:0.262483 2:0.19457 3:0.465049 4:-0.249836 5:0.311454 6:-1 7:-1 8:-0.215383 9:-0.723891 10:-0.193333 
1 1:0.26178 2:0.113122 3:0.463529 4:-0.220265 5:0.393463 6:-1 7:-1 8:-0.184226 9:-0.807772 10:-0.193333 
1 1:0.000617522 2:0.113122 3:0.462798 4:-0.178892 5:-0.0163619 6:-0.000637239 7:-1 8:-0.140626 9:-0.517512 10:0.173332 
1 1:0.26186 2:0.113122 3:0.468513 4:-0.468888 5:-0.0171398 6:-1 7:-1 8:-0.446221 9:-0.817365 10:-0.266667 
1 1:0.131979 2:0.19457 3:0.460385 4:-0.214219 5:0.393668 6:-1 7:-1 8:-0.177854 9:-0.698664 10:-0.193333 
1 1:0.197002 2:0.106335 3:0.463509 4:-0.308488 5:-0.179869 6:-1 7:-1 8:-0.277194 9:-0.768007 10:-0.0466675 
1 1:0.261821 2:0.113122 3:0.470563 4:-0.462613 5:0.229372 6:-1 7:-1 8:-0.439606 9:-0.790598 10:-0.266667 
1 1:0.262365 2:0.187782 3:0.462365 4:-0.40945 5:0.229348 6:-1 7:-1 8:-0.383583 9:-0.767736 10:-0.266667 
1 1:0.19713 2:0.187782 3:0.465732 4:-0.391641 5:0.393426 6:-1 7:-1 8:-0.36482 9:-0.746497 10:-0.266667 
1 1:0.19735 2:0.0927601 3:0.465258 4:-0.214537 5:0.393148 6:-1 7:-1 8:-0.178189 9:-0.76097 10:-0.193333 
1 1:0.196587 2:0.113122 3:0.461986 4:-0.486454 5:0.0650663 6:-1 7:-1 8:-0.46473 9:-0.783419 10:-0.266667 
1 1:0.131285 2:0.0045246 3:0.461206 4:-0.18491 5:0.393293 6:-1 7:-1 8:-0.146969 9:-0.722894 10:-0.193333 
1 1:0.19663 2:0.0045246 3:0.464421 4:-0.27991 5:0.310522 6:-1 7:-1 8:-0.247081 9:-0.771199 10:-0.193333 
1 1:0.26186 2:0.330316 3:0.475579 4:-0.196986 5:0.392858 6:-1 7:-1 8:-0.159694 9:-0.754575 10:-0.193333 
1 1:0.26248 2:0.19457 3:0.47242 4:-0.391898 5:0.0651401 6:-1 7:-1 8:-0.365088 9:-0.833001 10:-0.193333 
1 1:0.262236 2:0.153846 3:0.473408 4:-0.497835 5:-0.262023 6:-1 7:-1 8:-0.476723 9:-0.463223 10:-0.633333 
1 1:0.261778 2:0.113122 3:0.440669 4:-0.249702 5:-0.180133 6:-1 7:-1 8:-0.215247 9:-0.410015 10:-0.486667 
1 1:0.261814 2:0.113122 3:0.45873 4:-0.320887 5:-0.016651 6:-0.000846701 7:-1 8:-0.290258 9:-0.451334 10:0.173332 
1 1:0.196961 2:0.0995473 3:0.459872 4:-0.497889 5:-0.344123 6:-1 7:-1 8:-0.476779 9:-0.79962 10:-0.12 
1 1:0.261851 2:0.113122 3:0.473116 4:-0.267695 5:0.311236 6:-1 7:-1 8:-0.234205 9:-0.73882 10:-0.193333 
1 1:0.32704 2:0.221719 3:0.459894 4:-0.14385 5:0.474734 6:-1 7:-1 8:-0.1037 9:-0.764421 10:-0.12 
1 1:0.262271 2:0.201357 3:0.4688 4:-0.462401 5:-0.426087 6:-1 7:-1 8:-0.439385 9:-0.641303 10:-0.12 
1 1:0.26186 2:0.221719 3:0.465544 4:-0.56923 5:-0.508519 6:-1 7:-1 8:-0.551958 9:-0.698931 10:-0.193333 
1 1:0.262413 2:0.221719 3:0.468232 4:-0.267338 5:-0.0981627 6:-1 7:-1 8:-0.23383 9:-0.691308 10:0.0999999 
1 1:0.262513 2:0.235294 3:0.465031 4:-0.0602889 5:0.0659956 6:-1 7:-1 8:-0.0156481 9:-0.651933 10:0.246667 
1 1:0.261857 2:0.221719 3:0.466189 4:-0.321261 5:0.0648026 6:-1 7:-1 8:-0.290655 9:-0.708337 10:-0.193333 
1 1:0.196517 2:0.0045246 3:0.458258 4:-0.533389 5:-0.508123 6:-0.500259 7:-1 8:-0.51419 9:-0.661228 10:-0.266667 
1 1:0.262389 2:0.19457 3:0.467372 4:-0.338399 5:0.147638 6:-1 7:-1 8:-0.308712 9:-0.786124 10:-0.193333 
1 1:0.327094 2:0.113122 3:0.475689 4:-0.308973 5:-0.180434 6:-1 7:-1 8:-0.277705 9:-0.692583 10:0.0999999 
1 1:0.261874 2:0.221719 3:0.480623 4:-0.445073 5:0.0651668 6:-1 7:-1 8:-0.421123 9:-0.811325 10:-0.193333 
1 1:0.262469 2:0.187782 3:0.466891 4:-0.43935 5:-0.0171048 6:-1 7:-1 8:-0.415096 9:-0.833205 10:-0.266667 
1 1:0.262185 2:0.19457 3:0.374518 4:-0.462317 5:-0.18001 6:-1 7:-1 8:-0.439297 9:-0.583331 10:-0.193333 
1 1:0.196904 2:0.0927601 3:0.460586 4:-0.533283 5:-0.344066 6:-1 7:-1 8:-0.51408 9:-0.775534 10:-0.193333 
1 1:0.261804 2:0.113122 3:0.463321 4:-0.391797 5:0.147264 6:-1 7:-1 8:-0.364982 9:-0.791194 10:-0.266667 
1 1:0.261748 2:0.113122 3:0.425429 4:-0.497816 5:-0.344059 6:-1 7:-1 8:-0.476705 9:-0.760152 10:-0.0466675 
1 1:0.262262 2:0.0859725 3:0.46445 4:-0.497955 5:-0.34424 6:-1 7:-1 8:-0.476848 9:-0.67937 10:-0.266667 
1 1:0.262309 2:0.19457 3:0.467461 4:-0.498059 5:-0.508262 6:-1 7:-1 8:-0.476959 9:-0.705834 10:-0.193333 
1 1:0.197144 2:0.187782 3:0.466844 4:-0.569215 5:-0.0170273 6:-1 7:-1 8:-0.551944 9:-0.846111 10:-0.266667 
1 1:0.197216 2:0.19457 3:0.462553 4:-0.303078 5:0.229384 6:-1 7:-1 8:-0.271491 9:-0.755253 10:-0.193333 
1 1:0.262266 2:0.19457 3:0.469258 4:-0.533463 5:-0.426268 6:-1 7:-1 8:-0.514267 9:-0.736883 10:-0.193333 
1 1:0.26191 2:0.113122 3:0.472328 4:-0.415909 5:0.146382 6:-1 7:-1 8:-0.390392 9:-0.811178 10:-0.266667 
1 1:0.261833 2:0.113122 3:0.468968 4:-0.569008 5:-0.672244 6:-1 7:-1 8:-0.551723 9:-0.775282 10:-0.193333 
1 1:0.197108 2:0.0995473 3:0.465676 4:-0.385673 5:-0.262245 6:-1 7:-1 8:-0.358529 9:-0.7794 10:-0.12 
1 1:0.196885 2:0.180995 3:0.420676 4:-0.568855 5:-0.426155 6:-1 7:-1 8:-0.551565 9:-0.698964 10:-0.34 
1 1:0.261853 2:0.221719 3:0.465777 4:-0.421581 5:-0.426603 6:-1 7:-1 8:-0.396367 9:-0.659874 10:-0.193333 
1 1:0.262406 2:0.180995 3:0.470106 4:-0.569351 5:-0.0173165 6:-1 7:-1 8:-0.552087 9:-0.807647 10:-0.34 
1 1:0.0658532 2:0.221719 3:0.41319 4:-0.620081 5:-0.566001 6:-1 7:-1 8:-0.551569 9:-0.706715 10:-0.870588 
1 1:0.261856 2:0.125898 3:0.476706 4:-0.588819 5:-0.494016 6:-1 7:-1 8:-0.51451 9:-0.802332 10:-0.741177 
1 1:0.261759 2:0.221719 3:0.462051 4:-0.36768 5:-0.204075 6:-1 7:-1 8:-0.252346 9:-0.696538 10:-0.482353 
1 1:0.196898 2:0.173809 3:0.462844 4:-0.588536 5:-0.493632 6:-1 7:-1 8:-0.514172 9:-0.821858 10:-0.482353 
1 1:0.196739 2:0.232366 3:0.305769 4:-0.746192 5:-0.855354 6:-1 7:-1 8:-0.701075 9:-0.824757 10:-0.870588 
1 1:0.261784 2:0.221719 3:0.468829 4:-0.399379 5:-0.348907 6:-0.750067 7:-1 8:-0.289927 9:-0.785583 10:-0.158823 
1 1:0.196649 2:0.221719 3:0.457277 4:-0.500946 5:-0.649098 6:-1 7:-1 8:-0.514837 9:-0.832096 10:-0.214285 
1 1:0.262268 2:0.195102 3:0.471571 4:-0.430826 5:-0.493526 6:-1 7:-1 8:-0.32721 9:-0.776667 10:-0.22353 
1 1:0.261884 2:0.221719 3:0.444098 4:-0.778065 5:-0.855573 6:-1 7:-1 8:-0.738861 9:-0.736173 10:-0.935294 
1 1:0.262825 2:0.205749 3:0.470949 4:-0.400864 5:-0.350531 6:-0.750933 7:-1 8:-0.291688 9:-0.794423 10:-0.0941171 
1 1:0.261813 2:0.221719 3:0.460027 4:-0.588725 5:-0.421539 6:-1 7:-1 8:-0.514396 9:-0.77064 10:-0.805882 
1 1:0.327083 2:0.221719 3:0.473979 4:-0.13173 5:0.0402059 6:-0.50062 7:-1 8:-0.209232 9:-0.662089 10:0.26923 
1 1:0.326774 2:0.197764 3:0.475689 4:-0.651753 5:-0.493847 6:-1 7:-1 8:-0.589116 9:-0.644212 10:-0.741177 
1 1:0.261841 2:0.221719 3:0.460711 4:-0.557301 5:-0.349354 6:-0.750335 7:-1 8:-0.477143 9:-0.580874 10:-0.741177 
1 1:0.196992 2:0.157839 3:0.424055 4:-0.620335 5:-0.493964 6:-1 7:-1 8:-0.55187 9:-0.644798 10:-0.67647 
1 1:0.196759 2:0.189779 3:-0.397989 4:-0.588463 5:-0.493563 6:-1 7:-1 8:-0.514087 9:-0.835873 10:-0.288236 
1 1:0.197107 2:0.104605 3:0.462622 4:-0.55739 5:-0.638623 6:-1 7:-1 8:-0.477249 9:-0.899134 10:-0.22353 
1 1:0.261945 2:0.125898 3:0.474326 4:-0.111861 5:0.0833762 6:-1 7:-1 8:0.0509278 9:-0.826451 10:0.0999999 
1 1:-0.0760966 2:-0.185521 3:0.448685 4:-0.146206 5:0.231151 6:0.000641664 7:-1 8:-0.513565 9:-0.464721 10:0.65 
1 1:0.262157 2:0.244344 3:0.469835 4:-0.398798 5:-0.230669 6:-1 7:-1 8:-0.663288 9:-0.67275 10:0.2375 
1 1:0.262002 2:0.38009 3:0.433913 4:-0.524921 5:-0.384416 6:-1 7:-1 8:-0.738051 9:-0.817599 10:-0.0375001 
1 1:0.262108 2:0.221719 3:0.454462 4:-0.398748 5:-0.384442 6:-0.749949 7:-1 8:-0.663263 9:-0.662729 10:0.0999999 
1 1:0.131416 2:0.221719 3:0.384539 4:-0.461899 5:-0.384529 6:-1 7:-1 8:-0.700693 9:-0.791478 10:0.0999999 
1 1:0.000296231 2:-0.185521 3:0.426319 4:-0.272697 5:0.076868 6:-0.249786 7:-1 8:-0.588542 9:-0.402511 10:0.375 
1 1:0.261717 2:0.221719 3:0.464222 4:-0.588047 5:-0.538315 6:-1 7:-1 8:-0.775469 9:-0.847922 10:-0.175 
1 1:0.261752 2:0.221719 3:0.467343 4:-0.398843 5:-0.230725 6:-1 7:-1 8:-0.663318 9:-0.592567 10:0.2375 
1 1:-0.173996 2:-0.185521 3:0.417162 4:-0.146485 5:0.230727 6:0.000451377 7:-1 8:-0.51373 9:-0.458363 10:0.5125 
1 1:0.261737 2:0.221719 3:0.456579 4:-0.398859 5:-0.230748 6:-1 7:-1 8:-0.663329 9:-0.618671 10:0.2375 
1 1:0.197008 2:0.221719 3:0.443695 4:-0.462306 5:-0.231273 6:-1 7:-1 8:-0.700934 9:-0.632958 10:0.0999999 
1 1:0.261777 2:0.0180994 3:0.45762 4:-0.462206 5:-0.384903 6:-0.750034 7:-1 8:-0.700877 9:-0.580452 10:-0.0375001 
1 1:0.261762 2:0.221719 3:0.453529 4:-0.525225 5:-0.384849 6:-1 7:-1 8:-0.738231 9:-0.664893 10:-0.0375001 
1 1:0.262359 2:0.221719 3:0.471403 4:-0.462435 5:-0.38512 6:-1 7:-1 8:-0.701013 9:-0.672375 10:0.0999999 
1 1:0.131711 2:0.244344 3:0.342036 4:-0.399334 5:-0.231366 6:-1 7:-1 8:-0.663608 9:-0.735289 10:0.2375 
1 1:0.262271 2:0.244344 3:0.454198 4:-0.399183 5:-0.231125 6:-1 7:-1 8:-0.66352 9:-0.620105 10:0.2375 
1 1:0.196986 2:0.221719 3:0.344369 4:-0.462468 5:-0.385167 6:-1 7:-1 8:-0.701031 9:-0.71137 10:0.0999999 
1 1:0.392397 2:0.221719 3:0.491786 4:-0.462379 5:-0.385084 6:-0.750154 7:-1 8:-0.700977 9:-0.698566 10:-0.0375001 
1 1:0.196853 2:0.221719 3:0.435781 4:-0.462033 5:-0.384634 6:-1 7:-1 8:-0.700772 9:-0.570558 10:0.0999999 
1 1:0.262193 2:0.402715 3:0.46255 4:-0.462139 5:-0.384813 6:-1 7:-1 8:-0.700835 9:-0.701563 10:0.0999999 
1 1:0.196786 2:0.244344 3:0.0260874 4:-0.398854 5:-0.230726 6:-1 7:-1 8:-0.663325 9:-0.327258 10:0.2375 
1 1:0.262173 2:0.221719 3:0.449145 4:-0.462105 5:-0.384702 6:-1 7:-1 8:-0.700816 9:-0.504534 10:0.0999999 
1 1:0.262336 2:0.244344 3:0.443423 4:-0.399418 5:-0.231361 6:-1 7:-1 8:-0.66366 9:-0.643192 10:0.2375 
1 1:0.19716 2:0.199095 3:0.417865 4:-0.525852 5:-0.539196 6:-1 7:-1 8:-0.738603 9:-0.77649 10:-0.0375001 
1 1:0.262264 2:0.199095 3:0.455224 4:-0.525502 5:-0.385148 6:-1 7:-1 8:-0.738395 9:-0.638263 10:-0.0375001 
1 1:0.262124 2:0.425339 3:0.362994 4:-0.398865 5:-0.230733 6:-1 7:-1 8:-0.663329 9:-0.524351 10:0.2375 
1 1:0.262264 2:0.221719 3:0.455532 4:-0.462334 5:-0.384957 6:-1 7:-1 8:-0.700953 9:-0.603195 10:0.0999999 
1 1:0.30532 2:0.369806 3:0.483138 4:-0.368596 5:-0.10662 6:-0.500995 7:-1 8:-0.514738 9:-0.768554 10:-0.0999999 
1 1:0.39238 2:0.357466 3:0.486736 4:-0.593467 5:-0.38532 6:-0.750219 7:-1 8:-0.663718 9:-0.796659 10:-0.266667 
1 1:0.261845 2:0.140271 3:0.461386 4:-0.544085 5:-0.570106 6:-1 7:-1 8:-0.365496 9:-0.774327 10:-0.56 
1 1:0.261779 2:0.221719 3:0.464876 4:-0.771894 5:-0.648597 6:-1 7:-1 8:-0.66359 9:-0.837086 10:-0.842857 
1 1:0.261867 2:0.221719 3:0.464038 4:-0.709573 5:-0.665029 6:-1 7:-1 8:-0.552194 9:-0.814712 10:-0.699999 
1 1:0.327419 2:0.250693 3:0.379299 4:-0.660374 5:-0.66515 6:-0.750562 7:-1 8:-0.477668 9:-0.838295 10:-0.550001 
1 1:0.261899 2:0.221719 3:0.462578 4:-0.758901 5:-0.609316 6:-1 7:-1 8:-0.626917 9:-0.751219 10:-0.85 
1 1:0.261904 2:0.221719 3:0.457953 4:-0.709749 5:-0.721092 6:-1 7:-1 8:-0.552462 9:-0.730481 10:-0.699999 
1 1:0.131748 2:0.221719 3:0.444015 4:-0.736638 5:-0.717266 6:-0.751179 7:-1 8:-0.515951 9:-0.871445 10:-0.661539 
1 1:0.1969 2:0.221719 3:0.468733 4:-0.757406 5:-0.764186 6:-1 7:-1 8:-0.552881 9:-0.895522 10:-0.703847 
1 1:0.261928 2:0.221719 3:0.453312 4:-0.715318 5:-0.575273 6:-1 7:-1 8:-0.478036 9:-0.586327 10:-0.788462 
1 1:0.327072 2:0.284372 3:0.473989 4:-0.799534 5:-0.85864 6:-1 7:-1 8:-0.627792 9:-0.905943 10:-0.746153 
1 1:0.131838 2:0.0964148 3:0.456501 4:-0.715584 5:-0.811383 6:-1 7:-1 8:-0.47851 9:-0.809933 10:-0.619231 
1 1:0.17518 2:0.140271 3:0.42423 4:-0.37525 5:-0.387874 6:-1 7:-1 8:-0.131982 9:-0.918998 10:-0.12 
1 1:0.131883 2:0.140271 3:0.216742 4:-0.491831 5:-0.326667 6:-1 7:-1 8:-0.293225 9:-0.870849 10:-0.23 
1 1:0.262059 2:0.140271 3:0.473087 4:-0.0875936 5:-0.142295 6:-0.751236 7:-1 8:0.265874 9:-0.798473 10:0.0999999 
1 1:0.132627 2:0.264382 3:0.434978 4:-0.626093 5:-0.571294 6:-1 7:-1 8:-0.478922 9:-0.859379 10:-0.395 
1 1:0.261875 2:0.221719 3:0.471932 4:-0.232178 5:-0.149516 6:-1 7:-1 8:0.381109 9:-0.720897 10:-0.492308 
1 1:0.261855 2:0.159067 3:0.459339 4:-0.35829 5:-0.669333 6:-1 7:-1 8:0.156849 9:-0.686811 10:-0.45 
1 1:0.196592 2:0.0964148 3:-0.621719 4:-0.820074 5:-0.858343 6:-1 7:-1 8:-0.664321 9:-0.857803 10:-0.703847 
1 1:0.261932 2:0.159067 3:0.470177 4:-0.799129 5:-0.763966 6:-1 7:-1 8:-0.627075 9:-0.883426 10:-0.746153 
1 1:0.261901 2:0.159067 3:0.467474 4:-0.715095 5:-0.6694 6:-1 7:-1 8:-0.477643 9:-0.753043 10:-0.788462 
1 1:0.132073 2:0.179951 3:0.429436 4:-0.757402 5:-0.90564 6:-1 7:-1 8:-0.552874 9:-0.880767 10:-0.661539 
1 1:0.196773 2:0.221719 3:0.451491 4:-0.79914 5:-0.811171 6:-1 7:-1 8:-0.627097 9:-0.751241 10:-0.746153 
1 1:0.262177 2:0.168349 3:0.444293 4:-0.778062 5:-0.622214 6:-1 7:-1 8:-0.589612 9:-0.731139 10:-0.873077 
1 1:0.261966 2:0.159067 3:0.468666 4:-0.820196 5:-0.858434 6:-1 7:-1 8:-0.664538 9:-0.85886 10:-0.788462 
1 1:0.26195 2:0.221719 3:0.46527 4:-0.505674 5:-0.480857 6:-1 7:-1 8:-0.105237 9:-0.518535 10:-0.576922 
1 1:0.132164 2:0.179951 3:0.418169 4:-0.71543 5:-0.716919 6:-1 7:-1 8:-0.478238 9:-0.676561 10:-0.661539 
1 1:0.261784 2:0.0407236 3:0.466199 4:-0.632665 5:-0.86337 6:-0.500299 7:-1 8:-0.775757 9:-0.925669 10:-0.388888 
1 1:0.142132 2:-0.0109893 3:0.443399 4:-0.250071 5:-1 6:-0.00126563 7:1 8:-0.626487 9:-0.670691 10:-0.214285 
1 1:0.17471 2:-0.0109893 3:0.416721 4:-0.462496 5:-1 6:-0.500313 7:1 8:-0.738414 9:-0.548407 10:-0.214285 
1 1:0.261813 2:0.0407236 3:0.470457 4:-0.575972 5:-0.726788 6:-0.50028 7:-1 8:-0.738418 9:-0.902718 10:-0.388888 
1 1:0.251342 2:0.18552 3:0.457124 4:-0.519256 5:-0.726822 6:-0.750232 7:-1 8:-0.701065 9:-0.903911 10:-0.144444 
1 1:0.327094 2:0.0407236 3:0.475689 4:-0.519687 5:-0.453936 6:-0.750636 7:-1 8:-0.701348 9:-0.81523 10:-0.0222233 
1 1:0.186339 2:0.236528 3:0.470808 4:-0.359446 5:-0.262292 6:-1 7:-1 8:-0.551657 9:-0.770142 10:0.21 
1 1:0.197093 2:0.0588233 3:0.426419 4:-0.359245 5:-0.262078 6:-0.750115 7:-1 8:-0.551513 9:-0.814882 10:-0.0100001 
1 1:0.261746 2:0.0588233 3:0.368582 4:-0.359346 5:-0.262223 6:-0.500346 7:-1 8:-0.551587 9:-0.744474 10:0.21 
1 1:0.196861 2:-0.000411475 3:0.418294 4:-0.668911 5:-0.63124 6:-0.750338 7:-1 8:-0.775858 9:-0.868539 10:-0.45 
1 1:0.131282 2:0.0588233 3:0.46158 4:-0.256519 5:-0.0168313 6:-0.0011904 7:-1 8:-0.477091 9:-0.618173 10:0.43 
1 1:0.000689491 2:-0.104073 3:0.422267 4:-0.308047 5:-0.139583 6:-0.250888 7:-1 8:-0.514422 9:-0.650871 10:0.32 
1 1:-0.00985079 2:0.0588233 3:0.465068 4:-0.102505 5:0.228078 6:-0.00188074 7:-1 8:-0.365511 9:-0.351198 10:0.65 
1 1:0.131212 2:0.0588233 3:0.463111 4:-0.617255 5:-0.508186 6:-0.500393 7:-1 8:-0.738434 9:-0.829672 10:-0.34 
1 1:0.196393 2:-0.104073 3:0.421 4:-0.565413 5:-0.5079 6:-0.500055 7:-1 8:-0.700876 9:-0.833475 10:-0.23 
1 1:0.261801 2:0.0588233 3:0.457788 4:-0.359474 5:-0.139529 6:-0.500449 7:-1 8:-0.551679 9:-0.716926 10:0.0999999 
1 1:0.196466 2:-0.104073 3:0.457975 4:-0.513928 5:-0.262075 6:-0.250326 7:-1 8:-0.663575 9:-0.85976 10:-0.0100001 
1 1:0.0657966 2:-0.104073 3:0.450655 4:-0.41065 5:-0.261958 6:-0.250218 7:-1 8:-0.588756 9:-0.698823 10:0.0999999 
1 1:0.262269 2:0.32538 3:0.45749 4:-0.56577 5:-0.631238 6:-0.75017 7:-1 8:-0.701135 9:-0.663382 10:-0.23 
1 1:0.261791 2:0.0588233 3:0.474696 4:-0.513795 5:-0.507907 6:-0.750034 7:-1 8:-0.663479 9:-0.798142 10:-0.12 
1 1:0.0333796 2:0.0588233 3:0.468402 4:-0.153335 5:0.10627 6:-0.00121105 7:-1 8:-0.402334 9:-0.627628 10:0.43 
1 1:0.196485 2:-0.104073 3:0.443437 4:-0.462418 5:-0.262196 6:-0.500367 7:-1 8:-0.626259 9:-0.697959 10:-0.0100001 
1 1:0.261782 2:0.0859725 3:0.469761 4:-0.345903 5:0.332507 6:-1 7:-1 8:-0.451754 9:-0.787104 10:-0.266667 
1 1:0.261755 2:0.221719 3:0.455483 4:-0.680594 5:-0.589956 6:-1 7:-1 8:-0.738318 9:-0.878561 10:-0.45 
1 1:0.261725 2:0.221719 3:0.462628 4:-0.502619 5:-0.337344 6:-1 7:-1 8:-0.551212 9:-0.898505 10:-0.492308 
1 1:0.326712 2:0.168017 3:0.475689 4:-0.689994 5:-0.473894 6:-1 7:-1 8:-0.7016 9:-0.779789 10:-0.528571 
1 1:0.131532 2:-0.0109893 3:0.420002 4:-0.230509 5:-0.0352851 6:-1 7:-1 8:-0.247662 9:-0.147052 10:-0.292856 
1 1:0.261847 2:0.221719 3:0.469102 4:-0.689575 5:-0.561016 6:-1 7:-1 8:-0.701186 9:-0.562768 10:-0.685715 
1 1:0.326731 2:0.194868 3:0.475689 4:-0.651938 5:-0.473449 6:-1 7:-1 8:-0.664005 9:-0.593588 10:-0.764285 
1 1:0.262357 2:0.213962 3:0.467718 4:-0.348917 5:-0.0337316 6:-1 7:-1 8:-0.364647 9:-0.635096 10:0.0214291 
1 1:0.19656 2:0.105365 3:0.470542 4:-0.349207 5:-0.121886 6:-1 7:-1 8:-0.364934 9:-0.518998 10:-0.371429 
1 1:0.197211 2:0.0898511 3:0.457521 4:-0.424958 5:-0.209915 6:-1 7:-1 8:-0.439764 9:-0.687769 10:-0.135715 
1 1:0.261795 2:0.105365 3:0.421759 4:-0.387147 5:-0.122085 6:-0.500576 7:-1 8:-0.402411 9:-0.648779 10:-0.0571439 
1 1:0.196691 2:0.105365 3:0.453243 4:-0.570253 5:-0.210512 6:-0.750543 7:-1 8:-0.583307 9:-0.732855 10:-0.292856 
1 1:0.261789 2:0.105365 3:0.415291 4:-0.418689 5:-0.297747 6:-1 7:-1 8:-0.433572 9:-0.786761 10:-0.0571439 
1 1:0.32679 2:0.176967 3:0.475689 4:-0.727579 5:-0.736752 6:-1 7:-1 8:-0.738732 9:-0.780078 10:-0.607144 
1 1:0.326757 2:0.185918 3:0.475689 4:-0.689773 5:-0.473584 6:-1 7:-1 8:-0.701382 9:-0.735626 10:-0.685715 
1 1:0.326807 2:0.159067 3:0.475689 4:-0.689542 5:-0.473167 6:-1 7:-1 8:-0.701154 9:-0.654811 10:-0.45 
1 1:0.261855 2:0.105365 3:0.457727 4:-0.576347 5:-0.473478 6:-1 7:-1 8:-0.589326 9:-0.581067 10:-0.214285 
1 1:0.326769 2:0.150117 3:0.475689 4:-0.65176 5:-0.385409 6:-1 7:-1 8:-0.663829 9:-0.826285 10:-0.371429 
1 1:0.26191 2:0.105365 3:0.471209 4:-0.576581 5:-0.210594 6:-0.750582 7:-1 8:-0.589557 9:-0.852547 10:-0.292856 
1 1:0.326754 2:0.168017 3:0.475689 4:-0.651837 5:-0.473337 6:-1 7:-1 8:-0.663906 9:-0.807989 10:-0.528571 
1 1:0.196596 2:-0.0109893 3:0.453734 4:-0.299142 5:-0.0346354 6:-1 7:-1 8:-0.31547 9:-0.650442 10:0.0214291 
1 1:0.261858 2:0.105365 3:0.46869 4:-0.42512 5:-0.297911 6:-0.750323 7:-1 8:-0.439926 9:-0.708725 10:-0.214285 
1 1:0.326761 2:0.185918 3:0.475689 4:-0.689772 5:-0.649036 6:-1 7:-1 8:-0.701381 9:-0.927452 10:-0.685715 
1 1:0.32681 2:0.176967 3:0.475689 4:-0.727491 5:-0.648919 6:-1 7:-1 8:-0.738644 9:-0.901902 10:-0.607144 
1 1:0.326778 2:0.159067 3:0.475689 4:-0.651726 5:-0.385367 6:-1 7:-1 8:-0.663796 9:-0.782946 10:-0.45 
1 1:0.196963 2:0.29638 3:0.470988 4:-0.568844 5:-0.508133 6:-1 7:-1 8:-0.55155 9:-0.7644 10:-0.193333 
1 1:0.326691 2:0.208145 3:0.475689 4:-0.730293 5:-0.540081 6:-1 7:-1 8:-0.701955 9:-0.641303 10:-0.8625 
1 1:0.196803 2:0.221719 3:0.353601 4:-0.564207 5:-0.310647 6:-1 7:-1 8:-0.515999 9:-0.704749 10:-0.79375 
1 1:0.326605 2:0.19457 3:0.475689 4:-0.630211 5:-0.463069 6:-1 7:-1 8:-0.589899 9:-0.740614 10:-0.725 
1 1:0.261746 2:0.323529 3:0.275263 4:-0.629841 5:-0.462602 6:-1 7:-1 8:-0.589484 9:-0.657463 10:-0.725 
1 1:0.326575 2:0.19457 3:0.475689 4:-0.596856 5:-0.386375 6:-1 7:-1 8:-0.552554 9:-0.695204 10:-0.725 
1 1:0.326742 2:0.201357 3:0.475689 4:-0.663065 5:-0.539258 6:-1 7:-1 8:-0.626682 9:-0.657636 10:-0.79375 
1 1:0.197477 2:0.183615 3:0.460034 4:-0.124523 5:-0.180548 6:-1 7:-1 8:0.0955422 9:-0.635865 10:-0.388888 
1 1:0.196605 2:0.131221 3:0.447383 4:-0.547768 5:-0.658899 6:-1 7:-1 8:-0.434091 9:-0.873451 10:-0.511112 
1 1:0.262317 2:0.250297 3:0.470169 4:-0.582241 5:-0.453829 6:-1 7:-1 8:-0.477231 9:-0.802493 10:-0.633333 
1 1:0.0441936 2:-0.0497738 3:0.51587 4:-0.492339 5:-0.521747 6:-0.250452 7:1 8:-0.364728 9:-0.790983 10:-0.388888 
1 1:0.13131 2:0.0407236 3:0.456168 4:-0.318598 5:-0.317272 6:-1 7:-1 8:-0.147318 9:-0.74539 10:-0.266667 
1 1:0.261601 2:0.0992811 3:0.472906 4:-0.791118 5:-0.726948 6:-0.500684 7:-1 8:-0.738611 9:-0.963927 10:-0.694444 
1 1:0.0665433 2:0.178852 3:0.39449 4:-0.701732 5:-1 6:-1 7:-1 8:-0.626756 9:-0.888503 10:-0.45 
1 1:0.261817 2:0.221719 3:0.472975 4:-0.671543 5:-0.590125 6:-1 7:-1 8:-0.58898 9:-0.900989 10:-0.572223 
1 1:0.326772 2:0.195102 3:0.475689 4:-0.641774 5:-0.590157 6:-1 7:-1 8:-0.551727 9:0.728589 10:-0.694444 
0.3102451658572041 1:0.196587 2:0.0407236 3:0.469049 4:-0.79108 5:-0.726883 6:-0.50062 7:1 8:-0.738564 9:-0.934157 10:-0.755556 
1 1:0.326771 2:0.189779 3:0.475689 4:-0.671748 5:-0.59037 6:-1 7:-1 8:-0.589237 9:-0.861584 10:-0.633333 
1 1:0.327085 2:0.140271 3:0.468586 4:-0.732637 5:-0.631056 6:-1 7:-1 8:-0.626281 9:-0.795823 10:-0.78 
1 1:0.261685 2:0.221719 3:0.288139 4:-0.759572 5:-0.630951 6:-1 7:-1 8:-0.663535 9:-0.852979 10:-0.89 
1 1:0.196505 2:0.0736322 3:0.46852 4:-0.585736 5:-0.888206 6:-1 7:-1 8:-0.364607 9:-0.709034 10:-0.6 
1 1:0.065884 2:0.221719 3:0.453383 4:-0.437754 5:-0.329171 6:-1 7:-1 8:-0.140443 9:-0.573197 10:-0.499999 
1 1:0.261812 2:0.147676 3:0.470523 4:-0.388515 5:-0.273383 6:-1 7:-1 8:-0.0658549 9:-0.485939 10:-0.550001 
1 1:0.196513 2:0.221719 3:0.464099 4:-0.462513 5:-0.55282 6:-1 7:-1 8:-0.17795 9:-0.693128 10:-0.45 
1 1:0.261788 2:0.221719 3:0.467431 4:-0.807796 5:-0.832299 6:-1 7:-1 8:-0.700985 9:-0.853371 10:-0.750001 
1 1:0.26181 2:0.147676 3:0.469255 4:-0.610533 5:-0.608776 6:-1 7:-1 8:-0.402169 9:-0.740157 10:-0.699999 
1 1:0.19648 2:0.221719 3:0.450846 4:-0.388448 5:-0.273318 6:-1 7:-1 8:-0.0657483 9:-0.533842 10:-0.550001 
1 1:0.066274 2:0.102606 3:0.401778 4:-0.585827 5:-0.496919 6:-1 7:-1 8:-0.364743 9:-0.690979 10:-0.65 
1 1:0.261782 2:0.221719 3:0.451961 4:-0.388593 5:-0.329399 6:-1 7:-1 8:-0.0659763 9:-0.435338 10:-0.45 
1 1:0.262203 2:0.250693 3:0.461851 4:-0.487052 5:-0.385053 6:-1 7:-1 8:-0.215119 9:-0.688445 10:-0.550001 
1 1:0.261785 2:0.221719 3:0.464052 4:-0.536402 5:-0.440936 6:-1 7:-1 8:-0.289872 9:-0.536047 10:-0.65 
1 1:0.261797 2:0.147676 3:0.463404 4:-0.610505 5:-0.552839 6:-1 7:-1 8:-0.402128 9:-0.640057 10:-0.65 
1 1:0.261786 2:0.221719 3:0.447214 4:-0.684511 5:-0.55287 6:-1 7:-1 8:-0.514231 9:-0.621493 10:-0.750001 
1 1:0.0658152 2:0.147676 3:0.435318 4:-0.437575 5:-0.273075 6:-1 7:-1 8:-0.140171 9:-0.398648 10:-0.6 
1 1:0.261778 2:0.147676 3:0.457348 4:-0.561179 5:-0.77646 6:-1 7:-1 8:-0.327408 9:-0.764428 10:-0.45 
1 1:0.2618 2:0.147676 3:0.456917 4:-0.659889 5:-0.608779 6:-1 7:-1 8:-0.476933 9:-0.617016 10:-0.699999 
1 1:0.261827 2:0.221719 3:0.469408 4:-0.684584 5:-0.776494 6:-1 7:-1 8:-0.514341 9:-0.743259 10:-0.6 
1 1:0.0665324 2:0.109044 3:0.388118 4:-0.536882 5:-0.44154 6:-1 7:-1 8:-0.2906 9:-0.795295 10:-0.550001 
1 1:0.261936 2:0.125898 3:0.470331 4:-0.463512 5:-0.494531 6:-1 7:-1 8:-0.365956 9:-0.782655 10:-0.158823 
1 1:0.262048 2:0.295763 3:0.481499 4:-0.389977 5:-0.553955 6:-1 7:-1 8:-0.0680647 9:-0.601216 10:-0.45 
1 1:0.197452 2:0.121921 3:0.47192 4:-0.16694 5:-0.106186 6:-1 7:-1 8:0.269797 9:-0.739021 10:-0.349999 
1 1:0.197517 2:0.121921 3:0.469627 4:-0.265881 5:-0.329742 6:-1 7:-1 8:0.119916 9:-0.664675 10:-0.349999 
1 1:0.131462 2:0.0736322 3:0.464212 4:-0.216536 5:-0.162276 6:-0.750632 7:-1 8:0.194658 9:-0.605752 10:-0.400001 
1 1:-0.0966971 2:0.147676 3:0.464389 4:-0.0115636 5:-0.274245 6:-0.750407 7:-1 8:0.505157 9:-0.660948 10:-0.25 
1 1:-0.0306107 2:0.131579 3:0.452681 4:-0.323706 5:-0.385994 6:-1 7:-1 8:0.0323195 9:-0.733786 10:-0.200001 
1 1:0.131461 2:-0.000411475 3:0.45271 4:-0.455032 5:-0.497611 6:-1 7:-1 8:-0.16661 9:-0.727209 10:-0.25 
1 1:0.0117419 2:0.221719 3:0.469673 4:-0.232832 5:-0.836252 6:-0.500806 7:1 8:-0.19747 9:-0.877714 10:-0.266667 
1 1:0.196601 2:0.0736322 3:0.463329 4:-0.257546 5:-0.218122 6:-1 7:-1 8:0.132542 9:-0.747555 10:-0.200001 
1 1:0.261877 2:0.147676 3:0.468369 4:-0.660275 5:-0.497575 6:-1 7:-1 8:-0.477518 9:-0.814035 10:-0.499999 
1 1:0.174975 2:0.125898 3:0.459633 4:-0.489844 5:-0.927813 6:-1 7:-1 8:-0.397172 9:-0.870952 10:-0.417647 
1 1:0.0226652 2:0.0045246 3:0.454342 4:-0.592988 5:-0.836202 6:-0.500796 7:-1 8:-0.576994 9:-0.878127 10:-0.486667 
1 1:0.261885 2:0.147676 3:0.470155 4:-0.372833 5:-0.441723 6:-1 7:-1 8:-0.0420954 9:-0.735888 10:-0.200001 
1 1:0.196549 2:0.147676 3:0.459413 4:-0.610687 5:-0.608932 6:-1 7:-1 8:-0.4024 9:-0.819516 10:-0.499999 
1 1:0.163996 2:0.113122 3:0.472723 4:-0.46881 5:-0.836155 6:-0.50066 7:-1 8:-0.446136 9:-0.857324 10:-0.413333 
1 1:-0.0744522 2:0.221719 3:0.436959 4:-0.173304 5:-0.610028 6:-1 7:-1 8:0.260153 9:-0.753763 10:-0.25 
1 1:0.131386 2:-0.104073 3:0.454631 4:-0.214895 5:-0.0170987 6:-1 7:-1 8:-0.178567 9:-0.637361 10:0.173332 
1 1:0.196678 2:0.113122 3:0.462912 4:-0.13264 5:0.0643234 6:-0.75057 7:-1 8:-0.0918904 9:-0.696515 10:0.173332 
1 1:-0.0642396 2:-0.212669 3:0.428431 4:-0.144397 5:-0.0174859 6:-0.750459 7:-1 8:-0.104278 9:-0.705343 10:0.32 
1 1:0.066231 2:-0.104073 3:0.443295 4:-0.286051 5:-0.0993315 6:-0.750452 7:-1 8:-0.253552 9:-0.724552 10:0.173332 
1 1:0.131325 2:0.0800705 3:0.4484 4:-0.51009 5:-0.305369 6:-0.500732 7:-1 8:-0.215784 9:-0.591424 10:-0.569566 
1 1:0.196634 2:0.0800705 3:0.461144 4:-0.746393 5:-0.839681 6:-0.750493 7:-1 8:-0.589304 9:-0.745915 10:-0.808696 
1 1:-0.0645506 2:0.0800705 3:0.431007 4:-0.509982 5:-0.305217 6:-0.750338 7:-1 8:-0.215615 9:-0.689404 10:-0.665217 
1 1:0.131355 2:0.150895 3:0.462716 4:-0.604538 5:-0.412143 6:-1 7:-1 8:-0.365077 9:-0.70632 10:-0.665217 
1 1:0.262398 2:0.248278 3:0.471817 4:-0.462797 5:-0.305315 6:-0.750245 7:-1 8:-0.141035 9:-0.708497 10:-0.569566 
1 1:0.262388 2:0.112532 3:0.487974 4:-0.50999 5:-0.251813 6:-0.500511 7:-1 8:-0.215626 9:-0.695284 10:-0.569566 
1 1:0.261871 2:0.150895 3:0.463288 4:-0.463205 5:-0.305816 6:-1 7:-1 8:-0.141671 9:-0.799014 10:-0.330434 
1 1:0.261799 2:0.150895 3:0.460154 4:-0.580883 5:-0.519051 6:-1 7:-1 8:-0.327684 9:-0.850558 10:-0.234783 
1 1:0.176492 2:0.201062 3:0.473657 4:-0.0116809 5:-0.0931778 6:-0.501533 7:-1 8:0.572038 9:-0.798841 10:-0.234783 
1 1:0.26184 2:0.221719 3:0.470991 4:-0.615485 5:-0.410109 6:-1 7:-1 8:-0.327798 9:-0.817775 10:-0.692 
1 1:0.131276 2:0.156561 3:0.460002 4:-0.637141 5:-0.508267 6:-1 7:-1 8:-0.364882 9:-0.802143 10:-0.692 
1 1:0.32707 2:0.221719 3:0.467848 4:-0.746348 5:-0.705064 6:-1 7:-1 8:-0.551888 9:-0.834731 10:-0.736 
1 1:0.197248 2:0.17299 3:0.447108 4:-0.736426 5:-0.622639 6:-1 7:-1 8:-0.515573 9:-0.831719 10:-0.788462 
1 1:0.262006 2:0.221719 3:0.467326 4:-0.841394 5:-0.858562 6:-1 7:-1 8:-0.702235 9:-0.921509 10:-0.788462 
1 1:0.261927 2:0.347024 3:0.466172 4:-0.544434 5:-0.433498 6:-1 7:-1 8:-0.589767 9:-0.747668 10:-0.238461 
1 1:0.261918 2:0.347024 3:0.472983 4:-0.62515 5:-0.433238 6:-1 7:-1 8:-0.664193 9:-0.803273 10:-0.323078 
1 1:0.261838 2:0.221719 3:0.468881 4:-0.665255 5:-0.527243 6:-1 7:-1 8:-0.701173 9:-0.757935 10:-0.407692 
1 1:0.327094 2:0.347024 3:0.475689 4:-0.624956 5:-0.43292 6:-1 7:-1 8:-0.664013 9:-0.83116 10:-0.407692 
1 1:0.327094 2:0.347024 3:0.475689 4:-0.543788 5:-0.338213 6:-1 7:-1 8:-0.589171 9:-0.770231 10:-0.238461 
1 1:0.327094 2:0.347024 3:0.475689 4:-0.665487 5:-0.527425 6:-1 7:-1 8:-0.701387 9:-0.834031 10:-0.407692 
1 1:0.316208 2:0.347024 3:0.471945 4:-0.280798 5:0.228574 6:-0.500878 7:-1 8:-0.346682 9:-0.665081 10:-0.0692307 
1 1:0.261955 2:0.347024 3:0.495797 4:-0.544095 5:-0.24408 6:-1 7:-1 8:-0.589454 9:-0.777666 10:-0.238461 
1 1:0.196671 2:0.347024 3:0.471732 4:-0.584544 5:-0.527517 6:-1 7:-1 8:-0.626752 9:-0.790805 10:-0.323078 
1 1:0.26189 2:0.0964148 3:0.464363 4:-0.544199 5:-0.33885 6:-1 7:-1 8:-0.58955 9:-0.737206 10:-0.0692307 
1 1:0.326643 2:0.138183 3:0.475689 4:-0.584578 5:-0.527528 6:-1 7:-1 8:-0.626785 9:-0.772374 10:-0.323078 
1 1:0.196583 2:0.0964148 3:0.451025 4:-0.422441 5:-0.243855 6:-1 7:-1 8:-0.477286 9:-0.736985 10:-0.238461 
1 1:0.197093 2:0.0785142 3:0.410276 4:-0.422122 5:-0.148962 6:-1 7:-1 8:-0.476992 9:-0.585466 10:-0.153847 
1 1:0.153215 2:0.0964148 3:0.480273 4:-0.382201 5:0.03929 6:-0.251305 7:-1 8:-0.44018 9:-0.663241 10:-0.0692307 
1 1:0.196599 2:0.0964148 3:0.445263 4:-0.46301 5:-0.338456 6:-1 7:-1 8:-0.51469 9:-0.717461 10:-0.238461 
1 1:0.196637 2:0.0964148 3:0.455833 4:-0.422563 5:-0.0549913 6:-1 7:-1 8:-0.477396 9:-0.707695 10:-0.238461 
1 1:0.327094 2:0.347024 3:0.475689 4:-0.625184 5:-0.527725 6:-1 7:-1 8:-0.664226 9:-0.829659 10:-0.323078 
1 1:0.261904 2:0.0964148 3:0.468819 4:-0.503736 5:-0.244268 6:-1 7:-1 8:-0.552241 9:-0.767774 10:-0.238461 
1 1:0.327094 2:0.347024 3:0.475689 4:-0.625171 5:-0.527701 6:-1 7:-1 8:-0.664215 9:-0.797325 10:-0.323078 
1 1:0.327094 2:0.347024 3:0.475689 4:-0.665759 5:-0.527831 6:-1 7:-1 8:-0.701637 9:-0.834557 10:-0.323078 
1 1:0.327094 2:0.347024 3:0.475689 4:-0.584457 5:-0.432917 6:-1 7:-1 8:-0.626671 9:-0.814528 10:-0.238461 
1 1:0.261886 2:0.0964148 3:0.460743 4:-0.544183 5:-0.338822 6:-1 7:-1 8:-0.589539 9:-0.666844 10:-0.238461 
1 1:0.261864 2:0.0964148 3:0.462231 4:-0.381972 5:-0.149444 6:-0.00148099 7:-1 8:-0.439966 9:-0.448224 10:0.0999999 
1 1:-0.140436 2:0.0964148 3:0.389132 4:-0.503645 5:-0.149719 6:-0.500937 7:-1 8:-0.552157 9:-0.673004 10:-0.0692307 
1 1:0.327062 2:0.347024 3:0.46298 4:-0.497159 5:-0.338982 6:-1 7:-1 8:-0.546178 9:-0.663225 10:-0.153847 
1 1:-0.20538 2:0.0964148 3:0.457798 4:-0.301543 5:0.133429 6:-0.501349 7:-1 8:-0.365809 9:-0.730352 10:-0.0692307 
1 1:0.327094 2:0.347024 3:0.475689 4:-0.544139 5:-0.433127 6:-1 7:-1 8:-0.589498 9:-0.839278 10:-0.238461 
1 1:0.327094 2:0.347024 3:0.475689 4:-0.58461 5:-0.433232 6:-0.750443 7:-1 8:-0.626814 9:-0.711383 10:-0.238461 
1 1:0.327094 2:0.347024 3:0.475689 4:-0.665594 5:-0.622075 6:-1 7:-1 8:-0.701485 9:-0.823189 10:-0.323078 
1 1:0.261986 2:0.221719 3:0.482703 4:-0.503835 5:-0.149943 6:-1 7:-1 8:-0.552333 9:-0.756099 10:-0.238461 
1 1:0.261858 2:0.0964148 3:0.462354 4:-0.503457 5:-0.432997 6:-0.500827 7:-1 8:-0.551984 9:-0.650529 10:-0.153847 
1 1:0.305351 2:0.472328 3:0.500198 4:-0.219852 5:0.0397873 6:-0.0012317 7:-1 8:-0.290486 9:-0.423331 10:0.26923 
1 1:0.196583 2:0.221719 3:0.465977 4:-0.503485 5:-0.149519 6:-1 7:-1 8:-0.55201 9:-0.656327 10:-0.153847 
1 1:0.262579 2:0.176967 3:0.456523 4:-0.503939 5:-0.244536 6:-1 7:-1 8:-0.552429 9:-0.72651 10:-0.323078 
1 1:0.327093 2:0.221719 3:0.475609 4:-0.665496 5:-0.433094 6:-1 7:-1 8:-0.701395 9:-0.86621 10:-0.323078 
1 1:0.077187 2:0.0964148 3:0.437077 4:-0.355605 5:0.227473 6:-0.750517 7:-1 8:-0.415655 9:-0.643272 10:-0.153847 
1 1:0.327094 2:0.347024 3:0.475689 4:-0.624942 5:-0.432927 6:-1 7:-1 8:-0.664002 9:-0.770111 10:-0.323078 
1 1:0.261876 2:0.0964148 3:0.467961 4:-0.543977 5:-0.338464 6:-1 7:-1 8:-0.589348 9:-0.68332 10:-0.238461 
1 1:0.261933 2:0.0964148 3:0.473424 4:-0.544125 5:-0.433072 6:-1 7:-1 8:-0.589484 9:-0.830015 10:-0.323078 
1 1:0.261842 2:0.221719 3:0.402215 4:-0.503705 5:-0.244346 6:-1 7:-1 8:-0.552212 9:-0.603996 10:-0.0692307 
1 1:0.327094 2:0.347024 3:0.475689 4:-0.463339 5:-0.150055 6:-1 7:-1 8:-0.514995 9:-0.730789 10:0.0153835 
1 1:0.261871 2:0.221719 3:0.417339 4:-0.463523 5:-0.150295 6:-1 7:-1 8:-0.515161 9:-0.69285 10:-0.0692307 
1 1:0.19667 2:-0.0288899 3:0.454833 4:-0.301241 5:-0.244217 6:-1 7:-1 8:-0.365529 9:-0.650375 10:0.26923 
1 1:0.327091 2:0.221719 3:0.47451 4:-0.382999 5:-0.339383 6:-1 7:-1 8:-0.440919 9:-0.527959 10:-0.492308 
1 1:0.327094 2:0.347024 3:0.475689 4:-0.58425 5:-0.432633 6:-1 7:-1 8:-0.62648 9:-0.801105 10:-0.238461 
1 1:0.196772 2:0.347024 3:0.484669 4:-0.625046 5:-0.527534 6:-1 7:-1 8:-0.664097 9:-0.80949 10:-0.323078 
1 1:0.327094 2:0.347024 3:0.475689 4:-0.625012 5:-0.433032 6:-1 7:-1 8:-0.664068 9:-0.830392 10:-0.238461 
1 1:0.392304 2:0.347024 3:0.475466 4:-0.503399 5:-0.243818 6:-0.750468 7:-1 8:-0.551933 9:-0.776399 10:-0.153847 
1 1:0.327094 2:0.347024 3:0.475689 4:-0.665439 5:-0.527437 6:-1 7:-1 8:-0.701342 9:-0.821137 10:-0.323078 
1 1:0.326486 2:0.117299 3:0.475689 4:-0.422619 5:-0.243992 6:-1 7:-1 8:-0.477448 9:-0.800388 10:-0.153847 
1 1:0.185631 2:0.105365 3:0.454317 4:-0.386991 5:0.0537196 6:-0.750295 7:-1 8:-0.402257 9:-0.411406 10:-0.214285 
1 1:0.196843 2:0.260504 3:0.437088 4:-0.651629 5:-0.385198 6:-1 7:-1 8:-0.6637 9:-0.87771 10:-0.607144 
1 1:0.326596 2:0.132216 3:0.475689 4:-0.412174 5:-0.4731 6:-1 7:-1 8:-0.427134 9:-0.733012 10:-0.214285 
1 1:0.326778 2:0.150117 3:0.475689 4:-0.613766 5:-0.560841 6:-1 7:-1 8:-0.626292 9:-0.775246 10:-0.371429 
1 1:0.261903 2:0.900451 3:0.543406 4:-0.0339779 5:-0.180714 6:-1 7:1 8:-0.184686 9:-0.683035 10:0.283332 
1 1:0.327094 2:0.454428 3:0.475689 4:-0.386795 5:-0.2095 6:-0.750124 7:-1 8:-0.402066 9:-0.713228 10:-0.0571439 
1 1:0.218204 2:0.570782 3:0.490442 4:-0.330098 5:-0.473059 6:-1 7:1 8:-0.346053 9:-0.824021 10:-0.0571439 
1 1:0.261805 2:0.105365 3:0.461802 4:-0.538266 5:-0.560902 6:-1 7:-1 8:-0.551705 9:-0.753194 10:-0.607144 
1 1:0.261837 2:0.105365 3:0.468627 4:-0.500482 5:-0.473146 6:-1 7:-1 8:-0.514378 9:-0.669476 10:-0.607144 
1 1:0.326669 2:0.141166 3:0.475689 4:-0.576322 5:-0.561227 6:-1 7:-1 8:-0.5893 9:-0.740982 10:-0.292856 
1 1:0.327067 2:0.221719 3:0.455878 4:-0.689493 5:-0.736582 6:-1 7:-1 8:-0.701105 9:-0.865474 10:-0.528571 
1 1:0.326609 2:0.114315 3:0.475689 4:-0.462725 5:-0.385451 6:-1 7:-1 8:-0.47708 9:-0.711167 10:-0.0571439 
1 1:-0.0861697 2:-0.0109893 3:0.451009 4:-0.538528 5:-0.4734 6:-0.500641 7:-1 8:-0.551966 9:-0.779556 10:-0.214285 
1 1:0.272709 2:0.570782 3:0.518206 4:-0.424875 5:-0.297667 6:-1 7:1 8:-0.439683 9:-0.753105 10:-0.0571439 
1 1:0.327081 2:0.221719 3:0.475152 4:-0.418561 5:-0.297635 6:-1 7:-1 8:-0.433444 9:-0.855514 10:-0.135715 
1 1:0.131199 2:0.221719 3:0.37344 4:-0.651758 5:-0.560957 6:-0.750335 7:-1 8:-0.663825 9:-0.777625 10:-0.685715 
1 1:0.326691 2:0.150117 3:0.475689 4:-0.576224 5:-0.297768 6:-1 7:-1 8:-0.589204 9:-0.799005 10:-0.371429 
1 1:0.261859 2:0.221719 3:0.463307 4:-0.689689 5:-0.561127 6:-1 7:-1 8:-0.701299 9:-0.728137 10:-0.764285 
1 1:0.326536 2:0.150117 3:0.475689 4:-0.520021 5:-0.210699 6:-1 7:-1 8:-0.533681 9:-0.861778 10:-0.371429 
1 1:0.261931 2:0.105365 3:0.472828 4:-0.494711 5:-0.56139 6:-1 7:-1 8:-0.508675 9:-0.836507 10:-0.135715 
1 1:0.326614 2:0.123266 3:0.475689 4:-0.462703 5:-0.385376 6:-1 7:-1 8:-0.477051 9:-0.748912 10:-0.135715 
1 1:0.326577 2:0.150117 3:0.475689 4:-0.652697 5:-0.474534 6:-1 7:-1 8:-0.664755 9:-0.878849 10:-0.371429 
1 1:0.294314 2:0.570782 3:-0.0764451 4:-0.375775 5:-0.386762 6:-0.750757 7:1 8:-0.391179 9:-0.795785 10:-0.0571439 
1 1:0.196444 2:0.628959 3:0.508063 4:-0.374955 5:-0.282445 6:-1 7:1 8:-0.476632 9:-0.730283 10:0.0999999 
1 1:0.261777 2:0.221719 3:0.440879 4:-0.639973 5:-0.180635 6:-1 7:-1 8:-0.626506 9:-0.870352 10:-0.486667 
1 1:0.327077 2:0.221719 3:0.468289 4:-0.604401 5:-0.180365 6:-1 7:-1 8:-0.58902 9:-0.896324 10:-0.413333 
1 1:0.185663 2:0.113122 3:0.471835 4:-0.486222 5:-0.0164574 6:-1 7:-1 8:-0.464487 9:-0.763519 10:-0.193333 
1 1:0.32707 2:0.221719 3:0.450178 4:-0.675391 5:-0.426345 6:-1 7:-1 8:-0.663829 9:-0.848013 10:-0.486667 
1 1:0.327092 2:0.221719 3:0.473215 4:-0.675223 5:-0.344129 6:-1 7:-1 8:-0.663652 9:-0.856905 10:-0.633333 
1 1:0.327062 2:0.221719 3:0.438661 4:-0.675192 5:-0.2621 6:-1 7:-1 8:-0.663619 9:-0.846605 10:-0.56 
1 1:0.327085 2:0.221719 3:0.462832 4:-0.675455 5:-0.344583 6:-1 7:-1 8:-0.663895 9:-0.827675 10:-0.486667 
1 1:0.327049 2:0.221719 3:0.436891 4:-0.604435 5:-0.180409 6:-1 7:-1 8:-0.589057 9:-0.856152 10:-0.413333 
1 1:0.327076 2:0.221719 3:0.46612 4:-0.6399 5:-0.180468 6:-1 7:-1 8:-0.626428 9:-0.874257 10:-0.486667 
1 1:0.26179 2:0.221719 3:0.432236 4:-0.675491 5:-0.344629 6:-1 7:-1 8:-0.663935 9:-0.87827 10:-0.486667 
1 1:0.32709 2:0.221719 3:0.4726 4:-0.604618 5:-0.262662 6:-1 7:-1 8:-0.589248 9:-0.894135 10:-0.413333 
1 1:-0.0105178 2:-0.185521 3:0.425593 4:0.000427882 5:0.384098 6:-0.249827 7:-1 8:-0.426649 9:-0.0779902 10:0.65 
1 1:0.327068 2:0.221719 3:0.430327 4:-0.710936 5:-0.344664 6:-1 7:-1 8:-0.701286 9:-0.733986 10:-0.486667 
1 1:0.261804 2:0.221719 3:0.452828 4:-0.498456 5:0.0647034 6:-1 7:-1 8:-0.477378 9:-0.874249 10:-0.413333 
1 1:0.32709 2:0.221719 3:0.467578 4:-0.640121 5:-0.344721 6:-1 7:-1 8:-0.62666 9:-0.886658 10:-0.486667 
1 1:0.327082 2:0.221719 3:0.468406 4:-0.569329 5:-0.180998 6:-1 7:-1 8:-0.552061 9:-0.841623 10:-0.486667 
1 1:0.327077 2:0.221719 3:0.457862 4:-0.71101 5:-0.426679 6:-1 7:-1 8:-0.701363 9:-0.803744 10:-0.56 
1 1:0.327092 2:0.221719 3:0.470051 4:-0.569198 5:-0.180813 6:-1 7:-1 8:-0.551925 9:-0.769512 10:-0.413333 
1 1:0.327083 2:0.221719 3:0.473017 4:-0.640177 5:-0.181062 6:-1 7:-1 8:-0.626722 9:-0.865556 10:-0.486667 
1 1:0.261867 2:0.113122 3:0.46797 4:-0.480804 5:0.0645594 6:-1 7:-1 8:-0.458777 9:-0.81714 10:-0.266667 
1 1:0.261792 2:0.113122 3:0.447911 4:-0.568977 5:-0.590246 6:-1 7:-1 8:-0.55169 9:-0.722511 10:-0.266667 
1 1:0.327069 2:0.221719 3:0.456731 4:-0.710912 5:-0.344612 6:-1 7:-1 8:-0.70126 9:-0.867812 10:-0.56 
1 1:0.327085 2:0.221719 3:0.467534 4:-0.746585 5:-0.427008 6:-1 7:-1 8:-0.738852 9:-0.874118 10:-0.56 
1 1:0.261836 2:0.221719 3:0.446636 4:-0.675636 5:-0.344874 6:-1 7:-1 8:-0.664086 9:-0.864789 10:-0.486667 
1 1:0.327078 2:0.221719 3:0.466692 4:-0.551665 5:-0.0992553 6:-1 7:-1 8:-0.533449 9:-0.85235 10:-0.413333 
1 1:0.261843 2:0.221719 3:0.446015 4:-0.640363 5:-0.263279 6:-1 7:-1 8:-0.626917 9:-0.866858 10:-0.486667 
1 1:0.261813 2:0.221719 3:0.447696 4:-0.533979 5:-0.0173673 6:-1 7:-1 8:-0.514811 9:-0.847215 10:-0.413333 
1 1:0.261774 2:0.221719 3:0.425207 4:-0.640064 5:-0.180827 6:-1 7:-1 8:-0.626601 9:-0.861527 10:-0.56 
1 1:0.261833 2:0.221719 3:0.449605 4:-0.67563 5:-0.26302 6:-1 7:-1 8:-0.664079 9:-0.889761 10:-0.56 
1 1:0.327074 2:0.221719 3:0.460236 4:-0.675464 5:-0.344551 6:-1 7:-1 8:-0.663906 9:-0.868256 10:-0.486667 
1 1:0.327083 2:0.221719 3:0.47259 4:-0.640066 5:-0.180834 6:-1 7:-1 8:-0.626605 9:-0.85981 10:-0.56 
1 1:0.261842 2:0.221719 3:0.452876 4:-0.604647 5:-0.262761 6:-1 7:-1 8:-0.589282 9:-0.74083 10:-0.486667 
1 1:0.32708 2:0.221719 3:0.460816 4:-0.63989 5:-0.180456 6:-1 7:-1 8:-0.626417 9:-0.842367 10:-0.486667 
1 1:0.32709 2:0.221719 3:0.470812 4:-0.746362 5:-0.508447 6:-1 7:-1 8:-0.738617 9:-0.871114 10:-0.633333 
1 1:0.261775 2:0.221719 3:0.438042 4:-0.675352 5:-0.26244 6:-1 7:-1 8:-0.663788 9:-0.880001 10:-0.56 
1 1:0.261806 2:0.221719 3:0.446774 4:-0.640128 5:-0.180957 6:-1 7:-1 8:-0.626671 9:-0.873237 10:-0.56 
1 1:0.327075 2:0.221719 3:0.461609 4:-0.640093 5:-0.180877 6:-1 7:-1 8:-0.626634 9:-0.850081 10:-0.486667 
1 1:0.327051 2:0.221719 3:0.452888 4:-0.640273 5:-0.181263 6:-1 7:-1 8:-0.626822 9:-0.875925 10:-0.486667 
1 1:0.261779 2:0.221719 3:0.433004 4:-0.56922 5:-0.0170394 6:-1 7:-1 8:-0.551947 9:-0.83903 10:-0.486667 
1 1:0.327088 2:0.221719 3:0.470185 4:-0.711041 5:-0.344879 6:-1 7:-1 8:-0.701397 9:-0.887972 10:-0.56 
1 1:0.261811 2:0.221719 3:0.447683 4:-0.569188 5:-0.0169741 6:-1 7:-1 8:-0.551914 9:-0.830858 10:-0.486667 
1 1:0.26184 2:0.221719 3:0.457558 4:-0.640102 5:-0.180894 6:-1 7:-1 8:-0.626642 9:-0.854028 10:-0.486667 
1 1:0.327067 2:0.221719 3:0.457705 4:-0.746683 5:-0.427213 6:-1 7:-1 8:-0.738955 9:-0.899541 10:-0.633333 
1 1:0.261846 2:0.221719 3:0.458583 4:-0.604803 5:-0.0992855 6:-1 7:-1 8:-0.589443 9:-0.890314 10:-0.486667 
1 1:0.261824 2:0.221719 3:0.45193 4:-0.604774 5:-0.0992142 6:-1 7:-1 8:-0.589414 9:-0.885189 10:-0.56 
1 1:0.327082 2:0.221719 3:0.463491 4:-0.711156 5:-0.345109 6:-1 7:-1 8:-0.701518 9:-0.886383 10:-0.633333 
1 1:0.327082 2:0.221719 3:0.460668 4:-0.675633 5:-0.344873 6:-1 7:-1 8:-0.664082 9:-0.835383 10:-0.56 
1 1:0.261809 2:0.221719 3:0.441927 4:-0.675585 5:-0.262913 6:-1 7:-1 8:-0.664035 9:-0.874544 10:-0.56 
1 1:0.261852 2:0.221719 3:0.443823 4:-0.711126 5:-0.426871 6:-1 7:-1 8:-0.701486 9:-0.84154 10:-0.56 
1 1:0.261853 2:0.221719 3:0.442005 4:-0.640429 5:-0.181602 6:-1 7:-1 8:-0.626987 9:-0.863384 10:-0.486667 
1 1:0.327092 2:0.221719 3:0.467273 4:-0.569469 5:-0.0175815 6:-1 7:-1 8:-0.552212 9:-0.865819 10:-0.486667 
1 1:0.26183 2:0.221719 3:0.438642 4:-0.6049 5:-0.181326 6:-1 7:-1 8:-0.589546 9:-0.83161 10:-0.486667 
1 1:0.261854 2:0.221719 3:0.448924 4:-0.675816 5:-0.263394 6:-1 7:-1 8:-0.664277 9:-0.876902 10:-0.56 
1 1:0.261805 2:0.221719 3:0.446441 4:-0.551548 5:-0.180889 6:-1 7:-1 8:-0.533324 9:-0.857189 10:-0.413333 
1 1:0.261761 2:0.221719 3:0.447598 4:-0.533454 5:-0.0163534 6:-1 7:-1 8:-0.514256 9:-0.862882 10:-0.413333 
1 1:0.196599 2:0.113122 3:0.470829 4:-0.427403 5:0.0650228 6:-1 7:-1 8:-0.4025 9:-0.760331 10:-0.12 
1 1:0.327076 2:0.221719 3:0.461191 4:-0.639993 5:-0.180683 6:-1 7:-1 8:-0.626528 9:-0.87855 10:-0.486667 
-1 1:0.262228 2:0.17647 3:0.465878 4:-0.525356 5:0.0763078 6:-0.750123 7:-1 8:-0.738308 9:-0.631557 10:-0.175 
-1 1:0.262229 2:0.244344 3:0.447947 4:-0.399094 5:-0.231062 6:-0.500156 7:-1 8:-0.663468 9:-0.638538 10:0.2375 
-1 1:0.196463 2:0.0180994 3:0.437427 4:-0.588342 5:-0.538681 6:-1 7:-1 8:-0.775644 9:-0.67981 10:-0.175 
-1 1:0.262242 2:-0.0497738 3:0.44827 4:-0.576023 5:-0.726769 6:-0.750254 7:-1 8:-0.738453 9:-0.704433 10:-0.633333 
-1 1:0.32709 2:0.221719 3:0.474675 4:-0.632629 5:-0.180103 6:-0.750194 7:-1 8:-0.775734 9:-0.840967 10:-0.266667 
-1 1:0.261772 2:0.0736322 3:0.460405 4:-0.217837 5:-0.10535 6:-1 7:-1 8:-0.395584 9:-0.413452 10:0.200001 
-1 1:0.327094 2:0.369806 3:0.475689 4:-0.273618 5:0.00577862 6:-0.750254 7:-1 8:-0.439676 9:-0.653906 10:-1.1e-006 
-1 1:0.261815 2:0.0859725 3:0.466657 4:-0.724371 5:-0.692629 6:-1 7:-1 8:-0.7758 9:-0.826153 10:-0.358333 
-1 1:0.261842 2:0.0859725 3:0.459739 4:-0.593747 5:-0.488099 6:-0.750353 7:-1 8:-0.663961 9:-0.780104 10:-0.266667 
-1 1:0.262249 2:0.451444 3:0.430265 4:-0.506177 5:-0.385192 6:-0.750177 7:-1 8:-0.588984 9:-0.608371 10:-0.0833327 
-1 1:0.262402 2:0.179951 3:0.462425 4:-0.50645 5:-0.180738 6:-1 7:-1 8:-0.589215 9:-0.544156 10:-0.266667 
-1 1:0.261869 2:0.0859725 3:0.461138 4:-0.288491 5:0.126313 6:-1 7:-1 8:-0.402599 9:-0.128756 10:0.0999999 
-1 1:0.196578 2:-0.0497738 3:0.398546 4:-0.506622 5:-0.283397 6:-0.750492 7:-1 8:-0.589362 9:-0.51072 10:-0.175 
-1 1:0.196526 2:0.0964148 3:0.482351 4:-0.665196 5:-0.243472 6:-1 7:-1 8:-0.701118 9:-0.815363 10:-0.407692 
-1 1:0.153097 2:0.113122 3:0.473063 4:-0.350536 5:0.229058 6:-1 7:-1 8:-0.321503 9:-0.688604 10:-0.193333 
-1 1:0.261842 2:0.113122 3:0.463481 4:-0.486658 5:0.0646477 6:-1 7:-1 8:-0.464947 9:-0.818275 10:-0.266667 
-1 1:0.197158 2:0.0859725 3:0.46941 4:-0.486355 5:-0.0985874 6:-1 7:-1 8:-0.464627 9:-0.845513 10:-0.266667 
-1 1:0.261869 2:0.113122 3:0.467102 4:-0.604827 5:-0.0993243 6:-1 7:-1 8:-0.589469 9:-0.851624 10:-0.266667 
-1 1:0.197329 2:0.0859725 3:0.471014 4:-0.362366 5:0.0652115 6:-1 7:-1 8:-0.333968 9:-0.806395 10:-0.266667 
-1 1:0.262052 2:0.180995 3:-1 4:-0.604465 5:-0.0985426 6:-1 7:-1 8:-0.58909 9:-0.827873 10:-0.34 
-1 1:0.262614 2:0.0927601 3:0.473468 4:-0.297462 5:0.228937 6:-1 7:-1 8:-0.265572 9:-0.783095 10:-0.193333 
-1 1:0.261867 2:0.125898 3:0.464864 4:-0.651901 5:-0.421785 6:-1 7:-1 8:-0.589293 9:-0.679075 10:-0.805882 
-1 1:0.261911 2:0.221719 3:0.45891 4:-0.683666 5:-0.566652 6:-1 7:-1 8:-0.62695 9:-0.654063 10:-0.741177 
-1 1:0.327094 2:0.31754 3:0.475689 4:-0.525577 5:-0.493767 6:-0.750219 7:-1 8:-0.439536 9:-0.765488 10:-0.22353 
-1 1:0.197037 2:0.0620174 3:0.440761 4:-0.588822 5:-0.349395 6:-1 7:-1 8:-0.51451 9:-0.717543 10:-0.741177 
-1 1:0.196553 2:0.125898 3:0.457926 4:-0.342028 5:-0.204797 6:-1 7:-1 8:-0.221935 9:-0.788636 10:-0.22353 
-1 1:0.262577 2:0.268873 3:0.459788 4:-0.577059 5:-0.483538 6:-0.750872 7:-1 8:-0.440922 9:-0.755104 10:-0.363157 
-1 1:0.261962 2:0.135985 3:0.468962 4:-0.718452 5:-0.806223 6:-1 7:-1 8:-0.627171 9:-0.834729 10:-0.594736 
-1 1:0.327092 2:0.221719 3:0.474825 4:-0.7977 5:-0.882877 6:-1 7:-1 8:-0.700981 9:-0.859369 10:-0.738094 
-1 1:0.261834 2:0.221719 3:0.436976 4:-0.720726 5:-0.707547 6:-1 7:-1 8:-0.589451 9:-0.724649 10:-0.685715 
-1 1:0.261858 2:0.221719 3:0.464683 4:-0.79792 5:-0.76596 6:-1 7:-1 8:-0.701298 9:-0.764077 10:-0.790476 
-1 1:0.262238 2:0.170211 3:0.45705 4:-0.758895 5:-0.77674 6:-1 7:-1 8:-0.62691 9:-0.612804 10:-0.699999 
-1 1:0.261963 2:0.159067 3:0.464986 4:-0.757276 5:-0.716844 6:-1 7:-1 8:-0.552649 9:-0.674585 10:-0.788462 
-1 1:0.19704 2:0.159067 3:0.466095 4:-0.715943 5:-0.6703 6:-1 7:-1 8:-0.47915 9:-0.903151 10:-0.703847 
-1 1:0.261252 2:0.128994 3:0.473164 4:-0.527461 5:-0.43452 6:-1 7:-1 8:-0.14398 9:-0.823184 10:-0.534616 
-1 1:0.131855 2:0.128901 3:0.456617 4:-0.673047 5:-0.858268 6:-1 7:-1 8:-0.402867 9:-0.879557 10:-0.492308 
-1 1:0.261861 2:0.159067 3:0.460127 4:-0.652012 5:-0.527531 6:-1 7:-1 8:-0.365463 9:-0.622842 10:-0.746153 
-1 1:0.262239 2:0.233321 3:0.155986 4:-0.609949 5:-0.385696 6:-1 7:-1 8:-0.290662 9:-0.581848 10:-0.788462 
-1 1:0.197085 2:0.12194 3:0.455748 4:-0.757104 5:-0.85835 6:-1 7:-1 8:-0.552344 9:-0.810861 10:-0.619231 
-1 1:0.327081 2:0.221719 3:0.474383 4:-0.757232 5:-0.716781 6:-1 7:-1 8:-0.552572 9:-0.895623 10:-0.703847 
-1 1:0.261907 2:0.159067 3:0.466816 4:-0.736162 5:-0.811156 6:-1 7:-1 8:-0.515102 9:-0.821107 10:-0.661539 
-1 1:0.327089 2:0.221719 3:0.47467 4:-0.757291 5:-0.575325 6:-1 7:-1 8:-0.552675 9:-0.837417 10:-0.746153 
-1 1:0.196837 2:0.0964148 3:0.460266 4:-0.715479 5:-0.90564 6:-1 7:-1 8:-0.478323 9:-0.853138 10:-0.534616 
-1 1:0.196721 2:0.0964148 3:0.457362 4:-0.820171 5:-0.952812 6:-1 7:-1 8:-0.664494 9:-0.940109 10:-0.619231 
-1 1:0.261946 2:0.159067 3:0.470131 4:-0.736253 5:-0.811222 6:-1 7:-1 8:-0.515267 9:-0.82972 10:-0.703847 
-1 1:0.131692 2:0.0337625 3:0.443328 4:-0.84127 5:-0.952823 6:-1 7:-1 8:-0.702014 9:-0.936923 10:-0.788462 
-1 1:0.261913 2:0.159067 3:0.458236 4:-0.715224 5:-0.66956 6:-1 7:-1 8:-0.477871 9:-0.629699 10:-0.746153 
-1 1:0.261955 2:0.159067 3:0.456414 4:-0.736395 5:-0.669772 6:-0.750884 7:-1 8:-0.515521 9:-0.643069 10:-0.788462 
-1 1:0.327011 2:0.159067 3:0.461955 4:-0.75798 5:-0.670521 6:-1 7:-1 8:-0.553903 9:-0.853462 10:-0.873077 
-1 1:0.000602743 2:-0.140271 3:0.421038 4:-0.292298 5:-0.180218 6:-1 7:-1 8:-0.551587 9:-0.6679 10:0.344444 
-1 1:0.19713 2:0.177293 3:0.442945 4:-0.565893 5:-0.508464 6:-1 7:-1 8:-0.701224 9:-0.743462 10:-0.23 
-1 1:0.261946 2:0.295763 3:-0.708319 4:-0.668983 5:-0.508393 6:-0.750363 7:-1 8:-0.77591 9:-0.938874 10:-0.45 
-1 1:0.327083 2:0.221719 3:0.470362 4:-0.358949 5:-0.261854 6:-0.750059 7:-1 8:-0.5513 9:-0.679602 10:-0.0100001 
-1 1:0.261722 2:0.0859725 3:0.419278 4:-0.316454 5:-0.0770543 6:-1 7:-1 8:-0.426542 9:-0.574086 10:-0.175 
-1 1:0.131091 2:0.221719 3:0.331718 4:-0.549694 5:-0.48756 6:-1 7:-1 8:-0.626241 9:-0.688162 10:-0.45 
-1 1:0.261766 2:0.0859725 3:0.469044 4:-0.34578 5:0.230243 6:-1 7:-1 8:-0.451648 9:-0.802438 10:-0.266667 
-1 1:0.196449 2:-0.0497738 3:0.434258 4:-0.505952 5:-0.282471 6:-1 7:-1 8:-0.588789 9:-0.536602 10:-0.175 
-1 1:0.262688 2:0.175178 3:0.454109 4:-0.571047 5:-0.299348 6:-1 7:-1 8:-0.58409 9:-0.806243 10:-0.371429 
-1 1:0.251006 2:0.221719 3:0.475689 4:-0.532541 5:-0.298276 6:-0.750496 7:-1 8:-0.54605 9:-0.731514 10:-0.135715 
-1 1:0.26182 2:0.105365 3:0.46265 4:-0.651793 5:-0.297659 6:-1 7:-1 8:-0.663862 9:-0.83651 10:-0.45 
-1 1:0.196606 2:0.221719 3:0.467019 4:-0.437614 5:-0.0343813 6:-1 7:-1 8:-0.452269 9:-0.816245 10:-0.292856 
-1 1:0.262343 2:0.175178 3:0.472881 4:-0.424662 5:0.141865 6:-1 7:-1 8:-0.439477 9:-0.806798 10:-0.371429 
-1 1:0.186395 2:0.190691 3:0.462457 4:-0.450309 5:-0.0345556 6:-0.750424 7:-1 8:-0.464811 9:-0.821978 10:-0.214285 
-1 1:0.131954 2:0.198448 3:0.459661 4:-0.273417 5:0.141771 6:-1 7:-1 8:-0.290056 9:-0.693999 10:-0.135715 
-1 1:0.261243 2:0.0158618 3:0.465613 4:-0.539572 5:-0.211704 6:-1 7:-1 8:-0.552995 9:-0.839748 10:-0.292856 
-1 1:0.261806 2:0.131221 3:0.468025 4:-0.701455 5:-0.658535 6:-1 7:-1 8:-0.62641 9:-0.888712 10:-0.694444 
-1 1:0.261815 2:0.221719 3:0.472055 4:-0.343184 5:-0.0437849 6:-1 7:-1 8:-0.178082 9:-0.797677 10:-0.144444 
-1 1:0.261807 2:0.131221 3:0.457536 4:-0.731405 5:-0.726894 6:-1 7:-1 8:-0.663888 9:-0.893042 10:-0.755556 
-1 1:0.066711 2:0.259824 3:0.457572 4:-0.522508 5:-0.453855 6:-1 7:-1 8:-0.402481 9:-0.821216 10:-0.511112 
-1 1:0.262052 2:0.221719 3:0.470894 4:-0.583398 5:-0.455319 6:-1 7:-1 8:-0.478676 9:-0.795665 10:-0.633333 
-1 1:0.196705 2:0.150274 3:0.426152 4:-0.820855 5:-0.863393 6:-1 7:-1 8:-0.775824 9:-0.901714 10:-0.816667 
-1 1:0.1318 2:0.145511 3:0.336022 4:-0.761502 5:-0.590696 6:-1 7:-1 8:-0.701551 9:-0.839584 10:-0.877778 
-1 1:0.261778 2:0.131221 3:0.382355 4:-0.403331 5:-0.317483 6:-1 7:-1 8:-0.25335 9:-0.815949 10:-0.266667 
-1 1:0.261811 2:0.131221 3:0.471531 4:-0.582019 5:-0.590148 6:-1 7:-1 8:-0.476951 9:-0.873837 10:-0.511112 
-1 1:0.261833 2:0.131221 3:0.469002 4:-0.373414 5:-0.317338 6:-1 7:-1 8:-0.215909 9:-0.81235 10:-0.266667 
-1 1:0.261856 2:0.147676 3:0.47424 4:-0.487486 5:-0.608975 6:-0.750368 7:-1 8:-0.215773 9:-0.854624 10:-0.200001 
-1 1:0.261759 2:0.221719 3:0.359768 4:-0.709191 5:-0.944115 6:-1 7:-1 8:-0.551616 9:-0.697792 10:-0.65 
-1 1:0.261809 2:0.147676 3:0.450024 4:-0.80792 5:-0.776519 6:-1 7:-1 8:-0.701173 9:-0.784406 10:-0.8 
-1 1:0.392359 2:0.221719 3:0.48526 4:-0.586009 5:-0.832401 6:-0.750279 7:-1 8:-0.365018 9:-0.666166 10:-0.65 
-1 1:0.196929 2:0.0993864 3:0.450962 4:-0.585879 5:-0.385223 6:-1 7:-1 8:-0.36482 9:-0.58091 10:-0.699999 
-1 1:0.327036 2:0.221719 3:0.179094 4:-0.709198 5:-0.552896 6:-0.750204 7:-1 8:-0.551627 9:-0.645477 10:-0.85 
-1 1:0.262042 2:0.166991 3:0.454614 4:-0.783211 5:-0.776455 6:-1 7:-1 8:-0.663744 9:-0.621383 10:-0.750001 
-1 1:0.196755 2:0.147676 3:0.467979 4:-0.5127 5:-0.553298 6:-1 7:-1 8:-0.253971 9:-0.703259 10:-0.499999 
-1 1:0.262068 2:0.221719 3:0.472366 4:-0.513248 5:-0.554118 6:-1 7:-1 8:-0.254799 9:-0.68744 10:-0.65 
-1 1:0.261962 2:0.221719 3:0.470415 4:-0.488411 5:-0.553746 6:-1 7:-1 8:-0.217178 9:-0.72386 10:-0.550001 
-1 1:0.0671319 2:0.189526 3:0.463083 4:-0.537446 5:-0.888466 6:-1 7:-1 8:-0.291453 9:-0.886105 10:-0.400001 
-1 1:0.132472 2:0.109044 3:0.45801 4:-0.488446 5:-0.721138 6:-1 7:-1 8:-0.217229 9:-0.574595 10:-0.550001 
-1 1:0.0671364 2:0.17343 3:0.438829 4:-0.709954 5:-1 6:-1 7:-1 8:-0.552771 9:-0.859131 10:-0.65 
-1 1:0.196785 2:0.147676 3:0.469073 4:-0.685084 5:-0.944285 6:-1 7:-1 8:-0.515098 9:-0.823404 10:-0.6 
-1 1:0.196864 2:0.147676 3:0.464052 4:-0.734526 5:-0.94424 6:-1 7:-1 8:-0.589995 9:-0.84387 10:-0.65 
-0.5979067259160105 1:0.175067 2:0.221719 3:0.471361 4:-0.143543 5:-0.330612 6:-0.750608 7:-1 8:0.305234 9:-0.630668 10:-0.349999 
-1 1:0.197135 2:0.265985 3:0.462866 4:-0.55749 5:-0.519255 6:-1 7:-1 8:-0.29071 9:-0.856982 10:-0.282609 
-1 1:0.196948 2:0.171552 3:-0.0307885 4:-0.604678 5:-0.465824 6:-1 7:-1 8:-0.365298 9:-0.690894 10:-0.713043 
-1 1:0.197809 2:0.177454 3:0.469441 4:-0.464014 5:-0.466832 6:-1 7:-1 8:-0.142954 9:-0.880498 10:-0.617391 
-1 1:0.327075 2:0.284372 3:0.464335 4:-0.673046 5:-0.480356 6:-0.75044 7:-1 8:-0.402867 9:-0.880418 10:-0.746153 
-1 1:0.261883 2:0.0964148 3:0.415436 4:-0.625407 5:-0.433553 6:-1 7:-1 8:-0.664432 9:-0.567561 10:-0.746153 
-1 1:0.1974 2:0.302272 3:0.42607 4:-0.503985 5:-0.339095 6:-0.750745 7:-1 8:-0.552473 9:-0.722513 10:-0.238461 
-1 1:0.26231 2:0.185918 3:0.466551 4:-0.543692 5:-0.338088 6:-1 7:-1 8:-0.589083 9:-0.574798 10:-0.238461 
-1 1:0.262477 2:0.190691 3:0.470959 4:-0.538732 5:0.052696 6:-0.750517 7:-1 8:-0.552164 9:-0.834468 10:-0.214285 
-1 1:0.327093 2:0.221719 3:0.475536 4:-0.463188 5:0.228114 6:-0.750548 7:-1 8:-0.477536 9:-0.802743 10:-0.135715 
-1 1:0.327084 2:0.221719 3:0.468648 4:-0.576352 5:-0.385751 6:-1 7:-1 8:-0.589333 9:-0.720332 10:-0.371429 
-1 1:0.262392 2:0.221719 3:0.457465 4:-0.387013 5:-0.38532 6:-1 7:-1 8:-0.402275 9:-0.715384 10:0.0999999 
-1 1:-0.368277 2:0.0355524 3:0.44659 4:-0.0022797 5:-0.209498 6:-1 7:-1 8:-0.0221892 9:-0.744195 10:0.414285 
-1 1:0.196495 2:0.221719 3:0.443738 4:-0.538184 5:-0.560919 6:-0.750214 7:-1 8:-0.551624 9:-0.763933 10:-0.607144 
-1 1:0.327068 2:0.221719 3:0.459816 4:-0.0716943 5:-0.385287 6:-1 7:-1 8:-0.0907653 9:-0.692544 10:0.0999999 
-1 1:0.262458 2:0.190691 3:0.47199 4:-0.387069 5:-0.648894 6:-1 7:-1 8:-0.402331 9:-0.18595 10:-0.214285 
-1 1:0.261939 2:0.105365 3:0.466181 4:-0.614499 5:-0.824641 6:-1 7:-1 8:-0.627017 9:-0.697142 10:-0.45 
-1 1:0.261832 2:0.221719 3:0.464633 4:-0.34942 5:-0.385534 6:-1 7:-1 8:-0.36514 9:-0.702724 10:0.0999999 
-1 1:0.327094 2:0.105365 3:0.475689 4:-0.482279 5:-0.736888 6:-1 7:-1 8:-0.496394 9:-0.8684 10:-0.292856 
-1 1:0.197329 2:0.260504 3:0.457228 4:-0.463026 5:-0.473404 6:-1 7:-1 8:-0.477374 9:-0.620699 10:-0.607144 
-1 1:0.197158 2:0.0976082 3:0.458125 4:-0.538462 5:-0.56117 6:-1 7:-1 8:-0.551899 9:-0.760671 10:-0.0571439 
-1 1:0.0354545 2:0.0976082 3:0.45063 4:-0.332186 5:-0.387042 6:-1 7:-1 8:-0.348112 9:-0.73797 10:-0.0571439 
-1 1:0.262559 2:0.307046 3:0.462334 4:-0.50126 5:-0.737033 6:-1 7:-1 8:-0.515146 9:-0.857953 10:-0.135715 
-1 1:0.00119649 2:-0.0972853 3:0.418823 4:-0.385634 5:-0.262192 6:-1 7:-1 8:-0.358485 9:-0.802759 10:-0.0466675 
-1 1:0.196513 2:0.113122 3:0.464016 4:-0.391647 5:-0.344288 6:-1 7:-1 8:-0.364827 9:-0.624166 10:-0.12 
-1 1:0.306051 2:0.303167 3:0.483039 4:-0.38617 5:0.228658 6:-1 7:-1 8:-0.359055 9:-0.772611 10:-0.12 
-1 1:0.261886 2:0.113122 3:0.472727 4:-0.486516 5:0.0649224 6:-1 7:-1 8:-0.464796 9:-0.774291 10:-0.266667 
-1 1:0.13124 2:0.0045246 3:0.444686 4:-0.639895 5:-0.672211 6:-1 7:-1 8:-0.626425 9:-0.744461 10:-0.413333 
-1 1:0.19722 2:0.174208 3:-0.871347 4:-0.570166 5:-0.0190503 6:-1 7:-1 8:-0.552944 9:-0.87929 10:-0.413333 
-1 1:0.19736 2:0.160633 3:0.449214 4:-0.463166 5:-0.426796 6:-1 7:-1 8:-0.440191 9:-0.66063 10:-0.56 
-1 1:0.261811 2:0.113122 3:0.468923 4:-0.462541 5:-0.344236 6:-1 7:-1 8:-0.439529 9:-0.712097 10:-0.56 
-1 1:0.392373 2:0.425339 3:0.532725 4:-0.399602 5:0.383009 6:-0.500465 7:-1 8:-0.66377 9:0.0377178 10:-0.0375001 
-1 1:0.392267 2:0.425339 3:0.514716 4:-0.463434 5:0.22763 6:-0.501216 7:-1 8:-0.701605 9:-0.23925 10:-0.0375001 
-1 1:0.392222 2:0.425339 3:0.52186 4:-0.401014 5:0.379936 6:-0.501455 7:-1 8:-0.664605 9:-0.219152 10:-0.0375001 
-1 1:0.392329 2:0.425339 3:0.53487 4:-0.463082 5:0.228404 6:-0.500822 7:-1 8:-0.701396 9:-0.301038 10:-0.0375001 
-1 1:0.392344 2:0.425339 3:0.520805 4:-0.525856 5:0.0752503 6:-0.500641 7:-1 8:-0.738605 9:-0.405179 10:-0.0375001 
-1 1:0.262479 2:0.17647 3:0.462395 4:-0.399658 5:0.382912 6:-0.75018 7:-1 8:-0.663803 9:-0.497237 10:-0.175 
-1 1:0.32713 2:0.221719 3:0.494162 4:-0.400411 5:0.381267 6:-0.251616 7:-1 8:-0.664244 9:-0.41193 10:-0.0375001 
-1 1:0.392304 2:0.425339 3:0.499367 4:-0.400043 5:0.382089 6:-0.500912 7:-1 8:-0.664031 9:-0.0465125 10:-0.0375001 
-1 1:0.261842 2:-0.0109893 3:0.450187 4:-0.321049 5:0.580082 6:-0.00117122 7:-1 8:-0.663888 9:-0.506528 10:-0.0571439 
-1 1:0.392364 2:0.425339 3:0.497323 4:-0.525607 5:0.0757936 6:-0.500483 7:-1 8:-0.738457 9:-0.284503 10:-0.0375001 
-1 1:0.327103 2:0.221719 3:0.479019 4:-0.273122 5:0.537614 6:-0.250247 7:-1 8:-0.588796 9:-0.529242 10:0.0999999 
-1 1:0.261871 2:-0.0109893 3:0.435082 4:-0.392127 5:0.404134 6:-0.251094 7:-1 8:-0.701338 9:0.0868183 10:-0.0571439 
-1 1:0.261901 2:-0.0109893 3:0.428811 4:-0.321819 5:0.403142 6:-0.251569 7:-1 8:-0.664296 9:-0.252249 10:0.0999999 
-1 1:0.39235 2:0.425339 3:0.503049 4:-0.46277 5:0.229058 6:-0.500513 7:-1 8:-0.70121 9:-0.39834 10:-0.0375001 
-1 1:0.392331 2:0.425339 3:0.513076 4:-0.462853 5:0.22884 6:-0.500679 7:-1 8:-0.701261 9:-0.0586482 10:-0.0375001 
-1 1:0.26184 2:-0.0109893 3:0.453526 4:-0.320859 5:0.58053 6:-0.250671 7:-1 8:-0.663785 9:-0.0806142 10:-0.0571439 
-1 1:0.327085 2:0.221719 3:0.469621 4:-0.462502 5:0.229614 6:-0.500353 7:-1 8:-0.701052 9:-0.575418 10:-0.0375001 
-1 1:0.316219 2:0.221719 3:0.541667 4:-0.39949 5:0.383251 6:-0.250545 7:-1 8:-0.663704 9:-0.398692 10:-0.0375001 
-1 1:0.392341 2:0.425339 3:0.510059 4:-0.52582 5:0.0753507 6:-0.500716 7:-1 8:-0.738583 9:-0.270031 10:-0.0375001 
-1 1:0.327091 2:0.221719 3:0.474551 4:-0.46277 5:0.229046 6:-0.500569 7:-1 8:-0.701212 9:-0.504634 10:-0.0375001 
-1 1:0.392275 2:0.425339 3:0.517701 4:-0.463384 5:0.227715 6:-0.501215 7:-1 8:-0.701576 9:-0.216901 10:-0.0375001 
-1 1:0.327092 2:0.221719 3:0.477438 4:-0.272798 5:0.538243 6:-0.249839 7:-1 8:-0.588605 9:-0.544007 10:0.0999999 
-1 1:0.19649 2:0.0180994 3:0.449637 4:-0.273233 5:0.0761263 6:-1 7:-1 8:-0.588862 9:-0.548504 10:-0.0375001 
-1 1:0.327122 2:0.425339 3:0.515843 4:-0.525307 5:-0.384863 6:-0.500051 7:-1 8:-0.738279 9:-0.68488 10:-0.0375001 
-1 1:0.196447 2:0.221719 3:0.506185 4:-0.462088 5:-0.384762 6:-0.249817 7:-1 8:-0.700806 9:-0.735574 10:-0.0375001 
-1 1:0.327171 2:0.0180994 3:0.624727 4:-0.462167 5:-0.538635 6:-0.249904 7:-1 8:-0.700854 9:-0.566757 10:-0.175 
-1 1:0.196487 2:0.0180994 3:0.479342 4:-0.399194 5:-0.538743 6:-0.25006 7:-1 8:-0.663527 9:-0.709491 10:-0.175 
-1 1:0.261762 2:0.0180994 3:0.446749 4:-0.462396 5:-0.53878 6:-0.500291 7:-1 8:-0.700987 9:-0.845557 10:-0.3125 
-1 1:0.327073 2:0.402715 3:0.440184 4:-0.463026 5:0.228489 6:-0.500806 7:-1 8:-0.664031 9:-0.589198 10:-0.0222233 
-1 1:0.261849 2:0.221719 3:0.470513 4:-0.349146 5:0.502623 6:-0.25054 7:-1 8:-0.589028 9:-0.5943 10:-0.0222233 
-1 1:0.26221 2:0.348416 3:0.502232 4:-0.518816 5:0.0939086 6:-0.750073 7:-1 8:-0.700775 9:-0.833865 10:-0.144444 
-1 1:0.489886 2:0.266968 3:0.492136 4:-0.377556 5:0.0927979 6:-0.750313 7:-1 8:-0.607739 9:-0.406644 10:-0.144444 
-1 1:0.261835 2:0.0407236 3:0.554935 4:-0.462027 5:0.0939026 6:-0.249876 7:-1 8:-0.663373 9:-0.565495 10:-0.144444 
-1 1:0.327122 2:0.221719 3:0.491865 4:-0.329914 5:0.230001 6:-0.500206 7:-1 8:-0.576361 9:-0.543359 10:-0.0222233 
-0.0597790874073723 1:0.392328 2:0.402715 3:0.489182 4:-0.519568 5:-0.0441999 6:-0.500701 7:-1 8:-0.70127 9:-0.602681 10:-0.144444 
-1 1:0.261734 2:0.0407236 3:0.346014 4:-0.348772 5:0.503433 6:-0.500275 7:-1 8:-0.588781 9:-0.530625 10:-0.144444 
-1 1:0.337815 2:0.0407236 3:-0.610301 4:-0.273317 5:0.366397 6:-0.250305 7:-1 8:-0.539086 9:-0.51294 10:0.0999999 
-1 1:0.392403 2:0.402715 3:0.53525 4:-0.575938 5:-0.180197 6:-0.500231 7:-1 8:-0.738396 9:-0.415238 10:-0.0222233 
-1 1:0.327028 2:0.221719 3:0.336137 4:-0.462909 5:-0.45392 6:-0.500793 7:-1 8:-0.663954 9:-0.726898 10:-0.0222233 
-1 1:0.392425 2:0.402715 3:0.517146 4:-0.519058 5:-0.0432525 6:-0.500064 7:-1 8:-0.700934 9:-0.501953 10:-0.0222233 
-1 1:0.142009 2:0.0407236 3:0.480925 4:-0.235282 5:0.640083 6:-0.250234 7:-1 8:-0.514036 9:-0.566605 10:0.0999999 
-1 1:0.327117 2:0.221719 3:0.492938 4:-0.462334 5:0.0933097 6:-0.250152 7:-1 8:-0.663575 9:-0.704171 10:-0.0222233 
-1 1:0.261858 2:0.221719 3:0.493845 4:-0.519295 5:0.0928608 6:-0.750222 7:-1 8:-0.70109 9:-0.636528 10:-0.266667 
-1 1:0.327089 2:0.221719 3:0.456535 4:-0.5435 5:0.0248919 6:-0.250379 7:-1 8:-0.813126 9:-0.449548 10:-0.0833327 
-1 1:0.392383 2:0.402715 3:0.491837 4:-0.575963 5:-0.18021 6:-0.500396 7:-1 8:-0.738412 9:-0.653392 10:-0.0222233 
-1 1:0.414132 2:0.221719 3:0.477544 4:-0.33045 5:0.229046 6:-0.500595 7:-1 8:-0.576714 9:-0.796058 10:-0.0222233 
-1 1:0.392385 2:0.402715 3:0.493365 4:-0.57595 5:-0.180245 6:-0.500297 7:-1 8:-0.738404 9:-0.691879 10:-0.144444 
-1 1:0.392398 2:0.402715 3:0.498481 4:-0.519096 5:-0.0433263 6:-0.500228 7:-1 8:-0.700959 9:-0.467746 10:-0.144444 
-1 1:0.262081 2:0.348416 3:0.435168 4:-0.632507 5:-0.179855 6:-0.750062 7:-1 8:-0.775653 9:-0.631946 10:-0.144444 
-1 1:0.197327 2:0.20362 3:0.186254 4:-0.463423 5:-0.317764 6:-0.750629 7:-1 8:-0.664292 9:-0.929832 10:-0.0222233 
-1 1:0.262667 2:0.20362 3:0.396651 4:-0.463657 5:-0.181794 6:-1 7:-1 8:-0.664446 9:-0.566309 10:-0.0222233 
-1 1:0.261845 2:0.0407236 3:0.473517 4:-0.519293 5:0.0928862 6:-1 7:-1 8:-0.701089 9:-0.824664 10:-0.266667 
-1 1:0.196643 2:0.0407236 3:0.424099 4:-0.406547 5:0.36457 6:-0.750543 7:-1 8:-0.626833 9:-0.681645 10:-0.266667 
-1 1:0.327071 2:0.402715 3:0.44893 4:-0.518991 5:0.0935142 6:-0.500144 7:-1 8:-0.70089 9:-0.7841 10:-0.0222233 
-1 1:0.196881 2:0.076923 3:0.409181 4:-0.462256 5:-0.453193 6:-0.750146 7:-1 8:-0.663524 9:-0.705541 10:0.222223 
-1 1:0.392404 2:0.402715 3:0.482738 4:-0.519043 5:-0.0432404 6:-0.750129 7:-1 8:-0.700924 9:-0.782238 10:-0.144444 
-1 1:0.327094 2:0.402715 3:0.475689 4:-0.462474 5:0.229675 6:-0.500409 7:-1 8:-0.663667 9:-0.79141 10:-0.0222233 
-1 1:0.39241 2:0.402715 3:0.481349 4:-0.518979 5:-0.0431146 6:-0.500147 7:-1 8:-0.700883 9:-0.842367 10:-0.0222233 
-1 1:0.327094 2:-0.140271 3:0.475689 4:-0.462557 5:-0.453577 6:-0.500371 7:-1 8:-0.663722 9:-0.701966 10:0.0999999 
-1 1:0.261768 2:0.221719 3:0.467436 4:-0.462222 5:0.230219 6:-0.500116 7:-1 8:-0.663502 9:-0.815008 10:-0.144444 
-1 1:0.327086 2:0.221719 3:0.470035 4:-0.57592 5:-0.0435102 6:-1 7:-1 8:-0.738384 9:-0.753995 10:-0.266667 
-1 1:0.468506 2:0.0407236 3:0.49121 4:-0.283187 5:-0.180618 6:-0.750319 7:-1 8:-0.545586 9:-0.660519 10:0.344444 
-1 1:0.131099 2:0.0407236 3:0.441362 4:-0.462155 5:0.230364 6:-0.750059 7:-1 8:-0.663457 9:-0.759378 10:-0.144444 
-1 1:0.392397 2:0.402715 3:0.502123 4:-0.519185 5:-0.0435332 6:-0.500303 7:-1 8:-0.701018 9:-0.592871 10:-0.0222233 
-1 1:0.262081 2:0.149321 3:0.452109 4:-0.689376 5:-0.316744 6:-1 7:-1 8:-0.813108 9:-0.867985 10:-0.388888 
-1 1:0.261776 2:0.221719 3:0.457217 4:-0.57583 5:-0.316604 6:-0.500262 7:-1 8:-0.738325 9:-0.765246 10:-0.266667 
-1 1:0.327595 2:0.20362 3:0.46837 4:-0.405788 5:0.229614 6:-0.250761 7:-1 8:-0.626333 9:-0.803332 10:-0.0222233 
-1 1:0.261669 2:0.0407236 3:-0.849213 4:-0.632486 5:-0.179793 6:-1 7:-1 8:-0.775639 9:-0.761114 10:-0.266667 
-1 1:0.392418 2:0.402715 3:0.50271 4:-0.519036 5:-0.0432271 6:-0.500138 7:-1 8:-0.70092 9:-0.624911 10:-0.144444 
-1 1:0.24002 2:0.221719 3:0.475689 4:-0.307762 5:-0.385241 6:-0.500341 7:-1 8:-0.514216 9:-0.796809 10:-0.0100001 
-1 1:0.197109 2:0.192102 3:0.441776 4:-0.410957 5:0.106641 6:-0.500252 7:-1 8:-0.588976 9:-0.790185 10:-0.12 
-1 1:0.239436 2:0.0588233 3:0.496777 4:-0.359775 5:0.22884 6:-0.500644 7:-1 8:-0.551899 9:-0.456127 10:-0.0100001 
-1 1:0.327093 2:0.221719 3:0.474889 4:-0.462647 5:-0.139471 6:-0.75023 7:-1 8:-0.626425 9:-0.787546 10:-0.12 
-1 1:0.39238 2:0.384615 3:0.486378 4:-0.565639 5:-0.262212 6:-0.500308 7:-1 8:-0.70104 9:-0.680671 10:-0.12 
-1 1:0.327092 2:0.221719 3:0.475257 4:-0.515292 5:-0.509305 6:-0.750816 7:-1 8:-0.664564 9:-0.660884 10:-0.12 
-1 1:0.261837 2:0.221719 3:0.465134 4:-0.514324 5:-0.13968 6:-0.750309 7:-1 8:-0.663866 9:-0.787976 10:-0.12 
-1 1:0.327081 2:0.384615 3:0.465778 4:-0.462747 5:-0.0167079 6:-0.500582 7:-1 8:-0.626498 9:-0.672891 10:-0.0100001 
-1 1:0.327069 2:0.221719 3:0.465402 4:-0.30851 5:0.228477 6:-0.500865 7:-1 8:-0.514756 9:-0.66971 10:-0.12 
-1 1:0.327054 2:0.221719 3:0.405126 4:-0.566065 5:-0.140034 6:-0.750377 7:-1 8:-0.701349 9:-0.696764 10:-0.34 
-1 1:0.392249 2:0.384615 3:0.489798 4:-0.566532 5:-0.263516 6:-0.501454 7:-1 8:-0.701687 9:-0.700164 10:-0.12 
-1 1:0.392288 2:0.384615 3:0.499499 4:-0.566424 5:-0.140711 6:-0.750573 7:-1 8:-0.701609 9:-0.745233 10:-0.34 
-1 1:0.262584 2:0.16742 3:0.457644 4:-0.633763 5:-0.591274 6:-1 7:-1 8:-0.776481 9:-0.899375 10:-0.266667 
-1 1:0.261794 2:0.369806 3:0.444465 4:-0.202747 5:0.340988 6:-0.750338 7:-1 8:-0.38366 9:-0.837256 10:-0.200001 
-1 1:-0.555262 2:-0.666803 3:0.369686 4:-0.21753 5:-0.104998 6:-1 7:-1 8:-0.395345 9:-0.68735 10:0.200001 
-1 1:-0.761962 2:-0.222543 3:0.263464 4:-0.272882 5:-0.2169 6:-1 7:-1 8:-0.439091 9:-0.499396 10:-0.400001 
-1 1:0.327072 2:0.221719 3:0.452869 4:-0.746154 5:-0.888223 6:-1 7:-1 8:-0.813135 9:-0.858931 10:-0.6 
-1 1:0.555851 2:0.384615 3:0.524695 4:-0.195355 5:-0.753859 6:-0.249849 7:1 8:-0.432778 9:-0.779648 10:-0.12 
-1 1:0.131057 2:-0.0744552 3:0.435285 4:-0.367524 5:-0.328942 6:-1 7:-1 8:-0.513889 9:-0.657664 10:0.0999999 
-1 1:0.327089 2:0.221719 3:0.47413 4:-0.1782 5:-0.105103 6:-0.749994 7:-1 8:-0.364261 9:-0.732539 10:0.3 
-1 1:-0.26114 2:-0.518718 3:0.363532 4:-0.32006 5:-0.32871 6:-1 7:-1 8:-0.476378 9:-0.645066 10:0.0999999 
-1 1:0.262203 2:0.221719 3:0.465459 4:-0.41482 5:-0.440732 6:-0.750021 7:-1 8:-0.551271 9:-0.694369 10:0.0999999 
-1 1:0.13109 2:-0.0744552 3:0.435204 4:-0.556729 5:-0.440709 6:-1 7:-1 8:-0.663424 9:-0.656613 10:-0.200001 
-1 1:0.327094 2:0.0736322 3:0.475689 4:-0.509478 5:-0.552643 6:-1 7:-1 8:-0.626083 9:-0.780193 10:-1.1e-006 
-1 1:-0.238822 2:-0.370629 3:0.400534 4:-0.0841826 5:0.117974 6:-0.500274 7:-1 8:-0.289956 9:-0.55093 10:0.499999 
-1 1:-0.304539 2:-0.370629 3:0.378349 4:0.176465 5:0.230401 6:-0.500064 7:-1 8:-0.0839558 9:-0.522701 10:0.6 
-1 1:0.262442 2:0.209379 3:0.47084 4:-0.415401 5:-0.329408 6:-0.500521 7:-1 8:-0.55173 9:-0.669859 10:-1.1e-006 
-1 1:0.327094 2:0.369806 3:0.475689 4:-0.510256 5:-0.553254 6:-0.750406 7:-1 8:-0.626697 9:-0.460971 10:-0.0999999 
-1 1:0.327094 2:0.369806 3:0.475689 4:-0.415496 5:-0.329465 6:-0.750111 7:-1 8:-0.551804 9:-0.538993 10:0.0999999 
-1 1:0.261834 2:0.221719 3:0.466505 4:-0.415462 5:-0.329495 6:-0.500518 7:-1 8:-0.551778 9:-0.685567 10:-0.0999999 
-1 1:0.196458 2:0.0736322 3:0.436389 4:-0.556995 5:-0.776362 6:-1 7:-1 8:-0.663634 9:-0.812029 10:-0.3 
-1 1:0.196508 2:0.0736322 3:0.441736 4:-0.462574 5:-0.441094 6:-0.750141 7:-1 8:-0.589013 9:-0.726294 10:-1.1e-006 
-1 1:0.0333751 2:0.0736322 3:0.454649 4:-0.510009 5:-0.552997 6:-0.500606 7:-1 8:-0.626502 9:-0.70246 10:0.0999999 
-1 1:0.261774 2:0.221719 3:0.430408 4:-0.557077 5:-0.105757 6:-0.750188 7:-1 8:-0.6637 9:-0.735721 10:-0.3 
-1 1:0.327094 2:0.369806 3:0.475689 4:-0.557134 5:-0.552933 6:-0.500426 7:-1 8:-0.663744 9:-0.560545 10:-1.1e-006 
