svm_type c_svc
kernel_type rbf
gamma 0.0909091
nr_class 2
total_sv 2112
rho -0.277439
label 1 -1
probA -1.94896
probB 0.172004
nr_sv 1054 1058
SV
1 1:-0.020014 2:0.135393 3:0.118742 4:0.54642 5:0.129075 6:0.285713 7:-0.12632 8:-0.381954 9:-0.329657 10:0.294389 11:-0.152577 
1 1:-0.137039 2:0.0929931 3:0.0334015 4:0.53201 5:0.158323 6:0.285713 7:-0.64763 8:-0.645457 9:-0.435929 10:-0.724541 11:-0.373712 
1 1:0.0685479 2:0.16655 3:0.195738 4:0.575691 5:0.223376 6:0.285713 7:0.00270107 8:-0.405363 9:0.216553 10:0.112745 11:0.169072 
1 1:0.019562 2:0.174746 3:0.0193969 4:0.377554 5:0.0933172 6:0.285713 7:-0.123946 8:-0.444467 9:-0.129385 10:-0.382861 11:0.128865 
1 1:-0.310771 2:0.0699194 3:-0.0864798 4:0.401632 5:0.24562 6:0.285713 7:-0.370835 8:-0.617018 9:-0.236647 10:-0.415968 11:0.169072 
1 1:-0.132766 2:0.0626248 3:0.0807251 4:0.493598 5:0.125445 6:0.26948 7:-0.442683 8:-0.591011 9:-0.395745 10:-0.0900027 11:-0.181819 
1 1:-0.263784 2:-0.0752113 3:0.0112246 4:0.437829 5:0.16603 6:0.419642 7:-0.128972 8:-0.349617 9:-0.331871 10:-0.408669 11:-0.0721649 
1 1:0.0143979 2:0.192018 3:0.152068 4:0.554677 5:0.00979626 6:0.0336128 7:0.0112678 8:-0.05947 9:-0.322894 10:0.404956 11:-0.143118 
1 1:-0.0694662 2:0.160023 3:0.0455282 4:0.555358 5:0.182597 6:0.285713 7:-0.258599 8:-0.417071 9:-0.267621 10:0.199721 11:0.128865 
1 1:-0.107421 2:0.160969 3:-0.263189 4:-0.295834 5:0.334592 6:0.285713 7:-0.453989 8:-0.426936 9:-0.337537 10:-0.291876 11:0.651547 
1 1:0.0380723 2:0.18003 3:0.175671 4:0.497752 5:0.138905 6:0.209183 7:-0.409646 8:-0.578347 9:-0.0830236 10:-0.159272 11:0.229382 
1 1:-0.0597679 2:0.0614756 3:0.0831462 4:0.529736 5:0.148614 6:0.285713 7:-0.318333 8:-0.471152 9:-0.257448 10:-0.348513 11:0.256796 
1 1:0.0936958 2:0.0854782 3:0.141339 4:0.539974 5:0.254338 6:0.285713 7:-0.169728 8:-0.618943 9:0.272747 10:-0.153946 11:0.229382 
1 1:0.078716 2:0.136727 3:0.21369 4:0.554613 5:0.21658 6:0.285713 7:-0.504682 8:-0.86882 9:-0.223953 10:-0.458406 11:-0.222938 
1 1:-0.144152 2:-0.0406952 3:0.056858 4:0.479484 5:0.129782 6:0.285713 7:0.211548 8:-0.418855 9:-0.227693 10:-0.253856 11:-0.206187 
1 1:0.00865903 2:0.18367 3:0.28409 4:0.528128 5:0.21658 6:0.285713 7:-0.474176 8:-0.451445 9:-0.178713 10:-0.0027302 11:0.380155 
1 1:0.0280484 2:0.138082 3:0.112495 4:0.552695 5:0.132401 6:0.285713 7:0.160482 8:0.0847034 9:-0.212264 10:0.414123 11:0.353549 
1 1:0.115299 2:0.133694 3:0.255046 4:0.548331 5:0.135544 6:0.285713 7:-0.036156 8:-0.167557 9:-0.0392582 10:0.437715 11:0.128865 
1 1:-0.00091644 2:0.163973 3:0.129892 4:0.620726 5:0.250563 6:0.285713 7:-0.271264 8:-0.397974 9:-0.00873076 10:-0.472081 11:0.463918 
1 1:0.255496 2:0.0964779 3:0.0630857 4:0.521965 5:0.146402 6:0.285713 7:0.291925 8:0.170155 9:0.297558 10:-0.20011 11:0.229382 
1 1:0.306363 2:0.136727 3:0.242868 4:0.554677 5:0.273929 6:0.285713 7:0.193526 8:-0.540851 9:0.448078 10:0.264283 11:0.289691 
1 1:0.137852 2:0.136727 3:0.162438 4:0.526173 5:0.0930314 6:0.262079 7:0.279929 8:0.266084 9:-0.123701 10:0.120162 11:0.140691 
1 1:-0.227192 2:0.142609 3:0.0457879 4:0.485571 5:0.0414382 6:0.285713 7:-0.492359 8:-0.647141 9:-0.507603 10:-0.667957 11:-0.0721649 
1 1:-0.0964718 2:0.203635 3:0.089699 4:0.554878 5:0.151677 6:0.285713 7:-0.168279 8:-0.222945 9:-0.309837 10:-0.155512 11:0.100148 
1 1:-0.380546 2:0.0190458 3:-0.341209 4:-0.276825 5:0.244214 6:0.244505 7:-0.608059 8:-0.704229 9:-0.666426 10:-0.473378 11:0.206187 
1 1:-0.11053 2:0.15618 3:0.148204 4:0.554677 5:0.109998 6:0.285713 7:-0.365063 8:-0.609394 9:-0.309419 10:0.126468 11:0.147142 
1 1:-0.160155 2:0.176297 3:0.31415 4:0.730554 5:0.055162 6:0.132652 7:-0.584533 8:-0.714436 9:-0.236791 10:-0.242162 11:0.444773 
1 1:-0.139406 2:0.0340006 3:0.0939807 4:0.4855 5:0.0874455 6:0.0476181 7:-0.358096 8:-0.57683 9:-0.124617 10:-0.0938273 11:0.0618569 
1 1:0.153255 2:0.166922 3:0.255294 4:0.563128 5:0.145525 6:0.285713 7:0.195251 8:-0.273591 9:0.313745 10:0.309014 11:0.147142 
1 1:-0.0624069 2:0.106436 3:0.047682 4:0.364987 5:0.162207 6:0.285713 7:-0.347463 8:-0.223613 9:-0.514119 10:-0.451489 11:0.169072 
1 1:-0.02442 2:0.164086 3:0.138366 4:0.526148 5:0.120299 6:0.285713 7:-0.233223 8:-0.485044 9:-0.241568 10:-0.210167 11:-0.172681 
1 1:-0.212482 2:0.167656 3:0.0404429 4:0.529658 5:0.0715465 6:0.285713 7:-0.743314 8:-0.801487 9:-0.501677 10:-0.39814 11:0.100148 
1 1:0.0485518 2:0.173924 3:0.226646 4:0.595859 5:0.0593631 6:0.285713 7:0.119516 8:-0.261935 9:0.0271644 10:0.108681 11:-0.0721649 
1 1:-0.0938079 2:0.186607 3:0.145042 4:0.554677 5:0.0884912 6:0.285713 7:-0.308229 8:-0.450825 9:-0.318573 10:-0.159622 11:0.0283514 
1 1:-0.0376114 2:0.204611 3:0.232975 4:0.568723 5:0.240853 6:-0.020409 7:-0.59265 8:-0.648416 9:-0.250331 10:-0.433629 11:0.617084 
1 1:-0.0931352 2:0.13192 3:0.13229 4:0.547679 5:0.164061 6:0.285713 7:-0.418781 8:-0.460477 9:-0.294818 10:-0.0251118 11:0.289691 
1 1:0.0724878 2:0.071772 3:0.0881091 4:0.511247 5:0.182597 6:0.285713 7:-0.0806558 8:-0.259958 9:0.00688879 10:-0.392632 11:0.366448 
1 1:-0.107558 2:0.18324 3:-0.0323924 4:0.349109 5:0.322303 6:0.285713 7:-0.609278 8:-0.669287 9:-0.37906 10:-0.659043 11:0.0786084 
1 1:0.00178305 2:0.102578 3:0.140459 4:0.522148 5:0.11986 6:0.285713 7:-0.168428 8:-0.266066 9:-0.175052 10:0.208738 11:0.0283514 
1 1:-0.268913 2:0.0970659 3:0.0469725 4:0.400135 5:-0.0486065 6:-0.020409 7:-0.613673 8:-0.798066 9:-0.285403 10:-0.537977 11:0.272459 
1 1:-0.151456 2:0.136727 3:0.0614597 4:0.523166 5:0.153469 6:0.285713 7:-0.64953 8:-0.820031 9:-0.345221 10:-0.630155 11:-0.244478 
1 1:0.063891 2:0.0859156 3:0.242996 4:0.527712 5:0.0902069 6:0.285713 7:-0.021403 8:-0.106907 9:-0.242145 10:0.392678 11:-0.0721649 
1 1:-0.00921245 2:0.136727 3:0.261222 4:0.554677 5:0.318528 6:0.285713 7:-0.656709 8:-0.621229 9:-0.449395 10:0.218445 11:0.229382 
1 1:-0.103076 2:0.177103 3:0.325617 4:0.512377 5:0.413679 6:0.285713 7:-0.72455 8:-0.826581 9:-0.231521 10:-0.366272 11:0.41031 
1 1:-0.0847058 2:0.0552593 3:0.176036 4:0.51687 5:0.277263 6:0.285713 7:-0.460726 8:-0.65434 9:-0.030253 10:-0.160452 11:0.272459 
1 1:-0.150526 2:0.0995536 3:0.160291 4:0.418341 5:-0.00276297 6:0.285713 7:-0.519861 8:-0.66994 9:-0.481583 10:-0.29795 11:-0.839739 
1 1:-0.00277245 2:0.150225 3:0.177058 4:0.56684 5:0.0660848 6:-0.020409 7:-0.570742 8:-0.755979 9:-0.213785 10:-0.153778 11:-0.0721649 
1 1:-0.0507032 2:0.0526192 3:0.143275 4:0.570703 5:0.0553778 6:0.285713 7:0.0653904 8:0.137863 9:-0.479327 10:0.114856 11:-0.181819 
1 1:-0.102188 2:0.107636 3:0.0849086 4:0.537717 5:0.0474528 6:0.285713 7:-0.244731 8:-0.430548 9:-0.0836469 10:-0.384358 11:0.169072 
1 1:0.221816 2:0.0957252 3:0.157663 4:0.536927 5:0.131623 6:0.196428 7:-0.0411609 8:-0.142265 9:0.298367 10:-0.160478 11:0.329898 
1 1:-0.438018 2:-0.0117032 3:-0.830657 4:-0.86103 5:-0.0922984 6:0.0178564 7:-0.710055 8:-0.756592 9:-0.446194 10:-0.503172 11:-0.0721649 
1 1:-0.0840456 2:0.198736 3:0.0959603 4:0.561986 5:0.151228 6:0.285713 7:-0.343824 8:-0.437034 9:-0.355119 10:-0.353246 11:0.229382 
1 1:-0.0903325 2:0.146927 3:0.0195318 4:0.494624 5:0.209221 6:0.285713 7:-0.428763 8:-0.483014 9:-0.30693 10:-0.709811 11:0.41031 
1 1:-0.0089473 2:0.0841739 3:0.105327 4:0.391883 5:0.197161 6:0.285713 7:-0.593048 8:-0.685092 9:-0.250997 10:-0.0100964 11:-0.0721649 
1 1:-0.198214 2:0.0563659 3:0.130666 4:0.576928 5:0.100068 6:0.209183 7:-0.659919 8:-0.672986 9:-0.454153 10:-0.43608 11:0.229382 
1 1:0.0151524 2:0.0782146 3:0.240862 4:0.531394 5:0.0713811 6:0.285713 7:-0.0979601 8:-0.497774 9:-0.0123542 10:-0.0943217 11:-0.0721649 
1 1:-0.0700997 2:0.214864 3:0.124527 4:0.554459 5:0.153469 6:-0.0714291 7:-0.623669 8:-0.743197 9:-0.175671 10:0.14198 11:0.329898 
1 1:-0.257187 2:0.00252354 3:0.246846 4:0.599117 5:0.153469 6:0.285713 7:-0.788835 8:-0.93095 9:-0.577621 10:0.132493 11:0.100148 
1 1:-0.0963953 2:0.09729 3:0.145226 4:0.538148 5:0.0800313 6:0.238094 7:-0.221917 8:-0.497622 9:-0.0559708 10:-0.281426 11:0.169072 
1 1:0.279037 2:0.110852 3:0.125453 4:0.47812 5:0.124341 6:0.271977 7:0.246327 8:0.253286 9:0.148051 10:-0.068364 11:0.0206198 
1 1:-0.140098 2:0.166745 3:0.151569 4:0.507841 5:0.223376 6:0.285713 7:-0.74282 8:-0.836031 9:-0.272156 10:-0.530491 11:0.169072 
1 1:-0.174266 2:-0.0743862 3:0.122091 4:0.554329 5:0.169004 6:0.285713 7:-0.455045 8:-0.682521 9:-0.254006 10:-0.00800362 11:0.0618569 
1 1:-0.27462 2:0.133518 3:0.0537827 4:0.550304 5:0.11216 6:0.285713 7:-0.83448 8:-0.832943 9:-0.799178 10:-0.58587 11:-0.434021 
1 1:-0.105405 2:0.101863 3:0.0962175 4:0.534873 5:0.126989 6:0.285713 7:-0.350903 8:-0.552303 9:-0.293669 10:-0.14216 11:0.147142 
1 1:0.185895 2:0.101474 3:0.145618 4:0.532188 5:0.182816 6:0.285713 7:-0.126964 8:-0.0480928 9:-0.132482 10:-0.0206249 11:-0.0721649 
1 1:-0.114082 2:0.21465 3:0.0657763 4:0.385663 5:0.156646 6:0.285713 7:-0.49957 8:-0.754613 9:-0.392838 10:-0.422859 11:-0.0721649 
1 1:-0.0261782 2:0.0770652 3:0.157507 4:0.521118 5:0.21658 6:0.285713 7:-0.557073 8:-0.677648 9:-0.301641 10:0.164469 11:0.0786084 
1 1:0.020288 2:0.163847 3:0.120403 4:0.546213 5:0.0859759 6:0.267856 7:-0.101003 8:-0.00336889 9:-0.360208 10:-0.0334577 11:0.0786084 
1 1:0.0915871 2:0.15107 3:0.144887 4:0.538546 5:0.090844 6:0.285713 7:0.290538 8:0.175947 9:0.0180569 10:0.313498 11:0.0886608 
1 1:0.102892 2:0.124739 3:0.170679 4:0.547698 5:0.292097 6:0.285713 7:-0.322421 8:-0.618698 9:0.0463191 10:0.242621 11:0.229382 
1 1:-0.383481 2:0.0452289 3:-0.357774 4:0.214757 5:0.39193 6:0.333332 7:-0.763571 8:-0.738943 9:-0.665766 10:-0.967901 11:0.195876 
1 1:-0.106086 2:0.144281 3:0.186063 4:0.458255 5:0.197089 6:0.285713 7:-0.299115 8:-0.717128 9:-0.149632 10:-0.236451 11:0.0484537 
1 1:0.0388233 2:0.0268769 3:0.0819318 4:0.2752 5:0.386493 6:0.523809 7:-0.359403 8:-0.400127 9:-0.126361 10:-0.213626 11:0.463918 
1 1:-0.0981588 2:0.17885 3:0.0831087 4:0.487541 5:0.203155 6:0.285713 7:-0.333846 8:-0.538634 9:-0.19177 10:-0.303598 11:0.169072 
1 1:-0.259229 2:0.108458 3:0.184453 4:0.523657 5:0.0660848 6:-0.0714291 7:-0.826611 8:-0.843212 9:-0.640639 10:-0.286053 11:-0.0721649 
1 1:-0.128028 2:0.136727 3:0.0717448 4:0.554677 5:0.33916 6:0.285713 7:-0.618929 8:-0.743839 9:-0.294176 10:-0.700713 11:0.100148 
1 1:0.172241 2:0.117551 3:0.21131 4:0.542681 5:0.151228 6:0.285713 7:-0.0427153 8:-0.363036 9:-0.0459935 10:0.458001 11:0.0283514 
1 1:0.015293 2:0.178707 3:0.284929 4:0.592262 5:0.240853 6:0.285713 7:-0.605546 8:-0.782486 9:-0.271844 10:0.311474 11:0.100148 
1 1:-0.0115471 2:0.128638 3:0.020155 4:0.443319 5:0.0441698 6:0.285713 7:0.482492 8:0.166461 9:-0.146855 10:-0.27437 11:-0.49433 
1 1:0.0722315 2:0.136727 3:0.0788813 4:0.546885 5:0.0952129 6:0.285713 7:0.299303 8:0.269272 9:-0.263276 10:-0.0455914 11:-0.0118556 
1 1:-0.0200869 2:0.107589 3:0.12003 4:0.543727 5:0.19619 6:0.285713 7:-0.418907 8:-0.567424 9:-0.205775 10:0.180779 11:0.329898 
1 1:0.0865796 2:0.11348 3:0.0840587 4:0.550985 5:0.201133 6:0.285713 7:-0.0179177 8:-0.355788 9:0.0766698 10:-0.502834 11:0.256796 
1 1:-0.225797 2:0.104075 3:0.170783 4:0.534681 5:0.153469 6:0.285713 7:-0.58087 8:-0.72194 9:-0.230679 10:0.325379 11:0.272459 
1 1:-0.0968295 2:0.0846821 3:0.130349 4:0.513299 5:0.112593 6:0.196428 7:-0.276241 8:-0.419956 9:-0.015373 10:0.0269877 11:0.329898 
1 1:-0.0817892 2:0.183413 3:0.126893 4:0.326929 5:-0.101193 6:-0.0714291 7:-0.651624 8:-0.752328 9:-0.228972 10:-0.520046 11:0.329898 
1 1:-0.214162 2:0.113523 3:0.11824 4:0.551047 5:0.100068 6:0.247448 7:-0.656967 8:-0.704439 9:-0.449776 10:-0.446174 11:0.0786084 
1 1:-0.139678 2:0.136727 3:0.0629472 4:0.523358 5:0.0813154 6:0.285713 7:-0.0820464 8:-0.561597 9:-0.392084 10:-0.401402 11:-0.21407 
1 1:0.0622663 2:0.171661 3:0.0990974 4:0.554677 5:0.0749616 6:0.285713 7:-0.00448552 8:0.0756932 9:-0.419811 10:0.103382 11:-0.453067 
1 1:-0.327705 2:0.126793 3:0.120986 4:0.498013 5:0.0466664 6:0.285713 7:-0.668399 8:-0.927075 9:-0.466726 10:-0.625749 11:-0.0721649 
1 1:-0.256234 2:-0.0513012 3:0.0171171 4:0.473001 5:0.165487 6:0.26948 7:-0.218881 8:-0.668029 9:-0.226851 10:-0.312616 11:0.0283514 
1 1:-0.141098 2:0.181715 3:0.117051 4:0.491593 5:0.197161 6:0.285713 7:-0.666876 8:-0.672537 9:-0.374162 10:-0.509894 11:0.100148 
1 1:-0.0191847 2:0.0966246 3:0.14928 4:0.48449 5:0.284545 6:0.285713 7:-0.453376 8:-0.646778 9:-0.147874 10:-0.0304197 11:0.229382 
1 1:-0.174912 2:0.0587755 3:0.0533855 4:0.501463 5:0.114014 6:0.285713 7:-0.403512 8:-0.593625 9:-0.352179 10:-0.162138 11:-0.181819 
1 1:-0.0755645 2:0.130031 3:0.0600223 4:0.536407 5:0.0789195 6:0.267856 7:-0.0457266 8:-0.194465 9:-0.26243 10:-0.00863147 11:-0.232991 
1 1:-0.0998955 2:0.0674309 3:0.0817166 4:0.530325 5:0.111233 6:0.285713 7:-0.00325523 8:-0.545457 9:-0.227004 10:-0.358188 11:-0.0721649 
1 1:-0.0937367 2:0.215489 3:0.151634 4:0.582225 5:0.221435 6:0.170918 7:-0.463459 8:-0.680842 9:-0.162819 10:-0.574132 11:0.380155 
1 1:0.019425 2:0.113528 3:0.149348 4:0.541224 5:0.156646 6:0.285713 7:-0.330507 8:-0.419481 9:-0.187718 10:0.369397 11:0.0484537 
1 1:0.0156346 2:0.182799 3:0.0920483 4:0.47462 5:0.148614 6:0.285713 7:-0.0810148 8:-0.260429 9:0.00649342 10:-0.20781 11:0.147142 
1 1:-0.422479 2:0.0466505 3:-0.212711 4:-0.013169 5:0.145525 6:0.285713 7:-0.681008 8:-0.853513 9:-0.70128 10:-0.578334 11:-0.0721649 
1 1:-0.226733 2:0.120089 3:0.312703 4:0.528347 5:0.223376 6:-0.142858 7:-0.940435 8:-0.91812 9:-0.711722 10:-0.539189 11:0.169072 
1 1:0.198932 2:0.152648 3:0.150182 4:0.54043 5:0.0931689 6:0.285713 7:0.408793 8:0.522645 9:-0.0891403 10:0.1862 11:0.128865 
1 1:0.0359423 2:0.10489 3:0.149878 4:0.519097 5:0.165487 6:0.26948 7:-0.231484 8:-0.370724 9:-0.239787 10:0.00650577 11:0.0283514 
1 1:-0.0306927 2:0.175565 3:0.11808 4:0.553474 5:0.1645 6:0.285713 7:-0.306563 8:-0.571068 9:-0.316866 10:0.264809 11:-0.172681 
1 1:-0.403429 2:0.0737665 3:-0.214921 4:0.17014 5:0.332121 6:0.285713 7:-0.709382 8:-0.751324 9:-0.593445 10:-0.749298 11:0.195876 
1 1:0.0291197 2:0.146251 3:0.0998381 4:0.529151 5:0.178436 6:0.427 7:-0.171729 8:-0.448192 9:-0.250476 10:-0.0395844 11:-0.16495 
1 1:0.179916 2:0.112848 3:0.129008 4:0.547258 5:0.201243 6:0.415583 7:0.165107 8:-0.198167 9:0.167359 10:0.189661 11:0.329898 
1 1:-0.0193947 2:0.0543942 3:0.130995 4:0.442619 5:0.21658 6:0.285713 7:-0.52351 8:-0.601824 9:-0.251871 10:-0.43628 11:0.0786084 
1 1:0.0586148 2:-0.0274642 3:-0.223097 4:-0.291375 5:0.318528 6:0.285713 7:-0.317106 8:-0.480326 9:0.0542033 10:0.166896 11:0.530928 
1 1:0.467424 2:0.154518 3:0.123547 4:0.481017 5:0.23794 6:0.285713 7:0.578274 8:0.575835 9:0.258062 10:-0.125539 11:0.731959 
1 1:-0.262391 2:0.144528 3:0.113893 4:0.202614 5:0.619515 6:0.285713 7:-0.871267 8:-0.943285 9:-0.647737 10:-0.393212 11:-0.0721649 
1 1:-0.0276978 2:0.136727 3:0.10869 4:0.554677 5:0.0355699 6:0.285713 7:0.230501 8:-0.140217 9:-0.307005 10:0.4552 11:-0.313402 
1 1:-0.0426207 2:0.181591 3:0.144834 4:0.513832 5:0.124661 6:0.285713 7:-0.346706 8:-0.544572 9:-0.417281 10:0.159035 11:0.0206198 
1 1:0.169604 2:0.121811 3:0.174988 4:0.446102 5:0.256 6:0.285713 7:-0.13321 8:-0.261933 9:0.175518 10:0.0981042 11:0.329898 
1 1:-0.0221209 2:0.149607 3:0.380663 4:0.567703 5:0.328237 6:0.285713 7:-0.68891 8:-0.822214 9:-0.300055 10:0.679807 11:0.329898 
1 1:0.067797 2:0.137083 3:0.460366 4:0.555523 5:0.0577879 6:0.0714278 7:-0.332723 8:-0.540337 9:-0.190412 10:0.516432 11:0.169072 
1 1:-0.0542052 2:0.108583 3:0.0122835 4:0.389528 5:0.302239 6:0.344155 7:-0.326823 8:-0.389016 9:-0.183248 10:-0.655193 11:0.289691 
1 1:0.0903646 2:0.132585 3:0.197969 4:0.590845 5:0.128415 6:0.253246 7:-0.144628 8:-0.155918 9:-0.150618 10:0.0802647 11:0.128865 
1 1:-0.20164 2:0.0778744 3:-0.00863906 4:0.271504 5:0.131623 6:-0.020409 7:-0.800243 8:-0.834546 9:-0.596655 10:-0.688756 11:-0.0721649 
1 1:0.0530841 2:0.136778 3:0.0970849 4:0.552378 5:0.228937 6:0.285713 7:0.000805094 8:-0.267221 9:0.0974896 10:0.0229401 11:0.256796 
1 1:-0.165591 2:0.0567684 3:-0.165511 4:0.255289 5:0.241294 6:0.285713 7:-0.238472 8:-0.441766 9:-0.168624 10:-0.599883 11:0.256796 
1 1:0.0667898 2:0.166982 3:0.206883 4:0.508719 5:0.228813 6:0.285713 7:-0.310271 8:-0.294938 9:-0.0607897 10:-0.0784808 11:0.329898 
1 1:0.0173465 2:0.0285328 3:0.197039 4:0.436972 5:0.182597 6:0.285713 7:-0.449483 8:-0.626332 9:-0.142097 10:-0.161871 11:0.0786084 
1 1:0.189705 2:0.110297 3:0.113982 4:0.516882 5:0.250563 6:0.285713 7:-0.0547708 8:-0.477876 9:0.280203 10:-0.316325 11:0.195876 
1 1:-0.104903 2:0.0273322 3:0.0578166 4:0.55297 5:0.177548 6:0.132652 7:-0.0238148 8:-0.228262 9:-0.181304 10:-0.103394 11:0.100148 
1 1:-0.114149 2:0.087578 3:-0.00826679 4:0.384957 5:0.164061 6:0.285713 7:-0.436044 8:-0.558025 9:-0.388358 10:-0.55113 11:0.0374895 
1 1:-0.0932598 2:-0.167954 3:0.196026 4:0.466501 5:0.177742 6:-0.250001 7:-0.40744 8:-0.528089 9:-0.0797537 10:0.0861039 11:0.530928 
1 1:0.158441 2:0.182528 3:0.0719963 4:0.244312 5:0.130167 6:0.285713 7:0.254675 8:0.0636212 9:0.0664784 10:-0.0563959 11:0.186304 
1 1:-0.230131 2:0.194537 3:-0.00425699 4:0.511741 5:0.631167 6:0.285713 7:-0.817982 8:-0.757985 9:-0.738384 10:-0.740057 11:0.329898 
1 1:0.0310326 2:0.115442 3:0.12532 4:0.53877 5:0.118019 6:0.285713 7:0.294107 8:0.0880723 9:-0.113188 10:0.267532 11:0.140691 
0.5617989968026255 1:-0.0404853 2:0.191638 3:0.219611 4:0.638875 5:0.223376 6:0.285713 7:-0.57147 8:-0.652983 9:-0.480076 10:0.0521635 11:0.0484537 
1 1:0.045612 2:0.0601975 3:0.0631782 4:0.40017 5:0.243597 6:0.285713 7:-0.185091 8:-0.527519 9:-0.0112891 10:0.0961885 11:0.0484537 
1 1:0.0127074 2:0.0884933 3:0.227737 4:0.616042 5:0.1221 6:0.244505 7:-0.131938 8:-0.104211 9:-0.212543 10:0.321269 11:0.206187 
1 1:-0.214767 2:0.124684 3:-0.266797 4:0.107385 5:0.328237 6:0.591836 7:-0.569832 8:-0.644601 9:-0.212264 10:-0.617338 11:0.100148 
1 1:-0.0775024 2:0.151044 3:0.0971993 4:0.544033 5:0.108017 6:0.244505 7:-0.405872 8:-0.284244 9:-0.47368 10:-0.278733 11:0.206187 
1 1:-0.021507 2:0.111763 3:0.124918 4:0.438102 5:0.284545 6:0.285713 7:-0.593856 8:-0.547186 9:-0.252341 10:-0.471734 11:0.444773 
1 1:0.068281 2:0.0859623 3:0.112002 4:0.426853 5:0.0862505 6:0.285713 7:0.0690603 8:-0.323865 9:-0.0209315 10:0.195703 11:0.0206198 
1 1:0.0144157 2:0.110773 3:0.182863 4:0.63671 5:0.103055 6:0.120878 7:-0.192034 8:-0.0533242 9:-0.26983 10:0.246353 11:-0.16495 
1 1:0.194985 2:0.167939 3:0.0656244 4:0.476556 5:0.126989 6:0.285713 7:-0.0999118 8:-0.131574 9:-0.0145265 10:-0.389433 11:-0.181819 
1 1:0.048671 2:0.212522 3:0.0447837 4:0.534188 5:0.0708863 6:0.226844 7:-0.202553 8:-0.252246 9:-0.279859 10:-0.542193 11:-0.536084 
1 1:-0.132129 2:0.129495 3:0.0651048 4:0.397685 5:0.140025 6:0.285713 7:-0.600687 8:-0.485827 9:-0.659398 10:0.0610867 11:-0.16495 
1 1:-0.141671 2:0.150565 3:0.0639175 4:0.449181 5:0.111858 6:0.285713 7:-0.802313 8:-0.805411 9:-0.516268 10:-0.764753 11:-0.273195 
1 1:-0.07431 2:0.177832 3:0.115835 4:0.577157 5:0.121428 6:0.285713 7:-0.37662 8:-0.525122 9:-0.538442 10:-0.0791822 11:-0.152577 
1 1:0.00585276 2:0.0265022 3:0.0730226 4:0.452545 5:0.0851152 6:0.285713 7:0.168889 8:-0.0622492 9:-0.00984711 10:-0.156851 11:0.100148 
1 1:-0.198378 2:0.194868 3:0.0641741 4:0.538216 5:0.293283 6:0.214285 7:-0.800298 8:-0.818589 9:-0.512426 10:-0.719918 11:0.128865 
1 1:0.16516 2:0.165547 3:0.218396 4:0.532322 5:0.143867 6:0.285713 7:0.179881 8:-0.0569745 9:0.0847121 10:0.093431 11:0.391754 
1 1:0.0993457 2:0.112313 3:0.151591 4:0.525707 5:0.074763 6:0.285713 7:0.30198 8:-0.214122 9:-0.107351 10:0.420094 11:-0.143118 
1 1:-0.132008 2:0.160553 3:-0.0256514 4:0.127214 5:0.276993 6:0.285713 7:-0.612467 8:-0.758462 9:-0.383786 10:-0.665535 11:0.0786084 
1 1:-0.011492 2:0.0899072 3:0.0487258 4:0.477007 5:0.104175 6:0.21507 7:-0.101072 8:0.130794 9:-0.250043 10:-0.375671 11:0.444773 
1 1:0.00935837 2:0.0244919 3:0.0571273 4:0.472777 5:0.213966 6:0.464285 7:-0.0878598 8:-0.27604 9:-0.0923358 10:0.0100199 11:0.128865 
1 1:0.119468 2:0.181991 3:0.170621 4:0.544274 5:0.09599 6:0.132652 7:0.461228 8:-0.155486 9:0.250257 10:0.256006 11:0.100148 
1 1:-0.170602 2:0.193075 3:0.0661602 4:0.532507 5:0.328237 6:0.285713 7:-0.685968 8:-0.841562 9:-0.294446 10:-0.497038 11:0.329898 
1 1:-0.422294 2:0.0398664 3:-0.0800498 4:0.362307 5:0.270952 6:0.255952 7:-0.759664 8:-0.769729 9:-0.660552 10:-0.700165 11:0.0618569 
1 1:-0.097979 2:0.152649 3:0.0238364 4:0.498215 5:0.136426 6:0.285713 7:-0.15944 8:-0.509041 9:0.0198338 10:-0.423118 11:0.169072 
1 1:-0.356877 2:0.0859811 3:0.0698525 4:0.491712 5:0.21658 6:0.285713 7:-0.891993 8:-1 9:-0.798293 10:-0.554069 11:0.0786084 
1 1:-0.0821646 2:0.14851 3:0.131905 4:0.564261 5:0.0977737 6:0.285713 7:-0.392286 8:-0.533064 9:-0.46073 10:-0.214806 11:-0.0721649 
1 1:0.0155421 2:0.136727 3:0.054184 4:0.382106 5:0.182597 6:0.285713 7:-0.309512 8:-0.0783404 9:-0.319889 10:-0.323091 11:0.329898 
1 1:-0.250415 2:0.163589 3:-0.177244 4:0.130937 5:0.420476 6:0.285713 7:-0.58821 8:-0.939598 9:-0.347816 10:-0.614142 11:0.229382 
1 1:-0.181484 2:-0.284255 3:-0.0661542 4:0.194257 5:0.175358 6:0.285713 7:-0.0272442 8:-0.403465 9:-0.0301088 10:-0.391466 11:-0.172681 
1 1:-0.285462 2:0.0774692 3:0.0374436 4:0.460803 5:0.109777 6:0.285713 7:-0.650499 8:-0.920154 9:-0.34684 10:-0.364313 11:-0.0721649 
1 1:0.162532 2:0.155208 3:0.212236 4:0.547091 5:0.0997644 6:0.267856 7:-0.015959 8:0.0104605 9:-0.2376 10:0.113437 11:-0.232991 
1 1:-0.19039 2:0.0718672 3:0.0370286 4:0.521015 5:0.197161 6:0.285713 7:-0.52818 8:-0.725805 9:-0.142776 10:-0.60664 11:0.272459 
1 1:0.164416 2:0.138225 3:0.114608 4:0.518332 5:0.277748 6:0.285713 7:-0.296421 8:-0.373559 9:-0.0423049 10:-0.392025 11:0.195876 
1 1:-0.117707 2:0.176567 3:0.0932556 4:0.554827 5:0.145147 6:0.285713 7:-0.558192 8:-0.778635 9:-0.0508356 10:-0.629886 11:0.128865 
1 1:-0.0337179 2:0.141244 3:0.0482244 4:0.462721 5:0.261659 6:0.285713 7:-0.438362 8:-0.752671 9:0.177629 10:-0.520669 11:0.329898 
1 1:-0.0660638 2:0.138978 3:0.0138062 4:0.358 5:0.148614 6:0.285713 7:-0.18467 8:-0.434858 9:-0.108793 10:-0.425653 11:0.147142 
1 1:0.0113977 2:0.136727 3:0.17871 4:0.535456 5:0.0847271 6:0.285713 7:-0.299244 8:-0.489203 9:-0.0460726 10:0.212657 11:-0.0721649 
1 1:-0.24223 2:0.111202 3:-0.0730646 4:0.236643 5:0.219669 6:0.285713 7:-0.524196 8:-0.645447 9:-0.486402 10:0.0124231 11:0.256796 
1 1:-0.312358 2:0.145003 3:0.0926054 4:0.545342 5:0.420476 6:0.285713 7:-0.806037 8:-1 9:-0.670831 10:-0.50583 11:0.0786084 
1 1:-0.0941851 2:0.0723722 3:0.188232 4:0.52076 5:0.131932 6:0.285713 7:-0.432085 8:-0.4698 9:-0.310958 10:-0.0785268 11:0.169072 
1 1:-0.145639 2:0.0209684 3:0.113594 4:0.554641 5:-0.0204027 6:0.0973306 7:-0.236886 8:-0.270917 9:-0.370878 10:-0.111055 11:0.100148 
1 1:-0.185701 2:0.114569 3:0.170458 4:0.53471 5:0.286626 6:0.285713 7:-0.634505 8:-0.821445 9:-0.196333 10:-0.0524126 11:0.329898 
1 1:-0.259398 2:0.0379136 3:0.118972 4:0.592629 5:0.0942421 6:0.22619 7:-0.657298 8:-0.6471 9:-0.523934 10:-0.412572 11:0.195876 
1 1:-0.0286979 2:-0.0497125 3:0.0472147 4:0.319367 5:0.122486 6:0.285713 7:0.0166526 8:0.0842526 9:-0.267844 10:0.373594 11:0.153995 
1 1:-0.0618232 2:0.00801859 3:0.394986 4:0.597743 5:0.197161 6:-0.020409 7:-0.529818 8:-0.872085 9:-0.145511 10:0.0522647 11:0.272459 
0.001868855418748987 1:0.258297 2:0.196403 3:0.122365 4:0.473332 5:0.117739 6:0.285713 7:0.0811577 8:0.393063 9:-0.087903 10:0.0925065 11:-0.0721649 
1 1:0.0575329 2:0.111089 3:0.0929066 4:0.542234 5:0.0891102 6:0.285713 7:0.439181 8:0.559312 9:-0.174383 10:0.177645 11:-0.0721649 
1 1:0.0501373 2:0.0281217 3:0.103651 4:0.469701 5:0.182597 6:0.285713 7:-0.330496 8:-0.245608 9:-0.341435 10:0.158103 11:0.0283514 
1 1:-0.114555 2:0.102909 3:0.0505383 4:0.562812 5:0.250563 6:0.285713 7:-0.431997 8:-0.487277 9:-0.223246 10:-0.73133 11:0.195876 
1 1:-0.205534 2:0.0893268 3:0.189188 4:0.554677 5:0.172402 6:0.285713 7:-0.604253 8:-0.717963 9:-0.453139 10:0.184411 11:-0.0721649 
1 1:0.196325 2:0.160538 3:0.165238 4:0.526878 5:0.155836 6:0.285713 7:0.422873 8:0.0808662 9:0.12844 10:0.380066 11:0.169072 
1 1:-0.129127 2:0.0810891 3:0.0895755 4:0.349197 5:0.288321 6:0.285713 7:-0.484694 8:-0.579847 9:-0.194309 10:-0.30677 11:0.229382 
1 1:-0.107108 2:0.188612 3:0.146274 4:0.552759 5:0.240853 6:0.285713 7:-0.597634 8:-0.727251 9:-0.258644 10:-0.188537 11:0.272459 
1 1:0.000169052 2:0.136727 3:0.10108 4:0.45445 5:0.284545 6:0.285713 7:-0.519296 8:-0.615403 9:-0.245624 10:-0.0188954 11:0.0786084 
1 1:0.136046 2:0.104476 3:0.124056 4:0.509062 5:0.055162 6:0.159663 7:0.595278 8:0.537779 9:0.110118 10:-0.0905294 11:0.140691 
1 1:0.167607 2:0.0892239 3:0.188351 4:0.643906 5:0.0923884 6:0.285713 7:-0.113626 8:-0.127833 9:0.0754185 10:0.273417 11:-0.0721649 
1 1:-0.0889445 2:0.136727 3:0.145332 4:0.547998 5:0.0884912 6:0.285713 7:-0.313683 8:-0.691838 9:-0.324173 10:-0.148227 11:-0.273195 
1 1:-0.186931 2:0.064581 3:0.0266639 4:0.474653 5:0.125621 6:0.285713 7:-0.220139 8:-0.587411 9:-0.296623 10:-0.317344 11:-0.0721649 
1 1:-0.00979612 2:0.109695 3:0.283829 4:0.554677 5:0.106256 6:0.258241 7:-0.300429 8:-0.41373 9:-0.373167 10:0.216346 11:0.113402 
1 1:-0.0677312 2:0.147769 3:0.159471 4:0.561479 5:0.332121 6:0.285713 7:-0.347964 8:-0.608793 9:-0.111095 10:0.446969 11:0.329898 
1 1:-0.032337 2:0.136727 3:0.241804 4:0.518583 5:0.280467 6:0.285713 7:-0.423633 8:-0.619947 9:-0.212083 10:-0.170643 11:0.195876 
1 1:-0.0827768 2:0.154636 3:0.0831223 4:0.510783 5:0.132382 6:0.285713 7:-0.460747 8:-0.603369 9:-0.345737 10:0.353995 11:-0.0721649 
1 1:0.106752 2:0.142307 3:-0.0597744 4:0.365406 5:0.177235 6:0.285713 7:0.299927 8:0.46239 9:-0.0454539 10:-0.349231 11:0.304768 
1 1:-0.236587 2:0.136727 3:0.0966667 4:0.544528 5:0.108453 6:0.285713 7:-0.63921 8:-0.706223 9:-0.614316 10:-0.391466 11:-0.0721649 
1 1:0.130062 2:0.0222065 3:0.149869 4:0.38599 5:0.179878 6:0.0952375 7:-0.266974 8:-0.564572 9:-0.00300483 10:-0.0856193 11:0.0618569 
1 1:-0.276626 2:0.0889917 3:-0.00612196 4:0.512357 5:0.427272 6:0.523809 7:-0.498113 8:-0.581488 9:-0.311484 10:-0.431441 11:0.0618569 
1 1:0.186698 2:0.11435 3:0.150666 4:0.414873 5:0.401322 6:0.285713 7:-0.242121 8:-0.311196 9:-0.0804793 10:-0.396841 11:0.169072 
1 1:-0.184146 2:-0.0832839 3:0.0369215 4:0.453116 5:-0.043145 6:-0.020409 7:-0.589583 8:-0.550185 9:-0.245219 10:-0.427918 11:-0.244478 
1 1:0.337152 2:0.13557 3:0.497232 4:0.586334 5:0.140025 6:0.285713 7:0.118359 8:-0.0496074 9:0.026062 10:0.56878 11:-0.0721649 
1 1:-0.095833 2:0.02719 3:0.0531866 4:0.465085 5:0.11986 6:0.285713 7:-0.329615 8:-0.292073 9:-0.340528 10:-0.540613 11:0.128865 
1 1:-0.00752193 2:0.13512 3:0.157616 4:0.533057 5:0.219978 6:0.285713 7:-0.525123 8:-0.546399 9:-0.347533 10:-0.0634148 11:0.195876 
1 1:0.143981 2:0.106131 3:0.0738582 4:0.539948 5:0.52485 6:0.285713 7:-0.346082 8:-0.447546 9:0.161005 10:-0.40467 11:0.789397 
1 1:0.0419658 2:0.121001 3:0.110238 4:0.513659 5:0.224131 6:0.285713 7:-0.322257 8:-0.553003 9:0.0465656 10:-0.336529 11:0.380155 
1 1:-0.0575364 2:0.174987 3:0.186083 4:0.577281 5:0.328237 6:0.285713 7:-0.848323 8:-0.821645 9:-0.60399 10:-0.785534 11:0.128865 
1 1:-0.266514 2:0.0222833 3:0.178497 4:0.617107 5:0.182597 6:0.0561218 7:-0.720632 8:-0.687265 9:-0.544182 10:-0.347508 11:0.832475 
1 1:-0.157775 2:0.148893 3:0.0458096 4:0.482923 5:0.371929 6:0.285713 7:-0.503863 8:-0.60478 9:-0.102215 10:-0.163327 11:0.272459 
1 1:-0.221821 2:0.0410048 3:0.0930785 4:0.552291 5:0.109553 6:0.285713 7:-0.461859 8:-0.417563 9:-0.571048 10:0.238509 11:-0.0721649 
1 1:0.239995 2:0.119755 3:0.180953 4:0.536282 5:0.333631 6:0.285713 7:-0.248272 8:-0.388622 9:0.156279 10:0.371533 11:0.530928 
1 1:0.186315 2:0.119213 3:0.101487 4:0.545686 5:0.0494273 6:0.285713 7:0.487026 8:0.424007 9:0.181951 10:0.067586 11:-0.0721649 
1 1:-0.0610118 2:0.134617 3:0.138677 4:0.553743 5:0.154793 6:0.246752 7:-0.358312 8:-0.427091 9:-0.301911 10:0.507504 11:0.147142 
1 1:-0.21621 2:0.142754 3:-0.208499 4:0.15931 5:0.306865 6:0.285713 7:-0.394639 8:-0.595313 9:-0.407285 10:-0.380637 11:-0.0721649 
1 1:0.149657 2:0.185847 3:0.106971 4:0.290195 5:0.140025 6:0.285713 7:-0.0263381 8:0.018171 9:-0.111877 10:0.0937116 11:-0.0721649 
1 1:0.0100702 2:0.0160691 3:0.113485 4:0.504118 5:0.136381 6:0.285713 7:-0.140829 8:-0.542369 9:0.16535 10:-0.131769 11:-0.0721649 
1 1:-0.161005 2:0.0788459 3:0.0538352 4:0.526002 5:0.156197 6:0.285713 7:-0.525458 8:-0.558866 9:-0.424249 10:-0.45825 11:0.169072 
1 1:0.176188 2:0.162711 3:0.246961 4:0.568728 5:0.0874455 6:0.285713 7:-0.256177 8:-0.298763 9:0.0114053 10:0.0922512 11:-0.0721649 
1 1:0.270362 2:0.136727 3:0.113445 4:0.554677 5:0.198281 6:0.285713 7:0.0949 8:0.0836069 9:0.0952895 10:-0.317993 11:0.229382 
1 1:0.067539 2:0.19273 3:0.1251 4:0.566546 5:0.121204 6:0.250392 7:0.266629 8:0.0190982 9:0.0771163 10:-0.12952 11:0.186304 
1 1:-0.115744 2:0.0425667 3:0.201249 4:0.5286 5:0.35251 6:0.285713 7:-0.634177 8:-0.620435 9:-0.415983 10:-0.0761005 11:0.0786084 
1 1:0.0928043 2:0.0860177 3:0.359617 4:0.48685 5:0.219332 6:0.285713 7:0.0229016 8:-0.298532 9:0.241066 10:0.133346 11:0.289691 
1 1:-0.0520841 2:0.136727 3:0.240988 4:0.554677 5:0.052845 6:0.285713 7:-0.336097 8:-0.741345 9:-0.277207 10:0.212218 11:-0.291471 
1 1:0.174044 2:0.0550738 3:0.171754 4:0.566284 5:-0.0314938 6:0.0129861 7:0.175389 8:0.111825 9:0.291655 10:-0.346476 11:0.256796 
1 1:-0.091007 2:0.214135 3:0.0244693 4:0.524285 5:0.115239 6:-0.020409 7:-0.481112 8:-0.582282 9:-0.064255 10:-0.25732 11:0.272459 
1 1:-0.314073 2:-0.0496858 3:-0.0408135 4:0.363827 5:0.164392 6:0.285713 7:-0.546666 8:-0.658114 9:-0.17362 10:-0.555692 11:0.272459 
1 1:-0.0195442 2:0.0455269 3:0.0911415 4:0.518406 5:0.109998 6:0.285713 7:-0.100964 8:-0.392768 9:-0.015694 10:-0.204887 11:0.0374895 
1 1:0.0559402 2:0.126587 3:0.121421 4:0.550425 5:0.219669 6:0.285713 7:-0.273641 8:-0.286266 9:-0.207743 10:-0.0761419 11:0.147142 
1 1:-0.0503117 2:0.141243 3:-0.00393662 4:0.41733 5:0.187231 6:0.285713 7:-0.26926 8:-0.351556 9:-0.202868 10:-0.272353 11:0.366448 
1 1:0.067135 2:0.136727 3:0.0255893 4:0.398858 5:0.215172 6:0.285713 7:-0.214277 8:-0.327767 9:-0.22212 10:-0.346163 11:0.128865 
1 1:0.120319 2:0.163191 3:0.226218 4:0.572535 5:0.117008 6:0.204545 7:0.203208 8:-0.19298 9:0.206478 10:0.00816622 11:0.430412 
1 1:0.134727 2:0.119813 3:0.352138 4:0.547406 5:0.240853 6:0.285713 7:-0.435368 8:-0.676713 9:0.0120565 10:0.24697 11:-0.0721649 
1 1:0.149079 2:0.141945 3:0.10205 4:0.556564 5:0.142455 6:0.285713 7:0.131084 8:0.0991108 9:-0.114951 10:-0.233997 11:0.0886608 
1 1:-0.0464413 2:0.190903 3:-0.00615615 4:0.228918 5:0.164061 6:0.285713 7:-0.334348 8:-0.587055 9:-0.275259 10:-0.358274 11:0.0374895 
1 1:0.358244 2:0.153443 3:0.179492 4:0.554677 5:0.0827849 6:0.285713 7:0.220076 8:0.215977 9:0.0356952 10:0.285243 11:-0.0721649 
1 1:0.0887915 2:0.146449 3:0.0195745 4:0.366982 5:0.173676 6:0.285713 7:0.185308 8:0.184425 9:-0.0697205 10:-0.41182 11:0.329898 
1 1:-0.134359 2:0.0606194 3:0.0878305 4:0.412369 5:0.13226 6:0.285713 7:-0.258108 8:-0.260298 9:-0.439585 10:0.0397378 11:0.0082467 
1 1:-0.131871 2:0.274053 3:0.389899 4:0.589804 5:-0.137811 6:-0.0714291 7:-0.788149 8:-0.750558 9:-0.489262 10:-0.35467 11:-0.474228 
1 1:-0.32847 2:0.132503 3:-0.0377582 4:0.490411 5:0.0369572 6:-0.0714291 7:-0.861615 8:-0.852223 9:-0.629336 10:-0.754167 11:0.128865 
1 1:-0.0805845 2:0.136361 3:0.129124 4:0.522327 5:0.139163 6:0.285713 7:-0.215424 8:-0.350605 9:-0.223297 10:0.0468234 11:0.229382 
1 1:0.022411 2:0.151768 3:0.146286 4:0.520733 5:0.158931 6:0.285713 7:-0.334999 8:-0.713654 9:0.179499 10:-0.238661 11:0.100148 
1 1:-0.119566 2:0.0598643 3:0.0884238 4:0.457113 5:0.148614 6:0.285713 7:-0.389882 8:-0.719639 9:-0.0537195 10:-0.457576 11:0.0786084 
1 1:-0.297086 2:0.0680606 3:-0.0666863 4:0.335438 5:0.220687 6:0.285713 7:-0.578476 8:-0.604063 9:-0.638225 10:-0.73693 11:0.113402 
1 1:0.0308796 2:0.134504 3:0.0892828 4:0.55701 5:0.211725 6:0.438775 7:-0.106095 8:-0.36516 9:-0.254508 10:-0.117053 11:0.100148 
1 1:-0.216993 2:-0.14259 3:0.0375031 4:0.482359 5:0.0544339 6:0.122448 7:-0.0391638 8:-0.296335 9:-0.256955 10:-0.205048 11:0.0082467 
1 1:-0.113203 2:0.207215 3:0.00773179 4:0.473719 5:0.169004 6:0.285713 7:-0.227235 8:-0.30604 9:0.0500309 10:-0.222169 11:0.195876 
1 1:-0.132416 2:0.127226 3:0.0885492 4:0.512308 5:0.121119 6:0.246752 7:-0.329304 8:-0.614678 9:-0.269649 10:-0.0610598 11:0.147142 
1 1:-0.107599 2:0.201237 3:0.110554 4:0.555811 5:0.137287 6:0.285713 7:-0.348888 8:-0.768121 9:0.00707019 10:-0.327652 11:-0.0721649 
1 1:0.0350187 2:0.129502 3:0.170357 4:0.560345 5:0.15294 6:0.227272 7:0.00951475 8:-0.2875 9:0.107174 10:0.294996 11:0.256796 
1 1:0.0295147 2:0.109174 3:0.0670624 4:0.46616 5:0.141946 6:0.120878 7:-0.0811263 8:-0.236759 9:-0.164103 10:-0.301174 11:0.206187 
1 1:0.195225 2:0.15943 3:0.066778 4:0.538047 5:0.0961706 6:0.285713 7:0.444276 8:0.354586 9:0.0678646 10:-0.201734 11:-0.298325 
1 1:-0.0206119 2:0.077081 3:0.0961161 4:0.527386 5:0.284545 6:0.285713 7:-0.524217 8:-0.680685 9:-0.136166 10:-0.2427 11:0.100148 
1 1:-0.135074 2:0.193032 3:0.129617 4:0.530278 5:0.166913 6:0.285713 7:-0.329737 8:-0.392975 9:-0.401103 10:-0.50184 11:0.0206198 
1 1:0.344541 2:0.11776 3:0.137232 4:0.513266 5:0.256 6:0.285713 7:0.00375014 8:0.0668185 9:0.358305 10:-0.147553 11:0.329898 
1 1:-0.0743313 2:0.191889 3:0.293718 4:0.599713 5:0.311853 6:0.285713 7:-0.595195 8:-0.892213 9:-0.254578 10:-0.316659 11:0.100148 
1 1:0.199259 2:0.183464 3:0.278664 4:0.403365 5:0.186216 6:0.285713 7:-0.0339778 8:0.0987535 9:-0.0370208 10:0.595949 11:0.329898 
1 1:0.0121237 2:0.0901181 3:0.00813404 4:0.286852 5:0.356286 6:0.55357 7:-0.213441 8:-0.473624 9:0.207929 10:-0.352395 11:0.229382 
1 1:-0.32237 2:0.136727 3:-0.167041 4:0.175623 5:0.201133 6:0.285713 7:-0.541448 8:-0.78637 9:-0.44365 10:-0.397018 11:0.0484537 
1 1:-0.0573923 2:0.13673 3:0.0856221 4:0.554677 5:0.17889 6:0.285713 7:-0.458377 8:-0.621915 9:-0.342858 10:-0.329958 11:0.0484537 
1 1:-0.412193 2:-0.07385 3:0.136561 4:0.588642 5:0.348735 6:0.285713 7:-0.613628 8:-0.914847 9:-0.385507 10:-0.339082 11:0.0786084 
1 1:0.037889 2:0.0125411 3:0.266492 4:0.554677 5:0.112899 6:0.262165 7:-0.00891528 8:-0.113222 9:-0.168047 10:0.51036 11:0.100148 
1 1:-0.0258418 2:0.136727 3:0.219193 4:0.554677 5:0.0454308 6:0.0714278 7:-0.423253 8:-0.563844 9:-0.300246 10:-0.159624 11:0.0484537 
1 1:-0.126689 2:0.164945 3:0.0414993 4:0.523531 5:0.328237 6:0.285713 7:-0.714544 8:-0.7807 9:-0.453679 10:-0.744052 11:-0.0721649 
1 1:-0.0290627 2:0.185599 3:0.189492 4:0.600604 5:0.21658 6:0.285713 7:-0.565891 8:-0.696095 9:-0.314721 10:0.481956 11:0.0786084 
1 1:-0.01522 2:0.191305 3:0.35235 4:0.586753 5:0.022393 6:0.285713 7:-0.541312 8:-0.591222 9:-0.164684 10:0.239622 11:0.100148 
1 1:-0.035371 2:0.136727 3:0.0877866 4:0.551194 5:0.11216 6:0.285713 7:-0.348655 8:-0.519601 9:-0.209738 10:-0.229209 11:0.0484537 
1 1:-0.147061 2:0.218482 3:0.0438283 4:0.451602 5:0.145525 6:0.285713 7:-0.293988 8:-0.484518 9:-0.230372 10:-0.704447 11:0.147142 
1 1:-0.0419997 2:0.0776286 3:0.103384 4:0.543858 5:0.107216 6:0.258241 7:-0.0254668 8:-0.240389 9:-0.111044 10:0.438312 11:0.113402 
1 1:-0.0280965 2:0.0378405 3:0.111373 4:0.501335 5:0.141818 6:0.285713 7:-0.289841 8:-0.54152 9:-0.033523 10:-0.23779 11:0.0618569 
1 1:-0.00311768 2:0.136727 3:0.348959 4:0.554677 5:0.328237 6:0.285713 7:-0.669671 8:-0.807703 9:-0.263379 10:0.292391 11:0.329898 
1 1:-0.22296 2:0.10358 3:0.0251313 4:0.530496 5:0.192578 6:0.285713 7:-0.622617 8:-0.515982 9:-0.641332 10:-0.770097 11:0.229382 
1 1:-0.0577891 2:0.180187 3:0.116512 4:0.557523 5:0.0899172 6:0.0909085 7:-0.397755 8:-0.48158 9:-0.345779 10:-0.150103 11:0.147142 
1 1:0.010604 2:0.107603 3:0.0865644 4:0.49441 5:0.118515 6:0.285713 7:-0.00419276 8:-0.196834 9:-0.163847 10:-0.086484 11:0.0139906 
1 1:-0.189324 2:0.129052 3:0.0133965 4:0.520177 5:0.090844 6:0.285713 7:-0.252855 8:-0.382558 9:-0.435208 10:0.307054 11:-0.0721649 
1 1:-0.234128 2:0.172102 3:0.0298698 4:0.480212 5:0.242407 6:0.285713 7:-0.55824 8:-0.793189 9:-0.391731 10:-0.647438 11:-0.0721649 
1 1:-0.113877 2:0.156284 3:0.241074 4:0.582315 5:0.107835 6:0.22619 7:-0.654967 8:-0.696221 9:-0.520822 10:0.218241 11:0.195876 
1 1:-0.0446369 2:0.0964984 3:0.0895594 4:0.528963 5:0.201133 6:0.285713 7:-0.335351 8:-0.517668 9:-0.276375 10:0.265308 11:0.147142 
1 1:-0.00635458 2:0.231691 3:0.0859505 4:0.571429 5:0.0588028 6:0.142856 7:-0.157746 8:-0.135892 9:-0.355868 10:-0.613504 11:-0.393814 
1 1:-0.161689 2:0.100962 3:0.0505577 4:0.436491 5:0.16156 6:0.285713 7:-0.466881 8:-0.560634 9:-0.167899 10:-0.763462 11:0.229382 
1 1:0.0825846 2:0.136727 3:0.475833 4:0.554677 5:0.459313 6:0.285713 7:-0.524169 8:-0.667776 9:-0.136087 10:0.923116 11:0.272459 
1 1:-0.187349 2:0.0288233 3:-0.104426 4:0.217449 5:0.332121 6:0.523809 7:-0.31383 8:-0.43086 9:-0.0655388 10:-0.197424 11:0.195876 
1 1:0.0656474 2:0.131738 3:0.106554 4:0.519784 5:0.207933 6:0.285713 7:-0.19424 8:-0.261492 9:-0.201552 10:-0.0573158 11:0.430412 
1 1:-0.180085 2:0.113544 3:0.0510057 4:0.544424 5:0.284545 6:0.285713 7:-0.635463 8:-0.690907 9:-0.321759 10:-0.63736 11:0.617084 
1 1:-0.0614051 2:0.198312 3:0.225844 4:0.541064 5:0.211725 6:0.285713 7:-0.642218 8:-0.71374 9:-0.211036 10:-0.0869049 11:0.128865 
1 1:0.0908183 2:0.138992 3:0.313367 4:0.507518 5:0.250563 6:0.285713 7:-0.49514 8:-0.605229 9:-0.209803 10:-0.0435699 11:0.0786084 
1 1:-0.0441386 2:0.193848 3:0.226605 4:0.55508 5:0.0660848 6:0.285713 7:-0.393942 8:-0.759622 9:0.081163 10:-0.03682 11:0.100148 
1 1:0.184925 2:0.0968273 3:0.124739 4:0.510627 5:0.151704 6:0.285713 7:-0.0512123 8:-0.135304 9:0.039635 10:0.162176 11:0.476102 
1 1:-0.0870778 2:0.184658 3:0.0535112 4:0.494537 5:0.0296752 6:-0.12245 7:-0.768185 8:-0.720432 9:-0.543172 10:-0.481554 11:0.100148 
1 1:-0.258653 2:0.16495 3:-0.0180138 4:0.212056 5:0.104923 6:0.247448 7:-0.650279 8:-0.647742 9:-0.439855 10:-0.547411 11:0.0786084 
1 1:-0.25126 2:0.0888966 3:-0.235149 4:0.162804 5:0.836156 6:0.285713 7:-0.720392 8:-0.860705 9:-0.463437 10:-0.740007 11:0.444773 
1 1:-0.0192541 2:0.124556 3:0.0370822 4:0.440975 5:0.469715 6:0.285713 7:-0.574206 8:-0.78777 9:-0.0813677 10:-0.638469 11:0.530928 
1 1:-0.246049 2:0.12505 3:0.0510677 4:0.540923 5:0.240853 6:0.285713 7:-0.833011 8:-0.792553 9:-0.651318 10:-0.699264 11:0.272459 
1 1:0.154697 2:0.161839 3:0.206345 4:0.538879 5:0.114098 6:0.285713 7:0.0849845 8:-0.419663 9:-0.00575384 10:0.263788 11:0.113402 
0.3853601065661436 1:0.0321324 2:0.194963 3:0.214415 4:0.579561 5:0.0466664 6:0.285713 7:-0.291932 8:-0.554748 9:0.0915311 10:-0.198245 11:0.229382 
1 1:-0.0599459 2:0.193034 3:0.133343 4:0.499409 5:0.189394 6:0.196428 7:-0.375275 8:-0.527149 9:-0.147544 10:-0.416056 11:0.329898 
1 1:0.0699253 2:0.0893687 3:0.110095 4:0.516602 5:0.153469 6:0.285713 7:-0.0651394 8:-0.0553327 9:-0.218069 10:0.462371 11:0.358615 
1 1:0.0341307 2:0.148737 3:0.191163 4:0.562534 5:0.201133 6:0.285713 7:-0.380057 8:-0.543968 9:-0.326094 10:0.195406 11:0.0374895 
1 1:-0.0429321 2:0.146781 3:0.0894127 4:0.486939 5:0.249018 6:0.285713 7:-0.109869 8:-0.259539 9:-0.0255969 10:-0.206358 11:0.256796 
1 1:-0.151383 2:0.190457 3:0.461889 4:0.469252 5:0.21658 6:0.285713 7:-0.800302 8:-0.746832 9:-0.662324 10:0.032544 11:-0.0721649 
1 1:-0.0435852 2:0.194107 3:0.172455 4:0.577548 5:0.208084 6:-0.020409 7:-0.396768 8:-0.599867 9:0.0764511 10:-0.111745 11:0.272459 
1 1:-0.0368694 2:0.120646 3:0.105332 4:0.488496 5:0.169004 6:0.285713 7:-0.51197 8:-0.565942 9:-0.329978 10:-0.667589 11:-0.0721649 
1 1:-0.170661 2:0.121594 3:-0.0597863 4:0.20156 5:0.25833 6:0.285713 7:-0.143418 8:-0.387464 9:-0.287715 10:-0.359559 11:0.0139906 
1 1:-0.00998119 2:0.190812 3:0.141576 4:0.56449 5:0.105072 6:0.285713 7:-0.00334236 8:-0.0867165 9:-0.163089 10:-0.176601 11:0.186304 
1 1:-0.0636259 2:0.156372 3:0.0882674 4:0.563201 5:0.386493 6:0.285713 7:-0.540399 8:-0.704535 9:-0.276914 10:-0.581956 11:0.229382 
1 1:0.146111 2:0.120981 3:0.107772 4:0.551398 5:0.0899172 6:0.285713 7:-0.0750445 8:-0.029791 9:0.122226 10:-0.0210963 11:0.0484537 
1 1:-0.108277 2:0.172538 3:0.0664045 4:0.476244 5:0.141818 6:0.285713 7:-0.42289 8:-0.63242 9:-0.211092 10:-0.279724 11:0.195876 
1 1:-0.0277423 2:0.121412 3:0.269339 4:0.548207 5:0.0466664 6:0.285713 7:-0.402613 8:-0.651758 9:-0.0725951 10:-0.0304381 11:0.0786084 
1 1:0.0580382 2:0.176817 3:0.067973 4:0.502617 5:0.152013 6:0.285713 7:-0.10399 8:-0.016347 9:-0.311028 10:-0.382552 11:0.0082467 
1 1:-0.136946 2:0.228261 3:0.180115 4:0.538999 5:0.269981 6:0.285713 7:-0.831411 8:-0.741235 9:-0.571746 10:-0.477617 11:-0.0721649 
1 1:-0.0292958 2:0.110992 3:0.0597709 4:0.49373 5:0.204223 6:0.285713 7:-0.314161 8:-0.43138 9:-0.252806 10:-0.283514 11:0.147142 
1 1:-0.0397415 2:0.167277 3:-0.0146626 4:0.33326 5:0.310976 6:0.285713 7:-0.410403 8:-0.51419 9:-0.0841446 10:-0.52896 11:0.229382 
1 1:0.0942172 2:0.0315983 3:0.138392 4:0.494586 5:0.187231 6:0.285713 7:-0.00960885 8:0.0635815 9:0.0859075 10:0.124152 11:0.366448 
1 1:0.0827661 2:0.0766537 3:0.132749 4:0.518283 5:0.0719105 6:0.132652 7:0.353698 8:0.197141 9:0.154586 10:0.526935 11:0.272459 
1 1:-0.309937 2:0.125542 3:0.0186542 4:0.376898 5:0.182597 6:0.285713 7:-0.57819 8:-0.842961 9:-0.332955 10:-0.604515 11:0.229382 
1 1:-0.11347 2:0.16131 3:0.177669 4:0.595119 5:0.191247 6:0.238094 7:-0.642096 8:-0.703696 9:-0.56576 10:-0.322797 11:0.169072 
1 1:-0.0191634 2:0.094819 3:0.131324 4:0.458522 5:0.269442 6:0.404761 7:-0.214054 8:-0.335901 9:0.207022 10:-0.0342558 11:0.530928 
1 1:0.0212899 2:0.0989367 3:0.0767045 4:0.534684 5:0.152435 6:0.285713 7:-0.0857408 8:-0.465386 9:-0.0901636 10:-0.301154 11:0.0283514 
1 1:0.169481 2:0.128242 3:0.123427 4:0.510483 5:0.145525 6:0.285713 7:0.0818931 8:-0.128198 9:0.187672 10:-0.15126 11:0.366448 
1 1:-0.0380367 2:0.123863 3:0.0608059 4:0.548665 5:0.0704542 6:0.285713 7:-0.160531 8:-0.139523 9:-0.358194 10:-0.0281038 11:-0.0721649 
1 1:-0.212201 2:0.10298 3:0.016724 4:0.473899 5:0.175046 6:0.285713 7:-0.724463 8:-0.766609 9:-0.549861 10:-0.555637 11:0.229382 
1 1:0.215856 2:0.136727 3:0.169596 4:0.545102 5:0.0899495 6:0.285713 7:0.400662 8:0.665423 9:-0.149456 10:0.624911 11:-0.262615 
1 1:-0.269854 2:0.0784598 3:-0.00845706 4:0.280629 5:-0.043145 6:-0.0714291 7:-0.715736 8:-0.829596 9:-0.455674 10:-0.696458 11:-0.0721649 
1 1:-0.0160119 2:0.135556 3:0.182723 4:0.570845 5:0.11216 6:0.0519471 7:-0.179233 8:-0.590232 9:-0.102746 10:0.0835488 11:0.0374895 
1 1:-0.220732 2:0.0152184 3:0.272093 4:0.570767 5:-0.191212 6:0.0178564 7:-0.761884 8:-0.831251 9:-0.605358 10:-0.20915 11:-0.675258 
1 1:-0.0991215 2:0.122684 3:0.0672576 4:0.496316 5:0.0770081 6:-0.020409 7:-0.336941 8:-0.601188 9:0.176257 10:-0.411525 11:0.272459 
1 1:-0.100314 2:0.201903 3:0.875038 4:0.558348 5:0.21658 6:0.285713 7:-0.796653 8:-0.775867 9:-0.656914 10:1 11:-0.222938 
1 1:0.194497 2:0.119618 3:0.203867 4:0.570333 5:0.190439 6:0.285713 7:0.0783416 8:0.145974 9:-0.0120845 10:0.181193 11:0.206187 
1 1:-0.129231 2:0.131595 3:0.0791876 4:0.42107 5:0.163718 6:0.136904 7:-0.496077 8:-0.721286 9:-0.211194 10:-0.207697 11:0.380155 
1 1:-0.252345 2:0.0873912 3:-0.0695785 4:0.372172 5:0.201133 6:0.285713 7:-0.562782 8:-0.630726 9:-0.52932 10:-0.693494 11:0.0374895 
1 1:-0.141516 2:0.175429 3:0.0287326 4:0.472443 5:0.191865 6:0.246752 7:-0.369967 8:-0.428849 9:-0.314875 10:-0.208256 11:0.147142 
1 1:0.14134 2:0.148843 3:0.222632 4:0.554677 5:0.168695 6:0.285713 7:-0.288056 8:-0.39153 9:-0.223772 10:0.529258 11:0.366448 
1 1:-0.191936 2:0.214807 3:0.0682361 4:0.512067 5:0.182597 6:0.285713 7:-0.741283 8:-0.683317 9:-0.574807 10:-0.424625 11:0.0786084 
1 1:0.101074 2:0.126138 3:0.247552 4:0.546877 5:0.182597 6:0.285713 7:-0.0559174 8:-0.195359 9:0.0344021 10:0.451171 11:0.476102 
1 1:-0.0605527 2:0.119812 3:0.116697 4:0.5293 5:0.126989 6:0.285713 7:-0.255267 8:-0.50207 9:-0.187304 10:-0.193305 11:0.256796 
1 1:-0.0803424 2:0.166812 3:0.20181 4:0.525545 5:0.0611556 6:0.250392 7:-0.0269794 8:-0.021812 9:-0.184118 10:-0.256533 11:0.186304 
1 1:-0.362465 2:0.0488775 3:-0.231378 4:0.0913635 5:0.366468 6:0.591836 7:-0.65695 8:-0.914498 9:-0.357603 10:-0.439534 11:0.100148 
1 1:-0.00394692 2:0.0691184 3:0.0632796 4:0.482089 5:0.117739 6:0.285713 7:-0.202521 8:-0.171029 9:-0.340304 10:0.208823 11:-0.0721649 
1 1:-0.234137 2:0.033633 3:0.116098 4:0.368546 5:0.269981 6:0.285713 7:-0.676167 8:-0.890447 9:-0.275761 10:0.111052 11:0.128865 
1 1:-0.0590793 2:0.181088 3:0.240854 4:0.570118 5:0.0874455 6:0.0476181 7:-0.26842 8:-0.467475 9:-0.00493518 10:-0.280474 11:0.195876 
1 1:-0.0358568 2:0.184471 3:0.299645 4:0.591722 5:0.240853 6:0.285713 7:-0.608222 8:-0.76421 9:-0.27631 10:0.29042 11:0.272459 
1 1:0.259732 2:0.188922 3:0.261096 4:0.551373 5:0.21522 6:0.285713 7:0.366659 8:-0.0959754 9:0.842646 10:-0.0530566 11:0.463918 
1 1:0.208116 2:0.220334 3:0.149439 4:0.587888 5:0.0931689 6:0.285713 7:0.672403 8:0.36659 9:0.0960244 10:0.642072 11:0.0618569 
1 1:-0.124358 2:0.136727 3:0.134406 4:0.554677 5:0.169004 6:0.285713 7:-0.659417 8:-0.66416 9:-0.526762 10:-0.589414 11:0.195876 
1 1:-0.0754488 2:0.172463 3:0.127253 4:0.553569 5:0.122066 6:0.285713 7:-0.0363477 8:-0.674057 9:-0.254611 10:-0.176859 11:0.169072 
1 1:-0.0554544 2:0.015512 3:0.13184 4:0.190295 5:0.21658 6:0.285713 7:-0.461782 8:-0.530164 9:-0.160335 10:0.0790481 11:0.380155 
1 1:0.252521 2:0.136299 3:0.131281 4:0.554677 5:0.0937229 6:0.285713 7:0.437103 8:0.633287 9:-0.0692554 10:0.295318 11:-0.206187 
1 1:0.382944 2:0.136727 3:0.241687 4:0.554677 5:0.145821 6:0.0620087 7:0.373944 8:0.172351 9:0.172596 10:0.497601 11:0.358615 
1 1:0.0660122 2:0.0176393 3:0.135224 4:0.471518 5:0.138412 6:0.285713 7:0.188542 8:-0.0779773 9:0.00763767 10:-0.196619 11:0.530928 
1 1:-0.122823 2:0.0423405 3:0.0775059 4:0.558497 5:0.0521931 6:0.132652 7:-0.241922 8:-0.0845142 9:-0.375362 10:-0.568969 11:0.100148 
1 1:-0.055038 2:0.0972327 3:-0.0702299 4:0.231968 5:0.35251 6:0.285713 7:-0.370138 8:-0.57632 9:-0.0244387 10:-0.544421 11:0.681702 
1 1:-0.0324847 2:0.127668 3:0.401664 4:0.637389 5:0.0321024 6:0.209183 7:-0.504421 8:-0.601147 9:-0.223562 10:-0.292357 11:0.229382 
1 1:-0.275108 2:0.130089 3:0.0736973 4:0.556062 5:0.0899172 6:0.285713 7:-0.721514 8:-0.874708 9:-0.705852 10:-0.613277 11:-0.401126 
1 1:-0.0649587 2:0.026756 3:0.107179 4:0.49121 5:0.077288 6:0.258241 7:-0.0566528 8:-0.0976686 9:-0.140776 10:-0.057302 11:0.113402 
1 1:-0.339843 2:0.149131 3:-0.023863 4:0.512 5:0.299109 6:0.285713 7:-0.908152 8:-0.855301 9:-0.776671 10:-0.927015 11:0.100148 
1 1:-0.106453 2:0.135286 3:0.0682807 4:0.553739 5:0.250563 6:0.285713 7:-0.588719 8:-0.664334 9:-0.34857 10:-0.671365 11:0.0786084 
1 1:-0.139749 2:0.00861509 3:0.00343501 4:0.439263 5:0.225848 6:0.238094 7:-0.261805 8:-0.309689 9:-0.104364 10:-0.417696 11:0.169072 
1 1:-0.0561057 2:0.177086 3:0.121823 4:0.306885 5:0.156646 6:0.0714278 7:-0.380311 8:-0.331516 9:-0.248145 10:-0.330124 11:0.289691 
1 1:-0.256855 2:0.118803 3:-0.155557 4:0.0977008 5:0.335519 6:0.183673 7:-0.679356 8:-0.751651 9:-0.394982 10:-0.772926 11:0.272459 
1 1:0.252341 2:0.108889 3:0.105524 4:0.509568 5:0.166674 6:0.285713 7:0.341646 8:0.227724 9:0.14386 10:0.00786495 11:0.186304 
1 1:-0.159231 2:0.142594 3:0.0958776 4:0.554677 5:0.063158 6:0.285713 7:-0.196492 8:-0.193999 9:-0.47694 10:0.165001 11:-0.143118 
1 1:0.0810898 2:0.102581 3:0.161111 4:0.529278 5:0.166913 6:0.285713 7:-0.294089 8:-0.236917 9:-0.304056 10:-0.0177018 11:0.0283514 
1 1:-0.263661 2:0.0140695 3:-0.0397764 4:0.407877 5:0.311853 6:0.285713 7:-0.656622 8:-0.810195 9:-0.357054 10:-0.680617 11:0.100148 
1 1:0.0144032 2:0.0583361 3:0.129504 4:0.502766 5:0.459313 6:0.285713 7:-0.474246 8:-0.661669 9:-0.0528032 10:-0.307772 11:0.617084 
1 1:-0.0895389 2:0.136727 3:-0.0114102 4:0.320408 5:0.0909218 6:0.285713 7:-0.0245571 8:-0.193346 9:-0.349458 10:-0.362342 11:-0.355973 
1 1:-0.18016 2:0.136727 3:0.0287528 4:0.476412 5:0.163293 6:0.285713 7:-0.135998 8:-0.473661 9:-0.141757 10:-0.253504 11:0.0283514 
1 1:0.123919 2:0.162231 3:0.131933 4:0.527078 5:0.144838 6:0.285713 7:-0.24142 8:-0.60084 9:0.166438 10:-0.51462 11:-0.0721649 
1 1:-0.17076 2:0.136727 3:0.0919707 4:0.550769 5:0.284545 6:0.285713 7:-0.757834 8:-0.807116 9:-0.525902 10:-0.527989 11:-0.0721649 
1 1:-0.139906 2:0.243737 3:0.232295 4:0.693622 5:0.022393 6:0.285713 7:-0.54546 8:-0.741103 9:-0.171606 10:-0.16591 11:-0.0721649 
1 1:-0.128803 2:0.118082 3:0.161877 4:0.554677 5:0.0486082 6:0.285713 7:0.172084 8:-0.432048 9:-0.00700042 10:0.0466624 11:0.100148 
1 1:-0.156512 2:-0.0203038 3:0.139867 4:0.427509 5:0.181361 6:0.285713 7:-0.547934 8:-0.554192 9:-0.451516 10:-0.0484892 11:0.0484537 
1 1:-0.113827 2:0.0282394 3:0.0583297 4:0.474919 5:0.141041 6:0.275509 7:-0.215403 8:-0.244414 9:-0.351765 10:-0.0472289 11:-0.15832 
1 1:-0.197496 2:0.0595272 3:0.140958 4:0.474469 5:0.126989 6:0.285713 7:-0.662272 8:-0.605562 9:-0.639969 10:0.508898 11:0.0374895 
1 1:-0.135199 2:0.198829 3:0.206463 4:0.598148 5:0.226289 6:0.234693 7:-0.790365 8:-0.768338 9:-0.580175 10:-0.26125 11:0.100148 
1 1:-0.0806806 2:0.195045 3:0.227512 4:0.624063 5:0.221435 6:0.285713 7:-0.585108 8:-0.71483 9:-0.343221 10:-0.209311 11:-0.0721649 
1 1:-0.434282 2:-0.109589 3:-0.425763 4:-0.0578361 5:0.314752 6:0.285713 7:-0.639544 8:-0.855919 9:-0.423937 10:-0.683814 11:0.0786084 
1 1:0.0381275 2:0.161797 3:0.149809 4:0.494018 5:0.236779 6:0.285713 7:-0.143728 8:-0.200739 9:-0.149697 10:0.236701 11:0.832475 
1 1:-0.0160973 2:0.117616 3:0.184305 4:0.553394 5:0.219669 6:0.285713 7:-0.496471 8:-0.604763 9:-0.455567 10:0.192428 11:0.0374895 
1 1:0.0155795 2:0.119572 3:0.281178 4:0.542567 5:0.197161 6:0.285713 7:-0.612677 8:-0.737947 9:-0.283743 10:0.0934448 11:0.100148 
1 1:-0.0634212 2:0.15349 3:0.140775 4:0.543365 5:0.101762 6:0.285713 7:-0.278033 8:-0.409142 9:-0.287576 10:-0.304716 11:-0.172681 
1 1:-0.0987478 2:0.137236 3:0.0800155 4:0.473045 5:0.22742 6:0.285713 7:-0.35726 8:-0.405634 9:-0.220176 10:-0.280807 11:0.289691 
1 1:-0.143283 2:0.119725 3:0.319386 4:0.54097 5:0.0369572 6:0.285713 7:-0.652809 8:-0.800508 9:-0.231233 10:0.409616 11:0.128865 
1 1:-0.148728 2:0.164488 3:0.0231539 4:0.419059 5:0.182597 6:0.285713 7:-0.457189 8:-0.923223 9:-0.153526 10:-0.686028 11:0.380155 
1 1:-0.299171 2:0.0908476 3:0.0954284 4:0.511302 5:0.284545 6:0.285713 7:-0.819197 8:-1 9:-0.628271 10:-0.457565 11:0.100148 
1 1:-0.151862 2:0.104141 3:0.0754733 4:0.522888 5:0.182597 6:0.285713 7:-0.50601 8:-0.644367 9:-0.225925 10:-0.582011 11:0.0786084 
1 1:-0.119075 2:0.186474 3:0.183227 4:0.378958 5:0.169004 6:0.285713 7:-0.573011 8:-0.66184 9:-0.411443 10:0.526576 11:0.195876 
1 1:-0.0951318 2:0.123361 3:0.127204 4:0.548445 5:0.158931 6:0.285713 7:-0.45164 8:-0.742409 9:-0.0150893 10:-0.354771 11:0.100148 
1 1:-0.0796129 2:0.136727 3:0.238355 4:0.554677 5:0.0806489 6:0.285713 7:-0.466826 8:-0.456607 9:-0.613684 10:0.351008 11:-0.0721649 
1 1:-0.134183 2:0.170348 3:0.0305781 4:0.517855 5:0.275277 6:0.285713 7:-0.350007 8:-0.444497 9:-0.292674 10:-0.0139877 11:0.476102 
1 1:-0.0206795 2:0.137516 3:0.343872 4:0.579566 5:0.250563 6:0.196428 7:-0.435664 8:-0.565432 9:-0.228139 10:0.118749 11:0.329898 
1 1:-0.11923 2:0.179839 3:0.0248441 4:0.524381 5:0.21658 6:0.285713 7:-0.46134 8:-0.647495 9:-0.159679 10:-0.716726 11:0.0786084 
1 1:0.000266924 2:0.0942147 3:0.0777948 4:0.552731 5:0.133662 6:0.285713 7:-0.447545 8:-0.397654 9:-0.243996 10:-0.514947 11:-0.340206 
1 1:-0.019957 2:0.136727 3:0.0342964 4:0.514099 5:0.228813 6:0.285713 7:-0.526932 8:-0.60165 9:-0.349947 10:-0.70494 11:-0.206187 
1 1:0.0702812 2:0.177206 3:0.030679 4:0.367559 5:0.0414382 6:0.285713 7:-0.0937778 8:-0.116279 9:-0.0984153 10:-0.404205 11:0.0283514 
1 1:0.133078 2:0.0985654 3:0.211793 4:0.291287 5:0.478039 6:0.285713 7:-0.517655 8:-0.675198 9:0.0264528 10:0.00296869 11:0.530928 
1 1:-0.0158606 2:0.0966202 3:0.100928 4:0.471185 5:0.0686554 6:0.285713 7:-0.00936488 8:-0.181341 9:-0.288269 10:-0.269205 11:-0.147552 
1 1:-0.243837 2:0.148868 3:0.030191 4:0.455396 5:0.211725 6:0.285713 7:-0.579155 8:-0.710765 9:-0.0908055 10:-0.434443 11:0.329898 
1 1:-0.068507 2:0.18925 3:0.039231 4:0.489733 5:0.284545 6:0.285713 7:-0.618581 8:-0.790324 9:-0.29359 10:-0.778774 11:0.100148 
1 1:-0.137114 2:0.0618078 3:0.0672524 4:0.522741 5:0.0452405 6:0.132652 7:-0.179292 8:-0.523656 9:-0.373841 10:-0.549982 11:-0.0721649 
1 1:0.0819191 2:0.09509 3:0.162218 4:0.456995 5:0.19619 6:0.285713 7:-0.386023 8:-0.423472 9:-0.161889 10:-0.212754 11:0.195876 
1 1:0.228162 2:0.128961 3:0.225469 4:0.507259 5:0.14361 6:0.226844 7:0.198771 8:0.3425 9:0.0167405 10:0.279204 11:0.358615 
1 1:0.121066 2:0.049999 3:0.131999 4:0.539424 5:0.0579939 6:-0.160716 7:-0.285613 8:-0.598854 9:0.100904 10:-0.306629 11:0.0786084 
1 1:0.0634337 2:0.174359 3:0.132672 4:0.548996 5:0.13675 6:0.285713 7:-0.099159 8:-0.349794 9:-0.103937 10:0.0039714 11:0.128865 
1 1:-0.0770379 2:0.190326 3:0.104007 4:0.566786 5:0.00588718 6:0.285713 7:-0.438633 8:-0.364332 9:-0.232102 10:-0.625247 11:-0.0721649 
1 1:0.0744737 2:0.106354 3:0.164074 4:0.53044 5:0.141818 6:0.285713 7:-0.0368287 8:-0.37953 9:-0.192881 10:0.307388 11:-0.15832 
1 1:-0.096438 2:0.113198 3:0.145337 4:0.540155 5:0.386493 6:0.285713 7:-0.625548 8:-0.935866 9:-0.403183 10:-0.616177 11:-0.0721649 
1 1:-0.0537995 2:0.062874 3:-0.386288 4:-0.327291 5:0.223376 6:0.285713 7:-0.471963 8:-0.633854 9:-0.276584 10:-0.457528 11:0.0618569 
1 1:0.0753065 2:0.0841742 3:0.0611418 4:0.478491 5:0.0956416 6:0.285713 7:0.317026 8:0.395947 9:-0.0320345 10:-0.350703 11:0.0786084 
1 1:-0.296918 2:0.137609 3:0.0438761 4:0.54767 5:0.197161 6:0.285713 7:-0.874199 8:-0.892953 9:-0.72003 10:-0.797058 11:-0.0721649 
1 1:0.0781056 2:0.141956 3:0.153447 4:0.582677 5:0.113138 6:0.285713 7:0.187312 8:-0.237921 9:0.0917916 10:0.0623125 11:0.113402 
1 1:-0.0328317 2:0.084878 3:0.118711 4:0.516551 5:0.186373 6:0.285713 7:-0.291632 8:-0.514769 9:0.0919777 10:-0.189736 11:0.229382 
1 1:0.0216707 2:0.105812 3:0.13137 4:0.546442 5:0.240853 6:0.285713 7:-0.540323 8:-0.804896 9:-0.163038 10:-0.538899 11:-0.0721649 
1 1:0.241928 2:0.131755 3:0.233039 4:0.597311 5:0.201133 6:0.285713 7:-0.0609641 8:0.00563545 9:0.0287924 10:0.295045 11:0.366448 
1 1:-0.106311 2:0.136727 3:0.152215 4:0.554677 5:0.284545 6:0.285713 7:-0.724891 8:-0.779718 9:-0.470945 10:-0.00171829 11:0.100148 
1 1:0.0528688 2:0.131502 3:0.141332 4:0.584488 5:0.0515213 6:0.265305 7:0.28997 8:-0.145682 9:0.0175825 10:0.0398942 11:0.0886608 
1 1:-0.132485 2:0.138213 3:0.123091 4:0.558401 5:0.211553 6:0.285713 7:-0.558788 8:-0.58806 9:-0.575802 10:-0.101647 11:-0.0721649 
1 1:-0.112687 2:0.108232 3:0.169381 4:0.522111 5:0.371929 6:0.285713 7:-0.686052 8:-0.793066 9:-0.406145 10:0.438841 11:0.100148 
1 1:0.239214 2:0.0606136 3:0.0252566 4:0.423287 5:0.106636 6:0.285713 7:0.462507 8:0.685788 9:0.0116751 10:-0.441613 11:-0.143118 
1 1:0.168029 2:0.154372 3:0.174393 4:0.499483 5:0.126582 6:0.285713 7:0.0822939 8:0.140393 9:-0.00831678 10:0.0601369 11:0.298969 
1 1:-0.201405 2:0.105183 3:0.195514 4:0.54422 5:0.0874455 6:0.285713 7:-0.389896 8:-0.41136 9:-0.167057 10:0.0341861 11:0.0618569 
1 1:-0.117014 2:0.155367 3:-0.0105789 4:0.425797 5:0.145525 6:0.285713 7:-0.348442 8:-0.359211 9:-0.290934 10:-0.518314 11:-0.181819 
1 1:0.0140473 2:0.00219628 3:0.0896925 4:0.482686 5:0.140025 6:0.285713 7:-0.0253448 8:-0.214057 9:-0.110932 10:-0.05204 11:0.113402 
1 1:0.461726 2:0.202045 3:0.160352 4:0.53002 5:0.106386 6:0.285713 7:0.85884 8:0.786376 9:0.604032 10:0.150192 11:0.358615 
1 1:-0.254308 2:0.0904821 3:0.141832 4:0.567949 5:0.250563 6:0.285713 7:-0.667196 8:-0.791342 9:-0.464944 10:-0.275279 11:0.380155 
1 1:-0.211347 2:0.220102 3:0.078911 4:0.599252 5:0.00827717 6:0.285713 7:-0.320403 8:-0.211713 9:-0.445185 10:-0.441068 11:0.272459 
1 1:0.018957 2:0.0702628 3:0.185075 4:0.502823 5:0.794287 6:0.285713 7:-0.625419 8:-0.813769 9:-0.0110193 10:-0.170123 11:0.651547 
1 1:-0.162936 2:0.112799 3:0.100159 4:0.526502 5:0.0842138 6:0.26948 7:-0.439899 8:-0.431289 9:-0.453748 10:-0.420133 11:0.0283514 
1 1:0.273973 2:0.137229 3:0.320794 4:0.554677 5:0.284545 6:0.285713 7:-0.358567 8:-0.358568 9:0.140181 10:0.0121311 11:0.100148 
1 1:0.100598 2:0.117097 3:0.145904 4:0.444704 5:0.131623 6:0.285713 7:-0.00223753 8:0.0437278 9:-0.226153 10:0.428393 11:0.0082467 
1 1:-0.0583941 2:0.158755 3:0.112918 4:0.539936 5:0.116205 6:0.285713 7:-0.140536 8:-0.35754 9:0.04277 10:-0.26125 11:0.289691 
1 1:0.0846381 2:0.0875285 3:0.403972 4:0.436777 5:0.153469 6:0.285713 7:-0.561771 8:-0.793458 9:-0.0576593 10:0.444573 11:0.128865 
1 1:0.0762158 2:-0.0490718 3:0.0676719 4:0.481939 5:0.113138 6:0.285713 7:0.154714 8:0.155037 9:0.0607153 10:-0.291885 11:-0.0721649 
1 1:6.94003e-005 2:0.160572 3:0.086366 4:0.534413 5:0.114632 6:0.285713 7:-0.464647 8:-0.527358 9:-0.266821 10:-0.317891 11:0.195876 
1 1:0.023678 2:0.185997 3:0.258318 4:0.617308 5:0.099898 6:0.26948 7:-0.271115 8:-0.389311 9:-0.280473 10:-0.0343868 11:0.0283514 
1 1:-0.0361309 2:0.155349 3:0.159073 4:0.567238 5:0.21658 6:0.285713 7:-0.653468 8:-0.698476 9:-0.44459 10:-0.0273104 11:-0.0721649 
1 1:0.105962 2:0.136727 3:0.138475 4:0.541137 5:0.201133 6:0.285713 7:-0.375756 8:-0.403688 9:-0.242619 10:-0.382798 11:-0.192784 
1 1:0.0427488 2:0.122191 3:0.135022 4:0.520511 5:0.204346 6:0.285713 7:-0.381723 8:-0.525301 9:-0.156149 10:-0.0739571 11:0.329898 
1 1:-0.154992 2:0.195699 3:0.119816 4:0.582408 5:0.198909 6:0.285713 7:-0.295104 8:-0.825406 9:-0.0405466 10:0.0837213 11:0.195876 
1 1:-0.126908 2:0.00268137 3:-0.221743 4:0.0607307 5:0.185158 6:0.321035 7:-0.163242 8:-0.242944 9:-0.242387 10:-0.362374 11:0.206187 
1 1:-0.227192 2:0.0537876 3:0.101962 4:0.435485 5:0.148614 6:0.285713 7:-0.61192 8:-0.783885 9:-0.382977 10:-0.142836 11:-0.0721649 
1 1:-0.105771 2:0.130294 3:-0.030516 4:0.34199 5:0.153469 6:-0.0714291 7:-0.530986 8:-0.755907 9:0.00104192 10:-0.595021 11:0.329898 
1 1:-0.0221921 2:0.109024 3:0.175405 4:0.540653 5:0.258114 6:0.285713 7:-0.519798 8:-0.629529 9:-0.246368 10:-0.272802 11:0.380155 
1 1:-0.485226 2:-0.0688865 3:-0.361674 4:-0.198934 5:0.223376 6:-0.142858 7:-0.866459 8:-1 9:-0.547173 10:-0.556808 11:0.169072 
1 1:0.103277 2:0.159837 3:0.396555 4:0.529402 5:0.250563 6:0.0714278 7:-0.531557 8:-0.72488 9:0.197765 10:-0.0367579 11:0.41031 
1 1:0.0840296 2:0.118022 3:0.0775059 4:0.478548 5:0.151228 6:0.285713 7:-0.168631 8:-0.195785 9:-0.175262 10:-0.196281 11:-0.273195 
1 1:-0.141162 2:0.151181 3:0.0965316 4:0.552688 5:0.0870652 6:0.285713 7:-0.366332 8:-0.510929 9:-0.378223 10:-0.170401 11:-0.373712 
1 1:0.0577606 2:0.136727 3:0.106644 4:0.554677 5:0.28404 6:0.285713 7:-0.292124 8:-0.393344 9:-0.141148 10:0.0515104 11:0.0484537 
1 1:0.151791 2:0.145669 3:0.163151 4:0.557127 5:0.079218 6:0.273182 7:0.426466 8:0.575134 9:-0.132236 10:-0.0312936 11:0.0548031 
1 1:-0.0917561 2:0.150346 3:0.0972503 4:0.51853 5:0.223376 6:0.285713 7:-0.541041 8:-0.611747 9:-0.443157 10:-0.123872 11:0.169072 
1 1:-0.059323 2:0.0877224 3:0.114943 4:0.506778 5:0.32934 6:0.285713 7:-0.559098 8:-0.731539 9:-0.525218 10:-0.245607 11:0.0374895 
1 1:-0.0649213 2:-0.0984008 3:-0.0111594 4:0.210011 5:0.348747 6:0.285713 7:-0.0366788 8:-0.491667 9:0.168778 10:-0.191051 11:-0.192784 
1 1:-0.0973954 2:0.0451607 3:0.1005 4:0.551587 5:0.156646 6:0.285713 7:-0.717255 8:-0.566113 9:-0.656951 10:-0.588536 11:-0.313402 
1 1:0.012823 2:0.180598 3:0.0622699 4:0.550202 5:0.0704542 6:0.285713 7:-0.1264 8:-0.248804 9:-0.329722 10:-0.337755 11:-0.393814 
1 1:-0.159096 2:0.0855647 3:0.120812 4:0.541397 5:0.114034 6:0.250392 7:-0.267946 8:-0.183652 9:-0.398517 10:0.211983 11:0.186304 
1 1:-0.188175 2:0.150227 3:0.0883961 4:0.573671 5:0.138905 6:0.183673 7:-0.584122 8:-0.576612 9:-0.236107 10:-0.511336 11:0.272459 
1 1:-0.331405 2:0.109879 3:0.0461543 4:0.537707 5:0.199588 6:0.285713 7:-0.907807 8:-0.87565 9:-0.858264 10:-0.797361 11:-0.0721649 
1 1:-0.538266 2:-0.0346176 3:-0.491693 4:-0.282103 5:0.415621 6:0.285713 7:-0.928413 8:-0.958126 9:-0.810471 10:-0.699846 11:0.100148 
1 1:0.174339 2:0.142332 3:0.0133455 4:0.31676 5:0.201133 6:0.285713 7:-0.0939695 8:-0.12192 9:-0.00791676 10:-0.33448 11:0.0374895 
1 1:0.10919 2:0.123015 3:0.159155 4:0.527549 5:0.182597 6:0.285713 7:-0.239353 8:-0.569166 9:0.169503 10:-0.259944 11:-0.0721649 
1 1:0.0485002 2:0.148284 3:-0.00658885 4:0.253322 5:0.304935 6:0.285713 7:-0.1895 8:-0.657042 9:0.100392 10:-0.492439 11:0.329898 
1 1:-0.157852 2:0.161658 3:0.0483831 4:0.555352 5:0.11986 6:0.285713 7:-0.181286 8:-0.391302 9:-0.188253 10:-0.388635 11:-0.0721649 
1 1:0.0112571 2:0.174551 3:0.106234 4:0.554677 5:0.140025 6:0.285713 7:-0.273519 8:-0.388483 9:-0.347509 10:0.353193 11:0.0206198 
1 1:-0.152006 2:0.12369 3:0.0472665 4:0.517878 5:0.083562 6:0.285713 7:-0.174109 8:-0.379943 9:-0.315024 10:0.00573304 11:0.100148 
1 1:0.0971444 2:0.17838 3:0.202473 4:0.644861 5:0.141818 6:0.0476181 7:-0.337672 8:-0.58251 9:-0.0973594 10:-0.202543 11:0.0618569 
1 1:0.135831 2:0.0922514 3:0.137707 4:0.536615 5:0.153469 6:0.285713 7:0.0793349 8:-0.133097 9:-0.0895263 10:0.109826 11:0.272459 
1 1:-0.0832875 2:0.174539 3:0.100029 4:0.537997 5:0.253281 6:0.285713 7:-0.62454 8:-0.731081 9:-0.480215 10:-0.206469 11:0.195876 
1 1:0.00879249 2:0.0851289 3:-0.0817954 4:0.165302 5:0.292128 6:0.285713 7:-0.170621 8:-0.457255 9:0.0062655 10:-0.349792 11:0.169072 
1 1:0.0580222 2:0.108366 3:0.0480921 4:0.518244 5:0.24562 6:0.285713 7:-0.12832 8:-0.40437 9:0.0575895 10:-0.590424 11:0.41031 
1 1:0.0418964 2:0.0377617 3:0.237496 4:0.507514 5:0.19619 6:0.285713 7:-0.240193 8:-0.449102 9:0.0327369 10:0.0028077 11:0.329898 
1 1:0.0206653 2:0.129788 3:0.0590536 4:0.46898 5:0.138175 6:0.285713 7:0.544083 8:-0.0614107 9:0.0721579 10:0.073639 11:-0.0721649 
1 1:0.0136149 2:0.103979 3:0.0551803 4:0.459467 5:0.200694 6:0.464285 7:-0.0734796 8:-0.315476 9:-0.0775768 10:0.0516944 11:0.128865 
1 1:0.00625849 2:0.171312 3:0.0269511 4:0.504455 5:0.170532 6:0.285713 7:-0.080241 8:-0.0902361 9:-0.0845167 10:-0.442083 11:0.128865 
1 1:0.0274078 2:0.156214 3:0.143538 4:0.514662 5:0.125445 6:0.285713 7:-0.0947746 8:-0.468453 9:-0.00881449 10:-0.312388 11:-0.0721649 
1 1:-0.0628553 2:0.187214 3:0.165028 4:0.547015 5:0.109777 6:0.285713 7:-0.423978 8:-0.703445 9:0.0310577 10:0.0915843 11:0.100148 
1 1:-0.355838 2:-0.0750175 3:-0.0355853 4:0.327285 5:0.250563 6:0.285713 7:-0.742224 8:-0.824832 9:-0.576198 10:-0.475223 11:0.0786084 
1 1:0.0454572 2:0.185764 3:0.0833071 4:0.541246 5:0.0884912 6:0.285713 7:-0.047152 8:-0.190165 9:-0.0505472 10:-0.38281 11:-0.0721649 
1 1:0.00272441 2:0.136727 3:0.629829 4:0.554677 5:0.304935 6:0.285713 7:-0.717189 8:-0.880612 9:-0.215143 10:-0.00402958 11:-0.0721649 
1 1:0.11495 2:0.0149933 3:0.0907499 4:0.530542 5:0.11986 6:0.285713 7:-0.0379126 8:-0.137528 9:-0.0410629 10:-0.131958 11:-0.172681 
1 1:0.0691298 2:0.112428 3:0.183337 4:0.535806 5:0.114691 6:0.285713 7:-0.0524113 8:-0.0277055 9:-0.322061 10:0.204056 11:0.153995 
1 1:0.0815223 2:0.17516 3:0.109958 4:0.377102 5:0.219669 6:0.285713 7:-0.308985 8:-0.240779 9:-0.247052 10:-0.385105 11:-0.0721649 
1 1:0.103611 2:0.136727 3:0.201513 4:0.535325 5:0.132401 6:0.285713 7:0.337244 8:0.0805638 9:-0.0812049 10:0.411182 11:0.282596 
1 1:-0.126471 2:0.150657 3:-0.0644836 4:0.339834 5:0.267863 6:0.285713 7:-0.386253 8:-0.532769 9:-0.255355 10:-0.581353 11:-0.0721649 
1 1:-0.0185868 2:0.134172 3:-0.0776895 4:0.0391845 5:0.332121 6:0.285713 7:-0.527194 8:-0.602981 9:-0.350296 10:-0.338914 11:0.0618569 
1 1:-0.206663 2:0.0729108 3:-0.245749 4:-0.0364548 5:0.284545 6:0.285713 7:-0.607491 8:-0.879109 9:-0.376409 10:-0.639964 11:0.0786084 
1 1:-0.154035 2:0.198942 3:0.131517 4:0.60609 5:0.255417 6:0.285713 7:-0.633442 8:-0.699498 9:-0.318387 10:-0.681728 11:0.444773 
1 1:-0.216335 2:0.136727 3:0.130377 4:0.554677 5:0.134404 6:0.285713 7:-0.665489 8:-0.755316 9:-0.594143 10:0.327104 11:-0.0721649 
1 1:-0.531045 2:-0.0155051 3:-0.127009 4:0.409255 5:0.345714 6:0.523809 7:-0.740777 8:-1 9:-0.635345 10:-0.309559 11:-0.340206 
1 1:-0.142559 2:0.0995239 3:0.0923139 4:0.537997 5:0.108453 6:0.285713 7:-0.372034 8:-0.505045 9:-0.317173 10:0.0842066 11:-0.0721649 
1 1:-0.0892115 2:0.174887 3:0.104351 4:0.626098 5:0.304935 6:0.285713 7:-0.700637 8:-0.793625 9:-0.178327 10:-0.730359 11:0.169072 
1 1:-0.399668 2:0.0722561 3:-0.246067 4:-0.186773 5:0.477114 6:0.55357 7:-0.745012 8:-1 9:-0.580333 10:-0.594492 11:-0.0721649 
1 1:0.0625671 2:0.199489 3:0.209355 4:0.615989 5:0.104175 6:0.107142 7:-0.435981 8:-0.336278 9:-0.449725 10:-0.16984 11:-0.172681 
1 1:-0.100823 2:0.133929 3:-0.0169819 4:0.49412 5:0.269885 6:0.285713 7:-0.529626 8:-0.621268 9:-0.429305 10:-0.595895 11:0.169072 
1 1:0.174456 2:0.149619 3:0.263158 4:0.562877 5:0.223376 6:0.285713 7:-0.298902 8:-0.493341 9:-0.0456167 10:0.596117 11:0.329898 
1 1:-0.201727 2:0.101354 3:-0.0837434 4:0.18771 5:0.211725 6:0.285713 7:-0.700474 8:-0.799719 9:-0.322103 10:-0.548285 11:-0.0721649 
1 1:-0.130627 2:0.0436035 3:0.0277941 4:0.403953 5:0.13405 6:0.247448 7:-0.546816 8:-0.619401 9:-0.286436 10:-0.520519 11:0.0786084 
1 1:-0.346411 2:0.13421 3:-0.161005 4:0.156415 5:0.199111 6:0.285713 7:-0.782998 8:-0.822722 9:-0.736715 10:-0.701745 11:0.0484537 
1 1:0.101652 2:0.136727 3:0.115787 4:0.554677 5:0.0961094 6:0.285713 7:0.245062 8:-0.105395 9:0.0579291 10:0.115642 11:-0.0721649 
1 1:-0.104373 2:0.146317 3:0.212753 4:0.581482 5:0.0588028 6:0.234693 7:-0.566723 8:-0.726006 9:-0.207078 10:-0.122232 11:0.100148 
1 1:-0.40908 2:0.055144 3:-0.267845 4:0.0425931 5:0.792466 6:0.285713 7:-0.861932 8:-0.941317 9:-0.699563 10:-0.546169 11:0.100148 
1 1:-0.390906 2:0.0457885 3:0.00261774 4:0.517671 5:0.19619 6:0.285713 7:-0.799005 8:-0.956194 9:-0.713057 10:-0.929004 11:0.0618569 
1 1:0.0961924 2:0.102254 3:0.139263 4:0.537057 5:0.130078 6:0.285713 7:-0.117136 8:-0.234017 9:-0.0336811 10:0.0415914 11:0.256796 
1 1:-0.269657 2:-0.00878337 3:-0.102755 4:0.199768 5:-0.00090936 6:0.142856 7:-0.25144 8:-0.620622 9:-0.434026 10:-0.405589 11:-0.232991 
1 1:0.0241371 2:0.110119 3:0.0827506 4:0.517484 5:0.0704542 6:0.142856 7:0.0888775 8:0.25422 9:-0.150153 10:-0.325478 11:0.0886608 
1 1:0.0359458 2:0.125328 3:0.084367 4:0.540432 5:0.130167 6:0.285713 7:-0.16647 8:-0.305655 9:-0.308228 10:-0.230844 11:-0.0721649 
1 1:-0.0558459 2:0.101924 3:0.0405763 4:0.538385 5:0.0593631 6:0.285713 7:-0.0994866 8:-0.389977 9:-0.181606 10:-0.381798 11:-0.536084 
1 1:-0.0650423 2:0.0546869 3:0.0837776 4:0.506177 5:0.286626 6:0.285713 7:-0.482345 8:-0.833896 9:0.0937731 10:-0.577384 11:0.128865 
1 1:0.131065 2:0.127527 3:0.0589624 4:0.511292 5:0.312349 6:0.285713 7:-0.0684504 8:-0.45668 9:0.0204617 10:-0.415978 11:0.147142 
1 1:0.0606915 2:0.136727 3:0.129133 4:0.517835 5:0.114183 6:0.285713 7:-0.148657 8:-0.450531 9:0.0329183 10:0.0520095 11:0.0484537 
1 1:0.0375723 2:0.115808 3:0.0668336 4:0.366507 5:0.166913 6:0.285713 7:-0.206352 8:-0.49661 9:-0.283482 10:-0.203612 11:0.0206198 
1 1:-0.293444 2:0.117231 3:-0.161236 4:0.302275 5:0.419782 6:0.540815 7:-0.698707 8:-0.917427 9:-0.31874 10:-0.726797 11:-0.273195 
1 1:-0.00691868 2:0.136727 3:0.282279 4:0.554677 5:0.314752 6:0.285713 7:-0.698107 8:-0.795044 9:-0.510784 10:-0.274964 11:-0.0721649 
1 1:0.106287 2:0.136727 3:0.0524982 4:0.309726 5:0.223376 6:0.285713 7:-0.200573 8:-0.476687 9:0.0856145 10:0.138305 11:0.0618569 
1 1:-0.467143 2:-0.00795476 3:-0.805458 4:-0.358695 5:1 6:0.897957 7:-0.89396 8:-0.841096 9:-0.752995 10:-0.935997 11:0.272459 
1 1:0.0439945 2:0.0559125 3:0.163038 4:0.433801 5:0.284545 6:0.285713 7:-0.423758 8:-0.580559 9:-0.10395 10:-0.104588 11:0.0786084 
1 1:-0.10979 2:0.134966 3:0.118665 4:0.495275 5:0.182597 6:0.0909085 7:-0.465797 8:-0.797292 9:-0.421453 10:-0.456454 11:-0.0721649 
1 1:0.107014 2:0.136727 3:0.387305 4:0.554677 5:0.503006 6:0.285713 7:-0.5691 8:-0.770343 9:-0.0716322 10:0.0736252 11:0.329898 
1 1:-0.00422096 2:0.193402 3:0.204744 4:0.460343 5:0.138396 6:0.285713 7:-0.141961 8:-0.228486 9:-0.147879 10:0.192223 11:0.329898 
1 1:0.0711247 2:0.207005 3:0.119233 4:0.532576 5:0.117008 6:0.26948 7:-0.012993 8:-0.011 9:-0.01548 10:0.076999 11:0.0283514 
1 1:0.160076 2:0.157075 3:0.179096 4:0.419026 5:0.22993 6:0.285713 7:-0.362749 8:-0.663622 9:0.133199 10:-0.195004 11:-0.0721649 
1 1:-0.115055 2:0.157027 3:-0.0276639 4:0.0462905 5:0.141818 6:0.285713 7:-0.405886 8:-0.630194 9:-0.188397 10:-0.146513 11:0.0618569 
1 1:-0.284432 2:0.153865 3:-0.227498 4:0.155442 5:0.503006 6:0.285713 7:-0.776912 8:-0.764187 9:-0.467842 10:-0.900761 11:0.128865 
0.8733097076294296 1:0.496285 2:0.18029 3:0.157502 4:0.52398 5:0.199562 6:0.285713 7:0.504149 8:0.464446 9:0.393833 10:0.244985 11:0.298969 
1 1:-0.123965 2:0.0663633 3:0.154522 4:0.540888 5:0.248135 6:0.0306115 7:-0.827519 8:-0.801608 9:-0.642155 10:-0.752716 11:-0.416789 
1 1:0.213418 2:0.0997931 3:0.196305 4:0.53814 5:0.182597 6:0.285713 7:0.0467617 8:-0.116937 9:0.0458679 10:0.211891 11:0.329898 
1 1:0.0746943 2:0.14896 3:0.0352434 4:0.256082 5:0.250563 6:0.285713 7:-0.300715 8:-0.536952 9:0.0785117 10:-0.317241 11:0.229382 
1 1:-0.105617 2:0.0381789 3:0.0758049 4:0.476227 5:0.171722 6:0.285713 7:-0.372211 8:-0.561263 9:-0.143455 10:-0.1637 11:0.195876 
1 1:-0.072897 2:0.136727 3:0.101518 4:0.554677 5:0.0495281 6:0.285713 7:0.119834 8:-0.245532 9:-0.336853 10:0.144116 11:-0.453067 
1 1:-0.189915 2:0.136727 3:0.0650382 4:0.546342 5:0.108337 6:0.285713 7:-0.521962 8:-0.674532 9:-0.584347 10:0.33171 11:-0.443299 
1 1:0.625075 2:0.119242 3:0.215611 4:0.544418 5:0.26292 6:0.285713 7:0.558826 8:0.465672 9:0.718104 10:-0.0420268 11:0.476102 
1 1:-0.00619442 2:0.0759983 3:0.149725 4:0.57144 5:0.156646 6:0.285713 7:-0.322839 8:-0.457289 9:-0.178415 10:-0.0103448 11:0.530928 
1 1:0.141466 2:0.136727 3:0.136556 4:0.554677 5:0.0924207 6:0.285713 7:0.149096 8:-0.0328657 9:-0.220706 10:0.248527 11:-0.426926 
1 1:0.252713 2:0.136715 3:0.162905 4:0.447473 5:0.0559161 6:0.285713 7:0.37455 8:-0.18621 9:0.382381 10:0.204431 11:-0.0721649 
1 1:0.255068 2:0.0926424 3:0.105562 4:0.535841 5:0.0784644 6:0.142856 7:0.302304 8:0.54085 9:0.0278715 10:-0.264601 11:0.0886608 
1 1:0.0990236 2:0.162348 3:0.0826905 4:0.504196 5:0.21658 6:0.285713 7:-0.254225 8:-0.605297 9:0.147451 10:-0.397931 11:-0.0721649 
1 1:0.0971658 2:0.0892757 3:0.0719096 4:0.422724 5:0.130624 6:0.285713 7:0.298808 8:0.00575806 9:-0.1097 10:-0.162352 11:0.0697405 
1 1:0.0287015 2:0.141016 3:0.349116 4:0.561503 5:0.153469 6:0.285713 7:-0.510701 8:-0.701797 9:-0.113621 10:0.157961 11:0.272459 
1 1:-0.29558 2:0.0874985 3:-0.00286025 4:0.410614 5:0.072807 6:0.285713 7:-0.501413 8:-0.720217 9:-0.606241 10:-0.700172 11:-0.244478 
1 1:0.00843125 2:0.123201 3:0.0950348 4:0.546336 5:0.104637 6:0.285713 7:-0.107071 8:-0.0557496 9:-0.364976 10:0.120051 11:0.00322172 
1 1:-0.0364601 2:0.186516 3:0.0704484 4:0.42115 5:0.225398 6:0.285713 7:-0.41477 8:-0.446891 9:-0.289952 10:-0.116384 11:0.0484537 
1 1:-0.0615278 2:0.100461 3:-0.0159913 4:0.451043 5:0.186238 6:0.285713 7:-0.430847 8:-0.682491 9:0.0195965 10:-0.704905 11:-0.0721649 
1 1:0.0972263 2:0.133513 3:0.14838 4:0.55492 5:0.201133 6:0.285713 7:-0.15309 8:-0.26642 9:-0.0736696 10:-0.303543 11:0.0374895 
1 1:-0.0647772 2:0.135581 3:0.0566321 4:0.475492 5:0.0436148 6:0.285713 7:-0.0367869 8:-0.040422 9:-0.476871 10:-0.0513294 11:-0.55464 
1 1:-0.102931 2:0.221235 3:0.0823267 4:0.509294 5:0.082459 6:0.285713 7:-0.557885 8:-0.59314 9:-0.574877 10:0.177049 11:-0.474228 
1 1:-0.162254 2:0.177549 3:0.191262 4:0.602898 5:0.109777 6:0.285713 7:-0.500392 8:-0.590837 9:-0.0964198 10:-0.227677 11:0.272459 
1 1:-0.355389 2:0.133544 3:0.270331 4:0.671627 5:0.386493 6:0.642856 7:-0.827398 8:-0.92912 9:-0.564099 10:-0.596463 11:0.530928 
1 1:-0.174821 2:0.0840209 3:0.0693451 4:0.566914 5:0.109777 6:0.285713 7:-0.524043 8:-0.578945 9:-0.661407 10:-0.119691 11:-0.474228 
1 1:0.176736 2:0.136727 3:0.198027 4:0.554677 5:0.126989 6:0.285713 7:-0.024937 8:-0.344673 9:0.06886 10:0.153318 11:0.0374895 
1 1:-0.0388695 2:0.136727 3:0.0758973 4:0.522927 5:0.165606 6:0.255952 7:-0.344291 8:-0.527592 9:-0.106192 10:-0.459609 11:0.0618569 
1 1:-0.0494362 2:0.128992 3:0.123785 4:0.455956 5:0.110898 6:0.285713 7:-0.130882 8:-0.2553 9:-0.211538 10:0.311065 11:0.206187 
1 1:-0.0189908 2:0.137825 3:0.121068 4:0.537406 5:0.0718464 6:0.285713 7:0.127721 8:-0.386564 9:0.0349882 10:0.0201067 11:-0.0721649 
1 1:0.0405565 2:0.0836504 3:0.176447 4:0.513739 5:0.0874455 6:0.285713 7:-0.281954 8:-0.617773 9:-0.0229967 10:-0.211797 11:-0.0721649 
1 1:0.253726 2:0.105555 3:0.13143 4:0.546821 5:0.224303 6:0.285713 7:0.179898 8:0.0544114 9:0.296674 10:-0.162821 11:0.366448 
1 1:0.133777 2:0.0978344 3:0.202446 4:0.53767 5:0.153469 6:0.285713 7:0.122688 8:-0.236515 9:-0.0509519 10:0.596327 11:0.0139906 
1 1:0.192744 2:0.133051 3:0.174982 4:0.554677 5:0.115964 6:0.285713 7:0.204487 8:0.213093 9:-0.179634 10:0.415011 11:0.0697405 
1 1:-0.0597964 2:0.113192 3:0.181327 4:0.548609 5:0.084458 6:0.250392 7:-0.244578 8:-0.391668 9:-0.377725 10:-0.0214229 11:0.186304 
1 1:-0.331464 2:0.0667682 3:-0.102847 4:0.390485 5:0.277748 6:0.285713 7:-0.615538 8:-0.853139 9:-0.4682 10:-0.818158 11:0.329898 
1 1:-0.0994578 2:-0.0236101 3:0.0738001 4:0.532167 5:0.052845 6:0.0909085 7:-0.300042 8:-0.379015 9:-0.237107 10:0.0308054 11:0.0374895 
1 1:0.0585045 2:0.0648089 3:0.113593 4:0.520892 5:0.104637 6:0.285713 7:0.352614 8:-0.151857 9:-0.00409327 10:0.415117 11:0.00322172 
1 1:0.261815 2:0.136727 3:0.150254 4:0.548916 5:0.111101 6:0.285713 7:0.648888 8:0.752489 9:-0.0931917 10:0.643804 11:0.100148 
1 1:-0.0826344 2:0.160326 3:0.147318 4:0.577712 5:0.149232 6:0.207791 7:-0.0550426 8:-0.404691 9:0.0353742 10:-0.0311234 11:0.366448 
1 1:0.205644 2:0.17901 3:0.30748 4:0.559991 5:0.105968 6:0.21507 7:0.163403 8:0.147256 9:-0.0147265 10:0.463318 11:0.444773 
1 1:-0.141466 2:0.10854 3:0.106466 4:0.55922 5:0.117619 6:0.258241 7:-0.13689 8:-0.355838 9:-0.217264 10:0.166245 11:0.113402 
1 1:-0.099246 2:0.0600073 3:0.289323 4:0.582385 5:0.172888 6:0.209183 7:-0.45692 8:-0.552791 9:-0.15313 10:0.23551 11:0.229382 
1 1:-0.282942 2:0.106182 3:-0.332479 4:-0.0911715 5:0.211725 6:0.285713 7:-0.705855 8:-0.832333 9:-0.522273 10:-0.110705 11:0.229382 
1 1:-0.0531411 2:0.134925 3:-0.0359862 4:0.235909 5:0.0895692 6:0.285713 7:0.06194 8:-0.315799 9:-0.172624 10:-0.272825 11:-0.0721649 
1 1:-0.269599 2:0.145459 3:-0.12481 4:0.220105 5:0.203107 6:0.285713 7:-0.740944 8:-0.71981 9:-0.762808 10:-0.760668 11:0.128865 
1 1:-0.0472865 2:0.0533712 3:0.0677152 4:0.493559 5:0.0899172 6:0.285713 7:-0.204145 8:-0.230598 9:-0.13045 10:-0.514052 11:-0.181819 
1 1:-0.253706 2:0.195527 3:-0.00121331 4:0.395746 5:0.0840097 6:0.285713 7:-0.754269 8:-0.590816 9:-0.805806 10:-0.421734 11:-0.257732 
1 1:0.000889748 2:0.172692 3:0.051464 4:0.496256 5:0.182597 6:0.285713 7:-0.168279 8:-0.36318 9:-0.174899 10:-0.516561 11:0.229382 
1 1:-0.316461 2:-0.0971776 3:0.0041333 4:0.433474 5:0.0833677 6:0.255952 7:-0.319758 8:-0.784978 9:-0.073451 10:-0.448628 11:0.0618569 
1 1:-0.12036 2:0.178477 3:0.156277 4:0.519828 5:0.277263 6:0.234693 7:-0.666318 8:-0.749109 9:-0.373232 10:-0.0952187 11:0.100148 
1 1:-0.00574599 2:0.1363 3:0.033759 4:0.383806 5:0.0626692 6:0.273182 7:0.0115257 8:-0.232825 9:-0.368194 10:-0.0784302 11:-0.206187 
1 1:-0.167564 2:0.136727 3:0.416095 4:0.554677 5:0.109777 6:0.285713 7:-0.704356 8:-0.876885 9:-0.436687 10:0.27032 11:-0.416789 
1 1:0.204909 2:0.176018 3:0.224426 4:0.633677 5:0.125563 6:0.253246 7:0.26253 8:-0.249169 9:0.267379 10:0.254044 11:0.128865 
1 1:0.163319 2:0.174228 3:0.0754662 4:0.435269 5:0.182277 6:0.285713 7:0.0907177 8:0.0670018 9:-0.00028839 10:0.0630048 11:0.206187 
1 1:0.0628073 2:0.136727 3:0.129436 4:0.554677 5:0.201133 6:0.285713 7:-0.293898 8:-0.437746 9:-0.143302 10:0.455034 11:0.0484537 
1 1:0.0511285 2:0.130975 3:0.0181896 4:0.539891 5:0.124686 6:0.285713 7:0.0257456 8:-0.130775 9:0.0242898 10:-0.448108 11:0.128865 
1 1:0.0360472 2:0.178467 3:0.0855562 4:0.535113 5:0.10295 6:0.285713 7:0.274785 8:-0.0410794 9:0.00491658 10:0.070371 11:0.169072 
1 1:-0.00142004 2:0.0244961 3:-0.0927398 4:0.160902 5:0.234845 6:0.285713 7:0.060633 8:0.368132 9:-0.173713 10:-0.407551 11:0.169072 
1 1:0.3966 2:0.168954 3:0.268327 4:0.554677 5:0.110138 6:0.285713 7:0.204609 8:0.0185622 9:0.461526 10:0.229563 11:-0.0721649 
1 1:0.343839 2:0.154481 3:0.258672 4:0.563407 5:0.07885 6:0.285713 7:0.385877 8:0.627425 9:0.0220199 10:0.638829 11:-0.0721649 
1 1:-0.121427 2:0.126638 3:-0.0131063 4:0.33122 5:0.284545 6:0.285713 7:-0.61666 8:-0.671018 9:-0.290385 10:-0.385107 11:0.272459 
1 1:-0.141578 2:0.0727921 3:0.117295 4:0.542686 5:0.113138 6:0.230768 7:-0.535959 8:-0.482618 9:-0.597692 10:0.0821712 11:0.298969 
1 1:-0.101198 2:0.17281 3:0.114978 4:0.532271 5:0.310976 6:0.285713 7:-0.607843 8:-0.913921 9:-0.37693 10:-0.308637 11:-0.0721649 
1 1:0.164771 2:0.104566 3:0.226064 4:0.545377 5:0.415621 6:0.285713 7:-0.344486 8:-0.64953 9:0.16367 10:-0.155961 11:0.272459 
1 1:-0.0871775 2:0.235128 3:0.320702 4:0.517259 5:0.0713811 6:0.0909085 7:-0.46617 8:-0.609551 9:-0.421867 10:0.140708 11:0.147142 
1 1:-0.273552 2:0.0700435 3:-0.683586 4:-0.339325 5:0.549612 6:0.523809 7:-0.72248 8:-0.574998 9:-0.610925 10:-0.717685 11:0.463918 
1 1:-0.142322 2:0.12453 3:0.0744703 4:0.543461 5:0.081722 6:0.285713 7:-0.319061 8:-0.187558 9:-0.629731 10:0.199916 11:-0.0721649 
1 1:0.084284 2:0.0568262 3:0.149443 4:0.511523 5:0.130167 6:0.285713 7:0.207578 8:-0.213947 9:0.0245782 10:0.425314 11:0.186304 
1 1:-0.125513 2:0.198558 3:0.0844924 4:0.542983 5:0.0788603 6:0.285713 7:0.145035 8:-0.103528 9:-0.274412 10:0.0523291 11:-0.0721649 
1 1:0.0816966 2:0.199678 3:0.112312 4:0.528887 5:0.0399609 6:0.285713 7:0.38907 8:-0.136728 9:0.100243 10:0.0518554 11:-0.0721649 
1 1:-0.0199677 2:0.125193 3:0.136292 4:0.542223 5:0.0974537 6:0.271977 7:-0.108827 8:-0.336479 9:-0.190514 10:0.154477 11:0.0206198 
1 1:-0.195476 2:0.115129 3:0.0770923 4:0.476872 5:0.219669 6:0.285713 7:-0.518474 8:-0.657557 9:-0.480038 10:-0.0756566 11:-0.181819 
1 1:-0.362954 2:0.0973392 3:-0.322111 4:-0.111531 5:0.342801 6:0.247448 7:-0.838377 8:-0.832024 9:-0.718788 10:-0.761804 11:0.0786084 
1 1:-0.0266373 2:0.145939 3:0.146315 4:0.562048 5:0.081722 6:0.285713 7:0.00305657 8:-0.35913 9:-0.414783 10:0.68669 11:-0.262615 
1 1:0.0405084 2:0.00497339 3:0.105973 4:0.43474 5:0.156646 6:0.285713 7:-0.32614 8:-0.468409 9:-0.18242 10:-0.209718 11:0.169072 
1 1:-0.334992 2:0.113911 3:0.143855 4:0.568305 5:0.0952129 6:0.0178564 7:-0.833614 8:-0.902797 9:-0.711722 10:0.433379 11:-0.0721649 
1 1:0.0055111 2:0.164706 3:0.162422 4:0.509271 5:0.197161 6:0.285713 7:-0.420834 8:-0.679043 9:0.0362999 10:-0.0444323 11:0.100148 
1 1:-0.271733 2:-0.00484574 3:0.0244705 4:0.444566 5:0.142436 6:0.285713 7:-0.111274 8:-0.5944 9:-0.0271644 10:-0.0779932 11:-0.0721649 
1 1:-0.0281765 2:0.136727 3:0.0235453 4:0.424557 5:0.250563 6:0.285713 7:-0.471858 8:-0.480148 9:-0.17528 10:-0.660268 11:0.380155 
1 1:-0.16597 2:0.122813 3:0.352113 4:0.563056 5:0.142546 6:0.285713 7:-0.593546 8:-1 9:-0.251825 10:-0.133995 11:-0.0721649 
1 1:-0.292968 2:0.112315 3:0.0202954 4:0.392839 5:0.182597 6:0.285713 7:-0.721072 8:-0.923328 9:-0.544833 10:-0.616667 11:0.0786084 
1 1:0.284312 2:0.0869277 3:0.248443 4:0.509719 5:0.275951 6:0.285713 7:-0.201005 8:-0.0775732 9:-0.0305972 10:0.137311 11:0.530928 
1 1:0.0117215 2:-0.0412349 3:0.0372402 4:0.376934 5:0.35251 6:0.285713 7:-0.386382 8:-0.455191 9:-0.0485285 10:-0.343166 11:0.380155 
1 1:-0.0430496 2:0.17311 3:-0.0255309 4:0.458222 5:0.310976 6:0.285713 7:-0.605215 8:-0.610193 9:-0.373032 10:-0.799654 11:0.0786084 
1 1:-0.299596 2:0.0873432 3:0.0099524 4:0.492679 5:0.0369572 6:0.285713 7:-0.788504 8:-0.872551 9:-0.489941 10:-0.519084 11:-0.273195 
1 1:0.183765 2:0.0761187 3:0.143925 4:0.53784 5:0.153641 6:0.285713 7:0.328803 8:-0.236657 9:0.335416 10:-0.0541306 11:0.128865 
1 1:0.00547373 2:0.12406 3:0.079885 4:0.585476 5:0.182597 6:0.0178564 7:-0.454794 8:-0.564181 9:-0.149972 10:-0.448393 11:0.380155 
1 1:-0.0101378 2:0.137113 3:0.251003 4:0.548479 5:0.211725 6:-0.0714291 7:-0.601158 8:-0.69455 9:-0.132752 10:0.186632 11:0.329898 
1 1:-0.0186954 2:0.123065 3:0.0744309 4:0.524529 5:0.165706 6:0.285713 7:-0.24156 8:-0.491308 9:-0.250131 10:0.432936 11:-0.0721649 
1 1:0.174013 2:0.0988556 3:0.162502 4:0.520443 5:0.205177 6:0.285713 7:-0.0743475 8:-0.241483 9:0.123073 10:-0.243093 11:0.169072 
1 1:0.103442 2:0.116697 3:0.280187 4:0.546161 5:0.284545 6:0.285713 7:-0.424434 8:-0.581688 9:-0.104955 10:0.415604 11:0.0786084 
1 1:-0.0655139 2:0.120654 3:0.137893 4:0.507192 5:0.314821 6:0.285713 7:-0.245362 8:-0.331947 9:-0.0844144 10:-0.176086 11:0.41031 
1 1:0.0971694 2:0.0730132 3:0.123809 4:0.520982 5:0.128502 6:0.285713 7:-0.149451 8:-0.223387 9:-0.229237 10:0.100912 11:0.113402 
1 1:-0.0403429 2:0.172252 3:0.287747 4:0.582213 5:0.250563 6:0.285713 7:-0.587443 8:-0.668649 9:-0.346681 10:0.53041 11:0.0786084 
1 1:-0.0694039 2:0.142201 3:0.0165687 4:0.402072 5:0.14037 6:0.285713 7:-0.337533 8:-0.389965 9:-0.348658 10:-0.468597 11:-0.172681 
1 1:0.00724433 2:0.140301 3:0.140205 4:0.561035 5:0.0907319 6:0.285713 7:-0.232474 8:-0.318082 9:-0.308386 10:-0.000131433 11:-0.257732 
1 1:-0.0296678 2:0.148714 3:0.0472381 4:0.498426 5:0.223376 6:0.285713 7:-0.322306 8:-0.478479 9:-0.177769 10:-0.229092 11:0.0484537 
1 1:-0.0461548 2:0.146535 3:0.0563107 4:0.561933 5:0.108453 6:0.0909085 7:-0.398424 8:-0.352882 9:-0.346523 10:-0.331667 11:-0.0721649 
1 1:-0.173294 2:0.0617225 3:-0.0302306 4:0.405213 5:0.0686554 6:0.285713 7:-0.32232 8:-0.423756 9:-0.533958 10:-0.352306 11:-0.524485 
1 1:-0.11915 2:0.0337486 3:0.085436 4:0.501976 5:0.141063 6:0.22619 7:-0.494711 8:-0.638916 9:-0.209166 10:-0.311197 11:-0.373712 
1 1:-0.169792 2:0.110757 3:0.204957 4:0.535761 5:0.250563 6:0.285713 7:-0.664948 8:-0.735919 9:-0.461609 10:0.227939 11:0.380155 
1 1:-0.0277957 2:0.0357391 3:0.226401 4:0.300791 5:0.328237 6:0.285713 7:-0.642026 8:-0.799374 9:-0.210673 10:0.174172 11:0.128865 
1 1:0.0449874 2:0.110366 3:0.108821 4:0.54778 5:0.219669 6:0.285713 7:-0.230456 8:-0.452779 9:-0.159712 10:-0.105641 11:0.0374895 
1 1:-0.214054 2:0.116056 3:0.0860403 4:0.543812 5:0.157883 6:0.285713 7:-0.639478 8:-0.874091 9:-0.614614 10:-0.518742 11:-0.181819 
1 1:-0.161215 2:0.0198489 3:-0.000908016 4:0.383973 5:0.35251 6:0.285713 7:-0.585091 8:-0.702515 9:-0.343193 10:-0.513077 11:0.0786084 
1 1:-0.165799 2:0.178941 3:0.138551 4:0.554677 5:0.141818 6:0.285713 7:-0.785611 8:-0.719895 9:-0.695182 10:-0.47543 11:-0.340206 
1 1:-0.0384994 2:0.142976 3:0.11158 4:0.553173 5:0.0781845 6:0.262165 7:0.0407113 8:-0.0822476 9:-0.123891 10:0.160774 11:0.100148 
1 1:-0.0484521 2:0.13036 3:0.0337836 4:0.471727 5:0.250563 6:0.285713 7:-0.388115 8:-0.554519 9:-0.16468 10:-0.165427 11:0.0618569 
1 1:0.0508882 2:0.102476 3:0.0628009 4:0.465479 5:0.174152 6:0.313186 7:-0.208286 8:-0.413192 9:-0.215971 10:-0.107299 11:0.128865 
1 1:-0.0715393 2:0.281095 3:0.257891 4:0.604393 5:-0.184416 6:-0.142858 7:-0.712215 8:-0.824962 9:-0.204082 10:-0.571322 11:-0.313402 
1 1:-0.00750769 2:0.141481 3:0.142772 4:0.49523 5:0.164392 6:0.285713 7:-0.421699 8:-0.587002 9:0.0348579 10:-0.309615 11:0.100148 
1 1:0.0960447 2:0.150108 3:0.224854 4:0.566725 5:0.106416 6:0.217032 7:0.188092 8:0.0613769 9:0.0925405 10:0.287384 11:0.391754 
1 1:-0.1645 2:0.0814706 3:0.0528886 4:0.515299 5:0.328237 6:0.285713 7:-0.770831 8:-0.85558 9:-0.456246 10:-0.469429 11:-0.0721649 
1 1:0.0422701 2:0.136727 3:0.11529 4:0.545002 5:0.250563 6:0.285713 7:-0.469687 8:-0.600587 9:-0.172062 10:0.0524694 11:0.0786084 
1 1:-0.0644284 2:0.145067 3:0.151006 4:0.549419 5:0.118515 6:0.285713 7:-0.145119 8:-0.49413 9:-0.289231 10:0.471114 11:-0.0721649 
1 1:0.0497707 2:0.136727 3:0.177022 4:0.481264 5:0.284545 6:0.285713 7:-0.54362 8:-0.71991 9:-0.168536 10:-0.0359898 11:0.100148 
1 1:-0.165826 2:0.00675827 3:-0.0156772 4:0.349434 5:0.169004 6:0.285713 7:-0.45017 8:-0.538157 9:-0.247499 10:-0.556638 11:0.195876 
1 1:-0.147013 2:0.0764662 3:0.0463858 4:0.528233 5:0.141818 6:0.285713 7:-0.479195 8:-0.608549 9:-0.286236 10:-0.343203 11:0.0618569 
1 1:0.121353 2:0.0910151 3:0.205662 4:0.540195 5:0.240853 6:0.285713 7:-0.504899 8:-0.672831 9:-0.103941 10:-0.296814 11:-0.0721649 
1 1:-0.168145 2:0.0887632 3:0.0147252 4:0.472472 5:0.400086 6:0.285713 7:-0.58545 8:-0.894549 9:0.0778838 10:-0.472838 11:0.169072 
1 1:-0.079515 2:0.050878 3:0.169199 4:0.519592 5:0.468052 6:0.285713 7:-0.531847 8:-0.89253 9:0.197119 10:-0.431825 11:0.41031 
1 1:0.0203236 2:0.115774 3:0.0732113 4:0.502221 5:0.139065 6:0.285713 7:-0.159949 8:-0.465031 9:-0.239247 10:-0.0673383 11:-0.0721649 
1 1:0.0852005 2:0.0175545 3:0.294517 4:0.646908 5:0.156646 6:0.0714278 7:-0.173412 8:-0.560042 9:0.00287924 10:-0.149627 11:0.0484537 
1 1:-0.0056499 2:0.182759 3:0.167268 4:0.573128 5:0.0599743 6:0.285713 7:-0.257372 8:-0.0535192 9:-0.266365 10:-0.266942 11:-0.0721649 
1 1:0.246974 2:0.197725 3:0.27563 4:0.527392 5:0.148614 6:0.0178564 7:-0.241319 8:-0.314672 9:0.166587 10:-0.0892576 11:-0.373712 
1 1:-0.0590632 2:0.0682415 3:-0.0175182 4:0.302102 5:0.497956 6:0.333332 7:-0.439135 8:-0.522563 9:-0.232772 10:-0.657881 11:0.195876 
1 1:-0.195351 2:0.164535 3:0.0242627 4:0.542077 5:0.0858727 6:0.285713 7:-0.43228 8:-0.701229 9:-0.311196 10:-0.558797 11:-0.192784 
1 1:-0.259675 2:0.0425585 3:-0.116865 4:0.193785 5:0.371929 6:0.285713 7:-0.869547 8:-0.798266 9:-0.712266 10:-0.857949 11:0.272459 
1 1:0.063649 2:0.112094 3:0.131891 4:0.533138 5:0.258114 6:0.285713 7:-0.38954 8:-0.502276 9:-0.0532079 10:-0.129274 11:0.380155 
1 1:0.0265091 2:0.0558377 3:0.0371545 4:0.48152 5:0.143371 6:0.285713 7:0.292936 8:-0.124011 9:0.100522 10:-0.0943516 11:0.100148 
1 1:-0.0566075 2:0.119551 3:-0.21094 4:-0.065598 5:0.328237 6:0.285713 7:-0.659714 8:-0.749548 9:-0.244392 10:-0.643015 11:0.128865 
1 1:0.0654801 2:0.136727 3:0.15019 4:0.554677 5:0.169326 6:0.285713 7:-0.312697 8:-0.238892 9:-0.323164 10:-0.045281 11:0.229382 
1 1:0.11795 2:0.0929527 3:0.133321 4:0.539672 5:0.154429 6:0.285713 7:-0.0503759 8:-0.101851 9:-0.134794 10:-0.244057 11:0.113402 
1 1:0.0384531 2:0.0753249 3:0.0962873 4:0.440066 5:0.169004 6:0.285713 7:-0.0503201 8:-0.194105 9:0.286143 10:-0.274048 11:0.329898 
1 1:-0.134345 2:0.0345825 3:-0.125976 4:0.195472 5:0.181869 6:0.285713 7:-0.0803038 8:-0.214741 9:-0.291273 10:-0.261452 11:0.0886608 
1 1:-0.0321804 2:0.154935 3:0.187281 4:0.569937 5:0.0952129 6:0.285713 7:-0.605375 8:-0.76186 9:-0.140795 10:-0.337219 11:-0.0721649 
1 1:0.0315665 2:0.130142 3:0.154776 4:0.55984 5:0.130167 6:0.285713 7:-0.0502225 8:-0.466063 9:-0.204798 10:0.573191 11:-0.15832 
1 1:0.0432756 2:0.171165 3:0.208997 4:0.552183 5:0.114632 6:0.285713 7:-0.202831 8:-0.446101 9:0.0826003 10:-0.15045 11:0.0618569 
1 1:-0.166515 2:0.132037 3:0.0355388 4:0.549142 5:0.318528 6:0.285713 7:-0.795712 8:-0.803407 9:-0.655519 10:-0.830087 11:-0.0721649 
1 1:0.145358 2:0.0407627 3:0.112704 4:0.528195 5:0.164061 6:0.285713 7:0.0535266 8:-0.247258 9:0.156121 10:-0.222459 11:0.256796 
1 1:-0.16842 2:0.156299 3:0.0668007 4:0.501734 5:0.0818287 6:0.285713 7:-0.36515 8:-0.474364 9:-0.229749 10:-0.323434 11:-0.0721649 
1 1:-0.118724 2:0.211638 3:0.0371936 4:0.376155 5:0.022393 6:-0.020409 7:-0.48276 8:-0.567756 9:-0.0670087 10:-0.495739 11:0.617084 
1 1:0.082791 2:0.167104 3:0.100753 4:0.549907 5:0.0980335 6:0.253246 7:0.130519 8:-0.219786 9:0.131854 10:-0.342718 11:0.128865 
1 1:-0.177875 2:0.00138972 3:0.335673 4:0.656088 5:0.619515 6:0.285713 7:-0.562841 8:-0.870992 9:-0.0596966 10:-0.300569 11:0.530928 
1 1:-0.144609 2:0.136727 3:0.129396 4:0.554677 5:0.153469 6:0.285713 7:-0.663791 8:-0.790727 9:-0.369013 10:-0.0722092 11:-0.244478 
1 1:0.0690782 2:0.0917959 3:0.123604 4:0.536409 5:0.284545 6:0.285713 7:-0.371201 8:-0.59381 9:-0.0260109 10:-0.477734 11:0.229382 
1 1:-0.0360579 2:0.0285936 3:0.00130085 4:0.230832 5:0.249664 6:0.285713 7:-0.372072 8:-0.534141 9:-0.238149 10:-0.4416 11:0.169072 
1 1:-0.177485 2:0.0751665 3:0.0480102 4:0.494205 5:0.104175 6:0.285713 7:-0.503093 8:-0.46912 9:-0.518627 10:-0.537777 11:0.128865 
1 1:0.137697 2:0.178281 3:0.0809261 4:0.433765 5:0.135718 6:0.285713 7:0.381573 8:0.259872 9:-0.108262 10:0.404506 11:-0.0721649 
1 1:0.0968099 2:0.11927 3:0.121192 4:0.547103 5:0.148868 6:0.262165 7:0.149782 8:-0.175691 9:-0.0268481 10:-0.136047 11:0.100148 
1 1:0.127729 2:0.120804 3:0.216547 4:0.631534 5:0.12927 6:0.238618 7:0.422755 8:-0.0866523 9:0.216027 10:0.181711 11:0.272459 
1 1:-0.381464 2:0.103742 3:-0.501201 4:-0.389227 5:0.556409 6:0.55357 7:-0.92446 8:-0.894933 9:-0.846439 10:-0.910163 11:-0.373712 
1 1:-0.230019 2:0.0486177 3:0.141701 4:0.572984 5:0.138111 6:0.253246 7:-0.668625 8:-0.677091 9:-0.688567 10:-0.158164 11:0.128865 
1 1:-0.0305611 2:0.0962927 3:0.120381 4:0.552235 5:0.226798 6:0.285713 7:-0.32408 8:-0.369262 9:-0.334848 10:-0.00344313 11:0.229382 
1 1:-0.269359 2:0.148427 3:0.0612013 4:0.546824 5:0.290106 6:0.285713 7:-0.825121 8:-0.837212 9:-0.787823 10:-0.739135 11:-0.0721649 
1 1:-0.0433485 2:0.160673 3:0.0795928 4:0.554677 5:0.250563 6:0.285713 7:-0.706092 8:-0.70036 9:-0.522622 10:-0.757239 11:0.0786084 
1 1:0.0118977 2:0.136727 3:0.156364 4:0.554677 5:0.121428 6:0.285713 7:-0.238294 8:-0.266344 9:-0.423058 10:0.488581 11:0.0082467 
1 1:-0.0992247 2:0.0880818 3:0.193197 4:0.527484 5:0.11216 6:0.0714278 7:-0.353147 8:-0.640647 9:-0.215185 10:-0.209679 11:-0.0721649 
1 1:-0.269611 2:-0.0210048 3:-0.0797053 4:0.434374 5:0.27503 6:0.309523 7:-0.390349 8:-0.430924 9:-0.167661 10:-0.418726 11:0.0618569 
1 1:0.0355632 2:0.0804464 3:0.200259 4:0.566534 5:0.153469 6:-0.020409 7:-0.501473 8:-0.6954 9:-0.0982245 10:0.0466026 11:0.100148 
1 1:-0.0864426 2:0.135728 3:0.0236623 4:0.420995 5:0.371929 6:0.285713 7:-0.67118 8:-0.772631 9:-0.381339 10:-0.60204 11:0.272459 
1 1:-0.121246 2:0.136727 3:0.491169 4:0.554677 5:0.0466664 6:0.285713 7:-0.781213 8:-0.801249 9:-0.63402 10:0.306688 11:-0.826032 
1 1:-0.328511 2:0.0715367 3:0.0283935 4:0.465053 5:0.0759144 6:0.285713 7:-0.472399 8:-0.781933 9:-0.708113 10:0.388924 11:-0.340206 
1 1:-0.2531 2:0.0512131 3:-0.285017 4:0.109174 5:0.401597 6:0.55357 7:-0.553535 8:-0.661126 9:-0.296395 10:-0.713433 11:0.229382 
1 1:-0.0522709 2:0.110879 3:-0.0930933 4:0.251821 5:0.185316 6:0.285713 7:-0.58774 8:-0.530381 9:-0.4311 10:-0.533506 11:-0.474228 
1 1:0.0406312 2:0.0541765 3:0.0586763 4:0.376968 5:0.21658 6:0.285713 7:-0.373647 8:-0.466186 9:-0.0296437 10:-0.332571 11:0.380155 
1 1:0.052714 2:0.154491 3:0.143761 4:0.528139 5:0.186216 6:0.285713 7:-0.0447158 8:-0.267079 9:-0.0480448 10:0.0327441 11:0.229382 
1 1:-0.0826949 2:0.129463 3:0.153204 4:0.453362 5:0.549612 6:0.285713 7:-0.769248 8:-0.765963 9:-0.330941 10:-0.729407 11:0.41031 
1 1:-0.254577 2:0.0279207 3:0.00903285 4:0.398419 5:0.284545 6:0.285713 7:-0.735497 8:-0.76764 9:-0.566225 10:-0.667297 11:0.229382 
1 1:-0.137882 2:0.145158 3:0.185147 4:0.562393 5:0.0126837 6:0.0178564 7:-0.597551 8:-0.710333 9:-0.361664 10:0.237867 11:0.0786084 
1 1:-0.0590526 2:0.192794 3:0.0350164 4:0.436392 5:0.223618 6:0.285713 7:-0.0536032 8:-0.554161 9:-0.0571709 10:-0.437563 11:0.0283514 
1 1:0.00560719 2:0.137969 3:0.307155 4:0.498145 5:0.148614 6:0.285713 7:-0.371744 8:-0.616898 9:-0.0268202 10:0.380567 11:0.229382 
1 1:-0.159783 2:0.120416 3:0.0485654 4:0.519507 5:0.0929722 6:0.258241 7:-0.200782 8:-0.422516 9:-0.278175 10:-0.150253 11:0.113402 
1 1:0.116977 2:0.235957 3:0.0911906 4:0.536931 5:0.0893872 6:0.285713 7:0.580288 8:0.521279 9:-0.0847028 10:0.294106 11:-0.0118556 
1 1:0.055296 2:0.166639 3:0.278863 4:0.650657 5:0.0660848 6:0.132652 7:-0.523684 8:-0.631041 9:-0.135278 10:-0.259371 11:0.444773 
1 1:-0.148807 2:0.136727 3:-0.1796 4:0.0345997 5:0.252107 6:0.285713 7:-0.46839 8:-0.603629 9:-0.424337 10:-0.664061 11:-0.0721649 
1 1:-0.00670158 2:0.176837 3:0.101828 4:0.540915 5:0.166532 6:0.238094 7:-0.162294 8:-0.488207 9:0.0163731 10:-0.413701 11:0.169072 
1 1:-0.0589796 2:0.103579 3:-0.00613782 4:0.36273 5:0.145787 6:0.285713 7:-0.394493 8:-0.288462 9:-0.462833 10:-0.431274 11:-0.443299 
1 1:-0.213555 2:0.114488 3:0.00961006 4:0.455862 5:0.333698 6:0.323979 7:-0.582599 8:-0.746234 9:-0.233568 10:-0.651 11:0.100148 
1 1:0.165566 2:0.0961587 3:0.0533886 4:0.482469 5:0.217585 6:0.285713 7:0.0163668 8:0.147044 9:0.0146614 10:-0.395788 11:0.329898 
1 1:0.0451049 2:0.174706 3:0.142838 4:0.57634 5:0.151228 6:0.285713 7:-0.100567 8:-0.304696 9:-0.105383 10:0.356486 11:0.128865 
1 1:-0.041674 2:0.0829231 3:-0.0211714 4:0.318334 5:0.142595 6:0.285713 7:0.00123378 8:-0.203052 9:-0.159014 10:0.0400413 11:0.100148 
0.05234656203716464 1:-0.0581005 2:0.277327 3:0.197698 4:0.587132 5:0.0369572 6:-0.0714291 7:-0.711672 8:-0.756224 9:-0.343453 10:-0.609425 11:0.329898 
1 1:0.310588 2:0.146718 3:0.127462 4:0.540613 5:0.113138 6:0.285713 7:0.257839 8:0.157938 9:0.159028 10:-0.0253027 11:0.113402 
1 1:-0.195997 2:0.150624 3:-0.0569874 4:0.366405 5:0.253708 6:0.324674 7:-0.694343 8:-0.662424 9:-0.629154 10:-0.820274 11:0.169072 
1 1:-0.19488 2:0.0865592 3:-0.0422006 4:0.270876 5:0.17889 6:0.285713 7:-0.578758 8:-0.635477 9:-0.488918 10:-0.481568 11:0.169072 
1 1:-0.202359 2:0.195115 3:0.1003 4:0.587963 5:0.109777 6:0.285713 7:-0.685254 8:-1 9:-0.40482 10:-0.425308 11:-0.0721649 
1 1:0.118185 2:0.168045 3:0.167237 4:0.566909 5:0.19619 6:0.285713 7:-0.2359 8:-0.485564 9:0.0384674 10:0.144914 11:0.0618569 
1 1:-0.058597 2:0.136727 3:0.071359 4:0.444031 5:0.275277 6:0.285713 7:-0.519774 8:-0.581015 9:-0.481485 10:-0.509011 11:0.476102 
1 1:-0.226919 2:0.0548754 3:-0.0642643 4:0.395487 5:0.148614 6:0.285713 7:-0.575771 8:-0.735314 9:-0.329373 10:-0.37887 11:0.0786084 
1 1:-0.371486 2:0.104035 3:-0.346909 4:-0.146053 5:0.395596 6:0.234693 7:-0.889234 8:-0.967172 9:-0.745112 10:-0.760684 11:0.100148 
1 1:-0.112135 2:0.194871 3:0.0821412 4:0.507613 5:0.191022 6:0.285713 7:-0.326178 8:-0.700212 9:-0.182467 10:-0.338944 11:0.289691 
1 1:-0.247912 2:0.0972518 3:0.0623958 4:0.534744 5:0.0398698 6:-0.0119053 7:-0.495607 8:-0.562486 9:-0.30814 10:-0.503082 11:0.0618569 
1 1:-0.122454 2:0.0133036 3:0.285938 4:0.588458 5:0.188776 6:0.190475 7:-0.445409 8:-0.546149 9:-0.327127 10:0.0372379 11:0.41031 
1 1:-0.00639729 2:0.0587378 3:0.100645 4:0.460099 5:0.459313 6:0.591836 7:-0.500587 8:-0.61892 9:-0.0967454 10:-0.522617 11:0.444773 
1 1:-0.119561 2:0.144046 3:0.0762075 4:0.560833 5:0.0532482 6:0.285713 7:0.25312 8:-0.0292574 9:-0.404415 10:-0.0322526 11:-0.281938 
1 1:-0.324352 2:0.115395 3:0.0147305 4:0.523237 5:0.145459 6:0.285713 7:-0.491041 8:-0.722036 9:-0.63388 10:-0.431625 11:-0.152577 
1 1:-0.028746 2:0.148763 3:0.167364 4:0.560332 5:-0.0078553 6:0.285713 7:-0.0311129 8:-0.672803 9:-0.187797 10:0.0227791 11:-0.15832 
1 1:-0.19268 2:0.0137724 3:0.139682 4:0.549271 5:0.0577879 6:0.261904 7:-0.140581 8:-0.410822 9:0.0427142 10:-0.328523 11:0.0484537 
1 1:0.0761446 2:0.160601 3:0.155679 4:0.572313 5:0.18501 6:0.285713 7:-0.258442 8:-0.36295 9:-0.267463 10:0.598824 11:0.229382 
1 1:0.165159 2:0.0878113 3:0.208948 4:0.528145 5:0.258718 6:0.285713 7:-0.241371 8:-0.290986 9:0.0311647 10:0.352813 11:0.329898 
1 1:0.21352 2:0.0992649 3:0.212898 4:0.503498 5:0.109971 6:0.285713 7:0.196216 8:0.129126 9:0.014466 10:0.356987 11:0.358615 
1 1:-0.0769027 2:0.184494 3:0.109433 4:0.569448 5:0.0211794 6:0.269957 7:0.556449 8:0.175515 9:0.0813258 10:-0.0905524 11:0.0697405 
1 1:-0.112615 2:0.154103 3:0.070639 4:0.521456 5:0.182597 6:0.285713 7:-0.297965 8:-0.371045 9:-0.308037 10:-0.00478161 11:0.229382 
1 1:-0.0263864 2:0.0309647 3:0.0952539 4:0.532274 5:0.0674139 6:0.279448 7:0.501005 8:0.328756 9:-0.082498 10:-0.0366958 11:-0.00868093 
1 1:-0.0204767 2:0.0993798 3:0.116253 4:0.500339 5:0.202622 6:0.285713 7:-0.369709 8:-0.70789 9:0.121593 10:-0.379321 11:0.100148 
1 1:-0.0647665 2:-0.000309278 3:0.0731712 4:0.40508 5:0.145216 6:0.285713 7:-0.118195 8:-0.512109 9:0.195556 10:-0.185191 11:-0.0721649 
1 1:-0.188399 2:0.0896259 3:-0.0897294 4:-0.144164 5:0.328237 6:0.285713 7:-0.815176 8:-0.788995 9:-0.621563 10:-0.838834 11:0.100148 
1 1:0.159731 2:0.136727 3:0.303347 4:0.554677 5:0.328237 6:0.285713 7:-0.534007 8:-0.732092 9:-0.152498 10:0.0760078 11:0.100148 
1 1:-0.273222 2:0.179226 3:-0.169309 4:0.251298 5:0.104175 6:0.285713 7:-0.376212 8:-0.505129 9:-0.388368 10:-0.689129 11:-0.0721649 
1 1:-0.027858 2:-0.0641319 3:-0.0645682 4:-0.255981 5:0.371929 6:0.285713 7:-0.584345 8:-0.770156 9:-0.236479 10:-0.315555 11:-0.0721649 
1 1:-0.100419 2:0.020356 3:0.226894 4:0.396578 5:0.240853 6:0.285713 7:-0.690687 8:-0.72992 9:-0.413885 10:-0.364605 11:0.100148 
1 1:-0.0606007 2:0.107936 3:0.0757267 4:0.53295 5:0.164061 6:0.285713 7:-0.273823 8:-0.638174 9:-0.207947 10:-0.0423004 11:0.0374895 
1 1:0.104376 2:0.136727 3:0.147495 4:0.417842 5:0.203155 6:0.285713 7:-0.316033 8:-0.37436 9:-0.170154 10:-0.149549 11:0.169072 
1 1:-0.0981961 2:0.114765 3:0.0740844 4:0.54263 5:0.0864354 6:0.285713 7:0.246537 8:0.364231 9:-0.203115 10:0.510103 11:-0.139176 
1 1:-0.323628 2:0.0374843 3:-0.00102084 4:0.478015 5:0.240853 6:0.285713 7:-0.635386 8:-0.809612 9:-0.321629 10:-0.739972 11:0.100148 
1 1:0.138051 2:0.221047 3:0.154628 4:0.554677 5:0.0885338 6:0.262079 7:0.559213 8:0.339149 9:0.0833771 10:0.201397 11:0.140691 
1 1:-0.11406 2:0.159058 3:0.106604 4:0.510347 5:0.0888411 6:0.285713 7:-0.202901 8:-0.462632 9:-0.393535 10:-0.0148179 11:-0.393814 
1 1:-0.00656812 2:0.193157 3:0.157975 4:0.57983 5:0.11216 6:0.285713 7:-0.245456 8:-0.415574 9:-0.084526 10:-0.0708615 11:0.169072 
1 1:0.409731 2:0.130304 3:0.292061 4:0.61992 5:0.155411 6:0.166666 7:0.158861 8:0.14929 9:0.565318 10:0.189661 11:0.463918 
1 1:-0.192903 2:0.00260014 3:0.0813146 4:0.533982 5:0.153469 6:0.285713 7:-0.548388 8:-0.675183 9:-0.17649 10:-0.373487 11:-0.0721649 
1 1:-0.230612 2:0.130691 3:0.0599226 4:0.460469 5:0.257977 6:0.214285 7:-0.413756 8:-0.49134 9:-0.288724 10:-0.273027 11:0.289691 
1 1:-0.21741 2:0.0315236 3:-0.0124291 4:0.425201 5:0.155087 6:0.209183 7:-0.577326 8:-0.657435 9:-0.331676 10:-0.522658 11:0.229382 
1 1:-0.0112411 2:0.158476 3:-0.061683 4:0.0952844 5:0.169004 6:0.285713 7:-0.480397 8:-0.426932 9:-0.287841 10:-0.711726 11:-0.206187 
1 1:0.0486407 2:0.0867278 3:-0.179366 4:0.146171 5:0.503006 6:0.591836 7:-0.22858 8:-0.485891 9:0.357026 10:-0.308872 11:0.789397 
1 1:-0.100194 2:0.0537847 3:0.102255 4:0.528431 5:0.0392547 6:0.285713 7:0.496949 8:0.165138 9:-0.339453 10:0.698385 11:-0.0721649 
1 1:-0.0563193 2:0.185863 3:0.0818232 4:0.440415 5:0.226359 6:0.285713 7:-0.336665 8:-0.451491 9:-0.34777 10:0.101834 11:0.229382 
1 1:0.0478578 2:0.109561 3:0.153966 4:0.473872 5:0.168695 6:0.285713 7:-0.0288649 8:-0.237994 9:0.0644923 10:0.188348 11:0.256796 
1 1:0.0159656 2:0.104747 3:0.149266 4:0.530246 5:0.151228 6:0.285713 7:-0.0288928 8:-0.264985 9:-0.0318019 10:0.262891 11:0.128865 
1 1:-0.0754755 2:0.107424 3:0.0818258 4:0.48445 5:0.17716 6:0.285713 7:-0.410361 8:-0.594564 9:-0.19437 10:0.143502 11:0.195876 
1 1:-0.157331 2:0.174007 3:-0.159847 4:-0.209229 5:0.359307 6:0.285713 7:-0.690816 8:-0.80341 9:-0.568667 10:-0.732512 11:0.0618569 
1 1:-0.0858891 2:0.0683798 3:0.148502 4:0.49981 5:0.129463 6:0.285713 7:-0.0781359 8:-0.255809 9:-0.161256 10:0.184592 11:0.206187 
1 1:-0.0205247 2:0.136727 3:0.0736217 4:0.437604 5:0.250563 6:0.285713 7:-0.386361 8:-0.482858 9:-0.16234 10:0.441256 11:0.0618569 
1 1:-0.190164 2:0.174824 3:0.115967 4:0.579012 5:0.161792 6:0.285713 7:-0.673041 8:-0.816276 9:-0.269807 10:-0.323795 11:0.128865 
1 1:-0.122693 2:0.0582057 3:-0.000899711 4:0.417676 5:0.299498 6:0.285713 7:-0.412295 8:-0.591761 9:-0.196951 10:-0.375754 11:0.0618569 
1 1:0.0196011 2:0.187754 3:0.19491 4:0.587322 5:0.0806489 6:0.255952 7:-0.356991 8:-0.529072 9:-0.123142 10:-0.0947035 11:0.0618569 
1 1:-0.256214 2:-0.0237529 3:0.295229 4:0.647666 5:0.153469 6:0.285713 7:-0.532359 8:-0.833738 9:-0.149753 10:-0.280764 11:0.100148 
1 1:0.0249379 2:0.0555263 3:0.203016 4:0.480195 5:0.223376 6:0.285713 7:-0.346692 8:-0.3211 9:-0.207352 10:0.52757 11:0.169072 
1 1:-0.171623 2:0.187871 3:0.289521 4:0.542614 5:0.106476 6:0.285713 7:-0.72692 8:-0.838262 9:-0.616851 10:-0.155641 11:-0.340206 
1 1:0.223999 2:0.154977 3:0.106335 4:0.506689 5:0.153469 6:0.285713 7:-0.186468 8:-0.308639 9:0.427282 10:-0.548685 11:0.100148 
