svm_type c_svc
kernel_type linear
nr_class 2
total_sv 723
rho 0.423345
label 1 -1
probA -2.12989
probB 0.263487
nr_sv 362 361
SV
1 1:0.0727439 2:0.0505811 3:-0.131076 4:-0.381954 
1 1:0.147618 2:0.0847939 3:-0.00151024 4:-0.405363 
1 1:-0.199502 2:-0.0213155 3:-0.376623 4:-0.617018 
1 1:0.0213195 2:0.0776263 3:-0.263914 4:-0.417071 
1 1:-0.0134134 2:0.0786651 3:-0.460129 4:-0.426936 
1 1:0.156923 2:0.0520453 3:-0.511036 4:-0.86882 
1 1:-0.047026 2:-0.142781 3:0.208219 4:-0.418855 
1 1:0.110556 2:0.0535338 3:0.156937 4:0.0847034 
1 1:0.0840501 2:0.0819641 3:-0.276633 4:-0.397974 
1 1:0.444737 2:0.0520453 3:0.19012 4:-0.540851 
1 1:-0.123017 2:0.0585045 3:-0.49866 4:-0.647141 
1 1:-0.0162583 2:0.0734069 3:-0.370827 4:-0.609394 
1 1:-0.0616705 2:0.0954971 3:-0.591224 4:-0.714436 
1 1:0.225135 2:0.0852025 3:0.191853 4:-0.273591 
1 1:0.0728725 2:0.0820879 3:-0.23843 4:-0.485044 
1 1:-0.0848839 2:0.0860083 3:-0.750676 4:-0.801487 
1 1:0.129319 2:0.0928917 3:0.115798 4:-0.261935 
1 1:-0.0537107 2:0.0520453 3:-0.656495 4:-0.820031 
1 1:-0.00760317 2:0.096382 3:-0.731832 4:-0.826581 
1 1:0.0823517 2:0.0668676 3:-0.577375 4:-0.755979 
1 1:-0.150466 2:-0.0953224 3:-0.796389 4:-0.93095 
1 1:-0.0433164 2:0.0850078 3:-0.750179 4:-0.836031 
1 1:0.272338 2:0.0683792 3:-0.0287995 4:-0.290194 
1 1:0.110563 2:0.0818261 3:-0.105652 4:-0.00336889 
1 1:0.168701 2:0.0677957 3:0.287542 4:0.175947 
1 1:-0.266039 2:-0.0484279 3:-0.771018 4:-0.738943 
1 1:-0.00493742 2:0.0983002 3:-0.339478 4:-0.538634 
1 1:-0.0322707 2:0.0520453 3:-0.625765 4:-0.743839 
1 1:0.0975205 2:0.0431632 3:0.480307 4:0.166461 
1 1:0.150989 2:0.0520453 3:0.296344 4:0.269272 
1 1:0.154363 2:0.0904062 3:-0.00872718 4:0.0756932 
1 1:-0.214998 2:0.041137 3:-0.675444 4:-0.927075 
1 1:-0.0442316 2:0.101447 3:-0.673915 4:-0.672537 
1 1:0.06716 2:0.0946936 3:-0.31208 4:-0.571068 
1 1:0.111536 2:0.0625036 3:-0.176677 4:-0.448192 
1 1:-0.0934055 2:0.0621935 3:-0.729337 4:-0.669533 
1 1:-0.155228 2:0.0606115 3:-0.879169 4:-0.943285 
1 1:0.0595421 2:0.0520453 3:0.227251 4:-0.140217 
1 1:0.0646457 2:0.0661893 3:-0.696041 4:-0.822214 
1 1:0.0623414 2:0.0211407 3:-0.332426 4:-0.389016 
1 1:0.175677 2:0.0727337 3:-0.258405 4:-0.455711 
1 1:0.155931 2:0.0521014 3:-0.00341422 4:-0.267221 
1 1:0.184368 2:0.0852685 3:-0.315804 4:-0.294938 
1 1:0.0195543 2:0.0677669 3:-0.411809 4:-0.284244 
1 1:0.0652075 2:0.0246329 3:-0.600587 4:-0.547186 
1 1:-0.0306439 2:0.0672406 3:-0.809923 4:-0.805411 
1 1:0.0168869 2:0.0971822 3:-0.382433 4:-0.525122 
1 1:0.260799 2:0.0836928 3:0.176418 4:-0.0569745 
1 1:-0.0244396 2:0.0782086 3:-0.619276 4:-0.758462 
1 1:0.0934527 2:-0.0711991 3:-0.0924535 4:-0.27604 
1 1:-0.00251593 2:0.0695288 3:-0.164336 4:-0.509041 
1 1:0.00969897 2:0.0649845 3:-0.398166 4:-0.533064 
1 1:0.252509 2:0.0723392 3:-0.0202491 4:0.0104605 
1 1:-0.0893393 2:-0.0191766 3:-0.534633 4:-0.725805 
1 1:0.235348 2:0.0536908 3:-0.301895 4:-0.373559 
1 1:0.0426585 2:0.0971969 3:-0.41673 4:-0.628969 
1 1:0.0576694 2:0.0826798 3:-0.615983 4:-0.807047 
1 1:-0.021186 2:0.0957932 3:-0.564771 4:-0.778635 
1 1:0.075579 2:0.0570055 3:-0.444435 4:-0.752671 
1 1:0.136455 2:0.0520453 3:-0.30473 4:-0.489203 
1 1:-0.200953 2:0.0611336 3:-0.813663 4:-1 
1 1:-0.0543442 2:0.0648282 3:-0.77618 4:-0.782489 
1 1:0.00349462 2:0.0520453 3:-0.319231 4:-0.691838 
1 1:0.0772693 2:0.022362 3:-0.30592 4:-0.41373 
1 1:0.0229072 2:0.0641706 3:-0.353657 4:-0.608793 
1 1:0.0116156 2:0.0717118 3:-0.466916 4:-0.603369 
1 1:0.200542 2:0.0581731 3:0.296971 4:0.46239 
1 1:0.21666 2:-0.0404482 3:-0.272324 4:-0.564572 
1 1:-0.168255 2:-0.000372239 3:-0.504439 4:-0.581488 
1 1:0.39342 2:0.0507753 3:0.114636 4:-0.0496074 
1 1:0.0780054 2:0.0502808 3:-0.531564 4:-0.546399 
1 1:0.137587 2:0.0347769 3:-0.327841 4:-0.553003 
0.5606320806422768 1:0.0322365 2:0.0940581 3:-0.856128 4:-0.821645 
1 1:-0.0594933 2:0.0654045 3:-0.510214 4:-0.60478 
1 1:0.304511 2:0.0334085 3:-0.253543 4:-0.388622 
1 1:0.24612 2:0.0805789 3:-0.261481 4:-0.298763 
1 1:0.0620744 2:0.0570047 3:-0.27462 4:-0.351556 
1 1:0.17905 2:0.0520453 3:-0.219405 4:-0.327767 
1 1:0.238331 2:0.0577751 3:0.127415 4:0.0991108 
1 1:0.426763 2:0.0704014 3:0.216783 4:0.215977 
1 1:0.168458 2:0.0627217 3:0.181867 4:0.184425 
1 1:0.124779 2:0.0685615 3:-0.340637 4:-0.713654 
1 1:0.113147 2:0.0496044 3:-0.110765 4:-0.36516 
1 1:-0.113684 2:-0.25467 3:-0.0435519 4:-0.296335 
1 1:0.332048 2:0.076975 3:0.441929 4:0.354586 
1 1:0.400182 2:0.0312183 3:-0.000456746 4:0.0668185 
1 1:-0.210116 2:0.0520453 3:-0.547958 4:-0.78637 
1 1:0.0323684 2:0.0520486 3:-0.464536 4:-0.621915 
1 1:0.0525203 2:0.0520453 3:-0.35435 4:-0.519601 
1 1:0.0820357 2:0.0520453 3:-0.676722 4:-0.807703 
1 1:0.0320053 2:0.0997685 3:-0.403657 4:-0.48158 
1 1:-0.120226 2:0.0908901 3:-0.56482 4:-0.793189 
1 1:0.12722 2:0.0478856 3:-0.793838 4:-0.764506 
1 1:-0.0193214 2:0.073521 3:-0.661955 4:-0.696221 
1 1:0.160463 2:0.0520453 3:-0.530605 4:-0.667776 
1 1:0.162262 2:0.0465676 3:-0.199283 4:-0.261492 
1 1:0.167998 2:0.0545326 3:-0.501453 4:-0.605229 
1 1:-0.151808 2:0.0830366 3:-0.657248 4:-0.647742 
1 1:-0.109025 2:-0.000476736 3:-0.727657 4:-0.860705 
1 1:0.120994 2:0.0603571 3:-0.590073 4:-0.762437 
1 1:0.23399 2:0.0796211 3:0.0811206 4:-0.419663 
1 1:0.116122 2:0.0652331 3:-0.385884 4:-0.543968 
1 1:0.026664 2:0.0736175 3:-0.546904 4:-0.704535 
1 1:-0.0141967 2:0.0913689 3:-0.428899 4:-0.63242 
1 1:0.231985 2:0.0301144 3:-0.110457 4:-0.50245 
1 1:0.138 2:0.0960686 3:-0.108651 4:-0.016347 
1 1:0.0561436 2:0.0855922 3:-0.416359 4:-0.51419 
1 1:-0.198738 2:0.0397631 3:-0.584854 4:-0.842961 
1 1:-0.0189485 2:0.0790398 3:-0.64903 4:-0.703696 
1 1:0.239983 2:0.0427285 3:0.0780161 4:-0.128198 
1 1:0.408409 2:0.0520453 3:-0.0572963 4:-0.429422 
1 1:-0.0509212 2:0.0702233 3:-0.731745 4:-0.766609 
1 1:0.282421 2:0.0520453 3:0.398131 4:0.665423 
1 1:0.0702361 2:0.0507601 3:-0.184212 4:-0.590232 
1 1:-0.0058184 2:0.0366254 3:-0.342586 4:-0.601188 
1 1:0.262875 2:0.033258 3:0.0744497 4:0.145974 
1 1:-0.0446143 2:0.0945438 3:-0.375752 4:-0.428849 
1 1:0.217346 2:0.0653505 3:-0.293495 4:-0.39153 
1 1:0.0113665 2:0.0850818 3:-0.031316 4:-0.021812 
1 1:-0.244277 2:-0.0444215 3:-0.663947 4:-0.914498 
1 1:0.0308247 2:0.100758 3:-0.273777 4:-0.467475 
1 1:0.0158447 2:0.0912869 3:-0.0407239 4:-0.674057 
1 1:0.334891 2:0.051576 3:0.434726 4:0.633287 
1 1:0.332883 2:0.0214767 3:0.338866 4:0.227724 
1 1:0.159095 2:0.0145496 3:-0.299554 4:-0.236917 
1 1:-0.0499213 2:0.0520453 3:-0.140795 4:-0.473661 
1 1:0.195554 2:0.0752707 3:-0.599691 4:-0.797098 
1 1:0.11978 2:0.079575 3:-0.148558 4:-0.200739 
1 1:0.0376755 2:0.0704525 3:-0.28343 4:-0.409142 
1 1:0.00123435 2:0.0526048 3:-0.362991 4:-0.405634 
1 1:-0.0512143 2:0.0825297 3:-0.463342 4:-0.923223 
1 1:0.15961 2:0.0794606 3:-0.336391 4:-0.434805 
1 1:-0.0379035 2:0.0889647 3:-0.355707 4:-0.444497 
1 1:0.0659647 2:0.0529119 3:-0.441726 4:-0.565432 
1 1:-0.0242197 2:0.0993862 3:-0.467511 4:-0.647495 
1 1:0.0679139 2:0.0520453 3:-0.53338 4:-0.60165 
1 1:-0.138249 2:0.0653779 3:-0.585824 4:-0.710765 
1 1:-0.035368 2:-0.0302227 3:-0.184272 4:-0.523656 
1 1:-0.00336272 2:0.0262084 3:-0.632412 4:-0.935866 
1 1:0.156364 2:0.0577875 3:0.18388 4:-0.237921 
1 1:0.30628 2:0.046586 3:-0.0654442 4:0.00563545 
1 1:0.13327 2:0.0463076 3:0.286972 4:-0.145682 
1 1:-0.0340995 2:0.0536771 3:-0.56537 4:-0.58806 
1 1:0.0508414 2:0.0149092 3:-0.47946 4:-0.669653 
1 1:0.238654 2:0.0714218 3:0.0784186 4:0.140393 
1 1:0.387436 2:0.0525965 3:-0.364303 4:-0.358568 
1 1:0.0493221 2:0.0762344 3:-0.145352 4:-0.35754 
1 1:0.0849523 2:0.07823 3:-0.470832 4:-0.527358 
1 1:0.051825 2:0.072494 3:-0.66045 4:-0.698476 
1 1:0.0289552 2:-0.0951491 3:-0.168154 4:-0.242944 
1 1:0.21246 2:0.0774227 3:-0.538025 4:-0.72488 
1 1:0.161785 2:0.031506 3:-0.173565 4:-0.195785 
1 1:0.223794 2:0.0618643 3:0.424044 4:0.575134 
1 1:0.000921695 2:0.067 3:-0.547548 4:-0.611747 
1 1:0.0426048 2:-0.00176613 3:-0.565681 4:-0.731539 
1 1:0.244428 2:0.0582002 3:-0.098589 4:-0.12192 
1 1:0.129272 2:0.0647359 3:-0.194523 4:-0.657042 
1 1:-0.0595633 2:0.0794218 3:-0.186274 4:-0.391302 
1 1:0.10812 2:0.0935796 3:-0.278897 4:-0.388483 
1 1:-0.0542139 2:0.0377298 3:-0.179067 4:-0.379943 
1 1:0.0123517 2:0.093567 3:-0.6314 4:-0.731081 
1 1:0.0929349 2:-0.00461406 3:-0.175564 4:-0.457255 
1 1:0.137986 2:0.020903 3:-0.133085 4:-0.40437 
1 1:0.0991815 2:0.0900226 3:-0.0848026 4:-0.0902361 
1 1:0.10997 2:0.0734439 3:-0.0993975 4:-0.468453 
1 1:-0.0308458 2:0.0673423 3:-0.392107 4:-0.532769 
1 1:0.00325036 2:0.0939493 3:-0.707819 4:-0.793625 
1 1:0.244536 2:0.0662019 3:-0.304387 4:-0.493341 
1 1:-0.0346499 2:-0.0502128 3:-0.553347 4:-0.619401 
1 1:-0.216234 2:0.0492821 3:-0.790527 4:-0.822722 
1 1:-0.0106239 2:0.0625767 3:-0.573339 4:-0.726006 
1 1:0.0337835 2:0.0138285 3:-0.104129 4:-0.389977 
1 1:0.140428 2:0.0520453 3:-0.153507 4:-0.450531 
1 1:-0.321597 2:-0.106829 3:-0.901958 4:-0.841096 
1 1:-0.0155809 2:0.0501116 3:-0.471987 4:-0.797292 
1 1:-0.0203994 2:0.0743368 3:-0.411823 4:-0.630194 
1 1:0.153242 2:0.0654784 3:-0.306207 4:-0.536952 
1 1:-0.0889045 2:0.0520453 3:-0.528389 4:-0.674532 
1 1:0.656901 2:0.0328459 3:0.556963 4:0.465672 
1 1:0.214346 2:0.0520453 3:0.145503 4:-0.0328657 
1 1:0.417241 2:0.052032 3:0.371909 4:-0.18621 
1 1:0.111154 2:0.0567555 3:-0.517081 4:-0.701797 
1 1:-0.0635921 2:0.0968715 3:-0.506728 4:-0.590837 
1 1:-0.240331 2:0.0485504 3:-0.835115 4:-0.92912 
1 1:0.246622 2:0.0520453 3:-0.029265 4:-0.344673 
1 1:0.0921223 2:0.0532515 3:0.124037 4:-0.386564 
1 1:0.161643 2:-0.0269273 3:0.34988 4:-0.151857 
1 1:0.324479 2:0.0520453 3:0.647406 4:0.752489 
1 1:0.00926906 2:0.0779591 3:-0.0594978 4:-0.404691 
1 1:-0.160257 2:0.0616341 3:-0.748296 4:-0.71981 
1 1:-0.0252538 2:0.097891 3:-0.673355 4:-0.749109 
1 1:0.142364 2:0.0520453 3:-0.299361 4:-0.437746 
1 1:0.19553 2:0.045729 3:0.0216316 4:-0.130775 
1 1:0.122877 2:0.0978802 3:0.271722 4:-0.0410794 
1 1:-0.00771879 2:0.0916686 3:-0.614632 4:-0.913921 
1 1:0.0666161 2:0.0393799 3:-0.113509 4:-0.336479 
1 1:-0.0939933 2:0.0283292 3:-0.524886 4:-0.657557 
1 1:0.0605127 2:0.0621613 3:-0.00115324 4:-0.35913 
1 1:0.150073 2:0.0827691 3:-0.426834 4:-0.679043 
1 1:0.0591041 2:0.0520453 3:-0.478074 4:-0.480148 
1 1:-0.045321 2:0.0870524 3:-0.600275 4:-1 
1 1:0.0756116 2:0.0524693 3:-0.607919 4:-0.69455 
1 1:0.0479705 2:0.0910556 3:-0.594147 4:-0.668649 
1 1:0.0539143 2:0.0580564 3:-0.343181 4:-0.389965 
1 1:0.0915181 2:0.0559706 3:-0.237678 4:-0.318082 
1 1:0.0577395 2:0.0652086 3:-0.32789 4:-0.478479 
1 1:0.042652 2:0.0628154 3:-0.404329 4:-0.352882 
1 1:0.126057 2:0.0230982 3:-0.235651 4:-0.452779 
1 1:0.0780184 2:0.0572662 3:-0.427702 4:-0.587002 
1 1:0.17278 2:0.0667386 3:0.184664 4:0.0613769 
1 1:-0.0884648 2:0.0825817 3:-0.438328 4:-0.701229 
1 1:0.150863 2:0.0520453 3:-0.31824 4:-0.238892 
1 1:0.0554401 2:0.0720397 3:-0.612154 4:-0.76186 
1 1:0.124491 2:0.0898615 3:-0.207911 4:-0.446101 
1 1:-0.0418736 2:0.0735371 3:-0.370915 4:-0.474364 
1 1:0.220332 2:0.0854018 3:0.126848 4:-0.219786 
1 1:-0.0474445 2:0.0520453 3:-0.670817 4:-0.790727 
1 1:-0.0841267 2:0.0907898 3:-0.756454 4:-0.948237 
1 1:0.173481 2:0.0328763 3:0.146192 4:-0.175691 
1 1:-0.161604 2:0.0648928 3:-0.832828 4:-0.837212 
1 1:0.0604964 2:0.0783404 3:-0.713296 4:-0.70036 
1 1:0.0957765 2:0.0520453 3:-0.243523 4:-0.266344 
1 1:0.168195 2:0.0575315 3:-0.09112 4:-0.41433 
1 1:-0.0432692 2:-0.121159 3:-0.39622 4:-0.430924 
1 1:-0.0868445 2:0.0233476 3:-0.560095 4:-0.661126 
1 1:0.0370551 2:0.0236621 3:-0.594444 4:-0.530381 
1 1:0.122071 2:-0.0386026 3:-0.379448 4:-0.466186 
1 1:0.152376 2:0.0715519 3:-0.0491274 4:-0.267079 
1 1:-0.041289 2:0.061303 3:-0.604297 4:-0.710333 
1 1:0.09002 2:0.0534094 3:-0.377537 4:-0.616898 
1 1:-0.0613302 2:0.034135 3:-0.205853 4:-0.422516 
1 1:0.135491 2:0.0848921 3:-0.530118 4:-0.631041 
1 1:-0.0653052 2:0.102296 3:-0.589282 4:-0.746234 
1 1:0.25996 2:0.0074978 3:0.0122132 4:0.147044 
1 1:0.126165 2:0.0937497 3:-0.105214 4:-0.304696 
1 1:0.369111 2:0.0630165 3:0.254705 4:0.157938 
1 1:-0.0791176 2:0.0673058 3:-0.701498 4:-0.662424 
1 1:0.031266 2:0.0520453 3:-0.526191 4:-0.581015 
1 1:0.0790345 2:-0.0335939 3:-0.506924 4:-0.61892 
1 1:-0.21193 2:0.0286213 3:-0.497337 4:-0.722036 
1 1:0.15457 2:0.0782616 3:-0.263756 4:-0.36295 
1 1:0.290435 2:0.0109086 3:0.192822 4:0.129126 
1 1:0.0145143 2:0.104499 3:0.554576 4:0.175515 
1 1:-0.0181668 2:0.0711256 3:-0.303446 4:-0.371045 
1 1:-0.16514 2:0.0987131 3:-0.382024 4:-0.505129 
1 1:0.180405 2:0.0520453 3:-0.32159 4:-0.37436 
1 1:-0.016159 2:0.0765675 3:-0.207981 4:-0.462632 
1 1:0.106021 2:0.0759276 3:-0.486648 4:-0.426932 
1 1:0.1294 2:-0.00285825 3:-0.233768 4:-0.485891 
1 1:0.0149849 2:-0.0230061 3:-0.0826886 4:-0.255809 
1 1:-0.0809903 2:0.0938792 3:-0.680106 4:-0.816276 
1 1:0.0240813 2:0.0950038 3:-0.460154 4:-0.611141 
1 1:0.00626297 2:-0.0473813 3:-0.468064 4:-0.549669 
1 1:-0.0329921 2:0.095968 3:-0.626003 4:-0.76058 
1 1:-0.16922 2:-0.017437 3:-0.628303 4:-0.662129 
1 1:0.0802852 2:0.076393 3:-0.440407 4:-0.601248 
1 1:-0.0644144 2:0.045675 3:-0.642842 4:-0.686019 
1 1:0.139458 2:0.0827598 3:-0.468865 4:-0.676591 
1 1:-0.0164765 2:-0.0152565 3:-0.368654 4:-0.510981 
1 1:-0.00612129 2:0.0783554 3:0.180793 4:-0.230932 
1 1:0.0213944 2:0.0520453 3:-0.782109 4:-0.858201 
1 1:-0.0504082 2:0.0735609 3:-0.473401 4:-0.716886 
1 1:0.017846 2:0.0496593 3:-0.40819 4:-0.629705 
1 1:0.121706 2:-0.00928393 3:-0.302504 4:-0.344452 
1 1:0.26884 2:0.0673 3:-0.211778 4:-0.118941 
1 1:0.0148383 2:0.0581407 3:-0.682594 4:-0.787879 
1 1:-0.0134427 2:0.102196 3:-0.440526 4:-0.476711 
1 1:0.0535414 2:0.0797586 3:-0.0249706 4:-0.10435 
1 1:0.0617373 2:0.0693216 3:-0.773856 4:-0.721599 
1 1:-0.102624 2:-0.0777898 3:-0.360219 4:-0.603807 
1 1:0.179547 2:0.0528885 3:-0.00569271 4:-0.512071 
1 1:0.0370974 2:0.0490714 3:-0.513367 4:-0.51268 
1 1:-0.102561 2:-0.16321 3:-0.255766 4:-0.657564 
1 1:-0.0722537 2:0.068568 3:-0.748338 4:-0.748987 
1 1:-0.03436 2:0.0962696 3:-0.0423549 4:-0.557129 
1 1:0.0321111 2:0.0942321 3:-0.610677 4:-0.77413 
1 1:0.0477246 2:0.0327727 3:-0.123029 4:-0.274953 
1 1:0.124119 2:0.05345 3:-0.278103 4:-0.57983 
1 1:0.0559531 2:0.0813266 3:-0.507214 4:-0.591485 
1 1:-0.0339431 2:0.0603828 3:-0.425266 4:-0.334854 
1 1:0.144436 2:0.0529535 3:-0.237608 4:-0.498553 
1 1:0.0386347 2:0.0717668 3:-0.575912 4:-0.671389 
1 1:0.0848529 2:0.081925 3:-0.330322 4:-0.435064 
1 1:0.144429 2:0.0748055 3:-0.304762 4:-0.522718 
1 1:0.395485 2:0.00691809 3:1 4:1 
1 1:-0.0794775 2:0.083482 3:-0.501562 4:-0.768442 
1 1:-0.0616949 2:0.0854825 3:-0.641484 4:-0.860829 
1 1:0.125748 2:0.0490704 3:0.0121152 4:-0.0107326 
1 1:-0.0300968 2:0.0949994 3:-0.225977 4:-0.295265 
1 1:0.0813127 2:0.0520453 3:-0.413002 4:-0.586283 
1 1:0.134374 2:0.0658458 3:-0.228123 4:-0.432407 
1 1:0.0948157 2:0.0272781 3:-0.322713 4:-0.356618 
0.5725046698087191 1:0.154172 2:0.0870097 3:-0.364993 4:-0.692317 
1 1:0.0250079 2:0.0932364 3:-0.522845 4:-0.587614 
1 1:-0.00304518 2:0.0065572 3:-0.229022 4:-0.457438 
1 1:0.0222689 2:0.0552196 3:-0.341064 4:-0.270999 
1 1:0.0590406 2:0.0728071 3:-0.608042 4:-0.699099 
1 1:-0.0192611 2:0.0819911 3:-0.424856 4:-0.838895 
1 1:0.176218 2:0.0711364 3:-0.61985 4:-0.645412 
1 1:0.153817 2:0.0834243 3:-0.373855 4:-0.521964 
0.7371678682509734 1:0.191455 2:0.0930156 3:-0.033052 4:0.0373381 
1 1:0.120999 2:0.0613072 3:-0.194593 4:-0.152622 
1 1:-0.0423051 2:0.0916549 3:-0.473212 4:-0.468324 
1 1:0.15775 2:0.0549534 3:0.0985435 4:-0.418805 
1 1:-0.00220165 2:0.0685065 3:-0.543807 4:-0.725652 
1 1:0.22527 2:0.0702301 3:-0.154151 4:-0.145652 
1 1:-0.282743 2:-0.0915682 3:-0.680372 4:-0.623042 
1 1:-0.0609817 2:0.0750585 3:-0.162946 4:-0.436274 
1 1:0.240157 2:0.057914 3:-0.300415 4:-0.212551 
1 1:0.228435 2:0.0616088 3:-0.132609 4:-0.352242 
1 1:-0.0830617 2:0.0552391 3:-0.479096 4:-0.609306 
1 1:0.0966884 2:0.083046 3:-0.216853 4:-0.338898 
1 1:0.108162 2:0.0467914 3:-0.545504 4:-0.7107 
1 1:0.0874763 2:0.0686604 3:-0.543124 4:-0.705064 
1 1:0.233103 2:0.0816254 3:0.135003 4:-0.0668757 
1 1:0.104391 2:0.0952396 3:0.0601278 4:-0.193673 
1 1:-0.131674 2:-0.0292914 3:-0.563571 4:-0.804517 
1 1:0.0997922 2:0.0582798 3:-0.353587 4:-0.644746 
1 1:0.294499 2:-0.00273247 3:0.670621 4:0.188313 
1 1:0.0625873 2:0.0625654 3:-0.155565 4:-0.2889 
1 1:0.016426 2:0.0797467 3:0.0388024 4:-0.561931 
1 1:0.0146722 2:0.0794833 3:-0.477496 4:-0.78581 
1 1:0.0592099 2:0.0928871 3:-0.276923 4:-0.189934 
1 1:0.158751 2:-0.0714247 3:-0.0458304 4:-0.232192 
1 1:0.0787675 2:0.0520453 3:-0.215495 4:-0.301919 
1 1:0.151049 2:0.0653619 3:-0.230177 4:-0.248317 
1 1:-0.0905199 2:0.0856764 3:-0.401879 4:-0.391896 
1 1:0.0442918 2:0.0885446 3:-0.513647 4:-0.48927 
1 1:-0.114997 2:0.0882453 3:-0.574253 4:-0.915681 
1 1:0.157012 2:0.0674425 3:-0.173373 4:-0.485624 
1 1:0.09222 2:0.0984439 3:0.0484064 4:-0.292308 
1 1:0.076232 2:0.0715631 3:-0.102393 4:-0.417769 
1 1:0.00288722 2:0.10622 3:-0.10701 4:-0.36528 
0.04554730842067572 1:0.0059096 2:0.10201 3:-0.404123 4:-0.631335 
1 1:-0.0590846 2:0.0438736 3:-0.416968 4:-0.469974 
1 1:0.0724329 2:0.0524613 3:-0.0498449 4:-0.124152 
1 1:-0.116407 2:0.0698904 3:-0.707605 4:-0.817689 
1 1:0.0895526 2:0.0845361 3:-0.528071 4:-0.657568 
1 1:0.32359 2:-0.029074 3:-0.129679 4:-0.135581 
1 1:0.000485274 2:0.0520453 3:-0.727443 4:-0.692473 
1 1:0.0571451 2:0.0608784 3:-0.636216 4:-0.710658 
1 1:0.228336 2:0.0217095 3:-0.208481 4:-0.564002 
1 1:-0.281695 2:-0.110612 3:-0.712554 4:-0.713607 
1 1:0.0546031 2:0.0932917 3:-0.70063 4:-0.795987 
1 1:-0.00614083 2:0.000268252 3:-0.249119 4:-0.419452 
1 1:0.129654 2:0.0568427 3:-0.350346 4:-0.416081 
1 1:0.18494 2:0.0821308 3:0.10254 4:-0.213235 
1 1:-0.14562 2:0.0549748 3:-0.901696 4:-0.813409 
1 1:0.0257863 2:0.078127 3:-0.396615 4:-0.623234 
1 1:0.0448553 2:-0.0157486 3:-0.563459 4:-0.738238 
1 1:0.180346 2:0.064365 3:-0.62636 4:-0.642892 
1 1:-0.0469983 2:0.038823 3:-0.564446 4:-0.581159 
1 1:0.011728 2:0.0562223 3:-0.0989635 4:-0.151182 
1 1:0.0497894 2:0.0710767 3:-0.447491 4:-0.546483 
1 1:0.184091 2:-0.00255942 3:0.263816 4:0.313097 
1 1:0.253355 2:0.0520453 3:0.708008 4:0.843653 
1 1:0.181108 2:0.0520453 3:-0.030728 4:-0.136592 
1 1:-0.0160824 2:-0.107556 3:-0.270924 4:-0.205574 
1 1:0.0265468 2:0.069193 3:-0.0642753 4:-0.290544 
1 1:0.0545152 2:0.0530395 3:-0.398981 4:-0.324086 
1 1:0.0651928 2:0.0697605 3:-0.405712 4:-0.362147 
1 1:-0.085988 2:0.0156346 3:-0.370274 4:-0.687875 
-1 1:0.0443521 2:0.0946516 3:-0.339821 4:-0.649089 
-1 1:0.238595 2:-0.0561909 3:-0.272573 4:-0.572797 
-1 1:-0.0351449 2:0.0254256 3:-0.467441 4:-0.459583 
-1 1:0.0646359 2:-0.0200284 3:-0.435391 4:-0.593484 
-1 1:0.0994844 2:-0.0180394 3:0.137691 4:0.0847034 
-1 1:-0.264992 2:-0.0173124 3:-0.86903 4:-1 
-1 1:0.314091 2:-0.0262851 3:-0.035677 4:-0.048665 
-1 1:-0.0456695 2:0.0138517 3:-0.381317 4:-0.609394 
-1 1:-0.0462101 2:0.0264466 3:-0.603156 4:-0.741163 
-1 1:0.170273 2:-0.0518632 3:0.163314 4:-0.273591 
-1 1:0.0436861 2:0.0787358 3:-0.259609 4:-0.464509 
-1 1:0.1491 2:0.0933129 3:0.0943365 4:-0.28638 
-1 1:0.224047 2:-0.0422059 3:0.164472 4:-0.0880723 
-1 1:-0.045264 2:0.0603715 3:-0.665637 4:-0.662605 
-1 1:-0.0377944 2:0.0520453 3:-0.656495 4:-0.820031 
-1 1:0.246148 2:0.205654 3:-0.649082 4:-0.738664 
-1 1:0.240167 2:0.018386 3:-0.038043 4:-0.290194 
-1 1:0.170461 2:-0.00939455 3:0.270669 4:0.175947 
-1 1:-0.046544 2:-0.0483758 3:-0.367058 4:-0.538634 
-1 1:-0.0347394 2:-0.023377 3:-0.566871 4:-0.479116 
-1 1:0.0758086 2:0.00594665 3:-0.624985 4:-0.782486 
-1 1:0.0930749 2:0.0317536 3:0.474731 4:0.166461 
-1 1:0.161549 2:0.0950916 3:0.283836 4:0.598185 
-1 1:0.0438163 2:0.283614 3:-0.752244 4:-0.767333 
-1 1:0.298725 2:0.094314 3:-0.461701 4:-0.695846 
-1 1:-0.100986 2:0.000780033 3:-0.672679 4:-0.731867 
-1 1:0.116068 2:-0.0194739 3:-0.028369 4:0.0756932 
-1 1:-0.209383 2:0.0569229 3:-0.691834 4:-0.855487 
-1 1:0.0347655 2:-0.0274662 3:-0.387897 4:-0.591232 
-1 1:0.0472833 2:0.0896355 3:-0.137698 4:-0.392265 
-1 1:-0.0957341 2:-0.0142521 3:-0.662512 4:-0.783333 
-1 1:0.468368 2:0.0325089 3:0.571127 4:0.467902 
-1 1:-0.199759 2:0.0520453 3:-0.880981 4:-1 
-1 1:0.0852454 2:0.0520453 3:0.227251 4:-0.140217 
-1 1:0.189905 2:0.0519892 3:-0.00343172 4:-0.267221 
-1 1:0.134271 2:0.0188221 3:-0.324929 4:-0.294938 
-1 1:-0.00284162 2:-0.0161374 3:-0.443634 4:-0.628776 
-1 1:-0.0215963 2:0.0322428 3:-0.360429 4:-0.42375 
-1 1:0.115689 2:0.0807216 3:-0.416124 4:-0.33696 
-1 1:-0.235819 2:-0.0364171 3:-0.854832 4:-0.849442 
-1 1:-0.0488808 2:0.00690841 3:-0.39483 4:-0.525122 
-1 1:-0.158021 2:-0.0117991 3:-0.825434 4:-0.879506 
-1 1:-0.0555492 2:0.025882 3:-0.626462 4:-0.758462 
-1 1:0.0920897 2:-0.0175953 3:-0.382538 4:-0.54868 
-1 1:0.183206 2:0.00750544 3:-0.227587 4:-0.29337 
-1 1:0.196256 2:0.17529 3:-0.0586053 4:-0.292426 
-1 1:0.0365861 2:-0.0442808 3:-0.481773 4:-0.62297 
-1 1:0.268111 2:-0.039251 3:0.038687 4:-0.378681 
-1 1:-0.111253 2:0.130988 3:-0.651588 4:-0.908055 
-1 1:-0.0618708 2:-0.0510008 3:-0.644284 4:-0.837437 
-1 1:-0.0940601 2:-0.00481426 3:-0.591427 4:-0.749248 
-1 1:-0.0249493 2:-0.0438288 3:-0.216003 4:-0.434858 
-1 1:0.136455 2:0.0520453 3:-0.30473 4:-0.489203 
-1 1:0.0962097 2:0.0553576 3:-0.363652 4:-0.63196 
-1 1:0.0957569 2:-0.0226712 3:-0.391712 4:-0.561742 
-1 1:0.017167 2:-0.0100694 3:-0.264232 4:-0.347055 
-1 1:-0.087561 2:-0.00895005 3:-0.621131 4:-0.781789 
-1 1:0.0794319 2:-0.00589351 3:-0.513616 4:-0.719698 
-1 1:0.00460359 2:0.0520453 3:-0.319231 4:-0.691838 
-1 1:-0.0200916 2:0.03992 3:-0.356985 4:-0.608793 
-1 1:0.19894 2:-0.0047982 3:0.279678 4:0.461223 
-1 1:0.169367 2:-0.0418906 3:-0.263585 4:-0.455142 
-1 1:-0.15513 2:-0.0205146 3:-0.509972 4:-0.599047 
-1 1:0.552195 2:0.377086 3:0.114986 4:-0.0984709 
-1 1:0.0878118 2:-0.0212594 3:-0.309315 4:-0.418469 
-1 1:-0.0397501 2:0.0386861 3:-0.513885 4:-0.710232 
-1 1:0.18926 2:-0.00189318 3:-0.0454874 4:0.00169554 
-1 1:0.217277 2:0.00983305 3:-0.273073 4:-0.298763 
-1 1:0.109936 2:-0.00956506 3:0.24661 4:0.0190982 
-1 1:0.1914 2:0.00117024 3:-0.12466 4:-0.426284 
-1 1:0.0519048 2:0.0470859 3:-0.275982 4:-0.351556 
-1 1:0.219347 2:-0.0149677 3:0.109008 4:0.0926848 
-1 1:0.00305495 2:-0.00744555 3:-0.356323 4:-0.825423 
-1 1:0.410066 2:0.0336892 3:0.211743 4:0.215977 
-1 1:0.109094 2:-0.0431153 3:0.155733 4:0.154603 
-1 1:-0.00291327 2:0.0178681 3:-0.350024 4:-0.666106 
-1 1:0.129519 2:-0.0188235 3:-0.256935 4:-0.200731 
-1 1:-0.174198 2:-0.025357 3:-0.253676 4:-0.309263 
-1 1:-0.00141023 2:-0.0279959 3:-0.422875 4:-0.680552 
-1 1:0.154443 2:0.00261294 3:-0.388485 4:-0.508479 
-1 1:0.127875 2:-0.015804 3:-0.516657 4:-0.61102 
-0.1858395360434008 1:0.145265 2:-0.0617349 3:-0.00359972 4:-0.201022 
-1 1:0.154219 2:-0.021592 3:-0.277627 4:-0.514999 
-1 1:-0.00149165 2:-0.00788635 3:-0.564281 4:-0.591222 
-1 1:-0.120219 2:-0.0377296 3:-0.32411 4:-0.457478 
-1 1:0.143157 2:0.0520453 3:-0.676722 4:-0.807703 
-1 1:-0.0035679 2:0.0043221 3:-0.416765 4:-0.489816 
-1 1:0.238994 2:-0.0504115 3:-0.0887646 4:-0.169947 
-1 1:0.24612 2:-0.0337451 3:-0.0938185 4:-0.32872 
-1 1:0.243065 2:-0.0526436 3:-0.185668 4:-0.212 
-1 1:-0.05566 2:0.0305696 3:-0.667853 4:-0.696221 
-1 1:0.170957 2:0.0520453 3:-0.530605 4:-0.667776 
-1 1:0.0967682 2:-0.0544132 3:-0.530692 4:-0.605229 
-1 1:-0.265005 2:0.0182086 3:-0.842502 4:-0.952829 
-1 1:-0.236949 2:-0.0197177 3:-0.676956 4:-0.668283 
-1 1:-0.185559 2:0.004081 3:-0.740831 4:-0.925817 
-1 1:0.0598157 2:-0.011903 3:-0.31495 4:-0.554748 
-1 1:-0.128998 2:-0.0356451 3:-0.800159 4:-0.824623 
-1 1:0.109371 2:0.0388575 3:-0.389507 4:-0.543968 
-1 1:-0.0190055 2:0.00805036 3:-0.126638 4:-0.181161 
-1 1:0.170313 2:-0.0459981 3:0.0853101 4:-0.283034 
-1 1:-0.0137245 2:-0.010963 3:-0.41997 4:-0.605191 
-1 1:-0.160234 2:0.0687279 3:-0.83139 4:-0.938723 
-1 1:0.0319564 2:-0.0258824 3:-0.0289815 4:-0.100161 
-1 1:0.031748 2:0.0304731 3:-0.552829 4:-0.704535 
-1 1:-0.0915654 2:-0.00296542 3:-0.444008 4:-0.628094 
-1 1:0.201208 2:-0.00504288 3:-0.120114 4:-0.50245 
-1 1:0.134887 2:0.161844 3:-0.494296 4:-0.615231 
-1 1:-0.190217 2:-0.00554612 3:-0.604699 4:-0.91287 
-1 1:0.173725 2:-0.0113878 3:-0.419382 4:-0.625637 
-1 1:0.0634797 2:0.238696 3:-0.656443 4:-0.712527 
-1 1:0.418614 2:0.0520453 3:-0.0572963 4:-0.429422 
-1 1:-0.0685995 2:0.0338673 3:-0.736736 4:-0.766609 
-1 1:0.191172 2:-0.0486692 3:-0.335943 4:-0.569855 
-1 1:-0.00693551 2:0.0674653 3:-0.338351 4:-0.614489 
-1 1:0.22952 2:-0.0616482 3:0.0483854 4:0.145974 
-1 1:-0.0256837 2:0.0379326 3:-0.596989 4:-0.715424 
-1 1:-0.107356 2:-0.0138224 3:-0.433764 4:-0.571747 
-1 1:0.212524 2:0.0387307 3:-0.297149 4:-0.39153 
-1 1:-0.00592099 2:0.0171031 3:-0.0409129 4:-0.0153439 
-1 1:-0.146529 2:0.0782917 3:-0.637452 4:-1 
-1 1:0.0250975 2:-0.000382179 3:-0.629412 4:-0.76421 
-1 1:0.182204 2:-0.00147124 3:-0.211621 4:-0.331419 
-1 1:0.312197 2:0.0525146 3:0.434856 4:0.63442 
-1 1:0.176373 2:0.0022579 3:-0.333962 4:-0.593476 
-1 1:0.148287 2:0.00166724 3:-0.432161 4:-0.512438 
-1 1:-0.0735614 2:-0.0225367 3:-0.620816 4:-0.75778 
-1 1:-0.127588 2:0.176311 3:-0.889875 4:-0.878198 
-1 1:0.122162 2:-0.0361092 3:-0.313466 4:-0.25537 
-1 1:-0.0374345 2:0.044033 3:-0.142997 4:-0.540795 
-1 1:-0.119716 2:0.0473697 3:-0.758621 4:-1 
-1 1:0.391486 2:0.418203 3:-0.330581 4:-0.389646 
-1 1:0.0135258 2:0.090162 3:-0.453885 4:-0.744889 
-1 1:0.120402 2:0.0245157 3:-0.156118 4:-0.200739 
-1 1:-0.0384653 2:-0.0331112 3:-0.386378 4:-0.405634 
-1 1:-0.127969 2:-0.0256812 3:-0.484692 4:-0.923223 
-1 1:0.149015 2:-0.0489293 3:-0.307933 4:-0.369776 
-1 1:0.128578 2:0.02463 3:-0.343923 4:-0.438401 
-1 1:0.320121 2:0.00590294 3:0.261866 4:0.153832 
-1 1:0.105386 2:0.121073 3:-0.441964 4:-0.624786 
-1 1:0.00146559 2:0.0473582 3:-0.511404 4:-0.508705 
-1 1:-0.201029 2:-0.00966369 3:-0.602774 4:-0.79021 
-1 1:0.0265142 2:-0.0481861 3:-0.529089 4:-0.534605 
-1 1:0.0767971 2:-0.0433905 3:-0.130012 4:-0.306512 
-1 1:0.0674059 2:-0.00279492 3:-0.320312 4:-0.621511 
-1 1:0.125772 2:-0.0563776 3:-0.390039 4:-0.353402 
-1 1:0.255375 2:-0.0684833 3:-0.0970455 4:0.00563545 
-1 1:0.0322968 2:-0.0241868 3:-0.332398 4:-0.347069 
-1 1:0.137826 2:-0.0207028 3:0.155047 4:-0.273672 
-1 1:-0.127997 2:0.0520453 3:-0.682759 4:-0.782738 
-1 1:0.111696 2:-0.0300697 3:0.265993 4:-0.0552194 
-1 1:0.0825552 2:-0.0377001 3:-0.236008 4:-0.382435 
-1 1:0.184479 2:0.0322269 3:0.0729762 4:0.128592 
-1 1:0.0723693 2:-0.00584649 3:-0.515548 4:-0.65521 
-1 1:-0.23174 2:0.0174763 3:-0.698589 4:-0.939467 
-1 1:0.176765 2:-0.0502743 3:-0.191296 4:-0.271848 
-1 1:0.029859 2:-0.00553414 3:-0.486645 4:-0.499707 
-1 1:0.10122 2:0.0615695 3:-0.474381 4:-0.594806 
-1 1:0.191765 2:0.0725846 3:-0.167923 4:-0.195785 
-1 1:-0.162013 2:0.0520453 3:-0.855471 4:-0.872873 
-1 1:-0.00303378 2:0.0370906 3:-0.551657 4:-0.611747 
-1 1:0.0452901 2:0.0152074 3:-0.561019 4:-0.731539 
-1 1:0.00137603 2:-0.0353056 3:-0.41758 4:-0.564151 
-1 1:0.121283 2:0.0393547 3:-0.198009 4:-0.657042 
-1 1:-0.0972063 2:-0.00302162 3:-0.201397 4:-0.391302 
-1 1:-0.0493905 2:0.132444 3:-0.174969 4:-0.550387 
-1 1:0.188858 2:-0.0166637 3:-0.353846 4:-0.529243 
-1 1:0.14938 2:0.108705 3:-0.160003 4:-0.470462 
-1 1:0.0757923 2:0.014068 3:-0.0952325 4:-0.0902361 
-1 1:0.029973 2:-0.0413597 3:-0.092016 4:-0.206613 
-1 1:0.0360357 2:-0.0453857 3:-0.611199 4:-0.674845 
-1 1:0.0972144 2:-0.0441323 3:-0.340927 4:-0.391105 
-1 1:0.089139 2:-0.0168731 3:-0.460973 4:-0.367854 
-1 1:-0.298382 2:-0.0150458 3:-0.803627 4:-0.884358 
-1 1:0.0550607 2:0.0466302 3:-0.0951205 4:-0.389977 
-1 1:0.0514684 2:-0.0159937 3:-0.172193 4:-0.429866 
-1 1:-0.221244 2:0.0699172 3:-0.897049 4:-0.963624 
-1 1:-0.0417906 2:0.00908934 3:-0.483254 4:-0.797292 
-1 1:-0.273271 2:-0.0236736 3:-0.816435 4:-1 
-1 1:0.161271 2:-0.0496275 3:0.0978715 4:-0.00352887 
-1 1:0.166752 2:0.0386122 3:-0.309896 4:-0.536952 
-1 1:0.0439662 2:-0.027246 3:-0.574109 4:-0.706833 
-1 1:-0.159534 2:0.0141244 3:-0.573945 4:-0.800088 
-1 1:0.0581563 2:-0.00804004 3:-0.270627 4:-0.306226 
-1 1:0.0752712 2:-0.00318907 3:-0.53225 4:-0.701797 
-1 1:-0.247402 2:0.0388779 3:-0.837771 4:-0.92912 
-1 1:0.212949 2:-0.0380423 3:0.273472 4:0.0987137 
-1 1:0.0304713 2:-0.0476934 3:-0.34379 4:-0.507866 
-1 1:0.189845 2:-0.0288741 3:-0.468106 4:-0.493244 
-1 1:0.0775233 2:-0.0027289 3:-0.0716707 4:-0.165016 
-1 1:0.235333 2:-0.0228034 3:0.139315 4:0.138733 
-1 1:-0.190637 2:0.0385615 3:-0.751999 4:-0.713255 
-1 1:-0.0506949 2:-0.0413358 3:-0.506766 4:-0.912982 
-1 1:0.280988 2:0.315187 3:-0.491611 4:-0.617397 
-1 1:-0.103303 2:0.133094 3:-0.615454 4:-1 
-1 1:0.271534 2:0.0108659 3:0.0755697 4:0.0670018 
-1 1:0.155398 2:0.0520453 3:-0.299361 4:-0.437746 
-1 1:0.417634 2:0.0166567 3:0.191531 4:0.0202717 
-1 1:0.192224 2:0.00908539 3:-0.225106 4:-0.500138 
-1 1:-0.208807 2:0.0238183 3:-0.797135 4:-0.932227 
-1 1:-0.0933192 2:0.0518167 3:-0.739088 4:-0.933321 
-1 1:-0.0788554 2:-0.0223521 3:0.120992 4:-0.122125 
-1 1:0.0269767 2:-0.0315928 3:0.339975 4:-0.0688737 
-1 1:0.0571858 2:0.0419294 3:-0.00393222 4:-0.35913 
-1 1:-0.0433066 2:-0.0298385 3:-0.429445 4:-0.628851 
-1 1:0.11772 2:0.0167715 3:-0.436522 4:-0.679043 
-1 1:0.064846 2:0.0520453 3:-0.478074 4:-0.480148 
-1 1:-0.11648 2:-0.00121523 3:-0.614901 4:-1 
-1 1:0.0281524 2:0.0544575 3:-0.471546 4:-0.712995 
-1 1:0.014739 2:0.013035 3:-0.604864 4:-0.668649 
-1 1:-0.00559856 2:-0.0452085 3:-0.369893 4:-0.389965 
-1 1:0.000887498 2:0.0364266 3:-0.411578 4:-0.284018 
-1 1:0.125867 2:-0.00977889 3:-0.0862971 4:-0.0779107 
-1 1:0.125246 2:-0.0158851 3:0.166009 4:0.0549812 
-1 1:0.0575033 2:0.00149711 3:-0.276566 4:-0.0535192 
-1 1:-0.121592 2:-0.00243364 3:-0.45329 4:-0.701229 
-1 1:0.114544 2:-0.0559385 3:-0.255335 4:-0.540054 
-1 1:0.100755 2:0.0142291 3:-0.218295 4:-0.461217 
-1 1:-0.00623203 2:0.0305536 3:-0.376819 4:-0.486671 
-1 1:0.171694 2:0.0648671 3:-0.11206 4:-0.1203 
-1 1:0.19637 2:0.0186888 3:0.117688 4:-0.219786 
-1 1:-0.245321 2:0.0562127 3:-0.693934 4:-1 
-1 1:-0.0474445 2:0.0520453 3:-0.670817 4:-0.790727 
-1 1:0.244933 2:0.00871786 3:0.221652 4:0.0717661 
-1 1:0.131672 2:-0.0621154 3:-0.0846766 4:-0.393047 
-1 1:-0.169067 2:0.0391978 3:-0.836357 4:-0.837212 
-1 1:0.0329286 2:0.0257503 3:-0.720517 4:-0.70036 
-1 1:0.0854734 2:0.0520453 3:-0.243523 4:-0.266344 
-1 1:0.0606707 2:0.0826867 3:-0.348648 4:-0.36973 
-1 1:0.137342 2:0.0325388 3:-0.0544858 4:-0.267079 
-1 1:-0.0631622 2:0.031368 3:-0.609974 4:-0.710333 
-1 1:0.018828 2:-0.0553757 3:-0.407042 4:-0.612486 
-1 1:-0.0413818 2:0.012941 3:-0.211677 4:-0.439294 
-1 1:0.434091 2:-0.00423838 3:0.0645622 4:-0.0408809 
-1 1:0.239144 2:-0.0635158 3:-0.00729219 4:0.147044 
-1 1:0.364933 2:0.0410741 3:0.251692 4:0.122921 
-1 1:-0.101727 2:-0.00416294 3:-0.716936 4:-0.706431 
-1 1:-0.204266 2:-0.0123504 3:-0.710055 4:-1 
-1 1:0.162279 2:0.0176554 3:-0.250565 4:-0.485564 
-1 1:-0.166076 2:-0.0121136 3:-0.805626 4:-0.842508 
-1 1:0.0769794 2:-0.0560786 3:-0.513098 4:-0.608721 
-1 1:-0.221562 2:0.00677154 3:-0.50334 4:-0.722036 
-1 1:0.324684 2:0.00292299 3:0.145002 4:-0.134937 
-1 1:0.300686 2:0.093182 3:0.20412 4:0.129126 
-1 1:-0.0304746 2:0.032965 3:-0.308685 4:-0.371045 
-1 1:0.1862 2:0.0520453 3:-0.32159 4:-0.37436 
-1 1:0.180745 2:-0.0405463 3:0.531921 4:0.320874 
-1 1:-0.0285139 2:0.0275231 3:-0.214715 4:-0.462632 
-1 1:0.0356888 2:-0.00991984 3:-0.267732 4:-0.415574 
-1 1:-0.126049 2:-0.0278165 3:-0.557761 4:-0.900168 
-1 1:0.0826431 2:0.127097 3:-0.0620738 4:-0.271439 
-1 1:-0.089849 2:0.0102114 3:-0.691596 4:-0.821984 
-1 1:0.436035 2:0.0320047 3:-0.196984 4:-0.308075 
-1 1:0.308958 2:-0.00498642 3:-0.324127 4:-0.486162 
-1 1:-0.079922 2:0.00812261 3:-0.638068 4:-0.76058 
-1 1:0.108858 2:-0.0426979 3:-0.53919 4:-0.720783 
-1 1:0.210184 2:-0.0639544 3:-0.0609083 4:-0.354781 
-0.7300123910792455 1:-0.183745 2:-0.0406554 3:-0.622766 4:-0.897113 
-1 1:-0.175544 2:-0.017437 3:-0.630245 4:-0.662129 
-1 1:0.0728318 2:0.141157 3:-0.51364 4:-0.710392 
-1 1:-0.0785851 2:-0.0315005 3:-0.573262 4:-0.823672 
-1 1:0.111396 2:0.00804322 3:-0.396545 4:-0.488043 
-1 1:0.118084 2:0.0213308 3:-0.4773 4:-0.676591 
-1 1:-0.168594 2:0.0813742 3:-0.865289 4:-1 
-1 1:0.00863234 2:0.0389075 3:-0.686203 4:-0.787879 
-1 1:0.321764 2:0.00368595 3:0.214246 4:0.10262 
-1 1:0.273905 2:0.248076 3:-0.168088 4:-0.460172 
-1 1:-0.0702621 2:-0.0307533 3:-0.690382 4:-0.762237 
-1 1:0.318073 2:-0.0222966 3:-0.379332 4:-0.484313 
-1 1:-0.138615 2:-0.0235187 3:-0.731475 4:-0.79068 
-1 1:0.0244803 2:0.236202 3:-0.913729 4:-0.912308 
-1 1:0.137626 2:-0.0111238 3:-0.118028 4:-0.168044 
-1 1:0.188426 2:0.0380426 3:-0.00953918 4:-0.512071 
-1 1:0.0718173 2:-0.00630615 3:-0.0852016 4:-0.115626 
-1 1:-0.0807607 2:-0.0184993 3:-0.0617308 4:-0.561883 
-1 1:-0.0795068 2:0.00985854 3:-0.622262 4:-0.731952 
-1 1:0.496976 2:-0.0481858 3:0.0242426 4:-0.00571602 
-1 1:0.023 2:-0.0376697 3:-0.174349 4:-0.340657 
-1 1:0.0132359 2:-0.00781193 3:-0.139469 4:-0.274953 
-1 1:0.168102 2:-0.0438976 3:0.0433314 4:-0.179985 
-1 1:0.115692 2:0.0506407 3:-0.278488 4:-0.57983 
-1 1:0.0373156 2:0.0227641 3:-0.515257 4:-0.591485 
-1 1:-0.0564204 2:-0.0297149 3:-0.447718 4:-0.336216 
-1 1:0.127834 2:0.0511371 3:-0.237856 4:-0.495451 
-1 1:0.254603 2:0.00149495 3:-0.177429 4:-0.521739 
-1 1:-0.0494116 2:0.044989 3:-0.398474 4:-0.636616 
-1 1:0.0702947 2:0.164961 3:-0.360212 4:-0.532342 
-1 1:-0.143204 2:0.0301854 3:-0.681922 4:-0.822524 
-1 1:0.403334 2:-0.0518881 3:0.983851 4:0.988638 
-1 1:0.121872 2:-0.0112887 3:0.282831 4:0.407472 
-1 1:0.223531 2:0.249598 3:0.0129341 4:-0.0469963 
-1 1:0.305343 2:-0.0516063 3:0.815999 4:0.691662 
-1 1:-0.0632827 2:-0.0173953 3:-0.245049 4:-0.295265 
-1 1:-0.0503236 2:-0.00556116 3:-0.173362 4:-0.230723 
-1 1:0.0509424 2:-0.0113676 3:-0.499661 4:-0.425205 
-1 1:0.103512 2:0.0768125 3:-0.315913 4:-0.356618 
-1 1:0.112683 2:0.0170809 3:-0.374593 4:-0.692317 
-1 1:-0.011005 2:0.0108542 3:-0.534157 4:-0.587614 
-1 1:0.0730354 2:-0.0488923 3:-0.440141 4:-0.515347 
-1 1:0.0122475 2:0.0520453 3:-0.216531 4:-0.47198 
-1 1:0.0394603 2:0.048871 3:-0.341935 4:-0.270999 
-1 1:0.16881 2:-0.0356571 3:-0.308601 4:-0.338781 
-1 1:-0.0574447 2:-0.018008 3:-0.444096 4:-0.838895 
-1 1:0.294429 2:0.116867 3:0.414952 4:0.0820818 
-1 1:0.167315 2:0.00023652 3:-0.0472829 4:0.0215516 
-1 1:0.275921 2:0.0647353 3:-0.219583 4:-0.240923 
-1 1:0.0839736 2:-0.0291316 3:-0.20174 4:-0.644485 
-1 1:-0.101551 2:-0.0175796 3:-0.492336 4:-0.486768 
-1 1:0.184828 2:-0.0202752 3:-0.174013 4:-0.148962 
-1 1:0.00904759 2:-0.0489926 3:-0.165697 4:-0.593902 
-1 1:0.235408 2:0.197189 3:0.818761 4:0.179252 
-1 1:0.230748 2:0.0461766 3:-0.302025 4:-0.212551 
-1 1:-0.0763118 2:0.0488515 3:-0.479971 4:-0.609306 
-1 1:0.0656618 2:0.0210446 3:-0.225369 4:-0.338898 
-1 1:0.0871018 2:0.0354303 3:-0.547685 4:-0.705064 
-1 1:-0.0431519 2:-0.00175708 3:-0.091792 4:-0.443668 
-1 1:0.111823 2:-0.0108803 3:0.0587943 4:-0.450711 
-1 1:0.257128 2:0.0224652 3:0.126879 4:-0.105952 
-1 1:0.0775543 2:0.00885103 3:0.0482664 4:-0.193673 
-1 1:0.0184567 2:0.0458108 3:-0.355301 4:-0.593124 
-1 1:0.383928 2:0.072279 3:0.685667 4:0.219772 
-1 1:0.091269 2:-0.0463864 3:-0.339296 4:-0.462251 
-1 1:-0.0271623 2:-0.0360473 3:-0.17976 4:-0.301158 
-1 1:-0.000936351 2:0.0243439 3:0.0311935 4:-0.561931 
-1 1:-0.0271851 2:-0.0110705 3:-0.494831 4:-0.78581 
-1 1:-0.0231759 2:0.0335056 3:-0.448912 4:-0.493484 
-1 1:0.0400172 2:-0.0415713 3:-0.469366 4:-0.639678 
-1 1:0.0779858 2:0.0520453 3:-0.215495 4:-0.301919 
-1 1:0.143441 2:0.0387287 3:-0.233835 4:-0.248317 
-1 1:-0.0904352 2:0.0184142 3:-0.411116 4:-0.433605 
-1 1:0.162749 2:-0.0187058 3:0.169015 4:0.316997 
-1 1:-0.152382 2:0.0158453 3:-0.584196 4:-0.931173 
-1 1:0.120262 2:0.0200326 3:-0.182168 4:-0.485624 
-1 1:0.0299974 2:-0.00940589 3:0.035663 4:-0.292308 
-1 1:0.0672284 2:0.0325275 3:-0.107752 4:-0.417769 
-1 1:-0.0331126 2:-0.0404196 3:-0.132406 4:-0.36528 
-1 1:0.00731819 2:0.00505537 3:-0.317558 4:-0.41464 
-1 1:0.00504327 2:-0.0161 3:-0.0685592 4:-0.124152 
-1 1:0.25034 2:-0.0620249 3:-0.0818206 4:-0.466738 
-1 1:-0.152435 2:-0.0170736 3:-0.81631 4:-0.915861 
-1 1:-0.0890136 2:-0.0299921 3:-0.749972 4:-0.7105 
-1 1:0.135957 2:-0.0274701 3:-0.485994 4:-0.530017 
-1 1:0.0226597 2:0.0525344 3:-0.234899 4:-0.42349 
-1 1:0.176794 2:0.117033 3:0.111059 4:-0.23251 
-1 1:0.203325 2:-0.021144 3:-0.405309 4:-0.52737 
-1 1:0.00130763 2:0.00761682 3:-0.408816 4:-0.623234 
-1 1:-0.15379 2:0.0482091 3:-0.675546 4:-0.919203 
-1 1:0.16798 2:0.0397256 3:-0.629745 4:-0.643953 
-1 1:0.312166 2:-0.0101516 3:0.0583043 4:-0.358865 
-1 1:0.0493074 2:-0.00877304 3:-0.517532 4:-0.507956 
-1 1:-0.138896 2:-0.0319133 3:-0.554565 4:-0.758376 
-1 1:0.253577 2:-0.0490506 3:-0.299935 4:-0.593482 
-1 1:0.00230098 2:0.0346691 3:-0.103737 4:-0.151182 
-1 1:0.014796 2:0.00521938 3:-0.46035 4:-0.596886 
-1 1:0.220612 2:0.0764896 3:0.297006 4:0.384363 
-1 1:0.181108 2:0.0520453 3:-0.030728 4:-0.136592 
-1 1:0.0513837 2:0.129675 3:-0.22709 4:-0.165887 
-1 1:0.0539224 2:0.0510511 3:-0.399254 4:-0.324086 
-1 1:0.0805278 2:-0.025425 3:-0.431856 4:-0.421428 
-1 1:-0.153948 2:-0.0387264 3:-0.629059 4:-0.722569 
-1 1:-0.0813583 2:-0.0349551 3:-0.384169 4:-0.750702 
